{"Layers":[{"Bias":[[-0.008716208676887199,0.006094582035199155]],"InputChannels":1,"Inputs":16,"Kernels":[[[-0.002623197792950765,0.005192992587018088]],[[0.012575488426153358,0.012941211397649718]],[[-0.0008188369108575827,-0.03647381122695983]],[[0.00042905263640593665,-0.0122651001148332]],[[-0.01606514567111013,0.0035171174514997613]],[[0.001447562498984344,-0.0046462516928406136]],[[-0.0035495873964609616,0.012502455495431716]],[[-0.004471989482676746,0.02451831488438964]],[[0.009288818493113693,0.011287350595498001]]],"Name":"Convolutional","OutputChannels":1,"Outputs":16,"UseBias":true},{"Bias":[[-0.007087203888848697,0.00618854689466702],[-0.0006132467847062789,0.00460030448141468],[0.01345783853053886,0.011538561975322263],[-0.0023189789762049474,-0.03765073561247634],[-0.0010668177673794847,-0.012353679521715668],[-0.017079030687334323,0.003846887256303861],[0.00018370078213490962,-0.0055859945644786725],[-0.0037908290596555616,0.01236028199519083],[-0.0059280849078288044,0.022322942068034913],[0.008690505568652812,0.010902326537310205],[0.027038715903828423,0.018006428997563256],[-0.01630028943917786,-0.0018099175920202775],[0.00788792120112789,0.010204044171052425],[0.006666641642578341,0.017166443846349286],[0.0005188660107300581,0.003725598543086582],[0.0037514857346707285,-0.00871880202918561]],"Inputs":16,"Name":"FullyConnected","Outputs":16,"UseBias":true,"Weight":[[[0.013263792229399104,-0.002835669303692843],[0.00796657090270525,-0.011973177706736662],[0.0030447881777289974,0.004582937112735271],[-0.007914769772396508,0.003659790224581577],[-0.013498440167940742,-0.006817561906149219],[0.011589998105537527,-0.0032226310303299227],[0.013379665521040994,0.012347961243157063],[0.00545597557509774,0.025050080818247715],[0.0030503142648198207,-0.0028493176800772446],[0.0019401090559697561,-0.001284033286723402],[-0.007682159087995391,0.003740088153158059],[-0.011729529485823257,0.0055541812317017845],[-0.00691590425527543,0.012415081523573564],[0.007603486962267749,-0.018464638896115243],[0.010026865500552016,-0.005469145276580803],[-0.008001752025801443,-0.015176025206375185]],[[0.018087080663231378,0.0049035523625204375],[-0.003328371509802847,0.007246415492272354],[-0.001967419882827497,-0.007879756143780947],[-0.012066979241740376,-0.0050955475980399585],[0.012069596391325071,0.004441746092126474],[-0.007156424315669668,-0.008813519418781337],[-0.0142349463019974,-0.0009189205640188809],[-0.009643875680625547,0.0014016424863880022],[0.006903573689297655,0.007520230843054591],[0.015442010100226678,-0.010717007296716393],[-0.008602394571593192,0.0020210929009906284],[-0.002298726138976081,-0.011918869203382892],[-0.007206653194181015,0.0021628264139328664],[0.010226079872869366,-0.009487063137882999],[0.0007157740949646663,-0.011092842922951993],[-0.00022047601457665615,-0.010018872845214187]],[[0.0014978112122263072,-0.0013915075451935103],[-0.0032069473604490386,0.002927482799555338],[0.017113110989190966,-0.013494189550549075],[0.0022617855820940497,-0.0009082583888848367],[-0.0021301692709330133,-0.017052219620938988],[0.013714254329503583,0.01484721061320794],[0.014967860407785052,0.014564259265730024],[0.0001417507631246356,-0.0003502188320446104],[-0.012503149151791118,-0.008849883260355112],[0.006906469703649324,-0.010152147202557858],[-0.009841097706977194,-0.002866633557394423],[0.0039146287970618626,-0.006404620164049585],[-0.009841800033428126,0.0045662068244628935],[-0.01637890731751122,-0.004793537639585008],[0.007347102992872225,9.93879685661508e-05],[-0.006068363578094801,0.0014549261051891465]],[[-4.558025700759771e-05,-0.0009208696768113353],[0.0045734550045619165,0.007170910882561706],[-0.0031275440325853536,0.0001911696259270434],[0.0272798665887626,-0.003572942572659719],[-0.013833060397705378,0.006569732089690105],[-0.003500777044259844,0.001006341394809649],[0.012749766725857887,0.0017545461977851843],[0.0062703199932915505,0.005453065835646964],[0.003077565889352237,0.01305991344548939],[0.0029505413188802,-0.0059599981314823495],[-0.007144470730586233,0.003288787290939306],[0.018392623372523145,-0.007494382510427113],[-0.002371016670277085,0.003949812255112368],[-0.00022793415112951925,0.008379158904269268],[-0.0047424677665116365,0.017405009401832032],[-0.01272802529085125,0.011877674399259918]],[[-0.0014875248183659792,0.005819619262307398],[-0.008150777278237707,0.004102831280449658],[0.0012413632145195177,-0.008213475509268374],[0.02646651188023611,0.02143024245214973],[0.01684026346488801,-0.00950337090049187],[0.004633924307834505,-0.014223092835611767],[0.005524308442558043,0.005798596643092584],[-0.003643620163764745,-0.0009979258440275427],[-0.009044716994392079,-0.008660125219953543],[0.007921763900578823,0.007768757691888606],[0.013304728050146602,-0.02391575619448248],[0.0046282889988536755,-0.011651988225871275],[0.003993776381464977,-0.004214080812353196],[0.0045919650232422475,0.002148836945053817],[0.015660555051010265,0.004389482842426967],[0.0022776141232538,-0.007136321192714946]],[[-0.014521761881677996,0.018618579479152603],[0.015616904459659835,0.01477470181696198],[0.02286862307527996,-0.02122123224113032],[-0.008422859022947723,0.007464477194757745],[0.0049972106128964985,0.004489483435001388],[0.0010352320788917157,0.004312772658445078],[0.008014398901358558,0.006506629750452106],[0.0036864699654594727,-0.0020745654790582132],[0.018299133106069888,0.006513135390426947],[-0.0014130793974974263,-0.00662980740905226],[-0.014137239878697288,-0.006307398635673332],[-0.017710780652430036,-0.009781673728396141],[0.006169839841841317,0.003169877866804212],[-0.000794666225892293,0.006071762473612791],[-0.004248206505930622,0.006095810214649397],[-0.0069452625304455414,-0.0023686843175813425]],[[-0.0011237265031224328,-0.0062839622606805845],[-0.013283210680014566,-0.009976464060634033],[0.002878712446072157,-0.0033295175559752248],[0.0037875135681770975,0.0086723612385477],[-0.012219509798710898,-0.011826541794349511],[-0.0034450847279717126,0.005834710028740589],[0.019606387700405712,0.00468839576452936],[0.002239975978947039,-0.004543637130886188],[-0.0022059091394923064,0.001743616772598636],[-0.0016512036401637466,0.002189012201602922],[0.013581030585793867,-0.008371673699674238],[-0.0039423938787523285,-0.01819964524065085],[-0.005465114262730728,-0.00550109282202237],[0.01011047459138003,-0.004035504100653962],[-0.005093299507180364,0.005262730575351523],[-0.0010376456697976499,0.007276388148359291]],[[-0.003671327488625942,0.013851401212347242],[0.010167883199493745,-0.002423675434238001],[0.0033759890676266593,0.0098863441795424],[-0.015907178567289175,0.019258007177366507],[0.004289386312391646,-0.018508792545472497],[-0.0014523800276415725,0.019430630962049972],[0.00510153179292349,0.01782592916983739],[0.0005075628209443228,-0.010180097892208141],[0.015453991712339457,-0.009146925440359069],[0.013838810935790972,0.0023776788803017224],[0.012507874295596747,0.020524732074360348],[-0.015601328858078384,-0.014025675892353302],[0.020129300724291935,0.012053574233869359],[-0.00844449548348875,-0.010702003071634181],[-0.005175032356662866,-0.0028252319749285807],[0.006579236685330936,0.0010724222288782822]],[[-0.009513013632986074,-0.002695541056984083],[0.01042892851340081,0.006056763212104189],[0.009742978995496868,0.0005140234915294984],[0.008997578974153835,-0.018578097603318505],[0.0019333005590180703,-0.0033267095835841287],[-0.008167145880064253,0.0016310644267309399],[-0.0146764831171823,0.003942576931752145],[-0.004306451223209313,0.005081033516212667],[0.014885335191002259,0.01267450310370134],[0.003143371835349474,0.004725874960544813],[-0.005922071033264616,0.008686253828624126],[-0.005358768787816926,-0.0013389280767514408],[-0.009123077629893894,0.005389745934190118],[0.010944368623929257,-0.009006161997595572],[-0.013451361595957504,-0.00545218580594725],[-0.007012447156899715,-0.001011208989854955]],[[0.00042537379141334734,0.006342609554851205],[0.0016526834422131316,0.016598711579037872],[0.008534910113091852,-0.005888388067199723],[-0.0009446961031639992,-0.009508364229809716],[-0.0033400084032321866,-0.014074857260041682],[-0.0008303240952711303,0.0006299489722838243],[0.0013843148568113116,-0.0025973740938448897],[-0.003094162753447209,0.014430508695755559],[-0.0006211868149636313,-0.018551078643437812],[-0.018156569665643295,0.0076808223776003385],[0.0020207084901325664,0.014475058527337405],[0.012755601996927329,-0.010222212289318031],[-0.013618808873320185,-0.0013088841370528213],[0.0039200251840376035,-0.006360442805767797],[-0.01977472715310298,0.02773857815806284],[-0.012476791839734791,0.006578286624408604]],[[0.00620138011375504,-0.004854551637610675],[0.006019943297434968,0.002517099247947229],[-0.014409137519580418,5.271901342053514e-05],[0.0030328112958114824,-0.003561631002928169],[0.015065856974055136,0.00149309282257998],[0.004636288763635726,-0.020563720573391574],[-0.010944644505842357,-0.016919502355443896],[0.015698684122091088,-0.012279561230048103],[0.009585151853434268,-0.017441116819738325],[-0.015336504306847572,-0.00849545823313119],[0.007502011470955555,-0.002648011420272046],[-0.015818002652511973,-0.0017681829096938527],[0.013988974476104293,-0.020815380711792338],[-0.010831216699641084,-0.0010434630451172453],[-0.00786329633501473,-0.004557943399837984],[-0.01881476344145428,0.009287611212263026]],[[0.009895374028246012,0.004008997373782735],[0.00019876011843954368,-0.009602109759451184],[-0.00552506896772161,-0.008732996112163697],[-0.018120976964961674,0.011177469004195648],[0.010614307925328453,0.0161027668496385],[-0.014078352086188501,-0.01581165601429751],[-0.00021754917243205202,0.0033955857704457797],[-0.0027086652968560747,0.007615420764739997],[0.010797258179934611,-0.010014480167587294],[-0.010788204223853301,-0.011225707137787979],[-0.008803383367342587,-0.005618736847839427],[-0.019299713630367726,-0.0005752826857099287],[-0.016665323698771974,0.005565701493606833],[0.013660274068846085,0.004656394221091707],[0.0002207344403607812,0.0013788327530156218],[0.010835060954161653,-0.009527226865031244]],[[0.014624883049493165,-0.002303821306926862],[0.010917469769143815,0.0017747858858677623],[0.004131929536483977,-0.018923781030898472],[-0.004178050609057029,-0.00678940140151694],[-0.0008264235719403126,0.0159072869370435],[0.004095487761168732,-0.00577476285718826],[-0.01515962345406804,0.0023180076865724204],[0.022338139998820592,0.004008055143374566],[0.00464571663086477,0.007141653256585515],[0.01355121517119867,-0.0013330827932519747],[-0.0012570961546717499,0.006020757862807362],[0.009393948960492645,-0.0021939401368910615],[0.01724372371978342,0.006178890181283984],[0.00622827443390007,0.009406929387236333],[-0.007129579581556141,-0.003914041926803001],[0.015666805914768368,0.001150810690711245]],[[-0.006501552301413715,-0.0009375005847415174],[0.0123452139735018,-0.0018148643984051713],[-0.013335685227274602,0.008169650304544156],[-0.017100558405529404,-0.021037884300810078],[-0.0074251825304129885,-0.007179598914083792],[0.0045415504573462695,-0.002794236169589623],[-0.01797972412431304,-0.015258658814737336],[-0.011531478452028749,-2.477274371130356e-05],[-0.0003399527150573766,0.0005424642454666981],[0.013196608327784406,-0.003934527048822571],[0.003744477390402882,-0.006027132266844939],[0.0025453497209017707,-0.006322719373507692],[-0.009755021905600491,-0.007962131177701712],[0.008015345869005028,0.005096127656748328],[-0.009246035675562038,-0.0034627523376947757],[0.0030212703162682494,0.018149028240881944]],[[-0.0014319660960133507,-0.008075643726145979],[-0.013010699820698118,0.013482819767781748],[-0.018115115972551804,-0.00932704819809182],[0.001650215875822249,-0.007455411017717177],[0.005036035133079052,0.00348093319307429],[-0.00353804477981198,-0.010161324019725155],[0.005339110202564507,0.0053229663021493205],[0.01592465994846286,-0.005612315453788209],[-0.008279422313352894,-0.004905751887497847],[0.00812748795581167,-0.00945791285702881],[-0.011942242375806456,-0.006411348993513277],[0.01083969810407493,-0.0043858301573066185],[-0.002530564386997851,-0.003913033740545381],[-0.00825841353514075,-0.006638304304913102],[-0.008969541295295029,0.007082565606449672],[0.0010967327929680211,-0.0024737183241067507]],[[0.000840732063298858,0.03583464771473826],[-0.006525994963708802,-0.003861329512123836],[-0.007991083842744166,0.00822671691473002],[-0.009099746830316467,-0.023300043241557725],[-0.01030551576543339,-0.004995786768122403],[0.00823899473692977,-0.007259994132724662],[0.0078324432533353,0.0014173307191913515],[0.014823274094296339,-0.004341458956869533],[0.009765304008296302,-0.004039731739414486],[0.004680830503747425,-0.012578294360692091],[0.002116434325367541,0.002830207634365419],[-0.0006248742030713611,-0.011972281936178464],[-0.002977373926977803,-0.012907546174099166],[0.003336017295292906,-0.020235544030323616],[-0.007526318883381001,-0.016221305207287755],[-0.0015418541608569053,-0.0052128609061203555]]]},{"Name":"Lncosh","Size":16},{"Inputs":16,"Name":"Sum","Outputs":1}],"Name":"FFNN"}