{"Name":"RbmSpin","Nhidden":17,"Nvisible":17,"UseHiddenBias":true,"UseVisibleBias":true,"W":[[[0.00014488653019726142,0.032145301818153435],[0.04463373072279205,-0.01932353657149934],[0.1078880656000599,0.029083565255656262],[0.022176997532790538,0.0026900932628688007],[-0.004115857691014933,0.025113676472965033],[-0.012365561466403554,0.053257949931583934],[0.01157449373229441,0.01039072323573631],[-0.035369715740701003,-0.059091460929707865],[-0.017796675342237805,-0.037991872883619916],[-0.03678357521744491,-0.04242259176032205],[0.04340253145657276,-0.002218472955824027],[-0.014037963240309736,-0.033598371290234165],[0.01733081328583947,-0.016230548031357015],[-0.04062697784774901,-0.04209181585519996],[-0.01882381045802066,0.04083118081880504],[-0.017417491221774512,-0.025101696113807817],[-0.0028072975606426836,0.023661352645160436]],[[0.006887037939197555,0.009199578181262599],[-0.009465952264191153,-0.03615239985244577],[-0.01314978144763812,-0.0011867208961752213],[-0.01690029459752127,-0.037001817308559615],[0.03394101796073109,0.024118808529111396],[-0.02932874466684081,0.02428424568864996],[0.004532715239650828,0.013893158098612537],[0.012318154184325861,-0.0629098985492553],[-0.010797811737639154,-0.03833043526708707],[-0.006679254304964728,-0.032529354854342676],[-0.01049717737350329,-0.0019496196720991538],[0.01682085345054084,-0.025305594418352825],[0.011695135381245109,-0.023230401436439438],[-0.02367308242089026,-0.03580538264152329],[-0.02179327714256061,-0.002790595175491246],[0.016834368248901922,-0.01822675220474747],[0.029928582651214647,0.007289016114959048]],[[-0.01585905507688529,0.022535122624435026],[0.08154095283562174,-0.06636358376573023],[0.010971599034219423,-0.07348961481402708],[0.051757791984653766,-0.08213963245177487],[-0.03291247677631436,0.007305895359393062],[0.025778611663913716,0.02623643209170851],[0.03724041200993956,-0.025389971155932625],[-0.017958039181559353,-0.09586538160294288],[0.028220482090401736,-0.08330041922568095],[0.002149813563174145,-0.12047660141462666],[0.04512005493522611,0.00861240789294784],[-0.018765754017504698,-0.07742590730149411],[0.006061352019799829,0.0058624089213132466],[0.02903347848880072,-0.008090591869838853],[-0.006094970541731585,-0.03405539844585692],[0.004467595874786654,-0.058149045428603933],[-0.015910851825103538,0.07793334968899102]],[[0.032521682371470906,0.013853733316885946],[0.017337212202349787,-0.011364174211242082],[-0.043017535443086105,0.011890021039694549],[-0.026832938212597083,0.0034563819688479703],[0.006112617058354569,-0.004388640034088704],[-0.008726572508630714,-0.007588565592389301],[-0.005947065074538445,0.027428630965806146],[0.015756127005130134,0.005073996170786738],[0.0042110689832412455,0.012144059549347943],[-0.000963402388648742,-0.02767098537508501],[0.011923634777853857,-0.008978933609845873],[0.037477631889668364,-0.0378166833039843],[0.007553493622864058,-0.00928971025933947],[-0.03761272374031056,0.0031322461106393896],[-0.00653221077450322,0.01211667991472821],[0.02088221149134488,0.02927872733678119],[0.023470267531011915,0.0039931351219258384]],[[0.011270752027392245,-0.01448444103547111],[-0.007131989144570888,-0.024323142397116367],[0.05276391828391294,-0.11794355988618434],[-0.02945404265811899,-0.07121444954951528],[-0.030154685240160826,-0.032862401355516206],[-0.039212207218258924,0.04586099813383411],[0.0006584867461047073,0.008504837365034736],[-0.018827641766764235,-0.02783800422355881],[-0.0160082607234178,-0.023336981869267717],[-0.0010927467411710056,-0.10951170760222287],[-0.02458099210061755,0.04264370719319446],[-0.0012623144789736434,-0.08191519201835865],[0.03800259313156343,0.025507031297400357],[-0.08232271540110979,0.047292728105305694],[0.027599474744700626,-0.061578937211267094],[-0.00870744513547252,-0.002712850020168923],[0.020599170374010656,-0.0276606046654403]],[[0.008860197023501895,0.00986342693254376],[0.0009029503404443901,-0.022156688052231064],[-0.0033266663446828975,-0.02806275430824336],[0.01859474567847469,0.0008259838950025263],[-0.05635693170843063,-0.021262137468269507],[-0.010621041612601918,-0.02309726840502692],[-0.038697270834935904,-0.014517622957171294],[-0.03241519166232601,-0.023422786265979566],[0.0334333431905041,-0.019697435498164287],[-0.02095598295934832,-0.02813461201751105],[-0.02706920331255246,0.0006633341586684068],[-0.04814279989626392,-0.0014774544597490231],[-0.03260678183146611,0.026886927457565997],[0.005542955141059888,-0.0043038685391904126],[0.011215858040622275,-0.0021836221646918622],[0.007584460214379042,-0.05240742363776349],[-0.033207476679976644,0.05371425171386084]],[[-0.001621056281702068,0.007829989730467092],[-0.04174548761873558,-0.03441766303546601],[0.00644923443056708,-0.025688581263971284],[-0.03019739640030058,-0.0011366472845467084],[0.04282033158498006,-0.01762649948406839],[-0.017901825417880123,-0.03081879843257382],[0.016315696295567218,-0.022997365338218063],[0.03205945409291904,-0.02947829450322132],[-0.03756380268429329,-0.025882900095472054],[0.01600523213808453,-0.033344206854505884],[-0.016990233797269442,0.0069872828641232565],[0.03371621557685976,-0.0008692685481137222],[0.03373436210838783,0.027649965849576293],[-0.02547117087974511,-0.011595751084676026],[-0.002910638036634461,0.0004743040373262305],[-0.013379879023472247,-0.05837617114288554],[0.025955159185230607,0.0594614583392553]],[[0.0004411279307328644,0.014444956567472871],[-0.04038393477392928,-0.010284403514551413],[-0.08641939878143368,0.017295376323722505],[-0.01930282118187724,0.02557625106732502],[-0.0018909563592211741,0.01271333388371839],[0.002650464541765718,0.018378712591927516],[0.010719176422768161,0.0059673441017672035],[0.03325234235479559,-0.01900643606761042],[-0.007443940743592418,-0.006251239289656],[0.03645119539523789,-0.02943456275016346],[-0.039049688405653635,0.003176470253150198],[0.017493456527534545,0.005472814933939369],[0.0066191179401510645,0.007273436684020296],[-0.00013213310427526246,-0.0075431620436607425],[0.027354142002576853,0.03596771130633171],[0.008491942188346074,-0.01366076865799609],[0.009773067543659733,0.0037631159662417975]],[[-0.007198067732711648,-0.0030692913109424246],[-0.08001741741104615,-0.06974672179997372],[-0.05378138188375632,-0.03345180801221039],[-0.028639229297774543,-0.030611872941302957],[-0.04433472534976976,0.020314152481168447],[0.03636307489836423,0.058181780344456535],[-0.026103483656657572,0.02525494178614092],[0.04595281240483268,-0.09769511033835415],[-0.02908018725930784,-0.050270437960519096],[0.06844269261855804,-0.099428405575306],[-0.026271797898177667,0.008937256728746608],[0.011758758458465475,-0.036922825677562464],[-0.021006066280921654,-0.0016393138346458952],[0.029513371216380733,-0.03152617188294302],[0.05346125302814537,0.009305996307248168],[-0.020220878393927652,0.0011312247061276847],[-0.023424910509460724,0.0002401462177049691]],[[-0.003357630597045546,-0.03222554608979089],[0.053392622359372574,-0.041356438185115585],[-0.04427219881481882,-0.09121877104129165],[0.0027144432391575505,-0.01271917264684361],[0.05863630300672463,-0.0314052349586572],[0.0075725600020887796,0.0565090375861648],[0.02992962671218278,0.03248759890556541],[0.008197081991957723,-0.02792263975703493],[0.015229080046368042,-0.012251938789430403],[-0.002449239903461729,-0.07855035295488097],[0.00875974150861586,0.04026851589368921],[0.02364699475194426,-0.03212587237197362],[0.01948786074571848,0.047762943879165576],[0.008421200703296255,0.019412152166594913],[-0.04219527178606797,-0.033772714387991724],[0.011639286510765144,0.023785769168423603],[0.037200973595790644,-0.06609266617120063]],[[0.0200909873617147,0.005593122001737876],[-0.005825786703670881,-0.03760392676656471],[0.03336291704866594,-0.050561385492556406],[-0.004488438062720231,-0.03774230480530027],[0.01103121068385014,0.014642147687148967],[-0.053024383377846256,0.020345302645940304],[-0.03348090356290496,-0.01730129935226113],[-0.035907885934682346,-0.05955851741637019],[0.03259893910186108,-0.051185846587379714],[-0.06448426913710148,-0.08257577227586038],[-0.04092639382619182,-0.008562313367174113],[-0.029257533979451054,-0.034498361757850524],[-0.008424269934119464,0.007446755054010576],[-0.0485657118543757,0.015287455792925692],[-0.011568896130742617,-0.02968593430446315],[0.017524901359412117,-0.011778579280820288],[-0.00813460676019786,0.06169804521964538]],[[0.015864254427280313,-0.019272909417937547],[-0.044429870973314675,-0.026992111267597874],[0.009241835111966674,-0.08340898047856973],[0.009156492384387982,-0.01299163402584939],[-0.05240018025635772,-0.028989647904271214],[0.0010662197489126769,0.03031337185837773],[-0.03580409773121949,0.028295561568443917],[-0.006003422079796062,-0.0005107405004474491],[-0.015282301260527766,-0.006818913368963847],[-0.011729256022723095,-0.06540280871083132],[0.008361445526025694,0.02950973858057268],[-0.01608310512154062,-0.037270867319163854],[-0.04059303728272169,0.0488834923921196],[-0.002122945578145576,0.03627439981041634],[0.03270836605930438,-0.042161462708658476],[-0.0029143702884831544,0.018387520271085884],[-0.040096518741829006,-0.04045337209132427]],[[0.0022329895695972924,0.018816854017243048],[-0.056891455184459865,-0.016799270170661768],[-0.07634780318221897,-0.037393251107770954],[-0.01958590855928286,-0.05579350391276344],[0.04172207376543681,0.011320732251550386],[0.013860092302773283,0.03972680956307558],[-0.03247967268411837,-0.01153194987553556],[0.03076285113734508,-0.05355996685347348],[0.012341293354537522,-0.050116505048465494],[0.00935586611349604,-0.07040335587208944],[-0.028182455256294165,0.022136680164067335],[0.01888241993331673,-0.06191444850938198],[-0.03715817510790917,-0.008416387478320093],[0.05195971034245399,-0.016578490864022553],[0.0009698573717010508,-0.007492437686216525],[0.013285332326700986,-0.05078962171253827],[-0.007144115644556238,0.021498314160777014]],[[-0.02320139231452346,-0.005324577919594611],[0.014471162154189093,-0.0230796651955606],[0.04981217979164004,-0.04228435693093155],[0.03598899239656492,-0.008630165541314336],[0.03444620701170988,-0.02211545899091768],[0.004804771582894749,0.022442161593018],[0.016105135362896608,0.04117290520144935],[-0.02220858729911719,-0.004580713545955279],[0.017059644015802938,0.014553273526769064],[-0.018027553005542284,-0.07085939816370655],[0.01617349107796284,0.015020350695479308],[-0.02876220225715521,-0.052762301086540765],[-0.0031246948755488326,0.014314829168604359],[0.05626101883205949,0.02595548106304565],[-0.02804372454800308,-0.008692939400472522],[-0.007748329307109839,0.045953702697288996],[-0.007649384802874028,-0.02906574957267699]],[[-0.009312448212211798,0.005478098035043819],[-0.01916476912747869,-0.00960140664487669],[-0.04600391293681359,-0.07620631674275029],[-0.012567080688013255,-0.039426108716223436],[0.041791714349327755,-0.014515181145427809],[0.03904401084240082,-0.0002013081877910933],[0.01584246151903157,-0.028253978566274596],[0.04949326764060094,-0.014755912561318193],[-0.033642354885294275,-0.033771228917221625],[0.0485844826372403,-0.05594248656568381],[0.0328896816156063,-0.007626990358921494],[0.048806520802878874,-0.0337880532858772],[-0.002661651410759167,0.024226909272598556],[0.04498383545641006,0.053092549634839434],[-0.010223138956000997,-0.05648149609146328],[-0.009609055508426985,-0.023008348475979983],[0.022650439300461234,0.06360141976093342]],[[-0.017027838906477025,-0.02104297510171792],[-0.023878276864766325,-0.019399639714956285],[-0.05761943881143103,-0.0273730123188824],[0.010116240044507724,-0.021651000683575013],[-0.009803617352895994,-0.0021322064841782706],[0.02420275678260466,-0.003686393519757398],[-0.002432546044436584,0.006847354740878067],[0.03192759639841638,-0.010508557829576461],[-0.0055919858807698996,0.004729279045364938],[0.010032413475995011,-0.04453600987955343],[-0.02858316507444445,0.029999730340514202],[-0.0014199766240897181,0.00296699344327304],[-0.02144691256294426,0.010255590741485595],[0.02590260790230394,-0.0052013345221182256],[0.00042315355036124194,0.0002454826744900541],[0.0032359395264580175,-0.018777867600581196],[-0.02915018655603549,-0.03768210906687085]],[[0.017173092062917845,-0.019331765757379243],[0.07711133992881228,-0.030845660688933393],[0.10551662882307433,-0.027703182338117277],[0.014549636255043975,-0.008918962196994047],[0.025082586290109385,0.0068831215221065774],[-0.021114614998185673,-0.006334820864107106],[0.01830527306311501,0.002072908923136366],[-0.055149486376620385,-0.030931903363363995],[0.01075244590087739,-0.011889508341698555],[-0.04222422762304831,-0.04409365938002557],[0.07379126460435528,0.024606623422833113],[0.0047515277953306175,0.02532723255190345],[0.01951319392529144,0.019766850866450456],[-0.0253138079764387,-0.014134543000632651],[-0.027778366627925873,0.009741009647963737],[0.0035768889807001516,-0.0340100571540743],[0.027520094109020926,-0.017679865637628134]]],"a":[[-0.045225320464214264,0.005091593419606778],[-0.005167719531878621,0.005886059039931592],[0.023746261472074995,0.016648000091789128],[-0.01492964217002981,-0.03572200686054112],[-0.03152546488623027,-0.010122877498874281],[0.00062518892914387,0.001761632362361205],[-0.030455653768220993,-0.00620027901241045],[0.011691833781393908,0.010449943377551747],[-0.010776799090666249,0.02493618740608479],[0.04260065600004179,0.008667916956944521],[0.01988081577250503,0.017592143244418254],[-0.03713193856656981,-0.003820326950993621],[-0.005158975783986584,0.011881823225004353],[0.02103041112268538,0.016730117139232385],[0.024924135401734215,0.005572317292461804],[0.009944662534163227,-0.009093612566445544],[-0.01035747434347092,-0.004014343408251973]],"b":[[0.016636705564473418,0.004575659342371742],[0.0024119652561551846,-0.0015547011351093533],[-0.0034322110788451913,-0.0009761343396915902],[-0.0007666256804594284,0.005076716407238544],[-0.013597745610994805,0.019276273497686416],[0.0009802489234508583,-0.005999349773896748],[-0.002703296639797477,0.014058750025356663],[-0.0092127942623112,-0.0024922764516531787],[0.00153211336940563,0.006367162067672435],[0.007565421195314419,-0.006128912913305405],[0.009673274553347199,0.005704315870353904],[0.014123744490626863,-0.002855726688396023],[-0.007203350176684362,-0.0006103665566445941],[0.002136596576050666,-0.008745340040886361],[0.0003816088352043915,0.03738525082920565],[0.007978001993338492,-0.013215906754141391],[-0.0025649086801659794,0.006502565866505421]]}