{"Layers":[{"Bias":[[-8.706594902189352,6.2664164962281115]],"InputChannels":1,"Inputs":16,"Kernels":[[[-0.9718533176524676,5.022808084436486]],[[13.265498512827971,12.287211711458848]],[[-0.9686068361507202,-36.86609815766234]],[[-0.8093431070319944,-12.293973521886178]],[[-16.867513138267682,3.8280416734529217]],[[0.8326812633344381,-5.366830121857]],[[-3.2701526137320998,11.986847288083087]],[[-5.061179488170156,21.67536902455051]],[[9.257749997528595,10.887414085955744]]],"Name":"Convolutional","OutputChannels":1,"Outputs":16,"UseBias":true},{"Bias":[[-8.706594902189405,6.2664164962282385],[-0.9718533176499716,5.022808084436474],[13.265498512828618,12.287211711459044],[-0.9686068361511131,-36.86609815766105],[-0.8093431070316708,-12.29397352188567],[-16.86751313826772,3.828041673452962],[0.8326812633344381,-5.366830121856838],[-3.2701526137299735,11.986847288082302],[-5.061179488169877,21.675369024549678],[9.257749997529357,10.887414085955559],[26.759695745341823,17.739797463306186],[-15.755609813304496,-1.7907493096906724],[8.984257950612994,10.217093664100874],[7.5672925879079695,17.383308611110877],[0.7221262780939195,4.988152865290706],[3.4711571270415753,-8.609804560738839]],"Inputs":16,"Name":"FullyConnected","Outputs":16,"UseBias":true,"Weight":[[[13.449034663726813,-2.9937530504411813],[8.060770976198624,-12.013025515048852],[3.4103192489730167,4.775014854278198],[-8.660815192563087,3.5550675337682707],[-13.72667820114694,-6.830417236013767],[11.656476608901958,-3.4841161851728404],[13.289938922672164,12.291996613662821],[5.681918823355374,24.862406812236156],[3.4360225658664385,-2.932459063027671],[2.10426457516386,-1.1613540859378644],[-7.248041949858273,4.266228765165704],[-11.807734804682424,5.282117830630167],[-6.7591204672152285,12.495598969514939],[7.915631542256714,-18.308853268149196],[10.220525135007007,-5.526890338067057],[-8.188608954772992,-15.00431136677692]],[[18.093557926696473,4.849755885665927],[-3.2317338589162374,7.257135631930146],[-2.05158776486235,-7.858903099471213],[-11.997978406463577,-5.11153680009802],[12.12093544224545,4.285409445204741],[-7.103566303861179,-8.771787356792826],[-14.246939449796335,-0.8501364817435157],[-9.780180132090628,1.4709048610910493],[7.002588219013234,7.558723816027347],[15.347127719874608,-10.722611848574457],[-8.841426638228782,1.7012856095380464],[-2.177814786904431,-11.898879201752369],[-7.261699403872965,2.098970971067602],[10.187556697625102,-9.510679300350686],[0.5614218784367406,-11.131292728218911],[-0.20014977340212498,-10.075720486722377]],[[1.6138303777685223,-1.5460155641859505],[-3.101116759010748,2.9346576700426463],[17.181745793851885,-13.310237292405757],[1.9142677153731484,-1.2108267197188973],[-2.3518862080074765,-17.19161782701368],[13.910533937545281,14.693990919075063],[14.959218001545949,14.51228551636423],[0.23272257393557413,-0.2789982719939187],[-12.151744239722957,-8.801671670092125],[6.923286857404668,-9.960658799953876],[-10.005023317113299,-2.54969157745409],[3.9842018205768293,-6.517202736920074],[-9.865917545848372,4.658561203844214],[-16.261748866959955,-4.56170429262792],[7.268023848006235,0.22857413907082583],[-6.119718927942108,1.421020303539472]],[[-0.0036106188430444835,-0.953845185357939],[4.664072712883425,7.239675715098847],[-3.106592646871229,0.3066106418027545],[26.891216967297094,-3.79947932058688],[-13.926483709450066,6.524680456618607],[-3.45511511040337,0.7418785529276365],[12.68600023216449,1.641550530418485],[6.392146454060409,5.510115015462692],[3.4199303958168144,13.041777761516391],[3.0662993543737542,-5.8360889000783205],[-7.07630281796547,3.532061869975491],[18.503695860745733,-7.673559471635807],[-2.3029891061725505,4.021741039120218],[-0.0394639484148758,8.569784965782596],[-4.677286220633335,17.436359160086287],[-12.86471159073607,11.842787820154754]],[[-1.5704788013173931,5.762643945269303],[-8.079590026005974,4.1607776141947435],[1.4863993509873876,-8.085304889688244],[26.087462127701237,21.333360552138046],[16.704421061669578,-9.420132083886223],[4.540371758190046,-14.453883140516831],[5.548643708870235,5.689935749603556],[-3.603053112543698,-1.082440730067607],[-8.85099013121273,-8.950992419559258],[8.122167692178763,7.803455837218483],[13.450246266111122,-23.506828427672076],[4.398520124370575,-11.920032567897474],[4.101673163304268,-4.202036959538985],[4.953923743508087,2.094799114438333],[15.839769224368453,4.461227826905836],[2.2619171084575593,-6.921932599265548]],[[-14.591476723308471,18.646482018221963],[15.551026513756002,14.630076400177781],[23.064578308482265,-21.2686662457568],[-8.542962462440688,7.5219505010471455],[5.032940539304471,4.673263519072818],[0.8974563914975744,4.1954617119022855],[7.987297519457574,6.453125440491313],[3.5717483272408765,-2.1149659275896706],[18.26364451083447,6.358592725756995],[-1.3198092907802583,-6.627214237093734],[-13.962665477320327,-6.086846231992806],[-17.815139601979304,-9.72762471355505],[6.163381400310041,3.1601498133545167],[-0.6879298948952995,5.9753215580776375],[-4.177785876076193,6.0867813467550365],[-6.924644707893999,-2.288759612143307]],[[-1.253926153614036,-6.182897054282163],[-13.302809169168983,-10.059225648152912],[2.937993561572537,-3.3539229472342798],[4.05933562958642,8.77513259492239],[-12.11033766254215,-11.757740144622625],[-3.5993840741621836,5.916094718357322],[19.63777052760747,4.73035380413353],[2.1593370375878163,-4.571587591986287],[-2.375591162018674,1.5884082478758732],[-1.7113568386894722,2.0761439676061415],[13.676355915429736,-8.478408629224958],[-4.070525866388233,-18.137055143458845],[-5.437249447473156,-5.57520043214551],[10.09130730188283,-4.310679687174431],[-5.1085337153810295,5.177766116544251],[-1.002968845711341,7.30753334702174]],[[-3.7471097523985577,13.857972425184089],[10.1073301420087,-2.4444748260106492],[3.3293646095164013,9.653390529846098],[-15.552940778614632,19.312065637129905],[4.331267866481829,-18.394225320764],[-1.45308585918662,19.50510001368482],[5.184052229695202,17.784794821976245],[0.32982486696611635,-10.146137303033862],[15.180303763518642,-9.140751777008429],[13.842267774706638,2.3115272294104505],[12.44520000576223,20.25844316202968],[-15.55365194181097,-13.882406153030036],[20.065041597611337,11.982283657179984],[-8.684863742015214,-10.809301783764523],[-5.228851604427615,-2.881302421674072],[6.656740981381709,1.0383915206088004]],[[-9.566525389068692,-2.7224307598517643],[10.3834828703142,6.120621642060572],[9.856809261694995,0.42157581202583555],[8.814272622731606,-18.35235785169252],[1.9154978596619603,-3.1927611889440173],[-8.196288206363837,1.517140778354746],[-14.66686143099945,3.8733285084173312],[-4.256197318954476,5.071811021630642],[14.943956297882405,12.53394385367565],[3.296556315645861,4.803891265549955],[-5.511119381055664,8.769778598508264],[-5.399094304136702,-1.3435620257743626],[-8.98816262535034,5.48261427713907],[11.005547790064279,-9.082289969684718],[-13.39117328634421,-5.470116495634763],[-7.078601185601298,-0.9778144872535877]],[[0.5191122560488977,6.564117983717904],[1.5422172467936301,16.625157919966853],[8.24230189180686,-6.141222508916932],[-0.5674884063618982,-9.537219414364472],[-3.177935094828054,-14.272649284873328],[-0.8532092536126346,0.993158451967448],[1.3900184197318495,-2.5386175709838956],[-3.1690941277877926,14.54547797273838],[-1.1170549380432935,-18.353357774163825],[-18.341772507270925,7.511529087924061],[1.5876520290057756,13.951708279403663],[12.87720699262423,-9.928302499793796],[-13.868120232804564,-1.523741900711229],[3.495979506112916,-6.367865803753897],[-19.8804473212941,27.689688395499562],[-12.24762145340134,6.481498239168091]],[[6.129431653137945,-4.700774799228226],[5.956420733763961,2.6380937017377377],[-14.807365128648344,-0.039165031007147744],[3.4795604761700107,-3.6265240080611085],[15.205635535814405,1.3828497377847957],[4.627746568727724,-20.323127766393245],[-10.889284928139604,-16.926236080607254],[15.652616082295381,-12.163841778242363],[9.425303783816258,-17.235733371882937],[-15.533579011068863,-8.506584391132895],[7.08840413669154,-2.8582153347720514],[-15.712723556723198,-1.6868993425052796],[13.815807059002005,-20.776936393371223],[-10.951498938578426,-0.9657537863703953],[-7.9624804152254995,-4.529668860383391],[-18.713412336407504,9.21200079910296]],[[10.09776618820515,4.124380837464737],[0.20823660636106017,-9.579636210820167],[-5.6864964452680224,-8.641324895856718],[-17.968589894149044,10.997918595805325],[10.641035388760859,15.96161876003815],[-13.940072763197389,-15.62165456016896],[-0.24583592542747812,3.413744334205339],[-2.646634346506715,7.757781543333504],[10.667930105583508,-9.83601499871839],[-10.869885898776563,-11.199145287777096],[-9.002179547895096,-5.451533817072482],[-19.201197298450154,-0.4896759867421185],[-16.755346869322672,5.705279272512934],[13.543961365870944,4.69014020837706],[0.24873081899014263,1.3520842662804842],[10.893629872714051,-9.62874061081419]],[[14.78494722941789,-2.4674538123840595],[10.844462243402807,1.7845322758509794],[4.171588574502966,-18.939803164191765],[-4.440373947366695,-6.885028066797894],[-0.9411547154776234,15.945372397266881],[4.132536171973017,-5.82756392025022],[-15.188100615639861,2.3135292214425345],[22.295904179967927,3.924907959883729],[4.652621625484221,7.395422730842437],[13.434194200144375,-1.2278123218452222],[-1.40938977604922,6.2008541349630475],[9.399007907978023,-2.2516527433329365],[16.97159772046968,6.198715628226734],[6.186569107530014,9.643038537052199],[-7.1646958857026,-3.8886512098805457],[15.61991985866507,1.0726022665698256]],[[-6.551466730465526,-0.8794230472754014],[12.359813178704114,-1.8758515313783772],[-13.43440322081836,8.206943281937582],[-16.75673878968428,-21.046819635861187],[-7.285321914143335,-7.138752463452052],[4.515112677669812,-2.7100160035843572],[-17.955189544129084,-15.196521577111778],[-11.630143431396482,0.10354889225458809],[-0.45988536135049873,0.635716006815023],[13.14541152194503,-4.025765692675962],[3.61772582451602,-6.191678113749925],[2.5720164941990404,-6.190050098527034],[-9.758247312949218,-7.943634443212021],[7.872930882758353,5.02612181085652],[-9.30487176824421,-3.460609446403127],[3.02964373906629,18.079558259918244]],[[-1.5831004858717104,-8.022350937901935],[-13.07513000769609,13.480817526767057],[-18.29703542357896,-9.450100637945244],[2.2125946064688327,-7.365089820019586],[5.235476369818481,3.5342396967364764],[-3.5937234219615832,-9.87809546218183],[5.4336670274298475,5.417980190099867],[15.873015718205762,-5.587483896550782],[-8.510767811253007,-4.754441449185431],[7.869253825126959,-9.590727866981105],[-11.988630124489669,-6.751293712481454],[10.77477986329053,-4.195802748398216],[-2.5257407265675136,-3.9059602520294603],[-8.477907585734593,-6.783390452036605],[-9.046917104980132,7.016777944841007],[1.123571991597403,-2.5777487916910604]],[[0.7708890026808852,36.413360079151786],[-6.604408243747164,-3.8334030601720555],[-8.414699584549693,8.000580036371705],[-7.871000147311796,-23.462852182726234],[-9.892394845330868,-5.08011159131147],[8.173464767588435,-6.805270785694816],[7.958390833346155,1.4014968123413902],[14.557600764109235,-4.269502658833372],[8.961680047648178,-3.8226019829571363],[4.3066561736317945,-12.9270831445104],[1.4745594967583364,1.815689601616956],[-0.5100537323802183,-11.62729121431215],[-3.1752658316107514,-13.388608417837562],[2.6367122931323785,-20.481179351188914],[-7.658009319266251,-16.301625218227155],[-1.2882278025125724,-5.357084127919273]]]},{"Name":"Lncosh","Size":16},{"Inputs":16,"Name":"Sum","Outputs":1}],"Name":"FFNN"}