{"Name":"RbmSpin","Nhidden":90,"Nvisible":90,"UseHiddenBias":true,"UseVisibleBias":true,"W":[[[-0.09817841933938763,-0.04923665578603888],[-0.00557676429979092,-0.004988124057250493],[-0.025128555698419826,-0.02904632581817127],[0.04830023469249766,-0.01860873799976176],[-0.1283202250773813,0.0042082018096405],[0.038696510593065475,-0.03586454206053413],[0.1590883989128969,0.011282006430612961],[-0.11458452913820576,0.031971735794836864],[-0.006298745623464813,0.005176011055439291],[-0.11360730676489784,-0.006116311888576561],[-0.14116793535416114,0.04193814884258983],[0.09050048580238189,-0.040952685033295445],[0.02578259212250287,-0.002923039156532752],[0.10181566423893028,0.012354061081920675],[0.03798082817142992,0.012182589926760145],[-0.12552561401592646,-0.01077890812523309],[-0.005673019690199609,0.04157421536671765],[0.06492650643215955,-0.01624964074397182],[0.15015743578556282,0.044029673532207464],[-0.05760172461264664,-0.01486442107972758],[0.08483936981370953,0.002981199131462157],[-0.12877279864645655,0.02583718546101566],[-0.10076188282938402,0.035004675349048366],[0.022789504077699897,-0.03779886611364187],[0.08774706367432324,-0.005598535490203086],[0.1083417322463026,0.02725358129306896],[-0.07876288140701042,-0.006573907195734273],[-0.02793609606811821,0.03149643989334361],[0.13963911112756291,-0.021050091107878723],[0.059914156691971664,0.0017033121776458423],[-0.12878298092898652,-0.017486167044220596],[-0.0532019916733222,-0.028667608359174163],[-0.010394364291717353,-0.016274428476203157],[-0.12599111819727768,0.01695123507649892],[0.1696819359335422,0.03982433912647399],[-0.1146120379128478,0.02977944831713791],[0.06800942455731299,-0.00046138599396185534],[0.15457425769022268,-0.015415635937165596],[-0.12400376010179129,-0.008802564600017833],[-0.15732012127138495,0.006179765848157638],[-0.07013246849227159,0.02332145992301734],[-0.0114451376604383,0.019638592959500396],[-0.09192505169118448,0.021676065842574466],[-0.023744200831016183,0.036765656249859655],[0.03322875445118391,0.005255183185189713],[-0.12572405458675967,-0.026273318476780265],[0.042276826470416716,-0.021774899605604137],[-0.021933734808472674,0.0074078792016012834],[-0.03426995006830089,-0.0077373225681522705],[0.03817417882854393,0.031041422924723963],[0.0428890095500226,-0.005859514637026334],[-0.13722523222391267,-0.005263359317202333],[0.06290985334379552,-0.006183888041534377],[-0.014618617060416299,0.044202025342320456],[-0.14551074775707062,0.013954522252896428],[-0.13784087899573902,-0.021109396841251918],[0.0051374055395005235,0.010774515031779643],[-0.1439643986742081,-0.0011280602141240255],[0.1072192869071562,-0.01611402737882622],[0.1487147200229702,0.008367696209119938],[-0.18939566587136344,-0.016041574782473055],[-0.013985663059892132,-0.009731351797518585],[-0.10639785590995371,0.028136159703060125],[0.10225466907163694,0.025980727819694852],[-0.017518879575539076,0.022917350590577642],[-0.05968765948380606,0.009018264112585947],[-0.034477618381401245,-0.023311302980519037],[0.11159199324660193,0.029745317951835576],[-0.04123541030740576,0.017883816471154338],[-0.09978213521298777,-0.01351095698973765],[0.029039414880986703,0.06078582303761616],[0.17323476135158195,-0.005339580336367614],[-0.041984244787820466,-0.05439668431386569],[-0.09217958882105412,0.028889621567260496],[0.10280759677869344,-0.0030743895169902777],[-0.08789343714046165,0.03878503831182891],[-0.08767767025069165,0.02970486525120052],[-0.023667828244629246,-0.005302719490004195],[-0.00516994842462919,-0.03015334853509239],[0.10334105388723462,-0.0007825057498584249],[-0.01291608215965597,0.01704350687727782],[-0.035165438045913294,0.09833332988016909],[0.030957615715416872,-0.016570501220064374],[0.11462050302876059,-0.031166321895446773],[-0.028210005999884557,-0.017337555232270718],[0.14986287019243646,-0.018665096984421745],[-0.011447564456171792,0.009903803240808678],[-0.011067681649043384,-0.07069636455155323],[-0.06136557974704844,-0.0023898375512215225],[-0.13090517872380666,-0.014032706780713894]],[[0.038057432923467895,0.020667516008038147],[0.015619947784244416,-0.0022287234726951965],[0.011174037799274757,0.013836528603811467],[-0.032113511618975646,0.004922762878495871],[0.026715023646982212,0.006652711515871318],[-0.016221757111203175,0.03831060602618189],[-0.006738064409100869,-0.02725857963454152],[0.010141889906295502,-0.011247000479377062],[-0.03331039151121379,0.0021297971120410536],[0.0411603689281462,0.005611296772588029],[0.054883602527911766,-0.05825842871982005],[0.0021053045753417167,0.0021609117962335714],[0.010267053764442938,0.01818140729941228],[-0.07487982746293553,-0.030125938405297422],[-0.040512873805768644,-0.0043181446739177275],[0.08718731395714219,0.000978297528808428],[0.05399314674744356,-0.05360993522640223],[-0.013968669823458044,0.026533488542617938],[0.02586264690454368,-0.03268047699605356],[-0.011662898326306981,0.029999549255738743],[-0.05673177769109752,-0.000576101772615525],[0.044963649074698304,-0.0009703526875821139],[0.04369106467676556,-0.014907973696256994],[-0.02008149893891235,0.008714925349225026],[-0.020901128180118876,0.019605465693181404],[-0.07647844190608036,-0.01117178478686181],[0.05199699961006305,0.00012673102310840467],[0.010693675144999595,-0.005179316220389062],[-0.06203866911369865,-0.007679680627632639],[-0.019644428987657486,-0.0396344025835112],[0.07763569302416182,0.005178383675465342],[0.008417506125303032,0.007312671081934828],[0.04632391646058984,-0.010944550439469333],[0.06275221911827794,-0.007330220961991321],[-0.0008780045697665355,-0.007508574685463439],[0.050026652123821166,-0.025928396739408593],[-0.051894090997993934,0.022736522734754187],[-0.0725889812057198,0.02032876860571904],[0.015260407654927796,0.010898456601226503],[0.048126357171354564,0.014465239648201586],[0.028164661189271405,-0.024507088334628162],[-0.019064332854708155,-0.003675632072368761],[0.05641211834427719,-0.03469302111360534],[0.0010747793434122714,-0.0061066729202586744],[-0.019949464390511557,0.012119920610833293],[0.06038633969816757,0.003999272797752266],[-0.031512307206159794,0.011910085191477666],[-0.014944783524195263,0.008236600488293798],[0.04967802951471868,-0.027326513895082217],[-0.013766497360180298,-0.004036072997197416],[0.00541159004972301,-0.02278485296323688],[0.08593826015280177,0.028614913168471968],[-0.036230054734192954,-0.007689604301820133],[0.002633797796983868,-0.02795317337570783],[0.0946149597452981,0.004456464224866196],[0.05184805604021123,0.006881620522829826],[-0.011594809605550434,-0.03846010432061511],[0.05006374658546318,0.02728378255789594],[-0.0548158503485259,-0.004076497029482414],[-0.04099342170828515,-0.02069703328817102],[0.053143621775081716,0.006670967104360357],[-0.010675793372327802,0.00791638290030789],[0.04802944123786691,0.020845647569145632],[0.008174300406867748,0.00469804421274528],[-0.01770697100971868,-0.01065873424441887],[0.04038470760975738,-0.024234524680207405],[0.004935966929944007,0.0186511414579113],[-0.03315342083225061,-0.010332935875081226],[0.04516932944814218,-0.05695742688001773],[0.05055944792803906,0.0147658804748377],[-0.04640000391988291,-0.009709487475789504],[-0.09964746984865895,0.013587647159301391],[0.013381731573587297,0.03204797042936215],[0.014726946240682394,-0.017704079653152672],[-0.04162427305645276,0.000570173648481115],[0.023968514628200165,-0.005176030991197369],[0.005846802955859879,-0.0025808694814133133],[0.08180310699130611,0.029315088847904507],[-0.00548717606438005,0.03672200236038479],[-0.020530255555162795,0.007502668103322215],[0.03247858675096806,-0.014643876662933639],[-0.01111212005711082,-0.08089281857928844],[-0.005201746977459209,-0.004235387987569319],[-0.016826710927158157,0.015805403267775926],[0.03291923911150068,0.0035294878985896554],[-0.0006341056812193776,0.040687241330152286],[0.020127187239981508,-0.017331470581889545],[0.014860014553347392,-0.009078260805388568],[-0.015617598627075253,-0.015593990238682255],[0.03826632549498823,0.0013893701474289048]],[[0.013525750139221039,-0.031850319946251926],[-0.013906631472855382,-0.0060638467253204525],[-0.05596135940482597,-0.0022716930423901244],[0.019474654427707388,0.010564212070756297],[-0.0060594546563650965,-0.02048346820979214],[0.03162764275229381,-0.00474572231134654],[0.015051472999519666,0.016647544723615983],[-0.0027834868223168127,0.01681767746335336],[-0.01827076304474208,-0.005031400384731539],[-0.002124383068872756,-0.0005366230705446252],[-0.003934105095016852,0.019137576111815113],[0.0061721768880212535,-0.021024753799814888],[0.009787442036446391,-0.022879268995205617],[0.016143693099014967,0.01760228626857674],[0.006704176782506423,-0.02591007922337109],[-0.016749851050933465,0.017853981516607567],[-0.020643332986304705,0.018491030834499537],[-0.008439104526655916,-0.005840225679246998],[-0.0028191994593427814,0.010041549989973732],[-0.002032321617945851,0.01985873788209502],[0.027942629065389208,-0.01583252787458466],[0.00328630256619101,-0.003375997726434926],[-0.045341641046888,0.0003955805518756786],[0.03614109149067138,0.015258791137172295],[-0.010999452344524666,-0.005159947972029141],[-0.005022381240777085,0.0027145986812195807],[-0.019115089239428642,0.020267670069659485],[0.005753836394938736,0.01858303281005174],[0.050404501812516336,-0.0048060973886882834],[-0.007634343771933323,-0.012656096295448017],[-0.015622262272075148,-0.01708113445935043],[-0.047332527350149554,-0.012989993985063107],[-0.032721846759783804,0.002882460242931007],[-0.01877652069975776,-0.004782975369629196],[0.012705381182051213,-0.0007808786380417948],[-0.02690209745658652,0.006257989381289296],[0.013526483601019787,-0.0049770450386889065],[0.01397125251397227,-0.0014218956320010891],[-0.003812789370432498,0.023270273283850226],[-0.026069215902229888,-0.013667111480171487],[-0.016498359386174777,0.030369196896163506],[0.02809525007234035,0.011809484875740555],[-0.005812064403434033,0.016905927522450504],[-0.016721701952606433,-0.006846699701818628],[-0.01839394763152286,-0.009211922761981952],[-0.031024776902221433,0.0098505314812773],[0.012373527233300355,-0.011112521754203152],[-0.017937294364427897,-0.0037859678203662245],[-0.037725607783536286,0.016341140809087128],[0.0049116436232629615,-0.014992932216642845],[0.030992785134335413,-0.009462571704720946],[-0.03695646294440149,0.007214636273291666],[0.01099517154125961,-0.005723689976890321],[-0.014114594863849065,0.02131745166095575],[-0.012131923098561079,0.03442417920040089],[-0.015837567785959378,0.0164394635262342],[-0.0033743000729667474,0.01735712799486418],[-0.026152375537294336,-0.006358620789096436],[0.041888378312904886,-0.007982232351998715],[-0.014000568632637274,0.015706980055049048],[-0.0016253476210105135,-0.020631414561124575],[0.005979114957476017,0.0005535973355110187],[-0.03367887191340594,-0.008657996254239972],[-0.008057897499473906,0.008259743633089879],[0.007944867553132805,-0.0073279067598797645],[-0.008918912361891698,-0.0012522516508484609],[-0.025489228065783763,-0.011262476618548208],[-0.003456850366845761,0.0030784106171281573],[-0.013976362086980179,0.025549461435909453],[-0.008677918326643589,-0.0008626215583858938],[0.007387463208797706,0.0343713291440278],[0.03264944590951126,0.03738145057950406],[0.0046898206869517255,-0.019017163484218284],[-0.01873439163068798,0.03358590523275596],[0.041186247540407304,0.010200975954804426],[-0.00022972716235111117,-0.006155381776893074],[-0.009160739786862588,0.015486846027275621],[-0.04109520357578778,0.014533059148623658],[-0.015472386251078466,-0.0290993364426034],[0.00892378625429933,-0.007936308652595316],[-0.021881355103934533,-0.0018702298981182045],[0.005118310387571682,0.01992328004859277],[-0.01832579935111946,-0.02660553860634848],[-0.012770284329435862,-0.0032177379848384834],[-0.03785912358108466,0.01626019100129447],[-0.007984122053819919,-0.01626631115150613],[-0.020045796214755014,-0.021728658116619896],[-0.004805641200275609,-0.0003630006168090479],[0.026522152414764626,-0.0012116841702751113],[-0.001692435395378875,0.006292645385217989]],[[0.05550189293500399,-0.0039037471381148984],[0.006417611840301066,-0.010627707547862873],[-0.0275567779600391,-0.014111188201343047],[-0.0010745008031272298,-0.01947078236264737],[0.023883681871292892,-0.015299010383031232],[0.0007081506361102188,-0.029157877738222177],[-0.046410685738207384,0.032590649375292394],[0.03888595430557672,-0.015477235707698411],[0.031084682619277722,0.03928987317213065],[0.02866186742683776,-0.008120304852888581],[0.019204105433150237,-0.05398729076026202],[-0.035167713614405446,-0.015118781525124544],[-0.04726954804556961,-0.004541445138103718],[-0.017995451913670985,0.001931362388617984],[-0.04173685117158847,0.003121950373036279],[0.02922753393967997,0.02143363968758866],[-0.015304892686401826,-0.0020891797049084134],[-0.036061735365502036,-0.030994342776527344],[-0.020087014350185898,-0.011783984782351011],[0.030281551041314005,0.004373825658994351],[-0.04321972241703844,-0.013053083352115854],[0.029406762766054202,0.023342874513801095],[0.050881460415578623,0.01240043175751508],[-0.01985520418349231,0.033385876121995596],[-0.042573285577882806,-0.0005325320480416842],[-0.033563437382223185,0.0176034939624837],[0.013716801650714391,0.024293233276850217],[0.021481833120896875,0.06977033730442733],[-0.032764819217187685,0.006930516847578983],[-0.07039745144617432,-0.0006538046736402356],[0.028821734722497657,-0.011236437984915946],[0.06120103405702435,-0.010208790319320737],[0.021109974240298396,0.02222372061779576],[0.025530810520438887,0.018420402865573025],[-0.039517538484538615,0.0017735801263521799],[0.04562548412185859,0.015674268011251498],[0.02380034689413475,-0.016255971558486782],[-0.024962069894291523,-0.038364125888070165],[0.01165059669695747,-0.008801660330533116],[0.04411238559712318,0.024988800591220554],[0.039191656050122814,0.019224840381429614],[0.01555500371562532,-0.012662100193214254],[0.040821980713258786,0.019693401536053062],[0.014567230533135113,0.02505563384233668],[0.0427992521853052,0.009662693412053176],[0.0233361470592923,-0.0044818335324758605],[-0.034709640358052386,0.016092260661422515],[0.006779157523087725,0.03917507891829376],[0.014221372206631553,-0.012095271989131216],[-0.04462875581640496,0.024672112316795947],[0.005198299675416565,0.00872670641065197],[0.030867463472703905,0.0058277819728865385],[-0.01960794123597316,0.0063661747866267755],[0.010754057693871397,-0.029127077701610504],[0.03502026537364044,-0.015309125460759243],[0.03373043014917265,0.03448713871395209],[-0.0007844195765532376,0.02378100246737984],[0.034020719946752896,-0.019451545417535347],[-0.021676775485509805,-0.03072442179883974],[-0.035943571122801055,-0.028360000535688316],[0.05568825987458245,0.00251889409204894],[-0.021398517228472,0.013266739911193603],[0.020389579615060414,0.023174717213280762],[-0.0604867132106167,0.012971544925745966],[0.03120732480425547,-0.01569098423473096],[0.03491924808394013,-0.011156520736864904],[0.033362433535201394,-0.04335050748482004],[-0.028959969637560323,0.015904987430108337],[0.03691849281639288,0.025202364991102563],[0.030712676852360107,-0.0017121944399733219],[0.026407549215885066,0.020976194782566203],[0.0019535107533221623,-0.004832052492988914],[0.056441066253958505,-0.00812715549424104],[0.009052455719606407,-0.0418024172501556],[0.012840849676521156,-0.0074924119509173406],[0.003986770897761018,0.02793401364110067],[0.041779761134646445,0.02610717939288605],[0.0049005651092745356,-0.0020746747204530213],[-0.045207904054851436,-0.028469409806181643],[-0.05346257384340503,-0.01582488435609291],[-0.027379829439011336,-0.019355910179224577],[0.008041334249084547,-0.025366496650909048],[-0.015658355023518214,-0.024241528996972444],[-0.033125211423976064,0.02105648901618245],[0.005156089872492668,-0.011671923164333091],[-0.045148964928446465,-0.028132946689088098],[0.0005080991867228552,-0.029796756597973924],[-0.01217229564744605,-0.014978384273236365],[0.03963330793884119,0.016971606250233327],[0.0037986198126485466,0.0350911328249113]],[[0.08079053114821869,-0.0036206424447418903],[0.03500680657495775,0.02014955802109856],[0.0035043594177274445,-0.002758872682443837],[-0.01975448771834499,0.024272759573799593],[0.09641807905758874,0.012318806185927253],[-0.006343945559651395,0.005192388236305628],[-0.1020073006637715,-0.01689836950382953],[0.06787657527777406,-0.03947578007588545],[0.010809572457045655,0.03373276706052284],[0.09940915838859753,0.014192461564076811],[0.11751543124845341,-0.04617598708101545],[-0.06523225717414917,0.024686655814001448],[-0.008552042749290077,0.01049004619820946],[-0.10978838827610335,-0.0218449709692563],[-0.0233812668891929,-0.039812621739964235],[0.1308168522745941,-0.02710355162820658],[-0.012316919463675642,-0.03699505332396526],[-0.039512976490734424,-0.003458252123843295],[-0.09917814477536134,-0.03355749188822965],[0.05535004997717589,0.01712882660130556],[-0.08332297185496616,-0.006711311525297101],[0.09106324903623227,0.0009194462630158213],[0.09402554649867569,-0.03211518122307976],[-0.016675294568972567,0.040554826305951384],[-0.07711398017666751,-0.007541965773525451],[-0.11090932968152523,-0.012437137034153348],[0.09409374732578808,0.008412688734913475],[0.046632858555550064,0.017717148533914966],[-0.09582406671019582,-0.004093709040661464],[-0.09113298730713326,-0.015304365936674169],[0.09618332680034028,-0.00020091735527848122],[0.0401236250385147,0.004919334296635496],[0.011325756370340353,0.03586332483709191],[0.0949189784238703,-0.0031201479402594916],[-0.10744713160349446,-0.02391730978015669],[0.07494034887233222,6.599967934720442e-05],[-0.02549114855482586,-0.01902568227054738],[-0.11717060754654537,-0.02802198530824516],[0.08729994519669358,0.03171151435384564],[0.10510895530590157,0.022738306575869963],[0.07966429648331559,8.849435473539737e-05],[0.0006017001011376401,-0.006435158087995911],[0.04695305921174521,-0.013466492745411264],[0.02733532642557008,-0.02083919684287952],[-0.03245763815429366,0.03204791155992282],[0.06904513226865132,0.007659057609906943],[-0.03060494458269923,0.011250666868675218],[-0.03131750822150933,0.04795585525228936],[0.013081657749730916,-0.006313176586188059],[-0.019693709058316564,0.005311254466254532],[-0.03428901155046803,-0.0418984880201536],[0.08770230278066135,-0.008226099352469351],[-0.062052137409040295,0.03211000427183256],[0.011133865906654739,-0.07737806134382101],[0.10250998983899394,-0.02886182745346645],[0.09304138418043309,0.04253863734153622],[-0.0031246524042292715,0.0030770937291447363],[0.06673147770409024,-0.008230636677617705],[-0.07370076948160198,-0.006266689274108046],[-0.11111676150831044,-0.03663140393123309],[0.14537783856517575,0.013587694111870899],[0.020679409415235224,0.015903455212566888],[0.09870284570192707,0.01574649268041968],[-0.0704402868150501,-0.013410879512522468],[0.015257424811606163,-0.015800668070557244],[0.05804584607132534,-0.007588175843533564],[0.06916341168163323,-0.014002494049716218],[-0.04510604593048656,0.03146488275121304],[0.0567930170839923,-0.010778934023531169],[0.07893816050010874,0.005579776147133957],[0.007736190257124778,-0.0435481713190801],[-0.10850732315040372,0.004344239541728092],[0.06324674963488788,0.05623643746230543],[0.07685986293119768,-0.04947228963899875],[-0.0917654964413691,-0.03680242498306942],[0.10333226503910196,-0.02037198291212332],[0.04453833241857322,-0.014594532219260459],[0.002112329946547074,0.004052019471083965],[-0.0053343250017125875,-0.02319854590952351],[-0.0933726782935275,-0.004643582359657609],[-0.005573202951308446,-0.024177338934852122],[0.004435794228652775,-0.04077625826997208],[-0.021498868196360064,-0.03096895892230459],[-0.07736949818999878,-0.007939331470748745],[-0.018654758806311015,0.012485384880733998],[-0.1057026221001003,0.022380460415696374],[0.010662394449539647,-0.04475344709412801],[0.016478099850113236,-0.020912148376792863],[0.06851271752737327,0.018364747468264293],[0.0920034540717809,0.03329694688615526]],[[0.025086093447821124,0.005512582749960509],[0.010063762853149116,0.003116727137050408],[-0.0008495640657284849,-0.026323695406519063],[-0.02289413874560025,0.0011040570565711183],[0.05648100256880005,0.005417960738863095],[-0.00896053017774376,-0.003948274533114652],[-0.01682708304814497,0.008964452236596136],[-0.002386155390715512,-0.016057573407009487],[0.011627571060420509,0.01490944064026855],[0.02840089055833183,0.00018821787054804285],[0.039215825810888616,0.01785869931606062],[0.0045286141923871785,-0.013392314635681206],[-0.018092798584878535,-0.01511088914113671],[-0.04283361903197,0.0001282459504986403],[0.0031950708496850926,-0.003961437837462714],[0.06560449416275586,0.025188724111108837],[-0.002537840950184027,-0.005231695858563401],[-0.020667114088563865,-0.0013795415975548701],[-0.014047986786918158,-0.0023802256051958653],[-0.0026013344590311615,-0.005704228670725842],[-0.050987846039251696,-0.010194798156609],[7.51547001669791e-05,0.001534715389885068],[0.03357049585159131,-0.001923351178841702],[-0.016285902704224975,0.015664291752400437],[-0.04199533345797578,0.00203341237559607],[-0.050510681403118506,0.008041462664974557],[0.008493348991824645,0.019757964980731825],[0.012291392382739179,0.022429561087156172],[-0.026514767452004942,0.01980687500502886],[-0.05042641919894969,0.03716351832405215],[0.03334857899432242,-0.003806479913287155],[0.028669715796912257,0.012927646320973495],[0.01598664947364679,0.010861004237030125],[0.027912330298241556,-0.029994109698639165],[-0.017673949509545716,0.004884735039953925],[0.011151385700759424,-0.012619996611839452],[0.004840963735749189,-0.05553887310595646],[-0.0556108376513397,-0.011826298434076695],[0.02065264528820432,0.026657771569308503],[0.04500536033813993,0.0026897972083126647],[0.01025239526255049,0.018762417260361958],[0.01106046807707204,0.03983078920317578],[0.03364534241228444,-0.0045696656691681355],[0.025886282570181964,0.02083955475179841],[0.012684018058824657,-0.004686980556660413],[0.022266734630786107,0.025472756887068317],[-0.03677644908053861,-0.022315155689180195],[0.013576942028639929,-0.029160353052215756],[0.015205150673710406,-0.006950490765755213],[-0.010629778629669094,-0.0036525672195465873],[-0.027673084561128554,0.017831783441062288],[0.05681227852581585,-0.03517098398702995],[-0.02565831209641586,-0.002458273370185077],[0.017985247020466034,-0.032329430571302005],[0.050062238769800586,0.020994099860249374],[0.03610001211252152,-0.009528892587265088],[-0.006341915174689764,0.03519502205404193],[0.03213133842186367,0.013654255338985698],[-0.045959315735601206,-0.015318282053730006],[-0.01920890217637058,-0.00017811111516471438],[0.04707734420028463,0.008436544294825462],[0.00045376678662394304,-0.02974778955387203],[0.024932242950703173,-0.023276423984194102],[-0.03811850233910354,-0.03181153937576747],[0.02503275700807525,-0.030776326831583645],[0.011309767004811577,0.0011983085579974461],[0.04570028682773296,-0.014470633465385267],[-0.02712055464721613,-0.005958782740043247],[0.007780194823899806,0.02842114867923906],[0.01874768349209764,-0.0050361237169686745],[-0.00036189152377822656,0.009938620324361803],[-0.04474882244924297,0.005645528116095679],[0.011056676756332956,0.0009348230399299647],[0.0015759077218597864,0.013046553328288564],[-0.02280748042338698,-0.0307203290922584],[0.037158770327562894,0.013104560213240935],[0.020912293449987393,-0.0024461944835699823],[0.007194473904025277,0.0178802301580471],[-0.006895260199991433,0.020580226615954586],[-0.037868445717888506,-0.006160134997698844],[-0.007981240956106335,0.008939541046691106],[0.040624178165977735,-0.008519675044893073],[-0.0030811589944583747,-0.005642928582348707],[-0.033216399068733284,-0.01629735475705823],[0.010587642279817422,-0.024776342404252267],[-0.03164277934584239,-0.014913311263878487],[0.008510064126163775,-0.0029979484451136346],[-0.010723169963908234,0.0004211903986802894],[0.0065848722512914576,0.014477602467114778],[0.033442195367644284,-0.006420985840292664]],[[-0.005173290864933267,-0.00743346066269981],[0.009732070944802296,-0.0066430770440464755],[0.008015110192827425,-0.018691619985226244],[0.0062907914388549814,-0.0177635036693523],[-0.06490677891789629,0.0002066799945747456],[0.0018967247738504946,-0.00981090628687356],[0.018724614481585626,0.014731941345633557],[-0.055006263250319175,0.022727626672524426],[-0.009882007852955753,0.01578800360365624],[-0.07228974462114297,-0.005926132340811692],[-0.044869569970704126,-0.013557677765194832],[0.033867405323377134,-0.01701837386165028],[0.013761583507685107,0.021693930491055512],[0.05866377814480738,0.008940412588297524],[-0.00463309666802361,-0.001960301436771761],[-0.05024649854691138,0.0011968548775113264],[-0.0107126388827383,-0.00896828251392588],[0.017782732141714063,-0.02092994839239222],[0.037804149802292984,-0.009777564872478519],[-0.02329725681090393,0.029056059498681137],[0.023545538877064724,-0.0140191543599248],[-0.03832212900711854,0.010643806178763265],[-0.024170180613638372,0.013763887096611879],[0.000785141753851666,0.015895724888494916],[0.03686156836781221,0.00252229618046394],[0.031009777247194725,-0.009868584278608877],[-0.08538111655605399,0.007698764417278543],[-0.0037099937879531753,-0.00962996475553556],[0.05904685962341821,0.013847080786243441],[0.050186602136507184,0.00891482331913487],[-0.013523364448956054,-0.0015235130029448507],[-0.03829980571866249,0.01593905569136062],[-0.005433886727551661,-0.013709900922292925],[-0.0450909399647848,0.005933378164557459],[0.036263736722520756,-0.013070060355197432],[-0.017409634277182232,-0.0029088460473128065],[0.007141326040621324,-0.020297597413518168],[0.06505197520197532,-0.017929263055442013],[-0.04506602990433403,0.021538716853469038],[-0.07666564665971953,0.006110166091551463],[-0.05498153961744816,0.011881420433557279],[-0.01905502421475563,0.005393006680158293],[-0.04133287535382845,0.009944498524766419],[-0.009549131729007374,0.004150847166271216],[0.010072608171867762,-0.009860561665721485],[-0.06398463983730066,0.00869122657368905],[0.020617830854559833,0.0011908106685421908],[0.006030674763264677,-0.013093277824579247],[0.006067447705315437,-0.0037001593651773113],[-0.013249410973520552,0.026815988490027115],[0.013735540563251535,0.011459513622647528],[-0.04436398011468902,-0.0066292576627938376],[0.02735070494849077,0.0006178845953398158],[-0.0010352328562284422,-0.015160465398047423],[-0.03542291141062028,0.0007417777462513628],[-0.05383264185769295,0.006656110963537723],[0.03613233786006542,0.036224593748342984],[-0.049872953142361794,-0.027843544827810957],[0.03600346050813948,-0.029816762393084],[0.03683914445306189,-0.0289121078844222],[-0.06969197612357309,-0.01643404992367616],[0.0006959618306175645,-0.002804180038317173],[-0.03833696866908679,0.015717766600362858],[0.06780454594499684,-0.006941830409847874],[-0.016053973899136008,-0.013871069971325629],[0.00443528701631213,0.000933329597512185],[-0.04908085349413137,-0.004388853489763521],[-0.005057425780706292,0.010056402339807957],[-0.02556227402415442,0.020023375861821294],[-0.05560895471829026,0.009068324252176331],[-0.029278588112234657,0.017217711271854313],[0.06986449888041417,-0.026544538469793388],[-0.04191568230411505,0.0017501502608602997],[-0.042173864337724236,0.008116149797340084],[0.04242587139767759,-0.007930880692046303],[-0.05108101539784864,-0.00852579316891078],[-0.04280491363455913,0.006925060690708846],[-0.01963829903563199,0.005042897236062858],[0.014612627548389625,-0.011706303302478814],[0.01996153551795983,-0.024126137144252057],[-0.009049106053091428,-0.018856053769545852],[-0.013129863847422915,0.020030168370274836],[-0.007824460214754744,0.0015296567930618234],[0.027261168777491438,-0.003659185835527075],[-0.030477419491925815,-0.008780134648684181],[0.020455078365488634,-0.02299417165095541],[-0.01935711529498186,0.00917090064551478],[-0.005680462017858628,-0.002755827030504392],[-0.01878474796163241,0.008445478626729308],[-0.033654326517335936,0.012179995158748165]],[[-0.02919641633081965,-0.010984760973273193],[-0.03086292519154529,0.020893639032507818],[0.008977258173096829,-0.0037755235225453007],[0.0016570275798873958,-0.007827704753304177],[-0.05102466271776077,-0.016596957889427295],[-0.009319887398872202,0.019617504160996512],[0.02760494748543963,-0.0004281528632946224],[-0.04349144953304849,-0.014415067232699873],[0.006926312789219645,0.029488362033574866],[-0.02146869824616927,0.009522725207206734],[-0.055182573118722246,-0.0009055033211929211],[0.03237176466160941,0.0090977183875871],[0.013675777151337403,4.003665402455228e-05],[0.036987749326595064,-0.010374457267795924],[0.004743031112240241,-0.010674443015531703],[-0.06619376931029342,-0.019555833655259775],[0.007777683325824571,-0.008714767719800115],[0.02167576012427296,-0.009264062135306658],[0.03126549303018407,0.005663146882034128],[-0.005017467435472677,0.0022247039812106836],[0.019369989896271034,-0.011124065573422041],[-0.04238067945065162,0.03696547232834852],[-0.0011117532213436713,0.018475076399723154],[0.0021797331109533174,0.016741812476134314],[0.04189135913085929,-0.024920336067827592],[0.042420960987320636,-0.000583220521763845],[-0.04368190636726652,-0.009930819025707744],[-0.003124376449249607,-0.006119293337776406],[0.043743948200900426,0.0019738082326314042],[0.03393586119046853,0.014344269450407317],[-0.04761489715931984,-0.008340277680718955],[0.016157999588464044,-0.0017611889015032873],[0.03212948056396328,0.00014024085915145582],[-0.043723596152331096,-0.02351244715445858],[0.01928177406813283,-0.0038272048004913753],[-0.00647462309754893,1.4865205614713499e-05],[0.01035656043282295,-0.004204063470064615],[0.06941473695463188,0.012970009158476396],[-0.010889156681594396,0.0481279015189087],[-0.05554192587526955,-0.007361171095596173],[-0.005808917055106855,-0.009574227748270213],[0.021510949573711777,0.013467320021967072],[-0.0027654250990240786,0.011770564918689885],[-0.013081896285348407,-0.008674302896912152],[0.0049208351092047105,0.01632146604566855],[-0.016256223587803636,0.015527501459264438],[0.03529451850179955,-0.0006842514717564394],[-0.0003644868332477371,-0.015752623749342186],[-0.02731837860817444,0.0027775890840401195],[0.001271467709080247,-0.025167995501514245],[0.014297861066859466,-0.024811963302585057],[-0.05698861121022013,0.0037300988950423825],[0.04410381875811766,0.006444559839578941],[0.004782389505628593,-0.026523278958747128],[-0.03528616192114735,0.006403789956191028],[-0.018382811801883184,-0.012291116029500435],[-0.007249390758694953,0.0036188027942402378],[-0.029592141641296747,-0.012271238109754768],[0.0396152528813741,-0.006753172412417072],[0.030902032017764793,0.002301501581910976],[-0.07561073229492207,0.0040777839659736515],[-0.02608999722064234,0.0026268804893993733],[-0.016757841148445286,-0.009377042404891067],[0.007902776137161878,-0.010300708511943315],[-0.02694928438819523,-0.004446138102143892],[-0.02082521835863191,0.012964648631564178],[-0.05724627578297091,-0.016919519045170216],[0.0367432844389211,-0.003423386476943355],[0.0038955865000804115,-0.011858561814694843],[-0.013998043359459405,-0.0277475019664949],[0.0055574738637363605,0.012721879304534623],[0.07138200508886743,0.03209355738793194],[0.0003474506417619062,-0.0075249828686360975],[-0.03747661440855594,-0.017439896123017024],[0.06002703659258088,-0.0015391605740042154],[-0.052949366908156666,0.01152752649497619],[-0.02419333565319907,-0.0053009155751661445],[0.03326400276659885,0.002905187796522466],[0.02542960612808558,-0.02005640893783481],[0.04326482748675971,0.007387174603671817],[0.019365444553279453,-0.00033905967484411316],[-0.02005101892950388,0.004982893653554473],[-0.004953619770942538,0.00468470754606045],[0.028097146298727282,-0.009891965089194777],[0.0021519676455103135,-0.01487344645965538],[0.052623834011185984,0.01384636749799044],[0.0018713109914242363,-0.02393637256943046],[0.005603279558340646,0.036380784626928266],[-0.014407513161246685,-0.0019030217233623784],[-0.04385432350695039,0.02807134740669366]],[[0.04370858049382802,0.013708089258903091],[-0.007980787901909576,0.015220923609863298],[-0.016062168939936738,-0.01469025868949534],[-0.010412592216509182,-0.0014408005382842495],[0.013651994217218683,-0.009821503052099131],[0.004822368266383156,-0.016778876959544088],[-0.025749518431933467,-0.00539939693607066],[0.016436596618718803,0.024867620798212246],[0.0021841277582239933,0.008478647388049909],[0.01196389474365928,0.019928511380793185],[0.045463063993933774,-0.026084765604528125],[-0.020193983509739555,-0.00713560449280192],[-0.011508799109494795,-0.021763231246934373],[-0.03759918394259885,0.005211151910366961],[-0.07001037775422682,-0.018724193162430586],[0.03331471699720051,-0.011210078250081938],[0.000925373902934627,0.028607082024779427],[-0.00849383947690948,0.004506372202947218],[-0.05228747648728702,0.036467011550402904],[0.030144892339180114,-0.003969445027992561],[-0.04941740687477771,0.02380771922507814],[0.047827263788325934,0.026984417248389136],[0.04004207982293866,0.02925952653936966],[-0.015106797388509766,0.019439907140569375],[-0.04930556619635074,0.008720110772522412],[-0.05101536288927579,0.02492117037444235],[0.038494935975235726,0.010367429410293238],[0.014161459468760086,0.019868964097222927],[-0.014957120248538121,-0.022381730177206453],[-0.08527436206435708,0.004363580375635439],[0.06751805969701186,-0.0006980884951196775],[0.004832887838997578,-0.0022899654640147963],[0.00982532627238618,0.0190994738368414],[0.045382451177737246,-0.0015150703232124315],[-0.04026012538562768,0.02653148336152136],[0.05938689039913945,0.06359431000517642],[0.0053070842437589385,-0.028549364008541887],[-0.02961600633942584,-0.001566123433370299],[0.02968639217572538,-0.004762095303811901],[0.040089162862827925,-0.00826330548085555],[0.05933435533283336,0.021614426988372914],[0.01855400878580126,0.013339176152351596],[0.0168309604676329,0.019581641355984707],[0.0014269102061688268,0.022631266281634956],[-0.002035370116147383,0.03835446322356292],[0.03724919053169203,-0.00608206557110738],[-0.038685839556555995,0.015611820861247955],[-0.005482738780470991,0.06362628079135173],[0.00874429502107193,-0.002350343482137739],[-0.029138271150717487,-0.02163979783503747],[0.028245245926218465,-0.024113866832497884],[0.02878129029235406,-0.010769882970338067],[0.002163865423307367,-0.02966943868071382],[-0.0046744526621185995,-0.00513976859491105],[0.031859459835884986,-0.001973959061600256],[0.012629955108056527,0.020957951489844112],[-0.015097284967152472,0.03786965298811275],[-0.0067377486747346215,-0.04925230837880124],[-0.021629706996205263,0.02419405906417736],[-0.05895324340568055,0.030225173140659],[0.07652966796656605,-0.039125387451140456],[-0.026680179900927442,0.03095666592268478],[0.0183710311421798,0.00788585037338125],[-0.03907907600477115,0.043986269877175785],[0.02109955216544144,0.009546656124869672],[0.0014393749030043436,-0.002112054099851476],[0.027773533681357578,-0.04830068287437147],[-0.03695930403233037,0.06506969516081883],[0.0036866743897328033,-0.006842157827500395],[0.034373266320206555,0.002138200203018938],[0.028754772982697973,-0.03220658118121307],[-0.0568074800961769,0.01123875548004942],[0.06488609470294833,0.026253332271151647],[0.06676946906694256,0.002224459083198304],[-0.004344273092148001,0.016457507058826735],[0.015128029301278486,0.014994672541108388],[0.031695520088251924,-0.004424428631216651],[0.009438451260004059,0.0036945748116437712],[-0.01672084354670177,-0.05013884721864453],[-0.03634858399403561,-0.021223469165684055],[-0.021808663490251526,0.00564596969893089],[0.0019616902659253524,0.03555889344125217],[-0.04320248186885528,-0.0338205298558456],[-0.044024247678626484,0.008767691252872384],[-0.0063971026528430236,-0.0019919658553848862],[-0.02685854804384465,-0.04053975293439721],[0.004093972999812468,-0.035112812207612545],[-0.014423095389034978,-0.041314190982151305],[0.028250622929484565,0.006437942096597746],[0.01788730375568711,0.007713891719127347]],[[-0.03385910817017455,-0.010001527797571077],[0.010595025640782879,-0.020648348455591867],[0.022183473896995546,0.024802192794243793],[0.028457932489248643,-0.011837616062065535],[0.0036466298273649077,-0.0029657166258545997],[0.030833533939930338,0.006955932155227923],[0.029486517430343504,0.014749875222271063],[-0.004652332522200174,-0.014545291892897586],[0.010559961098444724,0.03021285019272974],[-0.03320180439371494,-0.002076434904909457],[-0.0017779594776760992,-0.0356935750950315],[0.0030565918441825546,0.010325066281652775],[0.03844566716340857,-0.039428353796251536],[0.035975858398719605,-0.01888870820775857],[0.04342772453818529,-0.0019996702408233624],[-0.009244313156979864,0.020169176365711017],[-0.009928126828986422,-0.008131660211660497],[0.00949590078524731,0.0312653755069983],[-0.004715461550214774,0.005380467809851641],[-0.044682594814985266,-0.0027590797273456024],[0.015929279769567296,-0.019988831676829154],[-0.02275140385864052,-0.007772842808499541],[-0.005750308637121974,-0.011379085171999013],[-0.0017328447580984216,0.021915209036622033],[0.03493227562733221,-0.0033071115063293514],[0.006824631398029465,0.009414830416645582],[0.0007221097849483028,0.03287419597471361],[-0.024192645330365657,0.03850489714901017],[0.02802596794602876,0.010202148839841697],[-0.003308114030746722,-0.0060771236378376805],[-0.025446980498022163,0.0003093744201242968],[-0.029276619342840433,-0.008846028807270562],[-0.00918979008085833,-0.01342314788516811],[-0.020312533461156888,0.004097487845660902],[0.01668737257763442,-0.006576293595227194],[-0.01208785653726194,0.01712549142210887],[0.015348618805429289,-0.025720667886932353],[-0.007138206429997913,-0.02132699026964891],[0.014241671935408227,-0.01591578894557803],[-0.011422768289443185,0.02126834853256287],[-0.039247780954248454,0.04071971382604867],[-0.021484290149055216,-0.01421310698152702],[-0.03334085113501231,-0.0005131098158395804],[0.009565668963363961,-0.0022750945438339215],[-0.019897137335429853,0.015508547822148317],[-0.03962246845386663,-0.005416404150646992],[0.028088092650405478,0.004825126266050336],[-0.03276226488002876,0.01986807608487036],[-0.01761631026602028,0.0029456948718851314],[0.007263732147657326,-0.02777930271542421],[0.021376558379785006,-0.0031116694625887885],[-0.03122646990888231,-0.0005027019888707192],[-0.006678442087240607,0.023985478818164218],[0.030598850524626835,-0.03606118306694773],[0.014355296227099391,-0.0010441886889479234],[-0.026825514419307916,0.043911626542763114],[0.004652416916431528,0.010179796831233207],[-0.014795395376979593,0.007264538109641329],[-0.0029647925468410004,0.019661907621840266],[0.03200957715493277,-0.00942359921242119],[-0.008349999029462832,0.0026783184453952973],[0.02422852166389408,0.015341999331052833],[-0.023654808862655922,0.0003620960820643429],[0.036874126329581904,0.004230778486081672],[-0.033483251693677496,0.019245025146973776],[-0.011669898929918394,-0.010015880857952424],[-0.00909133478337388,-0.03055889690358533],[0.014241869393156904,-0.0071371824039955815],[-0.02200977929738558,-0.010226330190808935],[-0.0548594301317427,-0.0021055553237550096],[0.03256035100264944,-0.024272293111122514],[0.015657636166092254,0.016619881431127546],[-0.0792558875074154,0.0225622013707245],[-0.025459460860522094,-0.016946371181632634],[-0.0022808733753422183,-0.006235246504791142],[-0.02433158696474153,0.039648585051959666],[-0.041128132920918214,0.018449316132015295],[-0.035430787804591454,0.03067651098480663],[0.03073883147530187,-0.009552319132605002],[-0.001587891553978673,0.009276367221156226],[-0.03419749265066322,-7.294510387989751e-05],[-0.03824589541427723,-0.030922528621338714],[0.01794376005205468,-0.029197774139025003],[0.026373097129901407,0.03896309684329054],[-0.008971980625232117,0.009172688415212807],[-0.0037931292940468764,0.0027273283290564386],[-0.005721729399480475,-0.02615880188314802],[-0.018224529172159637,0.015118977230363066],[-0.031917477369552125,-0.011498484603592807],[-0.0011655194282055026,-0.00620552512315224]],[[0.041078272499961495,0.013487152737581267],[-0.0022918672420560245,0.004266080332372407],[0.009931075445021205,0.0021014278877331603],[-0.024447093313174503,0.01186406208217558],[0.0817869413550899,0.013682264898489787],[0.006488990845606991,0.033126014747914864],[-0.05986729377413964,0.0012669165310872535],[0.0606994017351199,-0.015776745074066484],[-0.002190713704223475,0.029873788132481194],[0.07515000939095907,-0.004125226656138096],[0.050577125638889324,-0.03152763046607032],[-0.03137125583635357,0.016912772411523794],[0.011603887558208785,-0.009285080740810794],[-0.03832677646169711,0.0017035806041838534],[0.03142376117998609,-0.015279499107457243],[0.08142653915981346,0.004003381779115653],[0.033785411474194504,-0.018174007539025046],[-0.05487549835551359,-0.00717707460898492],[-0.061195653914539204,-0.024865855426658298],[0.00795521511606335,0.018027328410030588],[-0.04218661058841569,0.008096911726359624],[0.03575437607109924,-0.02413122793312422],[0.033177867135805963,0.013220412131196395],[-0.03980330828338306,0.007628100727770478],[-0.020837115324690934,0.008924772477874642],[-0.05197447220002413,0.014565604363259507],[0.06758272917041441,0.02334068002773401],[-0.006081839970199125,0.002629894819481552],[-0.05306956812823349,-0.02743173008704265],[-0.04843527760221551,-0.014161717106926035],[0.03726152623786902,0.0012371298634634284],[0.04905462228675226,0.011002766190140489],[0.032900140233729336,0.00634132843771053],[0.07812722685346303,-2.655749181191302e-05],[-0.06375476138392143,0.014390714573391337],[0.035724234617930194,-0.022234731479757124],[-0.011078690296258353,0.004007244914064844],[-0.1050977019247224,-0.018219734420892128],[0.05341018564121595,0.01114042290787702],[0.08435267485846051,0.006707082092065231],[0.05310812806926877,-0.0074597217565178274],[0.005628402447447828,-0.022794654578693174],[0.09577646455088316,-0.013718184869313704],[0.016405699545065277,-0.0018615846517712014],[-0.03485599541924927,-0.00904152748062887],[0.04666337532110004,0.0043751487400079635],[-0.04371549001266712,0.03541784367485552],[-0.04225002985121536,0.01639879111041491],[-0.006345215257408862,0.015100062340843674],[-0.02413154527780825,-0.01050325282256397],[-0.03765247958595744,-0.010721937746136202],[0.05274813066344785,0.011841348794255918],[-0.08016746871675695,0.0023549315772480564],[0.007343860024878731,-0.016731681632267643],[0.11723047716707517,-0.0031122409405292366],[0.05103903507453909,0.015124189095305371],[0.014547179636022617,-0.0068592289488770145],[0.0584709563628935,0.020360499572843745],[-0.012672099944138208,0.00011855376724117398],[-0.05189328023613169,-0.011114038776347793],[0.09601367790740278,0.009253131220214754],[-0.013115769826307295,-0.010165131349817324],[0.06680516231747842,0.0053012229654743935],[-0.049427142089989225,0.019603272448462782],[-0.037229334683229205,-0.01882282333853635],[0.02433893452670791,-0.012356808436091623],[0.0025816845420752956,0.0019435744128193906],[-0.06692510257348062,-0.0061866566287864955],[0.030548184741607656,0.007064174012114709],[0.00561517071885134,-0.005192833873358001],[-0.015186979858108872,-0.019632164662216362],[-0.06643634849104635,-0.02992065733128046],[-0.02017302421202587,0.023193592987820647],[-0.02101637705776575,-0.004259046234651147],[-0.031009856974226414,0.005608201985119778],[0.05156504971029271,0.001912721367542309],[0.021378947448726395,0.005832170000034357],[0.026518965456028713,0.03502405071869213],[0.005103300797278165,0.022246756991016026],[-0.03776321801247213,0.004818785439518442],[-0.0006975689739805821,-0.0007901329467600953],[0.02010094050881517,-0.05878868527260974],[-0.011453079872461731,-0.0025765889391636517],[-0.03457998130083325,0.023321301009975755],[0.06929492739933037,0.01376663567356197],[-0.05724762363177166,0.020830191467875403],[0.006316166542384745,0.0018008863184713194],[0.0073153033643377245,0.0026039953804619055],[0.027032741265047466,-0.005083698387041],[0.06373154545111531,1.26526318543162e-05]],[[0.013496623613876152,-0.009087547429102177],[-0.007923156282934914,-0.004402797627762439],[-0.020457069422179553,0.0176161056979262],[-0.01629521627814546,0.007424765359534409],[-0.0017325456028218938,-0.042202151967109205],[-0.009209687582779135,-0.0017062770587157748],[0.022690351540858925,-0.005400708942096654],[-0.0534337842013579,-0.025923677150990886],[-0.011991353548972175,0.08117523985858416],[-0.009717796923809996,0.027195504675136196],[-0.021595173962096034,-0.008892850489540097],[0.04174576630266811,0.014550371357817036],[0.0007323227183393906,0.023824879258829434],[0.004959474184628255,-0.001737198756379931],[0.041590887887301864,0.007730684585064659],[-0.02085031018069314,0.024705560046358956],[0.022443701664303754,-0.02518422239649439],[0.017520617211069126,0.012575556739376492],[0.02311835863256452,-0.02943382269913183],[-0.011273675450173506,0.026505707238079157],[0.017129661553122177,-0.009996187194342294],[-0.025004534385405147,0.007850311392830258],[-0.00848507755241873,0.0485832239954355],[0.03693784324451692,0.022453011130379275],[0.043454404536739474,0.0029377271300314563],[0.03263464010093579,-0.018778302798460145],[0.004760287420241804,0.006691390453856747],[-0.034022026255519054,-0.012298046209995105],[0.025032987127932466,0.013721524765490638],[0.06350633508290418,-0.010418957086074506],[-0.032031811872027104,0.008195889033069365],[0.0018366611893968763,0.03323629026043629],[-0.007412344171872735,0.01569561785355459],[-0.023258232219413033,0.009142524872995425],[0.04212173862620506,0.04451173087590755],[-0.03543811549185229,-0.0016702202528720378],[-0.04841660348945287,-0.014060095063096661],[0.04126211560970516,-0.021628874086931475],[-0.025146924252385648,-0.006308813963234218],[-0.050150862795184895,0.010304689506499268],[-0.026045567014379496,0.01494752587316358],[0.013893622712133076,-0.010706594138964298],[-0.02995553219968373,0.011599364524044144],[-0.029819795465143125,0.01420086190266119],[-0.027920591211383655,-0.012127141416147888],[-0.022412119456347253,-0.006953176813057995],[0.03683816613411421,-0.008376246752797734],[0.014030031160339984,0.009439872250795428],[-0.013657449369111648,-0.0033134651592319816],[0.0356689442408534,0.01658686002377969],[0.008533250362867359,0.031037482323192023],[-0.030591802123163193,-0.0017454680996622537],[0.019439247198540455,-0.004146676689164045],[-0.021256132609275735,-0.003385144133604116],[-0.029207175428350808,-0.011598039282881258],[-0.024546081370468115,-0.018279708433766816],[0.01419600130842628,0.029451391420148985],[-0.03421215014247154,-0.0031917562842496785],[0.030507489567333807,-0.011768938524772085],[0.039371175181701155,0.0011947802075516153],[-0.06555244566105603,-0.005563524869445424],[-0.014677788621428958,0.018168070196687907],[-0.041654974229489994,-0.00750581400662841],[0.06496753450690314,-0.005041961444170726],[-0.01303909044750227,-0.010021409964773449],[-0.02170854471089153,-0.012548964297854804],[-0.03315265252650916,-0.02529700349397454],[0.039178557996932206,-0.021666967464343677],[0.013818621976691746,-0.01642041040091861],[-0.017482949555161748,-0.011341151613564028],[-0.008886408157721865,0.02714223369421801],[0.028813381511270397,0.006181623679663703],[-0.0018724228599736154,-0.019440153201351763],[-0.057009752282741674,-0.018212506256622896],[-0.019177432805584187,-0.005891976523817703],[-0.023019042182489693,0.035161225765058535],[-0.00721445119158802,0.006529158017025002],[0.0073158496606157905,0.017828596743656284],[-0.008153235397944561,0.00945795029515168],[0.03053097319600781,-0.030435543598258778],[0.038785799696836314,-0.006756036525694241],[-0.017560453054296883,-0.038629405770800686],[0.039169797741595756,-0.0184245898089272],[0.06309873670090657,0.027192993487134366],[0.008783601998429381,-0.0016778556772665443],[0.019691182275443638,0.0077714235705064055],[0.013510693898536093,-0.002324274653353064],[0.028077357258419967,-0.005933739924389898],[-0.013896413612401747,-0.0009648198111627753],[-0.03790501551730986,0.02637481346973608]],[[-0.017279158650368175,-0.0004892743091688852],[0.016436079355832807,-0.023827709266076802],[0.0244701106559691,0.007418430000851961],[0.0014156747436579547,0.0098295272031621],[-0.030339735491378823,-0.004866945630506714],[-0.03818997155182549,-0.0017178806842584168],[-0.012554939975289703,-0.017110323051421007],[-0.02084765516420241,0.02728618649375736],[-0.015687225780175486,-0.00726002188906417],[-0.03888222777579039,0.018320963100801984],[0.013690229556433715,0.0065585492971424655],[0.008503592909916837,-0.03209147042409257],[-0.02254957695557808,0.00394394150689989],[0.02502602533891679,0.01028317290816677],[0.04219414359455573,-0.015645372791064965],[-4.1417656366954034e-05,-0.010952443951209749],[-0.009179962748732168,0.008166986694033773],[0.03582777292892367,-0.014921598645066468],[0.011917447845351746,0.015753029821792296],[-0.01990445825940052,-0.0038135047241702647],[0.007645855597894722,-0.008043037808443084],[-0.05662110672421112,-0.0024996379933467936],[-0.0012627911941984183,-0.023523526164202297],[0.006176279177863145,-0.00292514815208041],[-0.0022477744721280616,0.01581041433739615],[0.013903805623332887,-0.002895116316149842],[-0.034867879109380696,0.004200392936872816],[-0.010492890527179766,0.009441004728669879],[0.02782625590786457,-0.03685129200457999],[0.058291992136979755,0.004230319148371582],[-0.0368687003103358,0.005988205693983849],[0.013973900685013863,0.00877523646694588],[-0.01641989314671532,0.013991682472427342],[-0.008511997081040605,-0.018087507162771833],[0.012838537796633645,0.0686459870344892],[-0.030354635612101916,0.040304856719224263],[-0.01442068086723532,-0.002213712085897451],[0.022228320619425146,0.008898805297601602],[-0.0005846617044118763,-0.012212288968284099],[-0.016582244169663703,-0.007791138451338359],[-0.07550681718803316,0.0079616250180976],[-0.010085202433673475,0.02783342873929463],[-0.02829983536785482,0.007501182250681461],[-0.012627399573920377,0.007248711695611752],[-0.006230719097042901,-0.012091703458487358],[-0.02117809563308391,-0.03326970709987396],[0.010290772313426627,0.01083363877074459],[0.029934407056014564,0.04530265725908611],[0.01667364521448347,0.0117182406625331],[-0.0045099426753933015,0.010667270871879388],[-0.015470216585557863,-0.033787223073319723],[-0.011016654042426868,-0.0027953966811463753],[0.02751517825160996,0.0001376596738342932],[0.020128914190422932,0.04706217576421939],[-0.044614136485527714,-0.006445218652673038],[0.0027998770519067065,0.012104429353581445],[0.025775470722578794,0.0040984612478914585],[-0.023497411348508336,-0.001957898213920622],[0.004539675042247057,-0.005559826038844118],[0.006260136376555062,-0.012953308068931059],[-0.039688596078393826,-0.034605472594736744],[0.018236779074010247,0.004372023915311709],[-0.01069211437424232,0.03490692670681306],[0.03408587198847759,0.023450031683795013],[0.003890365488509146,0.004420469455043007],[-0.0007987604498917722,-0.03139064853495573],[-0.005878078042734082,-0.005103301577183578],[0.046922613423786064,0.0323196551113559],[-0.007290138882733874,-0.019002187586030887],[-0.008771194705461451,0.014445886271492495],[0.019362067169703557,-0.0067291553656264255],[0.039953247740087815,-0.003792710867502454],[-0.047049740367017076,0.0021424876758899805],[-0.018578736390199906,0.003946451273911421],[-0.034729739146277715,0.007202204939949246],[-0.011254685783639667,0.016140050557933935],[-0.020982173793237704,0.0012760995623403773],[-0.024168077283589134,0.006830152440051314],[0.023553019324946745,-0.009446947754560595],[0.0028881510414552804,0.025657195177415448],[0.016768861061171033,-0.0065245572423017865],[-0.0014251120502246834,0.017444580077103193],[0.010570085551458452,-0.024543186287153563],[0.027614329763767997,-0.016592832969004895],[-0.023526453284348662,0.022164773718629675],[0.004153951214430334,-0.003039682118480381],[-0.006924903356694571,-0.020267864044768068],[-0.0008090109098320311,-0.04799596896986832],[-0.02287792963399792,0.006633751406276768],[-0.023855039605205127,-0.04137210521673538]],[[-0.005107983153759828,-0.03579378379055043],[0.01717287974288951,-0.01922245219905911],[-0.01038028640664704,0.0035119544274380696],[-0.024158051250744807,0.004262693082747993],[0.026886972889555272,-0.018846078566428774],[0.0073631080775496014,-0.007426829075520672],[-0.024416177587087112,-0.004058279859354462],[0.0577038227097159,0.010215394867922521],[0.03288895729939791,0.01432279829913372],[0.02471786868906753,-0.01927543164919126],[0.03127533106840318,0.03127570278845703],[-0.05643061542013009,-0.009379154203240429],[-0.015919503610134878,0.01660373635216145],[-0.038126010517018936,0.0160179634642415],[-0.053224523955157456,-0.008042768946742666],[0.040294052001784084,0.006204832004198569],[-0.023089706476852302,0.024726495366834488],[-0.04331352105984101,0.005920944516887676],[-0.04702974934262643,0.008461649335335086],[0.05170614201754269,0.015224197786267397],[-0.029668077267848016,-0.02995039593262718],[0.06574489536567381,-0.011069658865390113],[0.01565338612312864,0.007284496061039459],[-0.036407926381179415,0.029808765586489677],[-0.059085986237198594,-0.0005786262374949645],[-0.03713886270799548,-0.013500925547789372],[0.04280415761275541,0.008514154391590726],[0.051251913158796826,0.03696092529471288],[-0.05216205027616419,-0.0004549744023698802],[-0.05796391003026695,0.012815865066817134],[0.03436423994181874,0.013881819132620828],[0.01597016568777258,-0.010818144424620086],[-0.004112559206252216,-0.018662295002924597],[0.044561661058254064,0.007639772157044256],[-0.042613557933932435,0.036582742672127376],[0.03994597072860221,0.020311189030402518],[0.00357369655787432,-0.018892737278383843],[-0.03165282028243244,0.016949779555329027],[0.03797605801203471,-0.01892102933718967],[0.05054655272338431,0.018198866229600656],[0.03813718650848014,0.0786150155503458],[-0.02470927809400379,0.024352911421439243],[0.023294126751200506,0.01563644305600519],[0.03265280029157521,0.003189680594337534],[-0.0005601720308194734,0.002578520583996164],[0.045039266976780123,-0.02676216354435628],[-0.0306999539680905,-0.018194762286791392],[0.041377173940068165,-0.030489461200796365],[0.05675026247027916,0.026294633495758203],[-0.009768514514819117,-0.02066597122614052],[-0.04308547598702008,0.01645305893279371],[0.05310177120700991,-0.014150342619657521],[-0.027698050678618198,-0.008111607018095032],[0.025047483729636815,0.047199875520736206],[0.03390656147170609,0.003709385057518053],[0.04715020475514819,-0.0035546419799446214],[-0.02563108189994442,0.005234879132478994],[0.06448556062212445,0.020878029301170456],[-0.057580011344342215,-0.006653420323606414],[-0.04013672543743573,0.01317889499168526],[0.06592705561025985,-0.027642203760692808],[0.021435942305770356,-0.01756550774867958],[0.04890319340655796,-0.004107464548213659],[-0.07026579742159357,-0.023318586401705255],[0.06067643115853437,0.009527336188563492],[0.03262897020163006,-0.03195243826112892],[0.061418683281357606,-0.015383378444619993],[-0.06203405862436532,0.008766207447964441],[0.030937089829907838,-0.0058455055983702014],[0.055488402770405544,-0.007584761338313026],[0.021457388610342434,0.043046174154501876],[-0.08502062651580379,0.04625884126480294],[0.05973314135995041,0.0051643415436157395],[0.09485818772568218,-0.015937727585503998],[-0.012679180836198883,-0.009121996287157002],[0.03789374628954293,0.015466683629345244],[0.052418231723467185,0.011775288779683566],[0.04435339666000475,-0.005049380047989271],[-0.021881395849522145,-0.02360492702487364],[-0.03547057257930726,0.046068696415322935],[-0.01698495696558862,0.005682460275194318],[0.05743551716328875,0.0074612737906962915],[-0.052068014614452235,-0.02729437439717427],[-0.06946607864784092,0.012918941413501535],[0.01517652726751355,-0.014818185380642586],[-0.04148867332415202,0.0029690080917401484],[0.008936015731777398,-0.04621110967796943],[-0.035403911091622366,-0.014207030981446742],[0.052179292648136165,0.01410472593293517],[0.03667809824195693,-0.014293403327771629]],[[-0.03914348414792183,0.005560630183759667],[-0.030115158050066246,0.023367158018698545],[0.012813351071209097,-0.012964572024445856],[0.014030515201060979,0.03100162813130883],[-0.031652878143934006,0.018132604203588133],[0.02472513851295669,-0.02727026552956311],[0.043457738583524266,0.0031537966473283324],[-0.005092138046899673,-0.01726626227349141],[-0.010395640128324252,-0.012462079330230476],[-0.018214867514696757,-0.007894158849776158],[-0.05475876359169628,-0.003515411010551689],[0.03525099497567168,-0.012965069802223209],[0.03995275822993109,-0.02468518524606827],[0.051211925374516055,-0.005673534494560888],[0.011173276528106917,-0.00040973894106128753],[-0.04137642346325098,0.0010296908368603178],[-0.013399700819531705,0.0324500010379302],[0.04983404534031645,-0.005765329441131442],[0.06410178655763057,-0.03643267714739721],[-0.03580932105910384,0.004606681356124444],[0.046445358108463806,0.0015330643871597374],[-0.04145289413820663,-0.02582045985959767],[0.004918190947452114,-0.026140722227272324],[0.020638432668406897,-0.03626249936534568],[0.041480672106528435,-0.0008538713995763784],[0.021515306344663365,0.0012248037011908892],[-0.05124271951828105,-0.0041808295169385315],[-0.0062572443292438365,-0.0008463266164378074],[0.02312355593063732,-0.006914419427894546],[0.04824685663442037,-0.039772978825404044],[-0.051341228173231876,0.015223135709121167],[-0.02349182378483083,-0.01643193302578721],[0.013622455797018177,0.0021474064598944608],[-0.04119169540980583,0.03342862811628323],[0.058912750223647066,0.008031627202350473],[-0.041080500794542084,-0.018037716951194674],[-0.022767702143512095,0.013077567653999487],[0.03877166072033835,-0.022918094485154326],[-0.010037352018097898,0.02766934785343378],[-0.028513781878299966,-0.009953363057295883],[-0.011323097864518924,-0.0031200221052280984],[0.004171853637962627,-0.007392737978105085],[0.019163085917003168,0.011326924151444942],[-0.009380100907196607,-0.014734239778526968],[-0.032286397953683967,-0.004728378662298298],[-0.02621326922363947,0.003731310484438234],[0.05054688007945585,-0.0032077056505496536],[-0.012205572899867418,0.00963341653957092],[-0.020515757014060155,0.018649103049632253],[0.009601847143549338,0.03474537136934801],[0.0076316492083910595,-0.02672782162865156],[-0.04608436365709719,-0.0036645634855218875],[0.05074776511348512,0.026782179670579012],[0.03599290379283636,-0.02970435077427748],[-0.004430764885063606,-0.007034179347432901],[-0.006546995993616173,0.01461661902810838],[0.013819551352791556,0.0012936792263486523],[-0.006558258129477265,-0.007028921652780107],[-0.0019103447316150427,0.013466749315282507],[0.04780911614323752,-0.021254920484945965],[-0.06037747720865433,-0.0049069797133954795],[-0.01191085843336059,-0.01951826948076536],[-0.0029574036421410577,0.012897270919026762],[0.030081374046417076,0.023710001544461807],[-0.0413673247069514,-0.014949014758995079],[0.023362160657446954,0.014620999784202155],[-0.0354944883153616,0.009690113431803742],[0.008417409281933956,0.007327008537444659],[0.013982643977843608,0.0028914064094182025],[-0.003479734011624186,-0.0014971269998249272],[-0.026132892493654334,-0.03383141339242528],[0.038759417864310815,-0.020879430641347636],[-0.05914251557832549,0.017054789375757974],[-0.023417157950987904,-0.02416311574234947],[0.037139397977182985,-0.014963846604764701],[-0.024110843105513695,0.015188775107502408],[-0.040621461174600866,0.0009804730168760003],[0.008904138885514284,0.0450247980640369],[0.040410071497848185,0.024428901292954816],[0.055143980344225026,-0.021697875878315922],[-0.006987088582181703,-0.01630500887083314],[0.007246464503800265,-0.008910033875227845],[0.022392152231085802,0.003572533887651135],[0.020694607581089357,0.007943301039940072],[-0.03456400266086513,0.006784480809055773],[0.04223487060883076,0.01477168463489678],[0.006364412208103118,0.02147331147482717],[-0.0026902247688512268,-0.019120667482717145],[-0.049720772488392455,0.006818546082148754],[-0.03632434063990267,0.013105648168800771]],[[-0.08404876413000792,0.011137658974211859],[-0.08395323865693644,0.019738965922410437],[0.009018396787734282,-0.00032389017904733844],[0.10234496639415946,0.0073983839723137535],[-0.07574922491015845,0.021317540551742453],[0.024339805279969682,0.0033360767363909798],[0.06377293784509636,0.0022056759599825538],[-0.05993590859549619,0.0031558967222798245],[-0.10214503501727037,-0.006453349231460296],[-0.05814661796625337,0.00844705531461589],[-0.056605688205592836,0.0048630721882686875],[0.06045266690317454,0.018465667802818792],[0.06402986278188046,-0.009151856638631982],[0.09467825805369583,0.011965587141893906],[0.10622806816203055,-0.0020238999939280085],[-0.039418871459404585,0.007886172820328202],[-0.01171075091104816,0.0011684154210446131],[0.10195172251573656,0.007283935473188256],[0.054809520147518415,-0.002904788957296456],[-0.09924251256578914,0.0033676384682571627],[0.08986124793618565,0.026858131503190292],[-0.07360436073397675,-0.009001483407709208],[-0.11551185618068745,-0.019702081460683963],[0.0588749430343912,0.00370409747681347],[0.0827281789825068,-0.009493942160640374],[0.08285626160411232,0.0013218708627864533],[-0.052185813170873376,0.008098427792908237],[-0.0914748986965363,-0.02478125972010326],[0.08042567822667619,-0.014591492702227643],[0.07529160778909072,0.01778993939052113],[-0.08829572223902908,-0.0019495742348950643],[-0.08668007255410702,0.006951294424786729],[-0.06973555029127558,0.0019102534333038136],[-0.05997706723828158,0.004001373349182806],[0.07292344017215546,-0.004102771558926376],[-0.06740277512587353,0.004207449636253216],[0.06715236806312241,0.006498986832643801],[0.044419582841112186,-0.03181093659136602],[-0.06886740277734511,0.005196203303392534],[-0.0644124207988743,-0.02685519670943565],[-0.09616710765774594,-0.032983075333151916],[-0.051512756463752196,-0.015209399767220229],[-0.07349112495434763,-0.0013895701637548876],[-0.034324450047944245,0.0012232250478273502],[-0.008949283485143306,0.0005905309847183959],[-0.0685182518209628,0.0031004224338411707],[0.06370550107161657,-0.011341591036637321],[-0.11932635130666644,0.05953056333037398],[-0.08211023909032944,0.015396944310257296],[0.07416801238301525,0.005641671306269068],[0.06609260689224744,-0.0019232650648121244],[-0.09511397899388749,0.006146128859917062],[0.08086124867288605,-0.00018365160401563014],[-0.040422749812773245,-0.019497110647462127],[-0.09052166626565045,0.006343686824011357],[-0.08775924983106802,-0.015136779580959346],[0.05004066339595689,-0.0013403384912575901],[-0.06842593072634545,-0.011488485169724144],[0.07402513473367298,-0.0035834368249569003],[0.07862692588518765,-0.003912082582150131],[-0.0510814810773956,0.01567016781958863],[0.017503879860637138,0.014823532619481038],[-0.08001478047527384,0.02948282502290175],[0.07532209154523513,-0.006191541217535544],[-0.09324103595575532,-0.010463504368055961],[-0.09647908481896905,-0.010927157900628866],[-0.07368747698644981,0.01645773136399275],[0.08904015483582416,0.013565919884453105],[-0.11519317491497515,-0.01646572360322774],[-0.08158133571295334,0.0014750963587864439],[0.011154343997644573,-0.05899247261441354],[0.08379378296365426,-0.017028867757010426],[-0.11240889811764095,-0.014442590580737758],[-0.07136728918227614,-0.0026856221490823276],[0.06622383790223588,-0.011611523099441657],[-0.04863803845480321,0.001000942458872457],[-0.0842527587745771,-0.029016311383562678],[-0.08028572544533602,0.016078720499367552],[0.1262981326364563,0.037974625025978016],[0.05217630337246251,-0.0044007366016265296],[0.013393989762167293,-0.01706575917815458],[-0.07647902526388123,0.02475780083883552],[0.07831051740505289,-0.0002576709725636145],[0.08023182298372036,0.018417179674762273],[-0.08172061160675465,0.009290642779944512],[0.08977798376260568,-0.003987995883148008],[-0.08052007004727967,-0.04009805706042989],[-0.031023642648957524,-0.04141041116800168],[-0.0727933785021249,-0.007947514055261262],[-0.06690676260709888,-0.011288212968640186]],[[0.002060596647142063,-0.022836007131817396],[-0.007728740880907285,0.004212976242979783],[0.009890859871332697,-0.008627245881271206],[0.009620022663199834,0.015284255454432528],[0.03125418108305347,0.006394433522639436],[-0.018043726250591814,-0.010267617785538936],[-0.014175923452703895,0.01787875423792344],[0.0388697656184938,0.0077443490072236325],[0.03914410426352383,0.014716059443765979],[-0.0013861752797736581,-0.006003614802124481],[0.01606903848207368,-0.029924258652522382],[-0.061073684424876956,0.02374835334150254],[-0.005376904040543886,0.011748714295522216],[-0.0179516468163647,-0.008194778764404899],[0.0015574438204796438,-0.008067918842749815],[0.016731026773270794,-0.013106394457846556],[-0.01477483654123586,0.019820890987913214],[-0.038442728100734964,0.018636906481229412],[-0.04742407952806503,0.004440564724998515],[0.02209309639964466,0.023097763842184073],[-0.014454382980990122,-0.026156091765628824],[0.020162025172426743,-0.01157559663776018],[0.010183344510858323,-0.015146247400268984],[0.006057220338584561,0.0045114681076797525],[-0.00743323399820734,-0.01655028047820728],[0.006341286894574247,-0.024457747095585708],[0.019143346752899106,-0.002346260071198375],[0.001170590016362918,-0.010679421843703865],[-0.010861668620213896,0.012042272642120336],[-0.017050239504557505,0.018316791565389495],[-0.0042190172908409896,0.027762261106352777],[-0.00733742322103561,-0.012887668639632305],[-0.021084913100641756,0.0020946165858026227],[0.0038923021739565604,0.007412058591216082],[-0.028820511837913006,-0.00822362223899207],[0.022078309521161764,-0.020021988910900363],[0.004978317999652567,-0.005408614078839121],[-0.028877048250628,-0.014332077108384612],[0.022879929281715332,0.007471320102358079],[0.044835345358170284,-0.005603117922845585],[0.03560198834989424,-0.010630661768158063],[-0.006861855280099848,-0.016538279916389467],[0.012605636570482023,-0.00841009823141551],[0.02450838805894659,-0.02538342466469323],[-0.005369859827519922,-0.010387678928443337],[-0.01450933768577278,0.02577673233741355],[-0.02123012789080332,0.002087474876895952],[-0.014984962810842628,0.030935627531227854],[0.00042709670888546776,0.032190740020909644],[0.005323646486737473,0.03806810539890808],[-0.01996886689261896,-0.02436194489683882],[0.03172576607340207,0.002845046891839295],[-0.008648012107019598,0.025777347312714777],[0.019469830578865165,-0.03137624701913306],[0.03704457302764338,0.013896060730680346],[0.002811643161147232,-0.005336130475235599],[-0.011770561424287462,0.0006252513693392319],[0.035943644460229136,-0.013587233404318718],[-0.03627598407240447,0.013961674888098097],[-0.02222286735307958,-0.013972509448060165],[0.023869168706907702,0.03460902799966426],[0.02738297439529204,-0.014130023562239113],[0.030406328419890195,-0.006910303913076845],[-0.0015794610931773425,-3.327220786202095e-05],[-0.013272493337693491,-0.0035321883987473653],[0.007014886348447976,0.012042897165443893],[0.01368105421600938,-0.016042183434717364],[-0.05125933648685819,0.007531819413356244],[-0.023067468678211304,0.0016952699392861316],[-0.013507985776197488,0.02521469039193785],[-0.0006299220650618376,0.007760997267540608],[-0.014629743176399946,-0.019937094056438252],[-0.04214539983586934,-0.018686979330645757],[0.053987233569522106,0.004182899123869281],[-0.013050886747375487,-0.049020891099538284],[0.037757833680659436,0.006881825939233661],[0.013676785401209953,0.0014784498136390489],[-0.033292059124747725,0.02411314983585706],[0.04734184726569691,-0.012161424943358928],[-0.04049402452007824,-0.031170225687037877],[-0.020879520524761563,-0.00925531814405308],[0.02382444037662562,-0.0031011872193555594],[-0.014423687632205763,-0.017878563202206637],[-0.03366194237770059,-0.008497614538704252],[-5.1873315939768294e-05,0.01218417842361874],[-0.026059245686374355,-0.027517237803828542],[0.018505643670176018,0.02470300192420566],[-0.011857592774643879,-0.002805264117708175],[0.0009048780658810892,-0.008323806861623697],[0.051484310679497707,-0.003214904322524599]],[[-0.06386852380912833,-0.001258274156667551],[-0.0432185485947486,-0.016818374049649545],[0.0034099762776814138,-0.027004595208113415],[0.05982073004199922,-0.02311429780487885],[-0.020456372933976206,-0.00837812139281491],[0.019690524737029647,-0.01452148962879199],[0.058412695216694774,-0.021722816054960046],[-0.007622373719245786,-0.0004622752940018054],[-0.009352221266410072,0.022521368937948382],[-0.04342696091400732,0.020905794277236506],[-0.06349061099649488,-0.04600159796645238],[-0.007348332790864688,-0.011338226805910515],[0.02172374529856293,0.004206273230695153],[0.07554218960682277,-0.0009915447930160016],[0.009467343675615168,0.014648694750744441],[-0.0747752760173325,0.0012684622471320938],[-0.025870034280907443,-0.030779074089269123],[0.022564100430954154,-0.002833377129629883],[0.04251778197223694,0.004450773691663058],[-0.01842296176277218,0.01585426941678545],[0.056845991691550024,-0.0032653662089003016],[-0.026717098117132514,0.023477691859169512],[-0.06964834886774017,0.02785408032863768],[0.024763199617167372,-0.000326639845278905],[0.04237761956256024,0.008760131103214117],[0.06293418593218539,0.019263961338275938],[-0.02161406254928916,0.02365849348346087],[-0.03332681313072632,-0.005052357734119024],[0.059783102270025534,0.004922096566124047],[0.003916672621514692,-0.007611646320715694],[-0.09185062787401241,-0.010526621618553174],[-0.034620830487537224,0.02143201881988752],[-0.007602308621360877,0.001164736638732315],[-0.06644752739418845,-0.00814130335312843],[0.07107353952643437,-0.0011264965339400038],[-0.02558603794735739,0.019301228108083022],[0.029096692867255643,0.008762121674163927],[0.061588058121718595,0.008864680995492728],[-0.030453230619602617,0.007190079980963131],[-0.08487230550285903,0.0050416528785023765],[-0.011005195190889435,-0.034434557168671484],[-0.01671634582761552,0.016680112777940632],[-0.03860763574453972,0.004670636317394862],[-0.013655232765368768,0.0070156971376565186],[-0.017289978935279116,-0.019815426931647288],[-0.07098214370801494,-0.003436325016532918],[0.02676609526296914,0.020919996028122865],[-0.04906892651850876,0.05544132575263594],[-0.06246759090123311,0.014437466399314203],[0.00044090798624241384,0.007912557059700192],[0.02798309961883684,0.020530255045174587],[-0.09068430110217747,0.006267171507805433],[0.0124016501489573,-0.023935089821162367],[-0.0034754335295299,-0.02029642676876508],[-0.06611597256397567,0.02261158871790273],[-0.0784665185310223,0.017908354102888043],[-0.007601314074931948,0.03215467191621345],[-0.026550497689204384,0.009874243451162945],[0.041439183628150675,-0.009810658686510055],[0.06612636902288573,-0.022946946027677165],[-0.0880365793987791,-0.036674857609294946],[0.013261906283446362,-0.0025093800078955387],[-0.044212776194098934,0.02209391261544775],[0.04946822425479351,0.01917139894650329],[-0.027452033513207047,-0.024395375718343743],[-0.028812368683976686,0.015222498048636648],[-0.029693409827609978,-0.02947496800393711],[0.04148406539843809,0.024280603833005652],[-0.03316791164611733,-0.012932044312163627],[-0.051918966886557644,-0.003284488774432527],[0.010607568080018299,-0.012249021271825245],[0.09027120882955242,-0.02149531063111193],[-0.04781418281189883,0.015880748420927356],[-0.013994839761372444,0.008825861055950008],[0.04720746031926853,0.015469761124601442],[-0.005529639875238727,0.005379661142194529],[-0.025690751423888887,0.0018702884764874854],[-0.048968649900045326,0.017482095268130438],[0.039109275195679846,-0.0035644683678281884],[0.03522876001359076,-0.030087587047176886],[-0.024014709555372767,-0.038049211860311904],[-0.006540070881026894,-0.0383861108334713],[0.02726236113629997,-0.026331813279877093],[0.02251752976342265,-0.008087839897784744],[-0.025577982013607264,0.016211831078484524],[0.0741774067425928,-0.007389001157134602],[-0.013202915201506956,0.03913222972818477],[-0.010621662464790198,-0.016547647683518636],[-0.028620104236357226,0.009575697041707947],[-0.022254411075949318,-0.00542012839123217]],[[0.01160299009819659,-0.019143051574347775],[0.030614562063390235,0.013416681593391353],[0.019445632253391944,-0.020653220007199883],[-8.616446490921433e-05,0.007689222703061055],[0.05422037977494629,-0.020756130777468608],[0.003682927999551354,0.01026422417370672],[-0.022212873029355644,-0.005884682130906059],[0.0400287616719289,-0.02946298815167761],[0.03402213967494232,0.04285076570963271],[0.030736491457119403,0.03601700019044358],[0.07508439201255498,-0.006458834267024746],[-0.03775693619922604,-0.022668056281823914],[0.0026683900410788496,-0.009774993897313384],[-0.014929186058914355,0.00312659863021224],[0.0022323791104497865,-0.031128285402396882],[0.030933385096838944,0.01276494560562555],[0.0034584157853249876,0.001541685528891785],[-0.025840665017602085,-0.00409965860169179],[-0.03083711436375824,0.0005844698325860346],[0.008577681602005135,0.029263961207904986],[-0.018881895192680402,-0.0028878254183265],[0.02937549883066095,0.024668360659723578],[0.05932883844053571,0.016828371644073352],[-0.03324912464999742,0.03377955070728479],[-0.03284943955035642,0.00511988953574488],[-0.024460798960251474,0.004289425149448684],[0.038951959248714786,0.007876802104009064],[-0.007831079510483806,0.005270706314787123],[-0.05726637116147454,-0.0030129461522533023],[-0.05868721696330054,0.010046188545224634],[0.02520375987087335,-0.005471469439955014],[0.045165264383411584,0.01541286172644331],[-0.004736191966886517,0.03749759112173373],[0.05187761893844937,-0.0262594825219204],[-0.04782450456896368,0.029351620259648614],[0.047420837562922605,0.021932425893397525],[0.003843679350365249,-0.026984501003239826],[-0.05038336537741495,-0.010014309433411426],[0.0358046622545855,0.05947430736656959],[0.05636746309867849,0.011468752974069877],[0.008258819226856194,0.01416613895847486],[-0.022169394473722615,0.01751264636662122],[0.021300589015127408,0.03480626630857968],[0.025583096136888986,-0.029472481895434725],[-0.006579277460034834,-0.0017973149436909394],[0.04181516367914633,-0.01198431062369594],[-0.03978074146153098,0.0119325384081896],[0.01593286188072525,0.044750748754281436],[0.03672218435569283,0.006608914330853439],[-0.020638013950861133,-0.0024159005303818924],[-0.015316434261108349,-0.01894637190001441],[0.03242401016476595,0.0025782058311085566],[-0.06009068531898922,-0.007615950616025639],[0.028083851993440736,-0.04540364617202867],[0.04160167385634223,0.00998987245388187],[0.03928881602745034,0.03443913355092408],[-0.033396167094083794,0.037702472784203814],[0.04977134299785055,-0.043960141989862],[-0.05568818015338585,-0.020954018819605052],[-0.0593331635572911,-0.002584847530283137],[0.06293737115431547,0.0027165921971816615],[0.012040472962114622,-0.0045959311615305235],[0.03815647599929043,-0.027702213051584955],[-0.009837319649067838,-0.022621804430963906],[0.010777208254039166,-0.057310605305836856],[0.012023945160404951,0.0009683264641521347],[0.05646573678555253,-0.03461941540679759],[-0.012172984932670146,0.015089307297422803],[0.017367186431580042,0.0027685095521556113],[0.013451901751486847,-0.013173274320456204],[0.027581521494349802,-0.01107433633118959],[-0.0560266103199385,0.02680588707091005],[0.01500926176337695,0.016728395303846903],[0.06934773351367744,0.012137152998229078],[-0.07961181072567138,0.019123119756097307],[0.036697519659405126,0.004491667673805046],[0.04721960188015685,-0.018931057508285422],[0.0149780534714731,0.02058140361207733],[-0.017901382315740774,-0.028470608569582945],[-0.02518577525540495,-0.01795563308169013],[-0.0049095743060655166,-0.014021053019021625],[0.009915626265383403,-0.05289377062300919],[-0.023245741717679628,-0.01699593473905456],[-0.012700226444396794,-0.013068547157769774],[0.05170366512260416,0.017228191792947663],[-0.05599806703175843,-0.003296701200297496],[0.019391160020777228,-0.010339290904482594],[-0.0046520422301916916,-0.029153080995042595],[0.006722022411657833,0.02824622011483268],[0.04481608461882998,0.027426408721313675]],[[0.008938617763305831,-0.0366407402637117],[0.00784787782124551,-0.026707053198307493],[0.001156609046642719,-0.009399066016847535],[-0.012493608345062043,-0.004451066357512573],[0.02790119565499548,-0.0010295989043986194],[0.01000552974507092,-0.025495911529913436],[-0.033272884039823425,-0.004572600830195476],[0.015726289450360437,0.01704285335645342],[0.02701781486193035,0.038332390936374805],[0.017143437470737356,0.01531138559297377],[0.04020057936677292,-0.0040143824445035125],[-0.036424713446664925,-0.004675588140505187],[-0.019228256748015593,0.012723272582503496],[-0.025685869451386564,0.0005265826803279527],[-0.0033814122669086678,0.023409476939518788],[0.02869674462656449,0.028819160470751806],[-0.02368522004675562,-0.001362082535051478],[-0.020587323179245855,-0.007210745156534534],[-0.0649319777862084,0.02181280234391056],[0.0013362541752902544,0.006041990138620356],[-0.041419877587744784,-0.0017052549239761192],[0.023300564163445683,-0.011996684706645175],[0.04936752037296384,0.01827892964540664],[-0.008883938553439063,0.043891050272107344],[-0.03773948549583224,0.028094473966361846],[-0.03316381333606921,0.0016682633679340028],[0.0018001564661485761,0.008906085348786777],[0.003438878860902028,-0.006263781212993587],[-0.03884862168849062,-0.01511240522640996],[-0.04223380969341142,0.03354575173760244],[0.026895764601687445,0.0003010721766476399],[0.006309105166105231,0.01337207197633189],[-0.015388773447435906,0.006126617316201627],[0.023856340883706677,-0.009433258023318146],[-0.04452658918689858,0.050430304019409636],[0.01164387321500887,0.02958273050445819],[0.011625654673990335,-0.014481151361866182],[-0.029976480322133847,-0.015046677933126543],[0.006415224390269264,-0.02447526423031765],[0.04134064694935195,0.0013137512339600615],[0.0229965879779485,-0.01122141294830667],[-0.011100344267767421,0.024742838484718626],[0.012264876754058652,0.01277429605267021],[0.03525750161528749,-0.006123514295450723],[0.02325697953737312,-0.013333007397494854],[0.030373816647921947,0.014771897734385087],[0.007488166593149714,-0.010566055201124233],[0.018301274025248077,0.05410306138840553],[-0.005328689031486775,0.012607600686007362],[-0.005645052595221768,-0.014204796973060776],[-0.01954691169343243,0.03997544296078407],[0.04260678587455815,-0.008442824855361972],[-0.021595008608885913,0.00812284828016057],[0.0055371265708221975,0.03407365899029536],[0.04041169014665948,-0.0016522882659828699],[0.031134550585393425,0.016468951876090803],[0.00645558343200569,0.008125140576542306],[0.03165328723197618,0.013192960486076785],[-0.03830258806700998,-0.0033520413848004737],[-0.026639155726866832,-0.014578462657319982],[0.03848705018295106,-0.00432332526651119],[-0.0093113244375495,0.012584747314850807],[0.03635025857625143,0.01389425420101506],[-0.05257715195496967,-0.0058944581605152955],[0.005615355355569511,-0.02157054480792494],[0.0016611339693563345,-0.04169766820768742],[0.035014742437951225,-0.04183653363303608],[-0.04376256524421675,-0.0034115922275896574],[-0.002291190655164733,-0.00144402660374781],[0.00036970988901419036,0.019422802299740624],[0.004200381699465552,0.03574560069124681],[-0.03280812809915529,-0.006250718291671476],[0.030455525556823806,-0.03134272199877225],[0.02602341506075938,0.023337150609406068],[-0.02106858684568153,-0.01514020617313403],[0.021135084687117636,0.033447842176517036],[0.0438816873464722,-0.035816557706868604],[-0.017687517221216323,-0.0014312797953101198],[-0.02524746166408024,0.015999709089258095],[-0.03601719753754248,-0.009146486265092103],[-0.006629410199246728,-0.018853438928056892],[0.012777671876938634,0.005362365754833836],[-0.011436422982807738,-0.041036920932038014],[-0.04025043958694376,-0.010432766355026503],[-0.00037220112446157176,0.031142249159779777],[-0.06852843654137053,-0.021976209830097116],[0.0004452427909696669,-0.016605240961536726],[-0.010276229350914453,-0.04448011200703502],[0.02180373644874491,-0.008684396546460424],[0.025782319618500943,0.004897969081012914]],[[-0.0008384510626958233,-0.010254281830246674],[0.027328525479269065,-0.011904933236831956],[0.012006223334249244,-0.017598792886231614],[-0.002450965024436815,0.008658158022085931],[0.04349031462078775,-0.023165611861216007],[0.002208057879572723,0.0017430299796755992],[-0.08139099560893549,-0.01820401016903848],[0.03331682888089188,-0.02318399437286463],[0.012320336322984994,0.011314957731303055],[0.01901564163619241,-0.00045225109476751114],[0.03294386436818741,0.0343414071493334],[-0.026910628609240414,-0.015044937174911373],[-0.02824653639832253,-0.015551182296569143],[-0.02425803847586082,0.009837056043693553],[-0.024228005401612154,0.008072078661040389],[0.04900162430222284,0.04025186623171642],[-0.01752272329243271,-0.03158371984426926],[-0.025851875701092698,-0.017017571650199396],[-0.04215495242821274,-0.002331889142880318],[0.02460208303070226,-0.0029851123878863093],[-0.019944711181416778,-0.024681971001303923],[0.06192320077776779,-0.0003895618950222055],[0.029900320114920578,-0.024967652723460687],[-0.0054095142957197515,0.00873407604267014],[-0.013132694668345768,0.0027368831184256927],[-0.03587376476271624,-0.009069718420785824],[0.024933216900296498,0.007966307830142136],[0.004430576361660332,0.034463999616504884],[-0.03789749489856896,-0.00038993420105239135],[-0.026242775262929993,0.02303336790085468],[0.0455605462374061,-0.015419241250726528],[0.024141153266129388,-0.001528998074203322],[0.011969812667647434,0.010959766360016549],[0.02362372733330956,-0.00601622125891793],[-0.06723586314855846,0.03387120978361007],[0.0243111266305456,0.037420425987951714],[-0.0015757103893944808,-0.017660437526700875],[-0.048600872719315145,0.025039768478708486],[0.030768833940826676,-0.026907438557437085],[0.02598865658499235,-0.021676597494688206],[0.024703652992136074,0.032861262368362475],[0.0056102012287521635,-0.0014994780598509387],[0.0022788224754590994,0.009388439463405627],[0.029234379625572297,0.0087799713552653],[0.02090545820261954,-0.0021537609127639783],[0.022556617406003447,-0.00626585438919016],[-0.008962555817574148,-0.0015888765548146221],[0.030139063522527862,-0.008968406138568889],[0.0003615794828760977,-0.012756609180651482],[0.012605230771760496,-0.009445506435169393],[-0.019383305485391647,0.001072635607863881],[0.05385575360856347,0.024347066669479236],[-0.017237081567339416,-0.017193506687705695],[-0.01275953959467768,0.0272302383424513],[0.04629889363130821,-0.026824273155496174],[0.030944764219584846,0.007403548727560193],[-0.0011502327484559055,-0.0014003553917029355],[0.03835101622030698,0.015088649929240817],[-0.048369635709016215,0.009803396560102873],[-0.015974942321959524,0.016438014469003056],[0.06121043626331107,0.003693059677282975],[-0.01392499233405216,0.032732278218221986],[0.02110375885959027,0.0012952511071045193],[-0.01449077323009224,-0.03698726883557131],[0.03367571677070284,0.01815263338705235],[0.008690591104302453,-0.018289592667936144],[0.04337135885639816,-0.008859370146214978],[-0.044885653541214765,-0.017011955823232464],[0.02451302293997681,-0.003003681213642512],[0.02004293916256721,-0.004244103651339502],[-0.003955993907067457,0.007170992418902223],[-0.07268641090278043,0.051661393327748655],[0.025931578009330044,-0.01870237988832065],[0.016934979913401937,0.005614998199308381],[-0.02838025489801379,0.011123242182510259],[0.043997843054908455,0.024050593396622695],[0.04763529763272907,0.003916991451564209],[0.0034320301784306014,0.003969700246920623],[-0.029666601822749557,-0.014684677703943674],[-0.0237895278103886,0.03309275119601989],[-0.019900104712281312,-0.006185294093164887],[0.013461460409580493,-0.010532987992314932],[-0.017467564353300373,-0.026188867789669442],[-0.027447578998638998,0.0008424266559405498],[0.010095182214730748,0.014404228496521112],[-0.0409052892020317,0.007824353936159796],[0.003964982085721237,-0.05037315936926945],[-0.000614367747654617,-0.006711542973154188],[0.02571098507702193,0.004502333202201349],[0.03777077188228147,0.003355477463260158]],[[0.01730804128811006,-0.011052920862933364],[-0.014418158914077859,-0.014297786911216711],[-0.018572890080773268,-0.0097094920722739],[0.02673271488915835,0.022787298831566584],[0.007790661588600915,-0.00906403416560966],[0.0011268585654763963,-0.018490575556129124],[-0.006574587370983945,-0.0008412558471919542],[-0.014786415921834719,-0.04051970577745061],[-0.03499314894068367,0.03345942462464402],[-0.01381185496151306,0.03535068969040826],[-0.019346730492923233,-0.055287831610908535],[0.015079413246352723,-0.027353050392035675],[0.027049708972662578,-0.0026723013946475666],[0.0328047338075284,-0.009284088925114883],[0.001088535809552739,-0.03740493599836005],[-0.033083747193939854,-0.017301305330608068],[0.0026438698405085916,-0.003803963408127096],[-0.009670010804457028,-0.009822417642933403],[-0.0006549110142233042,0.014254047878486756],[-0.03759172447141137,0.021573278411924995],[0.008369367435526073,-0.004579173513555705],[-0.009285712962920408,0.01829266460877027],[-0.024733816136721404,-0.020377447526176807],[0.031018489248699904,0.018713852696630257],[0.02702936601169259,0.027850042960750013],[-0.008855688348475832,-0.017149345324968923],[-0.04585337852027006,0.023954501661951576],[-0.007915375423632182,0.02636387218764373],[0.027867468617822196,-0.01059030382733801],[0.021284160032259702,-0.024905215485817044],[0.007277589236114337,0.009951239378878745],[-0.028993041036536864,-0.03252393107231091],[0.00443966381246752,0.03774775017059632],[-0.00898693452889485,-0.0055702864560616],[-0.04054425913334596,0.019140782630293552],[-0.008071467305437001,-0.0013709065985597984],[0.012206070964058664,-0.0058289751737880206],[0.014482912997759828,-0.009734223741768242],[-0.011772157389759627,0.024905496765787977],[-0.008064537260329432,0.04026187955247611],[-0.013235240165382892,0.0067591842889520625],[0.04636689649155075,0.0024071742653061553],[-0.016777865004490237,0.021457174100543326],[-0.03415790167553556,-0.017996360079435576],[0.020322191331315645,0.03540153710777978],[-0.023313684875187448,-0.016672715179937767],[0.03708168973698353,-0.00970208561004582],[-0.01858535194894659,0.055138822040047025],[-0.051265831626525385,-0.017967456952823268],[0.032836168303977814,0.007985988429474082],[0.031929150126432965,-0.04618953810346439],[-0.00517538629792768,-0.013067394832867318],[0.03001312778489288,0.00546459225808239],[-0.01127395218103488,-0.024799723582932705],[-0.015737339395984998,0.007609258284364479],[-0.005716592336837158,0.06594225401513558],[0.016306730263808567,0.006197784244274395],[-0.023225093208117338,-0.015627820950878998],[0.03450622590678465,-0.0039749203021442895],[-0.006119229244704913,-0.016737090921416214],[0.00594918219401383,0.008658006799191896],[0.02081605947490195,0.00460041127330299],[-0.01698857472360151,-0.0071550665428522274],[-0.00723899889551868,-0.004949316941799762],[-0.005430253581468196,-0.01576123942845689],[-0.02478989689469097,0.008681996814319717],[-0.053650960866615804,-0.03447833240864967],[0.0031141652838691525,0.029706270397913615],[-0.02300907670772986,-0.004110430008680429],[-0.00818554076608223,-0.006504358130144775],[-0.029290631670940974,-0.020194761493768563],[0.029793699984103993,0.004274659369692264],[-0.012697184898220349,0.03176623344605293],[-0.025831783490216604,-0.03407501241615245],[0.019105072664697836,-0.015842713508607414],[-0.009305362422424954,0.001827204297786824],[-0.028821682386166027,0.02478707176222787],[-0.030515217718630153,0.026320197364937497],[-0.0167965227671094,-0.03026083250731636],[0.0036356899768124964,-0.024894942670668357],[0.01337463206550408,-0.00015653822797626537],[-0.01645804618993939,-0.04797285198975644],[0.022913389779597882,-0.045708390028239766],[0.00897119899393288,0.00551111903394784],[-0.03448886297745536,0.011321512597375022],[-0.005175513899992868,0.03157211197720827],[-0.009477917496565546,-0.03701392973153291],[-0.007853010810348452,-0.06259584362683776],[0.00816973985278123,0.020487686035353933],[0.016729564791381164,0.028610229803548437]],[[-0.0016622432710241522,-0.01210260704996738],[0.0551804015777667,-0.02310833173295859],[0.017758950469553676,-0.010279976386003793],[-0.024188449697819792,0.0008579685238514825],[0.018522305035003708,-0.04164563680917983],[0.0038746971355083405,-0.011703231429559882],[0.010593778820353159,-0.0038974965652305944],[-0.02647990264283774,-0.008839977260129068],[0.00477031750784303,0.014496613287285635],[0.031109192314977035,0.024219090886881463],[0.03883764882470784,-0.018036288343893554],[0.00834384972863483,-0.009425042152844761],[-0.0059869764674811326,0.004358161982830942],[-0.010595175773510091,-0.013165129229016078],[-0.010915931574879205,-0.001660556686181931],[0.0327099020952376,-0.0017645714691885547],[0.013971297783811133,0.02906139423502735],[-0.009818728306779803,0.02578938822867729],[0.0029126659375952953,0.030761273088681786],[-0.0001637297129817144,-0.0073092600092660946],[-0.049245866437893276,-0.020150523228290487],[-0.0077497271952602295,0.025890302437273242],[0.04068266385300063,-0.0030256411528301152],[-0.014057557718740748,-0.017531727727081454],[-0.014712667270898953,0.006844986744190388],[-0.04736519468856004,-0.005343938184225393],[-0.014691168167933893,-0.00026528416040360984],[0.009809627207936157,-0.006939190427016889],[-0.028405068302188457,0.007321745508065488],[-0.02368639156584954,0.001001701519686367],[0.03316870536344963,0.01146965336878937],[0.043910839456779226,-0.0070318925292040995],[0.04973746475171393,0.01683067738437355],[0.05614917456447242,-0.0017552583517599356],[-0.0035918168096475676,0.0361583741981252],[-0.0035381877640806346,0.022544017401413763],[0.0057571989218190445,-0.003929085459383448],[-0.02069750138656583,-0.001499663144443958],[-0.02017599089673589,-0.022478704100148822],[0.02123011198835859,-0.002657427200532082],[-0.009881894541908555,-0.005812936801959175],[0.015610366705144919,-0.0027582092485902874],[0.023753317793800972,0.015087417614231421],[0.006021703646442673,-0.018229289956967626],[0.04298945442975434,0.012968520941195258],[0.009892917528774907,-0.006264144688589132],[-0.037451270031589594,0.0019314824038727239],[0.015227449552083855,0.05265833041908587],[0.043690620960333014,0.01735462508557664],[-0.0026595431517731005,0.002311824094932265],[-0.02687964047584597,-0.023626048356685938],[0.05054153957027711,0.019987846073117342],[-0.03711591838370669,0.0015268664990266037],[0.034476922026835125,-0.013831722448890707],[0.05605206528761909,0.005338909208619047],[0.030590474275488548,0.01797090701273954],[-0.03777396405803119,0.014594620323327444],[0.015883403037658554,0.013414203806979323],[-0.044332842340508695,-0.004402745488471118],[-0.012443165397746491,-0.013980221346037238],[0.007310435570073092,0.019819211258948897],[0.010510741690978327,0.007559554190849633],[0.04687794914986352,-0.024327534456563264],[0.01774986154648964,0.024026575544535907],[0.011897475061707739,0.0006480612449499636],[-0.007445143454069545,-0.007270248584545297],[0.03712468423081103,-0.03903017851091673],[-0.014689152740290388,0.0010193345705864815],[0.05622643814728487,-0.012077714139325504],[0.011253411769640943,-0.0028439620393209282],[-0.020273671477838758,-0.005894368473094231],[-0.028001547224810852,0.000567975136848063],[-0.02569719535576811,-0.00880772798813603],[-0.0024054046917573045,0.0012786956168399442],[-0.04180256313045656,-0.017937677799622822],[-0.006636574967781259,0.006812542646965911],[0.0053378213310379796,-0.018696796216320692],[0.046808816275601094,0.01023835489940155],[-0.04475191080841295,-0.012320610501937333],[-0.0138142024319375,-0.018244721286547496],[0.02006166512096487,0.0107364819878739],[0.006561947054849641,0.0009073124139232411],[-0.021652342593436326,-0.017786187504337223],[-0.007663268393914271,-0.022640685703296172],[0.03623016316413837,0.028801907154799338],[-0.027230731769320112,-0.033420510640480385],[0.029363731318650874,-0.009370163474305068],[0.004075824032279208,-0.033313218103716666],[-0.021772581199776583,-0.0004292921354053909],[0.023931959358035267,-0.013945835706612229]],[[-0.02496400046121541,-0.02443420694579983],[0.009245217265684287,-0.004146120292253674],[-0.009664956386899062,0.01741569825549671],[0.0015053304598617357,-0.009145004572778052],[-0.005730227433612553,-0.005119407940013849],[0.004423862227152075,-0.005668282423428438],[-0.008730848813192148,0.0069520102199684426],[-0.031110989303237885,-0.00860230321388161],[-0.010552328848601215,0.007757595903634722],[-0.057626815302025326,-0.01166415598959821],[-0.03207970578722542,-0.033954658813060486],[0.04992623988240804,-0.009130547009432678],[0.009626509185198586,0.005424158418807607],[0.006693256915424048,0.0007096987665868547],[-0.00834318906241054,0.0010353578080605187],[-0.032247042903587736,0.015627163139934043],[0.0014651704964315842,-0.018031594184935867],[0.016235856840184117,-0.021886976352461562],[0.04128390399952655,-0.010428966813384774],[0.005363239337236316,0.007410625469146263],[0.01797217850717801,-0.010846057132127196],[-0.013551023501013894,-0.019455005650308745],[0.0038924497973888065,0.019965911854586987],[0.029965032013023148,0.03127337690115303],[0.03763659624233849,0.007505287651367462],[0.02485981160862675,0.01132401014243817],[-0.04874478593631735,0.025939797977861265],[0.0061577626631448374,0.006216930958336712],[0.04053951085212206,0.00816311053108946],[0.04891119173667244,0.0150079939410985],[-0.011585769239658926,-0.004689414783274701],[-0.0031806456566017154,-0.0070761773652723925],[0.014181761054389765,-0.014909992636532995],[-0.022203109963317043,0.0026579664615374934],[0.018528576018171854,-0.017143196708688895],[-0.03205099651787121,0.001504279246134641],[-0.010414523093443933,-0.007932808518928807],[0.0495842916116856,-0.0159787800255022],[-0.03768797310454898,0.035984099199826536],[-0.052158954787447503,0.015609382557572552],[-0.0215395432693066,0.020572109978907023],[0.03567000018664383,0.016978721772665097],[-0.023366978989525035,0.023176429972550636],[-0.03573006481692572,-0.021965451650379084],[-0.00434046686893353,-0.02308125648630373],[-0.011376617710914961,0.020527650324749916],[0.026759696674259863,-0.0005598287923528981],[-0.01153330540790818,-0.0028315801524302657],[-0.0014857659032207042,0.009209315771432343],[0.0111338999531798,-0.03512369596503635],[0.022295023150386215,0.02905107904864195],[-0.013071584756605165,-0.016573799729793604],[0.04118368018465609,0.0005938022516832075],[-0.0050675071737826165,-0.00638189410776866],[-0.020530528765595153,0.023731945547371007],[-0.0009794550420423509,0.03571762363818952],[-0.015692514022969863,-0.004037929320657619],[-0.024455274026543822,0.0171794417451283],[0.016933191865241472,-0.012952029662277615],[0.02932890904353347,-0.01271401797641439],[-0.04094551589546763,0.013227147438167698],[0.0030991201550241753,0.009726824669891734],[-0.013825776116171336,-0.008023859315147945],[0.05361009939655942,-0.03314089329123162],[-0.010853454448388419,-0.041122060952036375],[-0.0075447488009713765,-0.0028421613056795565],[-0.04178007639377129,-0.006731167721040085],[0.03667396059326097,-8.813961655056628e-05],[0.008807338996946627,0.02874947787768646],[0.025957822974077296,0.025354163614504155],[-0.019328993866640817,0.04056162139477899],[0.03490280406643099,0.008858567618351361],[0.0008674676416193427,-0.0017332967018807595],[-0.03933495137258672,0.016787771788324142],[0.03604574207633028,-0.006448583601376852],[-0.0484927387910048,0.01616701586603488],[-0.032229362747305056,-0.0024860331154456577],[0.03346991286866297,-0.0056120351189094695],[-0.027436550658397695,-0.01938724633350862],[0.05254831092097237,-0.008450790351461433],[-0.004699168139495096,-0.011956804832528376],[-0.03623268747695327,-0.03983142396519517],[0.026897457261908588,-0.020445279157390556],[0.03108037668922209,0.025949851348503597],[-0.012228431779752746,-0.009480334946064749],[0.007914162353938003,-0.005500565908236188],[0.009682801485607326,0.013141337622162484],[-0.007785065339338565,0.009829945307896975],[-0.015452486646226915,-0.006575793565602904],[-0.03280660615902943,0.04097675099402698]],[[-0.022995048172148994,-0.015930896025863433],[-0.022549557215074574,-0.012181283612054217],[-0.013546644581726162,0.0004423713900642507],[0.04168320509843355,-0.012977069769844644],[-0.028526134836852114,-0.01383014644025323],[0.015028828191775,-0.043399245588035366],[0.02706804838023775,0.035410803919887254],[-0.05560731296539175,-0.04913565286844229],[0.017849493538867528,0.012732001473237995],[-0.06960643821336551,0.012039252935517771],[-0.015511971716317066,-0.044466935272071045],[0.018482676882568036,-0.05180494273039214],[0.024444773613353756,-0.010211460782929366],[0.056594128890572366,0.003804465960699293],[-0.001512344752623667,-0.011830655366467447],[-0.08572029334429689,-0.007739543362735885],[-0.02045073832306399,-0.00325387453725846],[0.020264650031836275,-0.03839909097727651],[0.018656937668257677,-0.012442366235468709],[-0.029995182730659112,0.02186516161001492],[0.04571432615801898,0.030565557044404015],[-0.015368935990806258,0.005400576604326417],[-0.002864838178174233,0.009721697986245673],[0.02511026641791606,0.003402485715933487],[0.026961244309708927,0.038260669421747905],[0.02636774545660415,-0.003988441859428837],[-0.02468528728580566,0.002971139549637441],[-0.0014913866247471682,0.009001040922447889],[0.07996225765192345,-0.01091205822874442],[-0.00807457373460956,-0.014905010949855484],[-0.035701241926872365,-0.015196053210858918],[-0.013373455000054527,-0.03011947417146698],[-0.02474017545385921,0.019744638946429596],[-0.06517412484600905,0.007288536088888494],[0.0402888220251162,-0.006953015708367959],[5.8917617195563014e-05,0.0076576148223275456],[0.026008589957960012,0.042080625651576636],[0.06478075960069624,-0.05439798707394245],[-0.023236766686822265,0.012368305252298872],[-0.062360964137507115,0.03822211407574838],[-0.0037954776849685756,0.005443430634121893],[-0.024388644145624905,-0.04870524454234624],[-0.02763348834542462,0.009955856664054907],[0.014156255894175043,0.0186518923135778],[0.006156731656209612,0.013893412225846512],[-0.061435306595767285,-0.02372587299583514],[0.029386707382776146,0.033088244057781685],[-0.028900846013800295,0.04812428567692613],[-0.014740787201650988,-0.030180754266338792],[0.02746444866500145,0.030815097593769894],[0.023729240694824023,-0.007286105066402392],[-0.06596200599056912,-0.003118815230270849],[0.038619226429820096,0.014594327197113566],[0.015310747244152158,-0.00510960683627521],[-0.05445935868467077,0.002310673554269238],[-0.02517260683487094,0.03975792245705516],[-0.008712952366686146,0.006875938070209181],[-0.058953710549161535,-0.015407913095634692],[0.030384224083982985,0.011903232434797961],[0.06365480273686684,0.00212699306394729],[-0.028705512843826612,-0.016733277017284214],[-0.0025480970679493857,0.006187902235720624],[-0.05513584694124839,0.008934943927431754],[0.039772156464531104,0.01692598886430994],[-0.03386298931348405,-0.02108879076032335],[0.0033712382667069126,0.002678455971247507],[-0.027214219363120837,-0.022838682238770478],[0.007496393630205052,0.04116512183026225],[-0.02017679219930694,0.017142928906519278],[-0.03058705296950919,-0.030198738902837093],[0.034560014506242125,0.0013258859672627592],[0.05150274756114444,-0.019565569576403825],[-0.017998852263591957,-0.0003547497951592103],[0.006339735597751058,-0.0377987409284049],[0.0596188106087191,0.038779225911328416],[-0.049487276489013535,0.02961979345980485],[-0.01682467956881641,0.03259232617023114],[-0.006318223439000467,0.00026743699708110693],[0.016145942968611413,-0.011926081911207585],[0.01947951844177869,-0.08201541857477483],[-0.03959297032508282,-0.0019377967114039788],[-0.006795067035188061,-0.03612801042404336],[-0.018545223060098263,-0.009264264753082882],[0.025092898557243705,-0.005343443199857789],[-0.029883710840941994,0.014723676900953357],