{"Name":"RbmSpin","Nhidden":50,"Nvisible":50,"UseHiddenBias":true,"UseVisibleBias":true,"W":[[[0.01688872241421405,-0.0018570136734152275],[0.006041152325843262,-0.02390970339312517],[-0.0007876376628147626,-0.029025156871792804],[-0.05163637743221696,-0.00392927873540979],[0.01768293283401399,-0.013111242416265975],[-0.05607711699956686,0.03931499074616657],[-0.07096351937085404,-0.016928894264974605],[-0.0296240242391361,0.0037559626918657425],[-0.004767013593177178,-0.03361156434849551],[-0.0025534648787346303,-0.07059365099196306],[0.02667121410790903,-0.045155143250684794],[0.02340499652422565,0.012217357858241849],[-0.007913303001044734,0.012296040277942243],[0.011113331574376273,-0.023702250118163477],[-0.003517462914182265,0.005362276948374805],[0.013620140119297327,-0.006605685588524656],[-0.00442123238188156,0.050139880363855284],[0.0058074157134330225,-0.03351011831366368],[0.0067377548896706725,-0.013326406443107178],[-0.01519414217082523,0.019404758961044787],[0.021874813119810682,-0.009026107900156607],[0.03875267938072333,0.010797707239741421],[-0.011533645705096835,0.017768930991889996],[-0.010345114503985136,0.02529921265722405],[-0.002825542142213999,0.0171773271802121],[-0.01127354787462184,-0.00022363612925874448],[-0.0197291293295367,-0.015190021445093705],[0.0034197872539958023,-0.0054695047917797494],[-0.03651829459353103,-0.020106842754688645],[-0.0009167935298267007,0.036863196767156346],[0.028326071798498706,0.04812579257846918],[0.0175118044458356,0.017654022863945018],[0.0013996358438918667,0.007696438790447582],[0.007658413557805864,-0.02853495945094523],[0.052885221951166135,-0.024629218772333837],[0.021771349640993608,0.01848924169211424],[-0.017364538466155353,0.0013292341743752682],[0.0022550579613350593,0.0003051435191993579],[-5.7595102771953836e-05,0.011840172133730493],[0.0499385070492306,0.008865202154154896],[0.01402869570240059,-0.008258105126404177],[-0.005255125856433265,0.012757861809350273],[0.023928266867338795,0.010955339973434078],[0.014487136588063245,-0.018870685686087768],[-0.005093840630426364,0.014323299233463638],[-0.03707975791774294,0.00995995920270032],[0.0038329290021052787,0.008521281451158996],[0.006167587924668306,0.0059179630569805115],[-0.014619614197816284,-0.007219734771868655],[0.018508054802859723,0.0012465786915589624]],[[-0.004916664999674037,0.003264962188294363],[-0.006194742013094527,-0.02044349969573575],[0.0021408784520616873,-0.025569695467077016],[-0.006636867633159121,-0.03265556364466966],[-0.007958833461101485,0.00011952010522079098],[0.01025232268453988,-0.006054406847855466],[0.030257419457804722,0.010589055384559763],[0.016541671544049754,-0.00653908190913436],[0.005470126792910094,-0.010470238135238343],[0.046235126622179705,-0.04691718523612955],[-0.01271759432397798,-0.006716705306530785],[0.0011983239241817759,0.013600552532021026],[-0.005442462555927815,0.010979155917088625],[0.032002079740020097,-0.010768194579348658],[-0.03644400720765626,0.0015576766138181894],[0.004001244209813236,-0.0024606035794014],[-0.017235385160216596,0.04690885212963677],[0.009260327893456866,-0.004209649094447767],[0.013152712290279336,0.01365757066851336],[-0.0032331191714969473,-0.009499114859326238],[0.0070286733831675784,-0.02039555321350227],[0.021065935219097276,-0.010260947656342652],[0.023224850999920922,0.019429116601396568],[0.014259427821084896,0.012271606518722689],[0.04209011339658914,0.01152943533835702],[-0.03493835284005593,-0.021246588240855124],[0.029474069949961216,-0.043837091149730875],[0.0017634541129260023,0.023542534768818943],[-0.010439028952887869,-0.009796886292936595],[0.0010297146103261413,-0.010571491864235626],[0.00014855652438203496,-0.001294747312901151],[-0.0049082760603600655,0.04398738288683075],[-0.01855857633349013,0.0016485361062252846],[-0.011003330766299373,-0.026938629141338388],[0.020682601353042767,-0.020644609156819673],[-0.010914701061159398,0.005024331734463595],[-0.0076053530592906276,0.03305378192072139],[-0.03196029816226018,0.019769068754131976],[-0.006128805073006802,-0.0015959711913942404],[-0.0036654077667847423,0.020255839332706676],[-0.021632943849150755,0.0030085675914777047],[-0.01006703906450225,0.02374509844438074],[-0.0049972491520185154,0.0002653178204462317],[-0.00027994384988276697,0.022740322607991394],[0.013425591532767563,-0.02398377065342988],[0.0017327157847788514,-0.012311489189776764],[0.02483371162659375,0.02355712178703682],[-0.020010054192516766,0.015102886980401142],[0.011247557319012638,-0.0037373959348541595],[-0.00842556816941884,0.0005864977468044178]],[[0.016088018175167033,0.028726924148544046],[0.00421648388532378,-0.030876404040700363],[-0.0003313840512988524,-0.013942257696221838],[0.010259234114729983,-0.020454279996144485],[0.015445713946493824,0.003664631895140734],[0.034812622107409666,0.04360845248864754],[0.06245839278503608,-0.003613336105683338],[-0.008119486973143186,-0.01955689253949294],[-0.04616679169952981,0.014339485343967407],[-0.04478415499911785,-0.06148602682263539],[0.01861666813115616,-0.02115483860844957],[0.004104553615362586,8.607653947349998e-05],[0.05866082434808388,-0.035788837613040816],[0.012261241258670551,-0.0055518187533153095],[0.009594766093952939,0.013720024728934528],[-0.05427769461493582,0.019560573304832688],[-0.012013728886147792,0.030595727673883737],[-0.001676457425033455,-0.01997125127018908],[-0.07291589887476364,0.0007203250260626106],[0.015804213046363917,0.0060574604021952],[0.00335908544341091,-0.03359656932476298],[-0.0035922044853830878,0.024897116768761364],[-0.024750310277061635,0.03907331023068402],[0.016798620238962052,-0.014690824078768925],[-0.05392905497998486,0.0395316160308652],[0.007808059685082788,-0.0011652136027393888],[0.018305973129872487,0.0055612253194930635],[0.006285729389157102,0.021987805331308282],[0.039413569761458975,-0.010294530673343582],[-0.02756557516394218,0.03621430098571582],[-0.00019914631157957885,0.03705311019957391],[0.0017699600051811967,0.00897509408246451],[-0.014711248830757737,0.020444773934654922],[-0.03641368713748397,-0.06254586628010185],[-0.03665602113805169,-0.06411686311956616],[-0.008074485330056471,-0.013856472767728592],[0.01859338078995607,-0.03581055815737233],[0.012373112632114349,0.03535522017153444],[-0.020324005985490293,0.01502793260317942],[-0.004724780138063855,0.0007624653477251445],[-0.0010255238488102066,-0.004123855855003161],[-0.009667025204900419,-0.008840130896749069],[-0.018048756302896356,0.014367491423813845],[0.012909225777832914,-0.0021692064410338725],[-0.003605230255778495,0.018343647601027704],[-0.042131803247542426,0.01062239715187383],[-0.05706196976350762,-0.0195233739923621],[-0.04646711549738035,-0.009723747964046283],[0.019222641447330643,-0.00527344784753212],[-0.01066069179355413,-0.003404614226104861]],[[-0.006825126254338541,0.03332653221918326],[0.016521285454263186,-0.04131179630327846],[-0.01616610048395326,-0.005966891084731335],[-0.0026877455068365585,-0.015181807274671959],[-0.0059783341397552335,0.02453428128216066],[-0.00019895578348199262,-0.02119226083044253],[1.9138432056184265e-05,0.030224959832224892],[0.0027990361380602876,-0.006997783791939291],[0.030878559960181975,0.015109897946173359],[-0.05144207991504704,-0.04902442384106283],[-0.012050307343565271,-0.007728118969565211],[-0.018894711104869847,0.010709983974403123],[-0.03511898268356763,-0.005768317030717521],[-0.027351856250204323,-0.016619552518707708],[-0.0036979757581317007,0.011574461752873431],[-0.004418099990532556,-0.00422807761734372],[0.01877356856152663,0.013359701510605969],[-0.019842789533551224,0.030933976647466964],[0.0035742428355322285,-0.023742165649736833],[-0.007197242597096053,-0.0365430999660611],[0.008268284110274108,-0.02772233795165244],[-0.00989465723873341,0.00015781033983517333],[-0.03845029687271692,0.0258858498632972],[0.011588822439423677,-0.0049823632302256025],[-0.014970745071475283,0.016203327258730117],[0.005079352515935562,-0.012474395789604359],[0.008206608952167516,-0.02644208926905319],[-0.0395014980177038,-0.00236879325686277],[0.02932089345064213,0.02979146368486178],[0.007953550877039545,-0.014918151224283891],[-0.030350417375861458,0.02115251841278046],[0.0047633102940363775,0.036333752535850417],[0.014109208618027688,-0.013283601895688482],[-0.026283040251504877,0.0018680006551432763],[-0.018703440588226285,-0.02030633235676076],[0.025362136558478972,-0.007383986061714558],[-0.0024673643631812924,0.008869947916757003],[0.02327703594089895,0.01616223631885041],[0.029054407655319688,-0.017752443929807196],[-0.013684915486235818,0.010608330119806516],[0.030685991426421852,0.021299937181785543],[-0.0003010079324142932,0.008134316712338404],[0.027575954800505904,0.005998848497188094],[0.02503521337053248,-0.0009995012889852319],[-0.02466235031367678,0.018018110191291743],[-0.00294144324344174,-0.0035602124129770762],[0.012360553926373488,0.012069747910647077],[0.013411280653951705,0.0010206668072233376],[-0.013663262277441895,0.014901341445856978],[0.03696678129709618,-0.02355048282499903]],[[-0.017975784008488944,-0.0016262543788584218],[-0.011008063664190564,-0.003966754135649759],[0.03831286585881144,0.00159704198011005],[-0.015069598534848263,0.016840998970298397],[0.022504548404726276,-0.005475635949141631],[-0.03144206532296579,0.02420735950448489],[-0.01522811907353333,-0.000821944223280034],[-0.01484031666683781,0.018703734698773716],[0.014193945544125718,0.03424041085767467],[0.00928438502617263,0.0004330412923510135],[-0.0006785755902900346,0.03224263946934724],[0.019431444304800923,0.003585230802885671],[-0.005453623703042898,-0.027544263056456724],[0.016826683858888636,0.0001990879214920577],[0.0029924649375612945,-0.010735539306147165],[0.005377676177339767,-0.00545816872157222],[-0.004751826061461073,-0.019425457348097395],[0.023854642318001835,0.025740601287779705],[0.03391071209382444,0.009581768920066371],[-0.047116854861135246,-0.005955784707893834],[0.017084912118180987,-0.0031912009685388415],[0.03033077609223047,-0.0008757694354458436],[0.013984661725847818,-0.008890075325853942],[-0.04229074898423536,0.02392846815884805],[0.023609597142663113,-0.007151485993766487],[-0.02749484346362988,-0.009690761651192587],[0.009957145660875827,0.016489945340058057],[-0.005086928405637206,0.012274880370462633],[-0.06983409415310113,-0.006025303959602367],[0.0044671135400030666,0.008713831786076966],[0.04733045009321415,0.01372955437259789],[-0.010180075506700387,-0.010258512553492506],[0.011268175067190061,-0.016521564957282128],[0.013270608481914628,-0.006389877758438255],[0.03925352664490743,-0.005663570263253137],[0.047129668854105904,0.0016165668338633205],[0.007735009230190214,0.0005132388158990723],[-0.03514628058599973,0.011374551834595894],[0.005591343124446879,0.008059276504608217],[0.008070790899268356,0.0012053928732712843],[0.024552287952065675,0.008252463750185283],[0.020902937569340443,0.0042238782117861255],[0.024042853146752793,0.0004564496405170416],[0.0032683789003330075,-0.006963936717750592],[0.001190789430066723,0.0047883544843684445],[0.015530550361181998,0.0074914688284745574],[0.016302345675071453,-0.02580326714955677],[0.006672746268387549,-0.015551399219734996],[0.021775695677086947,-0.010577266856080408],[0.01100984403546681,-0.0028541387071407093]],[[-0.029788448133977914,0.017912946594166784],[0.0039247863015904865,-0.017285585501135188],[-0.029047103643438675,-0.014857945229402036],[-0.04462309866924928,-0.025548834792571883],[-0.026896874785484574,0.016681316409120732],[0.0066050889230894715,0.011368419268463138],[0.011685854033676434,0.013546526982423219],[-0.0019201806536337305,0.0025320706501269427],[0.01892539469062615,-0.010529020231831696],[0.028362908066247482,-0.034355555766994166],[-0.013417483956425093,-0.0033178600049566277],[-0.01822527063066046,0.011277525923401211],[-0.02816611037281873,-0.008460304297311939],[-0.026217420557387218,-0.030503168648980426],[-0.025502248894930166,0.018725155207758786],[0.030343853541498003,-0.00724585034652627],[0.024553184164262706,0.021341236596563545],[-0.0034646746383291214,-0.0002660634622235912],[0.05162318047043628,0.02783648517496904],[-0.006918902055344076,0.01659652164564153],[0.009576073420773792,-0.024513642146254885],[0.01947454212779021,0.018366821584491856],[0.0037252533566852564,0.0591447409288534],[0.019243877369918828,0.011312571192238281],[0.047248232885622195,-0.007193560437657118],[-0.04051912257323523,-0.0005371013147956417],[-0.011268541011859942,-0.002468339666469637],[0.010005144627376065,0.029495611259522856],[0.021123208651561583,-0.041331930286698834],[0.0010185982999914335,0.053358516622806475],[-0.023851387506727703,-0.015802097496859395],[-0.02872099930176096,0.010270374371516636],[-0.00035734836260131676,0.013078538841296854],[-0.034667311286050856,-0.015123647933196116],[0.017706822084897864,-0.016723598907168732],[0.0018808386597353394,0.008421468656329634],[-0.02172861644776004,-0.036282516243972114],[0.021479728131473586,0.02947680559157991],[0.017870918836906696,0.017960757650102802],[0.00787138691781581,-0.010986672904486766],[0.00996491282094363,-0.03258979860026437],[-0.007683299540653827,6.593882794066934e-05],[-0.009008361865280314,0.024680631789203565],[-0.022556859453538143,-0.01772091684868899],[0.013056712136360872,-0.0003134392802731688],[0.018524841835182233,-0.0036601245862602945],[0.016345034611801097,0.008986689239892558],[0.024243821565402692,-0.010701970919237271],[0.009001630966626,-0.014319209035339836],[0.02764587230634626,0.024222722014087972]],[[-0.016556986234994717,0.0002641343919139367],[-0.013288260366491257,-0.00330126952725846],[-0.018966588641632438,-0.0215477266548813],[0.005340270823843979,-0.02811682947003214],[-0.007435933916282154,0.042888572141292866],[0.025417619041187868,0.013643458853263783],[0.04198810918225423,0.00909630307578052],[-0.0122885419284663,-0.01801754476796108],[0.027056670913725836,-0.021238555113600767],[-0.012983154785333524,-0.02093761294995604],[-0.014209016934204472,-0.015298321591724236],[0.0056661564219767455,0.02001686418797216],[0.00792211867430326,0.0006554750085261555],[0.03120790515801172,-0.029308669612479216],[0.02905208158409111,0.013409064534737955],[-0.007808271190883993,-0.005872577793891496],[-0.0029085847504755945,0.05987872640608262],[0.03456100578541699,0.016230169995480215],[-0.031540630858046634,-0.018999952881807333],[0.007569981151518921,-0.030994755706008154],[-0.01633705215758099,-0.015941216429521548],[-0.021321751881263278,-0.003576462166408237],[0.0031523388994788284,0.04751971187151929],[-0.018781919697489997,0.01009596600558423],[-0.0011338595415504062,0.033521754663126915],[0.012965354229866066,-0.0036683140378128485],[0.0002586111628878148,-0.02841650150850812],[-0.0020412240986690004,0.03622500418171522],[-0.002657898690712557,-0.013762166349699668],[-0.03286875796409007,0.015620097018716906],[-0.01970146491242897,0.0009430315504864437],[0.014357899891834842,0.023889115519955505],[-0.001292427917239278,-0.008660948598736942],[-0.02412147146117618,-0.040892341202463836],[-0.02034617215936213,-0.020438433051943244],[-0.02067352739612602,-0.005222777058264736],[0.029259094245839733,0.023847055151404818],[0.009211198175746171,0.033795652298516825],[0.005540261631883463,-0.013018507405109486],[-0.012473520945912166,0.017226338976627568],[0.021562981457911422,0.011496726880793843],[0.016337221595929444,0.023683992912661635],[-0.003917177711925204,0.02511686414829777],[-0.004912125376921839,0.015543666564751627],[-0.02732757719311775,-0.018777892472065048],[0.017519665127223694,0.0030076905799913114],[-0.03549466470786604,-0.01231656298869397],[-0.016254833302847726,0.02068238184987666],[-0.005033646106591318,-0.024890139989250964],[0.035030936044657415,0.022479873154913288]],[[-0.010133876466318225,-0.004739586859648474],[-0.01864227676250195,-0.009954615680202818],[0.02015866513899842,-0.018906349298188695],[0.006696164303697478,-0.03434724849455259],[0.0027279094979283944,0.02114278649773666],[0.00262696133698833,0.04319860449176561],[0.002452598725153396,-0.022251058556228033],[0.0007979376094245944,-0.01998742245644366],[0.02912936486126745,0.0070274223287811214],[0.01541895302486563,-0.011028921914428547],[0.011430647806257528,-0.041100671705501655],[0.013604695121123774,0.012168189204025074],[-0.0065781949087771385,0.03662742131242343],[-0.012643822144548579,-0.00645362778392465],[0.02549482436471421,-0.017318729720441607],[-0.007306692464396448,-0.006181376863676407],[-0.0021659413890343475,0.04998067878196503],[0.006018951709849581,-0.01481926149033839],[0.03526475815789387,0.015796387900709957],[-0.015175416315056077,0.016647357398575337],[0.015217978746939054,-0.014089663360790794],[0.006199964148110269,0.01292093455767499],[0.003941297346025986,0.019019754389065186],[-0.01181531563758814,0.015457986165868843],[0.014400901097955717,0.016632508628482225],[-0.016922586494972136,0.002156536309619637],[0.015351779374430708,-0.009772575440150746],[-0.012908829366789507,0.031308206721088104],[-0.03638707855229526,-0.02564738888888054],[0.002417146644760046,0.040933790388027545],[0.008865392614467301,0.015805734523277087],[-0.022234222667866656,-0.001626794548407108],[0.015365461369165459,0.025852027112200367],[-0.0012711665772214514,-0.01944385200838002],[-0.00845203214843997,-0.024579141316769106],[0.06663116714162573,0.00867635007949178],[0.028050568232550803,-0.022249071932329365],[-0.028036595360531925,0.037239845304922504],[-0.0027265961347162377,0.004484110497579177],[-0.0012524717603436845,0.029762418797686114],[0.022305767391084565,-0.016201651442230826],[-0.008086392843234425,0.004284008029777014],[0.008233885939563024,-0.004386758087970587],[0.01443303904355286,-0.012049715149762358],[0.006198620539399223,-0.01268681492053229],[0.017608143026237755,-0.008686717926095886],[0.013512776545341417,0.0004267757847238058],[-0.005716415965269242,0.006935104758143999],[0.0149909445693088,-0.00555871088054811],[-0.009728938609767075,0.037270935997024114]],[[0.010182386164603707,-0.034117453527450076],[-0.02554807917034285,-0.026974260349083803],[-0.01081883004474507,0.028461573249648535],[-0.020631133507943343,0.033772947664683556],[-0.03129995796649873,-0.009797673000786575],[-0.013021305019350582,0.009434951165982235],[0.031648254887879236,-0.02189865463302459],[-0.035202434686318104,0.03033927680928697],[-0.030245942479673077,0.025817507338183766],[-0.01767738545718953,0.00998756052889727],[0.038408849225763854,0.007153573910544012],[0.0012931703419842792,-0.017546702861596715],[0.0059440795692160256,0.03531554991064329],[0.0031395489204288987,0.013718137158041196],[0.02424773832279015,0.019855543598059557],[-0.04159293476901969,-0.03224440172706945],[0.013369889093721051,0.030270214206101386],[-0.004043107246715456,-0.012126976805066702],[0.003533854142121271,0.02957817328500462],[0.025940277849422554,0.04121052302167765],[-0.01566395003356482,0.03176365212115971],[-0.03564985784291358,0.015134828023696928],[-0.016264264253137713,-0.012863655698257998],[0.031242185966536946,0.056827765847265704],[-0.019908050122493297,-0.02472587051405984],[-0.02020073037042052,0.004630761250826575],[0.03927104674577316,0.01434897307109831],[0.005586358207771694,-0.0002843710419017829],[0.02673863093029679,-0.037337363972834214],[-0.011089086465458507,0.04292377045961991],[-0.018144149990156094,-0.03175896754765884],[-0.010954944410351074,-0.011438225437270109],[0.002591340888796472,0.07814854724538435],[-0.060148490924732095,0.010961735589901954],[-0.04987345214458201,0.020957105926094836],[0.0034962287246751,-0.0084521848647202],[0.009445430115210148,-0.01751010415585299],[0.02803720449852572,-0.04392525759972923],[-0.002797095118479459,0.05366936145414591],[0.0041977563061829475,-0.0008972068899634322],[0.010940024581690183,0.005524822838973702],[-0.0037003132443041197,-0.05257923696884674],[-0.022218666858196436,-0.014077020186358447],[0.016846316912839172,-0.033125893461311944],[-0.024435740163936893,-0.020151425429924374],[-0.014788819165492897,-0.01207938733609415],[0.00951048127737342,0.0017343051448475727],[0.00138781089587442,0.0007055024167210193],[-0.0050786075186795765,0.025761112315760514],[0.029867800767634997,0.0012636819499407587]],[[0.002234293383128201,-0.006670004021110644],[0.012831987748787868,-0.018768219771947085],[0.027033717241546754,-0.009051624028025678],[0.017513813521628372,-0.011053590847525996],[0.009698237463194762,0.01504136682193369],[-0.005981187247752171,0.0193822044569555],[0.0138696912398255,-0.002089173373477898],[-0.0036476348061006206,-0.014997662194554796],[-0.03142885939087313,0.030238725603313973],[0.02823480901505208,-0.0396778774435979],[-0.018175773222432794,-0.016137597903117452],[0.0019722702980925974,0.003794765975357367],[0.017342992720674032,0.05407861448229662],[0.05693287156265535,0.015431058852365228],[-0.02738579739635558,-0.011574293411565325],[0.018348841283007532,-0.00944861317470061],[-0.019654308388941517,0.038879439201959735],[-0.004086083963185076,-0.028406861035399168],[-0.02997993913907117,0.03904112992871556],[-0.010297747678452498,0.033713359609922895],[-0.021225857852500356,-0.02345911915510868],[0.020513383062576558,0.012688984271935308],[0.015786154558085012,-0.01494911721416789],[-0.02493247971021249,0.046358175137844605],[0.0029702300505838625,-0.003298464926534649],[0.000764627963047387,-0.016526317935054338],[0.003039342614499549,-0.016840260059088494],[0.0011501947188960141,0.022236429545504293],[-0.0027259543701273377,-0.00926465971078855],[-0.02336221821251972,0.03966967251124398],[0.043616932613624246,0.011651991579320443],[-0.016923930897832725,0.03165911630479924],[0.001634357917099143,0.07488348873483427],[0.0014340734814170214,-0.011874898891734017],[-0.007877959818930316,-0.026768089702743702],[-0.01218461251586542,-0.016057223557352167],[-0.001870877970888636,-0.019071982024140538],[-0.02239289112881699,-0.0076280233193617205],[0.003862688896673629,0.024307670034219225],[-0.010360679821455044,0.02427923746946256],[-0.01672145451310951,-0.015394603239482359],[-0.005985790190845696,-0.009581984471565113],[-0.041509394632141136,-0.016643383747918686],[-0.009206012539945699,-0.002465709462426029],[0.03789221665323683,-0.001514580086312266],[-0.03790071989122737,0.007310798268054428],[-0.006486674046453049,0.014027285489272278],[-0.004068697593097428,0.013781201944605546],[0.01044279840865285,0.011692384910987017],[-0.05085087065461543,0.009410377983932803]],[[-0.021348745478301488,-0.014648597209328585],[-0.01956211079864696,-0.01858908250600486],[-0.021035685061836243,-0.004677504611671356],[0.0010200528096902758,-0.01835736616767439],[0.009799594140309707,-0.007400407396456219],[0.016063199243544837,-0.0005557692405683959],[0.02941308978999282,0.00047899647633102864],[-0.026672647362586926,-7.181447306929453e-05],[-0.005327081212531358,0.004501230782009388],[-0.012457526508712577,-0.016340820312546078],[0.005621438805044242,-0.04358921660470743],[-0.005684625542612987,0.02196132091811851],[-0.0062687480569682905,0.028838268549223983],[-0.014903296929609284,-0.009175079955180434],[0.0012443454621385425,0.027110124813588102],[-0.0036617627271045114,-0.011843337969387455],[0.021022154677258438,0.042450417359484995],[0.005250554122873339,-0.007319076720682409],[0.00603407278628754,-0.020944352093345067],[0.0031677546014126324,0.00447428244311207],[-0.017547794069355947,-0.0009115311463381631],[-0.035589355784613974,0.022876927301000584],[-0.023252113449646363,0.0067126833963865006],[0.007207933709097681,0.014984162143843184],[0.03622757285262139,0.012163202425964253],[0.001365910853489252,-0.006584026246781582],[6.314594289553218e-06,-0.04907498222497618],[0.003334194198869662,0.00520778278837941],[0.011253513008020244,0.01421917527302373],[0.0007069862036124738,-0.02142433400065629],[-0.028102187690963502,0.020512053360537495],[-0.006623966754732726,0.022180687606670215],[-0.009576953468405078,0.004238031002268163],[-0.02571939948184492,-0.02369210059456205],[-0.039589628888678605,-0.008087806623523954],[-0.01426805736349501,0.0010103240608309288],[0.02981202002872608,0.022652284068155067],[0.015507544923253543,-0.007599565612690442],[-0.009545078168583833,0.019495912032760042],[-0.011181451928374928,0.027384572756031303],[0.04006981996617266,0.03708329035678917],[0.016339021952459877,0.03435873407456511],[0.010982464323131842,-0.02868988251171406],[-0.006504349442223218,-0.0003293774108264347],[-0.02684559278049394,-0.0012311237087000038],[0.03851480407045107,-0.0038316667597790427],[-0.021983503774864903,0.034023274108322885],[0.017544267067648323,0.026117845930537925],[-0.00052618262228988,0.031229894532168928],[0.029321229932304075,-0.008111137467411655]],[[0.018746982865832602,0.022830784660144352],[0.02127934097757099,-0.00835119992901227],[0.024572290999805547,-0.0016079619192528225],[-0.01131419653951225,0.013782940374672835],[-0.008086245308011487,0.033068489721916824],[-0.02175749206998876,0.017973667234077062],[0.009254870344692318,0.01020508487280236],[-0.0018102561732560776,0.015064283877048217],[-0.039301194160343646,0.02627615988955611],[0.015807698218042218,-0.023356476799868013],[0.012091834153934845,-0.030005540972459846],[0.008115688913361885,-0.024180102610199757],[0.0072405825731513326,-0.021798005839873732],[0.0003085114902074398,3.1522338157629476e-06],[-0.012551348458001101,0.004454141046699559],[0.01198449588797824,0.009047505330976506],[-0.006793473739104073,0.028055221495819946],[-0.03110045241424394,-1.1857048997986758e-05],[0.029156147123001908,-0.01285255620111712],[0.009950536301861794,-0.015938432886086405],[-0.006881253499148641,-0.020608250015577922],[0.029484154973592823,0.012688497024767707],[0.02057681668697723,-0.01371553889839406],[0.010346149247213714,-0.01149940794017865],[-0.01875462778321506,0.03807886943973767],[-0.01262717755812458,-7.530497928629767e-05],[0.02040136807243153,-0.005731590037341923],[0.012306976627592331,-0.004132461188449435],[0.012576943405419818,0.015840553381416093],[0.012292581783370182,-0.00734607663659817],[0.0361201414661351,0.022008068381151463],[-0.018022348040502522,0.008988179383653053],[0.007572386999461911,0.0046294980960259295],[-0.014800043370919117,-0.04734078817558284],[-0.021646638023582382,-0.037410374025912366],[9.254995963011055e-05,0.009834465942796083],[-0.012078329337120174,0.017953284224112843],[-0.02052560556381291,0.010097023599546666],[-0.03009646347296874,-0.04873165573688323],[-0.0021144514549924125,-0.002564377328893001],[-0.007020104323586612,0.00610395032575387],[-0.011351441599612263,-0.03724133501360758],[-0.046718011513502695,-0.0032889278695381143],[0.010646800760631936,0.008041833703723465],[0.02179439542939159,-0.008992165679761657],[-0.021827252356207652,0.03627584640816059],[-0.004047299753799508,0.004738105396424655],[0.012447864571643723,0.008892990267772446],[0.04194693952484083,0.012669664910384737],[-0.02311161237253832,0.0047706923513656935]],[[0.06963335985877127,0.014277157889800943],[-0.003742726097930962,-0.06767334062514295],[0.05433694547368073,-0.0037122395641478903],[0.01781749672591953,0.028739827748638112],[0.024643361340272826,0.020075099781178767],[-0.05305345637264207,-0.010273126395203697],[-0.003028511954036606,0.01704757939852523],[-0.023112775623402013,0.037227406577822766],[-0.040556441164432286,0.010535562948274083],[-0.026772295931820796,-0.06606831287847219],[0.023883066748170378,7.81189072913335e-05],[0.007669736623051189,0.030904004811377245],[0.02394650064050243,-0.014670051205501175],[0.03682002110196005,0.015816464330682633],[-0.007518101404029698,0.054864318330223115],[-0.024348956223721768,-0.02719529646472321],[-0.007170306823932957,0.01608885564246021],[-0.0076659243418371915,0.0020312351713290076],[0.01194116131448489,0.005886559268908015],[0.022729395422860087,0.047757710004546955],[-0.0010243778718531757,0.015582601912032715],[-0.0077645222138228494,0.002035423165089501],[0.00662304098914686,0.02222663611469793],[-0.022130715082408797,0.00856688451718835],[-0.018443236118394917,-0.000701162212980228],[0.03371312363820181,-0.02934480226353422],[0.0117119835809231,-0.0071464402479885746],[-0.002447971650166283,-0.0277771311741168],[-0.015195117893207802,0.03341621643151727],[0.015652452736385672,0.008005278051943785],[0.025044287731211118,-0.01582369566772439],[-0.008835008207441989,0.016053880837433053],[0.006038435325937443,0.027792604402385335],[-0.01916891763677111,-0.012386649710150466],[-0.023596162978384752,0.01617236587723658],[0.0024077988406857476,0.010397115517236613],[0.001042813379288898,-0.03838208894676442],[-0.010303870363863904,-0.02623726227957637],[-0.004270717643792015,0.03854760184778097],[0.01515107697595806,-0.02168103395342129],[0.005537877418572613,0.03281655215108406],[-0.015347864835603048,-0.021935690599312285],[-0.04871765548269141,0.02233556268143067],[0.01179922604696359,0.01699232488566072],[0.007180413515467733,0.002989763051980757],[-0.06351205836195618,-0.026101395992291034],[-0.006363617157310779,0.037109341089983025],[-0.024877402980854193,-0.006125990891541015],[0.03033185085827408,0.038302596836228824],[-0.026709708059579618,-0.01785569991629735]],[[-0.02700672229422769,0.028612967179645468],[-0.03820616574298624,-0.023962733000581344],[-0.0075730261941177835,-0.009322668001692371],[0.016692342571997053,0.032193176020359426],[-0.008282780815181915,-0.031049887316536386],[0.01706621130734678,-0.006741212774319627],[0.010378906224079245,0.017745616538799497],[-0.010300954953017555,0.026759248513695336],[-0.00782329266682837,0.00818653431902704],[0.008607851508925046,-0.04362386873083155],[0.0037239293180600817,0.025391834209648807],[-0.021284401480799617,-0.01687607184431181],[0.032526992077166764,-0.02085669957895455],[-0.03480726056079219,0.0031423107368342322],[0.0399174267883758,-0.006733627518541074],[-0.030288385847365033,0.004860187534775335],[0.001214354334021301,-0.01729226859577407],[0.012467096452765654,0.013599943259105126],[-0.017946244374327108,0.007804427162456252],[-0.008796922905690093,0.047086229523816824],[-0.006740293396292245,-0.03420033198467464],[-0.052122481221912,0.019098821787575253],[-0.012282119886665693,-0.0078439681518185],[-0.009681348406716412,-0.02483849524547837],[-0.0010838293821087107,-0.006126640372475243],[-0.002198399009737498,-0.010630129023509734],[-0.018908828023994,0.0186706409131518],[0.016080712867649234,-0.000568837143586571],[-0.00035550383119917683,0.008789737813191817],[-0.025758149261188988,0.016721189052064885],[0.0003396887760785906,-0.020633461007072203],[0.005384574207712672,0.016778330982759302],[-0.014428849596509509,0.022413160846056566],[-0.005517469307940473,0.00199791714315414],[-0.020506889018611987,0.010552347664086806],[0.012047642605054577,0.0034701492540913466],[0.014167732192745336,-0.011534033942376032],[0.018172388329568533,-0.028151998364309663],[0.005718055379949851,-0.00891607561560598],[-0.02253365103251806,-0.03927927014907831],[0.007104665574366049,-0.01940759270087785],[-0.004663223731478488,-0.021861861060144157],[-0.0010513812196297364,0.021082714884149017],[-0.007576965781572941,0.004446086463447381],[0.007273339975765975,0.009487625152408318],[0.03194101327236782,0.003919123106411982],[0.009767187963866183,0.014871212242994666],[-0.0002534346919963134,-0.00759236768988595],[-0.011545173408701906,0.00920224169649529],[-0.005904767392215314,-0.03308550717006497]],[[0.01477257437817928,0.002759040036592818],[-0.0060763768594942705,-0.013534303573797623],[0.02673821108115148,-0.004838656993708096],[0.026978190870690893,0.005618851449980065],[0.013457450780769214,-0.02698272011924972],[-0.0035314174234291587,0.01099422754184061],[0.023444252936479254,-0.008522356109858775],[-0.003908429122265623,0.006557410058487763],[-0.01446408039242212,0.018471592451952686],[0.004020858987620688,-0.0604085882987825],[0.01076659458061727,-0.006749125449448636],[0.017271910475426266,0.017613226842389577],[0.022825835685092555,0.013985589847637422],[0.008135428371438581,0.023281293402040673],[-0.0057984355382597295,-0.024097243133260816],[-0.02345899655083844,-0.026229754613500394],[0.012556633604780583,0.013678573663634373],[-0.0069701318369473925,-0.017462172586730433],[-0.0005841485452300446,0.021404164255520875],[0.012901913820600927,0.043614986482692325],[-0.010694334075935206,-0.004601688410969965],[-0.022243507585633097,0.00936119520818275],[0.03621336178627548,-0.01057588659261828],[-0.02321310135450115,0.02191793603162638],[-0.010696403604249663,0.0008199866273282164],[0.017332349812723188,-0.010842750948937737],[0.033942162396930556,-0.010839535539171078],[0.012172171630007871,-0.006344950376298126],[-0.006198751666711898,-0.031070764592024895],[0.034168141599851994,0.02634191444619706],[0.005324603772539934,0.02558819599482715],[-0.007990084310462135,0.001921936839230137],[0.00440070042328764,0.02484315160326316],[0.01578550679025383,0.01294441534157098],[-0.020720720905648953,-0.026748309513009858],[0.00018397029453593328,0.0017943318618219152],[-0.011917585155251377,0.01162385810498165],[-0.009281777769290508,-0.01443277160448593],[-0.03267811423778694,0.018703756003423437],[-0.02306436106503364,0.0009413248325595824],[0.0011344288508484944,-0.016344321573388297],[0.0025504134869735306,-0.02721358947697529],[-0.01698660701611185,-0.011576529189908029],[0.0019927849668645303,-0.02581866739407185],[-0.008761471129794387,0.00023507323016121965],[0.00944091652946251,0.025726396696998784],[0.022119370256924717,0.003966438445411025],[-0.0077088859938627425,0.0007724658333078866],[0.029065224148969244,-0.007052997357495241],[-0.013215366087124753,-0.004213092227788294]],[[0.009813429968905742,-0.012588703776258564],[-0.006971577535259179,3.097399153274968e-05],[0.025810123036373055,-0.00044592409445945794],[-0.015589639243458922,-0.013072339579128237],[0.03381910137548714,-0.0052168653842990294],[0.0007193442851218083,0.0007977217237268557],[-0.018627213196225387,-0.01198650703155258],[0.000679144711233628,-0.007858517199415587],[-0.006230411708153461,0.00676242048757655],[-0.014049696760745271,0.021679806459070014],[-0.00705945775822157,-0.03832880358881598],[0.01704458830424657,-0.015330621008288029],[0.01943720827718471,0.0019257986315682138],[0.003937712791102573,-0.02868147946274563],[-0.0015456250184233532,-0.0026309124724383224],[0.00287879261803786,0.004524481960579638],[-0.03281771410226824,0.03551288430873918],[0.02133610778931623,-0.01241394995893048],[0.00866861478901734,-0.007480330989641995],[-0.008104109458186782,-0.02810549011719268],[0.015569967214170456,0.015097440950804446],[0.015528595115669177,0.0074216415703909884],[0.012981346612092055,-0.0018985441080058571],[-0.031654690686015445,-0.003138683486095785],[0.01945200799914252,0.019360634712435022],[-0.0019971240045026564,0.013977638769586555],[0.004571191987517792,-0.004398115822601415],[-0.0014536184251644681,0.023663984824930196],[-0.03070171019061267,-0.0260732190579603],[-0.017421528473209495,-0.003319961561036503],[0.0364756101229492,0.03505723596575782],[0.015889323225628197,-0.007395832862719691],[0.015950892426909155,0.01601930455474312],[0.03296768969846516,-0.0257240654631375],[0.005679207166102769,-0.034007861847732336],[-0.006110591909278177,0.02026644539890068],[0.013623199305139852,0.028176363594368682],[-0.030176054344298778,0.016528504074061725],[-0.0059471358707149195,-0.019022752315807016],[0.01265687097646835,0.020632729302734916],[0.006729601914385205,0.004842968514972614],[0.026268691879637315,-0.013673370264732835],[-0.015324282021267599,-0.025998342385425983],[0.013430494558069769,-0.022956473545377408],[0.010476393165960007,-0.021212251072338262],[-0.0006497533535461167,0.004621282866435804],[-0.01414771373289796,-0.0011213078625219035],[-0.0009196365054220466,0.010983857682984897],[0.01704883244945683,-0.013909226023400622],[-0.0018372835039501736,0.017744591394160784]],[[0.002525037614582769,0.025917578379650797],[0.004535071165343652,-0.020570381004799528],[-0.017980274583096912,-0.026127148179115434],[-0.006206392314064578,-0.008468770318506607],[0.0050425402530903,0.04438967500113447],[0.025798769464508726,0.028108906018985955],[-0.002425388179478719,-0.006871963135987347],[-0.0022792520515928093,-0.0020099278697616654],[-0.014048408356244975,0.049008811939820464],[-0.04739604029704159,-0.03802186321744239],[0.015610460538528671,-0.014439844591969085],[-0.020721119157281895,0.030579167129408807],[-0.0003913391393153137,-0.023709114458763496],[-0.010578531234946042,0.00025271523999558735],[-0.004697200631082992,-0.003025704104925514],[-0.020124663235700998,-0.028818980607308316],[0.025320239391589533,0.03662090331466264],[-0.023743275854309964,0.018614777428481808],[-0.029395367443821825,0.007293894323593992],[-0.012872300164615349,-0.022712571143456622],[0.00019873207654940404,-0.0031994769681121353],[-0.01310483923992408,-0.01822141623303928],[-0.05090188016033858,0.030512427439533866],[0.04106400791339921,0.04353517005237971],[-0.012258564527060586,0.03419680448251757],[0.00859065853515187,-0.031230206273133332],[0.006877841054138224,-0.02291849892148186],[-0.004803521103140456,0.04269627423865707],[0.05212126895367126,-0.039628702993853085],[-0.016975446710147394,0.02757626366816278],[-0.04580331709113785,0.039649091804481555],[-0.00092630612925686,-0.014753856250467351],[-0.007890205286081482,-0.014229289494299807],[-0.021073948166896832,-0.030684253565438538],[-0.022616359523994743,-0.03502573042604184],[-0.006405470236814796,0.02244727224938483],[-0.005909581321948522,0.021821260876808916],[0.04784827242067429,0.062482925890698336],[0.015676906826055225,0.008046489577149],[0.010320412742945265,0.012311300259208825],[-0.010242420570203959,0.0012823387397199446],[-0.015917995538724306,0.0013678324640605394],[0.006605656028070208,0.0017387131753827077],[0.020605612445506457,-0.011994224556007405],[-0.012109283461821996,-0.03626129726434598],[-0.024889154975169175,0.0504562521714781],[0.007599608523034321,-0.008912386607835436],[-0.01747771882408633,-0.015071307352063692],[-0.017793363645503105,-0.028972462237567206],[0.014757322295101809,0.00828944865043929]],[[0.018576350620480353,-0.013478952538788107],[0.024308485074183712,-0.0020111511512892616],[-0.014329636774333692,-0.0012487335816589304],[0.018253472474291266,-0.007195822615554423],[0.013586772314692309,0.005993471607503391],[0.03856156787946696,0.021205137123699758],[0.020157083433460104,-0.034034683985193666],[0.05787320007213248,0.00989637184028527],[0.016642401187959177,-0.010857403935244005],[0.013340224189677926,0.005413608965859433],[-0.02182424547971853,-0.04631605494048229],[0.0015360856084761748,-0.013817071002967748],[0.009839804805120988,0.029673086999649028],[0.007117559067411921,-0.01617029556180048],[-0.03915455678188122,0.0002735657632822897],[0.016180185318550647,-0.0016169820081167532],[-0.007884445633970687,0.027974092880756685],[-0.008721923986982856,-0.015635290873302662],[-0.01877773327114773,-0.012973733919416305],[0.0033077791885244017,0.0232314506440091],[-0.0021715361232809566,-0.0058659952374451214],[0.01624757409822644,0.018221984011407205],[0.00774216984046016,-0.02421376730420087],[0.007187991483673578,0.029792293739424002],[0.010799136961773146,-0.016875946049788697],[0.0005366622290776654,0.00636758144119723],[0.008007227159202272,-0.007154615606706527],[0.02200246833615627,0.0185208100052704],[0.021016482438668257,-0.04054260147946106],[-0.003239495115358472,0.032393286957432106],[-0.0035510518394572185,0.030280615730210344],[0.01243889445103311,0.0034740043125187194],[-0.021996653928075566,0.0265030143150441],[0.0035828490068330367,-0.0044866614140106524],[0.0007469238451264012,-0.010459991854863349],[-0.026453931165878988,0.03128177181651286],[-0.01428944617276204,0.009493191574406461],[-0.024861876141012023,-0.03310769074953025],[0.0027085729547729077,0.015490867911103505],[-0.024230191325877774,-0.0014517082480327236],[-0.027172724355479613,0.012444631742302693],[0.008343052808194919,0.006058126091548793],[-0.005191125760267245,-0.012734829038498534],[-0.009054106627258853,-0.008853831171908515],[0.011532378899292402,0.019647420949560308],[-0.014938908297024612,0.01605870129719117],[-0.014280631687438844,0.008837033971291555],[-0.023334181091627073,-0.007438845263029447],[0.011307943217417045,0.009094543396748398],[-0.020548200977996277,-0.014914893823442747]],[[-0.008338290880217137,0.007773997034817862],[0.0049352752631739005,-0.00825629349514658],[0.00744016618074264,-0.012840407761358988],[-0.0013988028578137126,0.007265349254431526],[-0.028903076198451214,0.007588045879974997],[-0.005748081985357526,-0.012174082026543147],[-0.005345146846169514,0.005848925091880214],[-0.017841210048415178,0.008420270475548866],[0.020974678825389077,0.009238937833255318],[-0.00037787141912536473,-0.03582424663489217],[-0.002845673662785744,-0.012419617479502577],[-0.024477837731046333,0.006712209074986363],[-0.014045738172410937,-0.0003995717258768903],[-0.02932833621224763,-0.017581172165513692],[0.022031074073279023,0.014285031156913196],[0.002130751316690281,-0.0028301782711850744],[0.005043092002122031,0.03591156086664059],[-0.0054771716407770454,0.014009904530530548],[0.01179290937619551,-0.005409157194742177],[0.010300632126881122,-0.001812786590334764],[0.01337708968313832,0.012290634368924115],[-0.0033195376296534136,0.0009073029961130471],[-0.01838080548492034,-0.015345752361331374],[0.010404551602823196,-0.009140735171072981],[-0.017729626825132905,0.019559274979937827],[-0.0027406973444563214,0.0014806775588045043],[-0.029837579262561722,-0.028843068935293648],[-0.02693441840768509,0.016940577456194025],[0.0009613418607510595,-0.004761876844915448],[0.004109855108266075,0.0041080598200793905],[-0.026627068749311155,0.04747128055710858],[-0.03054925279544269,0.0055607249544176824],[0.02011380956720822,0.025156253053113257],[-0.019524534152944195,-0.014794925325401009],[-0.003613652511740705,-0.013430786562611268],[0.053895344824068575,0.000549460303368362],[0.014215791511634773,0.03584121606240152],[0.041847178192805215,-0.018256107679237635],[0.01710660211147362,0.0026038210168771807],[0.01835815339451198,-0.00465652296880918],[0.012112062192880784,0.011310098232550712],[-0.02014910559326874,-0.011839102705224109],[0.004967342754417755,-0.01676122096832533],[-0.015863160188430214,-0.002317678322190822],[0.010051837101081816,0.0013595499099211348],[-0.0011296938551489614,0.006766100641905633],[0.0036984972815647514,-0.0046321961058968025],[-0.004365744743253541,0.01183625349409438],[-0.023565222759122526,-0.018255378830160318],[-0.00482078698027809,-0.013196559691168409]],[[-0.004684775014068897,0.028893601980666504],[-0.0064935987409927565,0.004731000550259556],[-0.01885800045400364,-0.009713802933073041],[0.034743558923144555,0.014730880294124987],[0.006077197839953495,0.01862935601209804],[0.015575979333874753,0.028904731398672143],[-0.004766810012645301,0.006083760704126879],[0.011851810529387611,-0.01007892340917262],[0.004524048236958135,0.0027846754384466153],[-0.009851041859100807,-0.03324968825485708],[-0.03488979162427355,-0.018610424807196973],[-0.011093669165176817,-0.0158471009604077],[-0.019408212959841097,0.005586226842572916],[0.02666189378835976,0.001485975543863301],[-0.002039963422487533,-0.005454800022515587],[0.007604781500875614,0.008770328693407175],[-0.007369814034959482,0.03444372526751003],[0.009469145524468071,-0.009599160765287789],[-0.0054363902638546666,0.0030286158986438196],[0.013719335371756807,0.015763935877452114],[-0.013803518587919613,-0.030813728968306784],[-0.014509512413670253,0.021226531530465505],[0.0020888809689450275,0.004655843485522198],[0.0024890974832039257,-0.0250833331644751],[0.019896936277673766,0.026845918209139424],[0.008741763664465276,0.015159632443441502],[0.0041355666958820024,-0.0008122178894733097],[-0.007044725569820297,0.01089222098808854],[-0.029087314948264317,0.013260276058175122],[-0.0014591559719393508,0.03275012742722294],[-0.01858416213343801,-0.013007666275308465],[0.0014943940295810455,0.016097969129518157],[0.010674889526624567,0.04478363061858023],[0.028794694250826182,-0.03053927305728639],[-0.0031668856346224903,-0.01715525142614519],[-0.01248140672093486,-0.015229938164674163],[-0.005061938103696373,-0.01643797710322741],[0.008031156123321611,-0.0033450970618832867],[0.01238983127036708,-0.03022388802618058],[-0.009336378268677416,0.006012439533473127],[-0.03739754293985238,-0.011267749400416232],[0.016998042242995587,-0.012089267781839316],[0.012022188255275647,0.016578400112362127],[-0.0018883522660151498,-0.00313986522578322],[-0.009293141265986307,-0.0031040581049065355],[0.02309686348629137,-0.0034552955591561373],[0.013342101776945853,-0.009172042130440579],[-0.009636384142379847,0.02632276113143817],[-0.017858350746643457,-0.0007949500085962947],[0.003959519255370556,0.0017303079960522617]],[[-0.00331291440819318,-0.008159731252129043],[-0.03381248001223035,-0.017979659676921753],[0.047108235428890095,-0.014750833379860396],[0.004923587572920375,-0.012639717694940007],[0.0002694926202951893,0.03300821318072926],[0.019436363623009264,0.010259860085161868],[0.06124212825846419,0.0017129785913801404],[-0.007391112533384586,-0.003868404058737216],[-0.03572842401387766,0.006812528066982442],[-0.025633597619816564,-0.009751964043249387],[0.009468797430801775,-0.05841077300071569],[-0.0022477169667450884,-0.009266641851590774],[0.062337303742067245,0.020931057171244036],[-0.007407724283156277,-0.02840932699948491],[0.024682623960853866,0.031126495292502623],[-0.047293701993438665,0.022637306400143782],[0.012529837725074905,0.02707059666102314],[-0.00025141557496273384,-0.006448067311197994],[0.0027645384737998166,-0.03414426798011318],[-0.01815875417503458,-0.04746379581433206],[-0.008439463203301911,-0.011220000562062876],[-0.021663727216643315,0.0036818527293126266],[-0.004016976975917359,0.014709982287565107],[0.0005785595977334484,0.0025688010783542583],[-0.046947135008899854,0.024369517933762838],[-0.015042473800318352,0.0034349632062261985],[0.03021375079522294,-0.028526829376538228],[0.028647420629483094,0.011900815446562822],[-0.013414991509686525,0.03655056742346819],[-0.009794443163785086,-0.015244071900256458],[0.004033981235295411,0.03733046730749567],[-0.041622653203040774,0.025271061853710947],[-0.0015385695847261016,-0.02576613930622849],[-0.01749511067110984,-0.04053979863398895],[-0.03944262744652753,-0.009499367059612608],[0.026409078543542817,0.0032823849886989723],[0.013980953906625754,0.004382747488735785],[-0.008122424485655535,0.024311875620609],[-0.02877172598483614,-0.040533344234704095],[-0.0372365552803021,0.01823522615906308],[0.0015473548124506507,0.006360972818337649],[-0.004183545897646973,0.03013745633802145],[-0.026706924298662445,-0.011318405053266898],[0.00315432198331344,-0.010885941994711735],[-0.005953557958286825,0.01759159559552861],[-0.002569853373753644,0.016034701270773482],[0.0025602490408155694,0.03220913455743189],[-0.028557478638773823,0.014042300903248008],[0.04183491022177509,0.010789416649586697],[-0.030412978945144185,0.013120725447076605]],[[0.03927627930162173,0.011859543165013506],[-0.012667938184981041,-0.0388720962188702],[0.015906650865217385,-0.018311234270772137],[0.010985480371304724,-0.028217778282647158],[-0.013443549604872656,0.01291453390253128],[-0.03371132574212198,0.025050725023116834],[-0.032195333056704,0.0033309341065823196],[0.018831123771804053,-0.012621935693129345],[-0.01146462202730593,0.025157366235764606],[0.04331500613581613,-0.04331641576900191],[-0.0054527247365181355,-0.03563841579054277],[0.00957943245603382,0.007521765674672451],[-0.01862040393704996,0.01644245288393771],[0.008537101157671319,0.013291279138032946],[-0.020096114947703705,-0.016352542309717295],[0.021980262717701645,0.00941974781442443],[-0.010455131242635097,0.04988295746380757],[0.0229947670014043,-0.0076518232617939184],[0.06588050412486496,-0.0409090894580141],[0.02865736368688128,0.00945298272235166],[0.010531039484156124,-0.03290832601086424],[0.003394242735028101,0.03070386705217303],[0.03152000447455341,0.009867053507055247],[-0.005474608045782606,-0.003537455196141949],[0.023146844011919902,0.047869342555262824],[-0.010516480723879217,0.013831434668066862],[-0.006002467154017319,-0.021456899580022906],[0.008407542835035307,0.035156565685266976],[0.003910230916794372,-0.0012677849049766788],[-0.0013285444211246422,0.009277051931622305],[0.01551607295957876,0.011325303252002586],[-0.014680180155045047,0.04770512224294565],[0.009929296633994281,0.01766885996605337],[-0.013963647893850836,-0.040145596647956576],[-0.009720069938618639,-0.022230143793918897],[0.009226869465539085,-0.017924424101125415],[-0.0014310097479982918,-0.00651420842942179],[-0.008757577092874398,0.0046755470467497225],[0.02064204276702134,-0.01404175446089968],[0.021583351549529062,-0.001341963643228787],[-0.012673993652206055,0.016010428004196584],[-0.014057943249876897,0.007763006284867351],[-0.039560046547231636,-0.00046461820138331343],[-0.005917534550277201,-0.0008279793242573704],[0.04156344453965875,-0.005609866695492195],[-0.00984938378669949,0.020412699753767125],[0.018487195776550645,0.025277756253470056],[-0.0004505616131046707,0.009533936618577056],[0.004735695193291544,0.000530077998762916],[-0.026628120561766916,-0.007607973972961346]],[[-0.077230051392595,-0.010242646177056006],[0.03451370306090865,-0.03193056971380105],[-0.03798352941508466,0.009855240873572396],[-0.0034949647819552377,0.045620645035001864],[-0.0020922756635726727,0.03295768348494975],[0.0684644048446303,-0.00015470719400240704],[0.012362937249132944,-0.00807756357060243],[0.03208013959386041,0.03996929135237696],[0.042784398069048296,0.044100247447677654],[0.029724344380364198,-0.05156922170128104],[-0.0371738481592202,-0.018426142875404762],[-0.005039718747253656,0.006177666223771748],[-0.026222603298813214,0.016275992706239154],[0.010563710280638822,-0.013197484344793627],[0.01191376476059666,0.06871579526320654],[0.03202564441750495,-0.020739402701457434],[-0.0014066517713915913,0.041737377930610615],[0.024679901086152804,0.019952177419732015],[-0.015880768293816454,0.02291500558259455],[-0.033580984473944434,-0.019869590549096504],[-0.0050225467182751435,0.033195786441836087],[0.03422984925514913,0.003872454226491361],[0.007783652431743924,-0.001110591074896027],[0.01728402358002843,0.0468124277486119],[0.04121272739945467,0.005520851092661436],[-0.018447446806671475,-0.019155952827126187],[-0.020607529415957115,-0.01853158743341974],[-0.0003430179234839032,-0.004282043777349707],[-0.005902859635463397,0.022110456751322248],[-0.048213970787088466,0.016882925132912414],[-0.015297603996248979,0.011802995433423393],[0.01874503762875182,-0.014210130619383171],[-0.004218221931687761,0.019573570943570123],[0.004407338064633742,-0.00808015212336703],[0.03135796633099096,0.008342219427089159],[-0.018297039091663348,0.0036244857958930643],[-0.008653571259207791,-0.011548108278625735],[-0.01618426471117146,0.0024236292863174533],[-0.00681943531528201,0.01985037476071827],[-0.025576694926458546,0.009914474407928617],[-0.015755610935145683,0.003794949908651385],[-0.004801225889962041,-0.03149168078939287],[0.007880809386929519,-0.004024825396596987],[-0.012694010048407341,-0.03786100990256875],[0.012554521731446736,-0.005822170255995183],[0.033301249734882965,0.009871121005521092],[-0.01812295422148727,0.0007393282817489961],[-0.019257824981144166,0.01549498978839875],[0.0016367904809984901,0.022859970495604526],[0.0294024712686948,-0.010683820521939641]],[[0.02739493800479282,0.00020332752740083882],[-0.016241743626725688,-0.04243563850750183],[-0.0013590231288029332,-0.014985208785571814],[-0.025165696759229375,-0.02171322831438564],[0.010569969281923573,0.04548509700118673],[-0.0466188726638423,0.005888329973759734],[-0.03936180034430661,0.010235124926087084],[-0.00547502889783131,7.269853750744518e-05],[0.008065863083985558,0.04118281064842376],[-0.010003206091748344,-0.03956972238478929],[0.011142981623151018,-0.019670167813182853],[0.022973878566324494,0.005341879849505194],[0.011296438489283273,0.03306239013529213],[0.005963190192808783,-0.0036806031890692648],[0.029038966012115627,0.0364889418988498],[0.0042126804639038016,-0.007348982223195956],[0.007985683354734055,0.03796912979827798],[0.013992566640753695,0.024071616041793368],[0.01640870984328627,0.009940630555776726],[-0.00921449330880476,0.01792157882601285],[0.012496022583639424,-0.01974159789499188],[-0.01751535751410269,0.0006009069190714613],[0.0035811191907121043,0.020000496580710094],[0.004422045987364798,0.021514534839281986],[-0.016249671799297424,0.03527042883878821],[0.009561680883715812,-0.030409528636126372],[-0.012713189014597826,-0.042097342093937694],[0.016515949828322767,0.025283017032634417],[-0.04678031682559215,0.011671643179602998],[0.014181544893346575,-0.0066005515278015955],[0.00753354474242522,0.009438807774280694],[0.014996972579350683,0.047840388360002026],[0.0032874949245239814,0.025283036889586937],[0.022292336345718824,-0.01890237585198979],[0.012404241874364534,-0.008709002089696084],[0.023576789221309465,-0.009376064659177511],[0.004866794323896945,-0.012362483528161088],[0.013441899698278682,0.027983940730151476],[-0.009638844960388263,0.007087953126694768],[0.043692008093139875,0.015366040141365136],[-0.0031759812679374323,0.005646252556018269],[0.014770713352873957,-0.0018999194232530445],[-0.008313796177076414,0.00014760767064356337],[0.013140758824741276,0.019416055178340212],[-0.012487596202062507,-0.016265440732330612],[0.008862334065277205,0.006475122272520778],[-0.0005571482560938302,0.020874808460502447],[-0.00894868822265875,0.002054233149548435],[0.014530046381304562,0.03636473593068007],[0.010168993178889087,-0.015320020592469376]],[[-0.021551307901187415,0.011665684591982951],[0.015815951877307638,0.0027422840156385276],[-0.008108982660410921,-0.021914812021203454],[-0.02737401139825935,0.002249650631076967],[-0.008519790401688898,-0.01901823518402333],[0.025967470394196203,0.02417354129333609],[-0.010451296500898346,-0.01171852302527124],[0.006740675676132086,-0.012712433828130996],[0.057362333500274525,-0.03376445962990505],[-0.03877161041377973,-0.01851421523436082],[-0.01753699570430954,-0.011673817616880269],[-0.002398389867361302,-0.009676260295087821],[-0.05307063368864198,-0.029824977952709913],[-0.030358744819854087,-0.00129191999945898],[0.04550249832829305,-0.01776608151402352],[0.01566762687786765,0.021172634544844103],[0.020419360917494026,0.018172729851198312],[0.02251338524716273,-0.0463728932107543],[0.028199157806426633,3.1842411023095955e-05],[-0.009062397965559176,0.011427242451555387],[0.0010140396337429552,-0.024887698132554394],[0.01790042542572652,0.0044814239085263765],[-0.02906788927632091,0.01774013326393837],[0.022004108769596274,-0.02084954917295553],[0.016796784572977914,-0.00280850709537922],[-0.016271626275640903,-0.0029709245480300105],[-0.014582821466531712,0.027330742169488033],[-0.02732614502560227,0.0026610854050618323],[-0.003389198876981259,-0.01564188710813045],[-0.01894151592383391,0.02986960189898931],[-0.02340987195333795,-0.0044599541310020455],[0.00259657817431098,-0.011967536381211084],[0.03197655275867006,0.013815727409384278],[0.00012892921586821383,-0.04281883767850449],[0.0011518519619372514,-0.039931779921417596],[0.04312851044008843,0.0013960990883994122],[0.01744836071665858,-0.017638287753737714],[0.03248342669310376,0.012616480114010302],[0.027704083242372196,-0.021750617609095496],[0.006853053401501491,0.0008289665842885147],[0.02327939200709878,-0.018658535579656514],[-0.0017047057994224505,-0.015509035118646599],[0.037569646017219016,0.014687935898939457],[0.01063488506151013,-0.005542593393432334],[-0.017021314427081706,-0.004762972368966676],[0.011985321480403516,0.02208883459462756],[2.9925448382904464e-05,0.004031152135842878],[0.020090160236340755,-0.00294153470679034],[-0.02182228845225857,-0.022078659191834927],[0.04386706190094448,0.017432728173846095]],[[-0.04266720283733289,-0.015971154324332652],[0.03860793814683135,-0.04133414666956442],[-0.0027678611617838553,0.02037388757347468],[-0.027117456694896794,0.011252568175962768],[-0.015875529260702972,0.01976125105021249],[0.021501679544583107,-0.01663408184910783],[-0.03357637019335395,0.01857528767867896],[0.00703398512239593,0.004384777195012127],[0.041282814909751595,0.019776634534950138],[0.01947048499345247,-0.012757072360688623],[-0.025903980329464192,-0.05093878761228001],[0.0026192903497051106,0.003968805686441486],[-0.02778318512424251,0.005790823379961183],[-0.01388348896479744,0.013665345298784323],[-0.009186958501047435,0.03709665067649483],[0.018669079854660472,-0.005490564160856623],[-0.014119510331829671,0.007884987066152205],[-0.010778649505848727,-0.017178193488793653],[-0.005065762828178895,-0.03670635969534364],[-0.009279087088835899,0.0203559905301932],[0.005384309584632275,-0.015086215990523719],[0.06095292518010816,0.018309051283430224],[0.0006204297530391666,0.004312779452442041],[-0.0012372439608817343,-0.012647357085949102],[0.004451224828881956,0.012475285577075324],[-0.013177820159505067,-0.006582568708824916],[-0.01918144610811612,-0.0033265909984092085],[-0.023277977995412973,-0.023907564631367843],[0.01083481245262836,0.03564093125513097],[0.001758734550214934,-0.02928767043753038],[-0.011379715475309162,-0.0011011415010328575],[0.010918862801912498,0.039812146142324166],[0.015140815192142616,0.02692538541589251],[0.025674107566044824,-0.03396593976526193],[0.0470170753596437,-0.024706675549909615],[0.026720004707274547,-0.020431310891855573],[-0.025155200642091813,-0.01092641119782905],[-0.0023904593757966093,-0.04295498117655723],[0.001094849463000317,0.002456250252621756],[0.0012351770567989376,-0.00018332046400119342],[-0.013224683957505588,0.03183527736528657],[-0.01542800679995753,-0.012547048276033104],[0.026758914861090305,-0.007285798415028656],[-0.020321203553101363,0.00698274314290055],[0.015096475721423697,0.021800439656984166],[-0.0012227235862743158,-0.01160290285087387],[0.018475416226081474,0.012064102860723121],[0.01338305086366577,0.015152432402757734],[-0.01924829529612975,0.06091324125669634],[-0.009051052029751018,-0.03427524358944793]],[[-0.020082830427539514,0.018283916143971544],[0.004049720570672811,-0.030855110350598937],[-0.02868658555239859,0.005225871662582181],[-0.03404949154307198,0.02136594570074763],[-0.013895231389236979,0.007227571111973446],[0.001910282726307408,0.011425087164269038],[-0.009459890361584657,-0.0017939071124032009],[-0.008812502729271454,0.03561437356906407],[0.05388565509640991,0.03651744515751047],[-0.027921708302977483,-0.02954181703149951],[-0.010973690344631581,-0.03613310573282328],[0.003958913124638926,-0.023471313951163],[-0.03960877435127522,-0.010342193939486714],[-0.023659119443300423,0.018724590814456335],[0.016788044108948665,0.012614960406082058],[0.0022031080853744806,0.0020608026487898105],[0.023175243691615683,0.029887732155217762],[0.007050715800216149,-0.01435807533177263],[0.0005493135900264219,0.003669089791262358],[-0.006058291227858939,0.02838221351528539],[0.024683583451582163,-0.009300503715785457],[0.018405568751381374,0.02022955387283211],[-0.02640251301300502,-0.017990258236687894],[0.003097346227539896,0.005725867795660835],[0.018014982930558553,0.01600530564754282],[-0.00212389274476672,0.004337879407112001],[-0.019946331031406767,0.008569437166776956],[-0.02890514248000073,-0.002516331792789735],[-0.006754677819917034,-0.004150350302864402],[0.005639998732493212,0.02674183000070855],[-0.027718862150582543,-0.008598537140197],[0.028156766632909745,0.0047065956318906735],[-0.002286419200690719,0.04781805155225228],[0.020236110673114056,-0.026653877712619633],[0.04779876526184474,-0.015657387382358473],[0.0357489502995798,-0.0009818657693319677],[-0.0009392070753769688,-0.011131578287409693],[0.015096246993248635,-0.026317620333066217],[0.029288529459232437,0.0011075527409489493],[0.011228695805455385,-0.027978270886959106],[0.03375336341298839,0.010179774888028462],[0.004140323015416744,-0.030863941083531077],[0.07445375409649095,-0.010416296949841928],[6.839491665652992e-05,-0.00812610213574462],[-0.033433175019238925,-0.004401885149446562],[0.025559716316813363,0.00907971261897288],[0.022336384822778492,0.029412275088974496],[0.018555801147180206,0.0028119857784773875],[-0.04243180466817296,0.025324391113167453],[0.05397758625308625,-0.008879298099917115]],[[-0.013949098221971334,0.01780149691256696],[-0.017372825366120333,-0.012968176430308705],[-0.04079291730073319,-0.015137888551603225],[-0.007883646399502287,-0.010029132301566508],[-3.309668820246662e-05,0.04685066554513887],[0.019111137261794905,0.009471845295409204],[-0.001511952625775046,0.014848115448491347],[0.006545114005247325,-0.01873901628165566],[0.008293921512893866,-0.013162837007624956],[0.02674228918064599,-0.03502867120365716],[0.01611758596339036,-0.02111050187702456],[-0.0002367809852903413,0.014778358897470353],[0.0012567842732792694,-0.01911350292022322],[-0.012133058714428518,0.0031861058080842014],[0.004142989814777596,0.015951809081159125],[0.005735495759960637,0.012179321775507046],[0.010480022562786661,0.05841290023210963],[-0.0016722922505071625,-0.01652161323733365],[-0.0006369763374445609,-0.009681069643237472],[-0.01294163016005601,0.00936890388267637],[-0.0031064970843183836,-0.016950831255963056],[-0.023227827659739752,0.006020694086985244],[0.0014713729243471013,0.02349156310943505],[0.019912937448654335,-0.009004743263207153],[0.02991557946826326,0.016026946550972927],[-0.0037126677424713962,-0.004931015157842445],[-0.005606737969668304,-0.002153751722683216],[0.022923632333629408,0.025426089904377294],[0.008978073276933222,0.0019491370607084566],[0.009193018547648852,0.014654803400040198],[-0.021662372780746255,0.007653273689972867],[0.013587851708837905,0.011804283129242792],[-0.036990043961089486,0.02138946528779983],[0.015324835932568774,-0.0527796346775926],[0.009483718490598578,-0.05823257321507864],[-0.03788131314700776,-0.016053926615235855],[-0.010781543517958174,-0.024818954851818082],[-0.01507922168251521,0.01549141939913216],[-0.02910671091264764,-0.009582565491260532],[-0.0030289621185641945,0.023297560354882188],[-0.012233485735730146,0.01863111408990452],[0.002875102382957014,0.006092073142247955],[-0.006372345195291522,0.01648074944685601],[-0.006352942336860455,0.012394858128393376],[-0.009435792976892364,-0.0047484687146241485],[0.03815071624367809,0.02205842530154568],[0.0023461262452475337,-0.009399279006098696],[-0.004027976668560952,0.007659515720835569],[-0.006672570913698282,-0.004380469950991658],[0.012205434135557768,0.01911777557016576]],[[0.02338476440264179,0.02898390803207995],[-0.02644702565583298,-0.03876269335913884],[-0.01920463155302083,-0.022429680707251227],[-0.01133501381554778,0.02923502977018249],[0.009369530461589821,-0.0057994512626407604],[0.014341112717255307,-0.010497349307108304],[-0.008455086886973842,0.026816138883220427],[0.029158082573092683,0.027324181170378853],[-0.015544580401360013,0.026669715606097003],[-0.03524484756680968,-0.07977852933392265],[0.008924663934458078,0.0020064047235545082],[-0.0041224851571011025,0.03259876888276683],[0.009752212065203757,0.015806804220330886],[-0.015590019134476591,0.01657542245096154],[0.010576354545768085,-0.00292677450352238],[-0.01349301302867114,-0.011381424982232529],[-0.012410639764800616,0.03543674670543471],[0.023555059787381517,0.026200514677063823],[0.01843188793982163,0.004265248554290569],[0.013892008483226193,0.06304380414562696],[0.015354890723017168,-0.02872479438076155],[-0.007499955666756907,0.007285331379429924],[-0.012131225057054542,-0.0013605265439876188],[0.032289614458896526,-0.012880964604633453],[0.0006878430362745234,0.002866465924422931],[-0.0011905476594563558,-0.02861352512746843],[0.001917678276672947,-0.02754165629791151],[0.006851552987341192,0.00024035698799133835],[0.026565584326495945,0.043533314424534765],[-0.021166385233270912,0.02384759778346602],[-0.02161219916902011,-0.01921647763171976],[0.015231754159258447,0.03345457151055714],[0.001983639329325129,0.025209546970298737],[-0.005564862573919562,0.0049317563860074715],[-0.006109686049781162,0.026255379914081424],[-0.03883859302374283,-0.005147452305248544],[0.022296378388576833,-0.009399903504150054],[0.005019300784263007,-0.01691262236347118],[0.010230027789925536,0.0065938625239460365],[0.04369954846541126,-0.0027228325037403464],[-0.020124131471620073,0.021382120103350454],[0.015164629730029206,0.022269714958717886],[0.0027666963155877147,0.012412099252977997],[0.012682331987499238,0.016160121767247],[-0.0008189040637524708,-0.012433025615165166],[0.012957916768718505,-0.013803434088094231],[-0.03188614428019891,0.044543504925665965],[-0.004600129653406369,0.015198842296955211],[0.0002610895049852352,0.013801688930766758],[0.01912245336909847,-0.020623653957814653]],[[-0.02375366519712692,-9.980350921984823e-05],[0.015857794900025764,-0.04104324609909718],[0.012370150722891778,0.003028393351566282],[0.04305195555463384,0.003645912126531697],[0.03133770418783623,0.04202490763894382],[0.030296217115846867,-0.02646273147983593],[0.014295159479623863,0.024283346489034286],[-0.00609053306910862,0.028876413681207785],[-0.018163131299758932,0.01786712645833472],[0.005601204966688264,-0.01746668685339052],[0.02684255970604717,-0.010863448359863737],[0.022803911421775003,0.023842042132764165],[0.016654803428149567,-0.003208219112838845],[0.04049092894687919,-0.0032926101031981094],[0.003974038862912208,0.04360139841838374],[-0.014552366333551427,-0.004489491329686302],[-0.019502920315451724,0.043448015561493004],[-0.0050989975714842055,0.01453596335997167],[-0.05346564940948017,0.004230092451472223],[-0.0035408051693790873,-0.0181298091849919],[-0.029311417824075807,0.0032775359636442432],[-0.00435820390821643,-0.0005408639873899432],[0.023740550434108283,0.034121831691874195],[-0.035461219858528605,0.010558173973881098],[0.011344684430625388,0.004068060977515247],[0.0023846325908197163,-0.01774888048509217],[0.01477691988942617,-0.026964076475740496],[-0.0037995286291909692,-0.002634771648518529],[-0.026582858569850997,0.023013400317477374],[-0.003192331044790826,-0.01183423598745381],[0.028120203907344883,-0.028995145919843448],[-0.015349869869772426,0.011519496080608621],[0.01826423211908042,-0.009784144432918265],[0.008245088815285276,-0.021652151678664265],[-0.022522578368571453,0.0013102214187637171],[-0.009929883124554867,-0.0007832000372644601],[0.009001034477699333,-0.0031398828896737484],[-0.03331746665182997,-1.6804982518707923e-05],[-0.025727765131588837,-0.0025197599187241244],[-0.027896332312091463,0.004769249530057262],[0.0037490161627494085,0.028038011773257786],[0.030932249343804914,-0.0058622044211968805],[0.008470163742719812,-0.005423672271604017],[-0.0005750871481579566,0.002421893883539643],[-0.010356025387231352,-0.014916750725987247],[-0.011763012165669393,0.0019479379016356117],[-0.01227302815227374,0.026333769706877088],[-0.001785446283387684,0.010920540664076057],[0.02020641174246171,0.017911418079274263],[-0.01265771463662804,0.020238066203546474]],[[-0.056898596061852186,0.027690228144551857],[0.042371064796539376,-0.04880238041024758],[0.007989075380054913,-0.04223619658416221],[0.014547775073962411,-0.004728130060951385],[0.011829421894809516,-0.0027047442570370386],[0.03747642070993359,0.025100321029660123],[0.012252834337468252,0.016043550452348718],[-0.010562143736497609,0.0020717128070989015],[0.006654374577100952,0.002710496131035164],[0.016552197886048843,-0.09227258044021257],[-0.008201609401801178,-0.014310305660749525],[0.0010683288542285606,0.02729275763488927],[0.007600911944931126,0.014055186532582382],[-0.011296433797313276,0.011428734719231406],[-0.029254436980672684,-0.014312514819186477],[0.013671764224202129,-0.002732622650785959],[-0.004524376218023701,0.06481432780972957],[-0.03764748129276565,0.010762831518922374],[-0.05568043646528068,-0.009149708143358021],[-0.02090760263368129,0.06941720006391383],[-0.017954632611394263,-0.02773402216481626],[0.022237984988168768,0.01018971104938336],[0.010032615615329686,0.025777656294155127],[-0.03366701252897054,-0.017244568067117327],[-0.009056086661609552,0.04207118689216018],[0.006032174528775301,-0.003545700944106244],[0.010587466448898904,-0.016833042370967985],[-0.00849769877462548,0.0183442185112012],[0.017345466015918246,0.0007518704834351636],[0.031938558483231315,0.056209494570619974],[0.019009099234320256,-0.012561291520893235],[-0.005662270831950922,0.04817845728090369],[-0.006484756442461582,0.044337366356475005],[0.030156750226457252,-0.012670276911556769],[0.016140877837166175,0.005659720134457169],[-0.03701529982061101,-0.011812489546404044],[-0.019654714275964005,-0.02897298385501805],[-0.024108497538483358,0.010151457155770845],[-0.033128631224961486,0.012797534867106896],[-0.04906410256890325,-0.008880423119745321],[0.009004788771977277,0.0035948117947629562],[0.017854010301073007,0.009781077444471473],[0.029542080907492017,0.035937126246874604],[-0.022603353073178026,0.010748961542979031],[-0.011630174240673589,-0.030168835399048525],[0.014079847417918115,-0.018369971193430736],[-0.005440489582029365,0.02757052289306874],[0.026246104665519496,0.003277006047738628],[0.0026126325111700305,-0.016191269071716228],[-0.016185611231324365,-0.01600456209099213]],[[-0.0003380048085134795,-0.011972422851366113],[-0.012155981865691995,-0.005776693426047717],[-0.01025616510853926,-0.0013501460765318737],[-0.052607046639296176,-0.02852068149877062],[-0.00017537300040767123,0.0577088064684947],[-0.025345056501015747,0.002355920169138704],[-0.01267513392383322,-0.0029702035795828663],[-0.03176391052762038,-0.02095784693027445],[0.0005111854699323161,0.017877598836137137],[-0.007525778895623241,-0.022299705037284512],[0.04022600125004468,-0.006297225240425232],[0.011230802704338076,0.01768099409517936],[0.015085076480675476,0.04190834197189181],[-0.02662784351323723,-0.00221965197596042],[0.01247533400903212,-0.005378833668851423],[-0.02520078147832635,-0.0033837061112790556],[0.026278823589377786,0.032042735758590846],[-0.02400242380554964,0.006471116990864875],[0.009823608587019278,0.01879598423230501],[-0.005068533925745162,-0.06545218613714035],[0.006187740316809257,0.0033278663688627967],[0.026784404503010544,-0.0023240666167458662],[-0.011573629070036921,0.022488091571488657],[0.006357534918996485,0.02159587970081518],[0.0068336972782642134,0.01719918014842118],[0.0009253183826790675,0.0023873363936717717],[0.004313546091955751,-0.041252220529638686],[0.016818874394540634,0.016426088099619436],[0.0019358482925058145,0.017191412080468663],[0.0010773438172762967,0.001726177714661404],[0.0042983916200677276,0.009840685878907116],[0.01311615237066504,0.022903948185291095],[-0.018828770860331596,0.002764600261957415],[-0.01283123476889518,0.0002585934601439365],[0.017596702614503107,-0.01052954915598915],[0.013272304843210939,-0.015408645150781927],[0.001225749164728042,0.00899878360872073],[0.005593209391058514,0.01060032811835865],[-0.011782127945270261,-0.009597231857205886],[0.020404706913704992,0.036051679528548375],[0.030674587161205278,-0.001970551321070831],[0.009286128133280268,-0.0031408420366360046],[-0.009630162172039807,-0.007520900118122224],[-0.010807508267818091,0.0006892463110082137],[-0.014021806944338692,0.014495906114549581],[-0.014719331502988278,-0.015571529440533161],[-0.01372753188828586,-0.01552529875868742],[0.011692283032808021,0.02287400539270517],[0.02653266873631666,-0.014378816398900329],[0.024654589340009976,0.025999801944252516]],[[-0.020463381313037432,-0.009112079691519849],[0.0033314229583243193,-0.03962914422400096],[-0.03169107072978857,-0.008321086237409524],[0.010837766180670155,-0.041768375885130694],[-0.02939526320431783,0.04147800500300011],[0.030222438667120856,0.0074591248926818305],[0.004599986578092052,0.003638477175933206],[0.02992307418584105,-0.015967958005601586],[0.02415859388788713,0.03703768017357483],[0.002197372609308882,-0.041995648214983444],[-0.043037429105957606,0.004482816987008727],[-0.024129300661400035,0.043130429665239015],[-0.028901175037237905,0.028963777944024962],[-0.048056394418530074,5.5939924592745324e-05],[-0.005847199687535859,0.031166984422125087],[0.012229724981695276,-0.013637466054171963],[-0.0027403247736414154,0.04782944912689631],[0.015310607384934055,0.005001986812138857],[0.017144522834839176,0.026570620972967935],[0.025626356148120345,-0.010462024749893772],[-0.0021614144492521047,0.008353491274169011],[-0.01285863228396172,-0.018416706777868604],[0.0035771935116554986,0.02590544035556253],[0.009602143688456214,0.04517337841355088],[0.0028943311944703656,0.036988900304656],[-0.008243012574221914,-0.026394062022964],[-0.030064896441119888,-0.037045870516562426],[0.003607754704186926,0.005546910529066932],[0.03791942603117668,0.015728761390964473],[0.009147326337325944,0.01087815275313191],[-0.033678181363670186,0.03263922987677248],[0.015144439415338325,0.028392911225595382],[0.006646901511609238,0.01949646931588992],[0.015313567129316486,-0.03217509335411825],[0.0063419028814641,-0.014792017554890555],[-0.019455292447788958,-0.01554691781504707],[-0.01374775522033992,0.0035489873639084407],[0.01720998554522174,0.03543192834112114],[0.02463239781219007,0.027368998897069584],[-0.03433346732786008,0.030127672005548202],[-0.016524447290091476,0.016702236185275197],[0.002437857751617192,-0.010342588950321247],[0.03570711998686821,-0.010750279131548302],[-0.023675579079247416,0.024236842264236235],[-0.004201808330601036,-0.022384920406417708],[0.04994065487573266,-0.012057473258707601],[0.014530289182779543,-0.005416173376772396],[0.02942111426088996,0.007646153697934805],[-0.053718928759266746,0.00010229029232275248],[0.009026139016311531,0.026336969635464287]],[[0.01144744002126856,-0.01682008028348463],[0.01414335977046901,-0.015168987831810768],[0.043605158237474996,-0.004754833986288667],[0.007289697936455924,-0.03143871591609477],[0.022661626445232508,-0.010748825377332454],[-0.020560547514542053,0.011267283247754624],[-0.044586069101098295,0.007107463483661881],[-0.014512333149756697,-0.007746307681313115],[-0.03117429698362022,-0.042923982289192884],[-0.016245254820043842,-0.008106929317770248],[0.02381088320928365,-0.004076284385981443],[0.019383179829137284,-0.0003556444918343337],[0.017048711335048337,-0.007412755736492568],[0.024962722691397692,-0.025022361098806584],[0.038941733494774505,0.03147682689464293],[-0.01270812936418838,-0.0007962491054720492],[-0.008232511088211172,0.034594715243686534],[0.0032211078939582685,-0.0026898515481601176],[-0.008386413225168594,-0.016907697223591048],[0.0011535215131923881,-0.0385086122597736],[-0.02134673614427047,-0.019481475719322544],[0.00749764265784477,-0.00523485044790788],[-0.006768272267650135,0.03591070515396861],[-0.016882048582642917,0.013105362641510312],[-0.020256086493800868,9.019082943162362e-05],[0.010496334599577026,0.0030103118873628294],[-0.00568127985275989,-0.021451092369391828],[0.007182412343309362,-0.0010337044112228308],[-0.03873128521833881,-0.024485365280768452],[-0.02320890688871894,0.02354821592797758],[0.04016602147498147,0.016934053899806827],[0.011696129779126114,0.015618742545866638],[0.019855194479843654,0.0123292306103961],[0.01510569672544591,-0.052399245259381055],[-0.0008871048718945185,-0.012981949325345122],[0.02320912799955484,-0.006843763078630983],[-0.002533723988065449,0.020964447568146007],[-0.014419643907965593,-0.0021859950114149623],[-0.017076825564796262,0.03753693468056885],[0.00436309868344223,-0.018768534101318925],[-0.003565817862300212,0.0036265736981560175],[-0.006619968041018603,0.019650741457339922],[-0.005010572820369773,0.010316659434569955],[0.010924691826728377,0.019271786481726883],[0.010317063615707243,0.009725422460540041],[-0.03677625709744847,-0.021703951540353518],[0.00658839821971638,-0.014258670850402463],[-0.0033323160544462527,-0.0006253577085187914],[-0.0019923280012140096,-0.013124947837348013],[-0.010844405200290095,-0.006117469822647851]],[[-0.006381010972923491,-0.01220172324720076],[-0.0024628749678961073,-0.013260497172231326],[-0.020975106413608165,-0.009152335372662444],[0.0019568046378044936,-0.012986847073608497],[0.026316581396452675,-0.011340611199982207],[0.016701277367713166,0.028419446276204977],[0.005162811010057503,-0.002013353822808355],[0.003098133470396716,0.00357954408392029],[0.02757313890121965,-0.00925096689005651],[-0.021221785912707174,-0.020863699450435043],[-0.019404813532120355,0.019308908472670167],[-0.01212903526738324,0.012636781474713824],[0.027021092209509382,0.0008706448226766758],[-0.009486300522832536,0.026598767916244093],[-0.028496798866163478,-0.013826286327012553],[-0.01162690361202174,-0.025457487895852005],[-0.02420761209807343,0.00849923757521127],[0.022721728982920176,-0.0328184564431179],[-0.036472604689357126,0.017432175697568317],[-0.003509946032366735,0.037092416352883364],[0.03786342518961705,-0.004729770948826361],[0.014544094960872134,-0.003045188188866338],[-0.019651862055428772,0.020875300207950614],[-0.009829735191480999,0.04248602330704254],[-0.020971750115337164,-0.009880898633109642],[0.022343404463691787,0.004145366728230087],[-0.013336024535298054,-0.0015338177247975551],[-0.03603808174556373,-0.011365699105923475],[0.02079514274230031,-0.05754986263453765],[0.00683896352881257,0.05659138739572331],[-0.02004977503194958,-0.023659004961127626],[0.022327916076392156,0.002270556039814374],[0.002439691208622478,0.027629809988356756],[0.013892939242933885,0.01193273677499344],[0.01767948563805077,0.0039057454804188015],[-0.008730070772171854,-0.003786897328572013],[0.017580182109611205,-0.019692329694717382],[-0.006890313023395723,-0.012336238624788647],[0.006828587452719786,0.047233698605480025],[0.006986700801431701,-0.024167658227777736],[0.02352699190756392,-0.01790667938757801],[0.012682765798971709,-0.021091322298592036],[0.04099113386939903,0.00569200708631991],[-0.0003216933246259143,-0.00686858323728663],[-0.013752532508918128,-0.012821907896567288],[0.01624494798505081,0.00847225736756468],[-0.04417990953335196,0.006148784434380803],[-0.010808337489126456,-0.02726018532898628],[-0.0044787348396970305,-0.01043685123606484],[-0.007539606975042981,-0.00669848807502991]],[[0.02903071776091208,-0.02467648076077244],[-0.01930497194448176,-0.03627286304984492],[0.03680303335175667,0.002944893672623513],[-0.0022373202146005753,0.015310171084542792],[0.0023056294103722605,0.0638953409639374],[-0.007823776285319314,-0.011350786340543798],[0.009653788860014707,0.02313389219034026],[0.0017029232817769684,-0.007482137424037434],[-0.016598440929054204,0.028591453983058027],[-0.03271508173253497,-0.03153716186293275],[0.012815321875502763,-0.060037240179841],[0.008346020930115756,-0.0016272166739316734],[0.013586017441053097,0.014984256199950079],[0.007318362014916623,0.000717795087819227],[-0.0016186993739014676,0.044828373696254004],[-0.008528776339343676,0.006223098537705289],[-0.005929338470522286,0.012107913265491816],[-0.004262013158506573,-0.009645888061975073],[0.01743437321282247,-0.016095764504013392],[0.0006076406022787295,0.0030971694076066553],[0.011505074456593488,0.011687799472202384],[-0.015752681690229885,0.014493980514070928],[-0.024110809328597417,-0.010374394336512556],[0.00043679368379416234,-0.005911498613975889],[0.006109151925856714,0.030214748863559036],[-0.008608693114545611,-0.003817990921869842],[0.027436764672962688,-0.006826423760464966],[-0.003898690521047242,-0.019180368719263402],[-0.01407575873461954,0.045298556689635415],[-0.01470752923746356,-0.023514406051805912],[-0.001978316761584712,0.03655791314151963],[-0.013483602199944676,0.03792248348223893],[0.014005106923897444,0.03206558706412684],[-0.01704909140848228,-0.01511570945363707],[-0.036864987773301966,-0.03402774288337803],[0.036351753475480815,-0.007989783988064662],[0.023071868105685314,-0.04678749448677626],[0.004389435650766309,-0.02113415472429244],[0.014387975450246098,-0.0017948181680551415],[0.008799656383296571,0.003886013227759143],[0.01707264136645634,0.0013811649208504803],[-0.002463392353647524,-0.028064498706274327],[0.006948140955276068,-0.001463615071489388],[0.029089047511509064,-0.003974243193325793],[0.0012264621651197401,0.023833923859463965],[-0.012261817613955475,0.002399604905555344],[0.025815900925005634,-0.003876065762430298],[-0.008026068708236342,0.006013424100985649],[0.005318663692871702,0.04491660676299642],[0.002657064291340631,-0.035332278890178266]],[[0.010861548927463778,0.017782232858191676],[-0.003990521414666431,0.016798662532603204],[-0.014792210354037418,-0.01718756813254348],[0.028370757337931044,-0.008748088060710214],[-0.004126550014523196,-0.002700081166116825],[-0.026522732596260125,0.0332349055965898],[-0.002284372246050102,-0.018154949219459655],[0.015277856635084477,-0.003017573197356577],[-0.015039049623961458,0.004347928598236523],[0.03993807657740292,-0.017892239015160155],[0.013266515144238978,-0.04257795360467954],[-0.004881368344526959,-0.024559485071382024],[-0.006637056465644271,-0.02484586162153152],[0.02165399578801911,-0.03811280866269176],[-0.04144846076346724,0.0033889289557510406],[0.019552888239359335,0.0247177866439734],[-0.0005761785204190169,0.006479430159364079],[-0.009038822110846627,-0.007012506015103491],[-0.003336906158047986,-0.012274390105949199],[0.0030240610123835176,-0.029848485296181282],[-0.0035447825794704523,-0.038243945856206774],[-0.025833369805815257,-0.009431506944929575],[0.019174111671248047,0.0066295323585174116],[-0.004871631007568957,-0.033381280502933645],[0.03036605746680495,0.017710582404718907],[0.023001324354202768,0.0009080675998763806],[-0.0051983888775769885,0.012452022121909358],[-9.925199870778299e-05,-0.006885161412514431],[0.028956510953299968,0.0033595099544910436],[0.02372348045704314,0.020468171332126063],[-0.003409228174191218,0.045171122041010384],[-0.0015306110639273832,0.0016544327005941517],[-0.017456197413341763,-0.009562244119492278],[-0.01589269216377842,-0.04155493520115038],[0.002395253933948537,-0.03569712641859083],[-0.05632267178989885,0.0016787693341334797],[-0.003657797269884744,0.013743981047640144],[-0.01171698103333474,0.03120518525459116],[0.016230047194727173,-0.04327716996548743],[0.008081532033398118,-0.0008734075466547737],[-0.002789319870526089,-0.016279217114325457],[0.002829392361941159,-0.0025618548865953173],[-0.015120881815925502,-0.005466676600047279],[-0.011166780195310984,-0.014417461730243525],[0.012106523192358373,0.01649321468461947],[0.0023422800920494848,0.011373108938851718],[0.004387457546850817,-0.012989333484398284],[0.01238065668053535,-0.010098918576266736],[0.00924379176321846,-0.020272374660720044],[-0.014426230953634414,0.0019700347642534945]],[[0.021551776581716885,0.02228408658410767],[-0.03361437568056737,-0.005781651969571727],[0.07027958711817538,-0.0034676607338803437],[-0.006976418826329296,-0.007803034283047109],[-0.0020985525545995504,0.01563119450492896],[-0.03258135615796845,0.003986863657305958],[-0.016378816962182484,-0.0011888380987653481],[-0.004512157519211791,0.010201308637699105],[-0.0448077505065811,0.013519091159832701],[0.012322572155315556,-0.04931950361046805],[0.00955453879622533,0.005331106900011959],[0.043958346858089956,0.027379080730040712],[0.03151968385258119,-0.008359627198485793],[0.023203036597176218,-0.019142150541628242],[0.03291901804828188,0.025841217261483793],[-0.013881728575376819,-0.008605339702772342],[-0.015267782766591215,0.04090616789360868],[0.009061505342113918,0.005117366345021295],[0.05318363687459382,0.03256930088794322],[0.01080421123069026,0.010828081478682383],[-0.018844238656911427,-0.0029788730469800556],[-0.000567720395303139,0.01188456792960065],[0.03354302342135644,0.037879364961414336],[-0.037247614582894925,0.029248542421224277],[-0.01416070817751162,-0.0020613353030971395],[-0.009217644931520242,-0.010162845985244903],[0.022708584835445644,-0.007707198318052109],[0.04024973971686057,0.01551178852178748],[-0.05191024838094867,-0.02268365413083428],[-0.002066067970599242,0.04444876375908167],[0.060385865137905836,-0.025989088328227706],[-0.03400049905906037,-0.0029313997086289467],[0.020168137021017673,0.005422715929360746],[0.008110340589165727,0.0020788599784219647],[-0.027954903130178285,-0.009510852333740962],[0.03357840399611002,0.006895282939395985],[0.030917703647935595,-0.012315089751994397],[-0.0340073773932583,0.019188326387468944],[-0.032262837862445964,0.021408204652917564],[-0.009084523604244676,0.007696315329235677],[0.0008579337455782389,0.011861842057936584],[0.010546200318179379,0.0031425977047615595],[-0.04507683188436982,0.010475237215328006],[0.01006954843748529,-0.018279189825048895],[0.010510594937609991,-0.01214759025441773],[-0.008193993787947997,0.01672570614609454],[0.006915233495295012,0.0062539614486136685],[0.0016626693634462664,-0.001779105768661918],[0.026282202437214398,-0.009097207705574125],[-0.0398050957604622,0.0076042897169300095]],[[0.005565604700256165,-0.0012557083186167388],[0.010455192967749844,-0.017033185393518453],[0.007857269724203855,-0.005088596785921839],[0.00828198186688292,0.005422632148501513],[-0.0032846080040345015,0.044292893729171647],[0.020071615092328812,0.008812956965151475],[0.006075246069145815,-0.0008503948595119033],[-0.0007188196797652292,0.007258519788730907],[0.0022716896407827016,-0.0033069147996881397],[0.01503948961134467,-0.041350793648270885],[-0.008867579358072496,-0.022399596049695554],[0.018168861933003017,-0.0027444458044264845],[-0.03129939379043159,0.007786147975605036],[0.005685042606219624,-0.004308076511388643],[0.009680445168121568,0.02735036758430996],[0.019819361630285103,-0.010800947684310133],[-0.019283009861419412,0.02751263674485463],[0.02767786554952343,0.01597820734872421],[0.023684481841169207,0.01030464213635203],[0.02728379103440173,-0.029930674751336227],[-0.019083834234778097,0.0042785468261376585],[0.021517846430043355,-0.012307994031737091],[0.023736240179801214,0.028190392705042533],[0.00029275274363573314,0.03467672203911993],[0.031377436732593154,0.006349920252532074],[-0.023357265778362994,-0.020904729512980367],[-0.004877419202089079,-0.038125098017117824],[-0.009835610384382642,0.004360131898939346],[-0.0037079483444432517,-0.01508191309534767],[-0.011242642473295199,0.014179987139663458],[0.01527004510974782,0.03129056155282056],[0.00022099267005330032,0.0077090819056676915],[0.021252842951140098,-0.020363329641435255],[0.018834519978153903,0.001699257070528962],[-0.02045560379676635,-0.019508970512962066],[0.010180140736734462,0.012592744007159994],[-0.0001214830349360943,-0.0028358455834697916],[-0.013626206354993446,0.018872307032578264],[-0.0033774393136417,0.02828000345693557],[-0.011133507102742683,0.014519942535615197],[-0.0026787506212746074,0.005308425691701778],[0.00862426627209329,0.015167698029258261],[-0.0105149014833904,0.012376554768629753],[-0.013861407553053902,-0.009770439008392537],[0.007328001650518466,0.015420037971708843],[-0.000532052394291568,0.01395616008172041],[0.0014500553267921708,-0.0008128263161099459],[0.012172456380836513,-0.02166483509130778],[-0.009464311131507086,0.010923177139172638],[-0.016350640273742202,-0.01997785082055112]],[[-0.011081490006630995,-0.00030232875302700635],[0.010362957187397758,-0.0008287968876668148],[0.03796117587316224,-0.023834282143008926],[-0.010979803650829746,0.0119435434694577],[0.01740519106358598,0.031537796646620674],[-0.03824907653561076,0.007980469640186075],[-0.010875996904452793,-0.002490636072352522],[-0.037492978554271285,-0.014163747147894435],[-0.01566789068803491,0.029288309632706885],[0.0011243547283975152,-0.0019108824152706005],[0.025727239930903298,-0.028553969756214912],[0.014182917139978688,-0.01747823150657147],[0.003998773373955286,-0.017032016901633532],[0.006685730242892688,-0.02300256205177734],[-0.00884919166836265,0.009572099495341805],[-0.028707241687690746,0.005502671241009876],[0.009286289264643807,0.005852390642682672],[-0.00931520079086901,-0.000783565986145105],[0.029476850483982325,0.0042262630646866025],[0.009757399653262841,-0.02683167859126845],[-0.01689728090191767,0.007675078834244045],[0.007937738471157741,-0.006384352164852494],[0.016008665560678877,-0.009811644029809198],[-0.04776571015983372,0.005945186084163929],[0.011800326420571631,0.01925869409541849],[-0.008036671698914557,-0.005408675925331142],[0.002414901057974931,0.010456037060125361],[-0.006827563766539606,0.02515893621483077],[-0.02084222659064455,-0.005455730823871312],[0.0330380866701849,-0.0017087434072174733],[0.026889718205002425,0.03555311507794173],[-0.016938764391013196,-0.004468293860111912],[0.028803509985384126,0.022390163986969046],[-0.02215199651092766,-0.025997108376471872],[0.0017729471541838608,-0.03375092722616456],[0.019622394608603468,0.020211253963431312],[-0.0021179123194195954,-0.011280182614561422],[-0.029144753017858252,0.023244144437825333],[-0.01979423856826537,-0.014011176664961041],[-0.023988535585790255,0.007475068919998722],[0.044554058685775215,-0.020626000761156144],[0.010783068049496213,0.005625900284015885],[0.007779284441700072,0.000316664007442084],[-0.01483862783937346,-0.017902657866719206],[-0.016595482420275007,-0.006788304438923484],[-0.013260856877620984,0.02333934520356156],[0.00572497176426853,-0.020161036776122892],[0.037052006240806165,-0.00887224644189392],[0.025662391583937228,0.004003723875418901],[0.013676471268576027,-0.01882771485963469]],[[0.0373929746360675,0.0001843555676910452],[-0.018575780974304807,-0.02717226249389329],[0.00402292824817321,-0.01068902991669977],[0.0180200482030215,-0.023391521907635507],[-0.03296635141829238,0.002032230744682521],[-0.019297734729487235,0.00687320389117967],[0.010078819271969165,0.0009054041570177017],[0.042552399796516566,-0.011737935661014685],[-0.010755736843340052,0.008721152244108486],[0.016207906677719607,-0.022899256215875123],[-0.011803818473594714,0.010695873714188599],[-0.008378891646601282,0.040633384346960226],[-0.017762535601592244,0.0046714455269429075],[0.019952766516626863,0.01833796392538542],[0.009928744298720482,0.005423163832283997],[0.01964123874708163,-0.019192152736153018],[-0.012204855809578804,0.03481994073992594],[-0.018504070507313654,0.0067675660383095465],[0.020219143491659326,0.005031588230760795],[0.005306525052190716,0.02472611256495786],[-0.015386746924781168,-0.002686018090501828],[-0.009430117104610166,-0.019916571697333324],[0.0174286777783723,0.04241030029884334],[0.030169717167323952,0.021187275182993393],[0.0023508423088042267,0.013991462783414888],[0.005354644377706719,-0.004253308977602659],[0.00981218936111669,-0.02621401901233233],[0.010907620472540593,0.011174952315300815],[-0.014411493180606203,-0.03548650709962488],[-0.013416296312258155,0.04095112853452883],[0.005282978389081688,-0.018396782086513484],[-0.001712810705505709,-0.0017628047737055562],[-0.02715781043045321,0.01521282573600451],[-0.007232543673194991,0.0058790140063205],[-0.011198150679834306,0.012985014387606183],[-0.017037500975926993,-0.012561115330177328],[0.00785515293628141,-0.0024037484448369106],[-0.00987142022062564,0.01934961561062305],[0.026336887882374888,0.04492992587009287],[0.013627793587066282,-0.004339926921456353],[-0.04030781178859653,0.012484010164056269],[-0.0041454401375296,0.023830611894967612],[-0.03689656469403581,0.0015399049752318418],[-0.0009010792334566381,6.617590953469704e-05],[0.02939735677185373,-0.03697535415454469],[-0.009009272685318098,0.0012125206108810449],[0.013538317359646845,0.0011306088222412553],[-0.006084799136097816,-0.01159996763066732],[0.009534704722794564,-0.019864937392317657],[-0.014845636858523064,0.0017885179648967423]],[[-0.021766993975349962,-0.02478737561091198],[0.012628416708658854,-0.01871398201837509],[-0.024232046923642322,-0.011860985262627256],[0.03503296382158233,-0.018334258901382964],[-0.007280169533025861,0.03890674906284338],[0.008880849353724084,0.024492856223354686],[-0.010070929938091482,-0.019228319587698713],[0.01229001040495176,-0.0038208144875012586],[-0.011059503222023767,0.011405941212619902],[-0.009233036070627388,-0.006363396160064863],[-0.004028103123416262,-0.050094313928657],[-0.03544981790762074,-0.008400552240267145],[0.005058837813892779,0.012860177550752104],[-0.018353995333458467,-0.02380606870509502],[0.026542098670489716,0.011875796162562053],[-0.003081715387218179,-0.002090004718569691],[-0.01892734090939956,0.039935850080250794],[-0.005603019314660267,-0.017421628295889845],[-0.08048630336951447,0.005511144395577283],[-0.01633773841184845,-0.03115145361547441],[0.0034984820060421293,0.017713796466982748],[-0.026949245844021783,0.012388812682644485],[-0.01632987620466912,0.014984805023261624],[0.011280539466640998,0.026842209462506886],[-0.048332327031278675,0.009519688155148958],[0.0408902570235611,0.0066629709839411775],[-0.03264949191252488,-0.016094516359656075],[-0.018329704161688103,0.013858727594702322],[0.02253016855592652,-0.025749399901841913],[-0.00427777164789915,0.002990695628256197],[0.000967442297712898,0.026542814147653103],[0.028409002120752532,0.01136504921904891],[-0.02208358019036783,0.016260034921630077],[0.039366110621825504,-0.01859172979011446],[0.03766829316988779,-0.034661408113666865],[-0.050072985411900375,0.03129391720396155],[-0.00830710370651613,-0.01714759280442501],[0.028342447635165545,0.006715173425309089],[0.004422624000452654,0.00818887992634725],[0.010622594776711328,0.03371011254623559],[-0.03845847676183601,0.005905334935444357],[-0.015125230906415854,0.007309868464645066],[0.028480622059737875,-0.011225945269555056],[0.001609063540490575,-0.020652928953071914],[0.008025015141061779,0.01306060175549613],[0.015374163109597699,0.012094005327351155],[-0.015289533877193113,0.00467501447847375],[0.0027943046913052796,-0.014204058783322121],[-0.041992939449983516,0.01956329733630037],[-0.008950855605094678,0.005007968471279822]],[[0.05584100189014845,-0.028720120186091214],[-0.010601915062535437,0.01634925162111755],[-0.022940351626501525,-0.002864244135299737],[0.02362783894464279,0.008127839883838275],[-0.004718961011012868,0.004404693557063038],[-0.013883564533376693,0.0013757624226847284],[0.000579246437400387,-0.008462472354580858],[0.017936375699106485,0.01874340187800906],[0.005359383789407671,-0.012620274277593505],[-0.0007593574259799687,0.006363915258859978],[-0.015641957081182534,-0.01235016667494112],[-0.01669392278375642,0.0009972036166547426],[-0.0037094208903756523,0.010065080964821256],[-0.03047482009857808,-0.025615075730106483],[-0.04845212778430703,0.02312225291866988],[0.010442884739593913,0.007796776430381638],[0.0029850007682210864,0.04495844431298687],[-0.021921035827100036,0.007493475576806058],[-0.004838543729249382,0.024390369236493615],[0.022011096744018434,-0.036198449893706464],[0.03336644835617952,0.024853237989258127],[-0.027679900671002084,-0.006698603897899039],[-0.012262996750775017,0.003943658381781937],[0.024080357076156668,0.02755744435045207],[-0.02937661014492334,-0.014457654132944107],[0.019047195359801206,-0.0038364996742054477],[0.006407193709558765,-0.022626891630428494],[-0.008484903477245759,0.010600347335871872],[0.06269449990910234,0.007727643798454184],[0.04167790143779079,0.0023923576764853013],[-0.013324984279466585,-0.008597207843957717],[0.006621340095165172,-0.016384133255121277],[-0.01842741692295739,0.006000425603186546],[0.019894490357432387,-0.01294087188372948],[-0.01991597090796164,0.0016666477767096266],[-0.008359851939269592,0.01696020010268477],[-0.015426234296808903,0.018133786926009934],[0.020864507844155583,0.012392568805192421],[0.041222509947846826,-0.003009297481945705],[0.024889373000865436,0.03507200879220902],[-0.015998216018624698,0.009517616209791654],[-0.01526672448322164,0.04111769960468535],[0.010238805883980257,-0.0011006120285717404],[0.008874082457015929,0.0033447208472619553],[0.010050356946374298,-0.01590550079099977],[0.0059139465186312905,-0.008284212238294996],[0.01069364141184625,-0.017224851883750874],[0.011378699068710177,0.029650686850345075],[-0.029407045554739334,-0.004233354444675747],[-0.039245675398130335,0.018802053000379255]],[[0.016133488907741245,-0.04480187375300536],[-0.014345486285864802,-0.02414612776713189],[-0.01392278613449823,0.024177856651255998],[0.023899791039871096,-0.0018339352759140658],[0.006722919711436119,-0.0012572635501516003],[0.02790738013607461,-0.005805547709755471],[0.010199499608927156,-0.011984953293631665],[0.026864460997400374,0.009942207219563225],[-0.0345749096185546,-0.0076666966361530805],[0.003296225338083025,0.017852294953902906],[0.002355365482063878,-0.02154254441388997],[-0.0061119884032850465,-0.03619683895976459],[-0.007558539767693782,0.026753865648224875],[0.013809118126103248,-0.000999411387541626],[-0.007558873753349153,0.023012629026247063],[0.0058698043884779835,-0.0027457276562319714],[0.002046798682685128,-0.002643853070386333],[-0.004753803801530423,-0.01720718271147576],[0.022345393985576265,-0.005373463942504639],[0.01918322229648714,0.0050495503702550504],[-0.02414122291604444,0.010221163679600534],[-0.008641318773921585,0.004406619683932029],[0.015640643536446286,-0.015008450719483837],[0.02452063904752456,0.024989055653973927],[0.019579935984690842,-0.014272254269784089],[0.013684717721111676,0.012567323019265665],[0.005268620332948982,0.0011584117372699992],[0.02275234623339557,-0.017819724068642046],[0.02519845808048453,-0.023842309552831953],[0.0016972717023974338,0.0013414381394677263],[-0.02812657373188846,0.0027641357165303403],[-0.02341134575984622,0.01274511709510968],[-0.011894371826972543,0.046345140816698244],[-0.003821084323975917,0.005598611557773912],[-0.04035382028219387,-2.2945972297356253e-06],[-0.056516697935178106,-0.013908166747367577],[0.00865069871490399,-0.005070253836390972],[-0.005445757348585465,-0.04593023665377332],[-0.03007921809356378,0.03431962830679133],[-0.00650895224604532,-0.009661614262402373],[-0.0252148856446614,-0.009579444046919138],[-0.003116975900430141,-0.0285066996990402],[-0.03209586375309875,-0.0034841258381926705],[0.007868758389159666,0.0012100799401986698],[-0.008466865404949824,0.020771754451302256],[0.0051905511006215994,-0.02176727620934764],[-0.01959762534016747,-0.014029613853184528],[-0.013444750092085466,0.010227539713527693],[0.01678796598271053,0.033115766246982106],[-0.008258704513845512,-0.016751362379960277]],[[-0.0008341670505566529,-0.02511898835023222],[0.014391465098974775,-0.01988351075959851],[0.032641218267978195,0.02089218477287741],[-0.01855481099897012,-0.019444956216709896],[0.01477724611652484,0.02303051728051765],[-0.04600160656037061,-0.008213635884824717],[-0.023946663502438112,-0.006118749122369143],[-0.03984442109171957,0.00342880587289533],[0.00042818778701578415,0.01536148537044407],[-0.03736094303505354,-0.018196847373987662],[0.017239006431497554,-0.01199947690044632],[-0.01356315116665621,0.01928229895682932],[0.011002378081993263,0.04225520979143647],[-0.03941363215173245,0.01917519498402444],[-0.015681742570116113,0.031956957110255396],[-0.014244688616150063,-0.014010366573215251],[0.013097446440116322,0.07463271757945736],[-0.014033753045100714,0.00237046606854731],[-0.005019461666608616,0.017828378548366233],[-0.015656360272011685,0.028575023754120056],[0.02230097172536472,-0.0035028514096210987],[0.006392675696342649,0.005679822819705772],[-0.03532026318659736,0.02009795004760031],[-0.028599555706490462,0.031144900028174126],[-0.031372426355922065,0.006022210816875958],[0.010635337131394324,-0.005041060305327735],[-0.025959077859845817,-0.0358684265275496],[-0.03089223171866081,0.0011870607274654453],[-0.002439792482958423,-0.011077833511161431],[0.02060015368323975,0.028274162454045054],[-0.0019755787838191758,-0.045342942752034085],[-0.0023468868020059233,0.016049736763628433],[0.01070711241932467,0.0335637149763417],[-0.004494424706619709,-0.005735206424754628],[0.03097865341011306,-0.0023622446399629033],[0.037254524460012345,