{"Layers":[{"Bias":[[-0.009485835140499901,0.004357223194971754],[-0.006158729144198638,0.01919525634609216],[-0.0012162266605406135,-0.0023001984077518868],[-0.013531424939388506,-0.02391283277317507],[-0.004847194086773482,-0.001803036246380967],[-0.01819669238328468,-0.011192736677666463],[-0.006020546715001672,-0.01628554462533727],[0.004934808620617095,0.016533273429277334],[-0.007697013987959912,0.01618927025006332],[0.0363247245694691,0.011125341050685252],[0.027325913124881668,0.008168380254222795],[-0.0015290231442264682,-0.005325279432447272],[0.004557306625714355,0.008017213585559431],[0.009441468224977297,0.03140288721036339],[-0.0172140101728494,0.022645118609209786],[0.02354811007976906,-0.0038976119778582996]],"Inputs":16,"Name":"FullyConnected","Outputs":16,"UseBias":true,"Weight":[[[-0.005580778676573393,-0.0007086373663341775],[0.005855391773564866,-0.026919926364696315],[0.0029237275290576563,-0.012868507215808667],[-0.013033939037071663,0.0022271888417821043],[-0.043137431373779095,-0.00471990353519755],[0.005627477897678421,-0.03502869619409247],[0.059943296707883384,0.008598842944353688],[-0.012471708691720486,0.041436261908675054],[0.015991398662745154,0.000364093374646229],[-0.014917107145893066,-0.002603420476396994],[-0.02176023849532093,-0.006822400323395012],[-0.03523875862617199,-0.020952467867384392],[-0.028346420446638078,0.012783227536449537],[0.012677231780194049,-0.032765102339332566],[0.02207280368231496,-0.03261562354859146],[-0.02092247317153345,-0.0331700023679186]],[[0.013831170081882647,-0.0018286493133776696],[0.014582781578869546,-0.021235382839701257],[0.022969522655626205,0.012932899956397697],[-0.019291548475427717,-0.017536927641582715],[0.030264418858165807,-0.025471935180848084],[-0.0033185959293265026,-0.012743112871981582],[-0.026750375009210604,0.0019597768963997833],[0.006384471025150329,0.017971727151406037],[0.0247858551106394,0.004849041356716271],[-0.007997795554173716,-0.002812721276841747],[-0.04025828126553738,-0.0011797138925078187],[-0.014407500384276926,-0.014093777886212806],[0.013406356998355788,0.005102294006447504],[-0.013804044582831689,-0.04271106713932394],[-0.009587110562631188,-0.049023636166839926],[-0.02679482100033126,-0.015469431745061825]],[[-0.006378414943624079,-0.01293094573080278],[-0.03905716502466174,0.045348413409646945],[0.06661176597906676,-0.02137653707881084],[0.01676437620959525,-0.04826729031792352],[-0.01514003801307513,-0.014109740718890332],[0.02332881479944897,0.022752989065161922],[0.09489505245172358,0.031067281188636026],[0.023226526184175575,0.005281449156509105],[-0.03197200711177048,-0.03664345916988537],[0.010740676255794845,-0.03731402377944692],[0.049250037931154615,0.020690837935054565],[-0.0238084100739087,0.05077491643501411],[-0.01314246496985133,0.022799598927213043],[-0.02391217346794801,-0.004973675641906343],[0.0057252264742176755,-0.00783520827516503],[-0.020659277834676196,-0.012156658092165588]],[[-0.0038250086241462047,-0.042678973871313475],[0.00357733883582122,0.023367995711051002],[-0.030791908428515917,-0.006394471454854412],[0.028668621966605162,-0.03722332413829768],[-0.028474547290157713,0.0233655991229876],[0.0008659080528851826,-0.007568689440137716],[0.05591891950245701,-0.01400657443746744],[0.0329798025913528,0.038863889044478225],[0.018580750552956157,0.05060715906740959],[0.060462150027310396,-0.0019997832286498783],[0.01623313713903763,-0.010402025236222393],[0.01783983169230286,0.005515001789244708],[0.02980328716417009,0.0070284465847171955],[-0.0156975368763856,0.04730717147102495],[-0.011413796190601986,0.057336573751904686],[-0.0027756011413985395,0.0188234303047055]],[[0.004391554742286552,0.003238455472909362],[-0.03566378093573167,0.037653481922368524],[-0.016083184416243443,-0.023472619717090377],[0.052963184848230524,0.011637942557592415],[0.016496879808890443,-0.014376030572171402],[0.005550628344955073,-0.017886735973308955],[0.014509970690389014,0.006219808156003394],[-0.0008980938264275913,0.009530973506376687],[-0.031276070637592066,0.013522038548958268],[0.002855468451585066,0.012845301461604113],[0.05669760837150102,-0.030490923624801762],[0.03519215383459642,-0.01618059102179598],[0.0062820890585911565,0.000783666895847969],[-0.0018606197428821412,0.011991520673289704],[0.02003731199284333,0.022390173553342132],[0.02376851352349682,-0.014143715227493735]],[[-0.0019256729636381665,0.05981033418561624],[0.045825868664310154,0.057657068922327644],[0.014207480702221883,-0.05066618179839372],[-0.06081106122885967,0.0097422400513252],[8.832349980211822e-05,-0.012710730772504215],[0.0035877444182523394,0.00568031606161953],[-0.009848718723485566,0.003691162229894491],[0.0037089841557210075,0.02428838364859024],[0.04388013883816174,-0.013178425604947759],[0.010651441438588158,0.011181128708173334],[-0.08662462493361428,-0.008248770258429652],[-0.054101855981538716,-0.04605937793568237],[0.012384859122576515,0.007155596305802836],[-0.0116499056377696,0.03881283421367593],[0.004886982478858834,0.07839928495353761],[-0.02315213016083872,0.01422878393522868]],[[-0.011391244019658799,0.01835027613926984],[-0.03389382181858508,-0.03669127534598045],[0.06786564361673018,0.00853305619328004],[0.03718001675303986,0.040034297155946544],[-0.009579668198528495,0.005955427137154989],[0.03410908990984616,-0.006636636111110431],[0.10104210684326048,-0.02070623052230329],[0.04061043224835431,0.008259782781316897],[-0.027334156007339207,0.06433778085053535],[0.02303305861636047,0.04422685521664518],[0.06437052780073022,-0.030278600475605003],[-0.019725665972871644,-0.060208814520154814],[0.020464443080017346,-0.017559059258334238],[-0.047005434972331894,0.005596108105020783],[0.003035099992492553,0.021000402031071112],[-0.036787552246443894,0.013316548224289713]],[[-0.008725402823524742,0.037777784051479184],[0.0024641159190918922,-0.018877635736592874],[0.006076476674965031,0.018811329332898526],[0.051406388645697326,0.03488016375659958],[-0.018489294848944085,-0.0221448574852661],[0.00802110054882943,0.013588146712589552],[0.06179419670799679,0.007788914449445798],[0.03451317744552156,-0.040232828055501366],[0.006000266895749203,-0.07477281186100368],[0.04483691384530969,-0.014495679310324618],[0.05071692953887129,0.032790593924914235],[0.012739673077917964,0.005375809200597457],[0.048574159308969855,0.0028259467791908847],[-0.031140484426061495,-0.039731275730430504],[-0.01384473969127162,-0.05336720852002673],[-0.01966143199397948,-0.008696515262011838]],[[-0.0014211490293780397,-0.03410892905809739],[0.019402225876412292,0.0102228771505861],[0.012467707669931397,0.021693647197229916],[-0.010668303055387615,-0.0018467752975169375],[0.006293527649340758,-0.0007205494798747077],[-0.015386339610129628,0.013502097438414512],[-0.04568937846308124,0.0017537702233841324],[0.011042661199389797,-0.023718275847559867],[0.015493833764211902,0.04757888958711351],[-0.004473259024213833,0.017477522196330038],[-0.008021591546530146,-0.019715494179409154],[0.0028244231443021717,0.017199131083080587],[-0.012453891184669651,-0.0056629167050522115],[0.01878902213042557,0.0006984832750412313],[-0.04694440927207781,-0.0061752137399779744],[0.0005653647182788527,0.0016784600867280185]],[[0.015269424143937815,0.06373205092647982],[-0.02956907159806626,0.035670220385843276],[0.014985101576818056,-0.03446184793788416],[0.04224140944242476,-0.010214099227486185],[0.006562275408894993,-0.030120627520224187],[-0.018118970206463872,0.008406602626949543],[0.00025979976487078846,-0.011107811262660746],[-0.014474313033632395,0.04797591285251796],[-0.016711978614605875,-0.016894965845380656],[-0.043025041539373,0.009982111932636546],[0.039148520129759334,0.011083203076702554],[0.04016981864335606,-0.06213827295718668],[-0.03275880936245317,0.006561224830920341],[0.022898080288369003,0.0229386824174887],[-0.014336769692339794,0.07459189365562724],[-0.001380793320063414,0.03093939373839073]],[[-0.016471507722939607,-0.023810064872332323],[0.02441253668658195,-0.0014284334565882835],[0.0191189313522861,-0.006017288537097444],[0.05596506228920174,0.023671808049758478],[0.004690397506066563,0.043516889931056735],[0.0568390904456585,-0.06959075945713245],[-0.008656536050924545,-0.02723823363938533],[0.05224545120519592,-0.012350540241711607],[0.0038252113651316517,-0.08645764800230579],[-0.022579430198233864,-0.04013073316748357],[0.0548870150229446,0.007218514782913531],[-0.005316805759437186,0.027082064522210778],[0.081089274697774,-0.018814725057455815],[-0.06768592315317572,0.033054510751008716],[-0.027655449845464614,0.018914443855061927],[-0.08060819988073817,-0.0036608467481828375]],[[0.027132014699437844,-0.01461620823299762],[-0.037947724828068276,-0.021316096567926227],[-0.000274451473198524,0.006181833090497121],[-0.053727823110639325,0.03836476799611622],[0.00015595065742030566,0.04032672050929749],[-0.0532915180116935,-0.06403973230101806],[0.017176096667845347,-0.03442296681498101],[-0.04734000013861241,-0.013178106178163443],[-0.013249027366378811,-0.08146974673192457],[0.009712365375445679,-0.03149699101757514],[-0.049255746132537886,0.009625187642015118],[-0.0018233771651681766,0.012640306137872523],[-0.09780287980360117,-0.015569769887905323],[0.06849078793787916,0.02348820301681817],[0.019755577886391835,0.0028247191745510826],[0.07390892973147811,0.001946345357291923]],[[-0.0012371403139873674,0.015995310628590158],[0.009606266691234797,-0.02435064969736595],[-0.01404899774386348,-0.02870982437693271],[0.016278196813549094,0.0006611194363189591],[0.03588969817295909,0.01740128030066083],[-0.010212216530842665,-0.01862407357479618],[-0.07753580772218505,0.01595885470769986],[0.027727785708626246,0.021356915199322563],[-0.008331010638267682,-0.010744703079258976],[0.036053350108872215,-0.008832254652315265],[0.02931718375625959,0.004929286236945565],[0.042001821330784284,-0.001827632341556756],[0.0302396689109952,0.00884953066628617],[0.0007413055172361942,-0.01658422254990852],[-0.04779363509775786,-0.03057124164326539],[0.0371267853080964,-0.019903154201201947]],[[-0.027024987973359064,0.07065595819391131],[0.017147494235615617,-0.013399238169047088],[-0.08546366319949242,0.01509572184115797],[-0.03517466722508154,-0.018448871755788118],[-0.009988589421276813,-0.050788045360295256],[0.0011022911424156874,0.013549646420861532],[-0.04969314355713657,-0.035358735963684176],[0.043411788141220625,0.04678315246067784],[-0.004422347140165624,-0.007832440767596175],[0.0935313330010164,0.010940221762662752],[-0.006885340376179674,0.021124491214700256],[0.024801179484687536,-0.07196045466803663],[0.017336590847065254,0.006669964422253909],[-0.0024085110570927445,0.002584880186186835],[-0.05630462520877593,0.017356347278562795],[0.04576954697395143,0.04526260024995261]],[[-0.01476569102786731,-0.06989082543534085],[-3.729434033290292e-05,0.024735457147035282],[-0.08247286806875184,-0.02391038324325211],[-0.03700431785335332,0.031098778056401835],[-0.015624974194822158,0.039729055261947956],[-0.013137324289028857,-0.023708953286913498],[-0.01979520060882617,0.02989610964281019],[0.03692768005690076,-0.03821570712804866],[8.700870301939397e-05,-0.017303691300096014],[0.09203716900252504,-0.014681085714911151],[-0.01613005048413642,-0.023901318566651113],[0.031959458735108276,0.057069355578226656],[-0.0054149137820535135,-0.006989683031072429],[0.00864079335609225,-0.005932399215213059],[-0.053884618291202106,-0.001046251075075153],[0.04611074688723314,-0.041263698968569504]],[[-0.0009975870144298983,0.05413600016119078],[-0.020062527869541144,-0.01930274616254918],[-0.03831358136789416,0.005581527337787998],[-0.009912879389308302,-0.008620888467715582],[-0.020834748130478822,-0.014279714771333054],[-0.006973297848534052,0.01918136570778834],[0.03894469683046718,0.004848648064561581],[0.011867215166694296,-0.01488394826385625],[0.004970261351013651,-0.0010466635693155597],[0.02389046759753373,0.0015222902665108255],[-0.006537253752523513,0.006034979623332669],[0.0042298661045870635,-0.016893017621253115],[-0.02568373089705541,-0.01315497012287664],[0.013011814373409262,-0.031146508940123423],[-0.005803009543062878,-0.036131490693539624],[0.006993048653675806,0.0006015253811105177]]]},{"Name":"Lncosh","Size":16},{"Inputs":16,"Name":"Sum","Outputs":1}],"Name":"FFNN"}