{"Name":"RbmSpin","Nhidden":50,"Nvisible":50,"UseHiddenBias":true,"UseVisibleBias":true,"W":[[[0.016081596206237617,-0.0038434396707692506],[0.0029214239015752405,-0.014279312337005277],[-0.016313415723620252,0.0016731792262030104],[-0.0041986709573776145,-0.005153531369339404],[0.012484517028858555,-0.01604033832534626],[-0.00038596550452728567,0.013290660790861716],[-0.015481587691626709,-0.0054376259326266866],[-0.009420224634901409,-0.0034536072002071903],[-0.012275877283946402,-0.00026029213645709613],[0.016890434861531686,-0.012335758848940774],[0.01403273667867895,-0.006580633290240785],[0.007420795476240863,-0.005555108711792555],[0.00245029251474422,-0.007754657167004382],[0.006586522572795229,-0.00425862807611067],[-0.012213103096124184,0.0003165362025292313],[0.011967432086911593,0.009405102677136278],[0.003756668921931717,-0.008506845213632238],[0.009067243807522305,-0.021026672397864567],[-0.016819949262337767,-0.005884163132075889],[-0.010440931818970003,0.007142823182531444],[-0.004286446997711786,0.004580790793565232],[0.012007637315199955,0.002569708469326336],[0.010759774508734093,0.01447133521855362],[0.0031179335243146375,-0.006579744116608553],[-0.009451600872024835,0.0026060290046025416],[-0.012437129344367928,0.006146729945063186],[-0.005765432449710775,0.019493012523371746],[0.025634336876360055,-0.04100210187632372],[-0.005949768271304799,0.0034745578850811564],[0.000343307092127652,0.011805340908073536],[0.01596041932605588,-0.011018940685162933],[0.0041662163667865685,0.015605490421575337],[-0.0004770172996195281,-0.006774170524838292],[0.009051732967133718,0.005663133100071617],[0.013269487194131256,0.0017575784699473702],[0.014065459705693608,-0.006414502788383068],[-0.011446448648246815,-0.004237276445548949],[0.003275033346451418,-0.010107783489865593],[-0.007934892914510038,-0.020450620147553243],[0.006273476282276666,-0.002458960097464117],[0.019450693909005206,-0.01555150363197155],[-0.010388187108229422,0.0008182383082189111],[0.0056887821745593824,0.007275687554070997],[0.0048430085333518325,-0.01669533480869738],[0.012200173067068958,0.0014172499496021658],[-0.007171200461418,0.012610192275681081],[-0.002820544890443727,-0.009217866356256252],[-0.014099859670224191,-0.013637030943232093],[3.0496629663764706e-05,-0.007645562889299127],[-0.0028566446796792337,0.002621016627321553]],[[0.013542019033088853,0.0031500021148336177],[0.01284455946375351,-0.015224105285293789],[0.004986925933143468,-0.006597943776513411],[-0.014653033522399453,-0.006025063911960164],[-0.002034776333794346,-0.012029558565724654],[0.006351644038399983,-0.004310033337242904],[-0.002692215740715112,0.006157614901317745],[-7.16735447034364e-05,0.01987911397325961],[-0.0022948476811801535,0.001272738210118439],[0.022161592659254197,-0.03290171490624349],[-0.010956477861401998,-0.00505548220926612],[-0.02093137356486061,-0.0044113156551829555],[-0.005145579861477361,-0.0006524383758100007],[0.022166742214785606,-0.0047790763023623315],[-0.013950569476058366,0.023250395901461673],[-0.007983800217899085,0.0006796394973640103],[-0.017606907389479357,0.017252995342426303],[0.012052246055343763,0.0072453163634449745],[0.025995676759246057,0.0028916558498697465],[-0.014265044943588892,-0.02626136522569537],[0.008883837752923096,-0.0182230372086146],[0.011127826954674796,-0.00591210876384313],[0.02960532437621534,0.0023626971831921233],[-0.010073626990115641,0.00919164489246473],[0.0105760302413507,-0.004160101920650325],[-0.025539090473809728,-0.02791592258062371],[0.007274651500956422,-0.01389532196262763],[0.002467775272461681,-0.0003846938685413085],[0.0032947721563603184,0.005859611827094793],[0.022138886636042535,-0.009344204052398906],[-0.0016737768337197279,0.0024437332139146824],[0.009310986064756136,0.020096895932239834],[-0.007367440320322771,-0.011437640047440224],[0.02085531007152961,-0.035543047670563224],[0.038339018548570046,-0.020483621724215542],[-0.014202331544294476,6.077361949930133e-05],[-0.018421705452780802,0.044007294404647485],[-0.014485294896252587,0.002820279609114286],[-0.008551647516144529,-0.009573043902716332],[-0.0035630071589118255,0.00218493698949489],[-0.014456286583167902,-0.0035967158627460915],[0.0017420210484412175,-0.007350770214538284],[-0.0037146608559827823,-0.01085894865994999],[-0.004795469662536382,0.006428227191920428],[-0.0010988889569580511,-0.009367350040155056],[0.012388141015117442,-0.007762162957602469],[0.020385901993397324,0.007769296275066225],[-0.020424794948080225,0.004675986153869293],[0.0015859490895170827,0.014125856605600527],[0.00943891153075508,-0.009679597301336062]],[[-0.011217440831125289,0.019236009453812486],[0.016336104189349335,-0.013634867300630203],[-0.011355054599036168,-0.023598780169236756],[0.0038975716151059027,-0.0006541715631816418],[-0.002163759591608252,-0.006998998784868525],[0.02833099837906866,0.02245293694904112],[0.017662207802922325,0.0161156206103255],[0.0004796178105966526,0.006831445326320925],[-0.014943439080230544,0.00018741550822950256],[-0.024757986622194993,-0.02987840860332642],[0.029252053590668466,0.001291208512876813],[-0.0005624414211099172,-0.025594366767037822],[0.03438432462926278,-0.016571384657757062],[-0.014145362522840911,0.01593601270237829],[-0.004798648243434581,-0.002368403429322239],[-0.008998634193900429,0.01629113789774862],[-0.026365034972363255,0.014116158487338422],[-0.03298681295129339,3.931969776498371e-05],[-0.08207095538506332,0.009392685004535967],[0.026374885460717264,-0.0025601616126616064],[-0.0038228455795370196,-0.03295020888649723],[0.020005720312729326,0.010742682468104859],[-0.03903574640568991,-0.0006467946484009007],[0.025997707342904762,-0.011244053384075353],[-0.02989659430751385,0.020048985901670258],[0.021566523083745227,-0.012487112160150927],[0.010500322789758189,-0.002169021154003162],[-0.0031587433260474853,0.007478892075759186],[0.04104963038412868,0.0012363981622485684],[-0.04274411197175506,0.01810225031177009],[-0.010107673203897528,0.011422769637518036],[-0.01924982904536113,0.01158878736781495],[-0.003550156665184228,0.015943644422290952],[-0.01901722987310947,-0.020386440716072013],[-0.04641096046404136,-0.03279573273622116],[-0.018943734236026216,0.0015474677333348198],[0.0010777510667089453,0.0029263588950937296],[0.007104585691559579,0.00974096009326955],[-0.002955483203576528,-0.001792366844603573],[0.016982352269496098,-0.00594336232769208],[0.00308749862669386,0.006492074913975595],[-0.041999305887359124,-0.01606001766699015],[3.0064056862167537e-05,-0.004264115906999647],[0.015851716487392625,0.013425120577184427],[0.016984396590712027,-0.013698146169677107],[-0.031791101464080575,0.008559393037652798],[-0.042635698058078375,-0.006053799277898639],[-0.006947196192226159,-0.01397414232149299],[0.005362126821710975,0.011274423334966768],[-0.010253920725501478,-0.002706503956933207]],[[-0.0007626668266488721,0.016873540549297298],[-0.02305465732116944,-0.040260617455933054],[-0.013337143826084264,-0.010276311344222024],[-0.005083446559760646,0.0026586873011747955],[0.006688725295173989,0.012406675025779836],[-0.0030388101313748236,0.007162291179104589],[-0.0156759298220846,0.001965875319822158],[-0.005466429638760671,0.0019068472952901141],[-0.0038448048046595008,0.017973165548473922],[-0.010888788129660144,-0.020361004456202706],[-0.03244728434930169,0.00447021216087139],[0.011418262213437363,-0.014374252567277555],[0.013727365378775586,0.011724863859620883],[-0.0070850590814166645,-0.0021902157748907125],[0.01579784649399651,-0.0027860215350219418],[-0.0016205520061705276,-0.0066711535745239145],[-0.011937566814850078,0.021506332606052055],[0.0002088167939201416,0.028315698893994816],[0.032651181374968107,-0.014048383697260018],[-0.006101844637456551,-0.036292274210998746],[0.004941481302603961,-0.012989785260016148],[-0.004468658632878547,-0.0012056794129600206],[-0.016655154202159652,-0.006311344888327591],[-0.022467264859505894,0.023923373713750765],[-0.01858677838745722,0.0072443213217603716],[-0.004343222564389972,-0.00295953873617354],[-0.02817460219021033,-0.007477195644952918],[0.015491837631673923,0.006956650511522857],[-0.010890392708829175,0.0047425906470427185],[0.020473193169893364,-0.00933852262558559],[-0.010430460143590527,0.020549947398695752],[-0.0006308301431932254,0.02048510912580338],[-0.002655822052587827,0.014885555812155954],[-0.02730853027970036,0.0071157783579599175],[0.011671812308586856,-0.010771220885635887],[0.021480702364355723,-0.0016357288863736823],[0.005515208012899701,0.00095276082750074],[-0.01378772653456129,0.0308898817896498],[-0.005052054565123127,-0.017932443165234898],[-0.016682449743634174,0.02478115295202808],[0.005581911957131086,-0.009178108588421498],[0.016969707964522667,-0.02853711518007173],[-0.008342095824062982,0.0076964774432391955],[0.0095946921669944,-0.01338560523633722],[-0.008733209828282606,0.00211305153119251],[-0.017127204442810715,-0.0015977781474289954],[0.006294917636223481,0.007276465324707311],[-0.011942269385854123,0.0028308871798378927],[0.019134484148331764,0.02257922081103724],[-0.006903317812897432,0.0007440999071303125]],[[-0.00281602795863487,0.0025398816223072152],[0.004037626712987625,-0.012700019577079872],[0.02655341838437092,0.0038232976754285757],[-0.01878341399122936,0.01571216755372612],[0.031014411920326265,0.008089350753298166],[-0.019730432747335824,0.027305447427894453],[-0.002877857541066799,-0.012176041785442357],[-0.016242848297945048,0.005887333454980277],[-0.003465209213434864,0.025396884581628087],[0.0018693733322862286,-0.0019640767151346272],[-0.03312423112594451,0.0052284444050563796],[0.007889923790413355,-0.0003870167787200767],[0.008612826866518793,-0.02303048315536596],[0.023870577785475057,-0.0038237348211105785],[0.02192904678340093,-0.006947741924217423],[-0.012352236806162206,-0.010859467513778117],[0.002757035005431804,0.002360166186783601],[0.025233409370753634,0.007888578715017618],[0.04674141835682051,-0.0006760487191924266],[-0.021294771960778974,-0.012868481442644304],[0.014754346796144582,-0.010634809392164227],[-0.010681587841272388,-0.0031075878783855615],[0.016804923655287553,-0.005916914127241618],[-0.029263230492839836,0.02016449811295808],[0.008980601980364784,0.003578701571372407],[-0.0314576616937905,-0.008678734133533272],[-0.0009206011185660277,-0.005029288776513635],[0.0036866443909392343,0.01625367861426907],[-0.06200272829479432,-0.017949051387730005],[0.02723283922248266,-0.009790179146385355],[0.027478324956886457,0.0217599928382826],[0.0005969798251977522,-0.0050458309425416336],[0.0019180917129518814,-0.0024343277136616567],[0.016721845785056044,-0.03561781650353188],[0.039252366645844645,-0.011054731145340058],[0.03440233275528803,-0.006882913136403806],[-0.012754959330735482,0.006006081654436565],[-0.022081548017898644,0.02150067353252648],[-0.004586655693753456,-0.0059543267940231105],[0.002008099544576555,0.01832112540418267],[0.010551847662484494,0.009580677956066912],[0.037382228064935144,0.017574576605882977],[0.008866455946592272,0.015359325488275923],[-0.015058679484666892,0.011455589477950525],[-0.020975946670175792,0.00872764254231333],[0.011445884309146646,0.008956449683899288],[0.02598957355727881,-0.027408006411070024],[-0.001721386320544396,0.010407462567213914],[0.02235625815250724,0.007250177424730135],[0.010771171470724785,-0.00011147132508042756]],[[0.02019978369372264,0.0014831855481778561],[0.015661853766678967,-0.011055570420498519],[0.008006529720886644,-0.011779522130474208],[-0.015165697743233918,-0.027050871923410724],[0.0158013905476979,0.009446134514176478],[-0.005959179558816347,-0.013695889144438424],[-0.0043038443298469686,0.00696796779965494],[-0.004444684737698944,0.005197802442200923],[-0.005661198576649577,-0.007685831638611601],[0.010333663102656768,-0.007134595996725142],[-0.02315305553968602,-0.012114444643584904],[0.0032571945437259563,0.00965914210188223],[0.0004674699743702441,0.0028748149923634135],[-0.000251428102861399,-0.021993907722607578],[-0.013991246000652309,0.02131668866102137],[0.018088509284774148,-0.0015719550140556454],[0.005372437491902736,0.003159101451217376],[-0.0021641525741812485,-0.001301512456035798],[0.035878024959746437,-0.0036677221391856587],[0.011781996742126828,0.011238878976183999],[0.02111994107340748,-0.004447495645596691],[-0.017158231577977256,0.010315363247045661],[0.011122633669137134,0.02158250668308323],[-0.014796186035138251,-0.011055175934738773],[0.011849323010546645,-0.009684724877959135],[-0.015717153611349195,0.01101425050467699],[-0.0006070869169652049,-0.008066556582272837],[0.012765601349740948,-0.00881032059497635],[-0.006192427282312422,-0.008583814997485876],[0.03564989472252128,0.02596091762240898],[-0.009621563655092603,-0.023267939198805567],[-0.01020418680437165,0.01015571279333419],[0.0009587341257571548,0.00037171364110197606],[0.01166146930925863,0.0008504674701446122],[0.017600951378013863,0.012142500817337226],[0.0006490211721072578,0.008645402952720514],[-0.022297844996184257,-0.00823004765945991],[0.010761357900356396,-0.008218014733159312],[-0.015986168750666455,0.0023605104615315527],[0.02273977658850711,-0.016861039153680264],[-0.00940197572183576,-0.015467326255799312],[0.005469017765188744,0.0030214799974712676],[-0.0013098340366520921,-0.0020211766521395056],[-0.0041725464359628735,-0.01789718077421927],[0.012316511485205475,-0.004262087503331723],[0.011758702563108882,-0.023811277991344644],[0.0220824916224328,0.024066246892940162],[0.006775767280921522,-0.0039385284614842165],[0.022778238064194423,-0.008386021050885116],[0.010323220128019117,0.003896140151037803]],[[0.003711090591651292,-0.022254656679140075],[0.013223902687234872,0.001055572808943174],[0.00419397877177627,-0.013637904876947196],[-0.029301601619056365,-0.011321408018117023],[-0.015702830108506535,-0.0018728816638999479],[0.006460686491951217,-0.005819944729234929],[0.004930276155958296,0.012914685096343885],[-0.012031797677521976,0.006011092151341397],[0.02385759705743271,-0.009569298880003551],[-0.0032816364512731414,-0.004819147442925384],[-0.044513834818456,-0.010380432914685041],[0.018055581593688284,0.005154977602727505],[-0.010979239010542907,-0.00026420620742312654],[0.03229890916541018,-0.007566178466135112],[0.008575274700677229,0.002203684405235289],[0.013488358758788614,-0.013332586500981711],[-0.009356066414675703,0.02684830119834574],[0.023971068197014524,-0.003586766761807218],[4.716433528114891e-05,-0.01709986818398111],[0.014976566568413233,0.0023017243699809467],[-0.010605945723071893,-0.009818292573003989],[0.021417394805535946,0.0015924100451488103],[-0.006117473000444004,0.01838566506816662],[-0.044974487709739636,0.02689458949168484],[0.01478998394915564,0.029446036320164872],[-0.004612046179747064,-0.004499448603640413],[-0.011001856257692778,0.0024770463465093743],[-0.0006443028321849294,0.00793456902369761],[-0.004165411825620009,-0.00577683391533778],[-0.017038740532735994,0.028939746123606423],[-0.00653283218486495,-0.025092136235086503],[0.018925431754651417,0.006127344190029399],[0.0041230849972851685,0.0005997426373624184],[-0.012437565149085398,-0.03575366397534223],[0.020075548169466967,-0.004870024807926901],[0.0026901351331018964,0.009183646300709822],[0.00587903897022861,0.017500291699588187],[-0.007962825787152222,0.007655395984764707],[0.00451261697139923,0.0012180249735094014],[-0.02984884447384349,-0.013335303957798618],[0.04234198099242834,0.028074774634654052],[0.02385214586335303,0.003195873919124697],[-0.023873043583437226,0.015517050882340585],[-0.020789303867467985,0.002401288308246245],[-0.021435406921855898,-0.035487183743500586],[-0.0013356059460431459,0.0010615616258585463],[0.00564794618578151,0.012282389028923752],[-0.00495948110384892,0.015270366101945196],[0.0060974426124314265,-0.006631914777248846],[0.032463704808632955,0.009734342549759115]],[[-0.017353342759180723,-0.017320451539732773],[-0.018905824298970947,-0.005935310309805789],[0.019434245283238085,-0.010898128371550386],[-0.0035493125958420894,-0.026098164913290915],[0.01361208432241814,0.007109811089969909],[0.002468494946936724,0.00845274963270951],[-0.0351629093471663,-0.01615750795037112],[0.0022373122871517607,-0.0026102179820394443],[-0.0024675575956527853,0.02003706021814728],[0.005059963464373149,0.00346352713930543],[-0.006542322381779575,-0.024063146961624537],[0.012282349618170383,-0.017837354894055996],[0.026207758397933635,0.01986917717693622],[0.001287248352405932,-0.011812031316158395],[0.005326796239927189,0.009140317560042965],[-0.019576450310460625,0.00611093570867358],[-0.031390797917548646,0.012253412542039136],[0.0001817671617308364,-0.010035984816662567],[0.024646202449241532,-0.004590321362719521],[-0.006108785689768279,-0.0062690609239166376],[0.004792082673572164,-0.014231350124387412],[-0.0017255179815598475,-0.0036335674792609815],[0.0007270789268226255,-0.006694059362454757],[-0.011976590671801936,0.0038169893875140497],[-0.007696443501642068,0.018415678552866674],[-0.004864862030895121,-0.01696189765767246],[-0.0035225104902217746,0.0016559368242736873],[0.009863382777343565,-0.0021594952158925625],[-0.03247552158053749,0.006434064421258723],[-0.011585900698372998,-0.0035848201495054396],[0.00030259298311736645,0.009348492094206434],[0.008241180146818886,0.006324702859420148],[-0.01901448089526045,0.006174068159739958],[-0.006896238867722661,-0.023149945089402907],[-0.023825342893082843,-0.017779237079295858],[0.03251033911117902,0.0027167467005373242],[0.005444313872001951,0.0043579191662840465],[-0.03929047455269077,0.018478159924586738],[-0.012108807209499058,-0.003901970824504963],[-0.0006258742086220678,0.006169881175167561],[0.00641829519662329,-0.01837381131788222],[-0.019575438947291607,-0.013710952485006554],[-0.013001395884869486,-0.016221254911514858],[0.0069646833279904865,0.0029848408330560294],[0.001270169922190379,-0.0014277545526629855],[-0.007390033199911375,-0.01697790229418685],[0.0029224779686833854,0.00017936332195514363],[-0.02353278422015564,0.004420786642349197],[0.022884372665823015,0.013695174494602308],[-0.02738405894385828,-0.0022678296064123785]],[[-0.011303541738138405,0.005194399110501494],[-0.018005819595146064,-0.01021784023769246],[-0.00178530315408971,0.007081250234263671],[-0.0007010870903414399,0.006024412528987109],[-0.00808781825262237,0.013802935254742235],[0.005262238072808212,0.02010348525916456],[0.021335032245575508,-0.016889067437294927],[-0.019660615689296227,0.002527324018914654],[-0.009825350842365034,0.02767156374398414],[-0.007670823728606609,0.009235403968611798],[0.014878831746304605,0.016724845100637632],[0.011161133797764552,-0.011321697856939433],[0.0023569144303018713,0.012400532015627491],[-0.0012117555714323603,-0.003571369672900505],[-0.0001687246372793598,0.009862559657603149],[-0.020687909304883418,-0.013471560778799647],[-0.01430133500159346,-0.012597834743510877],[0.002930549855100339,-0.0009610462947423127],[-0.015252578648793574,0.020271216307573267],[-0.00718666548001704,0.008414281326884165],[-0.017142480532381658,0.028965853603239448],[0.0045634563629506865,0.014137875658090496],[-0.01459274593707861,0.010615921461879407],[0.01073577585243947,0.042420524620050595],[-0.015102509142378385,-0.017804560879760217],[-0.024889239059332692,5.57013940828471e-05],[0.02788747568272855,0.011702916780337757],[-0.0007416962330306909,0.003906073980318624],[-0.01427879563349952,-0.00807388837517357],[-0.015772025076163168,0.03154162985623269],[-0.005605494271074344,0.003446537441196472],[-0.013117772237109162,0.00254709562286232],[0.01257936283229501,0.044159865645629],[-0.031235828948222695,-0.007688562837786772],[-0.03912401788453315,0.012148060671130372],[0.019063811270288684,0.008758529571473044],[-0.0012492474400325796,-0.00166707121708663],[-0.0008298318015384099,-0.016071006196437292],[0.010456993715707298,0.01811880802550488],[-0.002229955115565136,-0.008966637908005993],[0.0018622204829912775,0.002226400800787764],[0.0034433402118623805,-0.017973830672367914],[-0.012085027975801585,0.0044868100818632635],[-8.379142100282781e-05,-0.015235083074291882],[-0.011719246409054376,0.011979511563875042],[-0.0122348551968863,0.0164181413166364],[0.0024603129815307066,0.001320910887604608],[-0.005641002190975493,-0.0051528055870784396],[0.0026977965878562243,0.006924200030151812],[-0.0029976581661592186,0.012565402822424288]],[[-0.0026301710331627353,-0.00026076303982155904],[0.01618305939906628,-0.01995963933547316],[-0.004998263608675497,0.0018168179554764433],[-0.00265267541457289,0.014939310490768801],[0.003312935575507498,0.013151602939102634],[0.007336578876323091,0.0036804657778936193],[0.006260037499641712,0.013301075689876552],[0.007184304323400575,-0.013420101294715589],[0.006075119031329233,0.013795773017436131],[0.01763581508015135,-0.00793832124750871],[0.0003438511115788105,0.004161355922036829],[-0.0020261101505096085,-0.015485444102949185],[-0.015116905918905785,0.013746594861216814],[0.03422134029883807,0.012489390892199439],[-0.040825798978915,0.0015420463142774253],[0.03038627550721912,0.006686385921368255],[0.016321583519120737,0.007671443840376331],[0.004870901771090687,0.0036662312418646236],[-0.02542120366094923,0.010737322288399688],[-0.03102465038624862,-0.023098086356613555],[-0.011984273003943498,-0.01056997646251594],[0.004803806370866634,0.016968078913280275],[-0.004322729040758573,0.005393161372916427],[0.01699405001864654,0.014624610572803263],[0.004492634454544233,0.0012589803297494056],[-0.009456076261451922,-0.014811947736706242],[0.010494492092261757,-0.005247896604003408],[0.021913359384503513,0.025615734545101947],[0.014665992394106011,0.006440248994392689],[-0.0008372181871160213,-0.002779438708744332],[-0.0024319369249639466,0.015062043072679611],[-0.0017121654870607414,0.006950159347745173],[0.0024809790412261166,0.03226135206109563],[0.035163073771641656,0.0066724708603733505],[0.00035663283092241134,-0.014844585209909035],[-0.006247492717609082,-0.013001467667496868],[-0.003987253060720029,-0.01418788391151142],[0.0066015281582125565,0.002547165513346986],[0.01105838588834252,0.005659621871349243],[-0.009272455093987705,0.002011260788608901],[-0.018393006233942275,-0.0024287141704357296],[-0.01633566713833557,-0.016633788968946923],[0.005489002861309954,-0.0053940867683276205],[0.007866883381267854,-0.00034722267118361563],[0.013627723265732522,0.009193235992431534],[0.012089867129382323,0.020627162967517036],[0.009730962353575416,0.004914711982140322],[0.0009053948247662678,-0.006990236482886713],[-0.02491659151284798,0.0299303769259113],[-0.014085463201707794,-0.0019309154039719068]],[[-0.01706126981804366,0.0005790193924208732],[0.011129043812988968,-0.02139090552530208],[-0.03343452967603806,-0.007686916124166452],[0.014483997742890827,-0.017515275678851888],[0.009413122837989799,-0.007153219508537553],[0.01700123152020388,-0.005607622619648809],[0.03165879829357192,0.012162622430190546],[-0.012163421077224335,0.0011638742964649295],[0.001196899651386467,0.01841281451176184],[0.001573852450350056,-0.014290745396575997],[0.016929973111460588,-0.02111812678538568],[-0.00118821760807009,0.024345123600980012],[-0.02461020824797402,-0.0019564521018494065],[-0.0055604751665574575,0.013461311607618412],[-0.03403785450936662,0.027596892350503555],[0.012873178968553967,-0.013643207579245805],[0.016573664425150764,0.03858210947959852],[-0.0019378339286152757,0.013322160825139491],[-0.06548888900320782,-0.0009998951147746583],[0.005118619419341507,0.009608512249033786],[-0.015500183757321352,-0.007926396182587588],[-0.006941327733435065,0.022824575857428066],[-0.022780084962347465,-0.006390410673760848],[0.02291525272480776,0.007565982066255911],[0.002437822277965797,0.0033893641474116907],[0.007696486503952109,-0.0010656902618654501],[0.02248261783601978,-0.026140950120506334],[-0.010527931281267909,0.013468774944037925],[0.02591724281795435,0.009276202981099825],[-0.014860214393166822,0.005867628274904229],[-0.007126520739030927,0.01220002660582944],[-0.015418462960473537,0.009806510514613724],[0.0016891314597675426,0.021228229987145283],[-0.005704942134701211,-0.03575720735491457],[-0.03818240052761148,-0.021286737478169962],[-0.004154548870403228,0.007918491379490848],[0.021011111784691727,0.002275726980154359],[0.0385067617278974,0.009568216324689557],[0.018188444693053495,0.007372591398829857],[-0.010369587490088865,0.007542728231302346],[0.03682772674959403,0.02040466334369127],[-0.015343758388557343,0.006436509342889277],[0.04392711389569447,-0.0173802346328136],[0.013226100275379012,-0.005486956897988715],[0.0008293476171867473,-0.01644509568362626],[0.020568462213042708,-0.024567264632983553],[-0.0281018961968517,0.033235991410219864],[0.0144314202516924,0.006789765503925126],[-0.037519705427524315,0.025266510978150105],[0.009305404035418192,-0.008478877850675914]],[[0.010417374835883404,0.009782229405787702],[0.013151047460862347,-0.02449608840793619],[-0.001933909750227913,0.005103718174844034],[-0.011191716405116712,0.0035135722364935842],[-0.01946473610199401,0.02561852993128991],[-0.020739466940991387,0.018456168155936464],[0.00046775250700463325,-0.01605487169429313],[-0.010676759688669307,0.006421178717479372],[-0.003516991572409624,0.01769988928537066],[0.012950191646513115,-0.012636826107045718],[-0.007256369614498026,-0.01144624576532558],[-0.016483610571717777,-0.022060377935213708],[-0.0008052367296537155,-0.011129415324351117],[-0.0007981496797551977,-0.007472061347536805],[0.002187410945254212,0.010439886660237544],[0.017814799136438974,-0.0076691303769919165],[-0.009733259863557924,0.03287648905268856],[-0.025216988663185648,0.013974440809207171],[0.02813424887046767,0.011564463478774241],[0.008146754525737281,-0.014768712224211094],[-0.0017588610943169332,-0.004099073742509617],[0.019890943171797786,-0.0008468254229810641],[0.004320168596693397,-0.013357878494720078],[-0.00010343552869706424,0.01683352273297279],[-0.006400972683170286,0.02026826821419287],[-0.0036981872721624956,-0.009397475298301445],[-0.00013857587729721962,-0.007837098554606257],[-0.019527127443524098,-0.010854851987043111],[-0.0006229462712329607,-0.019449341219849092],[-0.01142278946456073,-0.00840508988233026],[0.01761893376253693,0.03561541327580717],[0.0076778870237785655,0.0006154615280544087],[-0.01490782122246578,0.017800667571753553],[0.007753308842867578,-0.03816779005239571],[-0.014779375853099427,-0.024073508587336614],[-2.869162258863859e-05,0.014216668123896398],[-0.021735410968850632,0.029120637796869603],[-0.019365083805656477,0.02202187954921696],[-0.0072919706803096515,-0.016753780866721697],[-0.003301822088155377,0.007206512841139067],[-0.009993806506742961,-0.0033576899729537446],[0.004215032395676185,-0.025950050876921142],[-0.02808942383896496,0.00042917711601343864],[0.008866422585381074,0.010989306010796935],[0.0014604497032967914,-0.009127174545389199],[0.0006654735205467813,0.022281622230488022],[0.011043283534542479,-0.008930349428845335],[0.015241657343463048,0.004747301498388974],[0.01310616384722041,0.008314144982999025],[-0.0029061301926457126,0.016447345686025138]],[[0.023504210271338907,0.01485600248786545],[-0.011035754447642137,-0.0313286198569782],[0.02579689181475328,-0.0032719506455718655],[-0.021468853837850098,0.012753968678744756],[0.009399130493753077,0.021938765650752333],[-0.025029115107241543,0.00941257640100561],[-0.045200293531195986,-0.01834250552427346],[-0.003471173040735352,0.03275967429955873],[-0.018731626354157056,0.009900146017869458],[-0.019150026698853028,-0.03897346249161276],[-0.04656573927849926,-0.0069885486610409935],[1.3163363847583094e-05,0.0157433989124937],[0.011405843095262325,-0.016521283734267086],[0.026755895947888512,-0.006991032814857446],[0.04167957851768665,0.024190074032576746],[-0.029994935231705294,-0.028383097222664397],[-0.03122544036409159,0.0008343769419567482],[0.011499084065598368,-0.0105901237124114],[0.08398953174545665,-0.006617401706972322],[0.028935705431687116,0.0038162157903447527],[0.01189928075019083,0.03768230381515512],[-0.018104607947005694,0.014054720002122757],[0.01573833016931882,0.016306348812152843],[-0.031143871753875438,0.02495530902010215],[-0.00830453713369319,0.0035182219508330887],[-0.0038034772664878626,-0.004606457417125379],[-0.03491223140349953,-0.007884483693599816],[0.016513533285322544,-0.006175698733276808],[-0.04205549782975834,-0.0009440774066352257],[0.014119836257826335,0.019160036484941266],[-0.0038979474775314993,0.021286285714312826],[0.024531595893829385,0.010741582969056751],[-0.02516319917794281,0.016143238233753715],[-0.0058086234741245475,-0.017820141138940218],[0.01009368851423101,0.017977410746280835],[-0.0018307707284793803,0.020875662571826357],[-0.009639978390359636,0.009878504543490717],[-0.044368048694667025,-0.01881950634994821],[-0.021813466930991177,-0.00044032906080593466],[-0.007206833808226252,-0.018399015517226613],[-0.014939529411064304,0.004621240306564167],[0.020251395830239875,-0.03525378243941975],[-0.049308037671165456,0.012726984038207854],[-0.009091867320670056,-0.010447105872639813],[-0.016041953750879183,0.007994601311067445],[-0.02568202158048193,0.0014478821922422973],[0.020515363238645036,0.031905184317095485],[-0.019778130896828554,-0.001092295394457566],[0.04773954551822098,0.018899641356541683],[-0.014153070732907141,0.013310401907957337]],[[-0.01881656587345096,0.007892759503311166],[0.0007959138487708059,-0.0223310352755259],[0.0001784945229956203,0.0014521278372410197],[0.010812908855222856,0.005577764446870622],[-0.015667024601115857,0.008684578469391243],[-0.006642924981763606,-0.000373957691899204],[0.0063420338160418265,0.0075622696420125455],[-0.006253657888934834,0.017314606332427755],[0.023074011899291424,0.008709613189284426],[0.012893179444884268,-0.02661725168424232],[0.002110050103185563,-0.005729285160140085],[-0.009531033672176632,0.006635778789733564],[-0.008528421944890518,-0.004793804751671628],[-0.020535615381948383,-0.0031087109195062712],[0.013458406878625071,0.014561824448750697],[0.005187574966814931,-0.017077683051435557],[-0.01158437767960556,0.00430126015916373],[-0.01651037180629421,0.0018452288136927759],[-0.016657299929972544,-0.009735268834413134],[-0.01498742344673686,-0.002057531351973574],[0.010956396485244166,-0.023902516757534877],[-0.005909146109183157,0.003976996198086849],[-0.004858457233486007,0.002917097441031452],[-0.014240530271859711,0.002269744027976829],[-0.008119689896807083,-0.0011876104621235646],[0.013912390589513646,-0.013137496430488591],[0.0060409607056187125,0.0014568153040300346],[-0.009079527394804773,0.011008811580048466],[3.382746944232892e-05,0.0002623758892044293],[-0.0031115017826262277,0.0021757990978253493],[0.011569555928426461,0.00039656406036783776],[0.0036346550745666485,0.006570038091731669],[-0.010388560031990615,0.0021915842643340914],[0.010774250846930025,-0.010490563483843661],[-0.015046221376326305,-0.0023523910823030477],[0.011448187827701283,0.012076209236859172],[-1.800870012587624e-05,0.0010619676870481055],[0.0038544417694576097,-0.014330053841195678],[0.012186658631196601,-0.022651799951079906],[-0.007306896353532134,-0.015701108085444924],[-0.012697417232046846,-0.008971960815950579],[-0.011793750564343758,-0.012942014936291546],[-0.004849194215610603,-0.0044345272467808255],[0.011285102602404146,-0.0018368277881550513],[0.003263225049573673,0.001087081996368363],[0.020036220452393984,-0.007101838646274817],[-0.0012709984376647475,0.007888699669249377],[0.00329435633461057,-0.00964950427529544],[-0.022668159283509716,0.003413838581879928],[0.004221770212734092,-0.014277553339215448]],[[0.0035534997676646314,0.024150537609147846],[0.012383132638624401,-0.0027260964901513213],[-0.011620926512162351,-0.00726750827284044],[0.017701014009080928,0.0035132748821022075],[0.008980508651274264,-0.0036726964759049665],[-0.006243253145850067,-0.0021046265159136305],[0.031837865574920854,-0.005261498145580597],[0.0016788188165581064,0.012420294022011941],[0.005966271024750489,0.017436844756129267],[0.017557311213774643,-0.02650515212573922],[0.023962855751161916,-0.009084219891088673],[0.003218587833492698,0.0019405023717465621],[0.0024885976442732007,0.00013018765179972967],[-0.014733205965899984,0.015972079835289827],[-0.022611693733411806,-0.015864815882647945],[0.015496198295297981,-0.01829063724061039],[0.033131293367454594,-0.002372889372414845],[-0.007881085983961396,0.002331325562043549],[-0.03278716549177005,0.013365501724036487],[0.004798465251797262,0.016801713612249403],[0.008329964002622819,0.003225761187800382],[-0.01122353555582516,0.019754478693848065],[0.020417629769451908,-0.008678658789256137],[0.023224833928542785,0.024644521199781718],[0.005932678938172456,-0.006288326042796459],[0.01829916383144362,-0.010235432849731583],[0.03246567101347484,0.0018649863306533653],[0.0006816121744780456,0.0010268174527976485],[0.013956702999038237,0.010617890593480851],[-0.0018533912978911608,0.003327137941585558],[0.004317200126148387,0.022025543093113237],[-0.012550818305995665,0.005902308914387197],[0.017115471076067364,0.007652118770568425],[0.025559905412163686,-0.0036572221074101835],[-0.006541236531450417,-0.02839522253398365],[0.0002365709191861666,0.0070904764389278525],[-0.006191962441595536,0.022045287078526127],[0.036804558177517016,-0.000574867261522042],[-0.007479961484657349,-0.016361246619876278],[0.01877101154162302,0.016295720197470026],[0.000336111623572295,-0.011172493113464424],[-0.015360948140172996,-0.027141857099420283],[0.0076618119482910595,-0.0019297364475340363],[0.014076591275492618,-0.01006931713909472],[0.025380928595842695,0.010548214778998593],[0.01421545466216553,0.022456127178595662],[0.000379354814320932,0.013003653750170117],[0.012103552722424797,0.029797101977011825],[-0.0028461607773708824,0.025223301416069197],[-0.0006702254303901905,0.01887206206531529]],[[0.01058427180028791,-0.004232643527509145],[-0.001600272710424723,-0.01826146582086412],[0.0255650069220038,0.005659246918665254],[0.004338761022768115,0.010260317710324965],[0.028404317144220058,-0.008405301671021225],[-0.006274583570431197,-0.0008623179533780342],[-0.011733602511188308,0.0035678880178465176],[0.004101112263646405,0.014165528496580397],[-0.0038412884607691242,0.009046631144280462],[-0.0038963449460232436,-0.005570226066818249],[0.004179153543892582,-0.012329886583637078],[0.0014536131281938447,-0.016918250534296762],[-0.005252058560683472,0.0015091975347778421],[-0.019527087834709623,-0.006357331635269777],[-0.02866772045843279,-0.004138644564678916],[0.00616194113825234,-0.034886184664230394],[-0.01790430775548301,0.01574708748087722],[0.030314051454665078,-0.01119089930358658],[0.009297967355872348,-0.013973712391946745],[-0.017257424651531683,-0.011037006934632892],[0.024119639339791006,0.010433127272309582],[-0.017190645454460397,-0.013132445893145512],[0.01794893069073069,0.0022838572385269814],[0.003685958077375007,0.01946306557441462],[0.020079208601017647,0.013958803997825255],[0.002559886036940432,-0.0051058489485826175],[0.00716696860029657,-0.006477134762616271],[0.008387742862103843,0.023742884172327006],[-0.007130024510146388,-0.03177949509814183],[0.020985539691059707,-0.007723264282058643],[-0.003380214262029926,0.02500834851048749],[0.001098034783194637,0.0011813710080907209],[0.027952822894770517,0.022141816366058917],[0.00719864818198848,-0.006022497078178828],[0.009782782963483689,-0.006212136736708386],[-0.02664926539597077,0.010528030915550582],[0.00251410326455163,0.029972853141702914],[0.008075093334871903,-0.0031015095015485632],[-0.004342799646144773,-4.42743732877093e-05],[0.02522591839912792,-0.0011171954960596873],[-0.0018704558971870166,0.010155876038098078],[0.003941517566584438,-0.026486565275304588],[-0.01529444048071036,-0.013773510208854018],[0.016719166465004907,-0.011630799367325926],[0.014037280956568223,-0.02315538946904189],[0.01906543455265696,0.007979933052125555],[0.00561951380693451,0.010728141956514683],[-0.004037400260720445,-0.0024246649533767],[-0.00755011755007057,-0.010793432245860827],[0.003990963037773182,0.018876490150601742]],[[-0.014238099248868485,0.007996803528063609],[0.012219580029846144,-0.004798487004202151],[-0.019360725547487186,0.003843112784511729],[0.002985571355717264,0.012763207730718264],[-0.01049404299823108,0.04924346866031298],[0.025217863410568746,0.0024516478470258847],[0.006396457483311352,-0.006314092586494002],[0.01352467762870251,0.018050283042348854],[0.0032475599169215787,0.03789819249401204],[0.0036862063388080207,-0.0029225227626256817],[0.03472516347141984,-0.01480047459303504],[-0.012419282883953425,0.016467202616071007],[-0.011282344442492168,-0.002982602356897127],[-0.005434218639582351,0.013388869291746638],[-0.034034140910109145,0.006303493018112613],[0.018063592776260892,-0.029488940522294244],[0.028229759730009497,-0.0027845916833996926],[-0.034749072616615355,0.0036315511539438683],[-0.0603853439003289,0.010991316495889582],[-0.021296003839798256,-0.004861551394023845],[-0.02435275945562284,0.008941763906164475],[0.0035144188958716005,-0.026497375417875866],[-0.026269321907593145,-0.009326255728618562],[0.05405647162946989,0.05109351670099461],[0.004289709982533982,0.007346742281536568],[0.0046082595845299236,-0.02004398265117824],[0.014970914172844116,-0.019620310040693298],[-0.001883882614533594,0.0253146645537927],[0.05108097644732561,-0.008865640970727324],[-0.02494725495285146,0.0006922643948116839],[-0.016231368105362343,0.020612995658502418],[-0.02590454786833196,-0.01193540326936363],[0.0037810586694071394,0.003445617895948062],[0.005868807079964188,-0.02350622679799776],[-0.02153956073262383,-0.009005360224955962],[-0.01611264854394898,0.018355402712339455],[0.007824234506800217,0.022718715738956688],[0.0401028088737425,0.00966063216172388],[0.018939286746588603,-0.0007369917285559666],[0.00412040497066707,-0.000751911863437941],[-0.0008324340334744025,0.001199573385521065],[-0.041937995111119786,-0.0012341140977795316],[0.026895308145198416,-0.0017105224327490032],[0.016631119912817367,0.007834663389114604],[0.009044956231568861,-0.0171811773934088],[-0.012047008417473616,0.022589884962985092],[-0.006959860692563893,-0.008185526537949109],[0.012179034224677518,0.01487561721876623],[-0.029232056565074514,-0.010827279411276758],[-0.013279582953475637,-0.002656249730140511]],[[0.008651411972210095,0.009796962615684924],[0.011915722920964546,-0.0015835553755797266],[-0.018754404267963674,-0.011735768732615007],[0.010072478874756381,-0.018691251180054144],[-0.005575271187908874,-0.012308649804247252],[0.02955366093720652,0.006500534545672881],[0.011565117505876812,-0.018072568462081797],[0.024353503201823383,-0.005847524823224382],[0.014137534928783323,-0.007996427967108866],[0.012469625857835613,0.018347532912207365],[0.0007817386025081811,0.004604176310916341],[0.011134390970345465,0.0005247983782887505],[-0.0036202368524965727,0.0021389295920899868],[0.009329993915996036,-0.004062813121274758],[-0.029723940352928704,-0.0032490203284267598],[0.029882414270363263,-0.013826172381285664],[-0.010197676336965868,0.01307156525693696],[-0.008055973863170135,0.01706088235746566],[-0.0276880940587904,-0.016299041884669508],[-0.00417624578777903,0.011498017681437952],[-0.008071865570780537,-0.01574240371952985],[0.01612243981644168,0.0016523282267866504],[-0.007631454646018154,-0.028052442191681043],[0.004155807797598159,-0.0012937785997763679],[0.0012449881914875782,-0.012609452665805411],[-0.001764014185593651,-0.003968336819700272],[-0.0018613884888195,-0.002740498232643469],[0.030371105636074897,0.011344583072777081],[0.019663485563903002,-0.029486489045973008],[-0.012037393802307374,0.007019816030526349],[-0.005442324079555827,0.010486315990414332],[0.0012556506805528238,-0.01569575784568469],[-0.019299443249398883,-0.0009494119173850939],[0.0052878097361628625,-0.015295964367115625],[-0.002688616880142481,0.0026126918140931383],[-0.019710779049509505,0.0153758501334013],[-0.0031206564748035184,0.016579882851248104],[-0.018742837600062612,-0.006327009457714191],[0.004187941353616201,0.003042366715169299],[-0.016841932421591287,-0.004806793721716602],[-0.003614824867629352,0.00918329010404205],[-0.005984177583607116,0.007440024364430375],[-0.004323463246135624,-0.00255149460596059],[0.003324601994534169,0.010549670677351734],[0.013408481541890017,0.011703180534954984],[-0.00917789736616611,-0.0015718697212142156],[-0.009349806834969809,-0.0013042365482733632],[-0.014373471462095649,-0.011095658367901532],[-0.010488595260562467,0.00013172526972654803],[-0.008209531654698364,-0.00994544725032796]],[[0.009805950346073372,0.017353969349262137],[-0.002033987734894057,0.004364293852730756],[0.02751370164675749,-0.012458621592317027],[0.0013125949487184426,0.0047964970628201885],[-0.009613299542688135,0.004683688317602919],[-0.001805604045025615,-0.017271110796534112],[0.005008975398134226,0.012990488761503001],[-0.006578385226437377,0.014964626204011434],[0.002824254776775424,-0.002872096409562875],[-0.00982663446872983,0.0006010676795193673],[-0.03782027360274408,0.008049984518781125],[-0.0021493752385932695,0.01145903066471116],[-0.012803331433686647,-0.011836606566389126],[-0.01477065109730518,-0.017795261531625136],[0.01734386334180123,0.022297449718541792],[0.006761159635288922,-0.006633193759979078],[-0.00836844427494825,0.015474576225295971],[0.006908926908974755,0.019066513622687884],[0.022790431889514268,0.0016520283770987405],[-0.005486474453864151,0.01168795283735986],[-0.005087006058710036,0.0023288305939485185],[0.0040580180329914655,0.005574357011505163],[-0.01557967845229426,-0.019422820028185597],[-0.01612279383838345,-0.0024659351422935344],[0.003654596725142247,-0.004823864314813773],[-0.008147683110522773,-0.006974220372223381],[-0.02351669933391256,-0.0192853999188889],[-0.0066994890158079785,0.027383261704466533],[-0.030518170919070033,-0.0017538013516786473],[0.024553416702794945,0.006400522368663452],[-0.0064481724651373334,0.03316350720952946],[-0.011704155040344697,-0.010361698296043845],[0.018777623635768258,0.009052175568666318],[-0.030870007445705734,-0.029317843654575997],[0.02002599563029473,-0.005326448489609011],[0.029810894833917388,0.014579524667006514],[0.00996771273355345,0.026796325146674408],[-0.0003771012795017268,-0.016062011934270516],[0.013499297670606003,0.013504880294458664],[-0.01663854380562603,-0.011379092879921855],[0.01973399514031665,0.01573168058781551],[0.025725600595031338,-0.003923791901752921],[-0.019595438600011374,-0.019475594825193066],[-0.024333778006708703,0.01465000357749915],[0.0032578319141616744,-0.008087936837433122],[-0.003091573859581702,-0.000272632314601339],[0.022994766007688183,0.009524993326026517],[-0.002080654212716684,0.013439807755328298],[0.01885142913640602,0.007700194284487164],[-0.0016649218659079684,-0.00780724974511935]],[[0.012910124987905502,0.023169108823620034],[-0.020221097050866825,-0.004055259407926572],[-0.004957035867149573,0.005664426358808613],[0.0044388799474973095,0.010983015004937298],[0.00026931563946397917,0.025548427144444816],[0.002767498229786289,0.03156094097666539],[-0.007126565411406898,-0.02141323542874906],[0.0018899033837107746,-0.012281420291490146],[0.00533386915572721,0.012310444582318433],[0.008065959946343144,-0.017082926086803136],[-0.028822013620771907,-0.0032018333441753005],[0.006574959503960677,-0.017251637518893297],[-0.023589439622697602,0.006937428665831272],[0.015495973943699738,0.0033246511309225246],[0.0031899341622104683,0.008890337968864993],[0.02271859994861289,-0.0006347280554930999],[0.011919982820072084,0.0040456693820718915],[0.030218965975437093,-0.018206780268754504],[0.031205548666528228,0.016638835650848796],[-0.016176260562701064,-0.002562584567956814],[-0.008483959772469296,-0.019985682941790726],[-0.011696095569681268,0.01299231680115297],[0.021591980730130925,0.023053738013004522],[-0.0069994011322554225,-0.01662142155866811],[0.015094978995963904,0.01168882672934502],[-0.02209727376491373,0.00454592245266946],[-0.009339180410941294,-0.012132982194703242],[0.014818282225315026,-0.00463215357886578],[-0.028955261072685215,-0.006155739268825251],[0.028333780413854114,0.018338278187212433],[0.00017035450498603124,-0.010351174537955577],[0.012481040878442495,0.0018046981436664195],[0.004149944523763689,0.015310035121460244],[0.024348789868197378,-0.014273878261479845],[0.023533550244990774,0.00461976770251997],[-0.0032666317179337176,-0.0035964327077588776],[-0.01058024998955119,-0.027045469128556734],[0.007563839975953671,0.0074760972356334365],[-0.005147574575942805,-0.014115794059142641],[-0.0065832825126422275,0.011472798559375552],[-0.031345928808040574,-0.02440274373057898],[0.01558464031311953,-0.010451768808128944],[-0.019643128444618733,0.016713935872246535],[-0.018776947468557164,0.001526190035352649],[-0.010480498778144746,0.029141865236324428],[0.016074975251851243,0.006935226589445487],[0.011379210045723263,-0.004481663888036596],[-0.009323468301243648,0.008432664126045148],[-0.01760212039137978,0.01600300989981989],[-0.009384161193543763,0.003308252845012558]],[[-0.01539737645222506,-0.0014259859972087356],[-0.026013432282699693,-0.031981583886085616],[0.029593302516151398,-0.0014108797261069784],[-0.009458139918265157,-0.002973666017195394],[0.005729880380299999,0.007703104878646057],[0.012247386127924,0.00657505873991302],[-0.011122372092894585,-0.006354338510062071],[-0.007322918010831209,0.011866701877710186],[-0.020231346027982003,0.009459643671325459],[-0.0184150905012539,-0.027580710208659973],[-0.026746541447165907,-0.03639232728315322],[0.002456539688166378,-0.011018472060779438],[0.02954945846885847,0.022912207180734907],[0.009479344641977673,0.0029758933206018474],[0.0024719055456393644,0.017523134887697193],[-0.02677695787469304,-0.01648574563658511],[-0.0338690631439776,0.012940856831514939],[0.010801761584097853,-0.004149918930846372],[0.014919916249956483,-0.03263047703280067],[0.004106008646273271,-0.01216455502638074],[-0.009494795705270651,-0.012798253418783068],[0.0015736811614950803,-0.0029859683665433463],[-0.017264590611862078,0.021346732143039757],[-0.007149294659362889,-0.0016329675641538052],[-0.04285553150641718,0.007864395483759709],[-0.01201893862810504,-0.001649990756871728],[0.007820945206053774,-0.018808572962522908],[0.02914350501967547,-0.002378263801145433],[-0.01236605369698556,-0.0020668250374386824],[-0.01719059532221782,-0.0026605844102748494],[-0.017406791785201478,-0.01499408324813559],[-0.003101464477963038,0.02571589629602406],[-0.022044862090278883,-0.015951346041944883],[-0.020705197653823882,-0.0043199811151542825],[-0.02739710105387637,0.02628898686588927],[-0.012676663785794965,-0.016435159420610544],[-0.002414434678172193,0.009634200201312622],[-0.03580799259640546,-0.006606045181095057],[-0.017671967058842147,-0.024901940612127152],[-0.03461165680722521,-0.0012706809982546796],[-0.010649549531526373,-0.011335041429117674],[-0.004591804293704994,0.0014677225591228685],[-0.02311379875267276,0.003953354093570581],[0.006324565057969571,-0.021586538279856758],[-0.005782060805716038,0.015371975822095294],[-0.016397926506328375,0.007333867199269131],[0.0033325539378888896,0.03805735912682905],[-0.026041148278375673,0.001304528245988615],[0.025442466698351388,0.01181166849293035],[-0.024821113596720876,0.01772431158003454]],[[0.0013543299120420322,0.004995782469427695],[-0.002367870336170694,-0.0225669190264813],[-0.01172006654711118,-0.00865353777559222],[0.007128406385762065,-0.0076720046642327925],[-0.008739249019041356,-0.012084479447984079],[-0.01863687551050727,0.0049945039126357855],[-0.02537355286407831,0.006402820144323428],[0.0035701704518184916,0.0012595167576823583],[0.0006612269445916278,0.021365953009253747],[0.01690661786392939,-0.029042450035512077],[0.018060156421300846,-0.0028375811466370988],[-0.022918142705670854,0.0064857470661931465],[0.011970217603551325,0.006266904993228522],[-0.004035050086975535,0.005428087208594943],[0.007005976438857295,0.0011308363267552215],[0.0002111051975467182,-0.017667009557358893],[0.005487612148935825,0.0192210276067966],[0.0020240559475347385,-0.006752759497884777],[0.02282809211364363,-0.02924728011713263],[0.0010712220269825834,-0.0006251516913147832],[0.005453034805746753,-0.008932818135169643],[0.002578013116026111,0.02172584910158922],[0.021443666850561115,0.006686134369703051],[-0.0018755127812293535,0.01412562928397024],[0.0005654969863569812,0.020665751326693578],[0.008041959679378879,0.008077588806682013],[-0.005498020245326922,-0.01418549495200032],[-0.016262691900921885,0.011056004332844566],[0.0005811911631660278,-0.0036557071569808695],[-0.024966608216698678,0.009814387250997234],[0.022686753536656473,-0.013064035424631828],[-0.0027459694276033377,0.012345881404783259],[0.002252917133572693,0.016421996039512256],[0.015197527566376955,-0.006504547054610916],[-0.012339459530604748,0.0074641926879192135],[0.017595149192335704,-0.019581160082268425],[-0.006040489864925885,0.0032882818912558873],[0.014860817513310812,-0.013167011414186674],[0.017804412530469656,0.003138739317896385],[0.0173211855051243,-0.004475947037459772],[-0.009367906979233351,0.02090083571146517],[-0.004479060403016692,0.0039034103673227173],[-0.0156351715654402,0.0006323176556746078],[0.0036759587872070556,-0.017688389378062795],[0.01213548533164077,-0.007006578109467375],[0.0010141785699755745,0.008188595874956163],[-0.00039494317977967295,0.018670956748429255],[0.0020239051779011794,0.02309871031159424],[-0.009233421687870988,0.0038770362586887006],[-0.003235606713225093,-0.004428623766596302]],[[-0.030524023374665338,-0.002513223906502525],[0.021901211109327835,-0.028546582225808432],[-0.027153235898453126,-0.00848530370287279],[0.027317765497244653,-0.002178580057296405],[0.0013040711825565675,0.005794106161763695],[0.014129303668209636,0.0009604365847385716],[0.02546976247994806,-0.014012872985620786],[0.011948881334220021,0.020881491821102542],[0.026753924841166583,0.031616059680074415],[0.025413077550024477,-0.03436863600899472],[0.042683464523721744,-0.00011900069619566814],[0.0033883508643240204,0.009043425286893909],[-0.00856887630051106,0.01568046048033619],[-9.007659850457806e-06,-0.01832293451318687],[-0.029367671833611053,0.05154125332785288],[0.024161158797626585,-0.02169408798114217],[0.036869990107508833,0.023579627615962113],[-9.757185021240858e-05,0.021752056256622992],[-0.06632017015732902,-0.0068372257761132454],[-0.02588564384641301,-0.02545833724839595],[0.0026451265825030313,0.011681661953256874],[0.009126945395832543,0.00921180290447766],[0.00014865254606776217,-0.02379425925402839],[0.03852030668640445,0.037677896817237364],[0.007887063190331892,0.007363973632575601],[0.008467004616242144,-0.00703531138085263],[0.021027942400734242,-0.023245296197539282],[-0.006020038766514712,-7.89916914176762e-05],[0.013559425885267646,0.002850723569382373],[-0.018720033627642227,0.011505625054704045],[0.016722075781826017,0.01634795216715853],[-0.008124705584882845,0.009983554572691154],[0.01849624015882513,0.0010362812871731837],[0.010346027505171764,-0.02197926576547537],[-0.005359313381748122,0.024874915799977554],[0.010661787194213335,0.005615765972984169],[0.0073958586392554055,0.02429824400996703],[0.035536925186504906,-0.0018494339013149011],[0.008179843597332342,0.002257596256168423],[0.023547731890711326,-0.003938102936681623],[0.006879350718020317,6.716222975544466e-05],[-0.02861226690765018,-0.024934998533215763],[0.05609747674461445,-0.004685573528033811],[0.007055596791525141,-0.02482820679326242],[0.0033990749819931927,0.000830963623795534],[0.01936028588762291,-0.003052033356003332],[-0.036487017640102745,0.022907580041308905],[-0.0011683383921669913,0.009269015071405822],[-0.03321818641072676,0.02818941892380364],[0.009058683240989861,0.00200693487580481]],[[0.0022137422025330627,0.00841326091437017],[0.013034608739265987,-0.02378326857108221],[0.019849324645479713,-0.016797420572530867],[-0.007367308937462819,-0.006487918221560622],[0.017197990574684463,0.028352943780665957],[-0.029621357910977864,0.026503202727885745],[-0.044390842451929355,-0.0005571596531374666],[-0.00397897731391747,0.003722679402646551],[-0.00903666809825428,0.026939912212271606],[0.008599568715200978,0.005437128992046786],[0.00387820583996306,0.0014779999609956242],[0.005478544609899328,-0.02201201209342028],[0.021669446674762664,0.03660128208658876],[0.00926506586094403,0.020167673414411398],[0.014900028970749782,0.02458496985903957],[-0.006334772282508286,-0.008668931080928196],[-0.013418602423534733,0.010692488479674613],[0.020279427650721087,0.027164039881100267],[0.037099625300728384,-0.009114333790697083],[-0.0014722542858020488,0.004556690923031157],[0.016544298685216806,-0.015864478361915027],[-0.03154240615743556,-0.008827570890691598],[0.01353468111482585,-0.01450756635502826],[-0.025948568208850907,0.021704389902820018],[-0.023720643644343706,0.019891799491364735],[0.004831985731277564,-0.026083004723245616],[-0.02172750738291463,-0.015330558169639054],[0.00602298009419576,0.03692314167054682],[-0.003976263009888419,0.006860965188019969],[0.011745480316491962,-0.003589794572465791],[0.0006871984382376358,0.018234991963447023],[0.024188933932532346,0.012180994616106486],[0.0023447044485211625,0.017215048720112085],[0.012796833905556314,-0.016387935410664207],[0.012767567272494427,0.0036942628202562442],[-0.0002933171469404955,0.006901972774610593],[-0.007135729751650298,-0.01023333366394311],[0.0020952626644678133,0.024847262689068565],[-0.024370560931540355,-0.015088792339269172],[0.015800753564542157,0.008447095104686367],[-0.020147570775801968,-0.0036331709575479192],[0.004272931815545326,-0.027516267920853158],[-0.005022456130335133,8.75438421980403e-05],[0.0029192459858091964,0.022106078501622838],[0.00887124255242398,-0.0024284089961369828],[0.010148241175478922,0.026150244005546042],[0.00102636439902923,0.005874951867190862],[-0.02032424247522309,-0.021223598681469395],[0.023818296054737308,0.04048529311107643],[0.014450235090978463,-0.007826391441562826]],[[-0.01816894948824095,0.007409093740715107],[0.007739163876800169,-0.013524719308432992],[0.005983405358342566,-0.024317903606201858],[0.009662226764215603,-0.0055702513431223075],[0.0045141608718244925,-0.0014684764767382875],[-0.0002582923055254758,0.01744930582996147],[-0.0013918675541603077,0.0014526276212998332],[0.008815824573897237,0.006252773921567565],[0.016665612612595523,-0.007106630283706427],[-0.01133416879542733,-0.008854075969723402],[0.010900118740430014,-0.005676089843275207],[-0.005079565793249978,-0.0010020097461852478],[-0.03139225243947821,-0.028323217648942967],[-0.015359360379108289,0.007448756665419248],[0.006521476529647141,0.0015583969486585207],[0.011354753284601112,0.02332873779629881],[0.018194609987936664,0.010869836383991782],[0.013640025413625096,-0.0027435060043271547],[-0.003748999665635526,-0.007477998590924572],[-0.025487713577756706,0.0017700741666061461],[-0.009576137879742184,-0.006589122080001829],[-0.0023817525437777047,0.008064038849156064],[-0.00733450142240172,0.010385432995733194],[0.027067047702715476,-0.017277724028650986],[0.013954067062894197,-0.009829931927141938],[0.012964512227484189,-0.004035643917619902],[0.00042111441574018034,0.0034793513084763416],[-0.0077754563676442606,-0.014970168652257266],[-0.0019159204881675465,0.00820897359525019],[0.004904864745554681,0.012688915623355623],[-0.013228641620100104,-0.01477679249552578],[-0.002072844230929084,0.014019667618469862],[0.024299771478027317,-0.0008650717601688274],[-0.010041744912887975,-0.02812871998472116],[-0.011376015145855798,-0.016075286398977998],[-0.014183461732236405,-0.008744761991685843],[0.0072571818329869395,-0.003356680349038488],[0.02443780081522948,0.024581141826032743],[0.008687798617488852,-0.048819912013533626],[-0.004924552187694868,0.02250314838457737],[-0.003439634837118525,-0.002838945211008222],[0.0009816067586809127,-0.0038950965422737006],[-0.002511627193137634,0.01751620688319817],[0.017803733123269414,0.0023130765868416506],[-0.010453470343273197,-0.015590425077412769],[0.004029396845887977,0.006245131394857819],[0.0011847412316864441,0.012151525423021007],[0.013819476192345718,-0.008424308393391994],[-0.0087089061082627,0.012336931552858782],[0.01684661552876571,0.01632707509702702]],[[-0.017349455683622582,-0.013929295953094953],[0.004145024108976928,-0.016561347974450392],[0.000824795120037955,-0.0018334189062247054],[-0.007940103115306293,-0.007621193646625172],[-0.018997086648261895,-0.007596500209220503],[-0.0020111921705546843,-0.012724099478612182],[-0.009423374943329864,-0.00160144745467844],[0.005597635203376711,-0.001671669405758895],[0.011756787748402721,0.01275213569957579],[0.004292749928421241,-0.0025555456782733214],[0.021629880141131708,-0.02547288645943463],[-0.01789874896712284,0.00490218417066709],[-0.009159374807225002,-0.01483747252191169],[-0.018107782760286073,0.0036387047308872942],[-0.008651890112493964,-0.01030596248539347],[-0.00899037406763312,-0.016745677302358205],[-0.014897492342726951,-0.006763755525293295],[-0.018092308526860622,-0.0186581635088703],[-0.017530507653878646,-0.020382756983963683],[0.0020574533410547464,0.023797269706160317],[-0.004397278751341968,0.0032100048527387934],[0.018922373863341262,0.002765989595678972],[-0.012657649443868395,0.01921122947725156],[0.007116210249695539,-0.012092760194895604],[-0.005514253765802171,0.001653139672226547],[0.005910467798567609,0.00372443192252276],[-0.004054770723391275,0.0032126185085216987],[-0.016200738910386304,-0.02869253397775072],[0.025455056893076203,-0.0033238424270702546],[-0.00594534284882979,0.009660180064332719],[-0.001833986797975043,-0.02419121380665525],[-0.009729112208481836,0.012233890285494535],[0.010446727869259056,0.005768402712809061],[-0.006569401364811649,-0.0030505648416270935],[-0.0031867104329684664,-6.716510157859677e-06],[0.014242513065001213,-0.0064401542357043935],[-0.011044387082284437,0.00530480403349212],[0.01316271598006149,-0.027903791889069184],[-0.0020604606803194623,0.018344600007994902],[0.009599530630629063,-0.007742148793226258],[-0.019649377810519394,0.01544787127946981],[-0.017584532765517184,0.004772557798751154],[0.02411676958602718,0.0032605849164281434],[-0.008473535320583519,-0.004713082960115505],[0.017470895387273134,0.004879423456758458],[-0.008982887832359905,-0.002635949942229145],[-0.005157977854109793,0.012232145054962578],[0.012296369951484275,-0.0015113000256035461],[-0.002778241312209443,0.0044902474740448894],[-0.011789403142228469,0.001548485437680422]],[[0.004618286713994607,0.006826458570787861],[-0.0011662563834997273,-0.014521575065423056],[-0.015569925005606774,0.0035421433653143077],[-0.006736674583279092,-0.003014023860745487],[-0.00910754753497781,0.00984593790832463],[-0.0037924300741218235,0.015003779712347363],[0.01984709520383722,-0.004999609223574319],[-0.01043376543078221,0.028523777592900566],[0.027058216397724086,0.01711208182091531],[-0.0026896872953911834,-0.01089554844201781],[-0.017592644682734606,-0.032776754239958225],[0.012847047667361831,-0.02312827305304028],[-0.015216642001168842,-0.005695509635441177],[0.016708389049798784,0.01153119916826389],[0.0066706007915751445,0.01837254207141606],[0.012686084857410664,0.0034486862433190527],[0.02958101824494464,-0.004803183984139622],[0.015539564997950549,-0.01843141872687123],[0.012158524981818953,-0.003010120563919764],[-0.014030247546004428,0.005241751836710591],[0.0032146165074156577,-0.0006247005626376064],[0.013417117863623497,-0.0004672988261161595],[0.0006006951046446589,-0.0005001727174868019],[-0.037773457750305425,0.01589594607541854],[0.02549556933683831,0.007899870520086841],[0.001152811259861078,-0.006408720752305695],[-0.027246676846981607,-0.004176675898568143],[-0.013176498333542775,-0.009469313546163587],[-0.008861870016025154,0.002833812028037525],[0.0316788486811687,0.022820873195187136],[-0.0010703370829738008,0.010083156364614225],[0.020418829020270632,0.009066488550697378],[-0.00564294473399269,0.021271317456439037],[0.012203261866663817,-0.02835475023354979],[0.06010690624667593,-0.012047166970883929],[0.017577777378260058,0.002623187696621309],[0.005237906497523514,0.025085080769931756],[-0.012045029741836088,-0.012816236497051093],[0.019600932750216283,-0.005131479885171495],[-0.0196573821788364,-0.020303141930872855],[0.02664692149088601,0.012892447157932838],[0.030600425147881135,-0.013439595383728308],[0.028078571478445204,-0.009181193676323666],[-0.030335036526851825,0.006267654679849269],[-0.027931617479157386,-0.0063878095021442],[0.01739402513508935,0.010672372940144966],[0.009451294068152632,0.025675072340592006],[0.008146978549989194,0.0018080506685991399],[-0.03235619193843103,0.017123079924358107],[0.03210477584819762,0.01584413956471261]],[[0.011571144279914708,-0.005514142674946184],[-0.006970106824529598,-0.004874186407655308],[0.002532338688084233,0.005297473174468563],[-0.0361312215630778,0.006382465740990283],[-0.0024568015284145523,0.009008437821001615],[0.008729276849421274,-0.0067843931850826295],[-0.010233280247701818,0.02611747899434683],[0.0006248167887340063,0.004924709005179349],[0.0012246964614162155,0.009019517634263178],[-0.0025878559603501623,-0.0056604389936418704],[-0.035626216722015824,-0.00651169421312609],[0.0045056715958625366,0.021575331364316757],[0.0048799833184492505,0.005599308685213022],[0.012967836207589949,0.008940222458635853],[0.026907089680681527,0.019259082490726873],[-0.006116127877198356,-0.0040690911762387],[-0.005654982168803531,0.024117704219104683],[0.004020205248473296,0.010801558035366705],[0.03691376497031429,-0.011528027865766309],[0.0032986062099129537,0.013517808872190881],[-0.008337591643586289,0.0040812516845893255],[0.0030693429490239524,-0.004936384028638725],[-0.0025887986243192307,-0.0030843991591956305],[-0.031263714880683045,0.007410607388403708],[0.021272637345161573,-0.010379752968095983],[-0.017220319830241547,-0.005604395865267756],[-0.0186771480226733,-0.01667437423871579],[0.018728159626084796,0.026836832835144285],[-0.021388920596919547,0.001987391761140272],[0.023617907169481554,-0.017193254747774864],[0.0055240633304810775,0.009362250540363997],[0.008779188455561129,0.006259151002356057],[-0.015663778852637738,0.02326627367914244],[0.008809833516784677,-0.008312318191437726],[0.03543890053782464,-0.016689664368474855],[-0.0017676194349108259,-0.028597029782719025],[-0.02237478576939397,0.005770491425858278],[-0.03790849224550395,0.0022454047022166857],[-0.024709442293798175,-0.00825132229485346],[-0.02720894229447754,0.02302682013474048],[-0.009551684256644023,0.023277184063646875],[0.02521103010212354,0.010255949753434326],[-0.01818030368574132,-0.010205359281366986],[-0.025760817446198323,-0.0031179100006483145],[-0.018709160827038517,-0.011056657250929856],[0.00968574059434647,0.013885433127075108],[0.02144095201240477,-0.009628337378059982],[0.0007286183341965939,0.003493976238875565],[0.013287727662985199,0.007978441255415778],[0.007181613839185177,0.006255151557508262]],[[0.021857124518896754,0.03087284611358896],[-0.02220083197521447,-0.018053516997246187],[0.02201804719138214,-0.008994689263833176],[-0.01771700810584742,0.008262446554679038],[0.006831706807667889,-0.00671684023606498],[0.0025519560852617974,-0.001143717803510775],[-0.028648297452773308,0.010975874915283578],[0.012889268011380498,0.020742904809759072],[-0.016005521510383418,0.01597043159809531],[-0.013904397297271399,-0.02708431710203888],[-0.018823077960970776,-0.005505473767184016],[0.0016500142341359936,0.020199518577655708],[0.01913322721765244,-0.01537339774962755],[0.012745087060912505,-0.003924261597079681],[0.019057980556909018,0.0029386694698251854],[-0.017305443964532215,-0.010746168633162665],[-0.030664361735244554,0.027602117937195456],[0.011792812727649524,0.01753843432529125],[0.06313893650324251,-0.0072613327509894465],[0.0035439915562406957,0.00802847341400686],[0.007198654182419632,-0.017585555825269158],[-0.014442832927004825,0.015304361125673249],[0.016345472672439507,-0.009272418274090977],[-0.008834374909505841,-0.013280701729024968],[-0.008199872237981395,-0.010784084077633633],[-0.017810950168676235,-0.005340967369215346],[0.0049205151754495614,-0.015987085455781574],[0.0245540932071217,-0.007592139636432258],[-0.010286555000698376,0.022519463593665457],[0.00472414103543441,0.026498703532999997],[0.0061425361481013555,0.019042719834277366],[0.011364097286490384,0.013960575482773711],[-0.003781258007175362,0.008764915660983348],[0.002886423801603708,-0.022889660024540848],[0.00785305574954643,9.980933756393098e-05],[-0.02100496157545348,0.008423929078837503],[0.0004110898659866959,0.02104856867270352],[-0.04003689835253894,-0.0018021096744413264],[-0.011130131798425275,-0.03280293528434863],[0.011463332761023948,0.015427110306573294],[-0.038550980404365914,0.015598824671866329],[0.03129140889622642,0.002523317336507622],[-0.03527965581148396,-0.001878190287393449],[-8.788535113898963e-05,0.014677457171309147],[0.0014416135139428275,-0.01686012601192183],[-0.001963367525731273,-0.009302670412998565],[0.003908281732222043,0.025093547035829],[-0.016546240824559848,0.01818792467193485],[0.025618299754241767,0.019095271123048492],[-0.009601224385743306,0.004502073442913717]],[[-0.024048833142019402,0.01029206910290414],[-0.0010141980176681118,-0.01357842046747763],[-0.011702894925149794,0.001276795804446053],[0.015031732213909178,0.01236137729304143],[0.018540775504379447,0.027909314584022342],[0.0033684622994849447,-0.01596146475133622],[0.008257362708086727,0.02076734400224934],[0.0042319981374894355,0.028990384524466964],[0.0033159904250481247,-0.0028377756254478644],[0.0027208654370794397,-0.010251329014455695],[0.04222268075615075,-0.00323882157034495],[0.020647591836785713,-0.001511752651564229],[0.0335287096527301,0.00097130939802611],[0.004748617082530439,-0.004633360277667026],[0.005863622901228838,0.01807532567427298],[-0.013487719028835474,-0.008453544984175266],[0.012567855575564982,0.0076743272481388305],[-0.012832231208295384,0.003195238295316751],[-0.04603898084050982,-0.004751414065249352],[-0.00929109691503164,-0.0001428046849826668],[-0.01918965580649312,-0.023259285972993014],[0.0027702663617618197,-0.004492101937767107],[-0.012553358655945316,0.025098008994504744],[-0.001527835801159982,0.0027602130975105214],[0.018008998304079253,-0.0028590187799998413],[0.02511256321639406,-0.014588449843012994],[-0.005120356700606019,-0.009715478570936215],[-0.007545788978402556,0.031409850086806065],[-0.012651165970603442,-0.010577535485135323],[-0.03593019465129602,0.011583996349745426],[0.00814957175218522,0.002229934716171152],[-0.008066076500924599,0.011944468951811883],[0.01428014568784269,0.0010287194366078807],[-0.01578383298218632,-0.02797580577957936],[-0.015264097850741808,0.004380326325787517],[0.031183130525726962,0.006697280769245289],[0.02007390726566176,0.01080850414224262],[0.006635885768006193,-0.013030423906307428],[0.0004528413879451437,-0.010057238568269636],[0.008940941323425732,-0.031574001630887534],[0.013771861096346994,-0.0035938754949568497],[0.0001666806881713426,-0.01148368487338154],[0.027476260944743675,0.0015450523484060084],[0.00567541359022065,0.008511978718013262],[0.003337767490452772,-0.008645144138000545],[-0.02352076089232697,0.002966656781720911],[-0.01824446872068676,0.00665276180894281],[0.00026501316430514754,-0.006600494190338545],[0.012916623059245055,0.012236208480919318],[0.006541437946463027,-0.0028840349074640277]],[[0.0008885338418665123,-0.0008800113381176912],[0.020137705726135106,-0.03677142794965481],[-0.002103794496929796,-0.013642193552535663],[0.020135227823069785,-0.007016511855785746],[-0.006237757659666459,0.01167652208882488],[0.03188634560402284,-0.0026809043381666006],[0.0211057764678641,0.01228439528387986],[0.007498329407249733,0.02031361234232372],[0.008810234570276786,0.0015958695691585222],[0.026286248594452725,-0.02394799450803345],[0.015719622551604844,-0.016425647327950182],[-0.0005616916111411433,-0.0024628349406248923],[-0.03228043228858946,0.009909746542103793],[-0.005419494738850604,-0.004435041222141189],[-0.027016235347604098,0.001987733747244004],[0.029070101675846217,-0.0135632182293927],[0.020165039685179766,0.025391131585171183],[-0.007758030420414195,0.01593437046423382],[-0.023489495198321088,-0.04251249755920782],[-0.030812411308218823,0.013291966034550795],[0.0026205306764447408,0.00019257752792655922],[0.008341110468810722,0.008197019024127618],[0.018231588468024924,0.03088224444379629],[0.01588513141760892,-0.004548701298329611],[0.0018128482860427873,0.024402341826420402],[-0.017612159157023317,0.0023574852640041557],[0.04389441533763354,-4.0522071438313465e-05],[-0.004505445289275595,0.009685262236963806],[0.028775677760678044,0.012367760505605894],[0.021252954622413004,0.021341847947820607],[0.013137466404055685,-0.004876837868646919],[-0.019592629534146193,0.014779047307074768],[-0.0006099977553934246,0.013216458788225777],[0.01992243503269788,-0.0014602706036179838],[0.006287769385137221,0.022155429378205128],[-0.02259785312828196,0.0012120788446563448],[-0.0034989692987036497,-0.00813759143931544],[0.006046094485369957,-0.00890824436886065],[0.005153727947163709,0.00020171788333417617],[-0.007771066433201805,-0.01949333146154555],[0.007052125528062754,0.017001277233945764],[0.0008930382060520041,-0.010381675555868868],[0.009178035077808063,0.01916187842454221],[0.006511029601837107,0.006864252531466909],[-0.006327504242458137,-0.00990445882379139],[0.020105877766618895,0.00041151224807321166],[-0.0007106877656905116,0.009621704411529134],[0.0015663312660313526,-0.007950802895763595],[-0.02841417841347602,0.011334320893617671],[-0.005756780759903006,0.006885796834584951]],[[0.027624367184836043,0.009869256343110328],[-0.014416911827948405,-0.020823924120177223],[0.01892497464507053,-0.006052756146078109],[-0.021401962809181274,0.0017468938884545437],[-0.0002046089121802658,0.02751001669857522],[-0.014794462887632892,0.014649179953303802],[0.0038865001702450388,-0.003411138474597508],[-0.010293134748443549,-0.01613331805347744],[-0.005174037834723947,0.03499907899903765],[-0.019058145006321487,-0.0014028233951443366],[-0.021610218691534108,0.007494304895130151],[0.01114181256675331,0.00882260306123327],[0.003872712956522393,0.018071097977791994],[-0.004932588720871607,0.026092636089568785],[0.04059645455971987,-0.022904659396003897],[-0.030940436987212744,-0.00828361377985939],[0.014726559244840898,0.008808565905178922],[0.015005506297688943,0.017087046263527618],[0.05306904783240263,0.0010592192496303747],[0.01749475912951448,-0.03388767341015647],[0.0014607230244687024,-0.0022316084419742675],[0.01970537765288108,0.007290327372079425],[0.004884223443886449,0.005441966023767783],[-0.040256119886657886,0.00717941308619959],[0.03569284452370375,-0.0055609355756143395],[-0.0021829425296528114,-1.4644737094367602e-05],[-0.01242867159951625,-0.012207100622652137],[-0.011052422993863689,0.015354338935351075],[-0.01296321874709638,0.008806048320289753],[0.009328978989027056,0.010679962695198822],[-0.0006580189464480586,-0.006295937369926664],[0.014878476297242387,0.02000782509851236],[-0.0008796865765312925,0.012507847379324439],[-0.033458792724029386,0.0063037193042205595],[0.04577031619629131,0.0025212511897865367],[0.008903191775772014,-0.010964130724708629],[0.009263439571674215,-0.006771844711632817],[-0.022274656950179328,-0.002150983325922246],[0.0027359014979005253,-0.00899471749137195],[-0.01166388758862855,0.020104986730183478],[0.02980026273935841,-0.01386974834586637],[0.04692514145143934,-0.019265732734708073],[-0.038157970663086814,-0.011269964352136052],[-0.035481383862668255,-0.012956134082382992],[-0.00909222936495611,0.022673345690450535],[-0.008804957321267275,-0.011900534456110135],[0.018826090487181833,-0.004383311127398704],[0.006656821037100103,-0.009062890849071203],[0.040565803260319167,-0.0010003459777077383],[0.029345523421009715,-0.0034535567059362634]],[[-0.014239461018371726,0.0037870205979944546],[-0.0016955645638171597,-0.022982101224816018],[0.0005948361964508968,-0.0087617497646745],[0.02238593056586624,-0.019845242946617058],[-0.0091378222114194,0.01348848585488034],[-0.0023476484268836256,-0.0024298318917071373],[-0.006447566659917421,-0.00737612332411919],[0.016939454187847914,0.005587889670376106],[-0.002103117912779977,0.019045362458797083],[0.001759894180458581,-0.02324936753708177],[0.028014943805817025,-0.003479969692027847],[-0.008182417249861424,0.0023273377773606607],[-0.028334436958885843,0.003985525033568997],[-0.014192573392123362,-0.009969211548680641],[-0.018928699854542187,0.015381735975572712],[-0.004327224804192476,-0.021372453665711746],[0.020756862443323847,0.016869073071965016],[0.007075982397833223,0.002881682706650082],[-0.026854215309916704,0.007395806147301422],[0.014935959539017513,0.004366050807932426],[0.005538620241912606,-0.011310579301449068],[-0.01232306213557368,-0.020858613505992062],[0.002978167045379323,-0.0006333109779571233],[0.028748333282543805,0.018003267161779718],[-0.013605892272611827,0.02365106451773187],[0.009748157046542607,-0.018656861390838917],[0.016565146605122635,-0.005319521325331934],[0.014190636517451694,-0.019675222157659215],[0.043156118515725775,0.007957734605844749],[0.016128755783315657,-0.0040713761743074416],[-0.006006826476774157,0.0253753861854054],[-0.007157643751882196,0.004483988580748891],[0.013055204330725434,0.014074233956986267],[0.0028723463331446347,-0.028526307123930637],[-0.015554539563309672,-0.006202159552425306],[-0.015719689005735647,0.014892691654184319],[0.000940806940158697,0.006816809165249708],[0.02641308265528556,0.012645332924031884],[0.001999487086566657,-0.0028543214261667477],[-0.009799455938052981,-0.004068343593505973],[-0.015402625218424707,0.006545731765288128],[-0.029145182949232386,-0.009211107076583515],[0.03548094946516136,-0.0015083100561270931],[0.007386043839319758,0.01786042418905849],[0.008034405156966379,-0.015065765894433363],[0.021485641275305292,0.006438982708820239],[-0.013255586998400636,-0.007997605725616353],[0.016839345080042166,-0.0018028955121745852],[-0.037794025870038904,0.010941732201660729],[-0.012250174278162102,-0.001287539000804846]],[[0.009311676062657164,-0.019758804366530686],[-0.0012742875269767555,0.008388301128109706],[0.02068398982201032,-0.0045052871545593785],[-0.008829399786233259,-0.008895554534992453],[0.02902080069644521,-0.012108733815594543],[-0.017619619692830032,-0.01551192060455777],[-0.03470162120795372,0.0063237344375580585],[-0.011080945953109041,0.01906604816269091],[-0.017257200843070856,-0.015050576396342904],[-0.023861893250254687,0.006245066455219696],[-0.014909750672592597,-0.006402787877026157],[0.004718151498359607,0.00680789333470975],[0.04722327874206047,0.0026981010942170986],[0.005331208202653408,-0.01658479834290089],[0.033320183773874745,0.012014740466556637],[-0.0075952401578669925,-0.027296342833015474],[-0.009649115606531759,0.008829620606097599],[0.011532743589202452,0.009268036327875567],[0.031605865351794285,-0.01970010411443593],[-0.003692628100502569,-0.02265639634052493],[-0.0037092364473076352,-0.0012355652218722054],[-0.011376710195890441,-0.020400017278108598],[-0.00287799407726022,0.0013665685363441744],[-0.022046926525476643,0.02252823766112129],[-0.011125368975555225,-0.014444599962476077],[0.008963887327348312,0.002070989402497134],[-0.03521002432739461,-0.013204537552652894],[0.012730014396122534,0.01147142713454177],[-0.03540034363188903,-0.010007885406828636],[-0.010678410469700628,0.01692056436963963],[0.006239671777249063,0.0043807992031907345],[0.027731377962418462,-0.0124448935462146],[0.012722561577161617,0.004631688888829836],[0.008110336500983296,-0.028213287387009362],[0.010489238947585793,0.015449435246039957],[0.01046862158535038,0.0196832319526519],[-0.012070207302478117,0.03307882450947864],[-0.015525854709540385,-0.017314907557954982],[-0.008432716152252513,0.021417659165490457],[0.005847065556129661,-0.022521382959599285],[-0.012352437786208465,0.015172108509809193],[0.01974696098365436,0.017869071587337994],[-0.03810004981222596,-0.006171566008439017],[-0.01316016585634489,-0.0020838521574791788],[0.010729286195886424,-0.008507615858366846],[-0.018395358535747936,-0.019439397577884727],[0.007879029402697042,0.011355838722043633],[-0.014253995544047809,-0.007223247112183745],[0.023538954340195487,-0.014956779959612372],[-0.007543285941379225,-0.0017626990544733889]],[[-0.007512849949367156,0.012030319868107254],[0.011917031543673101,-0.001932637630515363],[-0.019015026652811975,-0.005903341439344634],[-0.0019789515282129747,-0.00424342654245686],[-0.01976550421258698,0.013883820127913067],[-0.004801756745442276,0.017782222751196355],[0.007417272576481903,-0.011809728645583537],[-0.012334430520190825,0.0021622148577678663],[0.025978003751713455,-0.008211664589079126],[0.0023371246300086337,0.002083160799738676],[0.007534070738258878,0.009017251713605191],[-0.012417414345175595,0.012347458703270068],[-0.02100722292544477,-0.009092452748275123],[-0.0002662475611905609,0.01102131068763893],[-0.03526139628477601,-0.012178074940460536],[0.016968858270872703,-0.026467650258969338],[-0.012046605280361727,-0.010254341772295322],[-0.012274297694023982,-0.01712714648192614],[-0.030524740923855907,-0.009642445429297096],[0.008585613768710112,0.0002846710496543811],[0.012140789726349356,-0.0007773283275174024],[0.01846248945412094,-0.007746403225334984],[-0.012045698110417422,0.003549211136248835],[0.019401518139661438,0.005693411707589869],[-0.0023594979389375565,-0.017512816116713917],[0.012529745989915594,0.00989478948098653],[0.013903379432458316,-0.017168835898675187],[-0.025351057639960303,-0.0014336986439726848],[0.028892421973037017,-0.03140769610720043],[-0.003931228117111423,0.0003068540652234014],[-0.016564489363085806,-0.00088589701666115],[0.0015368678834179845,-0.0062848381075920855],[0.014270088884562458,-0.007735978587346827],[0.0021105233621027323,0.012542956550841982],[-0.016075308919012692,0.01300222157088119],[-0.004031532710701963,-0.0030517937302940836],[-0.004312617694168307,-0.013933539009597805],[0.0017399468261009728,0.005233889834007317],[0.014129120495193388,-0.01577065313370138],[0.0036931913906683126,0.007323646517990182],[0.02590154447348274,-0.025945752003317724],[-0.005668902099593561,-0.005824809333407911],[0.010373786620762352,0.011773220944117972],[0.0035064331494797374,0.0008201129836338467],[-0.0031055639229116746,0.016935858875737606],[0.019792192868223448,0.004049971918994642],[-0.009492680197000973,0.0014576193759662536],[0.010547372591283325,-0.008504484966357728],[-0.015631298249859593,0.011046380391928193],[-0.00284601583976228,0.0024789363798867923]],[[-0.0007396564991318528,-0.003033382527282009],[0.00852558240889054,-0.01856591227093087],[0.011567074456573805,0.008296746874083863],[-0.005205574833166193,0.006631772350253577],[-0.006345486542267872,0.021523700212882173],[0.02237137750146056,0.007823426190561098],[-0.00040324969842332314,-0.002062474879525755],[0.009334404428668548,0.004106033846870947],[0.004635569521823442,0.025270506543081106],[-0.01141661595260424,-0.027210005764220307],[-0.007188894359496761,-0.03191554628065537],[0.007807280725670588,0.010949737391863244],[0.025871494560941257,-0.00577734971162865],[0.012597746476055847,-0.008399935015425377],[-0.009308041698463068,0.019474137472552177],[0.009267031885310376,-0.0029921739241969792],[-0.011524650530068735,0.008580431572144713],[-0.009139982609348481,-0.007304926638138515],[-0.01769352891009681,-0.011439574274408802],[0.02018320778520401,0.00457991093970064],[-0.0048078527833378595,0.0031628676206798354],[0.01683568034727816,0.003129481454083354],[-0.006531839910964655,-0.007060149046663574],[-0.022672254999038906,-0.0041509469594154],[0.007366279781592165,0.018149972842105573],[0.006845830858470349,-0.004979321234868665],[-0.005850036698630892,-0.0046938501344902265],[-0.015024430294274978,-0.01622021850752986],[0.002214089150393291,0.013572972521183826],[-0.03180163569231885,-0.02176084340911481],[-0.014497007554575345,0.018721428773553372],[6.926481428990404e-05,0.02941491337056887],[0.002445040738580799,0.002911062275949966],[-0.011202408874247801,-0.02016617225382662],[-0.019581758986516096,-0.007913503394468082],[0.007693210721803033,-0.022248201204311216],[0.022173712405197228,-0.006065551768182945],[0.005941624745258535,0.005220106400318062],[0.009083781775561838,-0.03542492955494366],[0.002948643676714621,0.01909553366986573],[0.02621854082116054,-0.009920722194541437],[-0.004828872877240728,-0.0018178730875269323],[0.0026928303543444186,0.01222647582572909],[-0.010450002656069922,0.005778630107996823],[0.006862492351376285,0.008648321112082965],[-0.014271959261778185,0.008372499051481911],[-0.008502767117532749,-0.00759772246132228],[-0.00895868862664452,0.01590453315952491],[0.002009710423135065,0.030790795758401813],[0.0027621510439409065,-0.0024782015377226877]],[[0.004259753212286525,-0.0017944632352052247],[0.02034250400896114,-0.0058853921506674825],[-0.006287801846449793,0.01249979868589039],[0.010682918454413775,-0.007105433075730306],[-0.003202232540090102,-0.013437253529205627],[-0.015556931029230529,0.011281741131470971],[0.012698855638348541,-0.024193157385602106],[0.013587067566057412,0.005266069180632618],[0.014133244531171669,0.009423082021341407],[0.005536229430649046,-0.01734193711086651],[0.014847422118384242,-0.017239700686569534],[0.00344151756868101,-0.010918544688940008],[0.0011223170023450775,-0.0049731430777537056],[-0.014242976125197164,-0.02061728448943071],[-0.013069467620977472,0.00949991659285641],[0.028292110219923092,0.017014786184815497],[0.01257649125003039,0.005290916996524486],[-0.008287560994841237,-0.011402893111127466],[-0.028408962302782052,0.002662503212312488],[0.007185607177431377,-0.0018264122063028129],[0.007268106818920166,-0.018226639658038807],[-0.023057553838034504,-0.0007005596881713605],[-0.010236697884599903,0.017994033643371484],[0.018222865845013002,-0.021518900457832724],[-0.003390809688217158,-0.005117006749007607],[0.031693934964709146,-0.007521600854696024],[-0.0027466266538963206,0.010063175785580664],[-0.011622670951805334,-0.028960580410512558],[0.04517013683025367,0.003627039687765375],[-0.002549859396329438,-0.002208657540765902],[-0.00018248622459249915,0.0067270561825030824],[-0.009624874372219578,0.012950937851590181],[0.019177783684977086,0.003929645641957078],[-0.0005991834650470023,-0.006395645134268166],[-0.004043361880322037,-0.005597597728103837],[-0.028529540681376715,-0.01358665553848927],[0.011375510754406685,0.012279070352248529],[0.02905766093394152,-0.006420527365083707],[0.01545974790079144,-0.0039047757502038254],[0.017195133168394897,-0.0035477179868067497],[0.00537495534816435,-0.011771593473726197],[0.00046048546397669046,0.015186883336830059],[0.004780747949442176,-0.009276410163099913],[0.0029298919612807126,-0.002182103046531434],[0.008928475174998831,0.01628214675827997],[0.005655045671604064,-0.008323472892429157],[-0.025395869433874625,-0.014995899236651724],[0.015464574684341176,0.0014044003949041145],[-0.01249656895243465,-0.010920950339129645],[0.000394288086644816,-0.006152656403553074]],[[0.010983612126803927,0.015201979096055453],[-0.02632386197433313,0.0022020318390538],[0.03650145057692259,-0.004372642704440556],[-0.016464072507394713,-0.010559654256351842],[0.018065728654494996,-0.004604980302772005],[-0.014716925813780889,-0.01244468107464124],[-0.0404744855463735,0.005392219328545154],[0.002861596446239862,-0.011222419581549816],[-0.00681135305576554,0.006795783212950076],[0.0021093214948216463,-0.016051167702019295],[-0.054666646093508214,0.013299396228477776],[0.023052048441217624,0.028648859744040703],[0.031060990474605393,-0.01967368855022662],[0.010668938951085165,-0.014316661654519999],[0.03340968718615503,0.0005291008834601603],[-0.01455542159951503,-0.014698172278933263],[-0.03508300257481073,0.007513910201693665],[0.0268677529764181,0.008928248798478351],[0.09198421794204087,0.011569248364205767],[-0.018310759236028963,0.016261806018680252],[0.011252383155153775,0.0023953499901232],[-0.01722094988220291,0.009173874259684085],[0.0062227281851776044,0.025347400779581836],[-0.0539161307186342,0.005273176810307265],[-0.0013323277926757821,0.0009250467488842295],[-0.007401690890298823,0.002230404770350202],[-0.030790184555349678,0.007041726460173954],[0.02848279490161729,-0.008923411346986963],[-0.0538726668952286,-0.013188668619919137],[0.015588937933087275,0.02495337844904572],[-0.009133805609545156,-0.018203137918851604],[0.017435702723535996,-0.006332231039165691],[-0.013781051059909753,-0.003181932505112418],[-0.005120055772768056,0.01123379092697922],[0.022668753660210074,-0.0008137883594929603],[0.012008608432508462,-0.0032107631137828843],[0.005130950155326809,-0.003951810615545703],[-0.05810538006765207,0.00565651599623241],[-0.010096741801863247,0.01373156948618472],[-0.020403490633271806,0.00718595917662487],[-0.003688798503508773,0.016168223733588585],[0.03628214901396546,0.009405342598551253],[-0.04847044946705327,0.0026960875234380345],[-0.003115452029338623,-0.01274516933491589],[-0.022171809744365452,-0.006245355257278282],[-0.002206826332688242,0.01741498559302681],[0.027945801860328103,-0.006301011143629876],[-0.031061008886343774,-0.0014182444578210857],[0.03461955139008264,-0.0005923124137389695],[-0.008635946520398835,0.0009326173934836449]],[[0.015439985888024636,-0.0058378993134898085],[0.0032070215109431858,-0.004196186269401674],[-0.0027270892591390555,-0.008004191194164604],[-0.006284868023699966,0.009903217442443879],[-0.00995261923747476,0.010899720782607045],[0.005918603604765569,-0.007285122803305578],[0.02212429927719239,0.013113594383437168],[-0.01179203758573617,0.00512622120729149],[0.006497679452545707,-0.009158390361222603],[0.00040435108009458706,-0.006044897092847189],[-0.01387250946827973,-0.012227359047589956],[0.007410630109771863,-0.01533954025296174],[-0.004367021515109099,0.005608474727951989],[-0.001289301100195992,0.013857500893527594],[0.030842112001552863,-0.0038402100473296564],[0.0038732206549172673,-0.018028589391865666],[0.004769804437270674,0.015241952004070865],[0.00011401363739580849,0.0002084959673979976],[0.020248188952875036,0.006451299068200687],[0.009772820553513905,-0.011526581901262437],[-0.02077919028673272,-0.007222824395056018],[0.014943265499936385,-0.012182008189697653],[-0.002747150664469857,0.01259324768336499],[-0.011900877009175,0.01708319331487947],[0.022155503287893813,0.0002520322323178899],[-0.01413655413632506,-0.017132289696388487],[-0.02134180296413083,-0.012339930788163476],[-0.018530250431478733,0.01683041908672454],[-0.025804102823942555,-0.009324424750395124],[0.003031731075248526,-0.0041379985334716405],[0.008320219789606106,0.005941172853381221],[-9.080128575537113e-05,0.007894017510089784],[0.003610582335890125,-0.005358803173810357],[-0.0024676618563522885,0.006492093417845837],[0.017242135827701954,-0.013736169171160648],[0.024558653826926256,0.008079747101282439],[-0.0019251657579818678,-0.005147361451659048],[-0.008583515805650714,0.02281437878964912],[0.008091594664709595,-0.022465951946524124],[0.0027852839940728817,0.023766232104389495],[0.008041180056140091,-0.00538391503143527],[0.02441721218173663,-0.006491743276818146],[-0.0026118415651298554,0.0025008160704342347],[-0.03300132754903471,-0.010718725499472639],[-0.013804350494655757,-0.020731969961005518],[-0.019170228215918884,-0.008869475391341858],[0.0046600998103025065,0.022289672853363154],[0.014381554459962646,-0.008634259089802207],[0.010068911444058255,0.01800487277878064],[0.007225126589289078,0.0029517898647789106]],[[0.005174294260377562,0.017973733554411144],[-2.6212248773606166e-05,-0.028564373735713283],[0.02505610505147619,-0.017931260385163364],[-0.038045954238177526,-0.012712187651762371],[0.006520058068402839,0.006512904532848588],[0.0003819550965675385,-0.0015458764660950975],[-0.005702338445904815,-0.015991198576125513],[-0.023324069181171782,0.009119120594864388],[-0.009224000429296067,0.027140135673809226],[-0.026926535602335093,-0.009247422894609215],[-0.03602676641674833,-0.0031289205263182046],[0.0017123460327940622,-0.005487492390997319],[0.023781119141679095,-0.01301148556379128],[0.013492991867037169,-0.018484385135800786],[0.03862448144753086,0.017778967887374007],[-0.04730945559985187,-0.017376286198084553],[-0.004485770869769895,0.015431117971882728],[0.021875140389455677,0.004559421645244536],[0.050188917829825874,-0.01011854688278823],[0.00559420409390728,-0.006015095847106642],[-0.015808177748513473,-0.01432508378021365],[0.006790638668123093,0.010421041143473812],[0.005118263078653234,-0.006467957485669555],[-0.06982484189040974,0.028854042457853096],[0.01912490755220947,0.009081455874678478],[-0.014169249696193403,-0.005731883038414538],[-0.03575077703155301,0.013842238310550814],[-0.012082273459760496,0.018686375698500172],[-0.03359302809634132,-0.012275296053637526],[0.022755075759534095,0.018729549307942583],[-0.0012530107069709973,0.03417765378638924],[0.01552875025063253,0.0031096136074026393],[0.00862549480543398,0.027616451486910353],[-0.029575807232607058,-0.03450286694980456],[0.05811334201180167,-0.005493681218381586],[0.008393881881526268,0.03215609069039749],[-0.004662967766125854,0.008604902267825355],[-0.031246502873090286,0.007046381931441947],[-0.003281784836076564,-0.006051456164381861],[-0.024920753380684744,-0.020495778341832124],[0.036478194717839314,-0.01579943582359961],[0.036420200933145894,0.0008637156320823072],[-0.006813643932653896,0.002220880579411389],[-0.04951250658538309,0.0021175262024749515],[-0.031104103722713994,-0.00707037555514704],[-0.015561760067145864,0.003101408327926715],[0.021006363261358733,0.007059717615071346],[0.0020496310333289226,0.005781361790446141],[0.02386922732613636,0.025685445323736227],[0.04542165095977221,-0.014983123228873874]],[[0.018790032342931865,-0.0023122370718676585],[-0.011705255406708706,-0.023325599822188518],[0.006746502349309251,-0.01514217927298624],[0.03368194778467125,-0.01682629975948385],[-0.018971522756891915,-0.007861936070333187],[-0.016361364929089257,0.016848972538919316],[0.016132671547556907,0.0017810730559108849],[0.022257633216061674,-0.0018602857453236983],[-0.00960582165788319,0.019037654755706387],[-0.0016549088960735934,-0.0007140090676153706],[0.03475285628540031,-0.0005907377534514011],[-0.01031871340218882,0.012190170711481785],[-0.031980558324506414,-0.0009444662561794526],[-0.020219873460199274,0.016050241125918772],[-0.004591241132530073,0.028635455002680693],[0.008818066625515176,0.0016026461258759849],[-0.0009946734908873956,0.02893422999079461],[-0.034095164974804554,0.007377639531851815],[-0.02451062461613867,-0.004713067931998531],[-0.00038697192381466393,0.010164030236016433],[0.005311498944605911,-0.009631554960029086],[-0.008638639772313156,0.00039952274257228234],[-0.007395723528816246,0.007604467715350996],[0.061989746003387386,0.020807207662579992],[-0.005648374615912487,0.01673187271822621],[0.011046432001042234,-0.0001794525363191116],[0.02704705356612349,-0.0023309326122489924],[-0.005197589611721466,0.020583921646521924],[0.013423343957887642,-0.016495994025196168],[-0.008222848549098456,0.018067447095316033],[-0.001738001461626431,-0.018236940145526903],[-0.015015641180772792,0.007713177950660921],[-0.0031444983110664486,0.014297850265789386],[-0.006839563070284601,-0.023563691217119227],[-0.023790961221904817,0.0005651881918269369],[-0.01078330409397352,-0.004369867795385802],[0.001975090207913462,-0.0073991756681227],[0.011673270951205118,0.026808664554677914],[0.018606649606400735,0.005359339338601351],[0.029820024893306016,-0.005663030115254639],[-0.03564008541895041,0.0071611838670554194],[-0.02222998601189546,0.022772699549993464],[0.0015157253300446582,0.007286083981097347],[0.026286442160216087,-0.008981398808043094],[0.03146675980416782,-0.02177641964791239],[-0.009797411053350902,0.0028094499612378895],[0.0025677243341374932,0.014540094835338569],[0.00994781040301834,-0.008789373935843387],[0.00013876234862905137,0.01236764672161422],[-0.025795114510857475,0.0007970880072380522]],[[-0.018783217550430643,-0.00842203964095475],[0.011477713421374745,-0.010249507612201211],[-0.037447154218474624,-0.011396258441157004],[0.03083714744427645,-0.019605459831845987],[-0.015226984077253005,0.014443534057995635],[-0.006705511158641887,0.014689521211521119],[0.021432331038839708,-0.0036738071291378188],[0.012041952490725344,2.958909488395573e-05],[-0.008692398468903942,0.00879439120007122],[0.013917580237345585,-0.013162122291597826],[0.046493191021883776,-0.017029675740914615],[-0.01912571074050582,0.008152873356264273],[0.000577093461646425,0.006419137219688141],[-0.022399375577128587,-0.014921700229702283],[-0.03154322053425679,-0.004408550970444003],[0.024444975310803963,-0.01215350450817736],[0.01467838200549136,0.01816228717074338],[-0.03331381704945789,0.004112149287427399],[-0.08924931124838259,-0.004316454976883463],[0.009237269777863783,0.010120971646095238],[0.0065947700941284436,-0.0010792774640946438],[-0.010516607774704548,0.02256919680029622],[-0.0058776569884412995,0.031054771563568548],[0.057009649674842275,-0.007102755678896759],[-0.030794603686043576,0.00025858116407941317],[0.031658688919592795,0.012915678941715344],[0.0038738857647027027,0.003715756534964232],[-0.00993007950184438,0.002659610828056736],[0.04634589795064787,-0.00930129932443488],[-0.005715027541332179,0.025142443591009353],[0.015176206354020783,-0.006706904361804307],[-0.011829585590489704,0.02172644013672245],[-0.006385277144352609,0.005844327050734885],[0.02922606999239355,-0.01359762043782035],[-0.015274717174182672,0.004479195638972575],[-0.024852689274734194,0.012080879060599852],[0.0059853890936049795,-0.017298003662433024],[0.048194900954888514,-0.0173784484578974],[-0.002244689344904723,-0.01440652375280653],[0.032102834027743124,0.010292919104863893],[-0.014087104357928367,0.005920977708746789],[-0.05441392994885858,0.013521229750938503],[0.05724262974995026,0.005074927019980716],[0.027626162035309657,-0.007508157943576378],[0.02373318561294248,0.007579233187037062],[0.015402992987065132,0.011725628906225312],[-0.03638261305548812,0.013042139979957585],[0.026372813827056477,-0.013879063355400954],[-0.04446785471725775,0.024026363187633713],[-0.020360011415918953,0.01491366114297071]],[[0.004468994378300112,-0.007735737096847694],[-0.0067297645969001535,0.013966829964567261],[-0.0005966955993104931,0.006246937502260569],[0.027405836027042087,0.02903398769796071],[0.0029484711078599825,-0.006187591604440673],[0.005991590095067647,0.018277776487358573],[-0.00862249078184154,-0.0005183963963414397],[0.009597903848340611,0.021577323327872863],[0.0003053481853916304,-0.020745011576424305],[0.009187692036372073,0.0031390002688998827],[0.015133228142190666,-0.0015707252963473414],[0.0021650478628463315,0.0018193785251976245],[0.017467665647825082,-0.01475170014205184],[-0.023016059784129288,0.008532956096367068],[-0.02517396851201168,8.831328326841352e-05],[0.0014836314442149409,-0.006957081380195352],[-0.007619887371333669,0.0035262969062603913],[-0.017041635932474167,-0.0003256207098049453],[-0.030734452325346624,0.010182994706977117],[0.01692438525515078,-0.02371587777650141],[0.018708481196994947,0.017057358388207267],[-0.010680099604868447,-0.006068076544955172],[-0.006872273856139515,0.015117268810137132],[-0.0007277527202021756,0.021671358718236645],[-0.024953907626014276,-0.024478229380520494],[0.031976835370637766,-0.001870094019709501],[0.008763775419842372,-0.01907155897491445],[5.655353486929684e-05,0.011312507653692107],[0.039733452799396975,-0.0038712697074417776],[0.005159201631323538,0.0008770187939729716],[-0.0011755658139495809,-0.0015821235066245491],[-0.004628092248252559,-0.031078574587941686],[-0.016929400374787292,0.00588279774900336],[-0.006098887446495437,-0.00635161114859892],[-0.023232481005345952,0.002088758375773145],[-0.007362838967159119,0.00984352045233353],[0.007669322993033602,0.016822555029373368],[0.004350726909273557,0.006192136393662577],[0.005208828280992254,0.0019085156733289624],[0.01987707297162396,0.01253164561265163],[0.004157370668803003,0.016707094274384063],[-0.03620148760468975,0.030135994718619007],[0.03398485190081106,0.014267919138280048],[0.006215886274245827,0.014727638551827687],[0.01969498282395892,0.0044772339318397015],[0.008329460159195981,0.020710792370379615],[-0.031041838215308065,-0.017762661739775677],[-0.007876019637395742,0.012224014415669962],[-0.009467206432916464,-0.009607480463210723],[-0.01796176400456938,0.01975940790111923]],[[0.006563509509617363,-0.0039759607432200425],[-0.004113241296890175,-0.003771122223349877],[0.0013725214292930957,0.017405496972092163],[0.021664943657730855,-0.0014815201830360109],[-0.0007426086479335888,0.02339294723173871],[0.002796772899470207,-0.018121883299928955],[-0.02601289992395881,-0.006112952436623144],[0.01360478839665953,0.020320061109206613],[-0.017170553243832445,0.011743164865021456],[0.0004618121863844064,0.006992539896406142],[0.027484137458837286,-0.009182509795123065],[-0.003008675475480172,-0.01242903367962923],[-0.017013413038126018,0.010555525618032567],[-0.005853531793237979,-0.0007624467456841481],[-0.035157153454696256,0.014013432893130966],[0.0017831200107136522,0.006346090509756087],[-0.012733929889879581,-0.004207670983432896],[-0.0015109599203496525,-0.004485153054468677],[0.0038024275602010103,-0.0019045263787529946],[0.0054812105804594264,0.005452616250472076],[0.01608552007481623,-0.006749987521359789],[0.006397304548757774,0.01757298846207401],[0.013601586878088129,-0.012174850189843975],[0.018603201856096024,0.031612416978109785],[-0.026291420847372744,-0.007239612942686912],[0.005801246415809504,0.00994301166891804],[0.02144226949585762,0.002626256217885437],[0.016150916511339417,0.0248255204155615],[0.04101341126773178,-0.011812225642543223],[0.01649850961755072,0.012369585018643516],[-0.02336603428599249,0.01489078804007727],[-0.009929913368532137,0.021255440626975278],[-0.005303749179382531,0.008122060522053618],[0.0017058817701118343,-0.019242659139076895],[-0.03921682704720964,-0.00906149347884911],[-0.02402732799408587,-0.003285724789877837],[-0.009033714173622498,0.009982804971044455],[0.004561443441237347,-0.019525235729150155],[-0.01239328701886945,-0.009754132406667868],[0.008774523563805314,-0.010231207097522533],[-0.02292303174505772,-0.020764266971568173],[-0.027422836504223662,-0.016208287567424918],[-0.014575319156307526,8.604943457130726e-05],[0.02717083816050906,-0.00599677504876437],[0.005088495609201843,-0.004035323833388197],[0.00715405342435936,-0.020695137411509353],[-0.008945477515512041,0.006165084327582894],[-0.020401097022646128,0.031044695666230027],[-0.009057434511103971,0.030557120574340076],[-0.020925800685362525,-0.006413830616296018]],[[0.0002722791847954664,0.00473239102771994],[-0.004381740712076414,-0.020953293905023037],[0.028076748613946375,0.007183051501735563],[-0.013104910271878144,-0.02110771614645814],[0.014560026060533382,-0.003561226097750364],[-0.011284442784799006,0.008544285488053725],[-0.02496301094025043,-0.010443462347342749],[-0.01391026938706241,0.0014192326180748152],[-0.005073963728076109,-0.0019433068749148328],[-0.01631752359371509,-0.011724027738537438],[-0.00503069579869975,-0.016552935960347466],[0.01648886156485762,0.026284002404884717],[0.020972296495555407,0.010978148339926965],[0.0012505065347982302,0.020656907849700857],[0.02047774575098605,0.01083688797484089],[-0.016066804099253658,-0.000940624173485824],[0.0027769320283605866,0.04428187729944377],[0.02359448684832208,0.014508886290978204],[0.03325640415977705,-0.0053324555139766874],[-0.024863162760984894,0.021493231660188968],[-0.006001965444560861,-0.016765824127712645],[0.006458859212678101,-1.049538424560811e-05],[-0.011370446582143305,-0.010850935248396998],[-0.0451298532601322,