{"Layers":[{"Bias":[[-0.10745864984222524,0.05722749468525082]],"InputChannels":1,"Inputs":16,"Kernels":[[[0.02764914962898313,0.044398663575967855]],[[0.17500721739787983,0.1360334084257369]],[[0.11144709395130481,-0.45508027864165224]],[[0.04565007426714872,-0.13788144159112065]],[[-0.20566165838127798,0.026364223066503267]],[[-0.05288329196299647,-0.061546523760612176]],[[-0.026484975543793112,0.13428364047882277]],[[-0.0596979505643228,0.328769479178868]],[[0.09572850743390485,0.11153131223649666]]],"Name":"Convolutional","OutputChannels":1,"Outputs":16,"UseBias":true},{"Bias":[[-0.10245955538802669,0.06142254159998847],[0.02547261712850296,0.03210445911494397],[0.12210041647719576,0.11026454030914176],[-0.02751835227130872,-0.3449751139924831],[-0.018082242729380704,-0.11893718472396227],[-0.15141815444214554,0.020797541018202904],[-0.014321833303541396,-0.05725684819152575],[-0.0488090527053266,0.1129650014959289],[-0.05218207245715326,0.18457645780727136],[0.09056022664281614,0.12601874767040752],[0.25212784797614013,0.14098898486544312],[-0.13995263588031417,-0.001445564658507817],[0.0779477582198817,0.08222066886823162],[0.07166771795425793,0.15161903270627985],[0.012221059104109306,0.05327471154413443],[0.03629622745034292,-0.1072534155939713]],"Inputs":16,"Name":"FullyConnected","Outputs":16,"UseBias":true,"Weight":[[[0.13489459307654386,-0.02560186139097358],[0.08627854620638897,-0.14588222219165106],[0.013693063155218678,0.07839854263175641],[-0.08552303768367048,0.07853684888457467],[-0.14199504649736194,-0.05646797256770799],[0.09926197268227602,-0.06600087461665716],[0.12403467002008008,0.1517211668647962],[0.06115655738988751,0.30417737825030816],[0.03618630147951932,-0.038660972732589824],[0.054559402937429544,0.010080706608980333],[-0.10237398308447279,0.04108582843690951],[-0.11257610738921048,0.06332874131484874],[-0.05514525412475612,0.15239030950295995],[0.07749663675178099,-0.203877975978101],[0.05507864914728387,-0.02740149734577578],[-0.0645202313294593,-0.18856049221198679]],[[0.2131816532834146,0.05612697461315645],[-0.08737334128464977,0.10109911926383296],[-0.031551688285684235,-0.10803314389037266],[-0.09779230115424242,-0.13118146334688716],[0.12990324320253277,0.10389092665290675],[-0.07663247706961179,-0.06786552870977997],[-0.11531510925465263,-0.06518294410176233],[-0.07322026573798446,-0.03033664392195886],[0.015520334699282021,0.09141139193389827],[0.18327918959166328,-0.10235733309335482],[-0.04841614169713559,0.08539071374699972],[-0.052087880410094205,-0.09677299589634719],[-0.06941648555918176,0.009958198826596838],[0.09627997349881634,-0.05326495524296251],[0.09211091515932458,-0.06883540130175705],[-0.001650896409061577,-0.06216296973795381]],[[0.006728989235815663,0.013211235132523006],[-0.04148157959230914,0.03746373642567071],[0.16603639368507764,-0.09603638799000624],[0.03632387090528465,-0.024412784814952175],[0.022823183908038648,-0.15720003010884323],[0.1385512510749681,0.13287617655326853],[0.14647249444112762,0.14710238840738576],[0.0017477980525482605,-0.03548025256150568],[-0.14858290490461998,-0.05755825364524036],[0.05510604086685098,-0.1254860784486696],[-0.09213092532257902,-0.011764457161036697],[0.06056436574581183,-0.09018554603169039],[-0.0996486826838685,0.044128992595946645],[-0.13798945232773463,-0.054353425020047794],[0.1305554395878329,-0.04486910140737159],[-0.10530623940976534,0.014761998868775486]],[[0.011036765350230916,-0.008841709872994173],[0.0330247947993826,0.04065671971451963],[-0.010817040667728537,0.061182200572030304],[0.25660772663693154,-0.03247252714640567],[-0.12324963711333947,0.050532966916717915],[-0.017073336398316655,0.03309820230283327],[0.119660184561438,0.05075952002088402],[0.07244118409677879,0.022645060508192833],[0.01030149827915295,0.15386774867772718],[0.031721724613617455,-0.03749992324697005],[-0.06901468437829818,0.07766082205481817],[0.17395818050688872,-0.08248017929006508],[-0.013924157763681957,0.050960213024297846],[0.005477399464343755,0.05128429976028282],[-0.03432272963015473,0.18270475757703616],[-0.11431461202646487,0.15554202994210073]],[[0.02892991561463795,0.03579570128601073],[-0.1377725656370449,0.0037186763227504607],[0.012833473641844112,-0.08669339137787876],[0.2646634588201828,0.3054540859402269],[0.17255949355168448,-0.11032563076934815],[0.03570465694249144,-0.11643498391384524],[0.04113914206457606,0.11736905413535031],[-0.04418130648063246,-0.0092198103687925],[-0.0766640411329493,-0.02491838537920122],[0.05619913267186229,0.09267028950699008],[0.1405125151872405,-0.26030032734690484],[0.10038924420343534,-0.09461639074524293],[-0.009039960969818541,-0.006923949033502645],[0.012747740819160303,0.07193776376864972],[0.11134485676549033,0.027927788065852745],[-0.013828867760016232,-0.12752792894033277]],[[-0.13779514581438412,0.18089355893724532],[0.19746923519970455,0.18035690019698636],[0.2129148259745284,-0.19940403797043169],[-0.1033604025571334,0.10514508917425813],[0.012907320701610749,0.0035938371174282628],[0.04186998543753501,0.06950294631807762],[0.09605200761522759,0.060799778868393724],[0.0908698961364241,-0.0440610149469166],[0.1910767860032949,0.061240687197327094],[-0.03179297701325822,-0.05481796142348108],[-0.13649288794569053,-0.07961155715394944],[-0.17088913877610165,-0.11906170961473135],[0.07339204997687672,0.033372156296613754],[-0.024178070576297818,0.057914541243675746],[-0.04325965481985367,0.04675958260433572],[-0.08703873492865469,-0.01663300724249871]],[[-0.0011441026819650002,-0.06193948028786291],[-0.14132972794869322,-0.07251725729279956],[0.034882786747815066,-0.05605017583829536],[0.007063424796067688,0.09624445007046913],[-0.1332138668755096,-0.12726748143732575],[-0.01760934626146423,0.057817731773625314],[0.19019730442988708,0.021110900690153134],[0.02043397338683289,-0.03135324530990379],[-0.0003460411007499588,0.025532825936766142],[0.023272525153603174,0.016761392088653404],[0.13161076340355338,-0.10747201031746687],[-0.019332746827379933,-0.16718123770984739],[-0.048982071334136415,-0.05878859944656548],[0.09430755200400442,0.0014123606171722609],[-0.05554899631599702,0.057026032968535395],[0.0223255474294391,0.08184931917214702]],[[-0.01337092727125671,0.16423017260263387],[0.08690100089561997,-0.012374427849526573],[0.030048929191551443,0.09851558471424533],[-0.1634786109502671,0.19627192215165362],[0.08397727200698847,-0.22520896050687333],[-0.06781038886885139,0.21341822472927588],[0.03598404232635477,0.177810805019587],[0.03145099228846857,-0.12446030299389281],[0.17338088106906485,-0.1039155344936559],[0.09352474217461064,0.01227307538832553],[0.1052371082531547,0.17504828197550082],[-0.17341447742936777,-0.15041338303129664],[0.19000044139770367,0.07998408826388564],[-0.05814409444780841,-0.07876584603648797],[-0.05090400332572096,-0.0008697761574220225],[0.07776996905488806,0.034794201066503105]],[[-0.07874560442880355,-0.02356913708298002],[0.11348879678064216,0.02432453493988349],[0.09829479631606149,0.028159829915450782],[0.09091273111986481,-0.17431878120892338],[0.0022682394683406198,-0.06001729034727421],[-0.0946324894786699,0.03341138134042836],[-0.16639285413975935,0.1041342707472775],[-0.0417687004426421,0.04018481666193239],[0.1378933147621426,0.1539738885927524],[0.03697581913594573,-0.0035571370586087317],[-0.0626402731787426,0.052014631272865125],[-0.06975461185190385,-0.019305551820385437],[-0.06751546980843473,0.03608757650889923],[0.120068102576621,-0.09085837103445127],[-0.17969961370820212,-0.08539939025571507],[-0.02811618974093069,-0.00243303911101661]],[[-0.026696559900012903,0.06182938840051673],[0.01716733616548999,0.18236185363403348],[0.09836031318256724,-0.06560626289161078],[0.07238603874523299,-0.16509476698514639],[0.0036446827491116935,-0.08415233263223029],[-0.015395464558990072,-0.021446807605516316],[0.03874843903900103,-0.09041200278817478],[-0.06894732649093341,0.14867930681856084],[0.0014167392407383585,-0.22333230035019733],[-0.20702531151305187,0.07762506804754911],[0.023005805723810346,0.16643552354312444],[0.1210998802407327,-0.12801237625369233],[-0.13057576303585858,-0.02898073723516326],[0.04968107097279795,-0.08615076036172853],[-0.17869159758303552,0.31207004815422407],[-0.1437327818687549,0.08286071830483292]],[[0.060361971593978936,-0.043141032673504526],[0.059218285726648376,0.005408101883651414],[-0.1308563934222867,-0.006962444725324953],[0.033983763267236636,-0.060572470511707104],[0.17312454462225382,0.033725300816229466],[0.02074948579949317,-0.19862043235508609],[-0.1265456502333943,-0.16874690488308614],[0.1271850524762317,-0.08770930033054498],[0.05481952745542247,-0.1625361164737019],[-0.15486068808337367,-0.08582138360027074],[0.04120503663759985,0.0017327138204948564],[-0.17154526267040265,-0.02189201878741886],[0.09880053370239483,-0.20204918300236255],[-0.1336623602565219,-0.043950051751703995],[-0.06038058872690441,-0.032920965011784084],[-0.1961833981332744,0.07800760226518867]],[[0.06536106813391886,0.03721924897363302],[0.015354775438652058,-0.09195160952476959],[-0.06057083174441471,-0.07869720041446485],[-0.17667735587182914,0.09243864408615218],[0.1329636860228464,0.16721110276998585],[-0.14655598527767855,-0.16428036314413158],[0.008580222825688714,0.018592479623150495],[-0.029576393936585954,0.10229125509191647],[0.11664275517455658,-0.1008003071428026],[-0.1266828643459481,-0.08995763963643137],[-0.0788468087855349,-0.0819269085345839],[-0.20492156485732452,0.009980822058399078],[-0.14633127820785383,0.062389286249818175],[0.1055580385407117,0.03672806558024396],[0.015067285774317844,0.010127297739261597],[0.07469622985962535,-0.12119622263214304]],[[0.10475855440670578,0.02876741855464575],[0.14844756216654223,0.03573589275050482],[0.018833548678952004,-0.18099645552745688],[0.016480813866373754,-0.09589613736586844],[0.0013586717580041738,0.14184013141866983],[0.04496169842699212,-0.07891319893171038],[-0.1341101151918683,0.0035915086980929717],[0.2702739897308859,0.07375060210057328],[0.08731122226684183,0.030061985744711098],[0.15865308172658785,-0.059917126326482384],[-0.020971309145448883,0.03525522657114344],[0.12318438754775286,-0.03500950386374484],[0.23321493591335685,0.05361026525676338],[0.09454927514936334,0.09020814209743287],[-0.08606474239433438,-0.06620131700937382],[0.15172665794242862,0.015433599935779682]],[[-0.04682311614947129,0.004647528698386035],[0.11491420074367989,-0.002188679336537342],[-0.12370943114816153,0.05743264377741816],[-0.1713351430530039,-0.17569594050107507],[-0.1167148063173154,-0.08977128981753414],[0.07867918342357819,-0.0081582928108558],[-0.18295670977591103,-0.1537085825245411],[-0.1010530187268226,-0.06458304878749814],[-0.011911049860587343,-0.01891756902242542],[0.11499926686842367,-0.045494508439286735],[0.04459455297488989,-0.025326272614192402],[0.019359272430652764,-0.11310405218290967],[-0.11223415880532622,-0.08035043972409331],[0.06667008153928017,0.06479507828819722],[-0.087750209933692,-0.020020472373846847],[0.018004369043225627,0.1868318466008154]],[[0.029316334488141322,-0.05832150280096306],[-0.10653588955047992,0.13157036546463502],[-0.15385385426273956,-0.10486708908688268],[-0.002020717725798131,-0.08895915632482446],[0.03689509699560829,0.006333782114130725],[-0.036599015525767185,-0.12675311912615816],[0.019410471088017543,0.06847413040752999],[0.14581492102843785,-0.04082867737952914],[-0.11184062617058413,-0.06649801285134763],[0.1271486680891798,-0.10807326958739305],[-0.10674995528813892,-0.06609094803783212],[0.10686651703721053,-0.07557132608318212],[-0.02553253128355552,-0.058808388064294004],[-0.09832778429373393,-0.08322683233155814],[-0.07580121640508172,0.07047248141752666],[0.027658929178624753,-0.016777699534701287]],[[-0.005874538427111408,0.24853763325040473],[-0.10613413796122483,-0.03848617459928882],[-0.07606865766784147,-0.0011884126708405704],[-0.12680474522920984,-0.20814029835040748],[-0.12045778811247469,-0.028605929290993398],[0.07470053176771838,-0.03434045696675465],[0.0939414012683097,0.01695017767021014],[0.09377812188114859,-0.007473473355180976],[0.10987043389613022,-0.029217368124888714],[0.05818241635616538,-0.10264594853014845],[0.030443243416000694,0.053104741040791645],[-0.029217699949565162,-0.06223649669220228],[-0.08233651214486698,-0.07537574600220837],[0.022462204942178477,-0.1703702127907787],[-0.07284506356831552,-0.15768263018812848],[-0.01606593781863169,-0.03505425135867395]]]},{"Name":"Lncosh","Size":16},{"Inputs":16,"Name":"Sum","Outputs":1}],"Name":"FFNN"}