{"Name":"RbmSpinReal","Nhidden":50,"Nvisible":50,"UseHiddenBias":true,"UseVisibleBias":true,"W":[[0.013304594245668794,-0.0019933819345682863,0.04181867762161904,-0.03520472442083865,-0.019483380540299237,0.013049044011405109,0.011795180078136801,0.003892691937843448,-0.049485191432850954,0.009636623746937089,0.029322488606096306,-0.02277011273604738,-0.018416918172764543,0.009628011633200047,-0.006844471450244027,-0.03764972503723379,0.00011367335509130175,-0.015981963051408872,-0.0003063253819316188,-0.012849277048469325,-0.014764911685387901,-0.005888316600150901,0.009856150753854095,-0.01743287730756012,0.0170211949953223,0.005454188164144275,0.003912512825622602,-0.0008699381802787197,0.016566589774422182,-0.04035383891592492,0.015735405211697705,-0.013470913140627323,0.0004664947562574213,0.012170813425534204,-0.022225712052260763,-0.014503765017249369,0.028552620812689607,0.012322575632018544,-0.0019749511319694796,0.010034453621181908,0.03478432058366693,-0.03342348943190124,0.046803596509229946,-0.06846997606015337,0.04996376288285312,-0.03510100731572127,-0.007984626199847097,-0.006008239282313497,-0.006742157258280904,0.02098874064550636],[0.010833820331893224,-0.04018334436005732,0.032355295313472525,0.010905175990125266,0.039357887482006026,0.045678326587291734,-0.026772563652592115,-0.028446809836290526,-0.017954252896435235,0.06882120263744776,-0.038885574435485695,0.017107681322870043,0.030943037692525155,-0.0013059605433980853,-0.037361016337110836,-0.0319090027359227,0.01989788818078635,0.04510436432574891,-0.004968018071632217,0.026415722483542972,0.046199206053491704,0.03543360133208179,-0.0039086344580699555,-0.02549559043888704,0.005805375145231541,0.016295468319324265,0.0177480179664875,-0.015594762622735563,0.0181974439402275,0.04032397997328444,-0.022085775128294582,0.028526954893930694,-0.0019803343010471076,0.008939550049657881,0.0024994648820403534,-0.04037746474851564,-0.0077565163764833755,-0.013878265576138254,-0.014793909593887742,-0.03457080902446269,-0.024622682171254417,-0.0038446219945411737,-0.0259194873669313,-0.01218272996891643,-0.005936122632025342,0.011124988446593442,0.008389864821397575,0.010990359292078469,0.002411628760196392,-0.003867700917329197],[-0.015915498367206755,0.020727957801415724,-0.0021775633576084853,0.013050985493315846,0.04192215589035597,0.02048880636984911,-0.019212060738511876,0.012726629579386646,0.0632364698555199,-0.0011028332217185104,0.048464234228908804,-0.005364282930628725,0.0256252086994492,0.06905833717438271,-0.05164153723402165,0.010849117226438476,0.01046190995313716,0.024751822210648887,0.0018918361195099133,-0.00921821157531691,0.07181049213080601,0.0065786344416732,0.02634547098673365,-0.006356980387891071,0.019609829112220437,0.04207914678856495,-0.038776379526720146,-0.007320974334021427,0.010948605186587204,-0.015710531232601806,-0.024569773492069638,0.04097656614163475,-0.034005398489298004,0.021997974069827765,0.03254121399454299,0.00957887937654889,0.017758833220348224,0.04744397531909838,-0.02488505568816566,0.01101444842235023,-0.07880538928231726,-0.02698493067767186,-0.004115480746739503,0.06879725824279129,-0.05407103095735501,0.045410919147857824,-0.03046754034005761,0.017908863821182182,-0.02455902341683303,0.022656818817386567],[-0.004172752365861155,-0.04068924909512952,-0.0058461901399627,0.01428760764576582,0.004275489468117059,0.015302145190765653,-0.045312114379199506,0.010983021773058987,0.023692269309010673,0.057163319947053925,-0.02187883764298261,-0.01451793028659003,0.026231301108010346,0.024921992983201878,-0.008129150220117912,-0.03823114760480792,0.003322356022217694,0.03020614521464269,-0.01899348257458084,0.031605302663644946,0.0007269597935854223,0.045785294877448215,0.008359404964096637,-0.001490247782053736,0.002835400461368702,0.004324549992324936,0.009994229825140645,-0.015401148375298154,0.015681855187348652,0.03806933341467161,0.002652878501642951,-0.006456062892352043,0.01337512792867275,0.007463659277951154,-0.0020606602115577875,-0.01179896075358818,0.005309200525677747,0.009251412747372862,0.013550756829345643,-0.008969958588642432,-0.017381799370858608,0.024067588112104746,-0.023143562876271253,-0.008433039174598759,-0.0011832474133142315,0.01519656268745036,0.0023219020167315773,-0.002920625405330431,0.020274425664476382,0.006892907760960884],[0.0022706969517552727,-0.01163120508399831,0.013391523318463425,0.01949499625146398,0.02829008295303686,0.030066974187923756,0.007472950150312413,-0.019896862509126985,-0.007201316485583607,0.006259245592696924,-0.032369983977761814,0.040032255170433066,0.01937682640373951,-0.028591477592288497,-0.01707622898241078,-0.02600657434309664,-0.01105876225356298,0.02826351447574405,0.004519859121309438,-0.0026349716089066762,0.023908457634896525,-0.007461279998577076,0.027734741895398898,-0.031976564057883086,0.005640125575890873,0.013652556214026168,0.0187983011719236,0.01169291220149326,0.008981847535165365,0.005421264610508028,-0.007509918023377045,0.025303821195181306,-0.01405663558200321,-0.0035037280793452936,-0.010398177178854813,-0.044039259587590585,0.02052577403717428,0.005433944422125534,0.03541654839146916,-0.015496184717246387,-0.01933410682590868,0.005750629421958908,-0.00901510745681989,-0.015358854304449329,0.028916374236500408,-0.020166741350779678,0.02406106670947033,-0.0067411494283133675,0.0005442111342252049,0.009201685377590045],[-0.014277292845209334,0.012365201124436714,-0.008219513979645706,0.035241736639630636,-0.025827742949180374,-0.005528933102478031,0.00615241225670407,0.008819183865550247,0.023411104747199474,-0.01639447749397903,-0.010329754924033397,0.04106209452994675,0.006279278411486392,-0.01807380955538208,0.02316068580487245,0.007350128616277542,0.03616479342099003,-0.006542974908336478,-0.0013128886931758786,-0.00529038345928765,-0.008699411032440745,0.006563848465667273,-0.021240183073478906,0.0032628886147587433,-0.03207544253143984,-0.011484161167177084,0.03626237710305273,0.022697775591034572,-0.03718171913700273,0.03523320950418375,-0.004636612656379097,0.04960895089827723,0.0056526455385244,-0.020959164959787266,-0.04280497185838515,-0.015711736017315046,-0.008543545476825606,-0.020974489886346995,0.02589700960879566,-0.022563593923763826,-0.004013001889489332,-0.011246448709612427,0.006173419330570289,-0.01551085360704711,0.0015702339375114147,0.03761164046096796,0.018436708647019732,-0.022922391304089088,0.0016641645371095236,-0.05639170789575661],[-0.00392376145006499,0.014940927109492835,-0.035505509702090966,-0.016570807291812133,0.005860035831208105,-0.01309771961016875,-0.026491217027643323,0.010572103784123642,-0.027230691782060883,-0.006220435676811032,0.04474521540218051,-0.03760323310999722,-0.018211793688287074,0.021672126216764648,0.014902509852185946,-0.0066555606647668,-0.03012317311662758,-0.03084107129323782,0.04020380655021031,-0.0008954525007840494,-0.009480418727007497,-0.03775837326786969,-0.018333571271332,-0.007504085899029744,0.00840245132087733,-0.03204096112486676,0.019500505450122187,-0.009246050526239282,-0.03418675526375438,-0.000152445172275739,0.058248504116883114,-0.007822098953957825,0.04341486992836367,-0.007483829047076987,-0.0011808705362151223,-0.013758391241201953,0.021055759278295828,0.0408031091055244,-0.07396855375850717,0.008182196599596637,0.01997555299332025,0.000174234157215587,-0.04937264514901561,0.00829495907664082,0.03147589480751632,0.06618418631523314,-0.03503800826681095,-0.005827679973759546,-0.042281445425212234,0.0026544864547657604],[-0.03221964675323785,0.03477300532028073,-0.03497380352993371,0.03489817174256339,-0.026742658416884814,-0.02968456940859434,-0.012957308337643386,0.03814213468428899,0.07470379555453074,-0.06013465121918737,0.03673908485871036,0.03196273694405623,-0.04146035704154243,0.01337815710644425,0.05270358685747341,0.05573021308287672,-0.001161297929616948,-0.028931799424056936,-0.008552498990291825,-0.030798379421986852,-0.043794171913864643,-0.011460229394019233,-0.036584568417529925,-0.013066087127565037,-0.01666063694240784,-0.012100028931976316,-0.0003969574698222591,-0.010728208760509507,-0.020858406381207017,-0.020610578580444808,-0.03813849996768936,0.005080143084577654,0.030264268600622965,0.0014514185095838503,-0.023432143506369747,0.022288366923730055,-0.05944532167563331,0.03756354760755729,-0.009511424655988622,-0.0052345665553277885,-0.0394720223376595,-0.013854243144747891,-0.0350220432475697,0.028413424378591092,-0.0282820190453169,0.02239310554530225,0.03147709605495803,-0.026884014240545824,-0.009199337342339369,-0.04616818117054539],[0.0077030635638939745,0.0012349344081239548,0.023314316704983816,0.06341254325452961,0.05298589530485283,-0.008925202884686222,0.024733332785454875,0.0007206634182841719,0.022330229208232067,-0.03697503187097934,-0.02054941850513348,0.06421429147105107,0.010097213735371802,-0.025065762366331366,0.02919817457279024,0.0017538663509100855,-0.03283709934772188,-0.01132163136898375,-0.002593693505063372,0.009539787723784943,-0.003774273766057522,-0.02491013978477055,0.01208659537068089,-0.019636416777257054,-0.04301347110224295,-0.00855927419782,-0.014377022505154255,0.022615712749887062,0.028033573871914078,-0.021752360581251677,-0.012483452561978865,0.02218787836023264,-0.014920121653783727,-0.041985533691081406,-0.010997289025073608,-0.060450996729961404,-0.021696061153331673,0.004163141285870313,0.03140855612698086,0.012739567287964226,-0.024302703428969254,0.013700637888922645,0.0015501404039248551,-0.01532864237553187,-0.0164455848183837,0.012704996227397744,0.02580253561810554,0.02181053797560796,-0.008977648588565538,0.024478106263662876],[-0.00025746025284240515,-0.06701585350688485,-0.010038544468853631,-0.07128195141934639,-0.007880895911058632,0.056049797621529306,0.002943936999955656,0.024945991844440407,-0.03228719650633016,0.04477973415955877,-0.03170800028821651,-0.06557152830927505,0.010447277419200233,-0.0043561137185861845,-0.01826111951201403,-0.050765183055742985,-0.006530755146633085,0.013669378353146312,2.2602099952619137e-05,0.0013783686707452758,-0.02059214913734177,0.03612766227458631,0.017549061348614732,0.009980514284654922,0.023621314258001295,0.005404327668624133,0.009566229981707483,0.0025186706403306346,0.010522638277121719,-0.011687080189973486,0.03763453919368251,-0.040771167643921344,0.02339637597121858,0.031176456283327336,0.02074407232485619,-8.754096981312054e-05,0.03828043228737147,0.03702437446354477,0.036503459279374095,0.004246059700958251,0.025913896926183736,0.033340550117075436,-0.03383878623513084,-0.04971789181751132,0.005910282736605375,-0.03773973880585902,0.0063147327324009055,0.0030627459165477548,-0.014246332156362071,0.037361631107971804],[-0.015830792622714772,0.016898107063864888,-0.050659512464441385,0.03449123042238082,-0.060459001011192656,-0.04943854999863682,0.0031810710762174236,0.013818528733463807,0.02362900185715367,-0.008057213579845922,0.016962881195340937,-0.035082482744937575,-0.039158500388351176,-0.010657837178804534,0.0271788264191562,0.05329768789765346,0.011693811641581488,-0.033490498965790635,0.00554308986779377,-0.023705360171828376,-0.01472529770686445,0.01467829024027357,-0.06278609920362543,0.022890362993485576,0.03562099985154696,-0.04530616740980008,0.015607729197773717,-0.008390789461495055,-0.028370587399082242,0.027575175313928856,-0.01154292179137945,0.01697722233959139,0.043739393724426937,-0.004683657066783399,-0.04717413999785316,0.04876104167611419,-0.01356877614584758,-0.03171195648874934,-0.03038292946690228,-0.014428347559634229,0.004479658084142233,-0.027455768584927858,-0.051651396849657395,0.009090706388430448,-0.005738033683443449,0.014526481896203142,-0.002633841938754107,-0.050147848116650316,0.015776573017536127,-0.05104137471656925],[0.009790570029013401,-0.021534675770407352,0.034354609432644644,0.030547703356289677,0.014699506075858989,0.0021183656963344646,0.014842315612678752,-0.039419917361901244,-0.053048024974920595,-0.032943706498028164,-0.009182549492668002,0.045082595732414715,-0.019137516064231072,-0.03198644216934542,0.01594307245791503,-0.02168312089046074,0.04388826774031429,-0.011467901963036306,0.0034213406506106107,-0.003390521981641724,0.02489537615519306,0.004036473750091403,0.007509930510119779,-0.02008773153691739,-0.03610572107084454,0.02104753227077214,0.020557556613255777,0.031898543043669944,0.014695034171192922,0.0007450237691127024,-0.028844728822055705,0.043205627274742565,-0.03733614366983559,-0.012401800681387139,-0.019410723300112006,-0.023254737413217378,-0.010979150088497359,-0.04793448978347276,0.002654141548508949,-0.02867061221929423,0.016747961773193144,-0.02136435684471386,0.03211086512363366,-0.023861681148264587,-0.005530662024638625,-0.02715617856110971,0.027790000506289336,0.010457892305986543,0.013044366029505105,-0.035839183245097314],[0.03636424343080355,0.008001025260622513,0.05370779706519056,0.004607791447453389,0.01673174598874824,0.029820058168020726,-0.008095946731450303,-0.05528208898716609,-0.04389553653562831,0.07871013950570538,0.02190364556115868,-0.07363178356435936,0.010402458874978274,0.07090816495263969,-0.0675392012634874,-0.03977919705490085,0.031086386482792883,0.02251111180878342,0.00240218030883002,0.030924604925393874,0.06149896657886156,0.06686673243411413,0.0019241431409359189,-0.017974183227945917,0.05788044213470984,0.013534866695222324,-0.04336323416514834,-0.0010866735877512375,0.03143289855795337,-0.017447904550099855,-0.03334900382272404,0.019243431586767237,-0.013791420775945078,-0.004594315697111379,-0.009955107176220855,0.00931576442727317,0.051283319923422985,-0.0038590399609033134,-0.04020332737214619,-0.0235920760169423,-0.02334569794575055,-0.045762586673801765,-0.028762459587475375,-0.015447614164820756,-0.0016287133369890642,-0.003163239027604162,-0.0397888830080738,0.03191225436360556,0.006822647672231202,0.04324076510058621],[0.0008841513480612825,-0.022037806299758624,-0.029523387071591915,-0.0008863998079013061,0.04826019149300804,-0.008607584993201576,-0.019701681488369566,-0.005876938777214935,-0.01496674785206338,-0.009250802275772517,0.020596325282124045,-0.03456424823853197,-0.0035122466895549003,-0.00047160185444600385,-0.0047125886768157165,0.0075312402053474645,-0.005446592913207159,-0.027293997654388034,0.009161775739152533,0.006196013949555558,0.038677889212047276,-0.032091341645780036,0.01607950383462032,-0.017239930119050863,0.009019529018370952,0.009525321310983506,-0.015184774898432798,-0.00122413360882453,0.034185423098032866,0.02412454433180035,-0.03724130362324475,0.012157567556199041,0.017274537813500176,0.04330705194640463,-0.03482403681065791,-0.025129847111558884,0.005557846882012358,0.03358325920979774,-0.042032334882673855,-0.007163616750544097,-0.0073332707017208214,-0.02547025828461595,0.0014442412601894262,0.015041337214638618,-0.006867303572921554,-0.03745954525052117,0.007015662995202555,-0.039402497645691315,0.008581480004624475,-0.002544242440281308],[0.03101773179070651,0.019765445387027885,0.011315975424358209,-0.01096844071812704,0.01703808793403444,-0.014827845759321036,0.010784963916536421,-0.003024018974998233,-0.0022718136013600305,0.02023972619913293,-0.0030048427118207176,0.020045811131107597,0.03207888682084681,-0.009051465435029047,-0.021687986535655273,0.0010918149123969947,-0.01758098243436959,0.02017766967606164,0.01346695302345743,0.005826809503193409,0.01985820709582725,-0.03696326389282058,0.030212648408395614,-0.01717027372809303,-0.0013961721564741472,-0.006710167976468757,-0.012469444726882732,0.010682130356375451,0.01949892780608259,-0.014823272918321143,-0.020861919286481238,0.01282780733227967,-0.027103688820264198,-0.014032434026484245,0.028752049390594895,-0.02947754943526853,-0.01966579621493702,-0.012883458521974256,0.015721111512289825,-0.003470862956265315,0.005377375579649907,0.01303817962382276,-0.005075947752012762,0.0017606080275360154,-0.02459162893618604,-0.01297565727519203,0.005966474321578215,0.027955893075150905,0.0007999355991350717,0.027304702264196935],[-0.00393406521549412,0.0013208516031474951,0.015533054408671238,-0.021861225491407496,-0.006420409475525792,0.04050699639058916,-0.0056662920839473,-0.008811138213488647,-0.06743113312275863,0.006406049554269232,0.009586547460329768,-0.043277511868249414,0.0013317238085447953,0.07556628947197852,0.016267777006240377,-0.062090057119158486,-0.004474633021422986,-0.022954727466729156,0.007592990232262428,0.03667912014770848,-0.02712407290793649,0.03265768679947303,0.009248440672361894,-0.014380325405495754,0.024657801051792525,0.003740393447982054,-0.019701007671597055,0.0016204931412508472,0.013026811409078522,-0.039543676450691116,0.04386472749359596,-0.041500529159700976,0.020655820693207674,-0.008803216419879103,-0.019359548057438683,0.010748078963675977,0.06358052103160028,-0.009464967974748228,-0.016909081568097284,-0.02530565871208465,0.02822364499413242,0.037146352980075216,-0.04820493969933241,-0.019009732579029763,0.02572392798471121,0.0036509664913797,-0.02108824726614016,0.03135378280082228,-0.028047567132169538,0.009027293931752502],[-0.0030511592859650783,-0.026940030030465908,0.008299914420353138,-0.014256977176944756,0.030464341174828234,0.047116645087493816,0.012182922368500403,-0.006483997027162967,0.03938243698829445,0.04540938347980662,-0.05597969896907194,-0.010665374337261724,0.04143053770035319,-0.03720998633763734,-0.04491529748655575,0.011203311251532868,-0.009496304977895123,0.030057812608502654,-0.007660680117259051,0.002257920644594053,0.050405085116603625,0.018456403371785977,0.02840557834894937,0.017093663021574647,0.014657728037211232,0.023871579070833066,-0.01711363633636744,0.009179349520335106,-0.0033030312942532803,0.04791566787883528,-0.002366660504009657,0.018693259568884606,-0.010143247152827498,0.032774762080624326,0.028469705476657794,0.0018206032513194172,0.022547780821027288,0.015018604749670693,0.0465834042392334,0.015493532815275508,-0.026438426094250032,0.003155361133220779,0.019584984142641815,0.0193611602450574,-0.012235889534768257,-0.04174846198446802,0.008828979164719818,-0.0172116689800356,0.02226814148124332,0.055858064612499175],[-0.0022189688356500513,-0.015780394314929797,0.025057525094903322,-0.007171345645864994,0.012050317471741604,0.050159959311132145,0.007336554736018687,-0.0056569809243171496,0.015165551730741623,0.02110873925264465,-0.010620423600562173,0.028698696558972128,0.004656734173234095,-0.04471626698099558,-0.014927948095113138,0.008539026850071175,0.04022644336201266,0.04172462304199327,-0.008518586244991404,-0.01852462061719463,0.04782531926861538,0.0280513191119057,-0.01931725112580407,0.03297157888336341,-0.01521575066146329,0.016870651699367474,0.03130458995258677,-0.015794464532391764,-0.03617167408462979,0.01713356896962543,0.015607754397327528,0.056831944199009825,-0.010112971776334235,-0.00904199770036456,0.0415935891527838,0.008854709402031868,-0.03224325297015099,0.014889893587471299,0.011293018823645157,0.005174135489386879,-0.03191750843727648,-0.022052118963867065,0.042805626109670744,-0.00892743439078445,0.0026641265135555186,0.03239655519525196,-0.005797827650230584,0.0008035501416827897,-0.00917069279563954,0.0013551755240268897],[-0.021107579478439185,-0.03223736727074543,-0.028915811715140183,-0.012946783361978347,0.042945724938457594,0.00821636511987156,-0.0024885322439930496,0.004041781129433613,-0.041242832496617,-0.051232112876389055,-0.009825202519524467,0.0030461415733216714,-0.022861441930790826,-0.03872469200223635,0.059573066184870356,-0.014335041921158871,-0.053988758579873695,-0.038203431157617734,0.02312694784549534,-0.0071109872940356275,-0.025091400184534485,-0.022237934348387087,0.025405464089244257,-0.02582183544235849,0.003963749454027889,-0.005158763649027284,0.023503660264099606,0.006781142691053881,0.02372700712277949,-0.003813591578276074,0.034266706815523476,-0.04153202074030709,0.0199274142981571,0.006067385010107588,-0.011370948911588147,-0.032089519266230375,0.004480142713124791,0.023123313088353477,0.0051183724163819866,0.009847393774414046,0.033348008345967836,0.025674462449631695,-0.017329094470145707,-0.006990166123047183,0.027185671773656925,-0.047750052897708936,0.013756357554186058,-0.01982258487543601,-0.01005570645459471,0.009962815783455783],[0.029402681651505516,0.01808505758734011,0.047952023964585394,-0.01193955406249414,-0.06250167439942042,-0.004570923557498536,0.03901277650182845,0.007747445527185602,0.024815539673089648,0.020540622449759308,0.008025022287613384,-0.020905192469447127,-0.008450471964029722,0.033801728938087104,-0.05669221103237627,0.0011172857060132236,0.025176307783291087,1.6445270159105938e-05,-0.03943904741886879,-0.00459672246460204,-0.027516584996467204,0.007949860833385723,0.001543257138134243,-0.009043482508160401,-0.010372689897132885,-0.0008725417730926408,-0.050616097504339264,0.004407238778426699,0.012891302861616848,-0.07190132570039501,-0.04917006951477496,0.02179874451163854,-0.007396429412973697,0.018767894375814432,0.007980341001663819,0.018575404144607448,-0.0015021698680980832,-0.007824419511308581,0.039082990284143415,-0.009039597851052898,-0.009800575820838067,-0.01931019570057429,0.014012655959289673,-0.04866217836303458,-0.04219917149153108,-0.023292306518932437,0.01513494116787978,0.01885579453661006,-0.0037699914934507224,0.021332173420128768],[-0.01391769051916323,0.045727859826276265,-0.021248536662412,-0.02689337445851657,-0.0076215970262237046,-0.03362361548351559,-0.006383289147032361,0.021383418154074876,0.03188044230999973,-0.020053764161047902,0.026827958130830564,0.01597665152302428,-0.006914766992737624,-0.019329547942443903,0.017600852359035586,0.0354325202111389,-0.029058150814411116,0.011142886806663942,0.011706484769184945,-0.034129584531713816,-0.018653711895248712,-0.03402628210482912,-0.008360150082293967,-0.004677809217749291,0.022250343066512215,-0.014534600095860205,0.0029077497115110834,-0.03930689397423928,-0.02780381000741435,-0.00814006362412325,0.0006789898039396922,-0.016859614424752412,0.0171000315521661,-0.0049485202688948435,0.028148717219042548,-0.002545766988689994,-0.05180626557274225,0.034652512241110454,0.0030432125558162767,0.03402115265040313,-0.0094584633623407,-0.004778441215278971,0.005109756285745426,0.028563231150181615,0.004225602757785439,0.014903962772910732,0.004089133082449347,-0.02960251259834229,-0.005391875910839967,-0.014172903451204226],[0.015042561969388956,-0.005100547533858122,0.04591505300804027,0.019136828939031323,0.0053792839876008365,0.009789879718184704,0.039014446185457505,-0.015004886914201782,-6.556096004010133e-05,-0.03454558545586925,-0.034238105128095435,0.06262462228152879,-0.016928924800993533,-0.05667709042825778,3.9143629897646576e-05,0.014480411200845858,0.014784010227189115,-0.007147581746797399,-0.014953337475717945,-0.013769894033569263,0.00678773728064706,0.005690356087382696,-0.024324250742371552,0.02830228372617063,-0.02664544149645423,-0.00391710191252748,0.018842842805553876,0.012485714123848073,-0.013384364796036531,0.015041214246084298,0.03935508977389752,0.006797845062587745,-0.03760590180986373,-0.012448760075874267,0.0016008529658636996,0.015563305329999867,0.029520382128795843,-0.05641288170314578,0.014445670724458924,0.018296690692845126,0.024289662633525076,-0.013808262395350736,0.09551233606294489,-0.03546659752024435,0.051763973268735976,-0.019954936694448373,-0.014914881333770886,0.0221277694557694,0.004139734404429456,0.015481353063238331],[0.01843187679672994,0.032401604994311065,-0.0023256523459465337,0.0007641938703344228,0.028235085134822275,-0.021153883589450122,0.006054827774685802,-0.00866643316791734,0.019006109165007765,-0.0013232821275972126,0.003187477371140491,0.025693809734906703,0.03378766001536799,-0.03835382963094886,0.0033025013739580913,0.02987259299451306,0.00982923044716803,0.0036157996334901096,0.023004828553584954,-0.03468833932109232,0.04409202405315589,-0.02886409842995275,-0.024794505979992394,-0.020081083142030966,0.04993844309857466,-0.008350342901826294,0.01272555708325171,0.0036567422921433075,-0.017254179718016766,0.04297088608263813,-0.020236225028358562,0.043537691628128705,-0.01911172392447104,0.0042612908055427124,-0.015632600930044503,-0.025850102851142514,-0.0069014075791417155,0.005975426566165041,0.01390207187176,-0.0013249403262599654,-7.107761384591996e-05,-0.018811452857958016,0.03026882382561867,-0.016546678495698228,-0.008275309088190741,-0.018459814890873217,0.013427387019435908,-0.01534660148979048,0.01287049459911168,-0.009008895333133246],[0.03681810269032223,-0.032557549278834565,0.0024328318591865447,-0.027815316586581783,0.014533547715855912,-0.013493695096293596,0.02599358205605031,0.0395360859155705,0.002125329420766939,-0.030007602522706973,-0.0029620172421398042,0.04486171490680531,-0.012710297057157954,-0.03679475208265353,0.003594008799011477,0.007685293393086144,-0.022349040601289703,-0.03171252684621177,-0.0190279582119355,0.006903779428447675,-0.02880987616310664,-0.05161032028097802,0.025830950221358673,-0.013573124864531131,-0.05108415104859104,0.012343111342825105,0.007995802333412658,-0.0035734701936063922,0.017045194976416902,-0.04062086602784282,0.012827137664654478,0.008198724122425003,0.00508078174148701,0.026461597771078132,0.016219880402909843,-0.026162960415505643,-0.015893207055817683,0.01888141123167905,0.018179677620669913,-0.0011213088242442168,0.01932074829924506,-0.012424976394361291,0.012643263658900011,-0.042372347791108995,0.00625418112242129,-0.011779586436929796,0.002379903554262295,0.011685070543460074,-0.03329934675423608,0.01436041269818305],[-0.002970413708680405,0.03227374123760515,-0.015618807008939705,0.003666819943696648,-0.0531115995900426,-0.036157198612499365,0.014142385327522532,-0.0026336975019606405,-0.01911230669475446,-0.026090584803556752,0.00766323188258838,-0.020318483321695516,-0.003987635676536154,-0.0012015650030329085,0.01949035222186773,-0.0007974090761547811,0.010199515113294444,-0.027077408961058907,0.007349927372714517,0.008754625178688717,-0.039477746933247924,-0.058961804171785356,-0.018062714439832074,0.02251280244075497,0.01038091391086085,-0.04615791543554051,-0.009286469851651165,0.030933750552403383,-0.03964896579218362,-0.0028773505856608244,0.012870939895933145,0.0014317609492372338,0.034035673494233205,-0.022877107768920074,-0.06381596872795411,0.012062995501219444,0.038947859368460055,-0.031555780576970935,-0.004209271323025041,-0.002210494864056344,0.037943343642916946,0.030514984604462125,0.004077787181596109,-0.03890751532427845,0.029442413680891545,0.01338603445596805,0.011158944722727274,-0.016535936028260246,-0.00887216570507305,-0.024235202630440943],[-0.014160259288281,-0.046285437925102,0.0226939278344304,0.010179355273258191,0.03928547743184658,0.04752809306034316,0.015697365786335724,0.026257206758947042,0.01104620760400388,-0.017895520103301997,-0.02141933826806218,0.07587647471363655,0.012699710591343309,-0.0377566219956539,0.011039451857967298,-0.0032790635975067815,-0.014082438847918186,0.005662139215446531,0.0021367026518471664,-0.01416820432463291,0.0309192948621765,-0.009553528517723179,0.02636214129459407,-0.002433790504200884,-0.03640265111063333,0.034576580063671966,0.03319514573193018,0.020140466042230513,0.02076122479201498,0.01192225062761047,0.03311883600597838,0.018564750536489483,-0.030471694450308943,0.00508320914678135,0.024021917893075916,-0.03524201385228041,-0.00362852374480438,0.0026187865706569034,0.021027420095055423,0.005846728374708537,-0.01437414250025582,-0.00034519107193121176,0.04734827439821464,-0.010636655016269413,0.014155170705437937,0.0010510062552891199,-0.007299748734370279,0.004432449763282104,-0.016969782700045778,0.008820645263679608],[0.003825529495378951,-0.0030362350305874215,-0.018058231098250527,-0.05016066471634098,-0.011785242218971901,-0.004556965177486735,0.002835641637470212,0.010928958175966392,-0.009348628429517936,0.019644399672095962,-0.03559244475318376,0.02880867658058277,0.03843302928667589,-0.03901588360902468,0.0014319617482286395,-0.013085350412727108,-0.03708340001253131,0.004155158454085681,0.0003218508976189998,-0.005793597319668197,-0.026004093439055374,-0.07146446388719822,0.038930599440618115,-0.002289614946120235,-0.032611178176189685,0.005569199815584715,0.008486032550845948,0.011932666335725057,0.008114760062289545,0.008342538291787448,0.021371960028802643,-0.02998801237990829,-0.013249695662105982,0.03726891648191797,0.04266149035400278,-0.01895421140023748,-0.01742067273812406,0.004587032074472347,0.06016231417795401,0.01888387800723971,0.027255426711345017,0.05198201415308531,0.055023707276007985,-0.0013873136489339763,-0.019432877126536484,-0.0579930515172944,0.030800161138087298,0.002285888990949239,0.035497621849114445,0.01122324200352569],[-0.008524478331244334,-0.00968037328911508,0.004234423328637116,0.006148127352516219,-0.0028782643202831656,0.006847324041690498,0.008973119005895352,-0.002933334544248118,0.002480615267073426,-0.02177269360726193,-0.011882254292122817,0.051499603965932325,-0.02246415930371681,-0.041481181215608676,0.0341016338963899,0.014113403197624599,0.026803534162240197,-0.021485163083082234,2.8772382810630243e-05,-0.01735650639624591,0.011405331448813498,-0.0082136320631109,-0.020380364577758645,0.02069027513922249,-0.057551202084573094,0.0005386034752705654,0.024889140471187537,0.008806719355565002,-0.01273099811299684,0.007619452645978443,-0.0008418587060151674,0.0286880229088229,-0.01789744121283801,0.00828801074831961,0.01991752145081633,0.025649676322237955,-0.034567545215723014,-0.0411170393619711,0.005387217289843407,-0.0013622738622083366,0.0006261948256904735,-0.0009620657985896274,0.028019944120049683,0.012106311680115112,-0.024262409168883434,-0.007498262958802591,0.02889764296091101,0.009474709067823524,0.00996875475217193,-0.03558933464472247],[0.022066851846564317,0.03345873778703655,0.0394938243762979,0.02399653442344886,-0.030867972654202033,0.01743260757498523,0.018365899298981962,-0.01467885369790905,0.00016279199181374,0.020903750755932905,-0.017941785675135647,0.0018524278928741832,-0.0035044554979094564,0.010551040641523898,-0.019105310943943472,-0.0064445622017072005,0.024243628432448337,0.00759662208667383,-0.0025744208298993394,0.01367582989955342,-0.019087403833326258,0.03626947655234376,-0.027918295913550998,0.01242827007198376,-0.020606399963881857,-0.039384610835047296,0.005951059972321001,0.01085616332652284,-0.027625682104930195,-0.019082442228805566,0.004351085649436621,0.024747799568547037,0.0037352070736375483,-0.009424769291762385,0.012543095582373655,0.01151358204123561,0.0039766385688931845,-0.014646663947929942,0.008311486213498339,-0.021308238166869355,0.007087628031657037,0.006045542466852616,-0.02262192264726503,-0.03155727741483981,0.0003640643507345359,0.004353025472327172,0.01347857388807766,0.037776007786666045,-0.014454600257553633,0.02216879873892121],[-0.0007193377058721468,-0.02621474090687172,0.007618639621322223,0.024816882566005942,-0.013928283758543127,0.028212501674922452,0.03685923732484094,0.0268140470201843,0.05705062299611518,0.011887019664235905,-0.015842399747874464,0.01745719735813739,-0.014895718983449208,-0.03621898410627837,-0.04796736644699305,0.03755213019097192,0.013340098740800482,0.020830233703875434,-0.014808945193345803,-0.03882199953240559,0.01711483682794046,0.03219421285235424,-0.029516352409185573,0.02978042597866339,-0.04121005531580689,-0.006889099001909477,0.03626586873448569,-0.008654176809049573,0.00019161905483157295,-0.0018379232373990709,0.012698864768305326,0.03876161088879364,-0.021728151056589207,0.026228434047327883,0.04812341086861867,0.0312714095557225,-0.015636674055998282,0.030745222646861938,0.014605303030555022,0.00031953087562002023,-0.03124050646499016,-0.033778010859271554,0.034418183158968066,-0.006144792266215073,-0.0002593715340895725,0.01256978850039396,-0.012418324774186376,0.0072010082903432426,-0.016449054663397737,0.014725213731609925],[0.0029019782312093003,-0.014153309966512442,-0.00039357596400507733,-0.0061804888210014106,-0.008481870978604828,0.010941734931764365,0.009205545665809728,0.003961450016858324,-0.0030275766580857497,-8.458043441991313e-05,-0.021459098617889402,-0.014883834773990651,0.0014814256272052883,-0.02326895854585083,0.0032154362232764515,0.0062437625565557025,0.027162149319484033,-0.022552760274271236,-0.0013151333097185564,0.011493001659393095,-0.010891842704975088,-0.024394422519526435,-9.26357446502039e-05,0.009449391271060717,-0.04249837912678273,0.004179294631952483,-0.014576569349842292,0.015353202830526784,-0.008301788183596847,-0.003023604965673175,-0.02632632307987531,0.019244346690423027,0.02760950515153832,0.01943310327254653,-0.016312280328900308,0.0037728847132077973,-0.022906853584753185,0.030408989795335274,0.01987721683109795,0.00045229879970244604,-0.009857362552714202,-0.005242015297596562,0.00041896415039992425,-0.020186848917352423,-0.03217719924543388,-0.017993213157081713,0.03663931699506231,-0.017008391196657598,0.006490740278192407,-0.0022383016925205867],[0.012414401215120835,0.014732670295923298,0.0040781940923694865,0.007243921884821777,-0.0032951837666379087,0.008430453687483448,0.0023280042105922397,-0.013638929621382013,0.046924148971709,0.04996869110568382,0.027365221674578458,0.011771932130800713,0.03371850329729243,0.0532609105624,-0.09199728141655451,0.008914821807774639,0.0429106528341804,0.054898479710968895,-0.022479899220479715,0.014331302740163372,0.08020420693930834,0.003668361926998785,0.030445480773675364,0.005944390615450206,0.010011790659807129,0.022878292901876037,-0.021373504992558183,0.0017897319374245457,0.024971439521135053,-0.005487539559162,-0.04069633002806046,0.04165835980206025,-0.05893368559207064,0.01686455088617969,0.03977331214495711,0.01412210403092993,0.021507720838509364,-0.03091266712763028,0.003822654928929134,-0.008557828308769125,-0.0611445105781202,-0.0043104407742059645,0.02923039442390183,0.05379192631287904,-0.06748790688611972,0.024924138667046156,-0.026512764731498044,0.040000498777655956,-0.006000019243625826,3.221798791190698e-05],[0.016136405120398357,0.0023085465476419135,0.004794877184384467,-0.030618625889377884,-0.01290991791167251,0.004630707003687815,-0.004688526180086774,0.016697758421443602,-0.00701312426955827,0.015541311273409016,-0.025951978587180367,-0.013862952693007816,0.039898045511196606,0.013333212575203505,-0.02220185818379176,-0.003265993241014907,-0.00870441591028085,0.03125867004566469,-0.008560184630802667,0.020521700137582824,-0.02649546127406054,0.013197917919147692,-0.00173254251247094,0.03211879531114929,0.01797136402282098,0.010294588792987728,-0.0013849758671384254,-0.0245947636475128,-0.03567600106305401,0.03379785646111104,0.06519816271431289,-0.04027988660029962,0.0029013709706434366,0.013639787243743262,0.04715381689101156,0.010661431157733846,0.025349465454090364,0.01270593567127182,0.0025609873937343774,0.008575056983845145,0.029792030777319935,0.023948267776048016,0.01932374466165651,-0.007389356197967846,0.026838800993768647,0.02596483185828533,-0.04327836508529119,0.02113246767381164,-0.01581594200678884,0.02759850751213923],[0.02468857809563671,0.05527482950467322,0.04552086658097751,0.020474781549192994,0.009037452120520748,-0.0036798164323588772,0.03360453624132833,-0.020714410640033,-0.020991137791425786,-0.018484891629944007,-0.024160550138247208,0.04717366766364206,0.014479922809827347,-0.03011899952059193,0.030784453712397,-0.004004840662423104,-0.013557679345511723,0.0094633189579768,0.01432004720700501,0.0014262776162332772,-0.027321494161827567,0.019839825469121986,-0.014680477264753454,-0.006345814855750394,-0.004679424372156578,-0.015529502187260598,-0.005452683156671584,0.0037786717736887666,-0.04029375983047362,-0.02346264665954121,0.022843459022446676,0.01161798285916563,-0.004785758222402873,-0.060519916625204166,0.018600921323326157,-0.025879399207288923,-0.01612828121872547,0.0010019685868713415,0.048931227151955255,0.002924947789814732,0.017381735706472744,0.02032901422008595,-0.011578609683838326,-0.040889560920432166,0.01996846403466631,0.018061929151890428,0.015343482275211153,0.025828150257139193,-0.012410114756414414,0.03436015435258458],[0.0010058307811690835,-0.02663394861071445,-0.0367638671823219,-0.0018145357991775574,0.002250203997812888,-0.018161853417269842,0.01966133895318145,0.05444004780517031,0.06730763386879812,-0.03295059595851842,0.018589596930563605,0.03154472972493913,0.019019211654342758,0.010867390211906441,-0.05568081290795223,0.01590026151780701,-0.01211785599031277,0.01580395746581657,-0.027227314405232336,-0.020424507070674097,0.03157536873941448,-0.04359414125909587,0.06580124007068591,0.018465146534599897,-0.02591912677657466,0.025350645226489422,-0.009020621988858165,0.01045039268173739,0.044155766342871695,-0.013412497377326749,-0.003070343434746758,0.00151195528158152,-0.06385523216651168,0.07225606374929815,0.0591391587009712,0.002534356984473309,0.0184314661359255,0.010503453360573749,0.032118414245969375,0.021762600964064464,-0.017979260901135913,-0.001381312571845182,0.0586322827568197,0.04828567048820079,-0.038486699749150574,-0.029981918020968987,-0.018116322101210273,0.014892436103897401,-0.01253301449168882,0.020283548251140007],[-0.056204740760969735,0.013705059482602627,-0.0030996473246861847,0.021076436865983327,-0.0107926980430249,0.016684665867682417,-0.015064237318596076,-0.007175805333460233,0.014970820379759466,-0.023775666918004534,-0.00286780114816596,0.04911360905786859,-0.015700930626541036,-0.02777729656419551,0.041473247810061065,0.008910532602123,0.00715383081057637,0.011093659243646354,0.01893881154543486,-0.046049586086078786,0.013256557354320592,-0.0008013477959999218,-0.02282187337074397,-0.014826618778374842,0.027518160748095294,-0.009020695124488448,0.04087239837999511,0.013856890766872309,-0.030228351367818082,0.025502769948139884,-0.00611428314088581,0.017137480449009937,-0.0018050356421985027,-0.028832518519338043,-0.037880478457725734,-0.007094454593212959,-0.01945255270422241,-0.02464594579400544,0.005019480617180674,0.011510962794767116,-0.019859519160782366,0.0003644256545912465,-0.00022729710429499582,0.02520106582182863,0.00724989972525825,0.007846936159856214,0.026947122109373486,-0.038648729323625605,0.020879370355953508,-0.05821405177069676],[-0.017471036862185273,-0.048878639160641016,-0.03892825338972905,-0.04117366464181231,0.050950623724559926,0.009171597003072152,-0.018751658797089468,0.03716823986446631,0.013006115996541608,-0.0024935835940824835,-0.0037880631664040706,0.0034156143290860743,-0.014616754146059223,-0.0062592421246366395,0.037102504602999915,0.010953192813887735,-0.03956080371640526,-0.006317402114418017,-0.0010980438333143905,0.005454441182689008,-0.0147862364140238,0.009200027184118633,0.014308618246952589,0.004023558431956814,-0.01792083695274161,0.004955838734661811,0.013842924422591154,-0.026770305049450226,0.010764464174263626,0.023219237743896066,0.03168145401192168,-0.04973851122951487,0.016836216353095575,0.0255595390689967,0.03289819120108268,0.009353611020592026,-0.021477446363665362,0.045469627322111204,-0.023413524555979753,0.010304077081057312,0.016053197727765946,0.012348066865507138,-0.023239540260542365,0.03582412187713819,0.015070041214732561,0.003878756852690386,-0.014481683237396549,-0.003697155726574076,-0.01434141765784339,0.0032857389857605733],[-0.010444229423578205,0.023758555294709188,-0.010547632586235912,-0.04663499794762631,-0.022174973092693902,0.00040547061979273255,-0.026346875836436568,0.009734083913646475,0.022439820518138996,0.025439514046152124,0.012365460390937815,-0.04639886704370963,0.01630479673838777,0.016105217373691305,-0.011277078730402392,0.020542142489170252,-0.02225005581108876,0.044072270422420456,0.008586911838797777,-0.025306951667082103,-0.013176844607752342,0.012010744572380714,-0.019590487531360813,0.007788675435521956,0.08997730644463191,-0.0010512704863852194,-0.0038840789619188553,-0.033659364290563126,-0.03187879106951134,0.004688239402783929,0.01486671838987688,-0.04302723874994378,0.018630222819972002,-0.010935455856560628,0.028977269080598403,0.027768371529753953,-0.012654157406378642,0.038700967058322405,-0.019321390905896012,0.0280120082178303,-0.01068729931706301,0.011530371015444834,-0.03204399481823808,0.0200384029752961,0.008419445104925215,0.014138928326327781,-0.02190616294263345,-0.012703401906301034,0.005723176918167823,0.0013425459628337542],[-0.025257848720265604,0.04485368945856414,-0.00757600717374884,0.0122977827074738,-0.024951744488574235,-0.036840235588155426,-0.021488715360007744,-0.04540464202305033,-0.035674257155208,0.017523467226850872,0.012994451138149841,-0.029256968605278724,-0.027090523270487804,0.02628394717423373,0.03432118046269859,0.012934053493645289,-0.0034210065035210077,-0.0038427243916795617,0.006450222788096994,0.009334488752970176,-0.016169526840722568,0.03400635989858748,-0.018775159121098093,-0.010737421232024723,0.018771930519212117,0.0010820751226009897,-0.01917389968016409,-0.027348414938184747,-0.003369793496088482,0.007422175312909216,-0.03464047525775067,-0.03524314161045467,0.024719100925318396,-0.03366958195230333,-0.027145123984250816,0.027517269844803825,-0.04263053740702459,-0.02781204565798351,-0.03322606052986672,-0.010938327900440782,0.0020879702418096753,-0.006138375257650924,-0.031172685268670515,0.04641555315329897,-0.0026697276152601737,-0.005610141879641437,0.005085193282613714,-0.028053004096426894,0.0459528213015767,-0.033308523822422886],[-0.0018414424464521732,-0.00832757697751084,-0.011591265312815137,-0.003621471028768442,-0.006076406955950813,-0.012030883111395484,0.04099393743500481,0.022069999203431712,-0.015008645272487863,-0.03015193990748282,-0.010909610312478397,0.03618651734269913,-0.04488919229268146,-0.0568172187546647,0.05677394214564823,0.0344208937319017,-0.03947572813527975,-0.05613269296797263,-0.004822484046528405,-0.0012987728702576534,-0.057775949047698255,-0.018302473751124163,-0.004699814123016949,0.013412931078655047,-0.06540891895422302,-0.026778138825317287,0.023526291037470413,0.002575164896613683,0.018724776730167363,-0.02759472786638364,0.020734787169309273,-0.018169327200650155,0.03022545975716516,-0.0038949364384810847,-0.006121677563741163,-0.0043955660490692244,-0.05261172496260594,-0.003052999964320491,0.02555454005277149,0.005148370194291509,0.02487649961974717,-0.008105519065126528,0.013816137878549458,-0.02148018579404283,0.016892095184561792,-0.03410494288984812,0.005348065265213364,-0.01999531638432515,-0.0016317531517219437,-0.007504559910008533],[0.018931292875825362,0.002869044218667304,0.03474517982155623,-0.010072760554497337,-0.008585000101663322,-0.012613213950268895,-0.03951389994279707,-0.04650262402206331,-0.027215702066727555,0.04715218395663086,-0.004397320082618197,-0.04770353878268336,0.021351368941812304,0.039636904737878,-0.03787088798740391,-0.027423319769395715,0.021038795218828718,0.024625048575701643,-0.007203032439736345,0.01634645356843665,0.015785200183652624,0.016732908913123075,-0.004792760309402318,-0.03380908945049133,0.07930871150675309,0.00878071384424419,-0.03782518333950237,-0.0012081223896530054,0.03304094547178929,0.01504061528407969,-0.06811371079509185,-0.027417959620798047,-0.0057141571262482194,-0.012686323188795375,-0.056326533108096065,-0.023017542665877782,0.02227079662419381,-0.04644946012407492,-0.018638506030550794,-0.0002749093212241708,-0.002746632723449981,-0.006492521874337223,-0.003334720306717113,-0.026498257302962448,-0.007906511642600133,-0.035860208133661343,0.0051850638303204705,-0.01484772916247638,0.05593263359613082,-0.01146923085539267],[0.0365872439257385,-0.01484049063620161,0.029561813608935367,-0.006644208285286844,-0.006442519945096099,-0.0008720566765793259,-0.019348648911939326,-0.004422846698162439,-0.04679820419573834,0.038681311222005015,0.02774485265376327,-0.08906636657488648,-0.0024366129890680457,0.07939628698149356,-0.03504505610687331,-0.04143653204708099,0.03282342104327607,-0.009383333846742203,-0.011505425101985715,0.04102827578793868,-0.005998049586354356,0.05257938013511,-0.0026845758716974666,-0.010157251797101523,0.010808468477269479,0.014537783146898322,-0.042214448107587954,-0.01867579869184481,0.021080335830695705,-0.02247846761241462,-0.030402591292084044,-0.002569825019178882,0.014313514857587854,0.017439072524248027,-0.016984165363341804,0.016916342594470793,0.029968315828368897,0.015889330034374337,-0.05717587260011497,-0.039872779788492275,0.02430207741206003,-0.03309121518004625,-0.045878641918689234,-0.028745434333512013,0.00784474989363469,0.023719974730552786,-0.02616859211097593,0.021428373830631613,-0.01751647810352606,0.02522765514397016],[-0.014405740337696751,-0.021663235236616583,-0.032607508710384134,-0.009172101025181002,-0.0415733836477055,-0.017184159307391252,-0.004532884121783329,0.013055973920325087,0.03394970107824874,0.0001873545730109085,0.03130410307029275,-0.04780952649649162,-0.0005450236062339176,0.05536341632391574,-0.029220839419686253,0.008973800902508516,0.028643156724046208,-0.006030576871043473,-0.03205341051680766,0.0005647829842134542,-0.002797111772896207,0.011585424860889823,0.022543492282840513,0.013155311247585726,-0.002343325322304895,0.026604433962198498,-0.029900601383600005,-0.002411679816463358,0.031708877947381,-0.027750125222274817,-0.03133344889452047,-0.012829472253594685,-0.010321752603027236,0.031792057052119224,0.0014384608508822383,0.04905351500393154,-0.0011706126374322699,0.0037695973069499043,0.018408894550864707,0.0038753913819456493,-0.022974062188143345,0.004144552561267572,0.014262309681896762,0.03258610862095199,-0.05841824036783933,-0.011891318248859289,-0.01275964168969047,-0.01162151643139668,0.022953000389069896,-0.026491994602718963],[0.01043813431010534,-0.0033808014302018873,-0.01909900053141015,-0.02856454066482897,-0.02100078055434242,0.009382837514296985,-0.013074014398584025,0.01184144557462323,0.0416605259480719,0.022378542451694346,0.009592688443319215,-0.050687565895819235,-0.001082751254228556,-0.002839739403732399,-0.05998773478343612,0.03702168318947251,0.047642417904212524,0.012397538144341198,-0.010657377932193266,-0.02095259625373634,0.028317533954371428,0.01948279243334846,-0.06356613951544772,0.040196348556309616,0.03922364733948208,-0.010297611408147252,0.02008634473302446,-0.026930867806219623,-0.045653552769797635,0.044684262230994844,0.0049302745780749925,0.028789858727947464,0.01839611962226783,0.04205301787179401,-0.0002143418398638736,0.03770713559081562,0.0224523999748564,0.02114539070842957,-0.049912176926842106,0.0007408954818649009,-0.01622668113476993,-0.05270288002757984,0.017885176442256713,-0.011188900988785291,0.009993084670574586,0.03410880314997981,-0.03388440229075897,-0.0173243000617304,-0.016209228320237704,-0.016678491889087783],[-0.01701506087935177,-0.012062348305477014,-0.014130369713208562,-0.016207604736865413,0.06014134015315674,0.019215435643503122,0.02544514516320666,-0.009860506813105012,-0.05640319744333665,-0.030513090119251813,0.0020625280234587047,0.015237120448389383,-0.0008118085185453571,0.017248457842194757,0.03172403017349502,-0.03113269080461368,-0.05019031804829979,-0.026173043169370348,0.01880378365757747,0.017144704631430342,-0.0051846289246154365,-0.043859555820937673,0.06826693874770076,-0.019520013155025353,-0.06652523388178583,0.022403388238503644,-0.027910673001698392,0.016804157277645032,0.02434780262940191,-0.03475096756831994,0.02987329582754033,-0.0211795943086409,-0.013197170912330124,0.017806991584483216,0.04473973122338409,-0.011823783533024242,0.0071010343798769545,0.04054779622119531,-0.001618218876853685,-0.008380910291504179,0.019769042673969887,0.038179937831999106,-0.013819668255831868,0.04920738819314211,-0.00609080704416531,-0.006862659774968114,0.005374920923219175,0.03302295961650459,-0.033542245619867406,0.0273624113007976],[-0.024516894392805962,0.0027487707833153026,0.026085455221696096,-0.0008905022021407497,0.04570099420280718,-0.0029667098960465092,-0.0014412289678683839,-0.031695901636578684,-0.03976310833961376,-0.00842123695694699,0.04460214677947574,-0.019904646134558394,-0.014744853634609121,0.0696751245026341,0.005252030977835637,-0.028432139556913483,-0.023347149081698385,0.0015831382886752304,0.008959205209824333,0.005595448473540557,0.028627321751974397,0.01334283414550328,0.034180327394370824,-0.01218449025252988,0.02399904242974091,0.017932897651002755,-0.03867888678843763,-0.011226611022050257,0.04652721895952608,-0.03832988170768539,0.009578724050611043,-0.04564343253145539,-0.038940246262333174,-0.016320951518776054,0.013423345934818724,0.03514674506449439,0.03990695425455343,-0.004895514801657718,-0.05127242856208791,0.019713076610573615,0.0024610484445096847,0.009365031987350657,0.017580594212002528,0.05203482884294643,0.017802563669011406,-0.0017070461040806454,-0.04234509354693208,0.03360379246588989,-0.004872153239445897,0.006355266403634936],[-0.05430735512697151,-0.013807036011339195,-0.007898659475994337,0.042177448118976946,0.04087105398224696,0.020662290476561485,-0.012886272778409862,-0.028415285383034204,-0.005243731174142084,-0.012517696917643654,0.024668361420199292,-0.006173293232599547,-0.054846427071845075,0.019706120905978574,0.017412630595421245,0.003995285298455133,-0.008773244016893975,-0.024493795570167173,0.009500228519843425,0.005386994960129872,0.03295445294612943,0.0027131333971281667,0.003688260174442069,-0.018356281639614686,-0.013135475205550784,-0.011305240349364244,-0.020198597205688826,0.0041388784645504184,0.03735744170175791,-0.004248013045730439,-0.040522060635056686,-0.005494672831773332,0.016815883740565203,-0.018730972096270032,-0.06741541696636932,0.009585086094551677,0.020919321591948776,-0.011858408433374174,-0.05536952728193555,0.011915183881948045,-0.04429136596896882,-0.020295397202901296,-0.025989356850882425,0.060716574730817645,0.02006070283559563,0.009983244846938948,0.0031893940820533683,-0.0376024221079441,0.002285490889018551,-0.025068009525242463],[-0.00786203568808447,-0.0239316599093974,-0.01913501790836314,0.015225984312548981,0.03107480996152092,0.033338573077322194,0.004957296853283174,0.02522827622679902,0.05315537497511896,-0.0056588260528414504,-0.010316804586676788,0.015807261011930057,0.039953182854584046,0.03571672135955206,-0.05022631027434046,-0.013152208768352693,0.00795115057007785,0.030033436607052467,-0.010769264388896183,-0.007011634477423234,0.04340220042252876,0.02721756316317986,0.027185850957974385,0.022099947409895716,-0.01568168370097365,0.0420683628628647,-0.0004122556248301935,0.00905273552315779,0.016413287319470726,0.008752046842682194,0.01997749078274593,0.008890975270011744,-0.05423430657707567,0.037627568700656616,0.04338935909481585,0.004682621835490259,0.048102208288529354,0.024995857557185103,0.02458898828657957,0.007884629335730706,-0.04895552183477553,-0.0030995572723047943,0.017147555429242876,0.03793729923502744,-0.02548868756443366,0.018043259214361736,-0.024586116637461464,0.03704731562558484,-0.01587391004950995,0.021248206556663603],[0.03098222743616373,0.03063523581735937,0.00021371359289314162,0.03846708172372101,-0.0059738637157628165,-0.040146520916450656,-0.0019210402169617244,-0.022042003711786013,-0.05060357548491594,-0.04251498849657943,-0.005807518847948139,0.02406466107684709,-0.008641717814896475,-0.01006686504911308,0.05071425380984055,-0.00562858769277394,0.006709722240941901,-0.024592672259636152,-0.0005114452261449492,0.02385022487669712,-0.032783725200589114,0.004653670882629822,-0.032847825812607756,-0.002249269251083098,0.0035466897205264237,-0.02101506436423369,0.014737255901213695,-0.00964124975461287,-0.036067545447056655,0.01984864239771237,0.02051125379010977,0.008545857078681758,0.010411246549121872,-0.031491203995681505,-0.021516026678904617,-0.016543480727375996,-0.001479155898962528,-0.04430810267144267,-0.022821423121193934,-0.03590407984418475,0.05612330366787577,0.007854091665779751,-0.028036483252263728,-0.02561139039167494,0.04355004001764565,0.03381738285269482,-0.004988916575655738,0.008497196851567553,-0.011523261163610311,-0.014946639006020508],[-0.0029775935462713994,0.034802471638773785,-0.0248640782381718,0.03077485078060472,-0.08362415681504484,-0.0846625663819172,-0.026216116941559,0.019032811764055677,0.007927915137013464,-0.04265928503520627,0.030228106415822898,-0.0007063442752028816,-0.05963879797134898,-0.010036139533502896,0.057089890168692106,0.03396321239091428,0.004240359179681415,-0.05151984060400838,-0.011243345652388336,-0.0014168845749980598,-0.0840770280918974,-0.00975784005075022,-0.052410901733086636,0.001675424177756945,-0.025892482890985734,-0.03479534549113344,0.011979912365948697,-0.016194525721028155,-0.031944493560159444,-0.00816021858381942,-0.029103522816074694,-0.0023284208438690644,0.059416911453467926,-0.025646715901116907,-0.0630300053820113,0.002924588397761551,-0.06349452748590591,-0.0415679493658443,-0.02752416945589586,-0.011245470650207326,0.030564087629971995,-0.02348286005548697,-0.03914869207111404,-0.01672804899401882,0.012089105418773966,0.029049701163606258,0.02229599740852353,-0.055276329706772126,0.017427373099149688,-0.05894185464975789]],"a":[0.005783277273863864,0.06369047235830402,0.03487735318517015,-0.06602148632023984,-0.025211312426144262,0.0259928264228262,0.009882423542386255,-0.015453370516257822,0.10079990417451128,-0.030144350680054985,0.09746451609220819,0.026116695696137154,0.03181429993529932,0.006810803209017675,0.011577534204182404,-0.05439232768737779,0.003784559151024496,-0.07310060379749272,0.02837899794978645,0.04457307469482012,-0.025767551452979147,-0.004847429872376782,0.05140955396089442,0.03598287460520813,-0.0061077917294851194,-0.13607972858354225,0.026088899821483102,0.07648140669613174,-0.07669300658293736,-0.07955380543303178,0.09476085045502121,0.08061669359447063,-0.023734952402003198,0.018186537061051836,0.009444779590404621,0.04634618690178143,-0.07925245194666364,-0.11684176855902814,-0.025606489838500175,0.051164644935796984,-0.14383466115744506,-0.019958527496500122,-0.07829634224635076,-0.0009052371491587302,0.008454435354429739,-0.15720367093675208,-0.008971129885863193,-0.04535949657346469,0.0905277990899403,0.08778949618157741],"b":[0.008983726472137812,0.008316928519724976,-0.0002959907256353195,0.012704251211781361,0.002085134554184737,-0.01481959585785749,0.005203076241783422,0.01267773763910837,-0.0070436318534507466,0.010314797834386021,-0.0010341392796048255,0.017025403725676257,-0.012683237881102169,-0.014703810543081522,0.015063252904304497,0.004764945258763342,0.0107886592387261,-0.030787458043919042,-0.009539959034539946,0.03149939674816663,-0.0031744748114077587,-0.013387096923709664,0.0016191318861816747,0.009031556922134674,-0.024245405116016444,-0.01445029730078898,0.012402299308024955,-0.0007816045503752059,-0.012120851548630823,0.014639572189959378,0.003977950594637137,0.03639110497116152,0.005207780418804174,-0.0008866662275572763,-0.024396204041764985,-0.016887809200653154,0.004910265737590222,-0.017726799447451317,0.013997348496936683,-0.0015517804859214478,0.01377743489370423,-0.023137158616113648,0.013205161841319736,-0.0021939086027752287,-0.025902553106609896,0.01687388302556442,0.010869782984222873,0.005818597259088216,-0.014113866394571874,0.013034683136057532]}