{"Name":"RbmSpin","Nhidden":200,"Nvisible":200,"UseHiddenBias":true,"UseVisibleBias":true,"W":[[[-0.008445117452964532,0.01794290070299551],[0.016070634355189524,0.0019870084048666456],[0.0011232886872176418,-0.024449118651931678],[-0.008948710006748923,-0.015654421008417057],[0.02204249701275126,0.01632381982402445],[0.00977262675327992,0.011854524094091901],[0.0034079145719969964,-0.002505672942683541],[0.014147673620357432,0.012049042428700845],[0.008329058804493819,0.0006272245518793322],[-0.016504260810015256,-0.013640092709469986],[0.015109088147258674,-0.00787805715233639],[0.004191052481482345,0.015403939720709876],[-0.006426654018805259,-0.0022982448636833996],[-0.0185770484854275,0.008583615181323664],[0.009596113114041346,-0.009729161347735887],[-0.0033694813416019808,-0.018158978586442644],[-0.01428320843531716,0.010088760206524352],[-0.02176145422901586,0.0033084394327047044],[-0.018389307217675194,0.013526501998825904],[-0.007152133307950673,0.00949831183783189],[0.031478434042237456,-0.012800771998564223],[0.009376108824321107,-0.016974506003857033],[0.015094640402486318,0.006101228158593324],[0.008768655949416407,-0.0056677258836678734],[-0.02073494912482879,0.025009657174054595],[-0.010668065911268804,-0.007794265690932042],[-0.02825850119904109,0.000940890828240123],[-0.002497044365097176,0.017970484548583982],[-0.005035905966606182,0.014164357417148127],[0.018773384249207246,0.0006059708708008793],[-0.014704456000310276,-0.002225510913506341],[-0.0027934123292239063,0.03232657479955606],[-0.015632424116844526,6.939561773413715e-05],[-0.01835374530986754,0.014601026066555205],[0.013189651758004134,0.0038852127505873786],[-0.0011883608853744641,0.010970876233019212],[-0.015848976768875866,0.015008285443025113],[0.013100733333400876,-0.003322458197592022],[-0.013521848169506731,0.003347740973981686],[-0.013822391966481794,0.01855872539020902],[-0.02752565535798578,0.018914298966661178],[0.014557715027769192,0.02632687725109662],[-0.026503080383151943,0.00652982286876982],[0.014101827013073137,-0.004114817713963209],[0.02213171257094485,0.012769816770021394],[0.018781142661798245,0.002795852846404271],[-0.026364931739496267,0.01571909959217059],[0.013724883519908668,0.0021743199934581535],[-0.010639235158042055,-0.019210473875983607],[-0.0018203489873566798,0.002876947932667464],[0.0208153001688958,0.0016701330276119178],[-0.009227967288937737,-0.005155996382130137],[-0.006007199089561147,0.019309982315400077],[-0.017360562205882297,-0.0018650354845994857],[0.01029991756003068,-0.003965745097160209],[0.03376532917840334,-0.012540875782999299],[0.013330955983370127,0.00395586546547683],[0.014820915795348374,-0.013960081985435044],[-0.008368993712688044,0.01638589219243331],[0.0004982154363221232,0.00014839806601735141],[-0.0029102104133166117,-0.016546206970749808],[-0.03355320866796831,-0.006718684221110953],[0.010718165331276674,-0.005133083645170411],[0.01604416050744801,-0.0049823306727152135],[0.01186523459176133,0.010712884609774535],[-0.011641479907198899,0.014936631959351703],[-0.0012687118921413743,0.009534381017958362],[-0.01954863800497179,0.002950479459228254],[0.02093321032344505,0.0066543549566581974],[-0.014854434050186357,0.00027187145565624096],[0.002309036175919572,-0.01023470851848065],[-0.0067366789093245396,0.005165783395588443],[-0.01856328204973072,-0.02368140497494726],[-0.003679618913461813,-0.002814255859890942],[-0.008757119029897896,0.0022031728202436675],[-0.010596127320698638,0.003067769640250715],[0.021137790482966816,-0.010113656018738308],[-0.009635976392048252,0.007057958633760918],[-0.0023492571738163584,0.004468456965354893],[-0.02207383899775456,-0.008329556514789692],[-0.019645816031698564,0.0022724420245277873],[-0.04007877492647786,0.012659179935474392],[-0.0038270268929496733,-0.007702579511448239],[-0.022294042951836464,0.016089304314416502],[0.004615953423020139,0.021647735685545084],[0.00404905325894096,0.016747586064970864],[0.006681621634100791,0.0067729198730946665],[0.003850383996827103,-0.010329509331917765],[0.004144071817927681,-0.036371667738263794],[-0.018749836416040618,-0.026679193020628673],[-0.013310274453786464,-0.003598168354886304],[-0.007429179741550644,-0.002536189435991625],[0.002898447345753675,-0.005796267557334498],[-0.011522322205266573,-0.0074217521476281035],[-0.012701075823864354,-0.01086264778557803],[-0.011994482642214133,-0.028755939898234092],[0.011426702325689805,0.010247104263429535],[0.011957592514452995,0.020045395473143122],[0.018017964180383914,0.0006465577469474508],[0.02573632003431843,0.013725806071983964],[-0.02476354059144347,-0.007519662969952758],[0.0021101809730084595,-0.010454774153028992],[0.030068108031357385,-0.00743938550390885],[0.007521662800492696,-0.0038406517295022625],[-0.02388409354967796,-0.00371817810953882],[-0.004960959196137359,-0.03271355913176143],[0.0001611013647584425,-0.006828769703578205],[-0.01912679593404998,-0.0019438543162528738],[0.0009651389816888187,-0.015343822701176207],[-0.005766103878268925,0.03180754739229329],[0.013370401918505585,0.01888469534537558],[-0.003911559866241947,-0.010898015654531992],[0.03831124275738695,0.019922446067120667],[-0.0035032426329629834,0.00287893381631722],[-0.02762985729680055,-0.002678708439143732],[-3.528813246005732e-05,0.0009069212591637588],[0.026959133173759062,-0.009040122121613085],[0.008380529172525108,-0.01674420386908004],[0.0005413632712196999,0.0034750778862470497],[0.011250208019062017,-0.006586177545688934],[0.03388353221457214,-0.015790468956884525],[0.016304171998753857,0.010313964233527359],[-0.0027373987664698176,-0.022641165422616634],[0.01354302712187451,0.00473947020812732],[0.013204274767673035,0.025111956494699002],[-0.022610135980999424,-0.005837390711882979],[-0.01595773039485812,-0.011267048507297234],[0.002322155666709009,0.007369951489404388],[0.003147818196054319,-0.037371995279591196],[0.004349232278687108,0.028015147039015538],[0.002216188394327274,0.011307265116958707],[0.03836726951334674,0.02700494885169471],[-0.0102380779181309,-0.001183067168667523],[-0.006143844118241066,-0.01582789170373737],[-0.009557460799662203,-0.019470185114499258],[0.007164534999323597,0.005984253497018087],[0.019971633854551953,-0.02638590325757769],[-0.0019119570383764571,0.01304066047128501],[-0.007166471229576216,0.018606817211176026],[-0.029320042981437054,0.005005537623701777],[0.005581594288158615,-0.0418714615563185],[0.01073217342129759,-0.015289658349679545],[0.014707172731516411,-0.017604929484412255],[0.011240517803901376,-0.008719929565976677],[0.007894613045728761,0.009387278074425884],[-0.0026652307795325854,0.0012973594158765195],[-0.024758451431995832,0.006331382316188922],[0.002283462075726681,-0.00960576671064483],[0.03200714132969951,-0.006255153022203208],[0.007857235628779756,0.010490407050267894],[0.025993245284415108,0.0012455127235764382],[-0.000704924505795082,-0.01672946841202493],[0.005427012651045263,-0.004805471735848209],[-0.0007953666602717093,-0.008828668005364616],[-0.012139655666507867,-0.013381647782615014],[-0.01382015131393393,-0.0019405814006387117],[0.008995559927505122,-0.007565045691443695],[0.011525363987316361,-0.004900762708388843],[0.0026767203488194625,0.0008947747766898011],[0.007446662690700333,0.007048880243834881],[-0.03456588029917057,0.007159237446743207],[-0.017632954136619874,-0.009161866696484836],[0.013933735123047148,0.008134913669509431],[0.005413361993486137,-0.008704020104840593],[0.02181049099993484,0.012298778628582538],[-0.014770236498854394,0.0013627986529821416],[0.0299415283201801,-0.0038351626265022603],[-0.00491111413628585,0.0007627750366897947],[0.005247754905112249,-0.0030711327484014223],[0.025586346748133936,0.01298183829966855],[-0.027111085014833287,-0.005659003564496453],[-0.0006423051288823511,0.02537760564894833],[0.00856477652514482,-0.003319581464880211],[-0.004561538289131255,-0.004934630525342411],[0.002282332022265939,0.021186090392029698],[-0.016604595014822213,0.014285991730011431],[0.012370790385031284,-1.81072589171688e-05],[-0.013916457302210555,0.0026657829180268206],[0.003748801928393536,-0.02687444819157314],[0.03379967511335307,-0.00469167026326176],[-0.021980525525695585,0.005931621999297615],[-0.01481263466457089,0.011334291032001073],[-0.010617887019245414,-0.006950995649935088],[-0.001246133348288294,0.019632864842874072],[-0.011286384493855616,-0.020182539999706216],[0.015188716119347356,-0.02612221417200603],[0.0013511144284559708,-0.027555664505731655],[-0.008811391369563992,-0.01800539759173022],[0.0049682270023408874,-0.024237020521744583],[0.0022274246088371486,0.02282193129141949],[-0.0021788993419139006,-0.006709947506532265],[-0.012841475506701575,-0.015410045091674783],[-0.014563146648579616,0.013801666792413049],[-0.01932111115855774,0.03105030103247268],[0.005290674558175152,-0.019648798619831556],[-0.012334124938956612,-0.009390531442977672],[0.02389356709894034,-0.003289999309982787],[0.0037585399673698643,0.006241331469426608],[-0.004914193333078959,-0.011062061619869765],[0.0023158512885022176,0.02161191799974105]],[[0.006831520205696152,0.021882648139921163],[-0.006355231711898355,0.01286924816965172],[-0.015316550770437743,-0.015804935925953723],[0.015373253444603498,-0.009422729264627033],[0.013598196728906359,0.004183611041745446],[0.017663507956261405,-0.015747952175480917],[-0.028761628686233578,-0.014677521441775145],[0.023630876932018013,0.005103945516613254],[-0.023566089117852657,-0.009391917068707716],[-0.022689380965031196,0.0007979986105354593],[0.015909631500372366,-0.0024442221253383294],[-0.015130389205970929,0.006414161295997228],[0.007984143444244097,0.017451429761163213],[0.024625140736969166,0.03169076098407437],[-0.022996000780990646,-0.00888081067231229],[-0.0037043541757455977,-0.012907340849613879],[-0.024926202537447043,0.014156319018222018],[0.018887762372246333,-0.02579310718147219],[0.015712753942966305,-0.0029932067592440444],[0.03510643552180371,-0.004434835391759496],[-0.0026641866555612076,0.021347836275726687],[0.0064262177165910535,-0.007407592539165728],[-0.0003727476754367895,-0.009625246306475358],[0.016061522206263588,0.02141766823980959],[-0.038294561099959545,-0.009657211884751861],[-0.022826799545446093,-0.019685392389593794],[0.0021818166568629313,0.021902747610525783],[0.013621829668361878,-0.012090930342754953],[0.01342318389450241,-0.0045573667733928395],[-0.0005056344205755688,0.02342921725727907],[-0.0280084762333081,0.004574969851785541],[0.011217212416585534,0.005723376944141952],[0.007940110683669897,-0.006441895283364366],[-0.00914333161075425,-0.0017291427816141722],[-0.036093477151059136,-0.020030752051758326],[0.03522537921340203,0.003412785470589625],[-0.011972155214581514,0.0204297837085018],[-0.017361739683937914,0.012597695921850177],[-0.02707439532867291,-0.028787020582630548],[0.020777943019657595,0.027020089736088014],[-0.02907255024680731,-0.012850990790834831],[-0.002962396721600967,0.018887966010625003],[0.01885125019568442,-0.0034584695392557525],[0.003089120476955442,0.018036679085081317],[0.013708672332563936,0.005275480320047054],[-0.002113712227907483,-0.012524137598570247],[0.01211572051022772,0.00420880812910403],[0.010488422090946725,-0.026249422760395373],[0.01090616215509222,-0.0025092307973324057],[-0.010070309672378323,0.0031553563100533387],[0.007956014198312981,0.005646116424482326],[0.009964124377158563,0.002341381014347961],[0.030990684492767342,-0.0023953993147903946],[-0.009682349140521697,-0.007151971948872568],[0.0010328291264733022,-0.003764513881378071],[0.01599715623949331,-0.027161477880476254],[-0.0026369462965649734,-0.02437923095012347],[0.004617974522239487,-0.01193326847372813],[-0.006451247385752768,-0.018968271137664434],[0.008052092004015,0.03080067394341487],[0.034756349065365906,0.001483849102514638],[0.001039694121723114,-0.012779001070754569],[0.018155867488357114,0.005582999216427484],[0.005883554638787602,0.00310270439918261],[-0.02469007096820431,0.0013475819303049629],[-0.008102770938073212,0.008398556785694317],[-0.019208307324380877,-0.009840539315264015],[-0.01895072212130168,-0.019357033591497454],[0.027332216438997657,-0.007857678402855986],[-0.016327186955772212,-0.011410203144130986],[0.0020008371972988184,-0.0021139053138011406],[-0.0025947190091725873,0.024871959383860887],[0.0052721307482435946,7.23953232927262e-05],[0.0005672943734915305,-0.035914930613168826],[0.007558396223113505,-0.028907405097626803],[-0.01741425164141953,0.012122037643394923],[0.01607337567263952,-0.006747743325511604],[-0.005048535850428596,-0.018038341972751462],[-0.02119222406467214,-0.0030554356618771334],[-0.014762166732620902,-0.007337702900886796],[-0.01186741757243561,0.008138047169583967],[-0.0012022187065478893,0.01622312333479374],[0.005555229935428035,-0.019346629109328224],[0.02871867058674434,0.0062634982973002835],[-0.025459470622512494,-0.016424973507322194],[-0.014912235364633295,0.02316446751623395],[0.0048343295532221765,-0.017187490796244712],[-0.021139882717223883,-0.022336231524785456],[0.02903108087287347,0.022402144085653726],[-0.00783287248631019,0.017728188561182332],[-0.007209379555327538,-0.017435753730531453],[0.020217069588791846,0.004210408875960403],[0.01487496457564591,0.01827026766079768],[0.013946174027166323,-0.01593606373648552],[0.013291375857673957,0.003350617190863465],[0.011401784739323776,0.026581683670361844],[-0.008287792578060758,0.00047568282288358316],[0.013043842295349155,0.0046162580625290495],[0.017941191739879996,0.020610095523512402],[-0.005687716205840332,0.024724093406087323],[-0.021789104369879433,-0.014372520571200384],[0.016430920456835984,0.008322992228118012],[0.0011814004789540726,7.36344196737319e-05],[0.01130997856323536,-0.026324105819569968],[0.001748341205135619,-0.0015420467065667522],[-0.028841222093572757,-0.016319661085976215],[0.0030589232701396622,0.001205484184696317],[-0.012190808043342624,-0.016551163049955242],[-0.015023536544156668,0.002396144374308214],[0.007669822853583641,-0.006814110740067287],[-0.011582526951330663,0.0046864338142107945],[0.003814423202637304,-0.0020132319244764614],[-0.0352251770495332,0.026015811455730675],[0.01294313418239653,0.006518334543022146],[0.006377993562401739,-0.022585200653449867],[0.020926405556591574,-0.020183341824742036],[-0.020782626921055397,0.016959117439902416],[0.004971932682668402,0.03125987192369492],[-0.00483238535535171,-0.005190453921156455],[-0.019278109230375505,0.031798368409910356],[-0.017940237550325436,0.004554320042294453],[0.0016511469362983661,0.011708411066220201],[-0.029757659961042494,-0.024517400701018256],[0.02135958279757952,0.0038316998759881666],[0.008922931281687273,-0.0010921269831141644],[0.021961565250760946,-0.010068378361533233],[-0.021600236756647344,-0.008118674815597983],[0.03236247206696373,-0.009457984965876744],[0.004122905419440578,-0.028937911681444883],[-0.01077432296190406,0.021869609339334614],[-0.007625627987665539,0.013742966087727817],[0.013777096476272217,0.0198750221813642],[-0.011676649539283003,-0.024709654684555403],[-0.008563969893009685,-0.030935390999617507],[-0.03351794182119626,0.002742424659950079],[0.00027675673628158384,0.013362497560788927],[0.019839512212455866,-0.021091934245689392],[0.007472755400555902,0.006796627329548389],[0.0012741406014840232,-0.019158254377597213],[-0.014181117392086166,0.004472735642290435],[-0.006735797869084196,-0.0017490832839622723],[-0.027962073105189646,-0.002964380930954011],[-0.020091162237366282,-0.01670289196229402],[-2.4802700943877577e-05,0.023514571274940603],[0.02336433235579192,0.019063478730712048],[0.008104324323517747,0.010277367057250231],[0.003274831800362317,-0.007042204702609949],[0.010433295883875482,0.008932669850954995],[0.0013851371641193763,-0.00662717818833397],[-0.008685551995885301,0.013535314183402505],[-0.022645750491122794,0.01972600880303336],[0.029997321672058666,-0.0010621229843526354],[0.024022752027888773,-0.007429381440360925],[-0.0031873557681370065,0.020584349007588834],[0.017056098084561475,-0.005864947576564237],[0.011189512658960113,-0.007374945863006702],[0.012806379610224624,-0.0037348741227168107],[0.00142849646223217,-0.024571284381089634],[0.022737009608946056,-0.011149916819777818],[0.006778131271783328,0.004902539019256116],[0.003571925487000573,-0.035206041745884674],[0.013091682182097865,-0.00989830606103647],[0.027622810534250246,0.002457398598756126],[-0.026506626116994052,0.004851859514521127],[-0.014290491869062252,-0.007643547897650182],[0.026489741227528302,-0.007204894679960536],[0.006012883030330558,0.02371274816302904],[-0.009737216774027516,0.0003095252033075242],[-0.013535849041262104,-0.014784270258680284],[0.011746610622510239,0.027762673689207176],[-0.024593151865552432,0.0035631458214208924],[0.01059186914370297,0.016132169030504163],[0.006852732127979372,-0.016754489638761846],[0.020234233371255447,-0.011319538037865472],[-0.014927985227891063,-0.004732509310827036],[0.011485714388593832,0.01259040094834866],[0.032342548227341394,-0.014145870689740308],[0.0016396443754272613,0.004992111851241439],[0.011802494381837138,-0.0035510518895493356],[-0.013960987179923336,-0.0077442391911576825],[-0.01851788261585184,0.012123972062258962],[-0.015483135938891692,0.004341120548564794],[0.03296086071072681,0.007454056724610784],[0.022017114678464393,0.03204440373023109],[0.007080990109683407,0.023901875904844695],[0.008671401079843022,-0.0031699350973331186],[0.0035590642212485605,0.009025272423131475],[-0.009889858552297954,0.023029370604897178],[0.007625440719651313,0.026615240986496536],[-0.031834662682589686,0.02419297332242134],[-0.009363630935717428,0.006420593643730016],[0.007348534698841285,-0.010022161634704421],[-0.0013133973269885404,0.008906057253403297],[-0.012431347600470499,-0.006415032543687272],[0.013732853959855074,0.0027245178488685307],[0.03396402023422572,-0.019582573173156835],[-0.005207172329379377,0.006624579738702215],[0.005556360565147135,-0.003985051063360682],[-0.014608293535811091,-0.03082692048816999],[-0.025185657681838225,0.015455731556527772]],[[0.0006717584411037271,0.02613338451856133],[0.007761191386558033,-0.01556611540680302],[0.013101558993849807,-0.0018198299280374891],[-0.016272397000402672,-0.0016787739371564598],[0.0037216477236151125,-0.01015479102493054],[0.006260379062735552,0.011949165472982828],[0.006623919790428089,0.03887951323122979],[-0.010248293647980394,-0.021222194094447474],[0.003290049965211997,0.011189339541527723],[-0.02514740557821478,-0.025091981027105862],[-0.016035501330620407,-0.006885325815392253],[-0.011370066147675686,0.016865473562111932],[0.029652552894499164,0.004957957752202696],[0.0023659991967313523,-0.0016736649060844913],[-0.023814208350239924,-0.004971749687825249],[0.0020652665981203844,0.002384951288861131],[0.015270766886913029,0.012904889154813831],[0.004598797707209701,-0.004897524646880377],[-0.014004418621583872,-0.019693666988295156],[0.02755753807474811,-0.004752518197574913],[-0.009953550606130436,0.0036576723521834055],[0.006386209244378981,0.01346311918577444],[0.03234942846104219,-0.02140901604026506],[-0.004859889267443679,-0.0031369013056200207],[0.0008388150703889903,0.0233769867764543],[0.003347558819420157,-0.0007186469567251339],[0.022769806610923458,0.0067164871911783676],[-0.005042654724640965,-0.004415540293577219],[0.005246430861895261,-0.018475164177825833],[0.002239698960907985,-0.0131755182314038],[0.005375633596806545,0.014680402504009621],[0.008540197629307932,0.0034870601252272333],[-0.004059587842199045,-0.017675710066801367],[0.0029386584731275573,-0.0024269812400783434],[-0.010594863238537713,0.001341138629997178],[0.023648083564180487,-0.0009339686987184922],[-0.02020594259759718,0.02120198700026533],[0.016897076073756002,-0.01216023947825939],[-0.026009945247258002,-0.010698897772032596],[0.005247203823098263,-0.004899141695759558],[-0.009793370326883504,-0.005861663405940561],[-0.006879299800207335,-0.008394252444293301],[0.0003833196602852137,-0.008140082878927566],[-0.003595741765825949,-0.02287738194994665],[-0.0173236056638922,0.013604049980593252],[-0.004362924698212009,-0.0015444717895512845],[0.018964542297400747,0.027403523006041663],[-0.003101060645685389,-0.01085175062748012],[0.005544978704139849,-0.014863404033453025],[0.021567761492038137,-0.014723659425385902],[0.014621536655254803,-0.016972030724888496],[-0.014234623195990113,0.019421874400647795],[-0.015276780066516508,-0.0067838508877639215],[-0.0029706162723080838,-0.04103631876661654],[-0.0017993521358875778,-0.013414734362842158],[0.022777986650500764,0.00762580530000969],[-0.008303538037008971,0.002910214841284827],[0.008409481616308652,-0.006363291627113786],[0.0005211266894240068,0.017252013196370777],[-0.007752705184775305,0.004524137273216041],[-0.01836385586796092,0.021898663432045676],[0.03308331060244748,0.02786947997088022],[-0.018957740763093756,-0.0041764620202661825],[0.007295552040605545,0.013915242192936585],[-0.005846675516782403,0.012926494655237777],[0.008947455525130939,0.02891918265630888],[-0.0026821510808920654,-0.006632820579144792],[0.011714731668356149,0.006535642069568779],[-0.03012965249333127,-0.01995305003200714],[-0.02323860862336333,-0.0031191390018484506],[-0.014110183054535139,-0.017485249517431627],[-0.011363070535433058,-0.01230128305282794],[0.019906140194260208,0.01748227766329247],[-0.032587945960334846,-0.008832371996354456],[0.019049177534823613,-0.005938200630344567],[0.013658891316914262,0.015983429561398206],[-0.015485060975620473,0.008264077230764985],[-0.013272774108980517,0.004737223743665142],[0.007168123926143635,0.00209609505666663],[-0.020669048128152897,0.007146616846949889],[-4.6826537890121145e-05,0.0285120980925173],[0.005960833375414084,-0.024110135240292343],[-0.0219387013932171,-0.0034641192565956873],[0.0063026908571280574,0.00012901807395426443],[-0.02427087430204933,0.017358567621993292],[0.004346530613346449,0.01582637489373598],[0.007418189794520521,0.0010376108124463147],[-0.02894233745857171,-0.0004372462924460748],[0.029411336782301206,0.0030535212471188024],[-0.02404722938251602,0.0041958197324421615],[0.0005049403466196511,0.012328435847367671],[-0.020349576395659135,0.00965363105494077],[0.024756161331485994,0.007379075126057516],[-0.009040661938171367,-0.022311190493475356],[0.011241295735944111,-0.0066348963734681144],[0.037168128830312064,0.013387380003803535],[-0.011460262940083642,0.02905378609017671],[0.02076929059733275,0.027113932840367432],[0.03324788445091292,-0.025425901217229405],[-0.015217103984224965,0.008768421997852752],[-0.02195913074438864,0.0012257993866562952],[0.019056338014006434,0.01730250426485837],[0.018507017597935334,-0.01434676748850301],[0.01807794219175129,-0.008588090619181487],[-0.015894604046661053,-0.01677544244554312],[0.0007981318891311286,0.011601692886013978],[-0.021559558727731062,0.0266615397459809],[-0.013707550426912856,0.01733111345259887],[0.020878335898438453,-0.0063255658585505675],[0.005459416024271097,-0.0021387444866533866],[-0.01645462642669403,-0.017146141780010823],[-0.0007872332164144758,0.0064403958525841324],[-0.020843040778447952,0.004285531060904195],[0.012698102878897423,0.01172189736435799],[0.015899442893633625,0.025481205787250726],[0.016052378857076027,0.00968613611362099],[-0.0031224806620502132,-0.014191293956685582],[-0.01758228795599469,-0.003612340624833372],[-0.0019623009079478204,-0.004182796666512777],[0.019784042084338708,-0.024892529890873007],[-0.006335520116764052,-0.012507187971628218],[-0.015691421614674923,-0.008210712435000152],[-0.010765506376854642,-0.012761426578144375],[0.023812842142907742,0.02738480783791078],[-0.023016860044457813,0.011373269545841487],[0.030137652210389162,0.02057123061738509],[0.01946223422470521,-0.010785542079955832],[0.013170271490308192,-0.00499765522504034],[0.0007722065280860151,0.0066379255423231354],[-0.011935308723291382,-0.0015652823254335597],[0.036674970260200904,0.018237747959948016],[0.002034480659867113,-0.003927531659810096],[-0.012809590431217655,-0.0016844255559006847],[-0.023189258429265242,0.005838164975591519],[-0.0007531161702188528,-0.0001274784003722912],[0.022732168464782886,0.0075271901304776],[0.006227878331074096,0.004675560262072542],[-0.012988836129269866,0.015115176556083406],[0.016588960069315963,0.0005481770687636106],[0.02509179050115232,0.02953733394444652],[-0.001125437671581157,-0.006828985206737305],[-0.015305575808185815,-0.0037595490033996955],[0.006868312563239478,-0.012374652463226919],[-0.020591021530992404,0.004272269937990469],[0.0101151121236857,-0.00952898937719858],[0.010953779594738512,-0.02522225675463378],[-0.001277693026421372,0.015756967820945787],[0.005823817297305339,0.0019314033261506854],[-0.003319171196148216,0.004721879909543917],[-0.019583297875351204,0.004509709638454484],[0.010079690822025407,0.03377609054838306],[-0.017950510411834122,-0.010770594636016192],[0.014453128499522384,0.04188824277794157],[0.023433812622230196,-0.00789924275215899],[0.00029526154531170357,0.020895817881421135],[0.015150381392873776,0.003612260606254366],[-0.014234085719315113,-0.027407750036341296],[-0.023761103567193624,0.033070173632925984],[0.009022928812891202,-0.0037691969226348867],[0.01155886350710119,-0.003967434687874242],[-0.02189636028393557,-0.001431021251650448],[0.00937793242414693,0.0019093883607943498],[0.02088001058581747,0.013551269134153224],[0.009127257178062495,0.002143352616295834],[0.018234118631418994,-0.012350525083002419],[0.014846358143394486,0.006476196719929301],[0.01222180016526766,0.0025221770353846314],[-0.029118744097267574,-0.003289888689223556],[-0.0024222828945561535,0.005406705409936362],[-0.01837452781103736,0.010032156726270117],[-0.0038302374796074772,0.011665875435109843],[-0.005668033573469056,0.003998059290343501],[0.028446543708089165,-0.004736421738202387],[-0.008307079713343286,0.007804837597508854],[-0.0007601127778758448,0.0031871773080082997],[0.00891022191733663,0.024550693426696923],[-0.008427287172250298,-0.015769805440765845],[0.005111519167651713,-0.0370939271225991],[-0.015387723552988414,-0.024465502260759227],[0.01126830161461392,0.01785742639049826],[-0.021505756001925735,0.027117956723905712],[0.03302253209040558,0.008197424303152918],[-0.01218217410284892,-0.0163097898266227],[-0.011736038063344556,-0.0023478586839647403],[-0.035186864522216935,-0.011259781483894409],[0.011824504366676527,-0.01543718276658367],[0.008575638773945057,0.0018306828336781822],[-0.038882749614955824,0.02693229275417196],[0.006085967391591353,0.00793390413646361],[-0.007368472095303469,-0.018597310314803505],[0.022884433013370162,0.011378534310810595],[-0.008485853473062896,0.021855557673932404],[0.0008439096389654555,-0.0029741497677598172],[0.009095276097159499,0.018460146531223354],[0.0021334912391658837,0.023995090305943906],[0.012053769390082576,0.0085353066829269],[0.010214666560364592,0.011230629291467842],[-0.015261821389241339,0.0053063573661365935],[0.02331486293256752,-0.0061917588229188055],[-0.027520347361743414,-0.029719448385702053]],[[-0.029593642425989525,-0.0035639743690115194],[-0.025505209279217622,-0.004967077553596487],[0.014407541051033685,0.019399861387311035],[0.02083043778987255,-0.01528364727608917],[-0.01982725293754256,-0.007612124445957549],[-0.004611903538727324,0.018309344461918297],[0.018003397376989964,0.027269460596998776],[0.0018331825603819553,-0.006559171070833993],[0.015745962857364213,-0.0017773796295320662],[-0.0014107477550389042,0.009837069726972401],[-0.007162180533970007,0.01163943670983371],[0.005389998880431966,-0.017187853722807518],[0.011265237677625746,-0.015198030347491766],[-0.011329337968095272,-0.021952694918012498],[-0.007281464275055221,0.0026291052537207042],[-0.0073968632537505935,0.013867400306053516],[0.0012049357096215168,0.001890030004179386],[-0.01552842760813869,-0.03480224691599545],[0.014887874739344067,-0.008891321545877306],[-0.009159987515211899,-0.015883634278332035],[-0.0006270824743315586,0.012906389712674098],[0.03833127806343325,-0.002235243916867884],[-0.005657156413932563,-0.0035863192125530274],[-0.004292550854374054,-0.018089462276172426],[0.007683470996964988,0.0020607400299436874],[0.010486315324202716,-0.03474904187140133],[0.020348611361425555,0.003874532643157458],[0.016630476151113138,0.005394054929424222],[0.014785137311791943,0.020139174286544242],[-0.0024509088865856308,-0.007839472473474426],[0.015314605136082762,-0.002764520017185852],[-0.01295476446628328,-0.015309776739407052],[-0.005631321190698649,-0.01877346619700821],[-0.01122149159271511,0.0028397017138605983],[0.014209362901949359,-0.004313391488190526],[0.0019810550055021914,-0.010387826908453041],[-0.007980373070661005,0.00455493341346636],[-0.005508880285596166,0.02309500425000964],[-0.02438727116267226,0.026842876931461652],[-0.007824447532007938,0.0032158342728482127],[0.014640507817404586,-0.004738233184835768],[0.02740558672620845,-0.013932058829189527],[-0.018355761660465562,0.012998927843835158],[-0.031144778080281835,0.003628885468719546],[0.018719445047017405,-0.04445876544203892],[-0.010575781496887354,0.001346429981940689],[-0.01945747938400152,0.015396227571851353],[-0.005737818364615995,0.02099022483174621],[0.011364692236438947,-0.019702273500693767],[-0.008716838386222168,-0.025619678990350912],[0.016237330495023433,-0.010761698347127742],[0.014588010459578023,0.009677589055965372],[-0.02022228639924628,0.01520166996491397],[-0.00633780159182812,-0.0047494014305550876],[-0.0044625251743585165,-0.011005305456145937],[0.006445580541217483,0.022091693667768912],[-0.01999715526498314,-0.019684718454580728],[-0.0114851992940786,-0.0074460479348827345],[-0.004052154759881072,0.0022542825503553557],[0.01874088652584297,0.0008112593004303576],[0.004301473313922557,0.009664442347890066],[0.010634596152543384,-0.019719739184366807],[0.0048312372083103,0.02143162494832393],[-0.017534676554573088,-0.020556836519261937],[0.033810953682594756,0.018800067912639582],[-0.023572646985001618,-0.004537715899077532],[0.006753632185083631,0.002034800582186154],[0.004958297273004735,0.01720877712303865],[-0.02096662392390017,-0.030296851874489637],[-0.010322953782416693,-0.030891068749646367],[0.0024140665203892233,0.01587003947019793],[-0.004472897920165362,0.005225082393853223],[0.006462413324683127,0.012612283217697837],[-0.015242343300306447,-0.013184340131321134],[0.0185408561302787,-0.021741124171824618],[0.01038284162186225,-0.022353504142820245],[0.02010216445748482,-0.022166344546741767],[-0.006699781302122279,-0.001839527254211295],[0.00956899437987297,0.00030275615840803186],[0.00728218084584698,-0.007128267612675044],[9.844909868248711e-05,0.0035128815366031376],[-0.007618285349502345,0.00010633959108542236],[-0.030005693110102833,0.025390391666465797],[-0.014064544791115796,0.006716170227178774],[-0.02075207027216771,0.0030921115108632287],[0.0007533880768766004,0.022311932349355995],[0.01741830238955462,0.004925904531888963],[-0.018876078746311697,0.003913598372679563],[-0.007572918081687749,0.001802583996659275],[-0.0074646519642183745,-0.0031755062439933045],[-0.005416737625388247,-0.008263774177303425],[-0.043986504181359215,0.005334284829878058],[0.01465621659014529,-0.025389265975959696],[-0.011971427648780715,-0.00028375948820066627],[0.014139472990042444,-0.03035143408718458],[-0.00894112469982208,-0.015723716321219307],[-0.017984144429082242,0.007885833864225048],[0.004531013912783744,-0.01685338224482213],[0.006408874001871201,0.006064308223504927],[-0.024379428576867514,-0.018238472466593443],[0.013192128202388515,0.039593671080250865],[0.009920811840727742,0.011317937392576343],[-0.013638996421195312,-0.011032543877878758],[-0.00884865959695299,-0.00862592970397537],[0.015346718245793492,0.020014555011781683],[-0.02065239172448971,-0.010354778494446848],[0.023122700133650736,0.009813047790420745],[-0.0031712813870323894,-0.006230371519507812],[-0.006689218970011466,0.01596212052882697],[0.005138903698930574,-0.022213494384249383],[-0.02432467072468707,0.009085569125738813],[-0.010376079814847197,-0.02333427487511257],[-0.006536059480980892,-0.0026658217887447185],[0.023265414594718342,-0.017754116437714053],[0.01276434571297198,0.018282561536880026],[-0.025021535074017418,-0.010601600262736403],[0.02223470008967479,0.014430010027901884],[-0.0020083866562131914,-0.013008992496803401],[0.008500853075075648,-0.013391886106067886],[-0.0049245962496173344,0.011709233715384161],[-0.018735238510450763,0.017436631013329363],[-0.016355503532348138,0.0024861901381589228],[0.012602968396412555,-0.007617314016164279],[-0.011391703304071826,0.0028868458364177917],[-0.02227343939670746,-0.01582767904087918],[0.013212395092670977,-0.010407469412535685],[-0.023725731220192683,0.004334791011159099],[0.019779898372887527,0.018989891665118816],[0.01022059016318123,-0.009610256501637323],[0.007370495916741251,-0.005918142162594919],[-0.0038231532347779637,-0.012971778545405176],[0.011527944273636754,-0.001738835922491621],[0.015970484852924714,-0.004090506658237708],[-0.016049701359181427,0.0035998984040552205],[-0.01074951814578089,0.03266952178339904],[0.014748723578813527,0.019830462383578367],[-0.007493851142752939,-0.02832671079177733],[0.00010803535307659685,-0.00034196166475747736],[-0.022420865211853613,0.017563767908561935],[0.034504564856461056,0.010627271264667216],[0.023566323103146374,-0.024705458557083244],[0.015721602198727435,-0.00526738601636555],[0.025787751573573738,-0.003084306480246715],[-0.028883923212144537,0.006749428485231669],[0.016011712344902285,0.003925008872622525],[0.0028660821614686785,-0.0013497490124406873],[0.0280496515308838,0.01824210804601311],[0.013199351193095558,-0.01546659635504291],[-0.022764547105693225,-0.010304868188568357],[-0.0020815322991476043,-0.00404402552566598],[-0.020782433605288336,0.02619642299823033],[0.005637542296794542,-0.006371415053292461],[0.0058275952193960765,-0.012819890146912906],[0.006977965146601944,0.023116377375959347],[-0.03091538384488324,0.0018019617615928998],[-0.0032349615104467965,0.021100606221428717],[0.010054565465962048,0.0012640890428233997],[-0.0027299620501975213,0.02112192747807515],[0.028494415504458838,0.0011358752677400408],[-0.004446833203706145,-0.013407642591826651],[0.0031237972348866364,0.016422419485473357],[0.026174250583332177,-0.00430756299434731],[-0.02438722501926425,0.01549754634083468],[0.0037850371622920385,0.0027311446552567486],[-0.012051683405869994,-0.02303987958946696],[-0.00684855742928291,-0.013608312194977462],[0.009467226815301523,-0.025141293642429747],[0.020427431375962625,0.028682789736691784],[0.007253698514307423,0.020837265979618234],[-0.008481684815995327,0.010825734356176767],[0.020951568333181528,0.016998654023404156],[-0.019550968842780906,0.004301509525087361],[0.013211615373698544,0.0006229948714463829],[0.023447334466757203,0.004522329125728209],[-0.021322163660170396,0.01199999808252403],[-0.021957939228372803,0.013122733940904413],[-0.019051221767248487,0.0035829737068368795],[0.008830022833605556,0.00026998363718003064],[0.012837702745425079,-0.008202850649666974],[-0.0038257455322700017,0.00875448089676249],[0.020648878647870142,-0.0066099667575605986],[0.0034797648966075094,0.001242751732805276],[-0.005975288204470217,0.015655655084480993],[0.000982604910252022,-0.007418015613636788],[0.005161735054950594,0.021541330827324255],[-0.013677181593674835,-0.027702446265326232],[-0.00110025655352861,-0.00824974068920725],[0.011230854616776954,0.02292354073882045],[-0.015311172326064496,0.011053713430168758],[-0.005852617466454039,-0.0007839533405658043],[0.00023468290898583013,0.007333451269726267],[-0.029528734399777597,-0.017596972253962402],[-0.009187955953297163,0.013287928429303698],[0.006121970021209013,-0.03146702912116402],[-0.014719117808044368,0.006454128797468244],[-0.005321305826223713,0.02588567191488933],[-0.014878654452708437,-0.01338065023612725],[0.010455780973604282,0.004568069983153803],[-0.030560575429288396,-0.0021425971855756933],[-0.017194721202500946,0.006665419776859903]],[[0.01684106643047058,-0.01887454588107692],[-0.007798983792116514,0.009336187705475034],[0.014274298489695157,-0.01313383599019444],[-0.016307348626629206,-0.0070381139192182765],[0.0020908929632619437,-0.0016527846253455566],[0.01783141808050666,-0.013651352542270272],[0.008258912472331684,0.009465840622747836],[0.02543210874165866,-0.012246978405607673],[0.020732047204596343,-0.004087278465425637],[0.03472528285313033,0.024211594040262824],[0.003948398427017322,-0.0023789000949855903],[0.003161656297099403,0.010581680527455306],[0.01237206485395282,-0.027017945868457],[-0.00694392276919555,-0.0038824986704313422],[-0.003997200409110903,-0.004726581162579284],[0.0007044561093035827,-0.022716912889281505],[0.018262329268015094,-0.016890763060661288],[0.029202297388318622,0.018584799677435076],[0.007138224589677393,-0.007798418926603154],[0.02094195859458696,0.03154115385028563],[-0.00354045358967897,-0.022170256374220265],[-0.007540712843868822,0.005009527906544596],[-0.028544185215231638,-0.03019175067347645],[-0.010568646464297431,0.010046459995921256],[-0.0028226611551325585,-0.0025836450204534296],[-0.0006451000521370343,0.007876387687604746],[0.0334291005291986,-0.012218531664107492],[-0.011376227743335663,-0.02216944068254995],[0.0025442266765282446,-0.017560823646313794],[-0.02325587917783154,-0.006495850557043552],[0.027320370573966097,0.018200396483871336],[0.01342551387370993,-0.0004448029184348605],[-0.01190849881106524,-0.022113769434061882],[-0.010318467435166253,0.0028647729390964983],[-0.018501765488117397,0.00948190410858428],[-0.007357737510120812,-0.010613286409619898],[0.015699463359515362,-0.04986286513384124],[0.021326400854245912,-0.02135431044184392],[0.007028818132259698,-0.018990710763159252],[-0.026791218029747953,-0.003910127471565666],[-0.004901047387880482,-0.017606760875885946],[0.0015636123727141606,0.005835128732263135],[-0.006694339728609432,0.00017976073481114786],[-0.004046144531463868,-0.02378727644108413],[0.0174796304419216,-0.009245400137615052],[-0.005377901795060007,-0.00290471647347141],[-0.005624445128126374,-0.013159890546877492],[-0.014527938913369018,-0.005206812142078337],[-0.005649523581970191,-0.007990583647382124],[0.003278371571728592,0.02057867879376513],[0.020110162639484647,-0.032271559821380205],[0.005877673962064106,0.015258721278376457],[0.0011170940728426311,-0.01564457347371744],[0.004207083301029656,0.030764075290623947],[0.02285574648387613,-0.021800457687128585],[0.022010941897097777,-0.0059735120587106035],[-0.035257725258157735,-0.014211044926260857],[0.0011080295258592966,-0.0033886529494623653],[-0.0030831333471541297,-0.006492070657026333],[0.019399997262285473,0.009600266931970573],[-0.003400171737516407,0.014149821649460971],[-0.018069869115453753,0.017316702969239938],[0.015321169883836274,0.01999611147787438],[0.0034729118451550323,-0.002670496757390152],[0.015859863244599814,-0.021014810101033298],[-0.008926327447975717,0.00019410745341761314],[0.016192526882164278,-0.01222874481154036],[0.0448373441600541,-0.013337541126884601],[0.016728945684603615,-0.011560934377621396],[0.008762423066788864,0.006572344650912268],[-0.021568050999509,0.009575480733111208],[-0.010673902128938425,0.008627826945279134],[0.013508813778951616,-0.014827944881960636],[-0.02060856120612294,0.00793885582122238],[0.005595403946478686,0.019132867844155403],[-0.017222467043873285,-0.009315143525197848],[-0.019836083309114436,0.006908053851900665],[6.042438805904313e-06,-0.005986534170443353],[-0.0017479689205097374,-0.01777235980616432],[0.024649692598527454,0.01620060430952867],[-0.0023434360090092534,-0.02273513152853199],[0.01082195208168035,0.005943845802229885],[0.01109489461672945,-0.02019391354441454],[0.009369684527265037,0.007910445990254686],[0.012903896281393618,0.02682056804267428],[-0.020896664176613858,-0.026891736651384657],[0.013695118553226665,-0.011880848840457215],[-0.0015737271670404071,-0.019382841722892424],[0.004735590628185707,0.030016359131379237],[-0.01344632162945518,-0.033665919948083725],[0.022170902655532482,-0.0004887291707971753],[-0.014797295214709329,0.004146868225211976],[-0.020938864582638075,0.00627072899335434],[0.010582398963585954,0.016412239097468764],[-0.020245235985122706,0.018581206786548225],[0.005639908447659407,-0.010596339993349664],[-0.022122046095587076,-0.024947670512142254],[-0.016214771206307314,-0.024060328479314632],[0.0036241303987345564,-0.006883694161377268],[-0.017815292522890422,-0.01234015962763307],[0.009208316094747843,0.005959714565442929],[0.019500826068591503,-0.005225247182185563],[-0.01758208728369593,-0.001083979691006369],[-0.013554025265320475,-0.019790028998809266],[0.013888426003108086,-0.011469672790071106],[-3.40418455325479e-05,0.00035702710414343974],[0.01913055517436619,0.016770512487605454],[0.015584611885584408,0.006468497357060054],[0.012321834324734701,-0.010256940018534416],[-0.0019389412887565833,-0.027303797166181726],[-0.017104813315836003,-0.0163561447342062],[-0.0014889046526872108,0.00277887591454052],[0.003977033933614105,-0.017733343466364536],[0.005011302514843909,-0.0053070379351951025],[0.001009954971411901,-0.014284877839903499],[0.003085003359556239,0.01583582003897474],[0.007674369811245216,-0.008021057604736467],[-0.021689792194970692,-0.004904713325550664],[-0.0054389575447835355,-0.020368885440818132],[0.0003195329631209536,0.006155278189443754],[-0.01847944489073289,0.008454585397728412],[0.004885752626787606,0.002387498577433176],[0.04307854013014278,0.02520182958285498],[0.02928019933871097,-0.009904243233460338],[-0.009065935455811847,0.011459861182572409],[-0.00048652887174259734,-0.003345273143065012],[-0.010178419586566245,0.017855598802513972],[0.004501396454405594,-0.011657578813468177],[0.03233086746994728,-0.00681543098753826],[-0.0016913945010950913,0.009124312948464046],[0.005155289116772227,-0.011261085744462256],[7.018875270557549e-06,-0.002010227022576104],[0.015975618592482647,0.017301445853008145],[-0.006805035132465753,0.010037245000731106],[-0.0028252278358393427,-0.00014260878896237266],[-0.0019335272798453279,-0.017272993790565593],[-0.028252803346668097,-0.008253518509000687],[-0.00544922637477504,-0.018131425209390723],[-0.01377765642940039,0.014307614097207589],[-0.005542031838838887,-0.015534509981680069],[-0.0021300893318589435,0.026965161677901812],[-0.00847581445492613,0.010922218014302787],[-0.0062104850530458645,-0.023165483223758488],[-0.013914991245365969,0.020283582815824763],[-0.013296049684727647,0.023763034459711247],[-0.011358799413507764,0.009125025226650273],[0.010319256012544329,0.008822894118655986],[-0.00576343363654888,-0.0018047045161578203],[-0.03696966847003654,0.026252571238127263],[-0.01542652568048159,-0.008643128531523303],[-0.05382645088488105,0.012724303843943739],[-5.8041723688987204e-05,0.0062933619712158065],[-0.015880210366177136,-0.019772148901307737],[-0.012319810144732086,-0.009177154911501721],[-0.01049749297578684,0.009854860147213224],[-0.01567651621097568,0.013408287895162584],[-0.006358246893839054,0.0015297753255567774],[0.025243465087894098,-0.0015122722948363813],[-0.03237889703076915,-0.03183510114310473],[0.02821794382841345,-0.02774360225690556],[0.014244355459196154,-0.018788415462613183],[-0.0006955792658598957,-0.010367025063133603],[-0.014512162125629514,0.005904101571017794],[-0.0009033328537833996,-0.01611604705289733],[-0.010654880859039033,0.0039327444716167415],[-0.0013897434729697221,-0.02689941765203972],[0.004628847772936415,0.004831367366085847],[0.010319764781357127,-0.021770735790769803],[-0.011850769235852963,-0.007371559958205901],[0.007638375498864291,-0.026674973756165617],[-0.00833536785282347,-0.0021113141664010028],[-0.015660343720814172,0.0026757809299090517],[-0.016686528075693544,-0.00841967748909488],[0.04074175453363429,0.024913598906512107],[0.0268296026786289,-0.01684706737738602],[-0.01848418835897137,0.013002061400443347],[-0.004303574563214504,0.008164273341874698],[-0.0005459481895843709,0.019944072538145518],[-0.005964842431419707,-0.003003409715030066],[0.013585931361341048,0.004064384261315359],[-0.0021166655517892083,-0.004238260963678603],[0.0068524051257934475,-0.0063054041304849776],[0.013437440114633156,0.020262088795176686],[-0.002387380919023569,-0.0018893319650181255],[0.00590691784811137,-0.011236050963455181],[-0.0026001567483383116,0.01223321887742014],[0.020943186556517532,-0.004990272390136109],[0.014919297523554802,0.01767860404818683],[0.008933089683960678,-0.004162642777906634],[0.01914636502884587,0.0026261259882716425],[-0.010926351731051186,-0.0076969355373681025],[0.0031645760785457226,0.01590610921610979],[-0.010935025770905677,0.004620359686167403],[0.00887012868660595,-0.0381545557840905],[0.00020640944086923463,-0.007781659343147862],[-0.0008706056956756273,-0.029996822851637794],[0.0016961230245088575,-0.0022795898872996437],[-0.0012206538652391064,-0.01531620510895688],[-0.0018422399194164725,0.0036967387779621745],[0.03831065516825042,-0.004524451376450811]],[[-0.01644741723065274,-0.00018176510007409264],[-0.0025223450746020303,-0.011357086611693976],[-0.02252583674823285,0.037508823472629585],[0.01855266254902519,0.00934595402937102],[-0.001963461238840958,0.00058158436976032],[0.006826416899934158,0.0047937353220774866],[-0.028911335513856135,-0.021083853299627746],[-0.010937427259096934,-0.0005658327468595851],[-0.00917596425143565,-0.0012943544279899431],[0.020195268209723692,0.00400421146422445],[-0.0028358991126002948,-0.013854124842332532],[-0.02216665680229557,0.03193110673054335],[0.0002175569967678816,-0.009723694501340965],[0.007663761794080401,0.030570852162910698],[-0.005566964020148292,0.023789414558374557],[-0.007614087350797282,-0.0058803092568787485],[0.01561019782364207,0.026468994145052337],[0.0024503264378556745,0.029724192162494438],[0.0031870556386787395,0.007654666402132766],[0.007467059373302481,0.0036118116998927075],[-0.010902415596688718,-0.02382610861348725],[-0.016430288853740444,0.0027408870218308895],[-0.00637762133787295,0.0094274466716],[0.01349497639438084,-0.015528267579935145],[-0.007073490274210821,0.016689655600825016],[-0.019127018749757703,0.015142806347215793],[-0.011905510522733292,-0.01590413210147291],[-0.011172431193207356,0.005511511174110909],[0.007858435199542352,0.024039906531321306],[-0.007627310659098973,-0.02066555327318491],[-0.005709763919469564,0.009682059281563803],[-0.014907381053484627,-0.009700254942338908],[-0.012900845842642946,-0.011607386135227386],[0.011343595857729758,0.007772334930297502],[0.001291870145835412,0.026535051835658876],[0.0353937759174873,0.005021664997737649],[-0.00305369106372812,-0.01823999807015454],[-0.008419358656817078,-0.009145590775513652],[-0.0021287936052440436,-0.026157358464451178],[-0.01023845030080748,0.02092848735361211],[-0.02498444959472218,-0.023777159188049006],[0.005010069626918315,-0.016358534944014586],[0.006244796319632789,0.002596767330504746],[-0.008039139867462963,-0.017387442783744544],[0.0008895586701018737,0.036286728996757105],[0.0007783015669872448,-0.0035872660587258996],[-0.023909467240320732,-0.02992837961072722],[0.026747441728912504,-0.003325599752856431],[0.0010276035891588582,0.030766827283726428],[0.007185478861587161,-0.029624123154304443],[0.010147716435361803,-0.008214723462490522],[0.02981790239230173,0.009790064435016427],[-0.004640678909051909,0.003783426702186192],[-0.0007502154424972049,0.0036874177574169617],[0.024780910309660065,-0.014641473656931083],[-0.011097534980753353,-0.0068890364616844045],[0.018187992230307832,0.013814385477005925],[0.02707663040561142,0.007167676098388664],[0.039210702406687135,-0.005621695516562332],[-0.002961142334318108,-0.024439590766028474],[0.0008637543398540663,0.01742795326072427],[0.0037738676313936034,0.0267004561584598],[-0.007350201894763783,0.015087792499482264],[0.0015323432718658309,-0.009588987848968344],[-0.009624708184960348,-0.0018328318029996178],[-0.0024551087969651754,-0.011967201881476763],[-0.0012143443902988631,-0.008418708366676714],[-0.019941131918225604,-0.004680031038899808],[0.0039553097454753374,0.008880139650892849],[-0.005198712247191033,-0.005356087150748157],[0.03398498773322148,0.009633641927525263],[0.016229907257708624,0.003155969942030346],[0.005410049638779376,-0.009212619466327341],[-0.025784806349007934,-0.01629832497861244],[-7.288049201461481e-05,0.02803824479010055],[-0.008736897758055646,-0.016875355365339444],[0.02768371150893907,0.016601886065451047],[0.010268963700371777,0.004012452895451754],[-0.0015416688447367237,-0.003271638593309208],[-0.015360641720492181,-0.004439737581302243],[0.003204737930089338,-0.008323120466017743],[-0.010239976420224152,0.0023616104597435654],[-0.01588109204594258,-0.009416268915660166],[0.020500144216505173,-0.01582859213951757],[-0.0017871116597369184,0.01146282165183773],[-0.005204356932728758,0.020821260388441735],[0.0002731610891458054,0.016085780300563866],[-0.008285269945879262,-0.004332927771404778],[0.031264532870121625,0.01280123871933219],[-0.013611942072796254,-0.010908023151451687],[-0.013604070445700701,0.00681368099078709],[0.00982507396328485,0.012147375855350096],[0.013042464657209932,-0.006081980350111827],[-0.019024629122511454,0.012211954960642049],[-0.014706931297734954,0.030241804894992997],[0.027430837514031404,-0.005736089499039918],[-0.011548771257685435,-0.007344599959237547],[0.020306394817519034,0.0009886183133765063],[0.00432844267368511,-0.016032039613249473],[0.003998108080293588,-0.012540072644974273],[-0.021960787063065375,-0.018362511307965356],[0.02571322100973753,0.006051398165622499],[0.0005367495810996784,0.010406626431908136],[-0.00301180854218206,0.015652008776375032],[0.012285534297903765,-0.008302523889030208],[0.004101898756653496,-0.003294681319809525],[0.00456978380209291,-0.004752468792709174],[-0.01498246361909754,-0.0027001047285317376],[0.01850292429251211,0.005307535416179933],[-0.015885747494847748,0.004802088612167712],[0.019718803553259022,0.010261839076628084],[0.011040496844589773,-0.014046495115614312],[0.0021532334759453535,-0.007785810109867758],[-0.01220995596840161,-0.0028414946525777912],[-0.028783891791526788,0.006979337528226048],[0.004994039317027587,-0.007600282771842139],[-0.0366776652976562,0.022541393490117176],[-0.014382147565520335,0.0016675302216960053],[-0.015514847237493294,-0.00431387730034596],[0.01980768651638737,0.002851404830172175],[0.00861993478642115,-0.005896787730172061],[0.003331604260909152,0.014187514066665763],[-0.011513251957931084,0.007951390307981821],[0.012889394382361164,0.007362189273464377],[-0.0025891714874405397,0.009817518561743514],[0.019882540923743915,-0.028841749546955935],[-0.0076276770432396465,-0.004173184298707733],[-0.003972962209792968,0.011237301011887066],[-0.021647364198590206,0.0006630586314969964],[0.021641182502089677,0.0010387767301989256],[-0.02127067366253947,0.007696208981712584],[-0.005829843259293673,0.0023238102629943138],[-0.011560612267963297,0.000871003056606554],[0.010582492971314767,-0.012015936395372438],[0.005087245857950125,0.0068930240954301735],[0.0035844396411769002,0.024654661883331853],[0.017568230116365595,-0.004612602518859705],[-0.0012694282909961252,-0.017023609003894165],[-0.02532675069516317,-0.01444451923721662],[-3.1317761824935925e-05,0.01696208794125333],[0.021376305392459462,0.008640246557603204],[-0.03428415003823258,-0.00856794240949062],[-0.012723987077706257,0.02894660727377573],[-0.011467990725342683,0.021625427784005627],[-0.019956956182309468,-0.0012414508221111533],[0.030540689153875974,-0.000365680843032257],[0.007537779312173683,-0.016020248642981808],[0.015722373375164567,-0.0036150957074951705],[-0.010621121104002675,0.018408376695661643],[0.003059766949408239,-0.010301751275188703],[0.02045446768223779,0.02417844032025383],[0.020755104162722735,0.002130988530100757],[0.003755227145664854,0.006528946682892215],[0.0055028745623173616,-0.014593999444296159],[-0.006552178557314359,0.023950427225906408],[-0.006420153376465692,-0.003726262203747803],[0.002772214837494064,-0.013585628071762449],[0.003747852930345753,-0.002552817629931499],[0.008870161441915037,0.012025987948710706],[0.012148234542609226,-0.01281300700246955],[0.022856078936679698,0.028848008418432197],[0.0027486766913610112,-0.017907908589815932],[0.000761489806304463,-0.009626167747269182],[-0.009585821167262466,0.01117240850398255],[-0.01700047479837679,0.02598903863244715],[0.007083864102126979,-0.012758445909500843],[-0.007037497208914335,0.006606096230789684],[0.005728669187835989,-0.012570483564279755],[-0.007929663932815963,-0.018157380972630643],[0.02891958069723875,0.013891719208949093],[-0.00877062996088404,-0.0184978156161481],[0.00930470227588602,-0.024173342966772503],[0.028113035004484317,-0.00919097586652054],[-0.0019118473816832635,-0.01503483743748775],[-0.029843349062758442,0.011014544321952768],[-0.0012991409111687679,-0.009242307467252839],[0.008738975288759873,0.0041875314629269845],[-0.012831848694730225,0.021972742947011705],[-0.0018822673714086607,0.00319179086227967],[-0.011653171080276449,-0.022638099280655705],[-0.0050400849565316605,-0.01550174688808361],[-0.012570413856337295,-0.0315403639508009],[-0.0014434706440660415,-0.013554947513473761],[-0.011258964840316864,-0.018845076106412874],[-0.004379001622217437,-0.01371953476710797],[0.001864087756386171,-0.003943547534957336],[-0.003305446609598879,-0.028171514745486646],[-0.010652608469626786,-0.0033514496052042316],[0.0029724653857696073,-0.015444326230137232],[-0.01753264154838699,0.02480951699905628],[0.012777804269194368,0.008338172014518794],[-0.023018003386310566,-0.0011172740808088506],[-0.009228744160576377,0.00210236355468],[-0.023801462056967607,0.003907927270958027],[0.00732484402720106,-0.00695216818833907],[0.0007475078543202748,-0.017641255897475776],[0.024979804997769604,-0.0077257936880103534],[-0.0013144635953546207,-0.019309062866300453],[-0.016979953714260476,0.001333602375704805],[0.030607118733431513,-0.0066645740612603305]],[[0.0014193513203388432,-0.011230137035847848],[-0.009693589216781276,-0.02208465993856451],[0.0232813363708401,0.019056545204637496],[-0.020442182268501596,0.010290737167195635],[0.011129358342761016,0.01143635969142592],[0.007046457671769741,0.00642486762924286],[0.001750060097731149,-0.0022383920558385123],[0.016459547893174137,-0.02147542389836364],[-0.0002861280091906596,0.014598571917506754],[-0.013855825755711697,0.022272030429648572],[0.022065521535576928,0.005902047847561366],[0.013036115654257852,-0.012794632321125484],[0.013051869538055736,-0.019248867016786922],[-0.01840752963612959,0.0020184420501212735],[0.006708337145916773,-0.016110000492036355],[0.01492138428283752,-0.017493573463052622],[-0.011014982569805962,0.017484956865106205],[0.02383170118821138,0.022285838990620054],[0.0009799339497652895,-0.00967817320175397],[-0.0014413900023030743,0.0025431014238205315],[-0.0072268001979897845,0.009204234116057045],[0.005084821124091627,-0.008175015492253216],[-0.0124120693236556,0.017798145430703603],[-0.013358974059338634,0.011059503409439717],[0.008510516888800859,0.0015215275653088839],[0.00026675203002096866,-0.004064047839301877],[-0.005287622202858977,-0.01612751637766649],[0.007413326743779026,-0.013241250864403092],[0.0014262188384646947,-0.006484583035839522],[-0.001344194535147772,0.029264173743145057],[0.01644158254963195,0.0058476752231919815],[-0.003799397212610642,-0.022192947907568695],[0.024823079739329526,-0.022559061953322756],[-0.00662820498109073,0.010116509516340992],[0.010477806577230568,0.021131505008495727],[-0.0039308263784678344,-0.005184217309446435],[0.005604711127499661,-0.011636679971628022],[-0.0004410208724388888,-0.021988566437285258],[0.0015936715103540278,-0.0255124037472145],[0.003551976691881572,-0.019704602232927273],[0.005951485534525497,-0.019299108171520165],[0.018906612310382175,0.0019324004108045296],[-0.003256571864884266,-0.005806653457424699],[-0.018859707195993797,-0.027304497162172314],[0.007988703159311184,0.02464053883398767],[-0.0204342208122507,0.001918855006549594],[0.003889481138303592,0.02085494214350092],[-0.007953534951206435,-0.01679668531992357],[-0.001378191991818119,0.006342935515490756],[-0.017959814809408586,0.011632824170359574],[0.009926834196147998,-0.011679421501667522],[-0.007464262919570509,-0.001467503800006889],[0.016979018016341284,-0.008719183409358925],[-0.020088031737131428,-0.01629500547055891],[0.0023830402314325085,0.007985787554357731],[0.010847798095104833,-0.005396395772912248],[-0.0010602860152138602,-0.0002623507316831808],[0.001717200244971527,-0.012213644612817131],[0.0006563643943276135,-0.003846793021576613],[0.00269060591957524,-0.009688732720425242],[-0.004353424688813411,-0.00495545543472547],[-0.004519016524884896,-0.013234111062536011],[-0.01668478736174778,-0.03313548888366934],[-0.01772767916902455,0.007453974945613022],[-0.027398431148979767,-0.020628054355658676],[-0.010542850607501656,0.006293870843325558],[0.01164255778660699,0.03283934168396089],[-0.02541315092294855,-0.02019013975730615],[-0.01261851764070758,-0.002250602892184237],[0.0039090178368580055,-0.01421252248375195],[0.00026259728285071664,-0.005219470951401183],[0.004174971228296583,0.0196761171334437],[-0.034813765224711045,-0.012837678648368257],[-0.01232199050425786,-0.02352664464156542],[0.00047169843476478016,-0.0011896226189889066],[-0.024995359975448793,0.021495289071822545],[0.022375508349076784,-0.006165320941284042],[-0.025324106802711084,-0.006082047323616798],[0.007383437369914709,-0.0038554820853226954],[0.010185001997807834,-0.013305346846510083],[-0.011919504523416141,-0.0038534092424164406],[0.0299322761234244,0.004720561073533567],[0.018200102449674987,-0.024922763690989617],[-0.012018690427849092,-0.020667480586485164],[0.0037313078543795824,0.01933716824055451],[-0.01478845036603827,-0.020997522842840528],[0.016074003797099914,-0.0036531775298813416],[0.004929865542978537,-0.0006412084157789155],[-0.01161537614385489,-0.003970043780632836],[-0.005283541948596747,-0.018139351269453752],[0.003086809593496889,0.0007068890228444421],[0.013591429155358284,0.008766489347513054],[-0.012803697733738243,0.014415898332663317],[-0.007554822413793629,0.004444385307447933],[0.005867935891438414,0.006599077984787252],[0.02567319185494141,-0.012608739970934379],[-0.001878390639407885,-0.011995964051350332],[-0.007443090368937741,0.0029299737849189204],[-0.0029865632695360326,-0.021454485926349073],[-0.004964092276373832,-0.007321524227190253],[0.012651923437380998,0.009667137149790183],[0.004385874689104122,0.009532407890798707],[0.016111643687442945,0.017807029509769676],[0.013355060876958737,0.011578537110981522],[-0.007295414343295243,0.011236511509744786],[0.013158536692780397,0.004385353956277737],[-0.011799641519164173,0.007407094535981444],[-0.018351281826135907,0.013511195584429475],[-0.03194791518116846,-0.006341150555873793],[0.031510424525259234,0.0053999746069248915],[-0.022705179683614428,-0.002842657562971419],[-0.008052509555202638,0.030709444403203393],[0.0044131350339892276,0.02425641780934427],[-0.015275730795782112,-0.00348343922271672],[-0.015366758746839387,-0.027361369370503496],[-0.008030326231403784,-0.003423413538366253],[0.015170407464827434,-0.002411556484900705],[0.016105201798170047,-0.0010525918611439889],[0.02728149615124059,-0.03702618120379911],[0.008501931658903224,0.041056714535089925],[0.011094907410601096,-0.009475845207126393],[0.015624384250346058,0.02418939680974864],[0.0004034619257864266,0.006930126818322245],[-0.018005523357136604,-0.027656680265547504],[0.001134646894085511,-0.012487599328691973],[0.0168681168660203,-0.005318194851999026],[-0.017342681806306916,0.012374777914358537],[0.001676730430449299,0.0011012026645398163],[0.011685610365911526,-0.017418952079241965],[-0.020080271964882053,-0.01117881445595163],[0.019555709033606525,-0.0008568945110349621],[-0.02392380333091431,-0.015023339792387408],[0.01977069261000923,-0.024480821670697928],[-0.011264122948825799,0.006150673212022617],[-0.02192026710876531,0.006547397203057564],[-0.012937647643227848,-0.005587382280001082],[-0.03754146594764253,0.02319792840129845],[0.02615843006649682,-0.015182231525650156],[-0.008848168709866669,-0.004330125505314835],[-0.0029121186558879733,0.012081232992689307],[-0.006791753928604698,0.0003666040335942077],[0.006685174434803851,-0.00648090005408409],[-0.009140140283846392,0.0069361180845516875],[-0.0035144895553518895,0.013464939458072008],[0.019289604292531782,0.011902839511194203],[-0.02134081649001502,0.006137839733347305],[-0.015937536334789,-0.02355062208018057],[-0.01031698140154539,0.005013693720811487],[0.023391557029155234,2.003958456918767e-05],[-0.009596295582549028,-0.014108393965332028],[0.013819126827082969,0.02670273110164497],[-0.015276082308837698,0.02322391420785053],[-0.022219843499069344,0.01671039036586531],[0.007972234094329261,-0.017925617768589593],[-0.003006992917121967,-0.0034886086010765377],[-0.018719377221925775,0.02918179913150827],[-0.0033320525315751297,0.021804809411356502],[-0.005652201907834497,-0.006376622761556808],[-0.01756426198142952,-0.0009320571510482234],[-0.005405133789096284,-0.009841136662189102],[-0.005353378202462372,-0.006492082510401375],[-0.01413867892531289,-0.019477017995426005],[0.01546622286288081,-0.0049555720561669],[0.004906502685978823,0.006738534680240656],[0.012673270273154524,-0.03010085859916048],[-0.017541831945773016,0.009890041188947533],[0.010004719641638382,0.015503818915314226],[-0.023183715887267756,0.008712238987728283],[-0.004847310145991232,-0.021858929763025167],[-0.00760090854792844,-0.022349306343590523],[0.02246781302319861,-0.037174148401522916],[0.014564371644391054,-0.006108566559026966],[-0.0028931952765992265,-0.02441679293007074],[0.005251115363484741,0.014844206756656245],[-0.010790293754157963,0.006010908124371064],[-0.029700596099088122,-0.003596694243480616],[0.005683821994989196,0.008352965871371985],[-0.006179026905103753,-0.01306650286823244],[-0.036588366845991184,-0.005534156156025759],[0.03542025219638588,-0.004526567602038469],[0.021948820619615318,-0.0033700032446715234],[-0.02494252834746774,0.014677404674498153],[0.011417678977984267,0.02160651422897384],[-0.023180162111236906,0.01600240176355818],[0.008154110500732118,-0.00866368648210769],[-0.0170271430446267,0.002584257963351889],[-0.0007605535253406032,0.00012002669073148207],[-0.0026271622197836355,-0.007365793363614263],[0.012435276960145784,-0.020434612983294898],[0.012036031783639043,0.0067036650060291044],[-0.020864815413495216,-0.01019182735441481],[-0.013709314360939806,0.008120202399640931],[0.013551797576909125,0.0017441461196261833],[0.0078481105751494,-0.028261431061526343],[0.0015129883870965031,-0.022083700971213233],[-0.036609508045021076,-0.01276872910606338],[-0.03264226767430833,-0.010427155975141645],[-0.01407767495715949,-0.04075313731346915],[0.0073063733155054175,0.0017465600665715732],[-0.011846301888839356,0.009425557454897274]],[[-0.017629098753967107,-0.02334885707327086],[-0.006112064315499792,-0.01749819000009463],[-0.019540810496317243,0.00831634173113004],[0.01614214398831709,0.006788388298742578],[0.013464246402625876,-0.004198308051271246],[0.02055937090186942,0.002917329204615138],[0.0018198262596249189,-0.017235359529006768],[-0.02216261743038818,-0.032167781551244654],[-0.017720864862988593,0.01497934543289374],[-0.012869463144140676,-0.0034181815191367507],[-0.010303700616298463,0.0003551187458315456],[0.027476473655703923,-0.015281868199049163],[-0.018755980307989032,-0.015114662505957967],[-0.0021993812442804217,0.005019523143395295],[-0.003918576644167676,0.005397625719993834],[-0.020993032384700676,-0.002308493137875227],[0.006352127048495477,0.01927932968162422],[0.014903232294465614,0.014382834985493982],[0.024050944238312912,-0.0021627603726186184],[-0.007583807653376974,0.02155359361062699],[0.0010286486799030107,-0.01580423856896595],[-0.00798980736417134,0.009037189980875243],[0.0008212376574312707,-0.005930225286472591],[0.004346332601865927,-0.039400717544050154],[-0.006519986248050363,0.017200867298710208],[-0.005864981129737533,0.00039231578769760144],[-0.001443830021406052,-0.03657638131372065],[-0.003511804930597524,0.009133329997658087],[-0.025577629622755938,-0.002042876523247532],[-0.007141524697437521,-0.03209408601473364],[-0.0037847719665272043,0.011535286431949515],[-0.03303294725950402,-0.004484488170317511],[-0.01795667865018304,-0.005208981138543281],[-0.010175215044530606,0.011826173848469082],[0.04833564944724721,0.003313734075023455],[0.014183058428459922,-0.0085894974613079],[0.014580036605912455,-0.01851490788132828],[-0.001718268678865674,-0.020637300723454616],[-0.0015865899005461266,0.015791058930151695],[0.024012053826653085,-0.013428459008876481],[-0.011937137791242367,-0.03093577573488842],[-0.0004915131716593272,-0.0012953153669558364],[0.008402908260497874,0.021336864504481325],[0.004667710952162869,0.006294648134409596],[4.9454103255024313e-05,-0.0067810589587301885],[0.022056348540865495,-0.008513671332733244],[-0.015690815383975168,0.022147545329680933],[0.010014585473243284,-0.015943175897191148],[-0.01583792207277633,-0.017902421238226787],[-0.0023304424008493076,0.01093103399918835],[-0.0011489851428953396,-0.023950553764669508],[0.0019445736437346981,0.013578441590551622],[0.012368002590757597,-0.030464800722878566],[-0.010618752352486122,-0.007444431857566634],[0.021572363200591693,-0.011239935426978197],[0.01670957055068503,-0.013933414739231934],[0.017738399357373417,-0.02056351971112373],[0.00021540709252322772,0.008850123500970405],[-0.00238153275923048,0.0005199366087106022],[-0.0061878405529671564,-0.025529921520263944],[0.026633865906257638,0.001186088725884069],[-0.018693193363356043,0.019411916604569066],[-0.006470139942512876,-0.018564966962314817],[0.02668008050271452,-0.007948624322755612],[-0.011907409170825932,0.015075098624310668],[0.029765074698625247,0.008518127847747435],[0.012320293991806073,0.0026385519181492184],[-0.018016544391310015,-0.007583507019217652],[0.021805979817513883,-0.007946853945115432],[0.012191736573388977,-0.003007640369059643],[0.001397143678195282,-0.00846987631737597],[-0.01358865431096613,-0.0026236131801718626],[0.03004692363219721,0.003039236983131209],[-0.007252394167978942,0.0015993867436152245],[-0.032515752533314325,0.004170028014850803],[-0.011339227373189504,-0.005955674706396324],[-0.027126888420444095,0.021478039281440202],[-0.034788471828441775,-0.018541266187883123],[0.02398524859256152,-0.001472655693248853],[-0.011134786332883678,-0.020574586446887227],[0.010555774478062597,-0.01673497359768018],[0.02738595849360535,-0.00043262457710789484],[-0.006081879523201492,-0.012620452406669442],[0.014717372248908154,-0.02109381953473466],[-0.0012265112209137825,-0.014603191154270945],[-0.003559635581177782,-0.0349438447491846],[-0.004630005066245371,0.010495790165480363],[0.012048780125596282,0.005174862276577841],[0.0032231298685460362,-0.008860783681848223],[-0.0076108819231910565,-0.01224517947942538],[-0.003978812310953075,-0.017377914339546274],[-0.0029338007337544273,0.013989953187216082],[-0.005865249270406128,-0.0142724408273616],[-0.0025389519865291876,-0.0010830435512370496],[0.008489016460953947,0.021756239384505886],[0.01099993532517212,0.003984055251658912],[-0.0032009902764558174,-0.012254194447915388],[-0.030993987409944666,0.003133378183250608],[0.009037976201544444,0.02806372127913507],[0.022198517719675324,-0.024395605034015083],[-0.011631957712927334,0.001308760579072578],[-0.016139180938192846,-0.005436638135625077],[-0.021829188897739826,0.006763343178208606],[-0.002797631241019163,-0.009084552728275717],[0.009222915735422568,0.023053994117422184],[0.010957031785212302,0.015245811972432986],[-0.012628699982202722,0.030940909597333307],[0.020396660193101164,0.007138514247024305],[0.022822592339727103,-0.015493790805882826],[-0.0029601284900737995,0.00886789188664538],[0.04891905873954383,0.0009742177302970037],[-0.0015562384303878787,0.0026160180845635184],[-0.027885921038482548,0.0006310051519068235],[-0.014471253773502484,0.004448595826495286],[-0.03498089971526351,-0.005086394697111054],[0.015083698686047423,0.028119004087470666],[4.729083699505938e-05,0.021715420310820598],[0.019118351267071784,-0.0006888816172451184],[0.022729913748617294,-0.019351220432629927],[-0.023299904610085954,-0.012813466183313109],[0.01762139237260536,0.001849726254455706],[0.023184461277808006,0.000610877729147326],[-0.007802151681944622,0.011314348732025185],[-0.013392993778640665,0.03540138532181897],[0.002910100546573771,0.01193285817404315],[-0.001793614754023717,-0.025406212141372463],[-0.00031585474866225975,0.007953273338208191],[-0.006370713939834777,0.019115831643069316],[-0.014319652726415177,0.00355593223809481],[0.011949678582526376,-0.003987159635128675],[0.015930669415844867,-0.012062324549842143],[-0.005312431852365197,-0.00450809655165114],[-0.01358915020436415,-0.005623273335768791],[0.003691800597878345,0.028936102083865267],[-0.015440999010157705,0.003322315652085013],[0.019227847316789705,0.009164729207931935],[0.03282674315152464,0.029118038356267056],[0.004461728797911827,-0.014244902361229345],[-0.0013827470789513963,0.014439118074481484],[0.0014009780959311977,0.03380984259157395],[-0.008440194949360259,0.017993814802481432],[0.030874521641242627,-0.007468491644271985],[-0.016626854672574534,-0.004845547322307272],[-0.005436228046952254,0.005913125809680409],[0.006885142669138333,-0.0068230372633669035],[0.005908954704117025,0.013578925768047128],[-0.0009240450124662729,-0.004518245375153848],[-0.01881788653351901,-0.024105393236114596],[0.006810844445167511,0.018579744191486752],[0.013692000180711157,-0.015496234515539067],[0.014887103692094696,-0.003606435257403912],[-0.02226105251859976,-0.01738804673475646],[0.019939263407915908,0.003731166193912119],[-0.004350250920805538,-0.004403217219413638],[0.0034770305876509616,0.025888591705820967],[-0.02685008988047532,0.014715362322518716],[0.005317364061896385,0.026816874084245046],[0.0018488784852811668,0.005688816691530297],[-0.007822281901874499,0.00109299136181416],[-0.009181382055344533,-0.003746915885264871],[-0.009823024127890724,-0.0004803974764378306],[-0.016811999235286593,0.006019677370353613],[0.01885421666987545,-0.01891698837688394],[0.0003600391006287505,-0.008429611356923196],[-0.005932056215954185,-0.004061548492032605],[-0.000951488749277622,0.02106317699009673],[0.014704878638876859,-0.01857344454646826],[0.016615135747299798,0.01194027988061631],[-0.009599734113092418,0.0014408261946711725],[-0.009072782384205403,-0.01870151042115912],[-0.01551858276358049,-0.020908649596638892],[-0.04927071990175454,-0.012125205808368901],[-0.0029377798229772547,0.010932662444683463],[-0.016563732314865368,0.003097356380929405],[-0.006504190188291599,-0.01710435723672192],[-0.0169418012638404,-0.014364384750495415],[0.014384944500311213,0.014431119660876386],[-0.0073716237823524605,-0.008849552756923559],[-0.004165694449632337,-0.006571553833399801],[0.0009204928177138395,-0.012853588599608817],[-0.014159254234732457,0.018502168108871682],[0.00567894580336639,0.0031701055952985816],[0.0032209745806743447,-0.017224402728514995],[-0.00035395103865279616,-0.002100382832347124],[-0.0010514442037119773,-0.017685710855346284],[0.011021419493067366,-0.004421248840723427],[0.009384332023315645,0.014392677673480622],[-0.023301984620544784,-0.012774455321966964],[0.024002701474514273,0.01946387153650696],[-0.029795478499382706,0.007528962436894891],[-0.013207307742554367,0.010578334038581872],[0.005693803961019563,0.017879750154221837],[0.0032873970061291554,0.00942070239870791],[0.0010556662897231676,0.013103471694213104],[-0.007726283297841321,-0.011819292267665777],[0.006873744681565956,-0.029652387297623033],[0.017075865959602154,-0.0053017438945565315],[0.006007308953272107,-0.02245794376334181],[0.0178368499469123,0.046738320375575064],[-0.01603096556236052,-0.006277382075643717]],[[0.024139964429233687,-0.017369619558300492],[0.0064712732403238655,0.028026549867713135],[-0.015939503966342597,0.021072415488513928],[-0.003805307467080173,0.010687382380674166],[0.013797640849059684,0.00877382961303822],[-0.0005305532320005841,0.020446944244302004],[0.004713992738235373,-0.0037965875808535603],[-0.004881029871544043,0.006477467865855036],[-0.013252914107874166,0.0043263467409499655],[-0.0383463714270521,0.006082555048412845],[-0.006722380298656208,-0.012882777403695627],[-0.00034454767122549246,0.015844272858559674],[-0.015837675071744814,-0.0039853367407504895],[-0.002567398997672869,-0.0027634106273492064],[-0.005337112299283459,0.0035037793637559657],[0.02373123708137394,-0.007731016082180384],[-0.007253547165498674,-0.012154322239447863],[-0.028922577614266847,0.006313143471278274],[0.00733238042331354,-0.011688623125135016],[0.005325577419363225,0.0029084415121708226],[0.0010606491432507484,-0.01476054508662349],[-0.0003505159970966891,-0.02609845482678733],[-0.01569203948276127,0.012051444443783739],[-0.00515520445508751,0.018539700164627606],[-0.008957106628878731,0.005076849775351422],[-0.0014809682453884084,0.018117132173926784],[-0.004643813487467851,-0.005989497345683138],[-0.011317153437308332,-0.022993842976696387],[-0.0061709436154492245,0.02790719245784764],[0.00880013484955881,0.03273231746203046],[-0.010336219168271422,-0.01305215886232662],[-0.006567094034902142,0.014589717198092385],[0.00709220364353989,-0.0017389486302148475],[-0.0057643349281797955,0.019224321600478753],[0.018309440356616698,-0.02224181291044228],[-0.01520644098067403,-0.01102819987630092],[-0.013815180109670321,-0.03002328695397785],[-0.015894929147632336,0.017155971308862143],[-0.01482238056270789,-0.019999937818204704],[0.01888252054885633,0.03214828591588622],[0.01936277645923479,-0.01693699513878451],[0.009856834796356871,0.013644344813027107],[-0.03259212696335815,0.008231130153823214],[0.007497062657882015,0.01533527970633283],[-0.017380536178690818,-0.028737835347926042],[-0.010376991611296524,-0.018306302148812684],[0.009409124420277382,-0.00506508435817991],[-0.022457443751715045,0.025110135186139505],[0.009527765656289365,0.015713963134413086],[0.022282776223324835,0.01647103329089947],[-0.009587840012036865,0.018061463325625724],[0.007396137372935958,-0.002065796890268999],[-0.010960975198559162,0.012012379675718103],[-0.028807544146569372,0.006869037943213766],[-6.572506832036324e-05,-0.007049339829490376],[-0.010381981351393219,-0.011351853922820902],[-0.009233302941027137,-0.0016204560749577082],[0.015190274217951886,-0.021748231364754612],[-0.033447496868192345,-0.00807005443484093],[-0.021390994427119777,0.025041274598447617],[0.01057834688157457,0.0389631152051483],[-0.019444751243290297,-0.006763878763182223],[-0.021073805969116944,-0.009885700898862856],[0.008682523542824276,0.016250322875220654],[-0.01083770534515947,-0.006240405057775865],[0.025095180436485495,-0.004758072668732768],[-0.016954944570335494,0.006261759780686409],[-0.015250702834871453,0.007897656196570797],[0.022927649539605383,0.01781136720808351],[-0.015947775289695303,0.014479166351877262],[0.015494112815218066,0.015176378940508085],[-0.004219321358955337,-0.0005324040774620691],[-0.009993956988825096,0.004770640715605348],[0.01610456119229004,-0.007412621824048028],[-0.005645344189493447,0.010272649531122866],[0.012037513646309384,0.015094817595006476],[-0.013776162355393747,-0.018400720901302514],[-0.02821122723536588,-0.013983438460648735],[-0.002254459101336149,-0.005666800336941312],[-0.010711460793914683,0.025532036719662265],[-0.01206596452930378,-0.0033908134103488525],[0.012195214099700244,-0.009383934208206803],[-0.02801354310774279,-0.002124802942545682],[-0.008938970001832946,0.028571157511738433],[-0.01847002853930996,0.0008905158417633393],[0.006021976350439467,0.018834881987747677],[-0.009210211197856167,0.0038293141277064013],[-0.018062784460170348,0.004933363594354762],[-0.012174451929750692,-0.002536194680050563],[0.01332015891557476,0.013492672824254526],[0.015880086860364784,-0.03055917446850019],[-0.004359707511173827,0.02195951118438354],[-0.012954872945951355,0.008319214840757018],[0.02422401053288565,-0.016433005425906057],[-0.01648137297956027,-0.03356261721256476],[-0.010834412009237553,0.019312761836602292],[-0.0013458836863613384,-0.00047492671327688165],[-0.011226535254320144,-0.0036993297208198746],[-0.006391033555767967,-0.0048259866152119465],[-0.006211178658547539,-0.006074624991518508],[-0.0007235221705652797,-0.00922784388685862],[0.006610955935639882,-0.004367948061349603],[0.011325977256639128,0.0024409816407352704],[0.002434551675622944,-0.005598007306060857],[-0.0084340938821254,-0.023369055702225007],[0.0008162099876298139,0.018265940558778865],[-0.013711953988266955,0.008263689872460917],[-0.024806482944726246,-0.020149811807789318],[0.011962019566534386,0.015956739821900868],[-0.02533196204069818,0.005112959512488278],[-0.004470806954351694,0.020889999862998523],[-0.018561374552131943,0.0025625820206164403],[0.02026126969831196,0.005417938870077089],[0.011910801659890558,-0.012223675360395298],[0.00011842525311242524,-0.011237362831505778],[0.018996689891701748,-0.024268870887352793],[0.01916784520113676,0.0019991008866814567],[0.0010233934895306288,0.03321072074140284],[0.012331726988873616,0.02603467881434196],[-0.0011153926180942283,0.02138557489993451],[-0.0018159509554451381,-0.008748853622715522],[0.003926879554077358,-0.001248206938394232],[-0.019870137481022804,0.007000217291110379],[-0.017085454951526212,0.010206305422606917],[-0.024941779305954405,0.026812890784211212],[0.011741697759697592,0.0011215041432467857],[0.003794197036122327,0.006527416541199029],[0.006870358030525177,-0.008129085336363763],[-0.03620026664884497,0.019867906278469256],[0.008328779788215463,-0.0010731915559432509],[0.016583366446056895,-0.012542516993339227],[0.019032430602381526,-0.0016107174369199952],[-0.021754146891006874,0.002992164126821427],[-0.02774273140400041,-0.010410643861404868],[-0.014502956641890146,-0.009729937539556303],[-0.02076787898336485,0.012782675120204923],[0.025761761471253204,0.0026952349519246774],[-0.02979757017892958,0.014889864089153559],[-0.02727930106390336,-0.025613561756280965],[0.0037137821719203826,-0.006113566440441634],[-0.01640312567763245,0.021734528314996247],[0.0017875212415359087,-0.010848294521286864],[-0.0011550995625581643,-0.019590495934125127],[0.021171336425980368,0.0014427336272214292],[0.01040801028073493,0.010492623407295246],[0.010998064823107109,0.010793492744551896],[-0.01645095215085958,0.004696701468204531],[0.0027026562280210026,0.030032473379707714],[0.016504712154324336,-0.020115068184709713],[0.024376849244147555,-0.024454280858504422],[-0.031121875861663283,0.01577773475940363],[0.016993492380488424,-0.04217945207849108],[-0.02467086278170375,-0.011472114943908162],[-0.007259014964914765,0.007477896263170184],[0.022586210178803807,-0.001141831437386553],[0.015046020657831664,-0.027461975588360082],[-0.0014281724895032063,-0.014540589577255184],[-0.013185873568149225,-0.007259302743547102],[-0.010515436061104829,0.01698078721302359],[0.00492299110898536,0.004130486127543079],[0.0034400336562145644,0.026882460473208778],[0.0040733182644112865,0.02137624305307132],[-0.010371476146072714,0.0032179087796024306],[0.007423680068656217,-0.014055305667495684],[-0.005420466503353384,0.0018172482069553839],[0.0361798813508006,-0.028345154232901473],[0.014536063710935642,0.0004832587986632383],[-0.016977130882944554,0.00016653977707131295],[-0.016639282089680733,-0.01166369606686251],[-0.012269676406280204,-0.00378397586005565],[0.007249573378254049,0.0033866153541449815],[0.02155264369992074,-0.013628092966916274],[-0.012247557063436292,-0.012402286905471443],[0.007674927718075351,-0.0023941137750136676],[-0.001646498562465128,-0.010468632245468339],[0.009708998961971589,-0.010054182386512915],[0.0010127177848423081,-0.04044205284228353],[-0.017983781373277462,0.007576042718076171],[-7.557561380441228e-05,-0.016538425865140198],[0.02578486169457242,0.003399272724427761],[-0.00030725850506711436,-0.004612885249058169],[-0.0019653523561705124,-0.01438016339715821],[-0.009361552898038833,0.009415536774011808],[0.005213061595652168,0.033892612317124614],[-0.029377552878450824,-0.016713226055342277],[-0.011992143253314297,0.00203775329586233],[-0.018219871919346663,-0.013222130172394805],[-0.017724105202020682,0.0030345394368932596],[0.00875788561019228,-0.0033632911371067747],[0.007204452596974581,0.014677581216580526],[0.00796412760502839,0.023719444681539793],[0.026940992157059702,0.013761536205354804],[0.009246844541179966,0.04175310029385789],[-0.017441992983268116,0.007638517034866534],[-2.3433610033635373e-05,-0.0245906287096136],[-0.0002917758151316542,-0.033563165981725276],[0.0010062166582249467,-0.0038701249272054166],[-0.0013148516473483864,-0.01996128514802028],[-0.012792208463365502,-0.023584854553994332],[0.0039027746602392404,0.012081165316580886]],[[0.010687862708128298,0.01417179940773386],[0.006729356903404896,0.023524474293138177],[-0.030971942263531508,0.00211210676310219],[-0.011562517854067818,0.02151052928402048],[-0.012496136958339168,0.0005628415011482901],[0.0021868207993150316,-0.009475916474431507],[-0.0019477436547474195,-0.01545542212118136],[0.007071644884871178,0.01485231113495264],[0.014840431446340379,0.006742264840549547],[0.009806056629821112,-0.0030926345077821145],[-0.016445557768895773,0.015162119715989861],[-0.025308307334982592,0.02876751752957906],[0.0176784750008556,0.007038190883031144],[0.011133241195424817,0.004026083625070351],[0.0012643545504375624,0.006156271955817465],[-0.01141551081979375,-0.032433226128615315],[0.0033252965420189264,-0.022231223300519097],[0.020558106022822743,-0.009544306540060075],[-0.01466205598861671,0.012021257822273203],[-0.023936404562301054,-0.012923352985498758],[0.0021889780945766953,-0.003291616469082443],[-0.009742468376656072,-0.004317227316093333],[-0.005374231431237934,0.0010308499893970152],[0.006725547266057516,0.01575607441148895],[-0.003929597159442478,0.01989025753008151],[-0.008566367078590474,0.026621400867153415],[-0.003911335605465659,0.005687860413048579],[-0.034122033906099976,0.01341617512220233],[0.022272108939165522,0.019721822139676687],[0.02651000991397439,0.005563408347387301],[-0.0014870766158365505,0.015936527494762598],[-0.0042468785271980135,0.010806368102015806],[-0.021800715899156352,0.023147191525607756],[0.0011342422383328519,0.008685331324038339],[-0.0085938958932958,-0.01903348563537233],[0.00442031400703123,-0.003676657725465338],[-0.0016940572357803498,0.02056154680720856],[-0.0029038547620011024,-0.004092245752917915],[0.01775452422060975,0.005330695133245264],[0.0008226990079914951,0.01560814600962493],[-0.029883475217337318,-0.012522558000844734],[-0.022793038222029865,0.002691087912235094],[0.024478469104246003,0.027377034585657174],[0.03294876011347332,0.018123444133413106],[-0.017647104499629262,-0.026961407779844036],[-0.0023566163487148926,0.010831396495587186],[-0.02955758920308974,0.019149856610816692],[-0.015014362980540888,0.011075682207179324],[-0.026826160989993467,0.018444831064758412],[-0.015536836935046278,0.020689979523154343],[-0.010798989162357168,0.019984012106038108],[-0.034090787034930244,-0.0006253848302806746],[0.01765990356038137,0.04066592070081866],[0.004041346689195607,0.0054084159931363516],[0.012128033003605952,0.015396405084246511],[0.01558748866345834,0.02504992932844765],[-0.004157561444378405,0.015118197528614569],[0.002127371472049499,-0.03335247542002592],[0.018893083215282838,-0.029305146334266872],[0.0013732546039124868,0.016463707040592194],[-0.002974708700016651,0.018372233252924815],[-0.03082953040566941,0.01610659532897846],[-0.000274716907173329,-0.0033706326177845598],[0.011818673123790355,-0.03467310712965094],[0.004158575147878213,-0.0007403900909453628],[-0.019030182420872437,0.00039710740373092614],[0.0068875644105596285,0.0037751003555762065],[0.014924304303895988,0.008736628692555114],[-0.0016776436022830814,0.01469630718566151],[-0.010689414292411758,0.005952315097423704],[-0.019673735444104744,-0.013589449525144083],[0.025374916737667806,0.032778034282967654],[0.0006686070311906636,-0.02285552289295832],[0.00029339506635567975,-0.010636972008759644],[-0.003963331950635226,0.01163166228881971],[0.0029236869236551628,0.023743665167395425],[-0.026982691397447283,0.0028503380662437605],[0.004898106446261927,-0.01027660045380327],[0.002199204877024419,0.0015213999487793612],[-0.013967344726566687,0.0037008284430904174],[0.009191063950164023,-0.014850730150476358],[-0.012631737682925078,0.006180526831716939],[0.023625170832561927,0.010105927028713515],[0.010669686322211502,0.006853903881643414],[0.01130447858069991,-0.010018056512951214],[0.004429705919131979,-0.014170273371336521],[-0.005865509624719816,0.003013460244671776],[-0.012956688203614397,0.004286931258258181],[0.00494358147667775,-0.005197022302810228],[0.003580860247615753,0.01040352827277059],[0.0019602837462716137,-0.006291578849193567],[0.0031090195817826405,-0.01907415102785024],[-0.011966374869189098,0.007833938732267723],[0.01287678752261786,-0.011536788220375791],[0.0173503720678005,0.0007813421556794814],[0.013271730809225411,-0.01312974463813531],[0.004253622186635156,0.006118673946794967],[0.017939463078841072,-0.013750834712742091],[0.0010226606528179506,0.01002442803390197],[-0.00824742546507585,-0.006780078160719317],[0.0009685378473770628,-0.023047337362044333],[0.008092613907937604,-0.012178711634658682],[-0.02084230266833233,-0.0004310460853994384],[-0.020779818948934214,-0.002680162776171865],[-0.016636964587146263,-0.010920308576105497],[0.015121143159399353,-0.015963664948612913],[0.01612713095321079,-0.012396585429374227],[0.02233223364976004,0.004216662313360593],[-0.00990350704906185,-0.011595864714876485],[0.02860420780292152,0.023614065724596227],[-0.026998436820157838,0.014360648418880278],[0.023183681765041673,0.016636294674219912],[-0.03068343664827678,0.012111819871572452],[-0.009179744855257178,-0.022698391652483628],[-0.010243699347443156,-0.01801472304728887],[0.006534562694015086,0.0318956307567747],[-0.025859017098596275,-0.009846494847206358],[0.008619295258847835,0.0077284730123025995],[-0.02000933253746025,0.005780284391336914],[-0.007041929265196024,0.011637125818893155],[0.00632202830573361,-0.005998383874257144],[-0.004219471940668209,0.021011372930851136],[0.005261937473014575,-0.0065475000330739415],[0.03081131752005824,-0.004639770013423083],[0.02835539032383414,0.012555827332584018],[-0.02791397216828087,0.010496987558927414],[-0.004953678588158348,0.009360058726523731],[0.003969768169690021,0.01050561145861137],[0.022349917564107914,-0.019013572487075657],[0.02490277370809904,0.013634848976373758],[-0.011595197812918595,0.016499259830868324],[0.005088045913813083,-0.011186298538427248],[-0.0020882579474177042,-0.00045257853777257856],[0.024793796665698618,-0.011554618950827163],[0.015458478149853218,-0.001741810132485166],[0.002444506205652514,-0.003917654934530013],[0.010921153034263761,0.005000309889140504],[0.005030917149191605,-0.012588461490529577],[0.012668500978276721,-0.014968489744271117],[-0.013748160486018905,-0.01629826961564557],[0.011041879636174997,-0.0021233824174009333],[-0.012047482478518435,-0.03229337272797448],[-0.0032766617038914353,0.013990317181282855],[0.004004502783747041,-0.014514374389070689],[-0.0004658804710209064,-0.006131097043686675],[0.011990039457421137,-0.02766525062359633],[-0.007220943267202134,0.021952263702837958],[-0.0324882065777445,0.0010258780139031963],[-0.00978058035942866,-0.009202581737168865],[-0.01707870538315906,0.01855442711910067],[-0.023434074453111645,-0.00224457046455643],[0.0320386530436275,-0.013279510796709408],[0.02157112310338853,-0.0024443660738708685],[0.005200255851095952,0.015844718723796322],[0.0007532837635441129,0.01953245180687447],[-0.00876846418383689,-0.012192009631272132],[-0.0007659317389329253,-0.02337650527870833],[0.022000914954563654,0.014939866154006741],[-0.016625565376338976,0.021130941994397245],[0.011566342867380286,-0.009957608687020229],[0.008357541996049721,-0.00015448954756987817],[-0.013363017317273462,0.012812067841684335],[0.0031423856062866504,-0.009436649652409874],[-0.009665899124441928,0.002665669782867992],[0.01240960516744817,0.003553792041957251],[0.003744966150202374,-0.019817164638711707],[0.005587414467181304,0.011229085800782742],[0.019314533799897962,-0.00908560583670993],[-0.004009543874729126,-0.032771589220240066],[0.019376202896587896,-0.00779156142750364],[-0.015300737648029975,0.017182602776826445],[0.006434620447658834,-0.02329547793777572],[0.007541391706953219,-0.021630657313092477],[-0.007056381639679894,-0.018203262616588216],[0.0019238535258613524,0.013127764287247025],[0.022070487001629786,-0.019201967579096646],[0.0029236514146357296,0.0002724177891783794],[0.01977676927847374,0.010969459147317576],[0.00010787351467986869,-0.022855331240367656],[-0.02377464783822067,0.02799895792648013],[-0.0040821932170133565,-0.0027172538007765546],[-0.015526316963544652,0.005764700493340794],[0.02146517791518897,-0.0180391256082602],[0.006836769081291529,0.011762308919561083],[-0.005082282886523674,-0.021786520910256617],[0.03210641116641224,-0.02507954494140311],[-0.0036426299022404105,0.007165175369787573],[-0.005189060754437236,0.007455413550884778],[0.0073128039769246485,-0.02047024010687518],[0.021574624928830728,0.01274820803161053],[0.010472395564749687,-0.006620463714472233],[0.015914632107957252,-0.005313225077198377],[0.016544904736352617,-0.001434465218718599],[0.00146422584937143,0.018845805733384006],[0.003819190760128908,-0.017335689749898242],[0.023161163167008093,-0.006296814343382588],[-0.009041077205776875,-0.038821870904220034],[0.018210646294097535,-0.013632043491651358],[-0.0014697112764037023,0.021689598619152005],[0.013742100451886294,0.015162630369895812]],[[0.0013954728894116247,0.019904971524477025],[-0.021426283876023477,-0.021413132645065013],[-0.002317209871326268,0.03542030741637316],[-0.015378173927408565,-0.00905343227444417],[-0.037845842258737064,-0.012045312508124479],[-0.0014463795974615458,-0.026317283631639918],[-0.02043113917798582,0.03343020037154749],[-0.017026243378130912,-0.03496940306290283],[0.009452524201418872,0.03514477316277295],[0.012621433741304266,-0.0241896616935044],[-0.005620080194261049,0.01683324305342198],[0.012860810003697935,0.002202738925865709],[0.008784444554805896,0.015385140055052203],[-0.008525818614511288,-0.018925169158907785],[0.006108677711909199,-0.0074525663311448],[0.013572590320580929,0.028414482275671272],[0.0010124785354754988,-0.002172938655136121],[0.014068704318450989,0.020981679452506608],[-0.016786878357049066,-0.010805564153647858],[-0.014357731332222538,0.01250730164710232],[-0.0007986510195741835,-0.0003570638279066559],[0.01971515254994562,-0.010585582516622914],[0.009754109152235905,-0.02856407833440645],[-0.0016369553576067357,-0.012720811647996256],[0.006395049591946291,-0.013722070603575673],[0.017989068744091185,-0.018163594021810666],[-0.0034272580807110063,-0.021032217538068235],[0.01269252914763136,0.008451524196969687],[0.01948356600166684,-0.0008965004822737311],[-0.0061348360957795235,-0.009628600180060759],[-0.0024810267576567645,0.005663879210699281],[0.01867227889850758,0.011654014101538004],[-0.013570914480102926,-0.022585730901166525],[0.01644164868294365,0.020203385975182512],[-0.027697406369754828,0.003057806013012182],[0.008351741936609171,0.0005940866597212357],[0.031953116126030245,0.010904007496648004],[0.0011365934742673237,0.006926023166889554],[0.017078112699379516,0.0013282179117061225],[-0.005622594273027798,-0.010706406625911668],[0.011368832730856248,0.020050846376491797],[0.006530970463870205,-0.001405480184648645],[-0.010867820529770148,-0.008100378529644443],[0.0009965583640305139,-0.014458816723679732],[-0.007843483613681524,0.02453551898085174],[0.005160915943263308,0.005366784593208706],[-0.022840531692983796,0.015844275019982947],[-0.007766918619466193,0.0038079296070892303],[0.03386394029270049,-0.022845037527898827],[-0.006330385395521665,-0.009350817992664913],[0.009183500433651598,0.012200739420629063],[-0.016444701573297846,-0.013109466573878858],[-0.021124441445832816,-0.008097942415048891],[-0.0035610250835863494,-0.008110952684813684],[-0.011696509970243577,0.008900326241713608],[0.016502876037559337,-0.034856112396847744],[-0.010727256355390414,-0.018792525812268392],[-0.02135630010842068,0.002027632522125125],[-0.009068116103531944,0.011130993775674194],[-0.019753052148578053,-0.011123187759970371],[-0.012761624479612856,0.010239459895846879],[-0.004704588680324016,0.01020780908691922],[-9.57818179756877e-05,0.005775808357762406],[-0.012999705861381994,-0.0014444545657382214],[-0.00806882941973194,0.0019718683045993127],[0.008352042427956629,0.030935865238579698],[-0.00862962498427413,0.002368454210813247],[-0.008535793536844631,-0.008458583715483123],[-0.003916084937998147,-0.001637288886486521],[0.008553526842747575,-0.024400859916289264],[0.004846434886783817,-0.0328717220760985],[0.01602156947296198,-0.003752614821260612],[0.004353218161006459,0.019081271941023503],[0.019780929818543347,-0.00405758496578794],[0.015527725340713443,-0.004770302990132756],[-0.002209754425702758,-0.028664795037446157],[-0.0011692611070461358,0.0260334545230154],[0.02646147494642681,0.011886109183549619],[-0.015661053045033207,-0.0031306121431301194],[0.005937970835900739,-0.01360463603632791],[0.010066710447356905,0.014025898524471617],[-0.014636484729597034,-0.018808696033477842],[0.014070695801412153,0.02388509990820784],[0.01780267554507292,-0.00902015352513466],[0.01616951003582162,-0.020132096191350743],[0.0017753179984593115,0.008405945639647965],[0.00271518545023029,-0.028155607586068776],[0.030735195755084415,0.013056786812637005],[0.002544286206002244,0.005945583762401629],[-0.005394976717066205,0.0038400348881815352],[-0.007377509330748696,0.01801570273166452],[0.010453369953874095,0.011605213538723212],[-0.00810871199647045,-0.010219734353263179],[-0.007826041896737863,-0.012945410630654016],[0.019926135997119065,-0.005959863327567578],[-0.03882436361532906,0.007058236266209913],[0.01042829280676262,-0.01441290899984526],[-0.003178334041302145,0.018291662500222555],[0.0029255294544934494,-0.0061578190006366966],[-0.008390116972425322,-0.007599195955394494],[-0.019002665950681223,0.01661696072757535],[-0.016020870621594355,0.00880522750257354],[-0.00845135225335389,-0.03231266625753464],[0.017860151451494385,0.020944869466120012],[0.024370256517973497,-0.010326715657264411],[-0.0005163966288058361,0.013139408755689565],[-0.00011571487299432033,0.0385960098713453],[0.02100081218441214,0.002247583134865263],[0.0047237674268009,0.007530477173527968],[-0.010606607181372203,-0.02172532314785476],[-0.010815587531388659,-0.008760843943835814],[0.008381516392191757,0.024671984314080096],[-0.01499095686674519,0.00034118728114012915],[0.004328301991640034,-0.012165284662211676],[0.016285731847646832,0.023209845825299374],[-0.006037337276984174,0.023308165351477814],[0.004022375859446166,-0.01832527444598953],[-0.02491733986097051,-0.014569206729541722],[-0.0018479600827707786,0.021820572769222925],[-0.023826236946184895,-0.0014265682075944469],[-0.023121961918437583,-0.01133985627033143],[-0.004953347870616432,0.008093508664035494],[-0.008326368294435461,0.003752741095111092],[-0.0027476472753655383,-0.03960710425116312],[0.01253989334759032,-0.005407876217566398],[-0.01038133314966471,-0.007854804708252349],[-0.012169484771078043,0.008406597747348001],[0.025325738947365138,0.028455514330963227],[0.007966362814489562,0.007333046638772232],[0.017594821517504876,-0.007404301022726895],[-0.023834453325383972,0.025577545064736203],[-0.01386528441179671,0.0034477265118008932],[0.008493728092567671,-0.010568083090269922],[0.01377295475236115,0.023487600165464296],[0.011207986746042401,0.023888399059748835],[-0.01307991614551245,-0.00741380850096685],[0.013106199015001659,0.003968015750056264],[0.007118427819580847,0.015743415834143872],[-0.00024596293831259664,0.005911384707872945],[0.00311587825173292,0.027515170358446785],[-0.012828720530088294,-0.008651351988472812],[-0.004596003332117859,0.01167847030525364],[0.01473113566191979,-0.0010591463140167956],[0.008037730741320446,-0.02763099354002707],[-0.005751705781789728,0.004132028137486168],[-0.012066539187539471,-0.014634515694595398],[0.013960940757103479,-0.026892533703208106],[-0.02230890717270565,-0.021965165146935844],[-0.005244000942086808,0.009869493460416056],[-0.004454853773161868,-0.003036648843959512],[-0.024736127830356135,0.008869454627263821],[0.005510362933934303,0.01051711082721847],[0.014771207815728033,-0.011954253153963422],[-0.008142227117939185,-0.028378123189032285],[0.004565413575819037,-0.003640884175377271],[0.008670620717223566,0.009462111982519988],[0.025779454747471432,0.005952398760872744],[-0.02700693230346325,-0.010831980773905028],[-0.0029012833544817714,-0.0170473445809397],[-0.00719619435751706,0.002898253969361878],[0.027146040909399996,-0.014747902842417808],[-0.008497646047033763,0.020783145453189177],[0.015481937390073666,0.017889276176876898],[-0.015051033022549124,-0.002907834560738071],[-0.0008617084477733454,0.0007476063049954148],[-0.010079198386571227,0.030173003738929317],[-0.018898823264955105,-0.02486127075255151],[-0.008686285738548606,0.0010327010755009063],[-0.016176160403252468,0.01927663746032765],[-0.005104835092699831,0.0012332616455742861],[0.004330439412135028,-0.010188116090321695],[-0.02117737500404382,0.004516369805888943],[-0.01374617244820805,-0.004423166297144116],[-0.002910300750212742,0.013398912110899653],[0.005377350312267895,0.010095020436383079],[-0.019068671156536526,0.01037834750622529],[0.013076397005753443,-0.0027584326045693996],[0.006238930380688068,-0.022072728914946924],[0.03128445490205167,-0.0012604762896262466],[-0.01342670477350726,0.010962220594017866],[0.0044962510672511375,0.005159647320618406],[0.006317441638954742,-0.0026240094060723113],[-0.0029817581749117276,-0.006892811952298426],[0.007226786493446899,0.01135944704552595],[-0.006545140348188449,0.018808555204734526],[0.011770675021165918,-0.014006495947982457],[-0.0036783754161328923,0.01797739452334062],[-0.001667432698595095,0.026372420780218106],[0.010740057001120252,0.012603310938538097],[0.004559521445927587,-0.03405022486263667],[0.0002985223337317435,0.01113786997886411],[-0.005129455637172563,0.015604100553510396],[-0.010898250421665149,-0.008043205569699148],[-0.012570327234248,-0.011577633404053256],[-0.013429879206174694,-0.0024511509841396396],[0.0126864085447898,0.004193213949967581],[-0.004241676368450996,-0.0075595997453976405],[-0.01761485861751958,0.025699726854409327],[-0.03267680243652341,-0.0030390688539937384],[0.018589471121951782,-0.00906495027231755]],[[0.03080706396554857,-0.01379539254740636],[0.017400430338736374,-0.012561393318501504],[-0.005501433601151216,0.000504594072566711],[0.016416959273580157,0.034952094227430286],[-0.010637778179511817,0.0169291830343199],[-0.005230084664018824,0.005237366537759942],[0.00231187481388584,0.0225044027091234],[-0.004256857215655378,-0.021391530599139737],[-0.0014888532766428597,-0.0054834513999791265],[0.00120247705553082,0.01321020856359621],[0.013422164764349348,0.006802110581344792],[0.012573242107763397,0.00808816164661442],[0.02825066100668805,-0.010852668686147766],[-0.011370808634625194,-0.008818901939675997],[-0.015468454687372,0.028954093294338155],[-0.02626701944497602,0.0007084712556118524],[-0.020816495032472272,-0.022729501507735502],[0.003915834398002976,-0.021374098986400136],[0.0053165644408566335,0.0018719493275141368],[-0.027179608638442595,-0.0005363457454674253],[0.003577813990247594,-0.022713331852314635],[-0.01741726804402885,0.026116588072688417],[-0.0022530061938779043,-0.004625445509538331],[-0.029102759113078698,0.003059496386204307],