{"Name":"RbmSpin","Nhidden":200,"Nvisible":200,"UseHiddenBias":true,"UseVisibleBias":true,"W":[[[-0.017852420652531616,-0.0005792017316179256],[0.01351819738589426,0.004707265423091659],[-0.002430545370572226,-0.00033626526291496235],[-0.0017243791183513997,-0.0004439511372305426],[0.008881926444131018,-0.003210859221887701],[-0.009974322535625729,0.006355081485543439],[0.013161824908718433,-0.008062735061279254],[0.0015563989858335112,0.011813498762606213],[-0.0007977053298114022,-0.015484121722241046],[-0.0015674856965331434,-0.0005831594922288717],[0.00275710854594652,-0.007982767240571597],[-0.007103052803402307,0.011611592039416224],[-0.017541937507577987,0.0014775362337957926],[-0.009686883766886856,0.01777554405215396],[-0.0059194106108988835,-0.0046228188525179745],[0.014287118349345304,-0.014780089496116429],[-0.009735893296888174,-0.0007154996392219473],[4.4761743585127e-05,0.013662091371084976],[-0.011130060197291304,0.0018522334987416999],[-0.0035627014314648956,0.015860881653158344],[0.015817077146442284,0.005757089173292132],[-0.000917717764806625,-0.01456693170667986],[0.00862373564307125,0.011055737936179044],[0.009792822969494127,-0.0061240490122099955],[-0.017615130918410334,0.0008347935877659923],[0.004141900619811735,0.009612214256780043],[-0.017821729304961238,0.009304558118679208],[-0.016937206416794096,0.013050086112025815],[-0.005632427977267737,-0.002723119204668545],[0.002213758900191612,-0.0006912510501621972],[-0.006206109272214711,-0.0006905473346056626],[0.003764929381174978,0.021743913216256513],[-0.00813737664953194,-0.017273014366648038],[0.0001910401464352777,-0.004605767303189289],[0.010933290641278357,-0.012212654113850814],[-0.020329207377619264,-0.01132976889823039],[-0.004299694354008166,-0.004462417670451446],[0.010232816893898227,0.010142437269433898],[-0.00027034072380797036,-0.0036293055496384972],[-0.008270428310566768,-0.003846166929907562],[-0.02166229294200943,0.008492155010367732],[0.004611382554571105,0.004703381347763857],[-0.010904083311243882,0.004492035823648389],[-0.005099243445583411,-0.017279572907499482],[0.009593606330810661,0.00894169452840298],[0.003932878028684205,-0.013124957830883384],[-0.023208010649199886,0.016936903479239557],[-0.01730227214798245,0.004154050214310869],[-0.00842520573941603,-0.027687234173632946],[-0.007702036193874077,0.0015747597750425625],[0.013726907741882014,-0.010605607442515146],[-0.006887592415355698,0.007947608860029418],[-0.003430590168096661,0.01023468891744234],[-0.002854888780325247,0.0026809530898781473],[0.004968342999937008,0.008703877346680529],[0.016005082939128754,-0.011150797282931498],[2.471331629293281e-05,-0.001480516684673902],[-0.0037547660555167835,-0.0052826492185031985],[-0.01206611704382864,0.004620747804273699],[-0.0005427108479868154,0.02009122856141038],[-0.004743105408759695,0.006827364242615817],[-0.01998499673849396,-0.010530495355258757],[0.01641520039807773,-0.004641879838776598],[0.023784088984883947,0.002853639708067332],[0.013312639614846184,-0.000707519378348932],[0.0025491781030816986,0.008234904529769225],[-0.0015658991129920698,-8.292969450032794e-05],[-0.002429111466588049,0.01310584364545563],[0.013013726133354922,-0.005510335302437257],[0.007280483591894853,-0.014225188833757181],[-0.007974109503460825,0.01065941639893638],[-0.014508770665653368,0.012875774722826742],[-0.005847322467061985,-0.0019167192722282199],[0.011333331007444113,0.005391140557903005],[0.0004769378704140067,-0.006738097782102328],[-0.0008983859896351115,0.005965453064633569],[0.004527420866764456,-0.01220826283778393],[0.013025380726915177,0.004269483976383483],[-0.003345424658650253,-0.004438044369146128],[-0.0059562583869476856,0.009806278750956179],[-0.005998708119581381,-0.010579486822442056],[-0.01749703293931828,-0.0004154488457239736],[-0.0022881281265324364,0.0006687463215490697],[-0.0026051406652882313,0.001461148452094942],[0.004133261201874837,0.002882679230803246],[-0.007236054897084183,0.0037597495348566014],[-0.001137930319720078,0.003639668906236345],[-0.011824599127669961,0.0033763628791488995],[-0.00550660431818545,-0.018324789451126346],[-0.007035035145994048,-0.016413615776267855],[-0.004209105984717899,-0.012956814850011307],[-0.004681653447799736,0.01216182684923953],[-0.004775417414837551,-0.005445408546988096],[-0.0072363953686198235,-0.00016635804591326182],[0.002446528073803045,-0.007865350618002377],[-0.008187857977569773,-0.012965406095110798],[0.001964493759878334,0.001627723539443968],[0.009364223006688417,0.008585113081133043],[-0.005396969856613662,-1.7999152067512325e-05],[0.004832650978878866,0.01027569844906501],[-0.01733531102063947,-0.00020056349587817013],[0.0051774407621348,0.007146258653946853],[0.014870713263488856,0.001689548291832864],[-0.0015738537998534767,-0.010294498240010878],[-0.006874681027649777,-0.006182775650856313],[-0.011119467063835826,-0.016610708541768462],[0.009146738855071975,-0.011820779558709459],[-0.0038837107892773946,0.017812402159155805],[0.013830450134114365,-0.028810305200620133],[-0.009369398617631239,0.015215282235705577],[-0.0027810912247273716,0.01939508872137859],[-0.012947725153491197,-0.0026194816373774957],[0.026413093482703424,0.010895429187840365],[-0.0008042395218106105,0.0015664278482918868],[-0.014978497373353418,-0.011467957397665148],[0.007154214281919963,-0.004933515612170163],[0.019727083065558936,0.0018651188842026569],[-0.006413812998114887,-0.010756626960369968],[0.01441608119584435,-0.002668283852814715],[-0.005732869078561969,-0.005836352581650999],[0.0117031582668794,-0.0023023650852863576],[0.003212503603955471,0.01211255158738259],[0.01215404589796296,0.000366919597505933],[0.004748491334120397,0.005802929848120025],[0.003658534617806533,0.012662942532949186],[-0.01335636436986331,0.006163464465920523],[-0.016118840184715537,-0.020310300307765247],[0.003692540155012163,0.01594105554507625],[0.01674724644238303,-0.012082004474503154],[0.0021469571916098327,0.018309315753880593],[0.024479214236865228,0.0017226896757985076],[0.02287265025025284,0.026407620645780113],[-0.0028384034624294964,-0.00758959593082391],[0.0023124206798658667,-0.013870034615786161],[0.009948509784698198,0.007007481620575125],[0.004270707671568385,0.005850931376826785],[0.006952805207658869,-0.006635687100559711],[0.0015868567065246864,0.01701656729297483],[0.005695365029252877,0.007379063100809263],[-0.003255829783049257,0.01268045483609475],[0.01654961141964538,-0.02496363384441204],[0.008182067397511166,-0.008899525697582893],[0.004665814318196327,-0.003978034974321683],[0.005496525122682956,0.013040248991981777],[0.009015128183678299,0.01547171783836836],[-0.014863628192844697,-0.0034088365538140412],[-0.0009061746355782882,-0.0074884430275152175],[-0.013596208007386942,0.0032221745495729943],[0.006122056318640398,0.007880794590968757],[-0.003822313850998114,0.01115584649065137],[0.006514870900971364,-0.01132369671692773],[0.00022067017811230243,0.00657996872470489],[0.016848855493220263,-0.011140752005136725],[0.0036069504329178446,-0.002323576067716987],[0.010878694142218976,-0.0020229529134475756],[-0.00014930414555908747,0.010971353300605483],[-0.0031624964065277024,0.004821400453596587],[-0.0007644487171586745,0.016667650275363658],[-0.0008345276294080312,0.015768007494799785],[0.00825849691008206,0.002813792610368981],[-0.020461768563893847,-0.006429742508428786],[-0.009028647261440849,-0.007821210940784216],[0.017853631797635102,-0.006941957099920735],[0.0059052968973498255,-0.015238425209750524],[-0.005249619591682164,-0.00181093040893617],[0.0026975872550379387,-0.0025256787430677765],[0.0014794914978715013,-0.004258156034793949],[-0.011069995203433236,-0.015190149184591668],[-0.011492852219035028,-0.004497369165175191],[0.021965401794810973,-0.005223866734467656],[-0.002248968673252475,-0.005593820823804336],[0.008994304650655193,0.021466768489195716],[0.005530394617375849,-0.006393931567673259],[-0.0013890395851155494,0.0016636438807781874],[-0.004204745995817931,0.00612035691261104],[-0.015307481663446301,0.008887661241165721],[-0.009058704693612765,-0.00914426807048148],[-0.01075508851840077,0.026175638390120277],[-0.006332227869384979,-0.01817016050023113],[0.015480454343838736,0.00808293960871704],[-0.01009595463411418,0.00862881921325274],[-0.0014076861626966732,-0.007802162765010943],[0.004622282819307312,0.004083424938629877],[-0.00300076125545751,0.008553325440658063],[-0.0169740918147187,-0.0069815234440757995],[0.01063716717690788,-0.010751280252395336],[0.00595394794565041,-0.011713295371669891],[0.0003564508751806124,-0.0010036884187604725],[0.008653089501792017,-0.009750845149460898],[0.0015058025259863297,0.014710064805941411],[0.0144536074752934,0.000531470582949664],[-0.018656241502523256,0.003978436820116173],[-0.004829907994861228,0.0018924739040054297],[-0.010580209956380336,0.013711199384099758],[0.00545004938719699,-0.015832181514539787],[0.0073797303551739885,-0.007177118320283857],[0.004109630230633711,0.011404285784970642],[-0.003019930939571446,-3.5709243419230065e-05],[0.0064282432015826604,0.005800101629882829],[-0.00683825558988054,0.014491739962557574]],[[-0.0005420275410653974,0.014489508477607214],[-0.005524858590398879,0.00035735163648777015],[-0.010626695153578603,-0.007164602770370132],[0.004379112419539907,0.006830382767306642],[0.02178554828616932,0.0055627302469347184],[-0.008906068621447286,-0.0033853354597918077],[-0.007244378956345611,-0.004410561664883947],[0.01858920581779923,-0.017585148975708034],[0.004624738440099568,0.0008357020481197985],[8.821851148847315e-05,-0.006748545024473492],[0.014642718360309028,0.004018647019121145],[0.007312381790381132,-0.009772874964384582],[0.011576792342066797,0.014267282978438496],[0.02128131072280183,0.0125036123268018],[-0.017076644700008692,0.01282973196300627],[0.002374253275642983,0.004187837430411257],[-0.010557849619871617,0.003993172591588527],[-0.001915852145807033,-0.01850218732698639],[0.006192767249018629,-0.004463187465637909],[0.02290302869674717,0.005567723402481674],[-0.006399600935265733,0.0076324864807121775],[0.021202655733096827,0.0012475675121174522],[0.012269793436518702,-0.004516461569828489],[0.001616004120312568,0.0064959968416346825],[-0.023988985540907747,-0.0148023768580433],[-0.007799421347124544,-0.005197864051723672],[0.005474710838085075,0.01846104374232969],[0.009449403072277408,0.0005755650753170761],[0.02241693774357361,-0.005379455546340672],[-0.006921149239036058,0.012201262753584586],[-0.015009007862525764,0.005264306358174861],[0.0033911285815136204,-0.009262647253216435],[0.004062400603065623,-0.013270464328863734],[-0.009221744581300026,0.0029548651477722],[-0.020039517519219723,0.0032471845278783645],[0.024085566107413334,-0.002787493457918375],[-0.005040083757504111,-0.005390910074514666],[0.00578390446327007,-0.003972064143826977],[-0.011701195947323577,-0.03095086609580263],[0.006887895455045047,0.01912563420023801],[-0.010869279717172779,-0.01196887545455425],[-0.02324378560401306,0.01626044915445827],[0.00960698529549427,0.0009880981972349846],[-0.010395278885441584,0.0015814029051230676],[0.00428722211767299,-0.003141141858369527],[0.004187643527993579,0.005180493101906242],[0.004041068421931419,0.007863338759759184],[-0.012366721473312815,-0.01765323335133975],[-0.002115464215646519,-0.006324264517016105],[0.0013389842833537364,-0.016129891930147366],[-9.574567778119277e-05,-0.003359920643199434],[-0.002063627473726741,-0.007598227737985696],[0.01668051369283442,-0.014250134901494082],[0.002606366277122381,-0.012727026657139092],[-0.011070627287260862,-0.003490462079758421],[0.0016862115494305067,-0.006628489528306563],[-0.004224508741276009,-0.014741123314482789],[-0.0036954766773639536,-0.0043716154456991336],[0.008506237864425309,-0.011705270720593523],[0.006609592782964092,0.01184267289487788],[0.0094508403556608,-0.005403567043492665],[-0.004645413347812943,0.0009771662511565424],[0.0016336419885868148,0.00696730379237114],[-1.0281553181486951e-05,-0.0019063200827271157],[-0.013684031469079568,-0.008031207024444133],[-0.011010510634194446,0.0008293674002381422],[-0.004224105518545063,0.014661492082451393],[0.006073407959765152,-0.0037426964630740676],[0.003495799141574828,-0.007615079483053195],[-0.0035641756483990156,-0.018926001814452524],[0.009999109043534338,0.001589694416633764],[0.0019893745857088884,0.017110414603361546],[-0.0014463119890557666,0.0020763685853374112],[0.004403966808091056,-0.018220197343434708],[-0.010212838612229182,-0.007238875676015085],[-0.013433138672170518,-0.005051371182717442],[0.0005391059265938457,-0.006672800398784892],[0.00483346884695422,-0.0070963158550239516],[0.00617403571169149,-0.002815471413579388],[-0.004125430126619982,0.018380282694470673],[-0.014940323547443537,0.0006847030540653482],[0.00765418736703714,0.008190806273742184],[0.015236222383017297,0.0030782344905543975],[0.011780746442064694,0.005142254786071391],[-0.011172321954241083,0.007981978143173493],[-0.010662697032719198,0.01287325692943173],[-0.004886054297090924,-0.01866932224268021],[-0.008679826191702957,-0.0026687760612581534],[0.028343369647791165,0.009503193752119722],[0.0006742581705806821,0.005459673318372661],[-0.01112114675941295,-0.0009519992341354652],[0.007738101138076176,0.0006508465681724729],[0.005964764658689992,0.007658999539591554],[0.0028089072124809645,-0.00907566896390178],[-0.014984802400943879,0.02254779684810202],[-0.009505109937396544,0.013061125111426208],[-0.005873336471861473,-0.003932518571098038],[-0.004426085382122506,0.016272406251019472],[0.0121312773001472,0.008464124654065494],[-0.015115375470763309,0.005487978468292382],[-0.010638770036146447,0.015591089986151505],[0.0033545481360530475,0.001760725191989233],[-0.004585446268699107,0.0016091422314277173],[0.010611907275632148,-0.0051528103133233515],[0.01695263016098891,0.004837279384836265],[-0.0052954563475176705,0.01402626607548971],[0.01464242361210967,-0.010470334381061432],[-0.0007047423101052951,-0.008111923833069868],[-0.008665720413671195,0.004388206470633201],[0.007217738624792067,-0.009121777253087054],[0.0011791102321887764,0.02012924638362283],[-0.003722925674342402,0.0077290705196678584],[-0.019008758611518805,0.00944534938067514],[0.015013961202473421,-0.0015864395862982695],[0.010113734684700459,-0.0030185042941709927],[0.016696302557864633,0.0009161405158688483],[-0.0055482054679455075,0.005577142909702453],[0.005888692985106145,0.010772399844594266],[0.005754852300677367,-0.0050410044749650594],[0.0011939975525838893,0.012695522526561595],[-0.002025773109450331,0.005372240390054241],[0.007667677212169561,0.00026230639023801846],[-0.00752098876037629,-0.027221572287047822],[0.003288365765689719,-0.007956927649465963],[0.014359519307888013,-0.009198258172973596],[0.005640452072756993,-0.011718647462133143],[-0.0024459461529949197,-0.010455758852515436],[0.004285293675305375,-0.00526091308588579],[0.013092857238420089,-0.0077402309530028085],[0.0015316434520894864,-0.002223989608642748],[-0.00089869245281587,0.01012672590355886],[0.0020100750113000504,0.030793704872840805],[-0.0019338829284390108,-0.01658638345685739],[-0.011402997338787153,-0.014227339122058827],[-0.009319816917522742,0.019416631111410943],[0.007374423791155545,-0.004031175606438484],[0.0074764893772641325,0.005291078762985558],[0.006455122165331686,0.01117091316795443],[0.002297569206202779,0.0005513938182869942],[-0.0009640403152831599,0.02089183895691026],[-0.015093240217161815,0.016204754914644865],[0.0007989328202372248,-0.00325217137963939],[-0.015841388054769517,-0.0025285320691840526],[-0.008010854114894751,0.010734978427381211],[0.009826513667150531,-0.003112638358411277],[-0.014922776707824532,0.0032277498391873015],[0.005489098614457819,-0.004577677214856185],[0.005866188794243868,0.009253120586340792],[-0.006689894275639989,-0.003977416225971699],[0.00880275005275958,0.0080406122724992],[-0.006409364656130829,0.01128929123962665],[0.008804382756921136,0.0066528863320243],[0.009617193052700411,-0.008813976950076428],[0.016809690968266094,-3.36017389893431e-05],[0.008351834677265359,-0.00015469339817364598],[0.018923049121997455,0.009880846908254536],[0.0012274537393045179,0.012418595012823053],[-0.004347640032769497,-0.011046625177972455],[0.0048770439045178575,-0.001497461489636434],[-0.011430371211519606,-0.00011523666548746234],[-0.011349808405469541,-0.016481114452121217],[0.007811699123815289,-0.005433316341849934],[0.007582202785183826,-0.01923252288813879],[-0.01151065704028707,-0.008526564723724898],[-0.009780971886300269,-0.006525494026893213],[0.011595248106613913,-0.0004090636366163871],[0.0025607503442097307,0.006391332783778163],[-0.01244237933364677,-0.011277720646879446],[-0.002946771541687198,-0.015134877665274509],[-0.002982080289756773,0.01694183060200733],[-0.013069845332593082,0.0034905795397966112],[-0.00532434737598893,0.005957218645238989],[0.005025396120624864,-0.0055978304610681965],[0.001004205848733669,-0.004925456425619425],[-0.016980994750179574,-0.007654587063004341],[-0.010122614244261266,0.006896138560613893],[0.01731900227992691,-0.0027360621942859567],[0.017646923346744545,-0.0030751868292385257],[-0.0013246782006136736,-0.002863906808296796],[-0.024959170142812973,-0.007458873138163706],[-0.008975799169926196,0.019390500121488692],[0.0005616344988656394,0.013579773399326816],[0.008577080466086564,0.014699292516597847],[0.006825329152190443,0.009636959199901655],[0.007585761403341455,0.003986916565650502],[0.0013737119692627158,0.01542681893528937],[0.00470481284281536,-0.0033212271470602975],[0.0033727078560297115,0.03236526208963407],[-0.0002322158208525678,0.01395431787748118],[-0.013608838978679219,0.014914525614712543],[-0.0023535817820321257,0.00019479593244406531],[0.009780910901417346,-0.00044011861561817447],[0.00038241386601858916,0.00036646171865211655],[-0.002879739900451706,-0.004494556738722205],[-0.00395380939982845,-0.012197062072355946],[0.017066135893813172,0.0029753013691303813],[0.0020218413015384664,0.018218708653856216],[-0.0020667882126989374,0.0005565587852115021],[-0.024544765963917324,-0.008032172396120136],[-0.00463773234603276,0.002759967294134134]],[[0.016519343481822758,0.010478916758872815],[-0.004098772910982961,-0.010195164172894906],[0.02325901319124309,-0.0021293469710726366],[-0.02205301625759387,0.00046797450024604035],[-0.010338345732490031,0.00010863028378583876],[-0.010884774367166089,0.00943752932371387],[-0.007482017612943577,0.01689973372951544],[-0.016923941008046967,-0.014032530332460462],[0.0005472294442445151,-0.009467193197194624],[-0.009210714492608199,-0.005415402003746376],[-0.015929406867224452,-0.0030081139526080304],[-0.011403233604644198,-0.002610329570039043],[0.013865585690644588,-0.00411419758943439],[0.0031672070098765475,0.0014734990692397143],[-0.019640704023580733,-0.005760943167524906],[0.007444355619438954,-5.736997941976993e-05],[0.006950351782570752,0.015927666286340597],[-0.012938272731272994,0.006457461821954196],[-0.006614998446887553,-0.01398648558601995],[0.00977078382564365,-0.011721382493735843],[-0.013109600441768395,0.016195341353682637],[-0.005570263553810003,0.009816249812687767],[0.030346862341309108,-0.007039376595622416],[-0.017573357244984156,0.00340775803549533],[-0.0027414380024602687,0.03180565956100954],[0.005384309710299269,-0.0015991060816916993],[0.010715726199538322,0.020522715595741373],[0.009934896686982764,0.0024838668576016862],[0.004667434660849413,0.006247699168357153],[0.018218461241802535,-0.005402992984505745],[0.0029873120076266474,0.01390337577811282],[-0.005169162215086241,0.0032442433353366447],[-0.0047719056357986515,-0.008891150464855963],[0.00048665586938219916,0.010448587913906793],[0.006096651207238979,-0.002847794159257377],[0.01534138553914138,0.009613994603905203],[-0.019845765790311914,0.022522069965778595],[0.004647798817267686,-0.00018070918682825798],[-0.025884906501179913,-0.0049935809108225555],[-0.003785477926376846,0.005264887613743271],[0.00028044667676745973,0.016808134003257515],[-0.01767663903703772,0.012210477530384517],[-0.005740983083235954,-0.01075028407289489],[0.009517963574735618,-0.001343846548398761],[-0.02235950717373361,0.0005251214505324635],[0.007050917827261002,0.012490296811011091],[0.007820027726221479,0.010232226493599667],[-0.004549038568621926,-0.02175885300711215],[-0.0018580812135477183,-0.00205028403498655],[0.006677851247339588,0.015118482455701542],[0.007009781961995952,-0.013613613950768152],[-0.012650539732912133,0.01954856531000809],[-0.005965528093578037,-0.006452636808610544],[-0.012225077775754793,-0.02653625707032352],[0.004966302896807901,-0.0036244519042672287],[0.015088026076667082,-0.006494878895139016],[0.00139761673602048,0.010621494376035419],[0.005219350097466096,-0.00029894835552050176],[0.0032234169827140362,0.0073309610128300656],[-0.010091495298809733,-0.008436927051183644],[0.000990880090124625,0.016647023873808342],[0.021727392459308274,0.01691393029222609],[-0.019452032226185717,-0.020079618142214123],[-0.0006924043445835101,-0.0010742676953855149],[-0.003401731951969634,0.002090719307376091],[0.0011872120030375177,0.002498590672962288],[-0.014061593248631682,-0.003469708555536335],[0.00931894399754562,-0.005516447406418634],[-0.015078156365466529,-0.003939576941698216],[-0.015571401644771568,-0.0037993507985964853],[-0.012246348170548175,-0.01649602262294702],[0.01143103278793423,0.0049498705867611036],[0.009254258374005652,-0.001675634245351023],[-0.026577839273073736,0.004514797791670395],[0.00854475854168499,-0.004573459613008356],[0.018342343823525863,0.0070259951943317574],[-0.0009014841334722921,0.013606147942112675],[-0.007231625390176501,0.007202739570645008],[0.013346261861278855,-0.0163878777483098],[-0.01251933445710448,0.013702686399036905],[0.010452147692901245,0.01656458348787746],[-0.0020083052604190506,-0.014409483903622435],[-0.006088324408157763,-0.0012342350111298514],[-0.002279501628764452,0.0032682310517945313],[-0.001957140236607032,0.011341454242814594],[-0.004007398128989898,0.013482948684522118],[-0.008315159272953563,-0.011322022072647046],[-0.007421939651914926,0.005656646028178685],[0.011914031303258951,-0.017269805250638967],[-0.016443781475271597,0.001011507674501669],[0.017823980285844154,0.004425596043808239],[-0.00038449718849880557,-0.005884418600938662],[-0.0006934286822574022,0.0010675670620546712],[0.0008879123999537094,-0.001361598325568532],[0.00037241534180123604,0.0016510564953877923],[0.014327740447955411,-0.0024300668882174248],[-0.003997791919623456,0.02313183526344037],[0.012536627759940116,0.017827660679055127],[0.00872213791419181,-0.009596857659372508],[-0.024249415394620517,-0.007100313253042004],[-0.009908131794954984,-0.00842153438704178],[0.010860848664815227,0.01833048958870577],[0.018539640548792907,-0.01619365792245975],[0.002887472474349731,-0.0057598483372423535],[0.0004430036220330704,-0.005677551651170916],[0.025343051700074237,0.0003760366150822067],[-0.014126508447601003,0.007537370097485722],[0.007385118200105566,0.021363394571118022],[0.022168787722589987,-0.007421215215570089],[0.024310815578980145,0.006437714800002508],[0.00020675547939903163,0.0006645254498448602],[-0.002605014286086051,0.010622998810033809],[-0.000993985327615412,0.006464968958288923],[0.003884113832503342,0.004705959032161951],[-0.014171474648694624,0.013516214978186931],[0.0033751735442554237,-0.006413962548440777],[0.005332426791778045,-0.00035619131533162155],[-0.006278350941193136,0.00629911988266314],[-0.01361810592992111,-0.02652024971813702],[0.027902956546050156,-0.017619933718375794],[-0.0006651069319149466,0.007082397270247666],[0.006074594104634131,0.003082945335425305],[-0.006595372542344572,-0.013088427051571596],[0.013511793790506085,0.011298164062203424],[-0.012426234663721286,0.0008636949241693072],[0.008742233668675067,0.0039781907343674604],[-0.0027577702699812245,-0.011984387886492337],[-0.004092022906043083,-0.013426034819419935],[0.0023323022739762866,0.01295756061360049],[-0.011278748476303991,-0.008499266000829214],[0.017920796083406326,0.011700490682031162],[0.004878183245724718,0.00501304127303309],[-0.005528397407830975,0.008754279037092338],[-0.008308939233910503,-0.004305482530272236],[-0.0015186629329977113,0.0068182094895217656],[0.000543684912453813,-0.002604405274093034],[-0.0033664010690331848,0.012104849111811805],[0.00010739084271778635,0.013234691812392339],[0.009423082213152773,-0.0011400652946989334],[0.005484505142280286,0.003810741396965882],[0.0001727474672831075,0.0015528619011223154],[-0.002570958092096976,-0.00935092370918492],[0.0015275895845569725,-0.013432462791278786],[-0.00991320085087815,0.015237834872831101],[0.001448044769708681,-0.01394736865200866],[-0.005204253261367116,-0.01611559083202052],[-0.0008213931279351277,0.004126580105099669],[0.003829210086537511,-0.00182490487338829],[-0.014818794775645011,-0.011728573186494914],[-0.004246313567500012,0.0060672431736249815],[0.00392684103280694,0.014890268956108269],[-0.008618079796953112,0.003451632675170231],[0.01101171562952297,0.023396956454180613],[0.009422812477003405,0.014822363164649651],[0.0016428326385421702,0.00867662837623586],[0.007351498675774238,0.011011654207505403],[-0.003587873139987587,-0.01092848569047222],[-0.0057473482431569314,0.02998553630488644],[-0.006188123192645017,0.010711821611219427],[0.005424043133258696,0.0025484225133920804],[-0.01847459000589488,-0.013516796628999806],[-0.017054732751333748,0.00011085867205609489],[0.015692431590049218,0.001088778326648479],[0.01173970755419911,-0.005465796685768762],[0.014931881158331373,0.003019143464121847],[0.004136900037317147,0.009361130379029248],[0.008936305703044437,-0.002205345901812468],[-0.01339296108416673,0.0010130576813369534],[0.0007426399868661365,0.003598240917744221],[0.000824999028191377,0.0011833879477922064],[-0.008722467462798806,-0.004644870458759738],[0.003704134678922377,-0.007636291662880508],[0.013356619806046398,2.6326124819605733e-07],[0.003651465221753802,0.007260616408684981],[0.0191984544020699,0.0023771120660391557],[-0.0037772668317408893,0.01468062515896141],[-0.002995841282767241,-0.011229842546808998],[-0.002313471119109639,-0.01860944379431316],[-0.03063247137145486,0.000904654639760621],[0.005721508602214512,0.005910893030300431],[-0.004028975963108771,0.00956089947450206],[0.011480685358919183,0.014197660436056527],[-0.015998327492316583,-0.008848215523690911],[-0.00033285693204669414,0.002412926970531277],[-0.024483114607578037,-0.013996306804592571],[0.015228930440807401,0.0031893894439109613],[-0.006981865132337755,-0.0011031364061344145],[-0.019219944172726898,0.0037688196420392448],[0.018498444694861806,0.01799560591963648],[0.005214230413006456,-0.007903790230526654],[0.01902314743334077,-0.007065296590892251],[0.0070381580767589795,0.00749959734596313],[0.013698937170594297,-0.0032686579224649698],[-0.009655278156615443,0.009905304073403443],[-0.006831600537451116,-0.0022371110242260595],[-0.004798119931746718,-0.0007499064212830927],[0.00248949075334707,0.004110642185407859],[-0.023673276674013095,-0.013270211612346946],[0.01006027076820145,-0.01786878598185367],[-0.0015460932516189398,-0.015141429895729568]],[[-0.009170375064091324,0.0018562513134597306],[-0.019204205781878102,-0.005485469358296968],[0.0012626081891158798,0.003577310564739363],[0.010118237815506796,-0.017573137527414445],[-0.00017739570785161793,-0.0011836212343288386],[0.005111600958517482,-0.010103981453581969],[-0.007485566257141189,0.00909213363586212],[-0.003351308512130296,-0.009165656957016297],[-0.007895947823527713,0.0031572862388393537],[-0.004992390638003759,0.013236829016672143],[-0.00877823513725999,0.007095520666946067],[0.015011009367095735,-0.012927394473823175],[-0.004090496020870688,-0.004658629255753087],[-0.016438077517850865,-0.01700076145533274],[0.006575172011432649,0.000345894651480223],[-0.012845240660263199,0.00924546179915716],[-0.007400650731757201,0.007568513383371545],[-0.008194151701038354,-0.010989552682753595],[0.00749045405933162,0.0008256388471000744],[-0.005669958870391694,-0.0028396269635777662],[-0.01308837511696592,0.002530011461507484],[0.019816050157367433,-0.0011818481049270934],[-0.015472801786599337,0.0029794106754071547],[-0.005354608073834726,-0.01784009942396643],[-0.008735624723638317,0.012436648609983645],[0.00571223088568112,-0.01690825740929422],[0.012368239980070288,0.004080160196245942],[0.012447015860165242,-0.009466989328637184],[0.0035849971316625076,0.0011414633978255404],[0.006271263018103342,-0.003756838203083223],[0.0019139732266177686,0.0107321479001979],[-0.0008990995258282381,-0.001874556228362133],[-0.01191711038102143,-0.016198485184480478],[-0.0011340235361143817,-0.010487467502162489],[0.010278631112914854,-0.009967098850426551],[-0.01556649751959275,0.004287803682998997],[-0.003400318551465786,-0.007514262793427599],[-0.005294315929455751,0.01050451227683316],[-0.007937248414344561,0.008507985476584627],[-0.0011418025272211068,0.0014764250097112142],[0.0007967488792686578,-0.001710442269870812],[0.014360037421409318,-0.001544787311560276],[-0.009677908917677433,0.004253193840306496],[-0.00754887458853366,0.007746142872637894],[0.017624310439635124,-0.033943283775766435],[-0.002901403772646644,0.00034934892190415954],[-0.007717623453607472,-0.006522174741926755],[-0.001466741930286669,0.015204801792417594],[-0.008338982720143922,-0.0019528371571733046],[-0.016797431730351187,-0.025743167069823054],[0.0022878275717699947,-0.010325972129684335],[0.019553274041701506,0.012280373867238348],[-0.0035033315671105557,0.015805465767280685],[-0.0015086529600572243,0.00753381946739372],[0.0017314070121454432,-0.011558801528584581],[0.01754034159494434,0.008964545676463195],[-0.010853540803396766,-0.015044903164175533],[-0.0076206318065393745,0.004678740593572584],[-0.006845174432389357,0.005958964809775715],[0.006056921618570523,-0.004283104043348086],[0.005487248532241233,0.006756413209676992],[-0.012495548813348835,-0.008204262899422134],[0.003063965373454767,0.006901307071212757],[-0.009142938200327742,-0.006801336365370029],[0.01591949809904712,0.021942561936996847],[-0.01862736166334953,-0.01635856727957917],[-0.003729474778448179,0.008070874670078748],[0.008425804509573852,0.006578158173504098],[0.0013622822052192162,-0.011254941181886441],[-0.006899712932244395,-0.004180194047305761],[0.00216913961070539,0.015751577883792278],[0.005740561247610556,0.001409519731349463],[0.0011384872043671264,0.01182632742757713],[-0.0017399030302272917,0.00821484167216515],[0.008793261025281688,-0.005541598679303351],[-0.012453316622904834,-0.025733257915095176],[0.007718204445848758,-0.009230053596272722],[-2.2308925207781662e-05,-0.004590301009273051],[0.007183573713700901,0.010401624645106631],[-0.000579069856987237,0.0010527498422459728],[0.010174762418789752,-0.004234584864229407],[-0.00882257641812885,0.0019868431969376644],[-0.031404042619966724,0.012089179321608412],[-0.014716697806722122,0.006748046138382448],[-0.002762623604770399,-0.008999571939617214],[-0.012367768273851684,0.007943922120461123],[0.017165705001181766,0.0011764013866595747],[-0.005479772740191533,0.0007290736862432236],[-0.010144937762762313,-0.0018179406403519903],[0.015201668769189982,-0.009599636793244586],[-0.01186615528103062,-0.01126727099470944],[-0.021346525995018628,-0.005606775646963888],[0.007271683502170727,-0.00844370066939497],[-0.005112268258650146,-0.009388957309589425],[0.030178759116152865,-0.017089015089068165],[-0.0016265482885480585,-0.008791108586907686],[0.001978384400321001,0.007782218606835731],[0.009469800029992186,0.005768076452850377],[0.01003506073905145,0.004000959945987266],[-0.017004434602731527,0.00013860957387522424],[0.0011320638171664235,0.021848885515289206],[0.007329103620882269,0.004674080414890355],[4.182652558130831e-05,0.008845518404204864],[-0.017635101866127805,0.007656030547714716],[0.006361911199918589,0.010385519409621015],[-0.014606550157369568,-0.018575374166072085],[-0.00025799451603615727,0.008945473291746189],[0.0028056070121943804,-0.012285024605590722],[-0.0037741762660636344,0.0028172611971587816],[0.002952753169631294,-0.01574451328845479],[-0.01892379994883669,0.009417118223927304],[-0.007580154342464453,-0.02347114797373789],[0.00010171509630131788,-0.014596554802968346],[0.006279987869102222,-0.01613806935650056],[0.004495198036444291,0.014677008701824918],[-0.006389344990271675,-0.005712454335756336],[0.0028071649180770077,-0.012128878154543924],[0.0009791013735984675,-0.0015425485194574965],[0.0065951604890013135,-0.0015155729200471701],[-0.014708708175478973,0.017915881219889143],[-0.009071914164943821,0.001677650669466576],[-0.007010875977935667,0.007358628287745378],[0.0003755684303014138,0.001030783762559255],[-0.0007987347835433185,-0.006319472330746973],[-0.006235579000445075,0.005675134539668227],[0.004482965650228236,-0.013234520005258479],[-0.0060750583166212365,0.0008678317425796817],[0.010346420366007915,0.01232684505134882],[0.015452935116573245,-0.008001932831520238],[-0.005924935869363311,0.0017591710910232969],[0.0036038844179155124,-0.010455949297905621],[0.011646325519842682,-0.008393632786564196],[0.001632352318705721,-0.00742966502592153],[-0.02098640500746581,-0.0020499692079208294],[-0.00982598155289636,0.02094827027058718],[-0.0061368322996670725,0.0005591927009484301],[-0.0040834413316676735,-0.010812060815860636],[0.002956386695313748,-0.007840225591386472],[-0.008160311317589323,0.023732864439140005],[0.010642624158314594,0.00929829898266319],[0.01688230049861203,-0.011060989117488445],[0.0003333536875563362,-0.005223667797402689],[0.0153569430379388,0.005034582961724555],[-0.0007809125137522204,0.013190728825616687],[0.005738651488177181,0.00762468746793267],[0.011397511372037442,-0.008907255815237882],[0.023897218951524656,0.007735460755926125],[0.012991814063563667,-0.0068622023246842955],[-0.008869280998799635,-0.008994279925297496],[0.0194175747515951,0.000834113332924719],[-0.01222763161656591,0.005667359938405736],[-0.01077302796933138,0.016893958828734856],[-0.004674768190510836,-0.0027174201285506882],[-0.0037720131577625225,0.0033374954540802506],[-0.00659801705264254,0.006450676166643547],[-0.00027419743352436604,-0.007490557849764547],[0.013073272394712458,-0.0031651138270046226],[-0.02209709348109138,0.007392375008312117],[-0.005621177653572734,-0.01550383031138439],[0.004419701739166549,-0.018752093057684594],[0.010416663961056671,0.016976091496537917],[0.018766499892050034,0.010647311923884005],[-0.015313588658229123,0.006103231628986705],[-0.00460277638062899,0.004824538804395207],[-0.007877436733128478,-0.014373526774113486],[0.0023856202981133064,-0.0026015805813334463],[0.009284298085004214,-0.003320898699557],[0.015512416590690718,0.010987807104815589],[0.003127552926147945,0.008316789166278453],[0.0008803782160796065,0.006457407874956971],[0.02123334486884991,0.01814279816451771],[-0.008373002158237176,-0.01767764633296595],[0.0008962353349694573,0.005705633447450592],[0.009367945358383081,0.007248145827266236],[-0.003495871669578075,0.0004481665820388536],[-0.020126992936748415,-0.004382281454113913],[0.0003487599584468012,1.3029066258357213e-05],[0.009301643958060447,0.008698739879768144],[-0.0009966575178761612,-0.01093420800134359],[-0.007344560093548949,-0.023956365014600807],[0.002424468800536994,0.0033129113796269306],[0.007780264972793392,-0.017708988449970618],[-0.00507402546525953,0.0028838078666157036],[-0.00018708619966660545,-0.022978207270436368],[0.0011034699939773643,0.017395919198154502],[-0.002235724375134099,-0.021399102816459382],[-0.006589290890914109,-0.0012006215522496204],[-0.0013462765729651614,-0.0013287713619985586],[-0.007156104322535208,0.014291807949944939],[0.005892006427123967,0.0007424508569796493],[0.006308286211112331,0.01165140905950069],[-0.0076717401881425265,-0.007954944345105595],[0.004645161577976356,0.004142835057668295],[0.003706690768033324,-0.019930949122404555],[-0.008445885222882735,-0.0067079181665999],[-0.005034050028015331,0.0056624382615704655],[-0.0008306201062120379,0.007189118794782002],[0.016252701713130313,-0.0020101425695561613],[-0.027260803744236933,0.0037678175176404354],[-0.003825904487509277,0.005299770591014964]],[[0.011254882660544106,-0.008596288249140901],[-0.014702567406451957,0.013915195619541616],[0.010268427926552094,-0.004816242704108292],[-0.008917994001686873,0.010302398881107917],[-0.005590190692468572,-0.00803869705646901],[0.009711996848359498,-0.004253028393899286],[0.024228438513733817,0.00023035247353912194],[0.009642935392965492,0.003580831788046571],[0.013573025227575782,0.010960683825086137],[0.019901085951941018,0.013242379578742327],[0.0034658781689093487,-0.012447935552583042],[-0.004299643397070766,0.01120259839742117],[0.004564969148545232,-0.008762742448325145],[-0.011700687461584211,-0.0073193492566563535],[3.162646082840819e-05,-0.012771172322541817],[0.00213970513582627,-0.014438962404749981],[0.004405920554116451,0.0012210405057217115],[0.01695542383221958,0.008456209280799879],[-0.005641461319349511,0.005699435129791173],[0.009599021677083189,0.014554694146894287],[0.005617237959903521,0.0003065507742532747],[0.0004898878683340787,0.007646096593795657],[-0.01435853934756693,-0.007157865722322231],[-0.00923564317847807,0.008133592511984422],[-0.0037368212315947655,-0.008064012140975803],[0.0018958629155514774,-0.005184744899146494],[0.026488529559526054,-0.004871098442116996],[-0.007768214010389942,-0.0067957693470024364],[0.0056397370690982294,-0.0012957565319841866],[0.0005553804608127468,0.0038610072139907423],[0.019740086288039124,0.0041468294999838125],[0.0030476565327360564,0.01256462999172762],[0.002427159372081449,-0.0005318630708689134],[-0.01585004002512202,-0.00041189956993269573],[0.002545917510755196,-0.000856252463328335],[-0.002057556899405401,-0.008423786994376832],[-0.004133553036707354,-0.03291961271104129],[0.005866337906763644,-0.002647037373451181],[-0.002568913050440784,-0.017183510406332342],[-0.007809931209715202,0.009907510349615364],[0.010435136191057109,-0.007396455550806088],[0.01283511169873747,0.009604115503951356],[-0.0257607875164653,0.020155482383723777],[-0.009496508188077953,-0.011129821872696948],[0.016127571712688513,0.006942465775321621],[0.00529356628325102,-0.006212005691092263],[-0.006761428246558448,-0.0038822804324040597],[-0.011354410140222398,0.008026482706121177],[0.00404092250989363,0.0004970927633470845],[0.016327141409163522,0.00859682905262632],[0.015165414076218858,-0.017228035147581474],[-0.011658146857051247,0.017779443314399793],[-0.015985036142792123,-0.002152009704559497],[0.0023965888239360494,0.022664784885889265],[0.0031297653892008977,-0.02483401575451564],[0.0013153379760200532,0.0021458250070748174],[-0.012259938454894872,-0.00408091079635609],[0.0015907947093999988,-0.0015419300281527704],[-0.011751054625532407,0.0009551244590247994],[0.0007537858181370233,0.017810257639315465],[0.01366241794275311,0.0067212112802355565],[-0.014705523841578378,0.002407433088306242],[0.007007439718309428,0.005728311267687309],[-0.009361399708988574,-0.002081990378322827],[0.007444964503429827,-0.009053816610949604],[0.0007848738011800229,-0.0035347398706942496],[0.006937055190887771,-0.0006740164460500978],[0.0208777063528428,-0.004373939189386681],[-0.002483110976478676,-0.004719087157236399],[0.009196390430123613,0.026179926482545943],[-0.0013939000702833753,0.005265697032586682],[-0.0017803985490696035,0.0033220348019852436],[0.012739225769204578,-0.016076406134272057],[-0.012625049590485372,-0.0005346838027566616],[-0.0105580696810547,0.008112807063124736],[0.0012864573117976315,-0.02044649252856936],[-0.015780387775116127,-0.013115373757156263],[-0.0013861212003555407,0.0037101241995561723],[0.0015652430543369956,-0.0007197347051792723],[0.0017340632283401936,0.006506338869097044],[-0.01854729682114555,-0.013641192828253455],[0.0057867907880880054,-0.003024770755405551],[0.020260987733772915,0.0018291441820008293],[-0.006103323387775577,-0.011470485268900673],[0.0010529931117277326,0.00410747756495971],[-0.014672575203425558,-0.01414705585090708],[0.01955048065884247,0.0007947608398464162],[-0.01089522197237314,-0.014340845390513005],[0.00046653812555777377,0.012866230188253221],[0.0006309154118789113,-0.0328552074371019],[0.018985155590835856,0.010764671572452714],[0.0013835479833891463,0.005422792239636736],[-0.013302946529640406,-0.004226347767995441],[0.013619913135163152,-6.269742697519697e-05],[-0.013166666655226082,0.005688222519259857],[-0.00690387652306316,-0.0025571917416939713],[-0.002209496351320776,-0.0070329843509182],[-0.003550753906980111,-0.01129692448902627],[0.0008066865293100815,-0.005824327974393505],[-0.0022962614667991522,0.007544775561632663],[0.0068891055555577695,0.00443235374399392],[-0.003953758827005389,0.004889541722671409],[-0.004392782630434517,-0.007051340279532976],[-0.006890387325980832,0.001284238836852869],[-0.01522868142652155,-0.00623042104060196],[0.010309699362391244,-0.011135360708684866],[0.004091049540352604,-0.005560669812464062],[7.911111812543135e-05,-0.008272988317172488],[0.012706666306466255,0.005463559360433905],[0.009147195950019466,-0.01705488259867139],[-0.007360918635375834,-0.011621532447193154],[0.003888180301491473,-0.0026781266574296726],[0.010109287797436976,-0.003839728524093011],[-0.001229440738383147,-0.006017371974771818],[-0.0171110374279614,0.0107534244581732],[-0.0014427060959477213,0.012436595336021492],[-0.006744755800707199,-0.017844417653355014],[0.004930214342135523,-0.00674288231896222],[-0.007061136672040816,-0.008899136113811873],[0.007549972246582216,0.014421057518793448],[-0.007399266515569575,-0.00869459349254783],[0.01579272132307862,0.010804458319829428],[0.022182272878045257,0.003513519839672214],[0.008377678351540251,-0.005480448231628772],[-0.0044042160583101135,0.003961163765104567],[0.01671385253606968,0.006467341956745742],[-0.010124231822641216,-0.002002220346611859],[-0.0026217153089344953,-0.0059540331931894385],[0.016683136024953277,0.0021711358734191662],[0.01193900943303595,0.023694379710585578],[0.007597583203030909,0.0003114323237183997],[0.00750431332959386,-0.006992216625368947],[-0.001999544535687312,-0.0007704910261048525],[0.010461776589224156,0.0021486619760146637],[-0.0009114674630101716,0.005257721964466715],[-0.002905112440666464,-0.0056018288938572075],[-0.005994929502568542,-0.0007482196180700631],[-0.01937155334801299,-0.011499508405013898],[0.00013352439039729293,0.00409047373732728],[-0.003563187237101282,-0.0012361670040375232],[-0.011964342621899065,0.015710685603037167],[0.013394189710087925,-0.0027825292213601175],[0.01272432955990271,-0.013065642287222162],[-0.017362366854158536,0.008872181686240556],[-4.2846964543760186e-05,0.018384474096771387],[-0.005080670624610512,-0.0033904790530670387],[-0.01056462247432623,0.0020700777421851775],[-0.007139847584985369,-0.008040577899516652],[-0.03229390727285869,0.010322508112287094],[-0.028476015151181703,0.0010422907761254046],[-0.03915035359920129,-0.0020846701174124798],[-0.0011923386535652616,0.00027294219728781193],[-0.010020942679955855,-0.021417958982348603],[0.013474842551226343,-0.019390157632056027],[-0.001109292755782753,-0.000638123378558205],[-0.009342950146550877,0.0011081409747133114],[0.00673000173963494,-0.006298234310377408],[0.011381641565775156,0.0051378157066811255],[-0.010816624222314459,-0.019739221675797197],[0.018211335372381274,-0.016283041493117302],[-0.0018699839745805226,-0.0034655041802479094],[-0.002457591701639302,-0.006360017513808566],[-0.004932852225594974,0.011723187925500863],[0.014939066537993583,0.005790831940711958],[0.0077544537423283166,-0.007459884957323945],[0.003342634466503244,-0.01628891952088342],[-0.009889557829879422,-0.0025236433608536953],[-0.0010483763831589314,-0.025993398431805082],[-0.017700095870643053,-0.0001152853727513447],[0.007190925014824377,-0.00421183532109708],[0.008875699815638528,0.002737695715165865],[-0.012274496806422473,-0.0013728861657249026],[-0.0039746410700657936,-0.007884106667440506],[0.01823131122091047,0.013623798861102534],[0.01272186595703746,-0.001000106335369383],[-0.014764804000202735,0.006674612068041458],[-0.002630761451330854,-0.0071108202952596756],[0.00911204406003633,0.01743794863137273],[0.0027074688513798522,-0.014216545814593966],[0.01628351048824924,-0.010861503455477454],[-0.018847741621002678,0.004875471082177502],[-0.011920208914432838,0.0010369589460990849],[0.004867772633108199,0.007691256611822993],[0.026951203149870262,0.006054550436399453],[0.008743110717144894,-0.0029833667477371763],[9.755244021208802e-06,-0.00015677651027704988],[0.022495966702607267,-0.0012829187698729977],[0.01114041354072184,0.018543609194724964],[0.005277025676832042,0.007973329132843127],[0.0015851374116991695,-0.012849395018132507],[-0.00978965003493478,0.007891573017672442],[0.023548313794703363,-0.0005397845282546988],[-0.0036803208472103222,-0.004586479499718732],[0.00010730431543036836,-0.030047063225232404],[-0.0007968372543407159,0.0030617281768112927],[-0.006377454304387813,-0.00471149780632526],[0.008169907099957574,-0.01001026458951347],[-0.008231835049560775,-0.020570209853293567],[-0.014160124864657946,0.014779894949333006],[0.0230119058644264,0.017512713108699923]],[[-0.009003758431484071,0.0036475571816269843],[-0.009942415566669284,-0.002259985557096399],[-0.019530392950161395,0.005304032061016898],[0.01318775249999115,0.015014764362775105],[-0.005219453108236837,0.004464798205335883],[-0.00037773876007699437,-0.015977115934117374],[-0.030014962931934615,-0.017577037596284817],[0.01071533839978618,0.006773319349574791],[-0.010687816880313897,0.0036236327794462583],[0.011859753789251406,0.0051322531486520905],[0.005035804072518142,0.0051551290556971895],[-0.005395196800415653,0.012430469944076115],[-0.006722398312758923,0.002464083903547034],[0.008253798975405603,0.010696347733385252],[0.007218004007466007,0.009626858312057585],[-0.00428480378375348,-0.0020920485667238527],[0.0170992782379412,0.01464847627115074],[-0.0049361606503455,0.02474115068870813],[-0.023115698259155718,0.01144637765558091],[0.014125963192703875,-0.006939396033544046],[0.004977136247622027,-0.004093171652334776],[0.0025117781518702257,-0.0018344869968845577],[0.008860275948630456,0.0038726824276963355],[-0.004826795259742641,-0.0319869848122255],[-0.013944244018477657,0.010357051231323355],[-0.01642000202550084,0.016226479916679217],[0.005931721577474003,-0.003734860868768856],[-0.0015628585467645057,-0.0029016013275797465],[0.0005901946818424965,0.007488772732195023],[-0.014656756558892125,-0.01596854179161913],[-0.006436003289082217,-0.005423333228350001],[-0.009227090987054437,-0.013367166755734553],[0.007248442149058325,0.010798370480628879],[0.007286341675825902,-0.013276305369626238],[0.01140530396617909,0.02888198592870758],[0.016133447303049466,0.012822733280708529],[-0.012478032339841983,0.003406624035967161],[0.009652959577947618,0.004143039325834208],[-0.00953182539742385,-0.004263881342885032],[0.01474624079922047,0.008850801254407827],[-0.011025754919274995,-0.015154410077873144],[-0.0016107252437572333,-0.004818616826926983],[0.014108517775632002,0.004792954869061983],[-0.006935124576282836,-0.0010153338144024884],[-0.009039827498846164,0.017284200072214123],[-0.014844401323823867,0.012125414362636543],[-0.001761718581083553,-0.016480339711626504],[0.011157177906687151,0.00252774700935292],[-0.010713300361854633,0.020718395533067462],[0.009251117667607696,-0.013898849644966571],[0.005012371845412213,-0.002294822872070165],[0.017986604136161665,-0.0033799434456425726],[0.0054843157668814395,-0.005077467614250684],[0.015833382424531098,-0.007185021099412078],[0.0022451332873662504,0.0014172192472345657],[-0.012659566298228578,0.0004764908315695798],[0.005803179816332571,0.006172937127652411],[0.020212555421690665,0.0011466976339014254],[0.029032128779923925,0.0162720381904658],[0.003352391170087245,-0.016082297758216388],[-0.0015544762071870656,0.012589924175098677],[0.016637965528086014,0.019055275230932214],[-0.012927361488521237,-1.1763263520613455e-06],[0.00592162875879774,-0.00981500708567586],[-0.001929221087925551,-0.008172879013920826],[-0.004939481563999174,0.0014976432260161256],[0.006433652485692143,-0.0030150083757808453],[-0.013629993073164046,-0.011987978722318356],[0.0027128366940113,-0.019048436601568585],[-0.003005978113292806,-0.016753662355690147],[0.014880883652335447,0.0014163983323851196],[0.010723795020208102,0.004108517368696233],[-0.00017958687263429406,-0.020189624044573],[-0.015667561992419466,-0.00224086924047701],[-0.006663318250878448,0.01007324975753152],[0.0028240165091135564,-0.01713540547025613],[0.025274706756066703,0.012501710433317928],[0.023274279126645734,0.006931371372077771],[-0.006976650153440409,-0.0015138163616298405],[-0.0018837276658530788,0.0014252069249148323],[-0.0008879458996318269,-0.0005271883320255595],[-0.009060387485079835,0.0024246391520511713],[-0.015826911596459964,-0.0007788781806535329],[0.0004756237246732217,-0.010984564251742912],[-0.012121388152468524,0.007791381865433353],[0.004033454853987135,-0.006716189135653344],[-0.0016698067907039245,0.0020579203398714586],[0.00475697828663059,0.00990773198157669],[0.01085760530044914,0.022402563104682135],[0.009321224835372783,0.004366968469752312],[-0.007106667546359522,-0.0019353397088269163],[0.002686282139134281,-0.0009022018816177792],[0.009995664211209078,0.005621275813547698],[-0.009036913135623496,0.005441418247081017],[-0.007568176558827315,0.01837907522500365],[0.014403599532440341,-0.002238889429603839],[0.00010992638698303654,0.014649545292798837],[-0.004367837960266766,-0.006637883489384704],[0.02309606033203963,-0.00872778555020758],[-0.01519031409229258,-0.0036013295375749745],[-0.018878192179506547,-0.012123274088224119],[0.0023093390073947923,0.018270248547272754],[0.0014819945115576451,0.006748711638036504],[-0.003434151859055042,0.0026505291287893798],[0.013898054941866267,-0.0029621375277795975],[0.0007497329573684915,-0.0017948147937240518],[-0.0044333239374406445,-0.004694565664661066],[-0.014392086381210067,-0.0040101765319592655],[0.004373858209000507,-0.012276250794409449],[-0.014327344543949672,0.018154431686686893],[0.005541758802199106,0.005825377275034835],[0.007172406066701402,-0.005880918548701853],[0.004887328168359488,0.004576579034809585],[-0.0046221873909715145,0.011258490625742397],[-0.005252895005064993,-0.006648635498081968],[-0.008270096438796753,-0.011231744314672885],[-0.021785243535178026,0.009483689754310446],[-0.008396013081441242,0.007072063767559919],[0.0004796267239485536,0.0016339618174600894],[0.011090507501721287,0.0070677219534594],[0.007518592328001613,0.005822962893347074],[-0.0029214885643111923,0.0020183989814610472],[-0.01699303856428467,-0.014834717188827654],[-0.0031406532709132903,0.0040574783190844696],[-0.015397758951629273,0.008554415052040371],[0.02351298402906201,-0.02397335633362835],[-0.011193143883132231,0.002539390388356952],[0.009731234734077216,-0.006543243227900571],[-0.017003617984885547,0.004174137359072891],[0.007523505900835817,-0.003130104190355529],[-0.004994751287245351,0.00647994639118896],[-0.007170021426912431,-0.0027405841190627405],[-0.0019342459904712114,-0.005441672601596265],[0.0028007071239330274,-0.02259926680090878],[0.016650939167037096,0.014760520456963092],[-0.009609609621305665,0.010031047159128496],[0.0009343345222501658,-0.012010412902692861],[-0.002918994179884667,-0.003504928275749621],[-0.015068122388185386,0.010849409722970172],[0.009337566717798028,-0.00446769903362335],[0.003140875094700112,-0.012619589447238705],[-0.02257317676699417,-0.00041444355676869876],[-0.0033722925586638294,0.01815023108847497],[0.0059753365323689306,0.01408530564850802],[-0.01726153480022398,0.013728009498155112],[0.024062027297739496,-0.0005502644500869605],[0.007438993180573846,-0.01649955175547066],[0.02112949223817441,0.000807105788983672],[0.004528542344081857,-0.0016174710839538726],[0.010857937285649497,0.004819054997576096],[0.00042762890102147834,0.008287086939918958],[-0.001839321832007357,0.0006152739867205428],[0.013792780213664226,0.007482162462318958],[-0.00045409417408316563,-0.008022720162480677],[-0.008997723793018676,0.01371598337162115],[0.008262761285277911,-0.003979412184188752],[0.0053939404302117645,-0.016699753958629215],[0.013433381910634533,-0.006442951875738944],[0.01324894178967366,0.018698270344261914],[0.018216379600184893,-0.010986575082097685],[0.017518583580574856,0.016640334176339405],[-0.003692443649711015,-0.005655290090767579],[-0.0003958372315076491,0.011614380525273414],[5.81317863556773e-05,0.006036069565779296],[0.0032061430727296477,0.008348027380182388],[0.004334338266410126,-0.01657920102871579],[-0.0011001980516035159,-0.004229184207436011],[-0.003691280684998341,-0.0005464790268037143],[0.001366873651019414,-0.0070772899725080754],[0.020798264909709933,0.007857012419791417],[0.0011576031769334808,0.001404124284322903],[0.014130261228437836,-0.0060448027232989955],[0.01412833148292875,-0.0035328255448349036],[0.0008451937813197667,-0.0017261997236927792],[-0.01197642532013998,0.008641845605440814],[-0.001914347719008326,-0.008004427337561886],[-0.00036801379159394007,0.010483166354115952],[-0.005904593015984933,0.014268393634978203],[-0.0017977707065749793,0.004545729906360724],[0.004588996493528169,-0.018328457770704434],[-0.0001897677001398753,0.010038272225104745],[0.0005441668523959432,-0.014741533507658727],[-0.006593600810586809,-0.010879047763275326],[-0.011764320609629189,0.0010416407580186556],[-0.006035933476539784,-0.004259832095626987],[-0.0006157912369498949,-0.0038857956126718877],[0.0029234268839459293,-0.006032330020079103],[-0.003972254531108391,0.00687227955310186],[0.009057991081285653,-0.01136725049662781],[-0.017782970108996026,0.003591746807334985],[0.012257408549320992,0.001953393794048853],[-0.0066191844684033285,0.006073849708728731],[-0.013286662346830328,2.614311569815598e-05],[-0.005441572321697612,-0.0005545769226567357],[0.009667019043002417,0.00032164578709489074],[-0.001856292983249915,0.004219212740782511],[0.0007737850188221357,-0.0033054081029234455],[-0.0042868693524927975,-0.007514654855434037],[-0.017055105062657564,-0.007787319396416501],[0.010957335750566687,-0.016719227833779823]],[[-0.0002054448739182606,0.005507761965912592],[-0.01650583928618437,0.0049846259306679025],[0.018529132905809455,-0.001935086738042418],[-0.009985675753328408,-0.006549103172094834],[0.005316177742091074,0.0071619982352475395],[-0.0007471549578785402,0.0028571941415072213],[0.0014199381966639411,-0.017285670292451892],[0.004776268713953313,0.0027709059587767903],[5.749477741209602e-05,-0.010658948960382464],[-0.016277696901764206,0.015217621204252352],[-0.002020250485748045,0.00512671095098367],[0.015255038167279971,-0.0010819573848264653],[0.006449058712656662,0.0007622242848723073],[0.0016271837503288255,0.0031691602938785355],[0.002100417238232549,0.004003747197799663],[0.0053519055901315804,-0.002696672165701863],[-0.011544021351317072,0.0006215935238221425],[0.005427579678741122,0.011270193530369446],[-0.010663439589673598,-0.001479936688674158],[-0.006791782446587664,-0.002939548542681162],[-0.0018390402147743612,0.00820857973256055],[0.005490456900226109,0.006407789822835839],[-0.015029865909974039,0.00047354247417302243],[-0.007393457216687465,0.004624704269802209],[0.0030731852561175876,-0.00349580973057121],[0.004195099262791694,-0.023983550247192696],[-0.01039134197075614,0.0013261936417045626],[0.009160947047491777,-0.018931776346257617],[0.004426835054416941,0.014233436362864865],[-0.0008872210471743531,0.02592462634634381],[-0.006169005697150549,0.005468800747417027],[0.0043619882015294405,-0.004759208594095731],[0.0024667492865792415,-0.00578946194303737],[-0.0077085152579223154,-0.007769006857743602],[0.0012236631520942567,-0.0070112305066166065],[0.0047618401022991325,-0.002280664195643181],[-0.013029082647577664,0.008565514630681172],[-0.002094302954569187,-0.009638193557414078],[0.012609687375327076,-0.01932690859227437],[0.02179393465526652,-0.009927136248962229],[0.01875883470557726,-0.011322311779148733],[0.00866446919646426,-0.012250574390268418],[0.005829630331662613,0.0032609899372172874],[-0.01948141471535712,-0.016183069560077715],[0.015478272742506455,0.001899935416668527],[-0.005607487390119196,0.003856611232594764],[0.0025346729564055186,0.003636257503087717],[0.0003417080826377081,0.0003635773113667348],[-0.007660118717366313,0.006311291412604231],[-0.022143747438970237,-0.0071153210211375335],[-0.0010917555638473033,0.00776240654517814],[-0.0186969640617727,-0.02399043956329877],[0.009848652026897086,-0.0040577080903965645],[-0.00581009130801799,-0.012568591603497586],[-0.002962272999903934,-0.007179319585655542],[0.0018154394309700748,0.0037053077730495347],[0.000924694678946797,0.02164097399046165],[-0.009835256256459625,-0.00931082674342809],[-0.012676678772302165,0.0009000928269308532],[-0.003582401978449009,-0.011704680352885303],[-0.011166721813252126,-0.002077716051592472],[-0.018886565308788995,-0.014121264920335101],[-0.019131524223541675,-0.008163602348953755],[-0.008317152894215016,0.014303223522930921],[-0.015238873678894637,-0.0012020389737858578],[-0.002087698227558326,0.0007198525892360185],[0.003990454752597756,0.01382668969422646],[-0.020104574630132606,-0.00015061298623070957],[-0.004846571670528776,-0.009818290882264255],[0.0007729658950478785,-0.006603699105397023],[0.0009567388707990759,0.006111932027524699],[0.0070305239475538525,0.014534806162946851],[-0.019547111208935337,-0.007348996751050457],[-0.004665499189134905,0.0027427333636698133],[0.004014754212871799,-0.02619823585901985],[-0.01161481534120364,0.004549325498167106],[0.023313320733239714,-0.013962738019617053],[-0.011510817407994582,0.010882460755383593],[0.012662358256193246,6.576676602119448e-05],[0.011655444364915689,-0.0020078845358874955],[0.004647120694807667,-0.011725570636599559],[0.014999847947282168,-0.007314597588435907],[0.031531257099906715,-0.0007664205089930376],[0.001024645423378919,-0.02098821412737474],[0.0018018512489606222,0.02363027600230802],[-0.0024396543051831425,-0.016617675930485853],[0.017201790033868916,0.005885521346456707],[0.018056242223270465,0.0034896698326733287],[-0.006979887141584923,0.010748690059083847],[-0.0077455159799509595,-0.005334596077285648],[0.013789021478607503,0.016521762934795518],[0.001346413185908743,-0.005599468218288413],[0.01063341145747532,-0.005487568360389811],[-0.002659473319266471,-0.0019544733322128262],[-0.006220539850906877,0.015511770344404728],[0.026400083408279817,-0.020370562448513575],[0.006752079065109547,0.00389716639155699],[0.0012969735754199616,-0.0019597153674326168],[-0.014337720161986886,-0.014108502876722648],[-0.010901176373390156,0.00353067530143666],[0.01600036071537193,0.005607871750180703],[-0.006044157537917804,0.00230039842387366],[0.020324101345745034,0.00434101574945487],[0.009768066745434383,0.011614657464512153],[0.007718053101758838,0.010330026340198504],[-0.00048187403210929165,0.008790874934294184],[-0.009030536629824336,0.0031576902331541755],[-0.022486326982920662,-0.00041867650465867535],[-0.030117908797654646,-0.010247184277424031],[0.016713839194139025,-0.0017001186763944004],[-0.023011133123095915,-0.014925659561543438],[-0.014961633373993269,0.00842898947023024],[0.0012210208611370778,-0.002477536685996656],[-0.019023424884857223,0.014170436281043093],[-0.015248193148008016,-0.01259970671344385],[0.004067226493825987,0.0024601102470606807],[-0.0010667792249528906,-0.006670524477224292],[0.00047836498317379563,-0.01585348491705949],[-0.001710599836144699,-0.02733347709965422],[0.00023122750482700884,0.006239796643648207],[0.02690755419863143,-0.008049251303992538],[0.0068465565223078855,0.00935680221471788],[0.001329763611682036,-0.010987447963406925],[0.005756643613657233,-0.01692071300713565],[-0.008477962913382426,-6.785106067682669e-06],[0.020038880835450742,0.006747225062308291],[0.0016412693492669221,0.0018332370266151588],[-0.003378780203821782,0.010639491525343634],[0.009034456778288371,-0.0027947740637350015],[-0.0015580547268321573,-0.00346183979979043],[0.01736652353948124,0.009950464102820203],[-0.01174494829911764,-0.008023491117128703],[0.01589791159412098,-0.0016630614934250755],[-0.0024932489440553825,0.002285789548572808],[-0.010004574118103722,0.01244929027707382],[-0.00219385817477974,0.0021319275105657555],[-0.022924061552211036,0.0028557034586007696],[0.012356299751206525,-0.005065718560095046],[0.002607198051437452,-0.0014749894379921928],[-0.00661544126312349,0.010875257429543185],[-0.012886005705938036,-0.012190564776117824],[0.005812885617264604,0.009040096443618957],[-0.0040679494614622325,0.017442929310083247],[0.0022302551180143275,0.010595882587230886],[0.011920531341049449,0.005308747753107684],[0.0005979108995973251,-0.01766778539311595],[-0.008450631413825719,-0.015090195453934543],[-0.0033009644335883193,-0.000831800465537165],[0.006971062194651058,-0.004544450680136727],[0.013262040344804042,0.009206614213094948],[0.008491569008573641,0.010276964843468236],[-0.009337411396994818,0.008013631836447786],[-0.009118545634410126,0.01450246350119043],[-0.001544132487446438,-0.003208811514359906],[0.003417975580735541,-0.0034651936822903038],[-0.01404780119506172,0.010915590283606494],[-0.008137015582378566,0.005424856943403071],[-0.016865969573080914,-0.001346695949352118],[-0.005144666615311835,-0.006371346292580373],[-0.01350614573038509,-0.015968245799124203],[-0.011158152066463822,0.005650763454366054],[9.640498902351025e-05,-0.0012344763681707662],[0.0033154917671725436,-0.0015345719462996118],[-0.007743302578705556,0.005638534297716914],[0.021710364117811822,-0.024661227041382155],[-0.0038503461771801596,-0.0012462877480738058],[-0.0034571059929112396,0.00795388892280896],[-0.006366643582675299,0.0005264494031368458],[-0.0008903246071326437,-0.01590689740303275],[-0.005479015965660142,-0.008844146689133796],[0.010320774468832254,-0.021355344599981164],[0.006697987551427968,0.010134475674948212],[0.0020887965305457397,-0.010987643428299328],[-0.007489411903343008,-0.00222453146386891],[0.0050187934284652205,0.01227088468309942],[-0.006985168244309164,-0.027218842432309702],[0.016138480393761773,-0.0030832350815230497],[0.00365688440479868,-0.0002871524622197145],[-0.027069329530032292,-0.009366509459502908],[0.020800562705435968,0.008342973731997905],[0.008725949700550963,0.0036101222293431915],[-0.011508069713497212,0.013430749842370502],[0.00785559408639513,0.012732257147021447],[-0.018846673091528633,-0.006803962501183317],[-0.0008512151756118534,0.0004014103475386382],[-0.005363375473896827,-0.00312914556955932],[-0.004308993766539679,0.002871909862454188],[-0.014165031477791268,-0.008945851196798103],[-0.0005306415904214091,-0.008449442161924451],[0.006203240645059676,0.006425229112684897],[-0.012113197682132296,0.004667424558002505],[0.009220508179785966,0.007295423177692597],[-0.0027930562188365365,0.01266583929249551],[-0.0008932638106535168,-0.0010391828700690286],[-0.010799727195099678,-0.0022808127919817216],[-0.015452900963330232,-0.014353393522154773],[-0.020691291415949477,-0.012072408508874978],[-0.0006777408028798913,-0.02476691040844069],[-0.005126539605286022,0.006668583740514789],[0.010518148342012026,-0.010787025971898623]],[[-0.010945444765207476,-0.014449864281084206],[0.0037865987167409036,-0.008899240098502473],[-0.009285195957256997,0.001102822457860796],[0.01682141453729537,-0.009881366847828626],[0.0010268578249535577,-0.007580412598791085],[0.001597912439132518,0.004079188316784448],[-0.004808003138467602,-0.005583940410305143],[-0.008030603810306219,-0.010601460541515761],[0.0006803380440092945,0.005659937519251647],[-0.006694887317417736,-0.011702530936610146],[-0.0008857676359492271,-0.0014721884597520068],[0.029219525332305252,-0.0073958911137933184],[-0.0032339189813838124,-0.007374565534983647],[-0.004901484362276696,0.028337165966894343],[-0.003952302791472367,-0.0024012198096521956],[-0.009963628316730838,-0.007597314256524462],[0.013855176147991694,0.02210395552310859],[-0.003949448537985767,0.0033272740299338487],[0.003204825403474696,2.817526749011298e-05],[0.005187760937871068,0.010973828594852736],[-0.0006793554772402952,0.0057915634640004696],[-0.0033710579281930734,-0.008733448093276825],[-0.004680942733622683,0.006062016522696384],[-0.01697348873925896,-0.02563083937835401],[0.008105189804884056,-0.0033774187943102192],[0.013466758563897252,-0.005321470820541744],[-0.004350723841913744,-0.021701307733734087],[0.003929987248593381,0.003528282734342056],[-0.002417665303723666,-0.003802728261083156],[-0.007424253900955143,-0.021015640554818735],[0.0010261878494868966,-0.0017353261792328748],[-0.02292386248694275,-0.017203381821941425],[-0.02017560288282475,0.009208546159462129],[-0.01416948599487508,-0.0005928001328933362],[0.029493374931588674,-0.009769186051151716],[0.01762978470287414,0.004029019753021888],[0.005590048494014258,-0.0008929448911218106],[-0.011054921337666952,-0.0028798170060706186],[-0.007170546271921063,-5.927962240177332e-05],[0.01902548057433134,-0.0074524672607582726],[0.007328485721784706,-0.01008162277291272],[0.005212335604354342,0.008772699885334984],[0.016496732879676825,0.027591000640574195],[-0.0008431285887082057,0.012628374650918246],[-0.00010092502382899577,0.014264862643240648],[0.008623746220519054,0.00877792108909154],[-0.019349608590196007,0.016208849146243997],[-0.0044347926333230935,3.273030976694421e-05],[-0.0022858405385077084,-0.011217321665505207],[-0.004348366785691447,0.005892468324957594],[0.00969866535300569,-0.01892385338652423],[0.006447496741016757,-0.006675064163663497],[-0.0017491989259198547,-0.008434538434768622],[-0.014528048077874195,0.00767843800817683],[0.011746879080203297,0.004292171765589054],[-0.0013064385780775043,0.004556262699709026],[0.027851794657303725,-0.011654619311530163],[-0.002353246590888698,-0.014269044184288145],[-0.009931063054212302,0.006826469683597902],[0.012871428011365234,-0.009830954242576611],[0.007323930024746946,0.004856308223259578],[-0.002985653240222719,0.007112782078488794],[0.0008878762181800507,0.001957849537850003],[0.008515399178164445,0.0081063492701567],[-0.006948292546206821,0.013146237797046725],[0.024442694274448278,-0.0050666969145294226],[0.014231844395082993,0.0029587105605126994],[-0.0074905650230856794,0.0005440419755460149],[-0.0035020440854154336,-0.013400254515558744],[0.004253869729985548,0.0012939050348570488],[-0.0017672275160257127,-0.005234762959385233],[-0.012578904368911242,-0.0032232057022952895],[0.009921103515369834,-0.011904972024857758],[0.007600826926923394,0.005438333626752281],[-0.010329310414460086,0.009074101056390988],[0.0064203335002217575,-0.01123487287197728],[-0.01777730688150703,0.008924938510886264],[-0.02936136463007419,0.0012368384049108617],[0.004997302700576027,0.0009986843862928546],[-0.006179789678371833,-0.016577313898419436],[-0.0006467585098289832,-0.007688144259526042],[0.02661957806772565,-0.011434634025786518],[0.005038137028072549,-0.008736726965757405],[0.005091413532037049,-0.004344975201616936],[-0.0040871981890690055,-0.025069847323016155],[-0.001663957762055582,-0.02108131636128543],[0.004851074925533442,0.021832533865341567],[0.006386168391310895,0.006306415476018562],[0.011829435825893775,-0.026762896088620293],[-0.009201655656154795,-0.0018566077486153712],[0.0006082142586033963,-0.006235714861757754],[-0.009540842884902116,-5.206696535887826e-05],[0.002683447013927562,-0.025485975630083868],[-0.0014032211947916803,0.004641483498740701],[0.005463063872829844,0.011184284242783202],[0.01962928919024806,0.0004526650206040625],[-0.01567465693063731,-0.011098105948058358],[-0.025576824827023746,-0.014151139956585481],[-0.01219978101839823,0.015568871564501],[-0.0003088059670301943,-0.007382149635255871],[-0.0014072751247624718,-0.009760573722581318],[-0.019068646406308922,-0.00968512111314328],[0.0015781758083606146,-0.005495443014667062],[0.001315413522579562,-0.0020839632342929803],[0.0016824563288658462,0.010358558961527261],[-0.0037607261173396756,0.020742737778918587],[-0.009652647214348237,0.008891885547309637],[0.0070716888115744635,0.01261200868676434],[0.012546540660879252,-0.0033354409443325443],[-0.0013969271177608675,0.006422987870681435],[0.028640920737285303,0.002104798179929345],[-0.01924019239461406,-0.006952171991514556],[-0.017359792744645813,-0.004910904945798708],[0.006983626107164534,0.0014202910369994228],[-0.015935840224428604,0.0011500309300188376],[0.000302290562020062,0.010387106394437188],[0.014469340358670667,0.017274088640632564],[0.005042427175665835,-0.017224940008975603],[0.01208577996539876,-0.000623010491180625],[-0.00696377526398808,-0.006425354764993404],[0.004864289409657941,0.013114221699402058],[0.011577875728555622,0.00015557015635880454],[0.001736251930606265,0.0038059516865851925],[-0.0043724681894454585,0.021833323280859213],[-0.009949833859259688,-0.003354710069602652],[0.0075217271799685,-0.000843352411977551],[0.015951235633063783,-0.001570756597225353],[-0.00882753686843506,0.003559003319109629],[-0.02381354876250031,0.004954253670571904],[0.016559855691321554,-0.0024378735632053384],[0.00722142261529135,0.0020302749914666526],[0.0013500510598621275,0.011077889354030594],[0.0009244974228470343,-0.00499579209423461],[0.02239949945320994,0.009691409936515613],[-0.029816016975139647,0.0036969084098553645],[-0.001948620395970283,0.013471376882257663],[0.02196614044767899,0.010267328741254042],[-0.004302002915791885,-0.003674986214660016],[-0.0072278876046384475,-0.0010667183339175441],[0.00781266853570895,0.024384568087073195],[-0.007626881068464917,0.010607878826521457],[0.02231226730888244,0.0009996539804814155],[-0.00029188995733235264,-0.016829899258383896],[-0.012283591192580864,0.016803434302078143],[0.011101240342476693,-0.013076263503673833],[-0.0064489203537633245,0.018086272569494057],[-0.011446625402675615,0.0010804474523147417],[-0.017361811779449315,-0.016463427128701767],[0.009377757024221257,0.01980652975600082],[0.006046560728752266,-0.010691034817013952],[0.006302219039764353,-0.008581783620101842],[-0.0036579844410167457,-0.011407624855274912],[0.004022896412989323,-0.0066837970373168016],[-0.0005833681595786397,0.018944673229965753],[0.003056943114957478,0.013832286390940371],[-0.0039329501860304065,0.00885318791308649],[0.001804357304948062,0.014864966010634228],[0.01072674249172127,0.009316213311539171],[-0.0032268485956549967,0.008595977218009258],[-0.012605082901875618,-0.00513154136819116],[-0.012754429904614551,0.018040095986115706],[0.00879114471425889,-0.011896446334033618],[0.0029842304863151436,-0.0016912825553315682],[-0.009365129901128953,-0.019856439052151335],[-0.0038608227013696046,-0.007596196716269404],[-0.004560611270023553,0.01262065053995091],[0.012687029722115235,-0.014084490283559872],[0.007778969908528851,0.02480229162617091],[0.010170782786749143,0.01607645771080239],[-0.010071038269806059,-0.010780206173445116],[-0.011255696322465843,-0.0031290343432342983],[-0.026223150204385957,-0.006008572265505486],[0.007105728293884946,0.02547132631197583],[0.010840633767278415,0.003094422104041119],[-0.0011771808328495783,-0.002454946292837464],[-0.010686398327493267,-0.002403748463762565],[0.01772186104655854,0.025007457572308173],[-0.001149933893876525,-0.005487681266999763],[0.0023418914250408966,-0.01214948648399361],[0.01357456792046048,0.005105110996039954],[0.009215075051071466,0.0011688616276929816],[0.013138702101073757,0.0022099615819895953],[0.006531153973927682,-0.0036349805928880454],[-0.0038946304168028184,-0.004381397127747842],[0.008313873316823383,-0.006672445100637482],[0.00918243622797466,-0.007531126509142445],[-0.009338989265629028,0.029540692380205593],[-0.00848725613812705,-0.004778421261567237],[0.007744980022367218,0.013722692661999098],[-0.014202918356833115,-0.006368648536748591],[-0.01215687713951761,-0.0029513156003597918],[0.0180238707511867,0.008028835220196668],[0.00011237694706569407,0.004198015181151322],[0.0017525539010124365,0.010311525085744701],[-0.018019289676914227,0.00484501429655953],[-0.005736517523016968,-0.012561016716778034],[0.009098575021847567,-0.010713722779510406],[0.0108464712361198,-0.003831168436017294],[0.010745325165266117,0.028750739960488526],[-0.00989877452162868,0.0047742760304751875]],[[0.009728162257148237,0.0006395245487334561],[0.00788516313998953,0.00769776133153529],[-0.014799146542808539,0.00925152258514481],[-0.005457596572424065,0.0112158842956489],[0.00031487486125444985,0.008941367422642291],[0.016461852055502116,0.014441949179061983],[-0.001934123628487552,3.304389517646742e-06],[-0.018994182031179075,0.008733826362254888],[0.006664574301562232,0.018056687024492202],[-0.013258785576805189,-0.0009556248094002369],[-0.0005080519760807104,-0.002975212814629239],[0.00665286646637452,0.009063493366286337],[-0.0004178400277645484,-0.0009882448040834883],[-0.008098019763259334,-0.010927527420315223],[0.01225253307275679,0.01953573150177543],[0.016159124231617906,-0.008231793812273338],[0.005867794705880988,-0.0004847619435410393],[-0.00983341442965129,-0.007252178676754685],[0.004510512502758522,-0.01237930677828129],[-0.0003139637645865047,0.0003681164425254977],[-0.012119599062625427,-0.0024407502987084115],[-0.011655012794764132,-0.011135026137663137],[-0.0017445258625558777,0.001809686602125072],[0.009531468529167026,0.0039973371256529075],[0.0017107082663849944,-0.010336963265317738],[0.000488719213404955,0.027584051869450083],[0.0070325117506137395,-0.007358335061485605],[-0.00278788261552705,0.0045381996507513215],[0.007970747937587272,0.00681637748738109],[0.006276560444306211,0.015351942537114398],[0.0004054268808386702,-0.007160950197063809],[-0.0021513524150691735,0.0048873568068983145],[0.013277321475500866,-0.014587507282956276],[-0.002200212130923984,0.0035164447712786465],[0.015987368637303222,-0.02227237131444521],[-0.02079301696611564,-0.0018383452485439462],[-0.007400976197557421,-0.009132184799071248],[0.0034273814366594943,-0.0034728900361338344],[0.004035160368841523,-0.0010622952208421748],[0.009212522555131634,0.018047196723029086],[-0.004368964641380675,-0.004196213291778222],[0.0034896880290662107,0.006779159942885912],[-0.015565223550022956,0.01879169365770542],[-0.011237734868149576,0.011523465031626403],[-0.009141362183368402,-0.01989759404069175],[-0.0106138448621538,-0.002195540438272837],[0.0031204340035739147,0.00411150972995685],[-0.00231575167960776,0.00479304713714068],[-0.00968837536167191,0.005447471858655868],[0.014776684880180059,0.006062865439067773],[0.0001457458107089909,0.013810617825282943],[0.011749367255802915,-0.013343768177125492],[-0.008991867607779189,-0.0035864583540287697],[-0.011803731988826558,-0.0012168887795615088],[0.016875715959018173,-0.008951934624644069],[-0.004628298007265026,-0.010410204376093834],[-0.012945384849196764,-4.144425520567329e-06],[0.004999793901705397,-0.004834899540210358],[-0.010265918285890397,-0.001180719156588828],[-0.003312998554339648,0.0030690740631837453],[-0.0017153111546148138,0.01979802776331248],[-0.018670920024631447,0.0032248077079542956],[-0.00337889287364836,0.005262660858795042],[8.186593628934312e-05,0.012221536342658844],[-0.0021966763139920835,0.0008582431098100349],[0.01752586857904713,-0.01392996960655605],[-0.014027041343862044,0.015737910089103344],[-0.009905237998762889,0.013987968112240833],[0.002524201402913517,0.001063300477695661],[-0.00864538514354965,0.005839584948147177],[0.008366110454970918,0.011076448616093313],[-0.002644569770654457,-0.004287861960177958],[0.001395216257262613,-0.0002848653950007771],[0.018663092053447447,0.013674619190113382],[-0.002927002733262989,0.015268701049034071],[0.006808062142162675,0.007738851509137371],[-0.009398927926326775,-0.009318711406480433],[-0.00785174866980794,0.0059716062217364235],[0.017632734099774845,-0.005176659033582895],[-0.0012125798296862159,0.012657097911861313],[0.002598526895312223,0.0007459283217383015],[-0.010177757100100212,-0.013525321040536458],[-0.013799002082499422,0.014927928710689814],[-0.009841103939762796,0.021828674874081924],[0.014448253397329611,0.008375228468399014],[0.0022236293719930028,-0.0013955713339043332],[1.671652357608999e-05,0.00827963161048855],[-0.00672216331463041,-0.0013342056613482856],[-0.001709678133553072,-0.011507260726617],[-0.006830871587216963,-0.0004431027187214812],[0.018637682554477862,-0.01542630331906108],[0.005748736022805171,-0.002356355658485752],[0.0040213929416974305,-0.003261746703879173],[0.006216351816827203,-0.014726597198914207],[-0.012297286199593395,-0.009983861384459496],[0.013693045268818035,-0.004207220875794171],[0.008302051186681127,-0.02088969816312372],[-0.0018039937548708213,0.0030491912192383607],[0.009625745275111038,-0.00235775372284698],[-0.005152903326415003,-0.014173332744535305],[-0.005723353310590856,-0.004127199797599424],[0.003739262232847221,-0.0067118906818792075],[0.010163127496688285,0.005433003415964682],[-0.005506923973132931,0.0025064098859392853],[-0.007969199108137818,-0.002321580797757324],[-0.011160236772402687,0.018620386947328763],[0.0016481366009001024,-0.0046161547827158105],[-0.005886496509469663,-0.010474076815842599],[0.0024990116831915443,0.006453424101151262],[-0.0044984872579787805,-0.008229545236005414],[-0.005248803455334957,0.016300908745375292],[-0.003517558430803011,0.004346346777211978],[0.0023922430886783187,-0.001392120784056238],[0.016343528693436072,-0.0014510616684761694],[0.01473026750077852,0.002401995684412155],[0.015058756264904083,-0.004287842873340848],[0.0003432021042289737,-0.008667348503127403],[-0.011547334645448123,0.020818363104311895],[0.0015582473922008207,0.010382658699099163],[-0.005293888697798432,0.0008143481681412904],[0.01217235319029175,-0.004567587977557818],[-0.0012928428450872127,-0.0026076382265733033],[-0.003564201540959316,-6.779619363806127e-05],[5.33823064654184e-05,-0.007396360030053183],[-0.007131117338055975,0.005487878805301085],[0.004162487294346304,0.003230169343864203],[-0.0037740803707292216,-0.0054936804589930475],[-0.00864573033469167,0.0015605001741988969],[-0.023968491711250057,0.003556614071415992],[0.010066749679188212,-0.021508750491750335],[0.023826677774422798,0.006813747357622068],[0.002391510367361033,0.0028588799230256827],[-0.01612304475891472,-0.0015577828553135131],[-0.011738485443620373,-0.0033764763561967273],[0.0005108622019628883,0.0006293442119259059],[-0.002890275711874347,-0.007181629535148139],[0.013841486656645155,0.00127195609393308],[-0.014585450623252505,-0.001363741639537358],[-0.012314038833376666,-0.012812317941956133],[-0.011078247542959472,-0.0033375705017098262],[0.002805035258026612,0.010600919723466296],[-0.009133035393749208,-0.016328798693684393],[0.007186346665033844,-0.007577899551898568],[-0.0034707509337325504,0.005745599906736084],[0.0019568804795556394,-0.00015180413060825334],[0.01154173302577121,-0.012162115113981789],[-0.015230527139399153,0.01772244415391651],[-0.020149337486318513,0.00512618481228525],[-0.009918143836765644,-0.008926870339079605],[0.010630718479331534,-0.0021291011988883776],[-0.016458938451755643,0.0006768861255036034],[-0.0074869914732954065,-0.016854391755821586],[-0.02589806938286507,0.004121120784715787],[0.0016715914518390211,0.004490885224834282],[0.004399783580627571,0.004663440195435443],[0.007767922119908432,-0.012430684469247801],[0.008779784285753501,-0.007426237351751603],[-0.0006135148637621112,0.00606593194215792],[-0.0028069972378406316,0.00027919711314816837],[0.018282976281092305,-0.007487646671795415],[0.0007870561377073862,0.009019955001435266],[-0.002549507597709669,0.010103863138553807],[-0.022297825264005908,-0.007773428431264318],[0.011696771018849257,-0.004377651529238651],[-0.0054923648483832105,0.006729742875036473],[0.01486577146618929,-0.0147587212951959],[0.007505747836085668,-0.011203952046275896],[-0.004866090198881894,-0.0026600773993606763],[-0.016465515194094973,0.003334461246557291],[-0.013437922179343692,0.000477863994127253],[-0.001173745613041571,0.008518983827085692],[0.003996101120444225,-0.0005637254119648381],[-0.009587621839720815,-0.009552777404665695],[-0.004442712656545446,0.0022213356486338754],[0.0042591446586616516,-0.007960774900772587],[-0.006964994367927716,-0.003837488154505541],[-0.009280427246370845,-0.023166565305245513],[-0.0022757955982847275,0.005139727506968181],[0.006551217591117323,-0.011334406721212232],[0.0064686205036656305,-0.0009082492302119045],[0.010101348041098069,0.002313909251983665],[0.0028081149775599605,0.009335139613684698],[-0.00029663687682533095,0.024188381905160573],[0.011572544838082014,0.01829441330116254],[-0.01042437191699753,-0.005518319305296011],[-0.020114944542919917,0.006583184124841903],[-0.00248906896552309,0.006216440262611931],[0.0037044421906169125,0.011986384132502683],[0.0019182001227006666,0.011800142740280788],[0.013213779288379308,0.0035255620939357553],[-0.0018079146666498472,0.01562954780868074],[0.02398945963006081,0.01650840438518777],[0.007280037965394971,0.0264254654751971],[-0.010506147294524749,0.001324750012041953],[0.009773638390390162,-0.012798539379023418],[-0.011340663993385517,-0.01240422175973121],[-0.001981202377983068,-0.0037123292839069686],[0.0031250883469703776,-0.002001006420521562],[-0.007910798198264643,-0.008170496822623633],[0.013720563404457377,0.0010460832613315716]],[[-0.0009415556516044637,0.0004239525778087544],[-0.01803676745270115,0.002647433749837385],[-0.019126229489859814,-0.008917965545690344],[-0.02009465181197592,0.012985922174815577],[-0.004419629047155805,-0.004555664215521008],[0.00668234730063536,-0.010071687300713974],[0.00033270348428751867,-0.00020292103506746733],[-0.006610451436110728,-0.0034716827834527946],[0.015015939617164136,0.006933641962757262],[-0.005204332123752136,0.002956600311799736],[0.007026392807165506,0.009754298511442428],[-0.019446145087244876,0.022104787634345986],[0.004626213342148773,0.006396829709158818],[0.015189716011760813,-0.002153782078546167],[-0.004546862419214025,0.002196024397574936],[0.0028221652380246713,-0.02728673001775257],[0.022687519937016988,-0.021828303348653395],[0.008068817163971443,0.003700336015930002],[0.00372221235907792,4.9302373613850994e-06],[-0.002416821794116942,0.0021043662624620017],[-0.011663524886204495,-0.004161923973508071],[0.007146213956111585,-0.0013555061677439498],[0.0004239196232699565,-0.006811098155357652],[-0.0045496124577484925,-0.006842222946458354],[-0.01995727635846605,0.014295205986828435],[0.0014682529316496675,0.006996054435932221],[0.015918383691507502,-0.0017227143428684751],[-0.007748629347885369,0.01412876900032007],[0.020802734794354245,0.009845474155179739],[0.010472387685640685,-0.007336531029661688],[0.0073024611565276065,0.010306597212596065],[0.0020252395350142953,-0.009059411568090297],[-0.011265041126020088,0.01311060740177908],[-0.00014004524778606314,0.01241471444883233],[0.0025010070402939704,-0.011409246065284604],[0.006988884152274441,-0.01819378619914725],[-0.00324309386802726,0.017203867077434386],[0.013195192846996447,0.0010603263077076286],[-0.00076574439030703,0.00024339538799794322],[0.0020156972110693156,-0.004456978858006946],[-0.014806771536684355,-0.02232380020999226],[-0.00783835906898178,-0.013013882560496515],[0.018193745262475407,0.015908373520634844],[0.01881142772386737,-9.93296634910092e-05],[-0.0030390942315350897,-0.0002916680047785555],[-0.008067514623193136,0.007245775579000636],[-0.01225847771960916,0.014419626197301085],[-0.008780721868298891,0.01628336619989355],[-0.02770314559480623,-0.003136949719787808],[0.004899478485007899,0.0220149992521262],[0.013516981297873307,0.009078473625207067],[-0.02042910220640354,-0.013260797157149996],[0.006923650873164001,0.018054907356015757],[0.018622811809865438,0.015263984171684406],[0.007921004757299906,0.003005895563747253],[0.013202427412966681,0.006953839479775573],[-0.0015692113915642832,0.010441861644109176],[-0.007032985924997293,-0.011812423235667648],[0.022856099330865395,-0.017167867619826218],[-0.002194232460304878,0.013141867842594383],[-0.013809015188829786,0.01780541338232195],[-0.007986764586077477,0.0008951379802242802],[-0.006328989607307834,0.0023712122921858815],[0.014376640538535356,-0.02509990864349817],[0.013583883074813318,-0.008253473467643206],[-0.010155217366057097,-0.004005682047995128],[0.018635938550585172,0.0006936354781569736],[-0.005722117795823634,0.0020222281468676873],[-0.004208731079191378,0.009252286619836788],[0.0036985116144315233,-0.0009982830491697932],[-0.012420994604129942,-0.003901279819006626],[0.001992401685550256,0.012960781195829349],[-0.009370226299638856,-0.0008975395122469026],[-0.014670152342903179,-0.0010973810065533483],[0.0016600009775022907,0.016217964925873053],[0.004188815097150257,0.004557688577875227],[-0.01641473565844701,3.8340879982590474e-05],[0.002764145022833017,-0.006563980593847836],[-0.0008819976443768122,-0.019274652260688748],[0.0013295503688408334,-0.0016248729852695726],[0.0022039183660234087,-0.005660119698555396],[-0.002248383220976133,0.0031034786527138624],[0.010166582378177596,0.007220824887650994],[0.006675696608082869,-0.008892857184154395],[-0.008613621294942583,-0.023389887684917662],[0.012843495849705818,-0.0013543926708970034],[0.0015932622793012133,-0.002162286937845842],[-0.010005128954912837,0.0068039630564031206],[-0.017099500198574785,0.009868490514959192],[0.013442142172584238,0.01177180264332305],[-0.0038119588036095507,0.002759541390516138],[-0.007272033733061371,-0.005862936877958726],[-0.005674200935795184,-0.0010577750107189758],[-0.011936246190297775,-0.00775045528069761],[0.0010513350164563123,-0.006191741718019761],[-0.005870535770374237,-0.013264274315093812],[0.010023200583173167,-0.00430747855090331],[0.0062346987642245425,-0.003041067037861076],[0.002476512925565081,0.017360111138408796],[-0.0065029254338073,0.007423183851381514],[-0.013654739538080525,-0.02080410098406851],[0.0022006820419550694,-0.00253345325333357],[-0.005896642043531788,0.0027911310671061115],[-0.006618310950070147,0.010174358941268733],[-0.004357608790906848,-0.010189544866866325],[0.0072874519097652826,-0.004062671101594879],[0.004262007146502402,0.011785175738027108],[0.009468252306912851,0.009860238952989021],[0.0017200282856767724,-0.00882715010628588],[0.005562367193204497,0.0062140382343022355],[-0.021006335543593213,-0.006835010259977791],[0.013335355500030066,0.007770172286285716],[-0.014873073433178046,-0.003165873658585156],[-0.008851820612916223,-0.025521412019830603],[0.01566102298784182,-8.808388053128117e-05],[0.015157265853167866,0.010295546754026743],[-0.012928839687245631,-0.006657434951312102],[-0.004462836688571751,-0.014673546528146824],[0.0031348520624061454,-0.007003956026527306],[-0.012039015703184733,-0.002447324901584777],[-0.0006989437042301339,-0.01035408379859495],[-0.01658459167860057,0.009327162244162072],[0.0032425469627434264,-0.0011945426537062953],[0.003854207188369618,0.004494129649206453],[0.0130833315368614,-0.004148580179766368],[-0.004952841884569608,0.012932414914916987],[-0.003324593043763478,-0.0006098541392480423],[0.017897811960568475,0.0011980885889973148],[0.0019993145093535267,-0.021402327615509642],[0.008554381182868201,0.013007947109258311],[0.006401294793439361,0.0023999747184757264],[-0.006553014355839097,-0.01836291167197317],[0.018223852257507837,0.004301816934873012],[0.0034395103221665758,-0.014327254303439223],[0.002696155140718535,0.0075738940086181525],[0.002978754987510315,0.0013732468524958077],[-0.010797047161420137,-0.005252134397842643],[-0.009076809622694764,-0.011292111281736787],[0.019943418389710185,-0.006466842606547899],[0.0009159544605284375,-0.003801932999309459],[-0.011087262869527393,0.00516371001666127],[0.0005356509473450006,-0.007081506660452448],[-0.005516001389675579,-0.006871857089870455],[0.004874212130968926,0.00239425037883179],[0.006163976004326688,0.014012840897559206],[-0.007646649848189334,-0.0030773472803839893],[0.004876037271443938,0.015328844895439587],[-0.01869872497005262,0.01122841327404006],[-0.004649394695147411,0.00312120716751139],[-0.005095054482912314,0.014321871334025058],[-0.012185560263686088,-0.005807855676300131],[0.010761313778283104,-0.008438923275837487],[0.004633112991504568,-0.008776601960548904],[0.012393557882615414,-0.002793289309789163],[0.004994986130508397,0.005531155700164451],[0.00571573022254144,0.014847627465185554],[0.010406696016784704,-0.004321395058203071],[0.008906403593885366,0.004217609949108235],[0.007444697607127745,-0.004406378062023116],[-0.004183540555131718,0.008272864478623517],[0.01509765854975598,-0.01589672443649688],[-0.0031622889797842607,-0.009864747064465261],[-0.013374128072460221,0.005692295051944946],[-0.001471696182442416,-0.010039949263332201],[-0.008366506725159678,-8.025269864518099e-05],[-0.005405330268530382,-0.012588493853179672],[-0.015763176416074415,-0.0019884703060729764],[0.009124833803084539,-0.016604296855125385],[-0.009887833993162504,-0.009457732594107187],[0.005280874661853563,0.0010780599982408432],[0.003531508104519447,0.013782733170744983],[0.005974088764731369,-0.01583416593201505],[-0.006583017122158087,-0.008632484703113397],[-0.0034046135256473103,-0.0008860576416233108],[-0.010033784784936595,0.0010991497179408856],[0.01014453347931711,-0.0035405004788714133],[0.0009776518251449528,-0.0045961327711511535],[0.011710210796030662,-0.004715378876791596],[0.004633330174718226,-0.01424029045197181],[-0.020727040187563644,0.00028847403160970166],[0.006462407148871971,-0.010484398700464966],[0.009199751963820769,-0.0004125509574978792],[0.010426944431442473,-0.0019447655292050368],[0.002128914378267914,-0.002375694128185602],[0.005007243254973914,-0.004883940353032362],[0.01792130743195222,-0.021810520651031316],[0.00853713221338589,-0.004912666663299656],[-0.021084060952483063,0.013035785500212565],[-0.005855139341568465,0.002065043763381484],[0.015333319347627784,0.0003379604176429428],[0.003374387709335526,-0.003457016681095837],[0.004164710481663048,0.006053001459970382],[0.014428215855624019,-0.005884897923492081],[0.006411955658738494,-0.006759989279906882],[0.011329628683381077,-0.007346987392839783],[0.009208576252539192,-0.0041202497535466984],[-0.005594283874216641,-0.016307080886097062],[0.01665821546451316,-0.00867977769013628],[-0.012845808748957448,0.008175914101035365],[0.0012613141661430836,0.0024594321768327677]],[[0.004702646455002087,0.009038731460522273],[-0.012893923951014574,-0.013355218902268153],[-0.00806931182928958,0.013024432367880194],[-0.00694130060485732,0.0029541468578345898],[-0.02232971298704043,0.00031868712603014347],[-0.0063888602626008106,-0.0071182834048089715],[-0.007825568048893092,0.022417378703754664],[-0.011058800929565375,-0.01639773660565121],[0.009971256042508442,0.006490699389358981],[0.012416403105208007,-0.018861950999843724],[-0.017888619821931573,0.01907854314399301],[0.006106353963443557,0.0030859085771712917],[0.01720918776377261,0.010761034960234766],[0.007872985827825259,-0.003963484219242575],[0.013800319113555618,-0.013748298893268],[0.013531793991663576,-0.0011970967470905577],[-0.01438131061018781,-0.009043033804661477],[-0.0012956583047140104,0.01041362833759425],[-0.00851532790982732,-0.013442574512564212],[-0.02490575569920613,-0.008260547354585784],[0.0061170365428898695,0.0007447534554285538],[0.009752585811055472,0.003843211419370636],[0.0011040672389720076,-0.021943158875532418],[-0.011273632067109973,0.005310304327561135],[-0.007167411164080005,-0.0034030343561290925],[0.00817757907986971,0.0028879926252362654],[-0.001074132639769216,-0.005900408216803163],[0.009861701875260758,-0.005441503792973513],[0.002900083041004373,-0.0077402221107880035],[0.0028596224642476083,-0.0018265503929617297],[0.0042302961882144776,-8.768050326728188e-05],[-0.003946953800674137,0.0049100578206916],[-0.023166062057984476,-0.012270281751300221],[0.008929728640112268,0.020465506084183453],[-0.019473097195087215,-0.003568486215609327],[-0.005871503715332018,0.010918615173987768],[0.018738128534957602,0.0006111669972999419],[-0.009802641964448945,-0.01795962366710197],[0.01869653722901772,-0.009741378471295784],[0.004630980411674685,-0.014068394280170515],[0.013344732392220348,0.006242864577885506],[0.0048522820717383985,0.0011928999438026305],[-0.007662981696832472,-0.005187780986122607],[0.011531287717305322,-0.0030132783574797757],[-0.009870144365945743,0.00869285101233795],[0.006805848450113822,-0.0030080080685446742],[-0.010199402149858388,0.0077923263464782086],[-0.0009017873459376251,0.0038898318452392842],[0.02155789213825594,-0.014339995929283263],[-0.0007666945222214014,-0.006738074898993685],[0.0048187796724372305,-0.008837209026375054],[-0.0016247159211346478,0.005275176648966396],[-0.02446085942127531,0.002321883148164596],[-0.024431085680700123,0.008734339197410387],[0.00978745096174177,-0.004917459024877622],[0.013965277013104035,-0.01616284925867174],[-0.007018331884038572,0.001817163941901341],[-0.015179890489085492,-0.010521205455652724],[-0.005615949133068893,-0.009775055281716344],[0.006509018175058276,-0.006420923163938624],[-0.012337227075031878,0.0030008348001193718],[-0.019504561291307093,0.00813685758943251],[0.003877839650774954,0.0015302517606521722],[-0.012339009454973782,-0.007611152753117826],[-0.013160636424991275,0.002228368507355673],[0.010446326634469167,0.02203984893959456],[-0.018054133120829357,-0.0093468862417246],[0.0016803277738852936,-0.004149305131401358],[-0.000832102763754465,-0.000885584618305919],[-0.0038705792761614686,-0.010364030183525027],[-0.0035632457389625973,-0.010349476261788804],[0.014199847114648273,0.009285932809184761],[-0.0019577307562987896,0.01804497675377003],[0.01919929583972923,-0.006375486958052506],[-0.0026465208105018335,0.013980407843114669],[-0.004848005904895689,-0.012971064590607633],[0.005878547666547886,0.01779836199339939],[0.00275808226891427,-0.006544157242247208],[0.006398302758840908,0.009705102151242387],[-0.009567925858321853,-0.006720958820235089],[-0.011597130192843861,0.0047242373849049855],[-0.001989519633164228,-0.008937741853170736],[0.010486597294655162,0.021247508656517023],[0.00860702203753619,0.006084407507437684],[0.006336918027285168,-0.003645996417387064],[-0.012066823529033415,-0.003984206756291759],[-0.0015680230447405472,-0.007323395674858605],[0.028816314462143777,0.011876702242426871],[-0.0064723312846648165,-0.014462260710390858],[-0.008528104709515955,0.009052509790155946],[-0.009951634563017325,-0.003790899301276079],[0.006783755259603989,-0.0026131586793954747],[-7.918398500821847e-06,0.00038439381685594716],[-0.008678826090747244,0.0033758967552555254],[0.00837619352820797,0.0011522304866197857],[-0.020854273173433514,0.007165072961755303],[0.005027260344184224,0.0013878497531686334],[-0.00010799514003504156,-0.0015965093937458502],[0.011551253322896431,-0.007898995736961116],[-0.006872746280047053,0.009900582860142303],[-0.014029428934785287,-0.004689444844418816],[-0.00042413108028706726,0.000480754919708164],[0.010877551140177192,-0.02014601757943605],[0.011140970576111546,0.0005424433175507766],[0.018457136100755236,-0.009205806103963014],[-0.002483531110990826,-0.00725375157811066],[0.007998975400343089,0.027315860177929585],[0.021966514309339585,-0.003004139972274689],[0.0045358640616048945,-0.004881846760309706],[0.0017920914955143613,-0.024447376962158464],[-0.0002977175435546729,-0.0035638182964886217],[-8.784904111695845e-06,0.008513305001145301],[-0.0058996543877402755,-0.00994944046973631],[-0.00865808665091088,-0.002775317766028547],[-0.009904950760988256,0.00682858506346204],[-0.0013637365243383286,0.0026725985479968935],[-0.0038727191124462096,-0.01890766548849345],[-0.008501513358098737,0.005491652016918833],[-0.010964039747892099,0.018766437979764218],[-0.007941349971167638,-0.0195571867817583],[-0.0012315798440516472,-0.012201448262381988],[0.005713941177230512,0.009355516507148125],[-0.014644646761780865,0.009418874935763637],[0.00663220790559828,-0.032806761328692355],[0.0018122265074147046,-0.002910368448022781],[-0.007319971508145638,-0.006127169265990041],[-0.007695088012690773,-0.008496259578013888],[0.015109249565401602,0.011207808869228116],[0.0006777608258932133,0.006545111023472466],[0.024168904462245164,0.0009668238623310443],[-0.008994688851453663,0.015831321257135902],[-0.016632892513018128,0.0008561018351526024],[0.013288955049487376,0.012228913598489287],[0.011115321068450033,0.009372716051416596],[-0.00013079392833258244,0.010681923886622197],[-0.006736317167532095,-0.004200469267521458],[0.0053325905046423885,-0.004810482230272619],[-0.00022582332781889095,-0.004033132490450465],[-0.013313819731973316,0.008532544481291506],[-0.012601512060245193,0.00762539443206297],[-0.010795020842674807,0.00021279593016434182],[-0.020998132717366055,0.0011728017110968175],[0.0063510065828624685,-0.001325558698784886],[0.009808905431553862,-0.013953369606433496],[0.0018800702832375495,0.00833753327190571],[-0.01625548994186755,0.0005911261097697237],[-0.006126226766635874,-0.012580031862167312],[-0.019987979687789415,-0.003963632391964125],[-0.007691741475875628,0.027256751551691553],[-0.0017443370873123775,0.0021860743813527893],[-0.02663378643629146,0.015680609455920792],[0.015520562260446196,-0.0026960838620974296],[-0.00014743754671857562,-0.02196582046994216],[-0.004379568487321213,-0.006852828989906629],[0.008314917598098359,0.011685117224229326],[0.0038670851287975396,0.0021046929259001777],[0.008340924387859454,-0.007510942362412757],[-0.006846242345978441,-0.003646283959136646],[-0.004006794872945108,-0.009857615064876556],[-0.026988979816512004,-0.008910669269296251],[0.010853567616190555,-0.02247671617872551],[-0.019280055918783567,-0.0015886527138227215],[0.005016081727029764,0.0063955012290188365],[-0.019947964572191158,-0.02682045641430114],[0.003894466864215306,0.005461573260601093],[-0.007519913762143973,0.0145222554427708],[-0.007259391909254483,-0.0014215303054607394],[-0.005923444860078635,-0.004055564922280241],[0.00016122156714006573,0.004881237203952161],[-0.0034513693759566423,-0.0034836574963531966],[-0.008380140094157147,-0.013263647190907694],[-0.01535392918876521,0.006416835097412508],[0.0009126150081171884,-0.0007510114138025402],[0.004274905519161172,-0.00202543376127198],[0.008446462874114873,0.009718510474811471],[-0.0037707016388917724,0.009294225503061719],[0.005761726371848974,-0.011130761392877721],[0.0011669896176068268,-0.0027440993130269558],[0.019772573278717048,-0.0023022157533683146],[-0.00889673457879697,0.0051185516584517825],[0.003197502190944614,0.0030512903008772865],[-0.0019159249551951394,-0.0047173066050487265],[-0.00620753396004318,-0.00865503761618717],[0.01460000568635258,-0.0022487817060022385],[-0.0029993078846902188,0.007277829893356234],[-0.0028219214245565807,-0.00400156557590418],[-0.001964485999573721,0.017450233624618776],[-0.013932200403798164,0.03069868179537045],[-0.009768704309982865,0.009784831165005496],[-0.011439227482363572,-0.012420404226091006],[-0.016907377674146472,0.02390742543021862],[0.00442971996331587,0.011105493296892671],[-0.0007673134880175569,-0.01695103380154798],[-0.019105765916074824,-0.0008859439818615021],[-0.0020178707765731527,0.0075687096606367405],[-0.0003731969231392194,0.012025067900191793],[0.0032552293706681864,-0.015921083641152887],[-0.008676477760845989,0.01330519095991454],[-0.03027913292823489,-0.012204768800733533],[0.027852650439500262,0.005640398069330538]],[[0.005038574309012989,0.0025841617373442293],[0.0002562168192184967,0.002123843682467548],[-0.004190285925310031,3.335125954217935e-05],[0.019258344602600983,0.011110793614095765],[-0.0004580783514698296,-0.007635748915522047],[-0.0020769962453145428,-0.005246662804737943],[0.021093557785186835,0.010155483988654141],[-0.011603591364258748,-0.016543809648963376],[-0.006566474418205834,-0.014810669982704017],[-0.014347615828683177,