{"Name":"RbmSpin","Nhidden":250,"Nvisible":250,"UseHiddenBias":true,"UseVisibleBias":true,"W":[[[-0.015106413640137931,-0.010777089047296271],[0.004570241923160285,-0.007579224691823709],[-0.0013733685075863168,-0.008437385542894568],[-0.0004993875857978412,0.006071516847380809],[-0.015662181765064495,-0.007552124198841769],[0.0011639268232308533,0.006203023006189849],[-0.001456824936247845,-0.01193860677612346],[0.004691631308905133,-0.022175431770353058],[0.012076324136042831,-0.010259179697290056],[-0.010862713787669799,0.013878298871420298],[-0.011114746355834985,0.011022092301060184],[0.00978169278014184,0.011358312444396557],[-0.014228539789951493,-0.0017301771020861827],[-8.940793924132968e-05,0.013099409006880298],[-0.009591445900973892,0.0010473908624273587],[-0.013656756020079028,-0.004008878833594673],[-0.004352561954211635,0.0010981101450876986],[0.006538716319904626,0.01338726791985233],[0.006098097646136617,-0.0008356891017103044],[-0.018401097010410077,-0.00633685022477664],[-0.0006240099131843784,-0.002907859832809641],[0.012304230673890875,0.012588451851477967],[-0.007491678123183731,-0.003930992764605709],[-0.006684030306073802,0.007497422978487325],[-0.007824918342858336,-0.00910316112640821],[-0.00732746280665257,0.009818475198288048],[-0.006947518831973342,-0.0028484016717857897],[0.000181024118630751,0.0042424523757680944],[0.002902780676619177,0.012907536130724014],[0.018192922763144714,-0.002997854082751274],[-0.0040313217729451385,-0.003813062985982696],[-0.011344121710093963,0.012174008909071424],[0.011539934252902428,0.020119567590134002],[0.0030805918354620504,-0.008626860242837825],[-0.002894371552600827,-0.01966101420782459],[-0.010810137306506979,0.008938991724053956],[0.0010239448961075746,-0.005544624235757989],[0.005086016262911011,0.003814548513105279],[-0.002464743264953123,-0.01865807450384873],[0.0036905834132065184,0.023784553504154673],[0.010804193720340818,-0.003309811756065605],[-0.0015685964559626212,0.01205474558502498],[-0.0016760612805053403,0.007955350049166936],[-0.0074538549470861545,9.252517832903013e-05],[0.010994620687775793,-0.01071482369307105],[-0.015144107293230603,-0.003837037995634687],[-0.011862413147644859,0.0050170306088930215],[0.0028481813384026947,0.008588994930671787],[-0.017752793538071406,-0.0076471381724817055],[0.018336417081376833,0.006771364640890067],[0.01963895421285354,0.007992276455440048],[0.006350464154899156,0.0015252600573691277],[-0.0008981193343521774,-0.003758355392045363],[0.012836072921651386,0.008833527042478622],[0.01040030951620206,-0.003160072582851863],[0.016911402083100366,0.004593327950639141],[-0.0050845400773291295,-0.0007013790042210083],[-0.0053936883264948145,-0.01265104895227487],[0.0003681607927646952,0.009136929622673824],[0.01390968867192595,-0.009563915642152426],[-0.01868549636569347,0.010037269352920439],[0.0008576040603232786,0.007238227295632795],[0.002445161545860718,-0.0012890698841192068],[-0.004011706674467399,-0.003961310356594284],[-0.015440160851162748,0.007531919852191315],[0.007153942813609728,0.009740643965989894],[-0.002200223117515557,-0.000980086292757237],[-0.008807905844844503,-0.011003626727632183],[0.010169620416089774,0.007560363858186271],[0.0017120739513182427,-0.0008347575854664737],[-0.006220943066123877,-0.019713886470105274],[-0.00258120002207006,0.005742299031940237],[-0.014715826281490608,-0.002555842490924175],[0.004882691372110827,-0.003232875243154595],[-0.013060689459231667,-0.004603398644516597],[0.016066184140726615,0.0010210872852998967],[-0.02630838024841644,-0.0024753066566458896],[-0.008470019741468904,0.013061578801600023],[-0.0037844896441716607,-0.0050449939194295605],[-0.00694103690087023,0.006851655022851456],[-0.02217027059943983,0.012428551448383915],[-0.016355884832115617,-0.013811157783443462],[-0.0015741164580492144,-0.009914200042354441],[0.005114578172350639,0.0035544600482564754],[-0.010976853958255628,-0.0020679147117633316],[-0.009749077920287248,-0.01926869605751197],[0.010557388699756125,-0.02721662689029612],[0.003238197677238916,-0.0016305216164229325],[0.0012793789977619233,0.0017000431483799596],[-0.013323857009186469,-0.005801325471928972],[0.0016986746490985603,0.0003972987864691431],[0.003395067355920208,-0.000810370735570927],[0.004902490467788315,-7.079559976319984e-05],[0.019925628415733934,-0.004885146695878406],[0.008956080222506695,-0.0039908728780660855],[0.01283184321824309,0.011392530586983437],[-0.007318973440396376,0.001124864838650092],[-0.0003328107667606604,0.008128990602070481],[0.0020839632614153315,0.007368638567612431],[0.0082535082766197,0.017659137200887694],[4.045191060356854e-05,0.00025280607962488585],[-0.003762097359730875,-0.006206110454359099],[0.014512672161700803,-0.009376378307005297],[-0.007901977393723827,-0.009899378895965764],[-0.0011076230023257302,0.0024354033464604966],[-0.0071952094677567155,-0.0036836818925393058],[0.00808277338728849,-0.012513633334398897],[-0.0012309038499302696,0.009283024360324115],[0.004756044702618213,-0.0028569475086307437],[-0.012822874120547511,-0.0005057457387855826],[0.002034127758978009,0.0036242394008716193],[-0.0009119695105361329,0.009663249745320665],[-0.008268980143792957,-0.011773998521345272],[-0.013051261880949686,-0.01092149261036135],[0.010509101756806758,0.007071297137931184],[0.006406364211956629,-0.00443516219011493],[0.003439748545268369,0.0036096989106647963],[0.023812870697624607,-0.0040330892437589715],[0.010290993303529337,0.005539772585360016],[-0.010429738369572342,0.0037895539131392094],[0.012692377159251825,-0.003437253131253785],[0.002117119236699991,-0.004453055729412315],[0.005509339313403442,0.005740542918104309],[0.010732752493818179,-0.00133298954777652],[-0.0037510916342440538,0.00543170199115998],[0.0032258617808601743,-0.006767874693610429],[-0.0009073349007074497,0.013502392876233244],[0.004224311934712018,0.0005570128341547651],[-0.01300548208918455,-0.005579691503996585],[0.003057127695912511,0.010390534172705693],[0.009218153107204159,-0.01568007736145379],[0.0013939577754314473,0.00640254946930355],[0.004323303555154722,0.000289848084270401],[0.01743839012519108,-0.0069690077258916],[-0.018001595415514333,0.0006976320128774891],[0.009608182665182987,-0.013156822179334093],[-0.005450722262327744,-0.0074640153667760376],[-0.02554230714458812,-0.00906974016989886],[-0.007771788515972846,-0.010028900245251738],[0.003988656526539364,-0.01092125745409087],[0.002495914373635325,-0.00396610751605516],[0.0016570393937226445,0.010001829349891718],[-0.001086806926547946,-0.010928540894918334],[0.011225811888387126,-0.0032973043036612056],[0.0009435063622451087,-0.020836847436695005],[0.015095359798809948,0.01023015510416175],[0.0011817079517245479,0.004855640713613761],[0.0007498561200851423,-0.006838635742774649],[-0.0005450261908872076,-0.0036060499173585325],[-0.010777834505883644,-0.008950832528419389],[-0.00024395998428368486,-0.011557814031061832],[0.011303579617108692,0.01731675463352399],[-0.009150790116983037,0.0051081090302906905],[-0.014029250958394072,0.0003628630536873026],[-0.007698028903234833,0.01565892075289198],[-0.015471940988633104,0.003698410170983067],[0.018911446665264262,-0.0039983153447425675],[0.003890693764499009,0.00426673159112728],[0.01090032897119187,0.005435299670432756],[0.008742778619019658,-0.015987828248224128],[0.01334010322493579,0.0077869922698510985],[0.013279680522275905,0.0020041213341089326],[0.0007339641400073121,0.0020159239482163503],[0.005891272272630506,0.0038903716084569694],[0.023454345226347866,-0.0036528199535890036],[-0.006775862261153145,0.01160563778070302],[-0.019250736823955613,0.001960072669632387],[0.0008182041515540603,0.0014569280194185517],[0.01005981375481329,-0.002243323094320209],[-0.01644606873847016,-0.005889958525083267],[-0.010452990590061726,-0.020006098263400475],[0.022231160568815914,-0.007335125306079014],[-0.000860318088830171,-0.0007660719197578885],[0.0016414456787647556,-0.006027475864186901],[0.007816025906089258,0.004968046934301858],[-0.020505768074964976,-0.014400665397728503],[0.004399598004374349,0.005480515841972131],[-0.007983045820238305,0.004773991651031997],[-0.017106003363486638,0.004316067149659107],[-0.006303087150530056,0.006140896378140245],[0.015132426212068395,-0.0011010100061509124],[-0.0073625182081699676,0.0026545843228365723],[0.0075874590160690215,-0.014284698075359452],[-0.004874263347808652,-0.002747208985740502],[-0.015049311903903767,0.0011070789576579148],[-0.0054183313286950835,-0.007082158883313264],[-0.015712598291023075,0.0001527004299364627],[0.012794215353470504,-0.013583657575387804],[-0.0038034273226422114,0.003598323651483753],[0.0028188738771160616,-0.0004351848358122887],[0.00646327783913388,-0.012720942085849967],[-0.006099199392286149,0.004424231856647984],[-0.007397067506090272,0.0010576081917577484],[0.007599363612299741,-0.006407883563243113],[-0.016236229844617863,0.009871283216416915],[0.011541525904444535,0.013761691966545168],[0.012728709520380702,0.011959238498503316],[-0.00795146085459961,0.0016040414255414047],[0.005843480896951631,0.0055931721998513425],[-0.014833578484719853,-0.0185026570986502],[-0.006358442992612763,-0.014507384079407328],[0.0011661796577669909,-0.0005804713314987852],[-0.004718144632224021,0.018615086728429733],[0.009972448930092052,-0.00375958007511847],[-0.02314255625514325,0.018881493234662053],[0.00014608371511834844,-0.009065155935957943],[-0.0031770378277472576,0.011072862172670533],[0.0045464082841407865,-0.01092336392811946],[0.0006948326410513878,0.0018062702546502597],[0.0016862256937982389,0.0010286774981893784],[-0.004406529685180619,0.003064264919127138],[-0.020421798467108773,-0.0013628099942150965],[0.002900943874392197,-0.01015971245717355],[-0.0025217816154976536,0.014985733110686529],[0.009802875667814681,0.004548102589276081],[-0.0008642756901096271,-0.01368872603303999],[0.007843487184113165,-0.013322242243740217],[0.007368047753402,0.012067205375024105],[-0.000356332979418857,0.0017540815893939423],[0.010075866887002629,-0.006270659001597103],[0.014611034164092096,0.009551497690652897],[0.007197406641472015,0.0010547374138497718],[0.026362696018273554,-0.001959255520082716],[0.0209585973778731,-0.02431968794191549],[-0.005354091310075946,-0.0014139661464048355],[0.0004348628170845171,0.00939733835868148],[-0.00670741984420981,-0.00416979010014831],[0.010442725408698754,-0.0008043654378955991],[-0.0013410180726587764,-0.005171930447436364],[-0.0014399179106573188,-0.010681873948634193],[0.0016385080357523157,0.010957887763751253],[-0.008143947723579008,-0.005255055033800944],[-0.0036727995367972837,-0.019429001958242646],[0.004608482258854945,0.02384158630192848],[-0.00996260556041827,0.012503714521238241],[0.007409787937277172,0.014168005554881543],[0.0014716366769154418,-0.005295519151166541],[0.005666510380487071,0.02208066772946656],[0.004683563473008467,-0.007506242896494699],[-0.0055785524411675474,0.017970230351635502],[-3.2256251507139263e-05,0.008792758393887797],[0.0032401995040464765,-0.011089656213304558],[0.015470929916387622,-0.005309384529353748],[0.011330128836993403,-0.0043152049258410406],[-0.0029870502654502067,0.012747496650050389],[0.014452877819726217,0.010321208237927199],[-0.01650838082556458,0.004525463102625201],[-0.005115634855236877,-0.012207451097197867],[0.009186238680004212,0.0012748602758595232],[-0.0054633184606134874,-0.00568941803424269]],[[-0.010387928371064848,0.007893472354519801],[0.006558995233708736,0.008699774758379564],[0.006967148643478281,0.009906493362911082],[0.00016143013373198225,0.008300533232439167],[0.005670140226211202,-0.013205721025552506],[0.00026255156837327626,-0.004484820257072256],[-0.0029191421624158082,0.0028868004889096082],[-0.002063618489444908,-0.005620887306415471],[0.01718421403073706,0.01047575039981528],[0.004623524082630742,0.008784878694475851],[0.010001403552180202,0.019734855072378595],[0.003493838043511609,0.018829417723997495],[0.007187726046689785,0.006965433565882465],[-0.009017113630300543,-0.0009283976745089293],[0.019977270566586422,-0.003453824534826939],[0.011681475610718608,-0.01671453401717925],[-0.004096338385525867,-0.00604465239264247],[0.004549339397516587,-0.016262902518664843],[0.004433140218033509,0.010410483833969489],[-0.0018244096805258884,0.012308827079708247],[-0.008446345647343046,-0.005798183756448768],[-0.009054661468674549,-0.005904299404094445],[0.019995276957618522,-0.008586567561350851],[0.016354075920100974,0.011061301717952875],[-0.005180962812514624,6.394651453195898e-05],[-0.005125889735089059,-0.01082247575763261],[-0.004808981395126359,0.005844522575445899],[0.0009401222156198735,-0.014579319495477068],[0.002974734229634669,0.006572988680287533],[0.002985812530554667,-0.006453781300657328],[-0.006848708474520302,-0.03515602866730216],[0.0013012021405022242,-0.007712447437980201],[-0.003973130400169648,-0.0009612739787584164],[-0.018437242297726503,-0.007631448413956292],[-0.011710042933569137,0.005616290526034958],[-0.006083974600112013,0.012972330156106786],[0.004938183774281692,0.008067048157019918],[0.0003409777196827755,0.0011904072313568396],[0.00042233127663250794,-0.005630545563442395],[-0.006042133115572852,0.00039017060751768374],[-0.01031433252063166,0.006752307955900685],[0.011440438102414154,0.007687289366706933],[-0.0013163180223063125,-0.01350175155392152],[0.0016200995527335402,0.012589226209083837],[0.0020361339142505944,0.0018719452745576378],[0.007956720570363323,0.002405965711879855],[0.0043622805553284625,-0.01295878583362832],[-0.006697395152422389,0.021817264849278897],[0.021027536107272017,0.012624144341740032],[0.009738312816255453,-0.012444560891844775],[-0.008347872151311992,-0.004390364347769397],[0.017615231682577646,-0.006688894267864964],[-0.0019604545745010374,0.004463890367690708],[-0.01372389904553824,-0.016986673499546544],[0.008291551185138912,-0.004632411466344467],[0.005787091462794595,0.005942919904507518],[-0.0013528590606416277,-0.00515557568980814],[0.00038440841147842537,-0.010185010197891142],[0.0039491791240067915,-0.011064493594186492],[-0.004361948470478634,0.018286254474699004],[-0.009651286955038583,-0.002121819422551777],[0.00033842462377236735,-0.0030141090341790685],[0.0013485162371196131,-0.006484858946693007],[-0.00709081556697456,-0.004746306831465551],[-0.014291148878675731,-0.01931709945374907],[0.004445616430605262,-0.008129194409475342],[0.013463210146292846,0.004648561917276846],[0.018676106978493704,0.0024999505331263034],[-0.0025268499552232927,-0.01198575531968006],[-0.0022144934371983982,0.006501672909066289],[0.02008695302564521,0.006032944880143394],[0.015860252626026475,-0.024872287963337666],[-0.00728798236251123,0.021460471244163566],[-0.0036531593072076283,-0.001342670263233941],[-0.002740964491396242,-0.012303155421843103],[-0.0028102066371188594,0.017329382217419437],[-0.007480551328335455,-0.007671860354881229],[0.01570387663144602,0.006545011122839474],[0.013147165528818363,0.004961639910544127],[0.011519703392455529,-0.011612851437195577],[0.009437385218428096,0.008547252619104604],[0.011506602052048518,0.014077352887648189],[0.007666961864656609,-0.004038560047714343],[-0.003747875649002211,0.03033944547978315],[0.0017012381623066205,-0.010503787124057399],[-0.002967687182077114,0.013891108280144338],[-0.004936013402764994,0.0036746582759172334],[0.002513706387677377,0.00749055425729483],[0.013938135503536305,0.001930917334815652],[0.007424987332863237,0.009428225558652586],[0.006049345392588251,8.261119823277526e-05],[-0.010117238527787228,-0.012639369187351288],[0.004809019845266773,-0.0048550782977429124],[0.0032240626762312986,0.002552673967450597],[0.01620387263039073,-0.008188034414100931],[-0.02270658301516337,0.007796148765174407],[0.0029767261330817746,0.0005411914343757683],[0.008749876219921316,0.002321405604058459],[-0.0029498921031814182,-0.0053993364559714145],[-0.007085414273047304,-0.002591358303653188],[7.793365899661604e-05,0.01995929262202139],[0.005849603055439785,0.009852673604864446],[0.009419772858792004,0.0012735941227354423],[-0.016451151028390617,0.009170706233072689],[-0.008013035670817745,0.0063581523392711925],[-0.024437200776070644,-0.008497822980574742],[-0.013406980091296757,-0.011363353006179218],[0.011372963380871492,-0.010733183420185513],[-0.006402324476050981,0.002116176056085097],[-0.003143926679534399,-0.014253182738241752],[-0.006878722789613384,0.0007538112976093965],[1.112499029903174e-05,0.000286825600429075],[0.007639081558910236,-0.013760512847122451],[0.0025253433998605737,0.009055281229942789],[-0.022416228993388833,0.008166635459381084],[-0.002380387219889783,0.009098629224252548],[0.015205610739855357,-0.00123057506264762],[0.00798717952475674,0.012544215318880092],[-0.007931619793831446,-0.0019690141598620614],[0.01105094966057231,-0.007208775212950146],[-0.0168525211803763,0.0029705654492595546],[0.008710036661640797,0.00648160739320394],[0.017452797733491857,0.0011299287983179574],[-0.006156759587031957,0.016068311697937817],[-0.01217844971240298,0.006121994075429105],[0.00639553091772389,-0.009897054958163386],[0.011569567527710937,0.0009834229860101367],[-0.012744843755293828,0.000894750996756776],[-0.0012772569860405912,0.006792875123322914],[0.0022849517490751846,-0.014915699539227223],[-0.01437338988016593,-0.002375966046583027],[-0.0010170537148281977,0.009562988686722769],[-0.002756735060706547,-0.0048629576352050225],[0.01384783444163093,0.004294421446791326],[-0.016442495795227014,-0.012830809670077528],[-0.0033967071792412387,0.0006656772246925428],[-0.006197138773509787,0.026175933362168995],[-0.018699290509813216,-0.0029060271543876635],[0.001162509711267314,-0.0016190257052230866],[-3.847082008676377e-05,-0.00085650682905842],[-0.0009452286110420724,-0.016555403920689327],[-0.00949061834878629,-0.005434778871713826],[0.0026977783701401335,0.0021034590044075375],[0.001586437224990563,-0.006939794299289066],[-0.008340768332307923,0.0035540425580052786],[0.016403967569673467,0.006505498033042096],[0.013293024177499606,0.015174748343298594],[-0.005308292646688742,-0.0068366679869480106],[0.0018774174680657768,-0.0038177331464431205],[0.009254865435587872,0.002432954704640467],[-0.00451535110286447,0.011329539761037042],[0.0026911241860480095,0.006870511708599813],[0.001749507024051473,-0.006509110379693721],[0.018461400524839317,0.008076018475088462],[-2.9219376377195502e-05,-0.0024191259175007558],[0.004093914454132343,-0.010628293954681142],[0.001767112878803417,8.573094597926937e-05],[-0.006891755751811823,-0.00760389623838202],[-0.023269683864301585,-0.011688012768328223],[0.0033485104141530836,-0.018216298011873733],[0.029177909909436077,0.0020478655750582166],[-0.004459811166904178,0.0075057506321690995],[0.004605463277831128,0.007661827631043289],[0.005886314336789522,-0.0007069395346579963],[0.002727698805434846,-0.003388960788164345],[0.0017426660936564133,0.011444803744601328],[0.006076320658979695,0.0024336025894520293],[-0.00023429732572651126,0.008750248587759328],[-0.0028249487922560297,-0.0037600743891992947],[-0.007991556733845306,0.009444531045825204],[0.009256515289979757,-0.012153164282970644],[0.006149670484810134,-0.004068268526724268],[0.004587275938518188,0.0007720507549971374],[0.009737429587023779,-0.009179596063623438],[-0.0014772036931654299,-0.0032635062023932534],[0.008084069367198844,-0.01113678364179818],[0.010233707930979238,-0.00211870344369204],[0.008495322737577584,-0.0008704930149273212],[-0.001619239697757343,-0.0017843552972349708],[-0.002146523130137577,-0.0037447480683497647],[0.008553480374984603,0.017970447151066674],[-0.0035898267675320145,0.0029413219927539483],[0.005513421412346059,-0.01587098446012303],[-0.005831509469395882,-0.0047053710891949325],[-0.025683707299502718,0.0017687596798859739],[-0.009231622217227118,-0.0014749599922978089],[0.002568813180416148,0.0014787879198673492],[0.00498659895260703,-0.01176140681794026],[-0.008506980266493517,0.013882953711458512],[-0.0024921319318100465,0.004373961743025684],[0.0006138566984257916,-0.008445899845130351],[-0.001972026716610506,0.0029176861358947747],[-0.009694459879224973,0.006970789573551977],[-0.01825888943892433,-0.013016436611378177],[0.0009137988690113925,0.0008799900527444912],[-0.007860346739353869,0.007501398299123409],[-0.018787306235298205,0.023215902565551862],[-0.001467296942497268,0.0005129747970122198],[0.011754265729286152,0.00603360865515812],[0.012966845572166995,-0.006224111101677659],[0.01742421634043218,0.015634268301029094],[-0.007921605072847403,-0.0013823377786034243],[-0.005551743615088177,0.014359618441395506],[-0.01998122537952677,0.003377930284489854],[0.0191621542819996,-0.0074541467598827245],[0.006288269532779224,-0.0038007245400828392],[0.0015977496507919514,-0.016340808847003143],[-0.006601313772860445,-0.0016625385393184678],[-0.011470718193731636,-0.007798075769878163],[-0.003157894491946213,-0.011328852025521299],[-0.005825296057816304,0.002377056825890598],[-0.005350570976969804,-0.012472203507640518],[-0.021304787548926663,-0.023847405282493104],[-0.0037253044154393496,-0.0038107105730192403],[-0.007762008994538657,0.010385269738192324],[-0.001409189450157959,0.009077397777923376],[0.003089866530795952,-0.000247718498662268],[0.006195472426771513,-0.008286453607194783],[-0.006342456394227463,0.011566747964622703],[-0.0024392700799274,0.006606291781662134],[-0.009975644488777625,-0.0025282772112647286],[-0.008223921803499915,0.0025652094209912446],[-0.007120320901862309,0.01639507123353407],[-0.0016177221723331849,0.015909500786961607],[-0.006203542789522244,0.008692975683316199],[-0.012446528540417131,0.0008689184502369439],[0.002104672188802864,0.01058956287844726],[-0.006422042517394659,0.009369614069117349],[-0.004931256936024822,0.01750505185893618],[-0.004835137274050841,-0.022206133260915396],[-0.009481476539588356,0.02504995460030665],[0.004237717412121512,-0.010582503545105152],[-0.00254279244785885,0.0008172289296145843],[0.004911209689406724,0.00014418780887841699],[-0.013945569675035876,-0.009528977487003626],[0.01892580076062419,-0.002283949583062973],[0.014787306394303227,-0.001390166696998932],[-0.01249042558475166,-0.003408548708710427],[0.012149426415056418,-0.015030841106545305],[0.00782614730865465,-0.015299272385911982],[-0.006559724741183328,0.003944393502407817],[0.00801979564141941,0.013473079523470228],[-0.014096149386064554,0.0017588394935096386],[0.0021221006760792365,0.018869607798784098],[-0.0014629693793118633,-0.006259234320856122],[-0.001312826662998228,0.0066401577140779225],[-0.0058714393629762775,0.008882044252529087],[-0.013548486731240615,-0.0021032668521914874],[0.00657964996353364,-0.008480340405172338],[-0.00823778968631667,0.0013352748558624916]],[[-0.008671729595266365,-0.01232389152595026],[-0.0011895786172808746,-0.008209180775675182],[-0.026598271678620732,0.0031816801884746978],[-0.00458053182083546,-0.013627624488391527],[0.018886903811667126,-0.0014829956185741888],[-0.004894187661260078,-0.0016366831405601524],[0.005500634811859776,-0.00582405376071326],[-0.0010689921817407712,-0.0014595939145886515],[0.007581028549391166,0.008491957786393955],[-0.001350344607091987,0.003076352796688191],[-0.0009446934566440649,0.004220685729854564],[0.011380497634979475,0.01666111868245684],[-0.004047769107200631,0.0048296210647992156],[-0.017559761057760068,0.015475050176194102],[-0.008491694803036812,-0.014465241688416786],[-0.020817495787944177,0.00104160420802061],[0.006059437989082883,-0.007135305273012147],[-0.00015934090562721965,0.0015857612603979493],[-0.016545766629682226,0.005199688684147558],[0.00978832223287315,0.003953548368086589],[0.0036324610055644053,0.0026140831861924726],[-0.007211394410969355,-0.006056175163888047],[0.0037318689642841275,0.006779961549701846],[0.005334902726310572,0.00023938920269294328],[0.0007510933522572474,-0.010909026548283527],[-0.007614587473066555,0.005394328532478541],[0.001631157268812665,0.009313177435383943],[-0.0012198989403967649,-0.0009107819173143698],[0.007956762100706822,0.0045024862423731805],[-0.009889723789553186,-0.009137532093441748],[-0.02212820048191039,-0.004702238172011391],[0.008321403910627825,-0.022713655146984535],[0.003815116590918726,0.0031172174847927453],[0.012945426421291206,0.014514507825023261],[0.012284388734537088,-0.010811427967047278],[0.01316331261694963,-0.014446279300631052],[-0.019488690190551924,-0.014255381839929561],[-0.007075371398455925,0.0021820240698893828],[0.003550422852736269,-0.0001813962516921785],[0.004970689227731496,-0.007475772586537679],[0.0030448587747077416,0.012953989188054673],[0.006618551245765455,-0.015070727981325072],[-0.009233785990388583,-0.02989459197784703],[-0.0004034015582294484,-0.0066695150290413665],[-0.0077507705779674115,0.011595266582182781],[-0.010515782139382078,-0.008876471106570947],[0.001759636577375079,0.009511994432220831],[0.0041053645809973885,0.014229316611685482],[-0.010981351506057708,-0.010688007365830275],[0.0017509301988404683,0.011983887807126462],[-0.010689526787947424,-0.0015146566780781323],[-0.00844177886274644,0.0022194255351515205],[0.01667706595541932,-0.016416772329177508],[-0.006497995207587724,0.00611667848955593],[-0.01738282410762278,-0.008897544435157398],[0.020767665078482288,-0.003915680003722025],[-0.012261592198398615,-0.0024696987470748865],[-0.002218137834413191,-0.014544842430865656],[-0.032240597214105,0.006239846222977968],[0.004846227997768667,0.0154095154652765],[0.01672713472276953,-0.02089932220784449],[-0.001223102916099652,-0.011661546696284114],[0.007628592906000654,-0.009723165863422877],[0.005753042250844256,0.014579169769915796],[0.006272267382520459,-0.0038564169403262753],[0.016420681058667157,-0.0013623063078452532],[-0.000776093880895202,-0.0038212183394391035],[0.01578405699613345,-0.004903751287342837],[0.004407453775319299,0.001188593397376232],[-0.01719742505412368,0.01999849019993235],[0.012092070820467045,-0.01602700108906589],[-0.006407340153283835,-0.014620848792020998],[0.013707243184299547,0.011675568892463753],[0.0030154125128557295,0.004455855693113098],[-0.005027937630625247,-0.004953211692345546],[-0.006656919115234031,-0.009477477225959069],[0.005978621791888019,0.017146170267132128],[-0.009091844000773931,0.005366764764071138],[0.012065267444833324,-0.006725936214762702],[0.0011718228960423353,-0.009161030253819239],[0.013201493119981499,0.004741210640221936],[0.005611327134351574,0.01814495365310037],[0.004408912957135442,-0.0013583203872941441],[-0.005078105738170978,-0.0026816758316192887],[-0.005481159057449418,-0.010877561601099931],[0.0037107646689595397,-0.008509378695238731],[0.020863573580979573,-0.0057561328962876905],[-0.018165513552789322,0.007138945720526431],[0.0023488065074988573,-0.014884510000216013],[-0.007729044660930877,-0.005125471754933002],[-0.0097280178790013,0.0022070524785285706],[-0.010206286889787596,-0.014790943705320778],[-0.0014844297112844823,-0.0006264135738537505],[-0.010368502886927367,0.013177502568648624],[-0.004666255638464206,-0.02499438967892993],[-0.0009130310136641623,-0.0015038372955712097],[0.011805837796751322,0.0018321712531048201],[0.004581806167263476,0.014443930494052269],[0.00998895992714522,0.010730755271858183],[0.001025268901069209,-0.0041640145093926806],[0.006276516945256419,0.019329744756015097],[-0.011905844072566665,0.010670608073697487],[-0.0030567678977614907,0.016725461827956933],[-0.0021855950486901555,0.003842253558295079],[0.006409961890644947,0.0027005102617622175],[-0.0013873366220014177,0.014966167269740857],[-0.012253842437917864,0.0004383872176548548],[0.0018834857167993276,0.008382140630252818],[0.011305403365952958,-0.012751833298475915],[-0.008244214748682494,0.002943808571002995],[0.005874261361271665,0.0004028620304368556],[-0.0034721087980510027,0.01591402580430584],[-0.0024638626181623284,-0.008563432850877352],[-0.01928049151386098,0.012255952261438559],[-0.013789811907791986,0.013967276387416301],[-0.006502095719000024,0.005700716124890924],[-0.0007954253945090686,-0.003196644569586434],[0.0142140606339569,-0.016453190841854343],[-0.008748063724766008,-0.019453453701355556],[-0.013639902926377404,0.00020534624838667952],[0.013773450921764324,0.007605901930567556],[-0.011675150613213914,0.0013213177957913456],[0.011735642018718566,0.009839093848153744],[-0.0025190050933966797,-0.02015970174941825],[0.005463807894915667,-0.006226943209766912],[-0.0018511756923186972,0.011054133861125607],[-0.005449039470097322,0.005937491817555259],[-0.002333343667475179,0.014167375354076198],[0.025897327946190103,0.010013383810198048],[-0.010376866359681842,0.003968615261884168],[-0.0040887867054944715,-0.004858920416999567],[-0.011531587996725889,-0.015651882146026155],[-0.015844746834769413,0.007614712885022131],[-0.00493524787607304,-0.007973920879123433],[0.0036660622068088572,0.005488581498945631],[0.010694476294221029,0.00022990904061018344],[-0.0018959756581241975,-0.002790905069167561],[0.01707683358029629,0.012317931684908865],[0.0015052930537341738,0.01050999652338651],[-0.013658869186135942,0.00946692274244743],[-0.027451141682483433,-0.01504460647834493],[0.0005889121506877778,0.0034515506590961616],[-0.032900485446535684,-0.0029892753510850417],[-0.003662477275190667,0.016113459768936914],[-0.0020439867539810553,-0.0025270982468213786],[-0.0005003730445191229,0.025390216887636683],[-0.004904686986317575,0.005702590381535071],[-0.004746562997606883,-0.0045598838579531545],[-0.008698970005808463,-0.010687845975852922],[0.009247196111636657,-0.017205220860284306],[0.007147957597805744,0.018049203887227364],[-0.007673236248899788,0.008004842002003803],[0.003016686197160727,-0.004687447477786514],[0.0018073906757892968,-0.0009571317697356181],[-0.006408552786362589,0.010560358772321397],[-0.002534236118299468,0.009484346344905248],[0.0006495435282310835,-0.003305361109848208],[-0.0022973590503411055,-0.0027837123184002296],[0.016706282887894774,-0.01991586751667654],[0.00905168960562668,-2.297472168217825e-05],[0.02509273192109984,-0.02028890966477406],[0.005645016372882084,-0.013860920681737813],[-0.010078911744877595,-0.010182065530900872],[-0.0022671567950983806,-0.008686925339427602],[0.01674340789814502,0.0038300147834372275],[-0.01660355492387577,0.012738133162696478],[-0.01663295089238569,0.016985315880571852],[0.006333763306357348,-0.010025012997522004],[0.005922273420066262,9.227975490770483e-05],[0.003221845997227625,0.004739264377003168],[0.004767154195608518,0.017585678223940096],[0.007397290058740783,-0.004443351289883874],[0.008111954388623787,-0.009137240774922877],[0.0016603726654270028,-0.016700501968586044],[0.0024503795144387892,0.008110924348733188],[-0.0078051308032056985,-0.004969874528165642],[-0.01484360466250041,-0.00832247403960188],[-0.015253898285853917,-0.005845924695051106],[-0.002639571771748518,-0.0071439162116316264],[0.0076366776865723525,0.015172708695337524],[-0.0032372557873239145,-0.0009665753617929174],[-0.0104671551973018,0.016489023848644747],[-0.014808784903092629,-0.016618962970474847],[-0.02065263584503606,0.0019806261528833445],[0.009400036849197983,-0.01613389012478124],[-0.020314514409057068,0.011160373149106579],[-0.006843609835933181,0.0018630659275038985],[-0.008687627382307378,0.013849090050997125],[-0.009722007518369326,-0.015391852211857378],[0.006629217692356395,0.003391798728407739],[0.015476646261045043,0.010419625190775685],[-0.005897630953186042,-0.0019156713599731436],[0.008761509648424147,-0.016326078380311283],[0.0035613583170745803,-0.008057499549111622],[-0.0062372883785105845,-0.027626490115557976],[-0.00613811604353863,0.006511748731352885],[-0.0002766071223668752,0.00125475741436809],[-0.0016319649651185318,0.0036482539628901836],[-0.006410598958646857,-0.00030278835367840776],[0.014103600173881027,0.0020713130681256344],[0.00590369024231973,-0.01909854365741372],[-0.012265427363644377,-0.007171039352054165],[-0.00435426343901537,-0.012599402986503737],[-0.00011346098765994809,-0.0006826586263024831],[-0.0034115163866912713,-0.010118700357138511],[0.006571631740279153,-0.01653373869310793],[-0.0012374008459414359,-0.0011771648505458495],[0.0068800919498041005,-0.004308591139807768],[0.00860262065580396,-0.0008449546658742717],[-0.0074148842565935295,-0.02108885007718842],[-0.006393364254866012,-0.010188788985780555],[0.005568891774562677,-0.0031555411385699667],[-0.0002990130221358095,0.0004359038886338803],[0.0020470499227226093,0.0022032918190797806],[0.00499260554390117,-0.0037400816980429955],[0.018075099912788124,0.011176446737417056],[0.00728131404240215,0.006171035650487846],[-0.010042105396292867,0.014514533366069133],[0.002415844289143882,-0.008197372560702744],[-0.010363782085116674,0.0071158066785842414],[0.012833371254424826,0.00972372953718955],[0.013796280073143243,-0.020499446985400762],[-0.0059769672531625965,-0.004621535874472877],[0.002440690997925216,0.0049241171001110475],[-0.004981856665043787,-0.010346652573961277],[-0.006036708237158078,-0.004421638519969457],[-0.0022443576269909962,-0.007591258801995245],[-0.006759070154214843,-0.00554649134391345],[0.019142003783097723,-0.006857428227827338],[0.011240414168505202,0.0010437518043538486],[-0.0013649297287120165,0.0035343736328326157],[-0.004375077540394394,0.012726547561759555],[-0.007749323296589224,0.0007508406009885435],[-0.026343504762889255,0.0057071340592071505],[-0.0014662650338876908,-0.006626422519428319],[0.011907673251824508,-0.009348353191878964],[0.008485024035681509,-0.02544829157211035],[-0.002328170655388689,-0.011240207303164003],[-0.006623018771359213,-0.001512168368849127],[-0.008628429802770315,-0.0023518063849831588],[-0.015905621454466126,-0.006097761148755182],[-0.006410438635891084,0.009472824481449578],[-0.007037436215509952,0.003998614197874769],[0.00466615480481036,0.004433353611024549],[-0.015067134635490115,0.013147988368243544],[0.004314292211677774,-0.009728377535976971],[0.028420064361207767,-0.018554403320365644],[0.007513151009707796,0.01724532917616501],[0.015592511782220039,0.011568462108408681],[0.008513975526795454,0.008294857054454931]],[[0.008680778008343243,-0.007438821288565097],[-0.001639243899640013,-0.019261617174089602],[0.011226237523523358,-0.016694628300414953],[-0.008780993515175738,0.013674733088750723],[0.005857944225308349,-0.0035549127827036587],[-0.006239684329378404,0.013583865099551558],[-0.0006417005397061472,0.00036925934496280055],[0.01451829249711357,-0.0030250968152283754],[0.011633208956841064,0.011507092957621817],[0.005462355657894175,0.013367049390293309],[-0.0095442705124895,-0.016784097182590153],[-0.004092858106725491,0.005377581907057919],[0.00439705551088996,-0.010314705260229373],[-9.117509086781748e-05,0.012058225901589352],[0.008401458213216915,0.003587223621101449],[0.018549812244920052,0.01120700809322824],[0.009778262061009728,-0.01571213175670375],[-0.0012417758955304361,0.007285174973395497],[-0.0035952651118395604,-0.020078743813510217],[-0.005513378128672056,-0.014492033481431778],[-0.0223806812637668,0.003135311364638219],[0.002513438217595279,-0.004436224775122035],[0.0010036855746200235,0.006096494508245267],[-0.006883725514416718,-0.013654234503714674],[-0.014966156622193638,0.009656576779427665],[-0.004838297645401719,-0.00860876127803088],[0.00017522205186954766,-0.0044239639330209465],[0.019392303842893577,-0.0028381517761561096],[0.016166355955975757,-0.023989857861930558],[-0.006904095519312178,-0.014550982012969383],[-0.003747701223200576,0.0061224904559360116],[-0.011510646705742644,-0.011913406987496484],[0.005140422625565316,-0.0026837854847791584],[0.015690134235092648,-0.012050542653463264],[-0.008631021487070884,0.018673217587350067],[-0.019274830037109197,0.000988858339579823],[-0.0079822731978679,-0.002247975894181623],[-0.00036736766505608936,-0.017365161475098107],[0.0019417403011381025,0.0017714544525172923],[-0.0003964261636049313,-0.010546653539236873],[0.017891952504558113,-0.004128008732641797],[-0.0021689603931592367,-0.011228213037679909],[-0.004979798160033644,0.009951273744998363],[0.006533997435040963,0.008647662072152916],[-0.0056505842412511945,0.010232545659503142],[0.008576627418016238,0.006807568528207953],[-0.007108902196633832,0.006170735142297908],[-0.014860477079832634,-0.001136417210865325],[0.009424136856425347,-0.0025912240329429466],[0.0039870152890613695,-0.0005905595707042172],[-0.011372117766131545,-0.015762425482407808],[0.016248693147552843,-0.0005335269171335951],[0.016440681550460412,-0.002903555046458762],[-0.00841439352743777,-0.005761689191876402],[-0.002489976072649125,-0.004410519697494926],[-0.013475587224710586,-0.0022629989499323142],[0.003756355235169261,-0.0004511271594594569],[-0.0058934821179730135,-0.020159580710360055],[-0.0022949199642829264,0.008126706791025609],[0.000606735461119109,0.004572886394936364],[-0.0015005436497385401,0.002297241644353619],[-0.01470821517920871,0.02098570175126189],[0.005334915599600433,0.005241188023174575],[0.0017065074062818672,-0.0016620587803697255],[8.085081129801611e-05,0.002725639589267137],[0.006304909415255578,0.009335801546950509],[-0.00459794117300119,0.010356044930972768],[0.007949951814708188,0.012316191500390768],[0.019080077921368097,-0.0027763998879254924],[-0.004869462355916378,0.004962176015858215],[-0.008146528698294677,-0.006962975282682239],[0.004783090320801551,-0.010243864504496167],[-0.002245249510686793,-0.011714832774079413],[-0.019524578889237157,0.0018413866926329243],[-0.00024471410793575055,-0.010241154615454346],[0.02680300393950529,0.0048311107981757195],[-0.007483619435211075,0.004833360454708414],[-7.373275980520548e-05,0.010319274368305792],[0.01252735068251708,0.0033083775494204253],[0.013190595702737049,-0.012165248331091836],[-0.0052319274904945,-0.002273567841429411],[0.007488669929645946,0.0005084897344798361],[-0.01431437626166744,0.0137815308497342],[-0.014961554244647504,-0.007487697007829806],[0.00038624955509645965,-0.008546227109906655],[-0.011271606528233176,-0.019785154580612776],[-0.008702292925711246,-0.005672762278700102],[-0.006281783134888287,-0.01410589759153999],[-0.0030710933992157043,0.006407284009529807],[-0.002377780129332602,0.0010659650928800332],[0.009854890364959163,-0.01074002167522897],[0.020925067441211666,0.0015698305276754484],[0.002310100968994505,-0.0055697271590795525],[-0.0017855226787418393,0.010485538552691716],[0.001961724611084759,-0.006322927297705961],[-0.0012238683933969948,-0.008079353135778539],[0.008844799731488127,0.004490366903004302],[-0.007406347895071482,0.022846602664715533],[0.005132171451603973,-0.00441470355783843],[-0.00036718450148178264,0.0038362494460081613],[-0.006280563396291825,-0.013207791200393778],[-0.0015113562229393594,-0.014682769036097127],[0.016586703115646147,-0.007279162532086269],[0.008969278286451384,0.006317195284113992],[0.0206380667216564,-0.00035754832741628046],[0.010270308113883325,0.014542544675542848],[-0.01927295376645744,0.004266498249572378],[-0.004476822490858835,0.008782747625811762],[-0.0021564724459076662,-0.0019921218118837277],[0.0016338513793415044,0.016391154005234443],[-0.0069669349440702405,0.02700463626565609],[0.0029595546647687475,-0.009054783550915813],[-0.0021788795588680797,0.00646241027392172],[-0.006396629742024139,0.012289265987322634],[-0.005230930031528264,0.016516173133363937],[0.017288265138081352,-0.007014112760853505],[0.012655056300474107,-0.00942851456317019],[-0.0035472312701074833,-0.0038236965619142917],[-0.013066507209131358,-0.010470422971885225],[-0.01016774678487649,0.011511241582700026],[0.0017608552386492629,0.0011159309203010923],[-0.0026400847509340736,0.02149222300109396],[-0.00043074756571947906,0.006180577321320518],[0.004732762546729737,2.6635640208239725e-05],[0.0006061295892791827,0.026554465895238032],[-0.0020431151852163174,0.00450862613277226],[0.003842925090276532,-0.011357630341909964],[-0.01502812615115366,-0.007221746666696637],[0.003923035682581937,0.018679762992881536],[-0.005825443884889827,-0.006028080412708659],[-0.002447216788841599,0.007690787947822315],[-0.010880807731412591,-0.0034984271317339685],[0.0011151110461521316,0.016844670827823288],[-0.007862557243991644,0.0007368894394251828],[0.0035767147510065225,0.013100553003755106],[0.004293411319254056,0.007505675745134449],[0.02230921628943616,0.001956527492466978],[-0.007119319234315814,-0.0002556751336084647],[0.011608658071211815,0.004960420229461514],[0.005096627071902013,-0.001576000140200123],[0.016152637027766915,0.015132658314181709],[0.009699053716509115,4.833820206055272e-05],[-0.0030199029163110198,-0.011215628888698172],[-0.018630354219196798,0.0023305348588096722],[0.0041497108943258105,-0.005459766929078459],[0.00422832964823337,-0.0018576012211189417],[0.002229387518627663,-0.018849740767862173],[-0.007903671517919701,0.0017912374949654612],[-0.012555047332448646,-0.003818144466393424],[0.008385389330855452,0.006261087790112335],[-0.0022493907370836528,0.006499426591508039],[-0.01277600612042144,-0.00593729677409696],[0.0020321992193495183,0.0061783400115550426],[0.011229662619439904,-0.0021112847480226947],[0.001069110056012769,-0.015564611434769773],[0.0007627523652781848,0.009754363478183722],[0.0058429275131793,-0.005288825756860652],[-0.006037234332020021,0.003801268806434688],[-0.02725778165868887,0.010772156963721694],[0.003389945705628424,0.003763460439145086],[-0.0007275741082208633,0.014957285406891207],[0.0021792896782475172,-0.016659417849850783],[-0.010674242090198223,0.003198279395324013],[0.00450750394268174,0.002927746491325266],[0.016017377844535226,0.0038721068119544014],[0.013468531359339515,-0.011459380174968942],[-0.006968726101482945,0.007718662782476163],[-0.002754603462882652,-0.0009806861136808901],[-0.0018448851931363417,-0.018593997902678742],[-0.007344338106214742,-0.002898313716012604],[0.007750650684767418,0.01028612895051379],[-0.0074868013678802865,0.015848362758383215],[0.0021276288000733404,-0.00032757522382434456],[-0.006802978228614732,0.005701579537397938],[0.0010779199402960596,-0.00048392844134804796],[-0.0029884203326804937,-0.005176967146896817],[-0.0031253927523047943,0.007011541498738486],[0.013593011946350332,-0.006277300374372041],[-0.006786905939796629,-0.005666190566039836],[0.011821019552791924,-0.002560982305989782],[-0.0035216828967519504,-0.0042130523892831],[0.005605345888940913,-0.004916630561368943],[-0.008361935633546102,-0.004703533480503234],[-0.0025453185310149286,-0.0041986571747362825],[-0.008668929204684588,0.006550066791597688],[0.009121072313150815,0.0037623609554536404],[-0.017640543042149612,0.0014002790615059968],[-0.013185172310040193,-0.010349546850824181],[0.003358412524121231,0.01569227081561659],[-0.01064692604910501,-0.0037500128468200026],[0.0008797282973174714,0.010636474036840213],[0.006445084939399688,-0.011118179005782493],[-0.003191690262171841,-0.017035528503846892],[0.0003997787728546395,0.0009582332421048897],[-0.010683111369896291,0.007332077822261175],[-0.006393689644965438,0.014776332615294655],[-0.007740599586387908,0.007153662875788527],[-0.004974215116749501,-0.002714431741417603],[0.00032607415961377183,-0.012364553587170968],[0.009524741162222398,-0.014976245921032388],[0.001315382530745086,0.009772557968092834],[0.005650435848830477,0.013248795131608352],[0.007165896730817429,0.011770020979702284],[-0.00490903795022732,0.017054596211269157],[-0.0035860324155544856,-0.019379241760557015],[-0.007908572900271136,0.006727090294814016],[0.01113274957210144,0.010793178225641168],[-0.0010070952605265317,-0.009418489451226534],[0.011277871409918832,0.00788634714896722],[0.004176512979746498,-0.0038964676312207274],[-0.0017971736679224812,-0.014898461742172318],[-0.017218511081484818,0.0005237468307515527],[-0.015299976077734038,0.005855625652319408],[0.0021594996721819343,-0.002105097121982383],[0.009288949082946802,-0.015120247095496002],[0.0051468920557943415,0.01712264395903868],[0.018876237259683164,-0.008266699856536209],[0.007955479948122604,0.00021758794570923476],[0.010095401890400979,0.008835059256347927],[0.02183925302517947,0.005895104811143465],[-0.010917398719959536,0.015717279713605172],[-0.006040465568836607,0.014124021428759527],[-0.007896600702189765,0.006485685812842664],[-0.0014716279730913908,0.02246593582730853],[0.0003495337962759878,-0.0055864423538838515],[0.03446921287831162,-0.01752499563801996],[-0.018509984930109354,-0.016929101822221296],[0.002788093095593045,0.008542918095245051],[-0.014443751651716207,-0.01607601421251025],[-0.01862666123637377,-0.012859656217913414],[-0.003937057016150624,-0.00518036883309614],[0.013469047683434437,-0.0014863533530257488],[-0.00933836605659218,-0.006400340229407085],[0.014050922280860283,0.0038474175052893578],[0.014942780038714402,-0.00010968468701385984],[-0.0062094042966886615,0.0025198467295966523],[0.006785330875651817,-0.007721210182174886],[0.0020309076627239536,0.016769035080706745],[-0.009732679615609578,0.0029430180964134],[-0.003670224346202384,0.007384839248454804],[-0.020696946482950427,0.0071307116785342],[-0.0019261776202201195,0.020832221840690716],[-0.012867926882766023,-0.008042807455808827],[-0.007836224043249884,0.007841060147847502],[0.013046639577798929,-0.00164645087713017],[-0.014322571857987496,0.004070553375461283],[0.005474758392165863,-0.011747365576617725],[-0.003071561620779431,0.006566577453140021],[-0.01064085662825751,0.006160302108547511],[-0.004020585360127525,0.002239784185487593]],[[-0.0034661647290494214,0.01612332323655979],[0.020195691456928684,0.0023242421814926237],[-0.002138457270731627,0.004815964362899546],[-0.004082028821457081,0.008190084247457239],[-0.021897532545902522,-0.012727432963037801],[0.011084575831370671,-0.01947174373118664],[0.013002930783720763,0.01432738672264322],[0.008258482550276256,0.009765402889798212],[-0.005885555466326112,0.007285615755116551],[-0.005985920848889607,-0.0011160688129390165],[-0.0064051070544105864,-0.00785998708096323],[0.002781036936275127,-0.0007791667366632326],[-0.008751300443659573,-0.0072831404312499615],[0.01541272218966775,-0.0013225460201173103],[0.002584110330928705,0.0030957531612357593],[-0.004343111860229362,-0.0028793901320506637],[0.007637061629520612,-0.011347776790348268],[-0.009446048974002154,-0.009278015558232332],[-0.01674689285202307,0.013787451552358535],[0.0014334008575283908,0.0008364646713756433],[0.0017431279506869841,-0.01983585664289611],[-0.0031136193623394143,-0.0015380980857199037],[-0.0028191444855813486,0.0009693453837189307],[0.01105017478115195,-0.0014365809759975426],[0.014247603433408734,0.007831748475017577],[0.00010524958731108575,0.005196629655775711],[-0.020805193078712328,0.001345594208105688],[0.0013224232544864858,0.00030564870267827077],[0.0006716474410323795,0.006921603715722689],[-0.00943136765586631,-0.0023651167753194866],[-0.0015503580611649162,-0.017251871117193656],[-0.001777407727134683,0.012608733050468947],[-0.020918392763299848,-0.01132774876497156],[-0.005224433335085274,-0.011881093772594789],[-0.006419151121655931,-0.013524162829104356],[-0.0033089680660092027,-0.002763619469568073],[-0.0010236781972373485,-0.012062805461452882],[0.018152302577183182,-0.010634214119815206],[-0.0007282135366885745,0.002349668105987991],[-0.005335672141278752,0.005962210563675157],[-0.009815539901198822,0.00013176624509175658],[0.005642861372619442,-0.010787908204032274],[0.010690538192223011,0.019897389349322482],[-0.0007171437776891077,0.005975863392383985],[-0.002051299270280251,0.008666603719288254],[-0.005882143377678744,0.012524440368943941],[-0.005776695322149414,-0.00031261174604517363],[0.005473046260397002,-0.0001756484406182895],[-0.004544174743867225,-0.00270366668710023],[-0.009078419812454209,-0.011394218567999],[-0.0042234683186934486,-0.01168875079512943],[0.015050758512895309,0.014955163859371413],[-0.026607820742953474,0.005890437261550432],[0.003376799892384985,-0.01774546566161778],[0.004380184000687593,-0.01082864980019364],[0.004198050434626942,0.015858971437758343],[0.002471398627207366,-0.012201126768235707],[-0.009689868384009911,0.00209123122524304],[-0.009649514137961945,0.004361014777922415],[0.010066969917511208,0.014875540549658828],[0.011455227817628944,-0.01127005017220173],[-0.024489776998151313,0.01189100388785902],[0.0014415444687382933,0.0010626504660409563],[-0.002697010283937601,0.005438303665720882],[-0.003432419500572198,0.005977165378044634],[0.02078955359990848,0.0021110270726660855],[0.0012529555988571837,-0.013786445018952572],[0.019865550935375013,-0.00924308773342087],[-6.2337383549347e-05,0.007772334362059831],[-0.0071139028031894334,0.0008001500434450704],[0.0013427937042699185,0.023975350119874058],[0.005313779316749667,0.013074148777022614],[-0.024112126763215613,0.01083229978393395],[0.017008560057779717,0.00590458424607508],[0.007466875597750721,0.007235050189668498],[-0.01603472670489486,-0.0019120513543276116],[0.007628862543337115,0.003118259539689566],[0.009830039294139633,-0.00808668357976355],[0.0025924852675972858,-0.004751285508682834],[0.016537198800270044,-0.009989339514946838],[-0.01160403062477387,0.0030739605298179236],[0.02016261297728263,0.0073837516393454984],[0.0006539002215599946,-0.003999289896115515],[0.007830895550529016,-0.01730142786364299],[-0.005599511422380518,-0.017271690613030383],[0.007045086001450686,0.002240136016168721],[0.006381602704743423,0.004504134311165676],[0.008002213299548826,0.0004968738043903622],[0.0036263184686947452,-0.005651585729356913],[0.0006312383655797673,0.00667442734233272],[-0.006426100857080983,-0.0118683335839465],[0.0016775953459007083,-0.0010430537494423337],[-0.02046376850418324,-0.0024888504094207503],[-0.008265134002653303,-0.004343085063938538],[-0.005832565743780297,-0.014021742147936956],[0.01626768519599793,0.005185779718037791],[-0.00772941113997505,0.0028835973675165136],[0.0071774364517824835,0.018924915681380907],[0.011606943624731388,-0.0020169264701226006],[-0.005190675186348675,0.003339378250822631],[0.003400064992095671,-0.00852181819753027],[0.0006788841804424627,-0.000815566581435895],[0.011443928005729208,0.00211321523105396],[-1.6533722482017137e-05,-0.009065250722262535],[-0.023025783086430236,-0.0048259568824888235],[-0.0029709527386600444,-0.023320322090774274],[0.008642579880426625,0.005268290052018668],[-0.015116645169886672,0.002482319492895145],[-0.002681752071286984,0.007806124204022379],[0.005146873079251975,-0.005374263795432555],[-0.004633827964979694,0.005058853693553066],[0.0033496547857635338,0.003791620898698162],[0.010184616980127284,-0.0005715846629515081],[-0.005943131455719083,-0.011076592612876678],[-0.008105829928138929,-0.0005965949809742002],[0.015441136133925722,0.001712853071736755],[-0.010072472145700045,-0.016777666056393727],[0.0007599834165987429,-0.0023564659597387423],[-0.03174029661572768,0.011465599605275364],[0.0041073687387949845,-0.006785138041429182],[-0.009416107112432076,0.00028740410482357257],[-0.009020111297589858,0.003757057278913577],[0.005015198493631296,-0.018044549244089242],[-0.013862854804723497,-0.00020695376119291378],[-0.024616398862343337,-0.0025629165496890657],[0.0024075281002461043,-0.012420542803310805],[-0.0197840955493473,-0.02056005893827697],[0.005118254286176441,0.013131733425427604],[-0.00836879907617916,0.0028759892469566446],[0.00041096749675521285,0.0004889880560544626],[0.004060126744504607,0.0054033531096458545],[0.000690946821055416,0.012697685050381421],[-0.004232665664511892,-0.01370471792045013],[-0.00032863792995396594,-0.002276732839090607],[-0.015974694295223794,0.000693913590660404],[0.008566444347882039,0.015796017819175192],[-0.01144606243400467,-0.013368388365072176],[-0.010077927403286913,0.005740262652950481],[0.02224660671882859,0.00445092582828259],[-0.014713794632788156,0.006500448496610011],[0.0166802966833527,-0.008958879625832892],[-0.008651379640488194,0.012770633970216506],[0.006215017885623937,-0.008171110231318625],[-0.006967653608447255,-0.0009116266530859844],[0.00301062239144311,0.005330410856221656],[0.010393270651546115,0.006046335954669272],[0.017347983358648476,0.00585422178419935],[0.004580569166341729,-0.013475238414811404],[0.0008088146834242379,0.0009505734077787093],[0.003382927820283961,0.010582106526401387],[0.00925457217370245,0.0037301151905583686],[0.003171738559155116,0.007612851307077099],[-0.0027119123058656053,0.004401890135342236],[0.00026766033908769615,-0.0015744230090159492],[0.002624490517668399,-0.02298359824304555],[-0.00011282636503091484,0.0009061090823590539],[-0.0028851174104745905,0.0042879298980992115],[-0.01189287455654065,-0.009086722767025282],[-0.007360002531828427,0.014775986055360863],[-0.0024579891049925605,0.0034399606126448027],[0.005379551734494695,-0.0017228766274824253],[-0.007806756508471714,0.012754676919641435],[-3.9662972405443263e-05,0.017078478245282278],[-0.0038063347429638603,-0.004549916412549871],[-0.006758619173684252,0.01284680079333215],[-0.005274272095832864,-0.012380826845088587],[0.005696135398067177,-0.004373189095129836],[-0.0030414391125372685,0.00948883721371963],[-0.002731166546172563,-0.008852744883332379],[0.008825129312516795,0.004529365915714033],[-0.0025541086655313837,0.015373238556449061],[0.0008714663168532451,-0.0009206167542112379],[-0.009938673942565666,-0.0024919160511139775],[-0.003515464707193987,0.007128199465240619],[0.006799344408905348,0.00689980158458333],[-0.005716461608032517,0.009440031222132921],[-0.01484027430613472,-0.011489079207229566],[-0.004132871679794323,-0.008943656145735907],[0.004261627529673516,0.02111668066277089],[-0.0008534975289689393,0.0031696496126293596],[0.011550397203928963,0.005611864656994416],[-0.0028557380909882977,-0.008866084641433288],[0.007890796376254403,-0.01895092612328097],[-0.0076397385612581945,0.0009025609717816271],[-0.013048287845839007,-0.005145202849842616],[-0.01731897896570616,0.000994318152762743],[0.001732430461690869,-0.003362759808517659],[-0.003966919545850628,0.002664547971205579],[-0.017756176586524012,0.005773239280433659],[0.01239916838636366,-0.0018894296398209959],[-0.0019529860456111194,0.00381970504918105],[0.018053195290459442,-0.008920873822297093],[0.0015909525722688138,0.014431503197211778],[0.002636519939490434,0.005066974989431887],[0.006662137539612627,-0.007454678671824753],[-0.004511207899564997,-0.018542915440764328],[-0.00753348757615841,0.010615740022621376],[0.005433586577040953,0.005138604730690345],[0.004333718508402725,-0.013241804259218157],[-0.016913745169944837,-0.009353701488530507],[-0.008188214927584297,-0.0016349783005396694],[0.0008859108993991901,0.017631617288721896],[0.009807092043093631,0.0033421443144345904],[-0.003260981808877483,0.012412048206010566],[0.017256532638772408,0.015495654834277506],[-0.00044985051958492685,-0.008967798671724012],[-0.0006615856089624818,-0.009023069760060546],[-0.0008684809477430733,0.014264121840939028],[0.003090310267270156,0.0024871833460768317],[-0.012444196222350153,0.004541902194322449],[-0.0025778817444320834,-0.01046325015199024],[-0.0016324080117462035,-0.024806047566032476],[-0.0027713578047586303,-0.007688642599437601],[-0.0010801884779353369,-0.003216078511014315],[0.017996468997272135,0.007175138284234765],[0.017104891362405138,0.013943633088963504],[-0.008259344980472682,-0.00019105392222190675],[3.317419446372135e-05,-0.013373785425193211],[-0.010169783451135131,-0.001827978063024897],[-0.005408604525365923,-0.0030402757768233464],[-0.004875691762878781,-0.01471479218275988],[0.009306526797610029,0.01970367319265952],[0.0027444357937697755,0.0015724378282239923],[0.008082948868504398,-0.00456508022700741],[-0.014816410308711739,-0.009640609811578849],[0.003982130960335401,-0.00036320288067687655],[0.0002498163742807695,0.003484547638537221],[-0.010390108131480606,0.0006469468442760277],[0.015846844305408277,-0.008970559134159693],[-0.013252697993845047,-0.0075728532142414024],[0.00304645325596934,-0.0007078539148459117],[0.013204411632461747,-0.0005368325206271215],[-0.026296511546028484,-0.02105961562993073],[-0.001995147210425406,-0.0034281325953761923],[0.0020881630613304863,-0.0006550567892215758],[0.020669310592654304,-0.014480058021779393],[0.00586997532766778,-0.017709808546643342],[0.011975228474579679,-0.004327643201974133],[0.0012199005994673784,0.0025549687049776964],[-0.010296530533975511,0.011861712935340244],[-0.00883454849830876,0.012297836559474836],[-0.013819379539702461,-0.007256703886433031],[0.006876257297224758,0.00965768419555603],[0.012692032775509263,0.02067881153144002],[0.0032235144786318622,-0.0033161129554090847],[-0.021684672081238813,-0.0034547623768591135],[-0.0014639205694036996,-0.013402416162437153],[-0.004362669120746338,-0.026520464973009823],[-0.0128232385765753,0.0008283150796887258],[-0.0019487548577649964,-0.006947773580587352]],[[0.0040856126143915,-0.000865547099976955],[-0.012669473378286262,-0.010884992670494188],[0.0147038851788517,0.014408924058177631],[0.003648947797072318,-0.011926748448623696],[-0.008834649612235693,-0.007508659975516852],[-0.009698847956136777,0.01685449405547693],[-0.008139309968193736,0.007555093649150029],[-0.001266551037725553,-0.009474765226704356],[0.011269911626275273,-0.004360773932650343],[0.009491505120791006,0.00817075906392422],[0.000781301758529163,0.01154771635201393],[-0.005420186690605839,0.0017317112733061287],[-0.015504961789571697,-0.02250661006422306],[0.0017340560470928343,-0.009970805175664506],[-0.0194332112204398,0.005691291364844262],[-0.0071003917483532745,0.0020311197859970704],[0.0072942881706021066,-0.011031870634291795],[-0.010327858974087107,-0.0262805513637774],[0.0020423635295134606,-0.021379934766595828],[-0.0071311417719152285,0.012223572255740509],[0.0015022233638908378,0.0031295164120186134],[-0.005236335933671619,0.014775509226978768],[-0.004739955387196677,0.005689967015107745],[0.0030254880705914288,-0.010751395291333002],[-0.01795904675020763,-0.0016233516238989532],[-0.01871010534149128,0.011945334920344141],[-0.0023569814908148733,-0.00932138782196401],[-0.021064657211830283,-0.00669831528506184],[-0.008484255238104307,0.008286947605662549],[-0.008564465307514027,-0.007115717740778408],[-0.007196088985138769,-0.0030330288281138523],[0.002616286012622694,-0.010228236404037642],[0.0010882456288840625,0.0006568306465981594],[0.014012458310144112,-0.0029214211213709957],[-0.01150486605435032,-0.008823683396562573],[-0.012652131553307694,-0.023260011021230823],[-0.003545852407646122,0.015425083986827187],[-0.0011027782652344473,-0.015454643225017444],[-0.004300593267799087,0.013215079928660667],[-0.003982136884744771,0.014482919577962222],[-0.0112084073842828,0.011460142264209685],[-0.006270288823830767,0.00101519217046324],[0.008405662173048204,-0.015067191992809639],[-0.01734827600255047,0.001978118984779337],[-0.00014449849293254869,-0.00857705864977935],[-0.015942421075919633,-0.034945157900230346],[0.018770925637464717,0.012050721230008605],[0.001001593657692476,-0.009956466326695848],[-0.0019149179270837328,0.010519078427357718],[-0.012697613569984612,-0.00041092732047078614],[0.010132378363894879,-0.0009135911439542862],[-0.002721848776197054,0.011501802167742851],[-0.010478921202359872,0.01873393892031516],[-0.005609428913035528,-0.005221796698912981],[0.0024840599246486565,-0.009266844532144856],[-0.011987137626624893,-0.015123429163589545],[0.009355506340092853,0.0012866488532483561],[-0.014646983125008756,-0.00021387817808952514],[-0.011722457511761281,0.0007036817589606698],[-0.0023708696949828784,-0.0015006620930412794],[0.006871788793367422,0.003550057420567746],[0.013241309556334223,0.011339044774723398],[-0.0063062656844872144,-0.0016247938466302076],[-0.005450105128414448,-0.004085909810631974],[0.01375738623346708,-0.0020294273885656236],[0.016728133754876542,-0.003953928903640678],[0.006401716556791084,-0.007952253752787845],[-0.000510085384905932,-0.009731406466432611],[0.004461975830411659,-0.004154071509842542],[0.018423611417806046,0.0016578363907437058],[0.01585477393887826,0.014355409941688902],[0.002519049885065138,0.0065342409846795525],[0.011282593551352216,0.017726534623652528],[-0.0036346591628928005,0.014238928215240178],[-0.002059001733918581,0.009077789697779608],[0.0007462833413450997,0.008892009133795717],[0.010091554112982628,-0.027844961067053885],[-0.001630941813538772,0.016854724529241707],[0.02349840771436265,-0.010217972555995656],[-0.0012567138097524264,-0.009822673572191843],[0.008694880303921217,-0.008525018755583544],[-0.021821068604903664,-0.01047700931593996],[0.0016276656745149844,0.008395238860025649],[0.007538699034020387,0.008529817337441487],[0.01309475653261904,-0.008136108195935191],[0.013227428877627925,0.006269256589398648],[0.009309109174858474,-0.0006146437906375667],[0.01529431603580577,0.011876044985272036],[0.005223552280589869,0.003093286727518762],[0.01578482241143634,-0.002020400004275987],[-0.006402716996855041,0.014820939049838167],[0.0022980771240047066,0.0004307790900263494],[-0.004958377386150925,-0.004647927357490378],[-0.0034678914701304405,-1.543796723295907e-05],[0.0018311106827777568,-0.004674001274329327],[0.011951150092138117,0.002583525471209437],[0.009383731852861133,-0.01971913555821643],[-0.009944408112255658,0.0016467997236625563],[0.0038761870660287898,-0.003109770358116987],[0.005770166050221741,-0.004280094032347664],[0.004500700092536217,-0.00590614975009992],[0.010782628981773195,2.99370295757879e-05],[-0.010999256843854891,0.0026587549240876017],[-0.013138217244709469,0.016795118954668682],[-0.007051485339992286,-0.007092968571157732],[0.007938684365787782,0.010447638031807104],[0.002215490321595219,-0.020626366636916766],[-0.001148974902819077,-0.0037692467967136694],[-0.015180941545862865,0.016310872613131317],[0.004889694760755467,-0.0038046032418442843],[-0.015968620852985442,0.010603056362843654],[-0.012008339726477892,-0.00020029472399342744],[-0.01193683654301151,-0.012267466660520797],[0.008338510711780859,-0.009789274904331997],[-0.00253366932431301,0.004511050963533439],[-0.019566388119144035,0.0023363127679081417],[0.009765224320411122,0.020578202534376245],[-0.0007651961497294009,0.00814641192937967],[0.006213304155526687,0.002766152189282815],[-0.00521249037905933,-0.0036422589557970958],[0.012011424183749947,-0.0024467117565098763],[-0.000478767472096691,-0.009177768578798678],[-0.002455294877832217,-0.011165194841213455],[0.019469067215019408,-0.0014111861755614567],[-0.001785289094418138,0.006786861748090947],[0.013374403968564326,0.0061339291959188825],[0.010588790503708957,0.017066664834679637],[-0.02753555894522509,-0.005367336663745467],[-0.011484394985828861,0.0007485533205027377],[-0.003728070167856318,-7.179139661021134e-05],[0.004161648261504541,0.012741693698525151],[0.005256846977573068,-0.018006625875520977],[0.01866764209209242,-0.003807554623304941],[-0.0038602060951330153,0.015201759656989744],[-0.002048084658100276,-0.002423808043648357],[-0.025625037760794535,-0.003987605410179763],[0.00042301918585999494,-0.003417992302754938],[0.003720962831832716,0.002952220340968143],[-0.0028810236885295267,0.005477031967764873],[-0.011055082775800801,0.0008384479192053863],[0.00717820425077814,3.659858972976425e-05],[0.000615178308483143,-0.005323463636069227],[-0.004760983809738407,0.007243450014762755],[0.000415929831059225,-0.003640206966746069],[-0.00802721773532366,-0.008833126955675718],[-0.006113320751588153,0.010391799256334414],[-0.01079547740177173,0.005254360134762579],[-0.011393831999736325,-0.0033040663889379496],[0.004601548156628397,0.019574005139791226],[0.008734530047807715,-0.01351179133829897],[0.002692820676077413,-0.009902678533405184],[-0.00988773684497219,0.0066498974925009195],[-0.009160635961595524,0.011241359861563098],[-0.010946944630014506,-0.0033636706415936276],[-0.004769990586942734,-0.005399789981001087],[0.0021701375495413334,-0.008644192953627982],[-1.846026483320819e-05,0.00907272632641013],[-0.005780056533195576,0.01375045652494054],[-0.017026164568311106,-0.011661646734466164],[0.000915150548381568,-0.011735268765473348],[-0.005977640026935617,-0.005452600774212253],[0.013482353749600905,0.011257069908290356],[-0.0024064308362201927,-0.013695296572682786],[-0.01900579845752813,-0.004117814595172406],[0.013486888327675327,0.0063056940213431925],[0.007259293876467873,-0.0014430858312734153],[-0.019491055319327148,0.001448364664921797],[-0.019774753008647866,-0.02181215545460661],[-0.00034571198420052355,-0.002011545017991416],[-0.005065867727206849,-0.0006224925342837305],[0.014749620773902405,0.011028048186355994],[0.010156612845154768,0.01582612481336147],[-0.010304350460187765,0.02048780027380004],[0.0003011539154237194,0.003898301875367897],[0.011324048215945048,0.0023641151687756397],[0.003672666777914128,0.022992363498933747],[-0.008698231630638811,-0.005708077976334929],[-0.006694165675669773,0.0014288950824954735],[-0.006764323365596157,-0.004092009923874622],[-0.010802133821463677,-0.00520615295576749],[-0.009955369918433982,-0.008683145496251982],[-0.011188939151796608,0.0008369900109834103],[0.008175253753124084,-0.011077476704026217],[0.0025663235249560826,0.007349787023918611],[-0.011483123775375408,0.001495498029994771],[-0.014913212448998608,-0.0009788018255411722],[-0.0013952301728747997,0.009065803229505887],[-0.004939894073304507,0.004639306611570105],[0.020329082228454316,0.006460517036858072],[-0.0024131481686868123,0.013084623318027937],[-0.000537500168939674,0.002804379258614129],[-0.01026914604153215,-0.009175763501836163],[0.0065214895533237125,0.00552416338455839],[-0.006163316208646458,0.003869399603236943],[0.009391546705266424,0.008725274195592506],[-0.005604273979693538,-0.005823865466200558],[-0.004048234671217498,-0.011528263878023012],[0.013441044497083363,-0.008256062231021051],[0.012633739052997138,-0.019765394829146264],[0.017884517853521138,-0.01618910717945474],[0.02150436137236261,0.00627121215340163],[0.004684946477298499,0.00507505027728656],[-0.00561385099598659,0.007065425315191004],[-0.012071265215534097,-0.008280228970391422],[0.004155640740969992,0.0009583861402732473],[0.0026466234688479447,-0.004899828904809064],[-0.006940662713696031,0.017102477611096373],[-0.005667661208913445,0.012867121038263903],[0.006754847609577924,0.002690579579825694],[0.02054531819370899,-0.011940201658731204],[0.008078676618805458,-2.1053306398177788e-05],[0.011434341485198318,0.0034075685114391733],[-0.0033171627543332853,-0.005955087570544222],[0.0030976561210378124,0.003761154684270596],[0.01748958893798259,-0.0027670005313186973],[0.005860247951311158,-0.006613556011996805],[0.0008825499889122086,-0.0034863893140886296],[0.0006354268914438963,0.0028659357651540807],[-0.021436766552902005,-0.0010147543608473551],[-0.004907776005581112,-0.000416665421978789],[0.013387372963500116,0.006280980870185179],[0.005628894140326347,-0.020220857333017872],[0.0002074859035091749,-0.013258323645163517],[0.02216588731330369,-0.0012276130541029997],[-0.01504468699986078,0.004917736936275291],[0.019514783858747435,-0.000992298890888737],[0.015123920794422908,-0.023625219581584596],[-0.020879860652140193,-0.006742077437922555],[-0.001164573093065841,0.008867526204091999],[-0.01046461102928776,-0.0006712910121992277],[0.018787711863458314,-0.0003321488570870419],[-0.02877883345106692,0.0008920653490236603],[0.0004584854436958223,-0.0034852505598298705],[-0.020425658466155315,-0.011878945926085049],[0.005647082832956196,0.014325501158474288],[-0.009894518015076716,-0.012973197449551364],[-0.006073834732245914,2.3954131239062337e-05],[-0.0033180842317828913,-0.005237923848139047],[-0.015778528453669484,-0.006708294923689549],[0.005081987883634273,-0.02009576381399114],[0.002238039258819675,0.0005698239906697931],[-0.00409977637067845,-0.012294676607308134],[-0.00963221438444064,0.014501953429700882],[-0.0012661186389208376,0.02133381829260224],[-0.0042872823087605014,-0.004402794706353666],[0.01912448594677973,0.0006786997678297636],[-0.0002717005142391254,0.00884279852607493],[-0.005245747479338034,-0.014065683746121844],[-0.002819198191648311,0.010137956358449232],[0.015091577874586638,0.015037291179310205]],[[0.005324880051155759,-0.01240923005907716],[0.019871534943006364,-0.0002953084574113516],[-0.006878201425272792,-0.004842273471434859],[-0.019200442084563424,0.015103604147973676],[0.00679862395773926,-0.002131350631246861],[-0.002466952248661266,-0.015776424001694146],[0.0026117606719030886,-0.001977312070545298],[-0.0018928776585765725,0.00712665533385247],[0.0008387760899201968,-0.012892978013261589],[-0.00830757041725348,0.004353786938407872],[-0.003356382131961727,0.001541562038357079],[-0.0024911843158167846,-0.017854256433681652],[0.0014614102415695896,-0.006169474424166395],[-0.008846648463851425,-0.009186132528396184],[-0.013971280073776128,-0.0020634767241083296],[0.014763829881886781,-0.015249184898615233],[0.016209868608591436,-0.007327729030114254],[0.0021147143143666666,-0.019414686888734507],[-0.010511800679615105,0.005011643854675007],[0.008540817676168839,0.006942154392514551],[-0.01511840856934872,-0.011247741425539437],[0.0032219091328883516,0.010709677119733517],[0.006900870016843229,0.01827754446783455],[-0.012339903721106302,-0.01952516660214458],[-0.0007253808885099402,-0.007869208186830194],[-0.005261862567689873,0.004620302481969799],[-0.009751546110903182,-0.004586616273102133],[-0.007202828420754596,0.009298437248074425],[-0.02024111829961795,0.0029595093086374137],[-0.002971283937680336,0.010468305922951447],[0.006140140924507235,-0.011916969059734153],[-0.005170024532924101,0.016681354189987015],[0.004800790759031466,0.016801565979169375],[-0.004908087612753275,0.004458063734694736],[-0.02180051192423714,-0.018149951855811954],[0.012563415512953867,-0.013975286529393519],[-0.021718360830440712,0.008447660161157496],[-0.006654087161901638,-0.0066873880776739825],[-0.002783090317159992,0.004572043038791362],[-0.0023542273239032783,0.0003103997722608871],[-0.012350723926977458,-0.006310936818592458],[0.002679366902742975,-0.010660322398827143],[-0.011287899568255098,-0.0121033972592731],[0.00806490712818787,0.014805103097719487],[0.010542514186090483,-0.005785137841653749],[0.0018757013899700402,-0.004113177392960446],[-0.01120792588688466,0.0006145907739814558],[-0.017987174468978306,0.020540640350805096],[-0.007425764423756767,0.0029519906183662235],[-0.02959051513193992,0.015144791422176094],[-0.011634375752070991,0.020762810126177304],[-0.01819778966260964,0.0023778868953619565],[0.010602605648828487,-0.0072809818133266375],[0.0027133627697192254,-0.001300015314982412],[-0.004304270667150392,-0.008077575594706529],[-0.012526277749714328,-0.019358170479280234],[-0.012812711327920424,-0.0027287842262184543],[0.006999453607169915,-0.019455970722194096],[-0.006166002413445502,0.002178032868283229],[-0.006315171806094606,0.0038976370473006723],[-0.011330949429678933,0.00299382331728872],[0.0021802685766536033,-0.01388287346809026],[0.008952876034130312,-0.0029145537293251284],[0.0005745058304955327,-0.0073554268024232814],[-0.007324862311824166,0.022578930465181772],[0.01412109224793354,0.004363944382037992],[0.0007369233800061921,-0.02198261638823879],[-0.006176170772526355,0.012262594013699689],[0.00179069384361501,0.00957986554265462],[-0.008008903276680968,0.007764626756490561],[-0.0026554173006891387,0.004226258903508954],[-0.02451595531421567,0.013035520570187675],[-0.002601666522770433,0.005910420726826124],[-0.0016314624964823856,-0.006439200585743459],[0.0014121665941340777,-0.0028504965551131014],[-0.005775133379080671,-0.002007038642416111],[-0.0022599822849048994,0.0019128168797815986],[-0.013120669533640047,-0.007097799921962879],[-0.008198782026415151,-0.016539560210446655],[0.008233705060580241,-0.02022695664273629],[-0.015058022596161815,-0.014471326946009062],[0.000945955906083413,-0.015260373805139409],[0.009523241772393394,0.01457354526533051],[-0.009824082724544285,0.014416252362254887],[0.015620170286319547,0.014374884922122693],[-0.012969534169372455,0.004685036987828952],[-0.03890579883836841,-0.006624417864694421],[-0.011242583591088156,-0.00415591631524175],[-0.010961892427845234,-0.002195515008927701],[-0.006284800160443389,0.0017814136853727758],[-0.015926330126999948,0.017021441754883147],[0.01760920463868271,-0.009169286511107325],[-0.004654656524165992,0.0034630208879231077],[0.01425553391721459,-0.027215545153852855],[0.00712141497556503,-0.02552841305363336],[-0.013775267527507287,-0.00556106331471689],[0.003952715116052843,-0.008577476130695497],[-0.0066486664394259185,-0.019442492596573043],[0.0016623121552095338,-0.009899963744579746],[0.004242058596900639,-0.0034179910440778572],[-0.004537068109020924,0.0023773136070702745],[-0.010634725072623726,0.006285538594455539],[0.003961229488930524,-0.0013953724760696774],[0.02178183623605197,-0.007106027607519834],[0.006952620480343923,-0.0005770219736347516],[0.0002958046465398906,0.005802858054932967],[-0.007534058200372673,0.0069966061588378715],[-0.002914801234060115,0.006866571321540529],[0.005724529777336325,-0.012759077112495356],[0.003337302517405503,-0.00063994626310313],[-0.0037590276248053722,-0.001617259825722145],[-0.013161035161195338,0.015010550313283159],[0.00045067954922698686,0.013006617205343008],[-0.004548721884560672,-0.00844072788761019],[0.0027403919149962186,0.008647917001278073],[-0.000720095810931279,0.0009549694466381214],[0.03453334758019906,0.002279401425590622],[0.0014908332797494211,-0.010876512277198744],[0.004280747079962763,-0.005988640484210272],[0.018299961723804586,0.002471694124005482],[-0.0012727901534579868,-0.00932280898137109],[0.003822644108261747,0.009241738663014016],[-0.004454305615337453,-0.0029557326436789517],[0.012576890582154502,0.006097512582402464],[0.004418455016467651,0.015313751666089942],[0.0032604027084840535,-0.009690166375013947],[-0.005243242284492593,-0.00509122129708683],[-0.010961779812043129,-0.024485663225547048],[-0.008577627297971336,0.024034692227626653],[0.00021561974414237506,-0.0014570780895855164],[-0.007288917648085275,-0.003483348861846791],[-0.018186880202119848,0.01019063464731792],[0.004366643631377924,-0.005740692465157781],[0.01218147747756202,0.001616667639386595],[-0.0014152969739039964,-0.01686336695047131],[-0.010858898963910018,-0.008631970846419399],[0.0016790055849870093,-0.0036120624251689544],[0.002470935410146309,-0.0036488105365097495],[-0.005727753921241978,-0.0013163846993024149],[0.023494956347767923,-0.007162765007554819],[-0.0011086273470639052,-0.001337867109886078],[-0.0022975046488878095,0.003239831258213411],[-0.017972358084522057,-0.008675373358515105],[-0.0071353052105253695,0.0028300713929016764],[-0.011369328216883823,-0.007185298561015052],[-0.003038365819543449,0.0008622223925150306],[-0.01854925461219323,-0.002588111961912505],[-0.00013343567561137663,-0.0036602950421438982],[0.004458680106095398,-0.004156913818745417],[0.007887228332205284,-0.007087495980790913],[0.0017054403120376745,-0.011468156519214949],[0.0052130923666163604,0.00142453566689293],[-0.0064056913155225315,-0.009648830799659865],[-0.0033879430229651953,0.007376766081015151],[0.0007933571712419468,-0.009147985426752278],[0.008964806379083687,-0.005483717141744042],[-0.00269836063151695,-0.011000943139977872],[0.0014640258311806238,0.014593278868737021],[-0.004313632821660978,0.006305545541112956],[0.0009278356447851772,0.001973836339628356],[0.002175912174188385,-0.005878951850167932],[-0.016706692160891656,-0.004027915108411941],[-0.007482284175020496,-0.008356446473815312],[0.0010293177027286687,-0.0056774774297613986],[-0.006377268368509839,-0.0016397920832701579],[0.019631743310469435,0.017191706144889053],[-0.007080580479345985,0.013051602198030126],[-0.00375948091687918,0.0015300381750468805],[0.004374008932975346,0.009910563944223195],[0.009558723141780686,0.006642380400816395],[0.0037290459391044733,-0.01946552201143519],[0.004997885866084536,-0.010319820812976601],[0.007972657034273094,-0.0027323854670047343],[0.0020613390448015346,-0.01822668976210545],[-0.005305629765489552,0.007756307907957235],[-0.007119670107448498,-0.004971923727417338],[0.01808169271698078,-0.0035675912866183004],[0.006061023520921502,-0.0139759903410664],[0.0010293610488672639,0.0011428341035223453],[0.012170481479030425,0.006066373147843299],[-0.012540750215826542,0.012405563804357193],[-0.02320759764350177,-0.002505832616596111],[-0.017098086195272064,-0.0041508851434073745],[-0.01371547742725201,-0.006684680772699624],[-0.01999365447060055,0.007583284495681875],[-0.009908440189333045,-0.0009948524641508263],[-0.009579302429687785,-0.006751291691753185],[0.019447896545653525,0.007644473302358827],[-0.0035714134396014167,0.0001925981561815423],[-0.0006514492355141506,-0.014553881056477102],[-0.012110769044754213,-0.0037397186370744973],[-0.003151971872718828,0.0038592312491647577],[0.00989337695131142,-0.0067784043924301795],[0.009056531445108389,-0.0031338688078757174],[0.021512078741869785,-0.005912778002473504],[0.006524454085200414,-0.0028820839557350732],[-0.003075745129436808,0.0002454734885086035],[-0.01570089689463472,-0.026272779932733612],[-0.009941861805898669,-0.008043314424304893],[0.002595330736579523,0.003005978670624139],[0.00828827157375796,0.00870364431503658],[-0.02229301456497096,-0.002529824690372753],[0.0012691129903241796,-0.022161550907745867],[0.006391277081760993,-0.0037052623616549976],[0.017010311766622557,0.013305035492940712],[-0.0038112496992666533,-0.01627337861250527],[0.013923129735254846,-0.01214252423370721],[0.003751243355870828,0.00765766083638703],[0.014625622368870297,0.007293841976730307],[-0.009889258741791791,0.008992220784656526],[0.0007465289176238113,-0.021982703189546128],[0.012138592384155869,0.01893750481833836],[0.004224394755432924,0.009217911175235233],[-0.014122544524716521,-0.0019080361624885193],[0.005098181137239603,0.0008992481299517274],[0.007595524831703436,-0.0026148018331834575],[0.003861180185011584,0.01351366108077634],[-0.007395742653237201,0.0024175238590677306],[0.003672069444449087,0.02176128156489273],[-0.008287649051790523,0.01774614726899581],[0.015195006078216472,0.00865441753997833],[0.006262303354832247,0.007548343269451133],[-0.0019059662839971418,0.0043936070073892965],[0.006177971093622168,-0.022858938281426173],[2.9270603582482683e-05,0.0025786533602542004],[-0.0061427559893914956,-0.015145744431457591],[0.022440020547590166,0.004626041516463295],[-0.010557735075039964,-0.008322539970764714],[-0.0010791809605922523,0.015921949583862175],[-0.003293617635301773,0.008573641561249377],[0.006886601928172697,-0.010791071676611726],[-0.03712732785684953,0.001710159328205234],[-0.014556196348682821,-0.006152044811101841],[0.008920296097969183,0.0031565949484157734],[-0.0027319001355841296,0.004668527056658994],[-0.005283908482720133,0.012576600480898063],[-0.0006943718785981334,-0.004461848307394119],[0.004135326415674263,-0.014835289942216648],[-0.0056589620470446295,-0.02275398793415141],[0.00972584612988869,-0.007529757231210808],[-0.01427436685738273,-0.005109601698327408],[-0.0016740076853449912,0.021614378808344572],[0.01095458158987675,0.012512614160481682],[0.015560869419215287,-0.0012769867666998982],[0.006286934940153834,-0.006251686321031808],[-0.0012693713959968057,0.0026068862951536594],[0.001593947624455509,-0.0017754687701245645],[0.010971607300488911,-0.004616325411329088],[0.006199949998260792,0.008574100611990005],[-0.0023985189606119403,-0.013975914861661743]],[[0.015537590654917804,-0.002203666023335424],[0.000130555751124519,-0.017690665441215444],[0.012876555273438069,-0.004061370086362948],[0.005032796039177367,0.013250711510299846],[-0.01302961442931288,-0.0025515819248386478],[-0.0018678275869432443,-0.01875755373454342],[0.0005155650858704893,0.005498843012074659],[0.004106916976175385,0.00458922593059042],[0.007318160849226337,0.01216278239556844],[0.014138848540182339,0.0064431798572607505],[-0.008611116845290591,0.015211000623950576],[-0.005055982604228672,-0.008103993911733637],[-0.0030609102889136565,0.0016976044174583983],[0.026776328420761865,0.006355215873340925],[0.00021766001029734745,0.0008496099698446326],[-0.0012197915120872103,0.0035974874638240867],[-0.014176959549598984,0.00609834148132474],[0.003705709995946738,0.006027108217016755],[-0.017613146238244216,-0.025002195858558195],[0.020956857725421742,-0.017140968113647438],[0.004226592993522833,-0.010470806978239867],[0.006654901946248806,-0.006177209567399268],[-0.009269710471693563,-0.014221084309733309],[-0.0239235582150992,0.010391386778344265],[0.0005047038576582684,-0.008461030971138357],[-0.0053506105917655936,-0.0373644603903726],[-0.014838250462957064,0.0016496220155776701],[-0.013935791540211602,0.019184317716470795],[-0.019843408841805712,0.004425606498524465],[-0.0006563205526275341,-0.014430383840589438],[-0.008402677035749272,-0.005954420348088341],[0.009927488608737902,0.0026178707405702796],[-0.006795526540796163,-0.0008457474610045952],[0.01650866847691935,-0.014401226794535812],[0.0018566731988356147,0.003319483983481337],[0.01850939286281359,0.004656397777600157],[-0.005482323754413582,-0.0008100333548785143],[-0.01388759276736581,-0.011703333497361591],[-0.0010573566768973682,-0.011291177016144462],[0.004452031149305028,-0.022709229471375995],[-0.014627837630239643,0.011945584326174086],[0.0068516739218476164,-0.00399122145129675],[-0.005043719958014309,0.008768111891486829],[0.0003377159107834036,-0.008890187705675245],[0.01143193770629446,-0.0034345995082123043],[0.013369960627250668,0.021125913115657622],[-0.008908139950722779,0.005949129107884192],[-0.0005692061552150139,0.009779005162680411],[-0.0006687055293836681,-0.0047549190044300855],[-0.00342890921681738,0.0008078802107503039],[0.005743029284940762,-0.004603608778459285],[0.015167491571992962,0.003495732334561429],[-0.0015276895225336926,-0.011382230690479347],[0.0012583028905928232,0.017329653239896825],[-0.0002754724416498363,-0.013693203278378994],[0.022708440720286438,-0.007814561797165592],[-0.019937397393620535,0.012678605165819262],[-0.006458220623634681,-0.008384342190004196],[0.001025264572211762,0.0022624909341378333],[-0.008456582105351034,-0.0007692795719063883],[0.000887660113740826,-0.016198850342037812],[0.012267712505872368,0.0027186474450830544],[-0.0008723708806061279,-0.001954221254222238],[0.008229951201056789,-0.002747241580583522],[-0.029968149598877336,-0.007242686846084509],[-0.005630032342697231,0.01653372439614247],[-0.0005064063956308575,-0.0018092694771985],[-0.008787135543328124,-0.011833272906890435],[0.015961218948441713,-0.0021044164939007957],[-0.00043554106506247896,-0.004046454915179435],[0.012816838361055792,-0.022287462825372712],[0.0180096406318728,-0.005877510861025391],[-0.01567737195541893,-0.003544482803357025],[0.008875359859957447,-0.0027986224512432057],[0.0017725058409453088,-0.002413860157901313],[-0.012360454812805585,-0.005053144398940416],[0.012353441420953204,0.00794500286929496],[-0.011328289346791082,0.006279119816247778],[-0.009485434893961414,0.020121510528191305],[0.004236670896610416,0.010774843326852359],[-0.0036916170979000556,-0.01304669304088747],[-0.019083545575892685,0.006439032764923513],[0.003727364627621552,-0.006024898041449809],[-0.021471251749060272,-0.0016198593672909335],[-0.010961980517704535,-0.011365629253439704],[0.01140068907119294,0.001260065495113194],[0.011593369668879087,-0.0017343329766148197],[0.00623764679444183,-0.005239220247695487],[-0.0071580076585593296,0.002747989591688426],[-0.011006237655879362,-0.010065274143796972],[0.0030663981431023214,-0.0019986970549940287],[0.006695752587529486,-0.012937199826693713],[0.005872950445779276,0.00809660123185112],[0.008237968879112495,0.006347312130388105],[0.014379775941046004,-0.004365535979993731],[0.0035475754974153583,0.011367789179109104],[0.006816308337947085,-0.000325642158729967],[-0.010047144453822014,0.001968297449035034],[-0.010710429971556133,0.022733451055601542],[-0.0029089681175700375,0.003857747057065345],[-0.011604700345436893,-0.01899979032000327],[0.009494624886269294,0.003583379025872898],[-0.017761382291713774,0.0032901232412297157],[-0.0011776377260933903,-0.015159993310473997],[-0.007713427441681396,-0.0028658882289785085],[-0.011684237235752678,0.009029321276511994],[0.013887398882857324,0.01070343945545724],[-0.003547555971658887,0.00473650845280229],[-0.014288322884900239,0.0036908424910044417],[-0.012710282429408165,-0.004424665713269686],[-0.004522288049769622,0.0014330675490226129],[-0.0066434593572090245,-0.010730856306144081],[0.0008130982674267489,-0.005682928353728153],[-0.013457324857934792,0.014226028302736227],[-0.0016619929509127313,0.019837650391596923],[0.006727894171008337,-0.002714647905269285],[-0.004026144824121709,-0.005599527685581265],[-0.005270035924376765,0.006069100439776879],[0.014401336174808332,0.016608401380080257],[1.8668262539450505e-05,-0.016595038963154358],[0.011138032776313478,-0.001535293232972406],[-0.005212219530488277,0.007295064317236489],[-0.0018407789070715465,0.007647614183754191],[-0.0013186558709434874,0.009503957975048574],[-0.010120319675609283,-0.005823389573464932],[-0.012045787022410458,0.0014657382747898032],[-0.009224730298286396,0.0042270582809652395],[-0.009489833416517672,0.0023438191479373607],[0.006809980793481286,0.004965008232556107],[-0.004120208856348853,0.021757510196575416],[-0.004084778432574229,-0.016780552840002176],[0.012808395418268871,0.009271475034458448],[-0.006337842647121404,0.022333789993706832],[-0.0007023831138946323,-8.057238373842504e-05],[0.009530925734184906,0.018293511078195532],[-0.010252989712618434,0.009836282946948924],[-0.010297000128901536,-0.007843794515993112],[-0.013611442127320697,-0.014503376278479113],[0.008227213071511566,0.004878524906998706],[0.018301060226522718,-0.0012416575898793298],[0.007913058981439843,-0.005708846003592368],[-0.007532224533660481,-0.013159642059248315],[-0.0012084456352763784,-0.007239483750025453],[0.018974329287631667,0.009657753419918966],[0.01823977912981024,-0.006992089829575341],[0.0021096953698913003,0.014650379720639064],[-0.012484734912761124,-0.003257205162841798],[0.018414732756891525,0.009704968429541699],[-0.008357718232341828,-0.008274767008809622],[0.0012491113716516543,0.011935852849550836],[0.007705543811235887,0.01551793784808959],[0.009995041189998466,0.00895753715676824],[-0.008684472410545938,0.007588461309805082],[-0.009166738246464464,0.008278156907103141],[0.005888176215064375,0.009537882622338593],[-0.012541286811694476,0.005061379598449449],[-0.00584154602320173,-0.013910967679438788],[0.006676067356107159,-0.01018485514614686],[0.015270092099632829,0.029112530398626355],[0.009229622466164909,0.0026220603650875147],[-0.004255377869079591,0.020803113391456702],[-0.0033056364825228613,-0.002293657049144318],[-0.007081625722501292,-0.0016987699090761958],[0.0028306462173868984,0.017898727394986037],[0.01244362208165293,0.0018730705397209503],[0.016402189883887114,0.0038563310800889756],[-0.007765125685075659,0.010279849864085663],[0.004969928358891983,0.011885842782125716],[-0.007495219873295337,-0.017291703487311197],[-0.00986838924948272,0.0012267876606776112],[-0.00299531021948089,0.03564495279955664],[-0.0021726526376425605,0.009666068514949321],[0.009431692543478126,-0.0066740657443640486],[-0.007188210989696004,-0.00734288817553735],[0.015611405730860733,-0.02436830979363719],[0.004600821838513436,0.001292837538026327],[-0.004737274692878775,0.01414949605549285],[-0.00187296572647933,0.01849203970601469],[-0.006342603170482722,0.0015036621312338478],[0.00875309644425657,-0.007157262160810299],[-0.006007083495557012,-0.01479780743129793],[-0.008105891778013491,0.003703907023889733],[-0.00718313149497705,0.0030316670611393584],[-0.005793028382472246,0.00964742810702356],[0.01736270010192878,0.01405444082278183],[-0.014466683261898053,0.001118988185941515],[-0.002460147723564698,0.010357322031688081],[-0.015658481363818814,-0.01662919139924538],[0.015802162294506972,0.007619029292357785],[-0.0006838199278878369,-0.0013388396044433939],[-0.011791768724529432,-0.00750403548223879],[0.004732860058484287,0.005594005867611433],[0.004929504961003625,0.010035729988998892],[0.004057616052543099,-0.014791743722850524],[0.008504104660936552,0.00901909904771609],[0.006865140072147373,0.01865083891113605],[0.006948995046416318,0.00973421401411342],[0.007984258497355415,0.0073290227886647465],[0.002034971273222476,0.004600039286302116],[0.01238058807285792,0.009491577432703754],[0.005245422859740311,0.011377066160628562],[0.003775646054958763,0.006845588696293062],[0.0017768589879358554,-0.00957526093415511],[-0.00838950825324489,-0.0022885894868950847],[-0.0018506404354579173,-0.00574333909615396],[-0.008423901614896897,0.013903715392326243],[0.006659518441584941,-0.018162912042242765],[-0.0015674168403315549,0.004802168755528251],[-0.011959835334718973,0.004493711819574992],[-0.004986102905907616,-0.00428981998973012],[0.0059344487599774405,0.0037615687359445695],[0.02198610030925498,-0.0003420730946378499],[0.017400364050550992,-0.005197759556658125],[-0.005326387308562452,0.000772550710911483],[-0.008175249333309974,-0.02609181007769405],[0.002924316642261778,0.007766211676477602],[0.006238131444389024,-0.004090704087693263],[-0.002123645365903039,0.008378037559763433],[-0.007139442106326086,-0.01018019283466347],[-0.009383313378284974,0.002038169468239349],[0.0071198013574024655,0.0011385526585423421],[0.023302576047007296,0.0035846064813471502],[0.0002301947904450205,-0.0022063520296620783],[0.013073830982851625,-0.016978809456747946],[-0.0004242074139257433,0.01175831341023829],[0.016211026298138354,0.006444556238913491],[0.031586377779021166,-0.0002333013681159947],[0.0045173545143628036,0.0003179777015332628],[-0.00862125967883002,-0.002336394171998823],[0.0008170437571752317,-0.007582024321640505],[0.013885204660848098,0.004526055980415904],[-0.003943611004452196,-0.010862422227805184],[0.0010397532180320718,0.0007727044640936296],[0.0032191903558342356,-0.0015924954043343275],[-0.011391309887512947,0.01314904959986219],[0.0022796121677533436,0.0038352443964065606],[0.007474143565429413,0.006380810744074762],[-0.013134475467255073,0.001018518694591979],[0.012729261162742894,-0.0057207604980950375],[0.0034077606611834384,-0.0037411933461380968],[0.00037017732769080046,6.337535431945763e-05],[-0.001963312762765912,-0.006066956004786826],[0.007050880000664261,0.0036393684569970258],[-0.005161828955599865,0.00047984631811820444],[0.0068908842953643605,0.009158629313337404],[-0.009599673566857059,0.0037310214023043675],[0.018143054899618385,0.005386737716849008],[0.007160553812428736,0.029328587393955687],[0.0009955452114167734,-0.007459035875246671],[-0.0057884362734697565,-0.004100996260405085]],[[-0.004535495725187826,0.013666769427327342],[0.00789907423805569,-0.0010834543892988963],[-0.007570425255171874,0.013022959766934438],[0.013404292990244914,0.030471055207754918],[-0.020368610299685362,0.0005136785308967874],[-0.012066637248740367,0.00029885711924147827],[0.007699972405894975,0.01571907530295092],[0.0026704846620652723,-0.005759161456237597],[-0.00988320739092845,0.010308808184019115],[0.014667725701641196,-0.010340673938190756],[-0.009346306969243804,-0.0063858416363357234],[-0.01603613554363424,0.00914660602089587],[0.010408150193733338,-0.003948399573416036],[0.0006073460571132027,-0.022960539660108623],[0.006197431358891959,-0.012872727467176444],[0.0006816388753250592,-0.013988139451291369],[0.013053341869773579,0.0032590562431680657],[-0.011263730012834998,0.0012699245823351735],[0.011001615430918259,0.004384596603923421],[0.014245707322559737,0.008907720626430766],[-0.015925903229773768,0.0038344812481808815],[0.007383623744479965,0.0020282122662715397],[0.006006481117126431,0.00837163551959002],[-0.0008349896756069365,0.003718138448257435],[0.0001407516534834731,0.0055603067274454104],[0.025511019955348418,-0.0018672100282200116],[-0.0010464115856033912,0.0038972741944162366],[-0.00514642873792848,-0.014185789782441807],[-0.0040047877405526315,-0.0029628335076901666],[0.020569171440392837,0.01788676889318378],[-0.0018299719395568582,-0.006448059102805256],[0.021781979944445386,-0.008175892145942654],[-0.0058195141163302445,0.01878383236342208],[0.02437170228171116,-0.014213649844952126],[-0.016115085913081043,0.009002884199702096],[0.002311123066934148,-0.008562501941231591],[0.007104750904720116,0.005176257679725909],[-0.01774560144204025,-0.005135926230360492],[-0.0013680215840175813,0.006843030713249817],[0.010707068446515762,-0.006553802402967683],[-0.00031056896254852775,-0.004774515906270043],[0.0012783454592701572,0.005933975229631396],[-0.006874779098278064,-0.0038440620224757405],[0.008659584811618624,-0.012824508190512425],[-0.004382363844113542,0.0003481944894317602],[0.012522566132915044,0.006049646372872887],[-0.016856072114465107,0.0012630254585366007],[0.007991513976508971,-0.004305870985386229],[-0.0015856798530436613,-0.0016619494188144465],[0.015551192342179188,0.010671161304289443],[-0.000628389647238987,0.004570398892333766],[0.005643629250413118,-0.007517508683341173],[-0.0014548280618683505,-0.004512040847152196],[0.0016648137908736678,-0.012460206370258018],[0.004294282156015597,-0.003474267470050157],[0.004528044671672001,-0.005210551646333784],[-0.005818101130647309,-0.015564574361245646],[-0.0028731201585590347,0.03373426750772282],[0.010768197412064844,0.00718084302105599],[-0.008477546949127144,-0.03541794870508728],[-0.009132793980296698,0.019042411810515567],[0.0045851207837963835,0.013090973457272082],[0.017718023681779146,-0.012279515471237198],[-0.02951858792215157,-0.012686514469950899],[0.008181230227647891,0.011465402088903197],[-0.009503292917172047,-0.012450491285089703],[-0.012885771817199928,0.016601107923860315],[0.0003484029852802698,0.009006362865759331],[0.009381860418642734,-0.0034359500288289966],[-0.02133284027276634,-0.008685884510970257],[-0.006142619175509618,-0.006717174344030324],[0.0018230432570943752,0.0008291830936570412],[0.0026765591293511732,0.003508122855544418],[-0.002553555978986031,-0.003491282932794543],[0.004990079730162637,-0.010346057324197484],[0.0004313812504693265,0.027189421599606498],[-0.004757209876272211,-0.00969633557085152],[0.01907279525611905,-0.0021076864554242596],[0.010021838169560803,0.0006700229820793494],[-0.008133537187263956,-0.013506565799528943],[0.013455704318240978,-0.01268338759206382],[-0.0005942016942364777,0.005864071904278064],[-0.00012756901896377392,0.003313668759730566],[0.013802636842019794,0.0041374040470481994],[-0.004888768593290711,-0.017736718325126494],[-0.01612740156145049,-0.010843022968237796],[0.0019206355444806372,0.012718366281100103],[0.008601717676857157,-0.012561915089977633],[-0.012318548776987962,-0.002780326602671296],[0.004057095489387528,-0.008584068426740294],[0.019315785951333327,-0.006003821532294796],[0.010651308367941748,0.013651242789251703],[-0.00360978069680659,0.0002055678810691669],[-0.0071861355190140225,0.011675085880323122],[0.006971787125032306,0.016053368500832672],[-0.001166285459263276,-0.00011515869261709505],[0.008908277075876124,0.002028108173434926],[-0.0019063331990553322,-0.0006692851984625989],[-0.007098039874139708,-0.010116633529704105],[0.010406598032245827,-0.009217368658984131],[-0.005066170114257345,-0.006431172213832443],[0.008399389200750982,0.0013716801985430875],[-0.028096480453949465,0.004923014672721187],[-0.001970495095807722,0.0029718488333242577],[0.006956661993263497,0.007258033651133941],[-0.006620209215664552,-0.012379536222966173],[-0.007428940251298814,0.0016380393732487787],[0.0037548960127029574,0.0035378168354038095],[-0.011129588118148053,-0.002014770704187005],[-0.005057100260791465,-0.007784903216344218],[-0.010660403024175038,-0.009740555966936642],[-0.008300980419451476,0.0023314206029098287],[0.006986523706262816,0.011157406548330303],[-0.009195122169307067,-0.008815018272580433],[1.3352631131507845e-05,0.004157973051072925],[0.008734636869213455,0.0007763623381281928],[0.014236799169663198,-0.0010887069410073346],[0.010086093892462292,-0.001154883577123427],[-0.002229662457088119,-0.015674194924730975],[-0.003538115102443744,-0.014194183166039692],[0.013251174309242403,-0.009046908613830267],[-0.006706633059191646,-0.01400618006718068],[0.0002049374169755476,0.008006855070982175],[-0.005216491310754102,0.00154684667465106],[0.004926631046038318,-0.012767094796820495],[0.007583360607531478,-0.017441499278919075],[-0.006444814840083466,-0.0018690763948359024],[0.010721506708393683,0.007635328777047715],[-0.013996503949508052,0.014332993152395977],[0.008065739516227988,0.017874604795549656],[0.012635660234492948,-0.007171050548987429],[0.0063901905926333725,0.0007630165228266371],[-0.005485407588557234,-0.01652427972230546],[-0.0037527551973325596,0.00995508035636907],[-0.015501204014442804,0.0010887640090640482],[0.0013130886817524347,-0.020106106020576962],[0.013165487983438577,-0.01270093711547498],[0.015239144365112726,-0.00018515283384765965],[-0.0009195308925202812,0.007159653788864225],[-0.003106607660390497,-0.013297447831100555],[-0.01045019889552414,-0.015819017565720274],[-0.006850520726251788,-0.002045039543483058],[0.00615534503786869,-0.00949589208574481],[-0.0015009947063564634,-0.0023791153062400682],[0.008113829221486206,0.0025983359964613264],[0.005141380554992718,0.011435687456696734],[0.011592238483873118,0.014768799444754654],[0.018091842343013614,0.01910276263836886],[-0.001030342691436283,0.0004998805498845872],[0.008943469934461393,0.02186723560317669],[0.00036316317241534053,0.011549276062407254],[-0.012574043719954546,0.007023456481868896],[-0.004392766837936132,0.0015677517906177692],[0.00937763807441318,0.013749214675773856],[-0.004848216587947579,-0.003878238600323784],[-0.014687716495234978,-0.0009517906677959042],[-0.00569460481626893,-0.011659856993327224],[-0.002864713228345324,0.007454303337424463],[-0.002221292969512214,-0.008100460897952019],[0.008583916978367082,-0.0001842281903564457],[-0.005929613962906867,-0.0012499455898362212],[0.008451326608897655,0.014833885095708866],[0.005872991792816759,-0.0066521091941851565],[-0.021053166348101088,0.007114433944942075],[0.0022911071852228016,-0.008016208149051695],[0.027658602990485986,-0.009849521586784],[0.0012708276470961197,0.006129403999922389],[-0.0009972701814394522,0.00048749804213965076],[-0.0019637529208521676,0.0021180595231510193],[0.0037618449760451374,0.010236084498615435],[-0.002826790384275937,0.006477123484669554],[-0.022031953753997607,-0.0049135175111159595],[0.006052166669598713,-0.011521324325188141],[-0.009826034901166207,-0.0009924640387302841],[0.0008710314405683642,0.000977613245597795],[-0.011837257755511688,0.0006977344348873274],[0.004746814953744623,-0.023597452750944128],[0.005757831951293511,-0.015524644058043362],[-0.009266940728419793,0.01007427991162491],[0.007889564647495758,0.005057888242032589],[0.01128265919397224,0.022695973278028452],[0.010827467011460862,0.002293155319219821],[-0.00959287113425655,-0.011847914345179731],[-0.030027071283792103,-0.012476514847363781],[0.0008560664826226688,-0.00331986432802941],[0.013034556200423916,0.008066157608536276],[-0.010526890047850759,0.0074687744160681505],[-0.004420845273911366,0.017256213679104727],[0.009550000006318905,0.001262790361100532],[-0.007751418596389963,0.009444651244926076],[-0.0027053274063265653,-0.005912913270935868],[-0.014059874395818408,0.0031824620480046533],[-0.004029485587258354,-0.015859725910401825],[0.005935499803795247,0.01062674581020434],[-0.008719504083302373,0.006383213752642463],[0.01538332801392316,0.005185787259196651],[0.009103522362590164,-0.008032492435951145],[-0.004702009129097919,-0.008070871516985578],[-0.0005237512379279252,-0.004483658734601223],[-0.00917402040733632,-0.007016867242613951],[0.0033765457811865823,-0.008428868573767139],[-0.0016690121952999785,-0.01095239870393322],[0.007424899153680674,0.007538713251502748],[-0.013165577410152573,-0.0029668666357575376],[0.0008385222758683909,-0.0033288377458236323],[0.012936229247299973,-0.00016252218843846916],