{"Name":"RbmSpin","Nhidden":250,"Nvisible":250,"UseHiddenBias":true,"UseVisibleBias":true,"W":[[[-0.003635475301604768,-0.00554713756152235],[-0.005105466937964647,-0.003993425790740403],[-0.004796616989167314,-0.005749018046376578],[-0.008001478500128553,0.007512066393065333],[-0.013857846175641142,-0.0033158555944778952],[-0.0012467945366885333,0.003977392705662359],[-0.004338702552107668,-0.012592973922131982],[0.007533225084523603,-0.016530781403730092],[0.008451098659504226,-0.009294256783875736],[-0.012182109086849914,0.011471461803337961],[-0.011257293104365835,0.00839259493792309],[0.0067721075512645265,0.020049577694508585],[-0.01989618149588171,-0.004319733930208638],[-0.0014701941506411853,0.013314080308308992],[-0.011438063239599346,0.0039605295292161275],[-0.019263885622380603,0.001975206190177054],[-0.0021455147453486962,0.0010303019927179631],[0.0067748238400501025,0.011581156300873583],[0.012323127856121876,-0.0002609712519974966],[-0.013259651448434459,-0.013601281272871671],[-0.0012414138697973056,-0.0015617928637860704],[0.01159826940973023,0.012530466741414666],[-0.008079559633087109,0.0012744970009065473],[-0.0019608458345021923,0.007561718257276112],[0.002030952381658073,-0.014504908721636603],[-0.011445356604468816,0.012478915882107436],[-0.011055447618176905,-0.0022818317334111406],[0.0016191866052466574,0.0033149292214204925],[0.001319046293417272,0.013024410571620149],[0.01880277044947759,-0.005264814061911186],[-0.003334051694037507,-0.004011466820809729],[-0.01165931925136799,0.004468647885882093],[0.01112778690902394,0.02363245900448476],[-0.005164947084507834,-0.019494917925144226],[-0.0026492535562717915,-0.012301715112556323],[-0.016078007847850316,0.008865759587708771],[0.004519555058659836,-0.005530668621557808],[0.0045666445259596325,-0.0006125734934575615],[-0.0023103408029728203,-0.024259467019083485],[-0.005254849790782914,0.02722595080528305],[0.010801396019489276,-0.0013544736492807786],[-0.00663511988416802,0.013576064259999234],[0.001091480903840131,0.0099882385038038],[-0.013524414444565163,-0.0018973898400777792],[0.011129478168242439,-0.01625398119769619],[-0.020279196585661192,-0.004318007658181727],[-0.01609292325192163,0.007625223515113361],[0.003846931122316693,0.003980717498935716],[-0.018135406397947335,-0.0015980840868389816],[0.016632493349637654,0.006483505934186066],[0.01982135913997373,0.0001134283627076205],[0.0010890963622812466,0.002984569665653679],[-0.006970025170331538,-0.002473797620927557],[0.012893650102211798,0.005797816092379546],[0.010663864319413408,-0.0014400630319790116],[0.01096140155900811,0.008412428741969563],[-0.0038590626956755128,-0.004484689970137268],[-0.004151093770586026,-0.01727070708653065],[0.0010249626320256514,0.011016590033500823],[0.004862758638322543,-0.011651516155597192],[-0.011308327442413231,0.007679307953573367],[0.0003542484596223592,0.010206039348199619],[-0.0011585411979438767,-0.0039010957554592735],[-0.006997960901977966,-0.004296605301061285],[-0.012559665085565443,0.0024172973818050694],[0.00591313583956183,0.010836231659092952],[-0.0022203755934315722,0.008534677810660179],[-0.015241858577658474,-0.014117311981894224],[0.014554930246544898,0.00776625557178649],[-0.0027252045685366706,0.0018566698417987928],[-0.0010435834046750728,-0.022507648509384075],[-0.008122423240293246,0.007987380730952474],[-0.012627614458196459,-0.00266989438607336],[0.00804073667191312,-0.0004139883748387516],[-0.011619223584865796,-0.0013561884137859564],[0.015270340880922814,-0.0011433511873421187],[-0.025559534075405035,0.0018771734678356953],[-0.011452948171598339,0.017322739614162593],[-0.0076638092647309496,-0.005727167159102138],[-0.008210945113903093,0.008915086033505815],[-0.022981845191841682,0.011301173293027591],[-0.012419907543880027,-0.011436970726150948],[0.0031622525125656296,-0.015713804723708154],[0.006992177538566727,0.0024096649508984786],[-0.009467606252073086,-0.002218469908940769],[-0.00385499767262986,-0.01217760008645435],[0.01389867591878616,-0.0238075409500915],[0.006106728598346886,0.003320659487880034],[0.0077905960022233356,-0.003200842924985695],[-0.011584344698832747,-0.005328008491899127],[0.008656468807399259,0.0008416372805005383],[0.008621895693030164,0.00022060217011671767],[0.004867295022176206,0.0016675313763978906],[0.02190003959831429,-0.004454866810386635],[0.01203790880742198,-0.0006584033116219493],[0.014378040607924405,0.013430441816990431],[-0.0047805119093913126,-0.0028677033239387435],[0.0010653844053881783,0.005897024355208341],[-0.0023052566657058068,0.007767118447419669],[0.009812866297064569,0.0200301098178416],[0.0024935325074337544,-0.0020789668769512584],[-0.003719365661439139,-0.004200988218823531],[0.018384758193024795,-0.009877798228644303],[-0.0065049925778689925,-0.012179117543106835],[0.00651171281409848,0.002145149523900062],[-0.005898404727995705,-0.005767136980181062],[0.007392077079287871,-0.015690160673078168],[0.003721311720911922,0.010174705808012302],[0.005775051219270252,-0.002169026007855991],[-0.01084633177652823,0.00039704130013456493],[0.006495093382372276,0.002530630674439052],[0.004287210883190773,0.012896566720243656],[-0.008716572566968091,-0.00864338864417301],[-0.006916646796402958,-0.015385821911208452],[0.005621274573626525,0.010902068587190722],[0.0041187872242677195,-0.00032870227160137263],[0.005985632192563142,0.0036988669274030093],[0.018966627347882566,-0.003567567619402476],[0.007304089184551682,0.0020744833162271185],[-0.015594273099394389,0.0038728167165681584],[0.013267432823330882,-0.0013173512394278734],[0.00011851899787258584,-0.008590947322993184],[0.0008639684783894454,0.0023521134514195617],[0.007596417903692965,-0.00501641502123487],[-0.002217219176750832,0.0003306017466328489],[-0.006296625677695504,-7.82851874389309e-05],[-0.002360238856351874,0.012888788217278757],[0.0017785698075005244,-0.004588568117250837],[-0.008474271137408167,-0.010849345296001966],[-0.002067068210000734,0.009861012421092837],[0.006892838263527713,-0.017750273634139127],[-0.00432898268818389,0.010210195549596068],[0.005052221085622764,-0.004041521071967825],[0.01996310867255377,-0.002617288177667457],[-0.017017802747167167,-0.0014870603261150275],[0.007298204753466609,-0.015722977427031746],[-0.008113641605754085,-0.008605163607038512],[-0.03340970283961026,-0.011336119971749324],[-0.0003032187156544366,0.0031659127784404223],[0.001120545532839364,-0.009430507246395858],[0.004619633954106864,-0.001853843942434532],[-0.0008333382091924178,0.007773972679408301],[-0.010314705537896724,-0.01339624168734097],[0.009486249329661283,-0.0014196126235538],[-0.0023222559451298763,-0.01896202153828378],[0.011383727519612892,0.015568419079512489],[0.00010519291785961507,0.008060686107981293],[-0.006278320007105777,-0.002734082085027017],[0.008063411860711443,-0.0074523779086820416],[-0.00854681287646229,-0.0025788012858882128],[0.005652171396333768,-0.014055785256433572],[0.013188467371975526,0.021463616816193593],[-0.007702299838326512,0.005156046331503584],[-0.016625308234224537,-0.00018367484326937798],[-0.00815130160275009,0.011984639758546498],[-0.009432000434607513,-0.0011673624937421929],[0.019201040093876274,-0.003400916675266502],[0.009387955963602278,0.007963220404776369],[-0.004650664207749823,0.0032922148657818957],[0.007246650158322254,-0.011307529400374144],[0.004185912274573851,-0.00020055295589122652],[0.012449807225629602,0.005883906501304711],[-0.0051585526651401715,0.009333218770218515],[0.006957613035765237,0.0029900494460695557],[0.027815422421842557,-0.0015063834875338642],[-0.00633272211705031,0.007644640034489589],[-0.017069740148131517,0.004835429443045622],[-0.005163942103761619,0.005105449913402022],[0.006353678345293722,-0.004066915097692551],[-0.010156312090669485,-0.008206951646518301],[-0.00771645367463727,-0.015640218183878028],[0.02190637295815437,-0.007898267983202738],[0.002174103575744741,-0.005176354940563781],[0.009978130101407667,-0.0069661716132038325],[0.0058722413387258835,0.0037734751504432556],[-0.020748295782197827,-0.011278821161451022],[0.008277953820252043,0.004784304634988057],[-0.0002691739928100312,-0.0006061949414266512],[-0.012410348666448936,0.0013974811342866466],[-0.006567362326129138,0.00016942960082502094],[0.014198042512430823,0.0008492072634666001],[-0.011319608377462605,0.011062905353096054],[0.00014155688932269398,-0.021730973036494815],[0.006663441418164663,-0.0063252795097877975],[-0.019669417914168937,0.004812068491512865],[-0.0036664034237230228,-0.0016876671706784955],[-0.010067186190844691,0.0025186464838237443],[0.013484301587843795,-0.00914680577804291],[-0.00031493716704691563,0.004814694164533241],[0.0075762979539285135,0.006281207630106259],[0.006257160706161986,-0.016236216677209005],[-0.003645800532023076,-0.0029054419452383884],[-0.006202242612904601,0.0015901278201634309],[0.0004971052215922486,-0.007161503909852908],[-0.018159563291506368,0.0030989557111460704],[0.008898956597965432,0.015247435202267418],[0.0045550029566085596,0.0057390708255120665],[-0.008246174946652344,0.007478719158283857],[0.00339329916326614,0.00607501625231213],[-0.020290644353412872,-0.013935986034315116],[0.0019850180876790245,-0.018554201301896927],[0.0006377864161332539,-0.0005603331180571565],[-0.0026783371917909133,0.018243418765114695],[0.011274884822132446,-0.004703042361686268],[-0.018942958648144968,0.011624751297490094],[-0.0010352752492156514,-0.009099289027470377],[-0.011950910883032226,0.009720123925624704],[0.005667803776312113,-0.016500265929570726],[-0.0014753642272507903,0.0024722716612094703],[-0.0004805860887071923,-0.0046811276535855635],[-0.014007645763914065,0.0014448125210797453],[-0.0145431540955408,-0.0016397336749987374],[-0.0025588335289648944,-0.013898586431442365],[0.0021648591085100827,0.011505216431553363],[0.004376393546890299,-0.0015009068678291605],[0.001821928381488337,-0.007965549046705565],[0.01087837407645965,-0.01916557993857754],[-0.003525771788364351,0.003568767577068867],[0.0020332128563850683,-0.0007634560515541287],[0.00851054678295054,-0.011667528938256833],[0.014775487938675898,0.010805013834165364],[0.0010682284326267648,-0.0014424136960955898],[0.024490193847141416,-0.0031952950848374594],[0.02336072861573828,-0.016987612902359416],[-0.006856850482562048,-0.0012346168843391813],[-0.004497168895750456,0.007814732546820292],[-0.009720035724111849,-0.007036573434479941],[0.008935186727349864,0.0006459705187573335],[-0.005419251834042001,-0.005043646108602673],[-0.010487195700738978,-0.004103407648801529],[-0.000989619575353847,0.017064728765966795],[-0.010415990035303739,-0.011526672677732509],[-0.007555035157374418,-0.02503567770059773],[-0.0024479273863015584,0.02532154752840763],[-0.015242933322720887,0.017295339242734825],[-0.00173524405621812,0.013069664765263242],[0.005641440051395698,-0.008203186930262176],[0.001721543202591678,0.024823401402938112],[0.011914082552989019,-0.0038389091931250894],[-0.0036800188143904884,0.017027435668151222],[0.004284659385311038,0.010411070267677692],[0.0035091333582594874,-0.00994722920364171],[0.020652590905401468,-0.009447780854446662],[0.008631178154679845,-0.0014222097883890804],[-0.0015444642666296638,0.01713565850460935],[0.013580409132494023,0.012848159480870437],[-0.02326635281028354,0.006173418854945821],[-0.0021169894685664774,-0.011589357215763048],[0.012914023436904749,-0.002011412227056201],[-0.0062402804676483835,-0.0019252890342355967]],[[-0.008010299579344177,0.008803843310999027],[0.0024738256627267565,0.009833823544092344],[0.008079593762772761,0.009562507042362871],[-0.0016948215742335218,0.005630906091638305],[-0.0016489070270990166,-0.007633841611213211],[-0.0015792059085724007,-0.0045691125193592745],[-0.0008281141283115001,0.010835426224635165],[0.0011458685597907346,-0.002244654484842584],[0.016471562704035197,0.009516053485694002],[0.006330746274795402,0.007167605684602182],[0.013180892236817645,0.017412542325526414],[0.009555391801921545,0.012449514487249453],[0.0068778000368465665,0.0026089140681009506],[-0.003972685767767573,-0.006422798850327889],[0.018075265609700436,0.0026317494589602423],[-0.00018694341823663626,-0.013431972603889038],[-0.005475666529489302,-0.008042027954638117],[-0.0031858475201813185,-0.01779217105261364],[0.004463980931372122,0.0046299277902178086],[-0.008570438197552403,0.013130954508526332],[-0.0026915625178036908,-0.00424904225046956],[-0.009121737556497717,-0.004618191964445649],[0.019940692725343094,-0.0075376454919314365],[0.018757906664448657,0.01687461747490437],[-0.009332792223481386,-0.0008327703019184368],[-0.00013351521494155984,-0.011881254728860587],[-0.013606832029834348,0.006154112278011953],[0.002439227536054908,-0.010595670541239078],[0.0012134463217437835,0.01144888636274417],[-0.0005908023014461093,-0.0014586338372723807],[-0.010718234655885445,-0.03218799054995542],[0.00557759683318873,-0.014688570773895687],[-0.005668441339342216,-0.002629715696734485],[-0.01493928979226848,-0.011109037369804568],[-0.008779167762723576,-0.00028671663329508717],[-0.012064198173218852,0.00600705808176312],[-0.0010092837443171384,0.012434893167623631],[-0.0020400364093944865,1.5891564585921066e-05],[-0.0016121108865474565,-0.0008875171715673846],[-0.008411184265401061,-9.126013119381874e-05],[-0.014525807373444636,0.005564620263760468],[0.01422803487244682,0.010501664242177345],[-0.0005582242657075843,-0.008971708946136256],[0.008690353723762484,0.010768332355524355],[0.008822098722854076,0.0007995857833953729],[0.010196058817467702,-0.0012520057257834128],[0.003943258541508944,-0.013518689337859982],[-0.0058111247260512425,0.023050147212950182],[0.026392091898032367,0.014185413649882201],[0.016784004799266825,-0.011090011778265768],[-0.003952409767895955,-0.0023263914615577813],[0.018237912386505285,-0.0029537987062485047],[0.0031944845268795843,0.0038825201690457557],[-0.014425307426089832,-0.018818382796117143],[0.005494050331831981,-0.0060144014936281305],[0.00946924277359876,0.004454275104797924],[-0.00430224134133526,-0.002839644880767535],[-0.003061564593393657,-0.0055637094415519036],[-0.0006821387104470102,-0.011697093057581891],[-0.0008599783544863292,0.012636406806080292],[-0.01109174700708499,0.0030500385628795803],[-0.0037978278403032863,-0.00646597026199352],[7.418179389248689e-05,-0.007413203235711951],[-0.005602847823870273,-0.0004974493984743579],[-0.018522095389343428,-0.023145313138101774],[0.009859951571508534,-0.007170786078786031],[0.009771458269794297,-0.001512579808111367],[0.013633111280189267,0.004938557670696223],[-0.005864637757968992,-0.015835448712411618],[-0.00648924420236561,0.005623801298454575],[0.019679399171915236,0.005292184939299823],[0.0075039055668240495,-0.02237248012577265],[-0.002480218723821005,0.019160641836443407],[-0.007911578553050793,-0.00039737886427684485],[-0.0012870427162127152,-0.013431788512355844],[0.0007744700796077655,0.020401398169484018],[-0.008466057515412177,-0.0077868826234629715],[0.010767460380938659,0.007630927268210976],[0.010972477617087459,0.001076946703719494],[0.007768763479062565,-0.013894917919440057],[0.0075344459605310695,0.0021029050586980525],[0.011076455905423931,0.0055984685057190965],[0.005675350949777437,-0.008813563740205815],[0.008389288331994801,0.024824633565155765],[0.0018305141091887174,-0.01303322654336901],[-0.0032595326737144613,0.01949308801699106],[-0.003921059928315073,0.0033012922133142135],[0.0004858042198401672,0.004494736897572266],[0.01336261160570065,0.007929750297512295],[0.005270311348266472,0.011506218013636048],[0.009713681827795582,-1.702241888209817e-05],[-0.008388447915150298,-0.01293135275326814],[0.0019056039449911423,-0.009514527620156085],[0.008423763005239325,0.0074264176868759375],[0.013789109195231016,-0.0035360296524698546],[-0.016988267385412266,0.003595300077502679],[0.004154900515779641,-0.002920101953460285],[0.007409293061941666,-0.0005305934951966749],[0.0002748446586078451,-0.007021550651319204],[-0.010183936058346185,-0.0062895707026541115],[0.0045213755546052,0.01623860301605675],[0.0036050141952429196,0.011630482616115743],[0.015129793621764769,-0.006383793014360635],[-0.007683900324400787,0.015599156594369609],[-0.009085031079082422,0.010960463069289298],[-0.019720774129351304,-0.005554996600897608],[-0.015281478018309648,-0.011305332257822352],[0.01396924669285528,-0.014659952224792432],[-0.008514622857500091,-0.0002067300721149648],[-0.0012395129217440987,-0.007560764888763478],[-0.0037231655739715696,-0.005300827990724894],[-0.012224841406070669,-0.005664553027904597],[0.005673781504387336,-0.014945725200270956],[0.0004644613859786981,0.002223180768777181],[-0.018880758151950224,0.013348614597272504],[0.0004192952778938387,0.0054360781824518735],[0.022983209192158474,0.011315873878276988],[0.007589753266663671,0.004631531740262849],[-0.0069750250683516864,-0.005484195894899902],[0.009875347471961868,-0.010202305188574337],[-0.02424277449544998,0.006314955209704049],[0.010494823619806744,0.006542069211003462],[0.02151630465334356,0.0002786076506089767],[-0.006679868006054756,0.013056077979270057],[-0.015856975558471535,0.0026717760937630605],[0.0015504643084150885,-0.012511666267480105],[0.007777915998899281,-0.001582734707799204],[-0.007852483523381307,7.785220174337049e-06],[-0.004233377898588332,0.007051309691708906],[0.0033655620752706303,-0.0189634319789303],[-0.0052405241309549325,-0.0017682030964746647],[0.003919828637333627,0.001749962338055306],[0.006623702238059796,-0.0065276932927975945],[0.01427379058485579,0.0012253727035640902],[-0.01033406136295906,-0.010776591921749288],[-0.011134636654854618,0.004850821174135495],[-0.008220308406295276,0.02354412484811062],[-0.015678005000955297,-0.0012114749107886],[-0.003966704741620586,-0.0005707284367901321],[0.006503372644458254,-0.0027599941219270544],[-0.012038230017103574,-0.01083570188062534],[-0.0035074087518972216,-0.008831833567936398],[-0.00285814083617279,0.00749045379153343],[-0.002882672704114064,-0.002700372355121657],[5.983572885611115e-05,0.002928798485685979],[0.014030667309702816,-0.0016480785034801379],[0.012820721587288543,0.01274622554882186],[-0.00616876492383925,-0.0016324821006747819],[0.001932788746357942,-0.009076766497728409],[0.006513923704780563,0.005128979921352759],[-0.007673341195294552,0.009642938784848945],[0.004760854910890117,0.0014078505975544935],[-0.0026732158329425874,-0.0059487733807051385],[0.01488995590028538,0.0011524819624322293],[-0.002117668438466419,-0.006436071975567643],[2.057680742856955e-05,-0.0034956363062084014],[0.0008070580751278113,0.006108394050447217],[-0.006732099972139513,-0.011120896913293543],[-0.0259213313143196,-0.012034223350219352],[0.009146016702840527,-0.017929881578730274],[0.03208433297684575,0.002568081700787669],[-0.0005736093960905427,0.007667225318078302],[0.0019101153474737446,0.010445513002817564],[0.010300910025043032,-0.0018090099068706082],[0.005707770752954493,-0.002039018046179937],[0.004984699661215086,0.009731640437925536],[0.007574371876751524,-0.0031470320663771587],[0.0008928456288713046,0.005634065990039259],[0.0026746185528622912,-0.0026553134417474683],[-0.00440712565038903,0.005712001401913964],[0.0035808004163658544,-0.008234017628692643],[0.007535966893413907,-0.0017880505628670824],[0.0031797746043193435,-0.0014286490465925503],[0.011923986701185411,-0.006573896058597205],[-0.0011340143855244522,-0.002255147649352706],[0.009206782128332959,-0.009488488945103712],[0.007162106313887665,-0.0009308512661436049],[0.008298772256641595,0.001962069531048417],[-0.006474162798233935,-0.002912189680262455],[0.002729661265848727,-0.0007034764724034811],[0.015031565782141872,0.018955755347881416],[-0.006181036927413245,0.0006782212148178132],[0.007405650821844215,-0.016826253150566507],[-0.0112019908849799,-0.004576065824177518],[-0.023184309989843985,0.004911324128148185],[-0.007755305763101269,0.001821307555717976],[-0.0036390548285720843,0.005851046059082883],[0.0028498651920413638,-0.011121619376872317],[-0.0062523890622734266,0.013353208178882284],[-0.002896681283126659,0.005460134810874204],[0.0038831741504662116,-0.013023444173850549],[-0.007918576887559491,0.005094996807442511],[-0.0076552990249272816,0.003671002135983823],[-0.0261177288904512,-0.006420354970472069],[-0.0060282082835757984,-0.005793198205610429],[-0.016981228521766024,0.004639818310323125],[-0.019920871826870076,0.01679157281216679],[-0.006091721434078862,-0.0026340815404689594],[0.01228478186061444,0.008025011746358135],[0.012359767344793642,-0.006311143200121088],[0.02298151916791474,0.015083668989644573],[-0.010773816621276642,0.002303603684758161],[-0.009521133406535142,0.016429181934933375],[-0.020284606852273637,0.0033296684286919604],[0.017806595527809034,-0.003998395526472278],[0.01256838182862716,-0.0043393071175793375],[0.0011251469543514937,-0.016561590035636533],[-0.00243933370984439,-0.0012430879833673877],[-0.00269562543725129,-0.008370909564263432],[-0.007949288556349583,-0.005820763620467677],[-0.007462360539268902,0.00019486389030623085],[-0.0016361971210900777,-0.015743980638317005],[-0.017261746412980096,-0.022391546619242746],[-0.004447429422568416,-0.0005473237858364564],[-0.0074527409484919155,0.005728971750756975],[0.0014799838409589572,0.009057144188761562],[0.005094848915365335,0.0021456216943035807],[0.015237422389091941,-0.004905591523068116],[-0.007554268517955981,0.013968174933404957],[-0.0032228049317554724,0.016235284752428854],[-0.007695828929590756,-0.0044115602918899256],[-0.011042133336999558,0.0021946990815428207],[-0.008060387522052806,0.01753120887538452],[0.0031039798429665305,0.015921247336127552],[-0.010836055189523425,0.0012920259690579797],[-0.017837773996169523,-0.0009297184275681926],[0.003163358907611317,0.006438682654871824],[-0.003363631331980108,0.006293950571482687],[-0.006525868960743725,0.019160724723708025],[-7.483037248696412e-05,-0.024704324196344815],[-0.010903658423953713,0.027575889956308126],[0.00020689436479661978,-0.011986708630341859],[0.00277986733013502,0.0017690279565716364],[0.002808327861764498,-0.0016752677825424053],[-0.021997893618726852,-0.006752481080676879],[0.020313918473084048,-0.0034703693136555213],[0.008170034784387672,-0.004759137263504924],[-0.012943932529149112,-0.007098203549098168],[0.009987421152575449,-0.01915415906802796],[-0.0014497402705592709,-0.013791739661277818],[-0.007311128988974646,-0.0017772823407788203],[0.010594460775501517,0.009546839530056066],[-0.014675780906326395,0.0014642084501135032],[0.0013953001190391834,0.017507836661450598],[-0.0042026563317778196,-0.016915053525428082],[0.0021730936239613137,0.014684221223517062],[-0.009135290524110396,0.011083943219810571],[-0.012419146451206975,0.0034916468102425846],[0.007604240620172694,-0.01309572291453283],[-0.012560357770832867,-0.0005551705474887606]],[[-0.010577905927561193,-0.010026441289414597],[-0.004522958277217496,-0.011324480291506473],[-0.02788657512602529,0.0009074839612033081],[-0.006102535727723786,-0.010996868200421523],[0.012026567351800728,-0.003236955260090846],[-0.0007468726215234607,-0.008825617917230496],[-0.0030714438235219244,-0.009698045384844993],[-0.002644577933030353,0.004558419318738733],[0.005090055390385313,0.005318941305108276],[-0.00084902617839797,-0.004349694137584991],[0.0006653768375650218,0.0032722827317141806],[0.011064945786417974,0.01696823431040606],[-0.0017475222698256098,0.012090688028217068],[-0.020430310140363433,0.012657026288520931],[-0.003630239637443614,-0.01272152633931128],[-0.015071321182572034,-0.0024293494605784668],[0.006540142743469784,-0.008220585734579917],[0.000604832633803292,0.007700917244115369],[-0.00999184686066497,0.0027062415648152175],[0.007328252222648749,0.005418689375442682],[0.007939658527632436,-0.0006436379674611941],[-0.0074360799350471855,-0.0016526697680223404],[0.005581967995318299,0.0015546775566634607],[0.004226272956796261,-0.0020987687891458355],[0.0013517334956614792,-0.01202882953149427],[-0.01068716984520486,0.0002464281064984632],[0.0006773455090223656,0.00894779595443728],[0.003354002112520893,-0.0063343385933489595],[0.012622547579287019,0.0019531605179700837],[-0.008169056545582183,-0.006510766761398823],[-0.022292649731139758,-0.008269775805793843],[0.011004287724478767,-0.014191750793270211],[-0.0031572754362892957,0.0051816096110715165],[0.017660110368485422,0.018004413366192313],[0.010120733288822008,-0.0025427178588876614],[0.005935421575802057,-0.010434354139940401],[-0.009331936589333739,-0.01585719785448113],[-0.006374225348829027,0.005614792613347723],[-0.0008465496350398124,-0.0067226612652969316],[0.010258113702892384,-0.008108801472419887],[0.0020420643655185075,0.009612665912117669],[0.011261636999148044,-0.01481490071027568],[-0.006486459694761881,-0.023320521472944705],[0.003595006757017979,0.0018975909091676572],[-0.005153445082084096,0.007056562512839695],[-0.006171812502694945,0.00038155128251324364],[9.800167372962896e-05,0.015425465554983668],[0.006192320074868871,0.005331314977133134],[-0.010371619561444756,-0.013342137609740227],[0.0017152916089173717,0.008162042001441534],[-0.004184175590449279,-0.0030031878377750187],[-0.011639203994136987,0.00043985883551761907],[0.016418894235191866,-0.014340635663217506],[-0.0010898370561287808,0.0028796136281940363],[-0.020088151067630632,-0.003452513081743554],[0.02258622865775539,-0.006270133979116679],[-0.011217834142246363,0.002270211406939238],[0.005774992137505952,-0.013124651359593311],[-0.027995542359235,0.006814626240239907],[0.004472610260481789,0.010842379578490479],[0.019632336366820633,-0.02425927285238597],[0.00448513359781639,-0.008018468744989097],[0.009576171314543167,-0.008788176724214962],[0.011404749514227975,0.011460649162950105],[0.007013346302584583,-0.00725654277717371],[0.018411387524266385,-0.0017015612730688614],[-0.004054476985536019,-0.00013662558578954342],[0.019734966324784713,-0.005813439885565921],[-8.747767309843927e-05,0.001928154348779577],[-0.013789986457306488,0.021798104219597072],[0.014349665483451013,-0.0069273461080335535],[-0.008944657586657247,-0.014440284209303579],[0.01357530585674708,0.006597706117265029],[0.0015558923056819395,0.004659349853685376],[-0.0075565134036812255,-0.008710661616414745],[-0.0038062579696842218,-0.015691867309064463],[0.008475406471962408,0.017198001234984033],[-0.018140279195480863,0.005148581009642931],[0.017107750100686745,-0.005064632428082571],[0.003551886781977972,-0.014714046936420895],[0.012476769375707582,0.003958048844722275],[0.0043184313359503354,0.022918870463977066],[0.000895431836181057,0.005795383342041453],[-0.0004806823228777949,-0.008596816386550252],[-0.0001955160009339102,-0.012815568091721038],[0.003744508394701856,-0.009863376632609206],[0.018709631399186993,-0.008377368604071584],[-0.013189978818014432,0.005519097844320962],[0.009839106421617151,-0.018455496324416974],[-0.008240870234254296,-0.002848391302567306],[-0.009730306473018709,0.006069152357766257],[-0.009764159477160738,-0.01122138173388099],[-0.004402272060817016,0.0012620602560495635],[-0.005763240155223288,0.01002613216082591],[-0.011744942909305195,-0.02499253805349243],[-0.00030210323072380157,0.002033335602905698],[0.01442454606155538,-0.0016862713088523185],[-0.0035087844767967688,0.009525951921639415],[0.01715690147056196,0.006454853363842454],[0.004173371428708593,-0.005457008138205294],[0.00898928759311255,0.014824270439817828],[-0.004914005316346735,0.007432834261081309],[0.005595278395273036,0.015050867539088077],[-0.007061722255028204,-0.002420029329577292],[0.009146315098913803,-0.005153120940761539],[0.0023490425244127398,0.016612429466935676],[-0.006211288722070414,0.002427512320819726],[0.003576136041957313,0.00995333751761903],[0.01639954688387727,-0.007789212522649897],[0.0030473569421458286,0.002541278016459771],[0.008597881901268511,0.006361444448618016],[-0.0036690326568597172,0.0161362269335146],[-0.008478390492389331,-0.0015493767518374784],[-0.024654921907144172,0.013275510233823989],[-0.009947272697489117,0.018735833045943784],[-0.0034938735592617183,0.004486312188703188],[0.005890846155863442,-0.002814884336936029],[0.011572885280008206,-0.01646899988342833],[-0.003662122510842365,-0.014789859834059702],[-0.014099896636193624,-0.006201346344614537],[0.018396523714999943,0.01573887411282409],[-0.01137288902104183,0.0022440139477684583],[0.007559453431272267,0.01173963688525047],[-0.0005361423613542088,-0.02087611508760963],[0.005725656659825772,-0.004310722038165629],[0.004923054979939158,0.006570771374665588],[-0.004911965711806073,0.006109786512394591],[0.0009163613090661387,0.011227141963286726],[0.019831207015609052,0.00921751290294605],[-0.01485718972428195,0.005658007037811422],[0.002170445320737128,-0.001941546805212536],[-0.012236035542228922,-0.013973649627321557],[-0.01460274597339551,0.01512192267719955],[-0.003421101064244259,-0.007785174935839728],[0.0016516774563949772,0.005106249753816515],[0.008715699993168948,-0.003650801176061214],[0.0012973001700620694,-0.009655708422796679],[0.018783550803114876,0.005873004878540797],[0.0010740503624605342,0.009945641037626731],[-0.013158087856073333,0.0028791423007851584],[-0.02392893006269211,-0.015255567612181588],[0.004991532370245432,0.006113288944297544],[-0.03385807253368109,-0.003632381598094971],[-0.00816920200971414,0.012818197764891832],[-0.0009204080215485797,-0.00022398854365635046],[0.0005384152735420148,0.021150141197977892],[0.004368034266858693,0.0027617484631159966],[-0.009415071555709153,-0.0033817939625232873],[-0.013786494551185035,-0.009921198347536889],[0.009014722045317378,-0.016318290427413125],[0.0023400370189138294,0.017273718976680914],[-0.011789832429621458,0.0054046927106382175],[0.00109083832794827,-0.0030237788626986672],[0.002768524939260879,0.00655286860968197],[-0.012532345106790613,0.005025587496945704],[0.003515261770446219,0.005449554476449623],[0.0020491712583168013,-0.005154529528232743],[-0.0018428784260225727,-0.00417597128080575],[0.014633465220375988,-0.021310581014811588],[0.008978787371583096,0.00563030426764393],[0.021378809983412697,-0.020320458067033084],[0.004979135321277262,-0.015147652552754657],[-0.009293638144510223,-0.011429402733770322],[-0.0005777604329437825,-0.008817480522568123],[0.01442742545871304,0.0073284495420240445],[-0.01923267881669994,0.014285358586163817],[-0.016648874066232156,0.016911855193374764],[0.0011850087350769132,-0.003067047065129497],[0.008887734569403428,-0.0007849372200602887],[0.0021510832860717564,0.011047280914026065],[0.009545674616231561,0.020556875291927543],[0.007051069486476093,-0.0028473264159409855],[0.007376918579501422,-0.009277522287363124],[0.0018672607059077443,-0.015450708587090174],[0.00295839119595219,0.004181203327239353],[-0.0053947963198562226,-0.0005371604606743319],[-0.013752517973110983,-0.010806901396358518],[-0.016125027394488213,-0.009830620298504962],[-0.010352043074087321,-0.0033697091981974344],[0.006088686060217205,0.018405252554073697],[-0.0025987475377818787,-0.004284023881477922],[-0.011270221679368043,0.008166836016966312],[-0.019407016333516144,-0.015855380201815834],[-0.011705747120493716,-0.0017989641897379863],[0.008801807768512322,-0.012293420319673107],[-0.019479815608173655,0.010978128690847175],[-0.0012583518858596528,0.003951500887825162],[-0.015131182562952577,0.008183388363826535],[-0.008099037672332776,-0.016174887763934727],[0.011154668234441202,0.001644391989939153],[0.01986412385051165,0.00831175756644937],[-0.005400815254531829,-0.013409310210835442],[0.011002529692194223,-0.017495566721895447],[0.0039194764599169716,-0.0049444953673446436],[-0.0036252663135142218,-0.02442290068923725],[-0.007768812822521933,0.013136454281435228],[0.0008384331275115287,0.005924556201917466],[0.0012179933077439776,0.0032104380990111495],[3.595948746635554e-05,-0.00028588043411418646],[0.0134341049275524,0.0015798345163240664],[0.006778172078191886,-0.015759342638774407],[-0.004502248600888742,-0.0016439269077615228],[-0.008556784933822273,-0.013302309770157178],[-0.008298684467019044,-0.003905803593412453],[-0.008401101546583922,-0.005158725894882979],[0.007547456127946936,-0.017485770600868478],[-0.009435801971345761,-0.00268731302433801],[0.009225278677452924,-0.0035884014946167887],[0.008132479264934284,-0.008309180447142381],[-0.005973083608491885,-0.01479937608470172],[-0.01130624822198283,-0.010604298408952011],[0.00631636180492527,0.003926151496269334],[0.001796088235844353,-0.0030340657930521993],[0.002230869193447918,0.0009481413802572025],[0.0009962654567533449,-0.006757993593100052],[0.0190220344262281,0.007334890516667563],[0.013205288571141513,0.010000750635928972],[-0.003547840221348123,0.01235583372182822],[0.006764235942360305,-0.0022645589982644857],[-0.008455798011172723,0.002913877459766732],[0.009459263680227642,0.008234031205713553],[0.0037785364435851806,-0.01613675387827743],[-0.005537818984589058,-0.0063895516782933575],[-0.001590125829417378,0.00612025517746077],[-0.0043529377799969215,-0.008254220604076417],[-0.005854744761164911,-0.006528891407709248],[-0.00046053850957788426,-0.0059045666036541935],[-0.001938850080071612,-0.0058381676989692054],[0.019104142727249928,-0.017641001113300803],[0.019086215247694077,0.0031351004773890385],[-0.0027913816645374605,0.0073671899549547],[-0.01104375514793352,0.0045270338618837065],[-0.009931416615610568,0.0010625365010437109],[-0.025135506785580984,0.011161899831030503],[-0.001353527178907954,-0.008627401206580409],[0.009069430482396529,-0.008096803893991866],[0.009332591809157376,-0.013688280506515313],[-0.003005094812434627,-0.008474852087727238],[-0.009646701929160806,0.003191572190210535],[-0.005159477876788606,-0.006491265870498392],[-0.007785685514514434,-0.005141267737935619],[-0.0035313249867611673,0.011086261253744725],[-0.001721274006034757,0.0019284813302289498],[0.004867876937922323,0.0024660302670549616],[-0.013881635634765459,0.014874667197650755],[-0.0013690460014200705,-0.010717068644455183],[0.019377296408979505,-0.024879068647652335],[0.006281779322134867,0.011401676712318693],[0.02212474160615592,0.014497120291157928],[0.008203146501179637,0.006569611029438688]],[[0.0072189930771507736,-0.0018992012654089293],[0.002838340444376608,-0.015621360508247712],[0.011817774424671362,-0.011512875667888415],[-0.005783864070668342,0.014213558352439131],[0.008192222613714573,0.0025898073947592365],[-0.0009145896477378598,0.017307297882051154],[0.0016543376967172222,0.0002136037886789668],[0.01374037975058496,-0.003307970776813405],[0.009760883201163603,0.013661571683863663],[0.0038336676293883086,0.010614638709145585],[-0.013706187914969048,-0.01714830299124341],[-0.0007728293612782747,0.005216696110955808],[0.010102944788393466,-0.007080616286076456],[0.001759107381238247,0.016938439380208562],[0.006114146680885672,-0.003276912612671494],[0.019036845750644852,0.012447226256660945],[0.003941533750098342,-0.014489399230839264],[-0.002965322906275706,0.0047337093996584366],[-0.0030071285755010942,-0.01948452393905649],[-0.011859561288737677,-0.013274058463754667],[-0.015681705148124024,0.006775140763866952],[0.0028027576459091507,-0.005850909651488975],[-0.00031606351991986557,0.006107156543165466],[0.0007040379124238448,-0.007292613317080672],[-0.009667121169610307,0.00958179400130979],[-0.00887183745248585,-0.0004763923221836558],[0.003078016142112369,-0.010236744801275247],[0.02083675635337866,0.0013066249433228993],[0.006768426411973116,-0.024074759555596778],[-0.010848145553242292,-0.019280368900580887],[-0.006079357906823011,0.010113798183911631],[-0.007351129712065038,-0.008790447663716073],[-0.0019143605790841196,-0.002220394442318114],[0.017373094906728417,-0.006469046469973877],[-0.007189828569363757,0.011943152274541463],[-0.007045315971591177,0.00013797196608019379],[-0.016087573747609794,0.0005969297721013195],[-0.00035797879213737133,-0.018905977669924672],[0.0004985297212369158,-0.0046653430276671305],[0.003035619293002946,-0.011325708226061848],[0.017373568433561023,-0.002072174248733135],[-0.0005394482550874029,-0.00654154157301033],[-0.005746715167731337,0.0040445230421075826],[0.011229105099129137,0.010945495240144223],[-0.005598038454945954,0.019042100344200886],[0.011771508614031014,0.0022024948125921057],[-0.006456568357651252,0.002369172035761597],[-0.01187723706761903,0.0012611711084554507],[0.007825082074116824,0.0018834411759835492],[-0.00028476374520985747,-0.0023297671289959584],[-0.014313328109651833,-0.007579900025872488],[0.021034352702904578,-0.0007759769966696563],[0.019900422740415754,-0.010286862854367976],[-0.009089237950019523,-0.005576242921508338],[0.00010067351970490966,-0.007103124823391149],[-0.012936437337526639,0.0009845235266645236],[0.00573707290548327,0.0027832788021240084],[-0.0038937383135184142,-0.020008142648163894],[-0.0043207345019298776,0.010488698203005084],[-0.0037874430136567213,0.0011391254481582262],[0.0018263415322150544,-0.0018281514021370531],[-0.01278217098102509,0.020361100730174622],[0.004383542792195478,0.006297327649391843],[-0.005184320009595961,-0.004034200894109236],[-0.0011902243491140486,0.0039998293851054795],[0.005777622835655954,0.013753807389991156],[-0.01104731308162223,0.007479057177120975],[0.006628261876903069,0.009967040936611904],[0.020052299445840176,-0.006039496202263288],[0.0026134436548676775,0.009694693065633427],[-0.008862874484761953,-0.0061299831976219955],[0.004346539858542735,-0.00823155995012747],[0.004257727367798154,-0.01041097766240001],[-0.019067579604978728,0.0004741654679741676],[-0.0030145754712559577,-0.011470073701622664],[0.0260860092003271,-0.006031950086904171],[-0.010315512466312122,0.004431973049508382],[-0.0011161530316662546,0.010288006590954005],[0.009528597066896924,-0.0020891398380507202],[0.013124936571737923,-0.014841441688197314],[-0.0044452867897006,-0.0058731962139188685],[0.00905132123903178,-0.000705847934218915],[-0.011228799423365103,0.013830084105326759],[-0.021084629480560415,-0.008191164388556342],[-0.001697321905520365,-0.005198308170414593],[-0.007333762801862778,-0.01887863179691493],[-0.013044505716470813,-0.006655388066299245],[0.0013222836090017094,-0.011807205781055147],[-0.0039347913667424515,0.00807677682215221],[-0.0003653614854780725,-0.0008433722217010441],[0.007269542153917974,-0.00654911398286855],[0.007916645193857173,0.0027125693060159562],[-0.0018549813989034297,-0.0069739362034301235],[-0.011102663511122048,0.004425870246537819],[-0.002598700079908578,-0.0029355211418056653],[8.994995358660256e-05,-0.009271666844827393],[0.00919175885240261,0.003273214816241606],[-0.0057416855418380725,0.01828680547598377],[0.0019362522467761727,-0.0034391847436501676],[0.0010183395029438084,0.0012417981110816067],[-0.010717869424277982,-0.013017179543581895],[0.004205674308459149,-0.0169073446297465],[0.023773742045479905,-0.006915489237756445],[0.009864519776478174,0.005738325605414408],[0.018685533277166894,0.005304722799158863],[0.013564342534441545,0.01810373222992946],[-0.019511451357524558,-9.888229645648523e-05],[-0.0025039256565447428,0.008115364041156975],[-0.008832629457058547,-0.0017673517859477825],[-0.0013586652018859333,0.018988145071344352],[-0.00964564186837385,0.025497718106168056],[9.908133017707491e-05,-0.009555416924138428],[-0.0057266554603138484,0.0022900109239101956],[-0.007305062876371029,0.013294219352464259],[-0.005069656525020177,0.0220318469398204],[0.02228598450787026,-0.015144234100812743],[0.01862742140608954,-0.0031958218059051106],[9.007921798535271e-05,-0.008019856914609854],[-0.009721989460049865,-0.004148503049706303],[-0.011621515865486506,0.0122811938002585],[0.008023115370266846,0.004759719964812444],[0.0022086246690745364,0.022924935100860685],[-0.0026725439162864247,0.002167014816334386],[0.005021958355887408,-0.00046099409553680194],[0.0038537904794636764,0.026770318572006548],[0.003103762000059583,0.004980962486528935],[0.0017248182641023558,-0.011883797871168727],[-0.01598041671345129,-0.0013057730393393836],[0.002605457356871535,0.02038464402216281],[-0.0036345038711498878,-0.010597158725212455],[-0.0012637298798832022,0.0020174550107077017],[-0.00613368771131753,-0.003708803724869744],[-0.0009658495887524829,0.011402975057792905],[-0.010173889313282171,-0.003388094219883268],[0.005310936941359869,0.012228531374435952],[0.005138969661825233,0.004232275067293263],[0.021378521147445283,0.004607197029983949],[-0.009166470752896854,-0.0014132810909681512],[0.016112730527107145,0.0015051270698206672],[0.009256032908013174,-0.0050511597130555265],[0.007531480006598928,0.014198282357170107],[0.006407573465738862,0.0027514057710347093],[0.002984333801824473,-0.012688064085310983],[-0.007670068537481438,0.0014173404786426464],[0.01042022759923471,-0.005684852713278121],[0.005866300899636368,-0.0015657101721564363],[-0.0030947675594057513,-0.020323118431928317],[-0.0033271960729988528,-0.0031041449153335577],[-0.01017799052475834,-0.004623798639968558],[0.006498348162048118,0.0015365688991859146],[-0.0018445533979918691,0.008255258530407624],[-0.008325054526758156,0.0013079505886452432],[0.0043173578210029566,0.005394428184192499],[0.012070701309412464,0.003100459989674287],[0.004362758716015262,-0.01526791840180258],[-0.001491090956733145,0.006629913525876076],[0.007169629605858369,0.006228532245962791],[-0.012090357342076865,0.007232202511920986],[-0.02180954172773988,0.008934150426198167],[0.00891536538051804,-0.0001880892474182298],[0.002512992476761871,0.016953808738323625],[0.009126203816070676,-0.017210214119379508],[-0.003651265982244669,-0.004951743296977452],[0.005480259060877879,0.0019829742456863916],[0.013495911348456112,0.004334305260966693],[0.019599855633365255,-0.013773174640572499],[-0.0090700110246649,0.0032652400745378763],[-0.007519581923645406,-0.0028988873054541595],[-0.0007435988867808403,-0.019070265967897956],[-0.0054981220854439065,-0.004649322617628556],[0.011445715802056,0.00859181055128637],[-0.008694015479979313,0.02050669939136842],[0.001702399196488155,0.0033217754816718776],[-0.010609006173896698,0.0072804470820311395],[0.0032940768429182464,-0.0024990377724979705],[0.003804371049168141,9.562768801258629e-05],[-0.0031300922730377904,0.008894681072516307],[0.01072078703466783,-0.005654089121038007],[-0.007063621297887211,-0.011451785371470201],[0.01575232823495951,1.5059775551888599e-05],[0.004662211172399983,-0.009015271595921913],[0.0076195141133360515,-0.007252011245043509],[-0.005002777418815281,-0.0015776332783006683],[-0.004320010889132326,-0.003188615532244722],[-0.011433862860726486,0.005552591051989514],[0.011934690095659506,0.013599785964142283],[-0.023299992939688496,0.0021566941621710724],[-0.01301978896333111,-0.00941555312866863],[-0.00508107748922057,0.018259679951458697],[-0.014004469342170091,-0.008308508236352324],[0.009059127707319176,0.008745957684117081],[0.004768011735508888,-0.012509286530423191],[-0.002031164264279699,-0.017139508495885587],[0.0026222626830902773,-0.0010808384467059654],[-0.01216431673083106,0.0033704701049890044],[-0.00556287186307636,0.013743678515787412],[-0.011906546476549294,0.010746267832991232],[-0.003870410702332276,-0.011022979196576172],[0.004058423028659068,-0.017800099394294222],[0.016125717748795995,-0.010882919148139806],[0.011595646378064728,0.004865188065439597],[0.007451975661592995,0.017678937201291496],[0.0053970325471544706,0.01440802287076311],[-0.007604958453792571,0.022705088799829052],[-0.0022316018092925884,-0.018746339238685284],[-0.008711652477252498,0.005854395721770579],[0.009053757853644512,0.010135307428722665],[-0.0023083410914023755,-0.014844846799196138],[0.004627285749423923,0.001148740950065186],[-0.00018241464239229213,-0.0024251721862418607],[-0.00028631369753436887,-0.019480530322346364],[-0.00928919530626428,0.0013834990702687579],[-0.01422836768067757,0.0070687337370594835],[0.00021650882580866222,-0.0008260206212877574],[0.00989129188356802,-0.011509729791144362],[0.005423226178959904,0.01592408311666081],[0.017652956809464753,-0.0018722581875226178],[0.009091809854917157,0.00436974634914938],[0.013072491088782216,0.008562398446213077],[0.019467848177469084,0.010405974552373892],[-0.015646513226812625,0.014471758151648409],[-0.004232881011219592,0.019625320008876013],[-0.009671373591355933,0.011792478186690472],[0.003522470797471301,0.021573066860898167],[0.000663985473759924,-0.002695947112698163],[0.035560763758054136,-0.019047610892867287],[-0.014666051888204886,-0.011511642082089097],[0.006190218775439977,0.006967961259788834],[-0.005252540011894411,-0.016355482638301937],[-0.017343576688303722,-0.011898049873683082],[-0.0028600085201377747,-0.006446427056755475],[0.01216045549136972,-0.00530040256740126],[-0.00856316208644316,-0.010594613910271736],[0.007807453983774646,0.002006516413471893],[0.007250454841070316,0.002821803421948906],[-0.0023477707685842604,0.00011465877654040935],[0.010470206578230305,-0.0040683954127131855],[0.003860357921429211,0.015788313658343885],[-0.012727752373247797,0.001645062946557513],[-0.0017411904396807168,0.008180838544873321],[-0.02340647270510354,0.0013284711829456108],[-0.0024493616890999383,0.020482879013043825],[-0.019720141982125555,-0.010476693557441769],[-0.011002028083183181,0.012377146139070464],[0.01191550276744926,-0.008302435713049897],[-0.008421456900326361,0.00277303086288356],[0.010348899094869222,-0.012822932514365823],[-0.004581031063710365,0.011608090557783658],[-0.011852839782389784,0.005029586064571028],[-0.009258353143296356,-0.0020877090155459266]],[[0.0010126000770277887,0.016597577861426207],[0.024151781424452696,-0.003693769062570019],[-0.0017163301898516373,0.004387700654885755],[-0.0023223340190786034,0.0028663000510079123],[-0.023637610597349343,-0.016281724948010758],[0.019686604199437505,-0.02331714572004269],[0.0138575038385461,0.012625322060136333],[0.011609605421530372,0.008611059334002125],[-0.002364626273480957,0.006345104270130721],[-0.01064780664934914,-0.007264358402512659],[-0.005643872620784999,-0.004864448924285],[0.001959767241298471,0.005488316042808416],[-0.008970910126272024,-0.006390389279211871],[0.018140025403805417,0.0018303703508233131],[-0.0034030106069182953,-0.0006565368640031258],[-0.00496393024097291,0.002390510595772289],[0.00493385217286146,-0.013284569383337346],[-0.006761159398195573,-0.006723757287992077],[-0.013860293890633651,0.012547970674102066],[-0.0002087021406374976,0.0003433799536882871],[-0.0009811782726332188,-0.021092544788586878],[-0.0013930255034983652,-0.005337112039829324],[0.001165397341188624,-0.0014056842500775775],[0.010674825940326583,-0.0065489595346118895],[0.01596747048787092,0.0013900420822709463],[0.0005304060805061361,0.001543356302079446],[-0.018372653558423928,-0.0021038585733961085],[0.002828851181947265,0.0008564576022581984],[0.005141850104731477,0.004494793593704952],[-0.010196815614055606,-0.0038694726418454384],[0.004317248157077517,-0.016082983463008384],[-0.0006123125916391754,0.01620754716656277],[-0.021445300654291257,-0.012128427535026983],[-0.001700968396512333,-0.014939914750709856],[-0.004472920397895768,-0.014536828366503185],[-0.008239168667248635,0.00037052733458816544],[-0.0021651389426360105,-0.01003315804374014],[0.015017339508778243,-0.007350552066528896],[0.001855900313401001,0.003172910026033426],[-0.009299763450054241,0.00029285153293152053],[-0.0050841312078304226,-0.0018379631837386365],[0.006748552851186713,-0.007915949152976047],[0.012998899764666269,0.014282571654744072],[0.002472427680773244,0.008324199265253795],[-0.0003783460785907091,0.005994549793700675],[-0.0019164969655250763,0.008208063089817256],[-0.00806833472877563,-0.0010880114327275366],[0.007746159343067904,-0.0008559638481998404],[-0.002917352193442913,-0.004226937588255274],[-0.006126226537671148,-0.012549220971431024],[-0.0005088706942475976,-0.009573158700747122],[0.00814338217744601,0.016956230855705728],[-0.024770756049272508,0.0006063686424127417],[0.0011650846937661273,-0.018040065100962628],[0.00593656105114994,-0.00988953646387901],[0.002081280241860357,0.009686611520791692],[0.006355725761413035,-0.00302298335448353],[-0.006747238457609061,0.0057006276222889216],[-0.016084386139085003,0.005112542901569464],[0.005363677537073399,0.008133115973633462],[0.010367758336256286,-0.012577102667311496],[-0.01806579024911884,0.007244581287012847],[-0.00010999784542442136,-0.0011100969672350376],[0.002314473072399179,-0.005154087823840591],[-0.009406271868133463,0.008084677540906708],[0.02550134209939103,0.0029206954907214644],[0.0024752607961826094,-0.015826584920420758],[0.019306281740255647,-0.009069624717368892],[-0.0019623331321465174,0.006824265586823364],[-0.006602699044893202,-0.0007655464524983625],[0.002115354860117849,0.024136982186833765],[-0.0008609355420237939,0.01495456753428337],[-0.024558369900536926,0.006225439801041462],[0.017292023721914636,0.006866359767356659],[0.011451010025224187,0.006864104406070878],[-0.01810556920422387,-0.0013658178089994498],[0.0015850746162766505,0.0033826885202498623],[0.0043732538992390735,-0.006191933285580183],[0.007132161177179885,-0.002949686395687068],[0.021643895127760937,-0.012677371210644908],[-0.008006115080560539,-0.0017174839196076718],[0.018037475478058645,0.010169758283949648],[-0.005056134383090466,-0.007609726508068484],[0.011644111925351776,-0.014804296119930819],[-0.007528178440273324,-0.014468289930425218],[0.004407030701416133,0.006769572417595226],[0.010337128187526046,0.006925581462545033],[0.005272550371113044,-0.004791927296862577],[0.004081241985557248,-0.001607658055304603],[-0.0010673287896676381,0.0010090517772526773],[-0.006920650838671777,-0.008789370246629919],[-0.0026060493527894487,0.00046594980997476],[-0.017244385716840994,0.000701529852821318],[-0.0032227212352162783,-0.0009077795302558644],[-0.007598067777772672,-0.014404710551103955],[0.013160165076273257,0.003519094131727353],[-0.007109396819574825,4.479153860234802e-05],[0.008249513717130487,0.02090023464906337],[0.00784257451832781,-0.0018229980828126735],[-0.0099057557145935,0.010984314277610605],[-0.0019074354940707297,-0.00969374292803484],[-0.0010560060794593154,0.00043956035761095395],[0.01689185788035861,0.00032750664556400566],[-0.007169590656347318,-0.003097666835807555],[-0.01812088566202766,-0.0015184826670169213],[-0.002477431153883421,-0.01705820777659151],[0.0027133694679936306,0.00613335224417446],[-0.01745708764539625,0.0037884327008555585],[-3.4514100450965825e-05,0.010106774497365068],[0.011514198110569003,-0.013075375066948473],[-0.007133966247701726,0.011939696595271427],[0.0059552356008086135,0.0072561149582932305],[0.009144782912916266,0.0009811550912425056],[-0.006792766429237292,-0.015493965689531096],[-0.01027319392812658,0.008828298400848476],[0.01677332690525828,-0.0007718914778730738],[-0.00446335068867805,-0.008141250268339957],[0.005924457295236546,0.0026702874932321534],[-0.027214773010996392,0.01385164774267052],[1.2978466018675333e-06,-0.00882797261785329],[-0.009261907011034853,0.0030517664424086783],[-0.008150327825972806,0.004350658044349752],[-0.002152919168055452,-0.020194050124037223],[-0.009515019811296571,0.00015720532785958074],[-0.023450017165267272,-0.0009744050063856618],[0.007274570890474929,-0.006213532677041315],[-0.020275636688018815,-0.019847851496226032],[0.00764814285631416,0.015609949994182564],[-0.010445320369524362,0.0046585452591405615],[8.741309061500806e-05,0.0009318702521778502],[0.003950223464499076,0.0048153788565466395],[0.003963058070332749,0.009596825750724795],[-0.007681349391386255,-0.006649648990309284],[-0.0036025165068313365,-0.0046957341571333185],[-0.02524795982936328,0.007117821012214845],[0.00999725382560526,0.011581942016128536],[-0.006971697819458469,-0.014047346868486233],[-0.013827739055814761,-0.002057402075837508],[0.020752239897605673,0.0041594449927012025],[-0.00603768912452835,0.005734329380157727],[0.011968193149900242,-0.007881622724349346],[-0.00908054786339843,0.011660945168872896],[0.005589427187764639,-0.013546181035135892],[-0.013093727081373392,-0.0020740364433442914],[0.003960015424962466,0.0013906774364898333],[0.008329900125858726,0.010519380630378678],[0.013545371406233221,0.0043067384600970334],[0.007279302329964434,-0.011071787274450974],[-0.00048042548497737915,-0.002984524968195189],[-0.000956341623564846,0.009964205978302361],[0.007235579494959193,0.0060439390587394655],[0.0025658941200356255,0.0035845245768673217],[-0.0011363971035050157,-0.00023149605997690125],[0.0013145789594044542,-0.0024103169302058343],[0.0056005226400782275,-0.03064438085765338],[0.007804750919586437,-0.0025821307019084894],[-0.006129387723347348,0.0015866439374132013],[-0.012389097784972037,-0.014191535550584077],[-0.0082923080469012,0.00904233058702601],[-0.00906899782671902,0.0001144930194112749],[0.005506747897344108,0.005683335319187979],[-0.006600319411950006,0.011761153117784329],[-0.0004885315098614288,0.011779506668034689],[-0.007603186295772148,-0.007842720341308607],[-0.010032471471392222,0.017639114652718325],[-0.0005335007550807035,-0.010467634973805063],[0.0029732388270492602,-0.0041572641129837854],[-0.0034928657421005012,0.006301750786140664],[-0.00016114553316703755,-0.0035016007970822298],[0.009995433905177561,0.0056725477611455095],[-0.010177270414028008,0.013487677424050335],[-0.003516642542491458,0.0022086328035964995],[-0.004943713900387403,-0.0022059652955299],[-0.010091653972209362,0.011430200161366436],[-0.0028215598971018294,0.0030095364621245645],[-0.008473549325635727,0.00992408839797792],[-0.00753209007138654,-0.004220936053974982],[-0.0015353166969912899,-0.0102190491352513],[0.003722670254059363,0.026829142976840557],[-0.00540900443626567,0.005855543350378746],[0.012324831475405409,0.004580881215768886],[0.0018801191460470846,-0.014346702704142228],[0.0068303109305161485,-0.015374539105772262],[-0.004254947440091143,0.003566457043827219],[-0.009838283718069876,-0.011788039210613974],[-0.01444136564981211,0.006326936451054132],[0.0070395587898437455,-0.0020235725284954978],[-0.00683930165065076,-0.0012178559187468164],[-0.02272424828872132,0.005713788915450768],[0.015673828187015182,0.0006419686823567325],[-0.006039891731079919,0.00021194305460430627],[0.01775613679868474,-0.008933212041739346],[0.0002810541525845435,0.018137167948128825],[0.002935974224432705,-0.007124952660540841],[0.005425539929905376,-0.0074702399516468],[0.002277843541640085,-0.015978201167929095],[-0.006938770767423163,0.013700548181583038],[0.007121045975393673,0.005042669346485916],[0.0030318905171128328,-0.010809960501533268],[-0.02500458378804389,-0.003135301734738733],[-0.014582416786112662,0.0008131049931612104],[-0.00359181686404114,0.018619353335495168],[0.005610131332180248,0.0014322267895281377],[-0.004876325654760963,0.011141707130032086],[0.012839132756887302,0.013952136230150914],[0.0014333390351636637,-0.013801342413362406],[0.004784776158804791,-0.010420985322800903],[-0.0015176156715191918,0.015299069648775289],[-0.0005991478672776667,0.003914062970445031],[-0.01733197928558292,0.011437690592890846],[0.0010816321957730869,-0.000958608005817074],[-0.008646581392665048,-0.019673922948447147],[-0.002799483402223346,-0.007602871605828052],[-0.001224688163812831,-0.0036487741738647893],[0.017790629913508996,0.007784580072136104],[0.011266295287647497,0.009586429037013915],[-0.00843652078748567,0.0001698777044755466],[0.003872832731306828,-0.013320301348173408],[0.00010542433385064527,0.0011337426215502606],[0.0014450664347010129,-0.006586000216799498],[-0.004431424279702228,-0.013159115731356771],[0.008741381009930443,0.019721922305665524],[3.4824187140538774e-05,0.0017649520130745763],[0.0035793897050825103,-0.004408351681522898],[-0.012528502282791378,-0.00866650430037066],[0.003920097862528286,0.004785867182171614],[0.0035894697400467605,0.0005562262480108234],[-0.009376404838219856,-0.0004892351109682636],[0.017861474751413715,-0.012028683491251196],[-0.01668426174996713,-0.005531176072302178],[0.002589683162784863,-0.0017131766052926709],[0.007506319294600489,-0.005202354726415383],[-0.023306596612271475,-0.01971117810047616],[-0.000930683692237167,-0.003413432391627456],[0.0039003394452268797,0.004362355896992389],[0.022290440152310416,-0.020392374782736485],[0.018060231681148207,-0.014159285263759702],[0.014699228384427434,-0.0055965662717850015],[0.0015143042718951606,-0.0021033117023435016],[-0.009811255640035026,0.0073366084429286604],[-0.006048814314751426,0.010053757425491212],[-0.010329562118578129,-0.009448304039413132],[0.004210003683340663,0.007168034155405425],[0.013660123570547696,0.01771039973853491],[0.00430491536516918,-0.009231380118449446],[-0.018557381896011037,-0.0036024955603304694],[-0.003463806367736138,-0.013600242254870621],[-0.003129075021047713,-0.02044087115671024],[-0.014984106754922755,0.005132378642022043],[0.00043254537654156475,-0.005909755190041945]],[[0.004827127860484696,-0.0018791090563325453],[-0.009647790069331339,-0.014498652113496852],[0.008882482376769675,0.010529108662894486],[-0.002752989248987836,-0.010659563807430307],[-0.007369687265480014,-0.014436586792244101],[-0.0062307183707013825,0.012156396353445858],[-0.011584045780186944,0.00618881513408115],[0.0018156927688790063,-0.009313382047301814],[0.016510842485195923,-0.008308145335867611],[0.010764625339609223,0.010215976263887842],[0.005816104802881436,0.010147780199592234],[-0.00664822267054018,0.005842196679682411],[-0.008446672134513564,-0.01932679532674005],[-0.006172739950120848,-0.0009406691334779128],[-0.022363292388666415,0.007307058986322684],[-0.003515308934314107,0.006135307270003474],[0.00858111226709668,-0.011077831421489145],[-0.0020388477749168393,-0.030198063922693332],[0.003008494796666462,-0.02238175209590596],[-0.0065080860243473815,0.012730095388590497],[-0.0013545944017062702,-0.002512266473181819],[-0.0068370980784865105,0.009385961661197007],[-0.002240534809517559,0.0047728492653201435],[0.009228524606914753,-0.006712098246540503],[-0.01196330960747925,-0.0018609052646393455],[-0.01782646819388879,0.006438396879201968],[0.003828157222130193,-0.008954047669786885],[-0.01338011697399409,-0.010262482873918326],[-0.0019878767903100843,0.011037057420404235],[-0.006120250064844214,-0.00029164349115692314],[-0.003991170606319202,-0.009007953413514356],[0.0012980788426176252,-0.0078111812418402374],[-0.006495134391487018,0.0018319199816542347],[0.018095353841096794,-0.0054644330159211996],[-0.00966948343098369,-0.009643520514158593],[-0.01239192050519906,-0.024405978933654322],[-0.002424883901932647,0.018663482382575054],[-0.0016790129942291336,-0.009342433340756436],[-0.0026754180724165573,0.01132659486574263],[-0.003202352349886286,0.012669321696472917],[-0.008552266790182445,0.011638191888235979],[-0.009455433572304136,-0.006190390248235772],[0.012062407034304503,-0.014167487380388304],[-0.0033710184329765755,0.002010049321779501],[0.0010850367405596099,-0.011047017049380336],[-0.015763772027676617,-0.033806168830325854],[0.021970540710372116,0.010985385226788838],[0.003316300771378543,-0.009183663282785998],[-0.0002586746659034771,0.012267543978342219],[-0.008586490000336584,0.002167785757026712],[0.007490052351536477,-0.003599125621370561],[-0.002497192230283642,0.010668422805522007],[-0.004547287842097044,0.020374771066561877],[-0.006687480834126513,0.0027168862624519013],[0.0005756114665543483,-0.012698401708030143],[-0.010274619857504597,-0.019347782206264392],[0.0059516465327803586,-0.001099413624331812],[-0.01379157767070932,-0.0021640790410590543],[-0.012305016536501356,0.0001793233483023608],[-0.005561102080499933,-0.00105030250029998],[0.008492834033392984,0.005746987686077379],[0.013726107195119063,0.015767660292490646],[-0.00610849279281349,-0.0009294767061143246],[-0.009622742172263764,-0.002587424349645252],[0.016226833905235764,-0.006436087923766482],[0.01500219032464567,-0.0047673059038208215],[0.0064275382166743686,-0.005642015396757667],[0.0008141175485163689,-0.010923114797259022],[-0.003962081436253929,-0.0037775408405465376],[0.021797838529666907,0.008016874440691811],[0.005156253617804592,0.02142144789415585],[-0.0015387524093700426,0.01643271793370736],[0.01600315632776066,0.019674476867397334],[-0.008058225600237558,0.01377959449711148],[-0.0074626133231392245,0.00324228566626039],[-0.002172164282425026,0.00921406797544692],[0.012254193540877738,-0.022564336364140868],[-0.006017909396132515,0.018023913551341874],[0.022874201174293608,-0.005434597148747109],[0.0029156593918131303,-0.006395957555178895],[0.013799188759243157,-0.003640681885817374],[-0.02626148876479331,-0.012432716407822108],[0.0013880391519785309,0.0034308550659346453],[0.005042483768512948,0.01114509898357871],[0.009289138159998718,-0.003089793062275818],[0.012480993587172152,0.010924469601618003],[0.004998436249374523,-0.0017291425166714193],[0.025509610299176835,0.011548839176522382],[0.007606669120694643,0.010004532145483606],[0.006549997479836877,-0.0019502585294602658],[-0.003510873120796363,0.014560568595496341],[0.0011683019756337128,-0.0019629549419087336],[-0.009478511313876871,-0.00332835664965688],[-0.009553591487495098,-0.0006185166558459268],[-0.0006163699906584245,0.00259856593477529],[0.013696724670146628,0.0015655924925978882],[0.0057849632360828145,-0.01877883432571286],[-0.010116767386341421,0.005866850430067677],[0.002928867481070265,0.0005556136713036055],[0.002595988145204593,-0.001466077357589352],[0.0009897673337280984,-0.0032866952517109646],[0.006955937391588233,0.00042869536608221336],[-0.011491901687306644,0.0031167810810963413],[-0.009929323874507203,0.023261267609637693],[-0.0050145544081851455,-0.009021345930760755],[0.0009482493446103511,0.012509638356070593],[0.0043978111272385476,-0.018752715776688238],[-0.002294567583231867,-0.005812011514313022],[-0.014416869740719146,0.0199862703212757],[0.007521501228817125,-0.00827070251407848],[-0.012456570971946043,0.00912826043473123],[-0.006598714659545175,-0.000799116869971309],[-0.012471618627903518,-0.011476215636052054],[0.0050256054460833975,-0.011655663563541451],[0.0013561116742190314,0.0077568917961834075],[-0.019143907553309317,-0.00416306477048932],[0.011119251174354238,0.02324668342565702],[-0.005418141114975917,0.010870285714388042],[0.004407981031298948,0.01051304744660866],[0.0037351828322573738,-0.007141109552869666],[0.012800744248299382,0.0010969693529083702],[-0.0016793615862565388,-0.00728425724819079],[-0.0034295525424361106,-0.01276903043934915],[0.023688296020019522,-0.004473634032005443],[-0.003046194657878546,0.0007520028419981961],[0.013986714627102236,0.004729384785136879],[0.009182177555165512,0.017982373969885442],[-0.018487555838532704,-0.005031374327763868],[-0.00044252360531707945,0.0009286980234458377],[-0.012748855408525779,0.004868627652696452],[0.005393888983308219,-0.002232024251433433],[0.005200127713258302,-0.01999820796365755],[0.01877098890707689,0.0001234139493558916],[-0.0003407267716287011,0.014650263490314525],[0.005358423911574114,0.004068430413697124],[-0.02076941267911062,-0.0016053514601035664],[0.005362203972273951,-0.014226227667735611],[0.003616671176270303,0.0030777843105326418],[0.005099293952828072,-0.003652002082289607],[-0.006597830577388707,0.0032131226394549193],[0.005469445304895658,-0.00429664207092432],[0.0039991086717906035,-0.0045774148069037636],[-0.006655469343943012,0.007269630410035857],[-0.0022492781505082018,-0.005073140897397274],[-0.004408347004711978,-0.013847980367683064],[-0.01014545687795418,0.008585696997671317],[-0.010202318643322978,0.00680817214687807],[-0.0076019453525819425,-0.007602565285424639],[0.01138014824467003,0.016695677445484943],[0.004714737319624804,-0.008614153782786666],[0.006092671853475676,-0.007470164960324322],[-0.009374081884369927,0.00425532204565335],[-0.014265801756824254,0.006548234666324946],[-0.010694470340110155,-0.004402329241122857],[-0.006590563815261626,-0.013118793812704827],[0.0023418678480257352,-0.011779165781888827],[-0.0014962767505958259,0.013722492510903479],[-0.0035722494940267583,0.008761179763954395],[-0.01713414995780562,-0.010845879675629706],[0.0004747479951560166,-0.007825996620977093],[-0.012751299063270041,-0.005346156186870038],[0.02396435480129166,0.004881830460000382],[-0.004019562032597583,-0.01738201456388911],[-0.01634460265920265,0.0038923579176623666],[0.011107309874008568,0.004593830127050381],[0.008158520563137935,-0.0023791374874138045],[-0.01835403478232797,0.0028441404837226724],[-0.017287347954741593,-0.02757875083702112],[-0.005241209943522434,-0.0004336578341568951],[-0.004875159018295138,-0.004024079328026406],[0.011768104599412734,0.0057407338002101556],[0.0016244860230266748,0.009662679861877656],[-0.011526252305765837,0.021174345655771375],[-0.00046329336937834674,0.011133447291314729],[0.014521890336683005,0.005409915229474087],[-0.0023468125227036362,0.020315725994800835],[-0.011409413825684648,-0.0003741420027444565],[-0.002912192764500178,0.005005434130931789],[-0.004746317946318543,-0.0035248181498688308],[-0.0053059294787901005,-0.004277722432415685],[-0.009807924585963104,-0.008716089986606904],[-0.01172321371394565,-0.005395179073851109],[0.007554083683089959,-0.013797101075708843],[0.0043390419032167905,0.006607526282275598],[-0.013631596317436077,-0.0033439211438193953],[-0.013418381165233287,0.0016285429764955658],[-0.0011359681742556162,0.010431412612815986],[-0.0052554599159756665,0.005565358707567711],[0.020586750555901864,0.009097330735850739],[-0.0015754897685470329,0.013091464850488826],[-0.003272207994273104,-0.00019701189372878193],[-0.005710005415114372,-0.010233812904502797],[0.006252672633192579,0.0065321110054928355],[-0.001059156802729833,0.0017995160608585672],[0.011813159743476546,0.007634535725552266],[-0.005311565804988751,-0.006764678051934818],[-0.005314505863138173,-0.003114007121622955],[0.018976667621187673,-0.0016512948680107006],[0.008351698833693362,-0.018051526743582517],[0.014177684360301852,-0.01181142904220755],[0.01738266718692869,0.0036670738746987543],[0.008557584353978454,-0.0010030843868412483],[-0.005523895838456356,0.008121062990862491],[-0.016495500297168588,-0.010385823146534459],[0.0008864931087879916,-0.0027062361601911064],[0.0006234670157791834,-0.005111565844100517],[-0.00696792460874291,0.014951236614104238],[0.0029696663384487674,0.01274046272673147],[0.0076592971621176785,0.010108230658152815],[0.023314645939620095,-0.01004093742036826],[0.010364989017838687,0.006031655438643573],[0.01333294380300954,0.0024653593746043643],[-2.5959735870963312e-05,-0.00833255607831373],[-0.0010307880035457652,0.00422720684544645],[0.011884027564799718,-0.0008950784271098242],[0.004941433166305792,-0.002814846623195546],[0.0003376267044651732,-0.0024202934402787297],[-0.0021509639091217255,-0.0002525797874674447],[-0.018263892738678754,-0.002495061692743543],[-0.007065204939026596,-0.006638615213205523],[0.014052664579978665,0.0032373681102344804],[0.004244104879630631,-0.018041032745931843],[-0.00024545258750281523,-0.009815442896490136],[0.019912853349414145,-0.002302290234975038],[-0.011889379756599398,0.004132267437225428],[0.01872586476781714,0.0027126970914675055],[0.012853253154155041,-0.02419654351126053],[-0.01661995617951486,-0.0005894106028911016],[-0.00027277455046698963,0.004613745052518609],[-0.012794408987864775,-0.0003557481604626547],[0.018137795321323816,0.0048095806949413],[-0.028053003697306664,0.006792071115369325],[-0.01107035409987487,-0.0050683303984536375],[-0.021344325272415074,-0.009020907694344577],[0.012383446568214348,0.01605587271084353],[-0.010655783157469133,-0.012866415270561022],[-0.004149402867973599,-0.0009570984973336482],[-0.0025939686343028246,-0.007279608072465496],[-0.007277120530078675,-0.008840411689413978],[-0.0020095039144636677,-0.017883132440498984],[0.0011198738637910612,-0.005525004966799257],[-0.008006022624829695,-0.018926045236370315],[-0.007513610137508387,0.01984640975962251],[-0.0017028762969669453,0.012894011814269036],[-0.00971578700891873,-0.0035058664459403257],[0.014900988471908842,0.0006781306468948157],[0.0009449587081916343,0.017400370397614665],[-0.005194938394184902,-0.01298915502821846],[-0.0016565530392717853,0.005730161318483555],[0.007084178289994552,0.01730626615179373]],[[0.0059545013467216645,-0.009526513335899333],[0.024349635876876993,-0.0005849591095964225],[-0.0030689492280704185,-0.0075576105685129825],[-0.019130526379636064,0.018654615001038714],[0.008487984624608159,0.0026995298844826087],[-0.0009411451293080433,-0.01649531060933758],[0.000751070476375124,-0.003292616352511501],[0.0040626769002545925,0.010321003264211271],[-0.00178750634288833,-0.008628490764696826],[-0.010697093804339593,0.0034154787414463843],[-0.004336205565247575,0.003222775781180862],[-0.015049958813153587,-0.015728150889635667],[0.0014195765521243311,-0.008661737432793163],[-0.009199754080991142,-0.01324568996141299],[-0.014784353643538589,-0.002167589548906782],[0.012313103559823468,-0.013759853472576031],[0.018488279187029423,-0.007308517655714567],[0.00921265338014507,-0.020181285812565408],[-0.005999124790407704,0.006319860775540156],[0.010371742473443347,0.00580134557899748],[-0.021125685194321234,-0.003763633235710671],[0.0074755709660031784,0.005453338176093671],[0.002360999794794771,0.011545387584357119],[-0.011806675655496823,-0.01730626526600745],[0.008103069230308162,-0.012789613918391417],[-0.005003589853695588,0.00569645432571783],[-0.008421464979189682,-0.004937213238828233],[-0.0047768958460198884,0.006370440601977776],[-0.02110294006595503,-0.003002090152998224],[-0.002508418975607151,0.0074994431944748075],[0.01088296246055529,-0.020642723427950822],[-0.007176592332869257,0.01298634367901994],[-0.003450233669614256,0.01493537147767348],[-0.010816226316391973,0.006078588874036939],[-0.013823452660753254,-0.014000927788558905],[0.007679368751736253,-0.008381249635396581],[-0.016965887880997555,0.00984728420326418],[-0.004474730186483689,-0.004607348900198385],[-0.007531908385774716,7.882362308975124e-05],[-0.006404102330355611,0.001822747019044741],[-0.013219903292332384,-0.0002361577092900918],[0.00029688540804863014,-0.01662998343276564],[-0.004297152785480161,-0.015348075024054416],[0.002618188087933005,0.021595976579143472],[0.012965768219996038,-0.0061401214600535275],[-0.0022152013325007795,-0.004208307209216895],[-0.007762743551061374,-0.009755982045151473],[-0.01990207648429018,0.019817534058108932],[-0.004130585222313093,0.004814899002609542],[-0.03372957194562595,0.013446428798069439],[-0.011150617373433251,0.020433101455892097],[-0.011718322363649591,-0.0009800396171545272],[0.015311292667472165,-0.012061065556501112],[0.0018905274559767513,0.004872581570140548],[-0.002157931914948847,-0.009287297967736788],[-0.00794703876035382,-0.022632828036455936],[-0.016947800692552726,-0.000642236834748539],[0.007407142468808679,-0.021155189453532453],[-0.0032578425583418085,0.0022301032665218174],[-0.006737451907975683,0.004954569043060104],[-0.007813555707054063,0.0012997807593811456],[0.003818047336262366,-0.009474978506172136],[0.010401370858143518,-7.608262257528369e-06],[0.0014087150695633501,-0.005717563018191986],[-0.012140362325186626,0.025750353383815948],[0.01785789049145539,0.002389732161484106],[-0.0007617328951117602,-0.017371864844820534],[-0.006147438148470474,0.014447688400614948],[0.0029489327798159957,0.005686755773516223],[-0.009651830413201945,0.006401814193000414],[-0.0033848262851760846,0.004955782072064997],[-0.027779355866819403,0.014042887063153231],[0.0067606970849220585,0.006135113284055922],[0.0005551809125214973,-0.004526976209874571],[0.0025589594470226238,-0.0035376327867446783],[-0.0009534559459137753,-0.0023117550208972687],[-0.00542727661262985,0.0014780115185695061],[-0.006722438465982266,-0.008283774063558517],[-0.009848519325967135,-0.015636996959461583],[0.008371159519484812,-0.014821006838408078],[-0.020628266925506518,-0.0193354882355421],[0.0009163663407335511,-0.015345867398767627],[0.01120351450478042,0.019571475317432727],[-0.008944529051390229,0.012208291241709081],[0.012363705187612104,0.017226590323314396],[-0.01489938063008189,0.007894684963193394],[-0.0333657316636035,-0.007763711809245488],[-0.0074697744547724525,-0.010000912791693777],[-0.011425581185802215,-0.004447984887132541],[-0.01425360727027993,0.0011164244492587053],[-0.017731472657935607,0.013489226692490131],[0.020124137652157044,-0.0025030140083936595],[-0.004698174136370935,0.0076608318188092885],[0.016451779618281887,-0.02819944306828599],[0.008392677723963581,-0.032780085966185105],[-0.017764176347627732,-0.009085445579963177],[0.00032895021865225716,-0.007092163049413617],[-0.01301160181118186,-0.01476821843125625],[0.004030767345236021,-0.016805406454897066],[0.004327413478345873,-0.0015208326212579775],[-0.0026626681102995264,0.0005921683618128233],[-0.0018274538289898305,0.008904586099295463],[0.01057709022910805,0.0009959536921821813],[0.014142654542244384,-0.001082095670573018],[0.011648759567644523,-0.002956475253672914],[-0.00353327072641014,0.002823258549504718],[-0.005757414791879519,0.004407185311345748],[0.0016384932402210863,0.005529766703003091],[0.0032930805556938367,-0.009942123140625321],[0.002641070920218351,0.0005876657939826392],[-0.0010943792912664254,-0.0016650281303412452],[-0.014884258620776997,0.006892284205444878],[0.0018275427493028215,0.014184525162986857],[-0.004756904997805003,-0.009975434627797444],[1.2700230529924574e-05,0.008919208184095813],[-0.004432395478967673,0.002597986362424382],[0.03196700514833213,0.0053363186812550485],[0.0029908672234177313,-0.011780819548543334],[0.009234994343594241,-0.009559627896719205],[0.011042185666728679,-0.005477069844426666],[-0.003319594631493411,-0.009628334437498358],[0.005692237098169514,0.004899598396199395],[-0.005948105944336075,-0.0006812773401827542],[0.00975954228927623,0.008514750247892246],[0.00705734557516685,0.016992543376163245],[0.002924451068312548,-0.01310258288533602],[-0.0010246321367945628,-0.006900185048159287],[-0.010061491315478087,-0.032074727470433974],[-0.007298885151611245,0.02290605190349434],[0.0009717405677180503,-0.0020522693470795272],[-0.013757116487520288,0.008051499601730412],[-0.0267536835514145,0.007718933212254489],[0.007494026469450938,0.0002324237170344785],[0.006843842746669975,0.002757103187614689],[-0.004506173522521126,-0.017100919269852296],[-0.018269482471915257,-0.01028262687807774],[0.007214994910315396,-0.0094321405576806],[-0.0032289250387382653,0.003408582228568243],[-0.006845899808301904,-0.003988241253373139],[0.02551131623581308,-0.007732128982586771],[-0.0022374241764490984,0.004047485346374001],[0.004160987054031208,0.005108531469174511],[-0.017801728251021613,-0.005218355127448234],[-0.006166992413226152,0.004016996880672846],[-0.02140167019703158,-0.005719999518326974],[-0.008240380708391237,0.0008583541806320752],[-0.018276834422584765,0.0008162844086110479],[-0.0006880455269375036,-0.006701020778241633],[0.00651343759129899,-0.0013383325257601301],[0.009221982189577748,-0.007283070910404391],[0.010180439552950664,-0.012404164561404476],[0.004687934493197485,-0.0020807717069548774],[-0.013611207594455771,-0.0018535022248352523],[-0.0056752376122807405,0.0021940219058816045],[-0.0027661395976886355,-0.010877012572813198],[0.009068398522503235,-0.004427049904209867],[-0.010282602526479851,-0.012249949876218177],[0.000136916456233972,0.009407076108981236],[-0.001579509871932805,0.004877515610818449],[0.0025627305964842236,0.0007706323781249652],[-0.0033201773548108965,-0.007821755729804663],[-0.01715440778636942,-0.0033716892241774767],[-0.007048330388080706,0.0007165898237860581],[-0.004745164861693002,-0.009868906670267337],[-0.003706404881312057,-0.004271523965692922],[0.02039655514204191,0.015620056381157675],[0.0007878442600195637,0.010006567020891212],[-0.006626107339275511,0.0035962464880559745],[0.0032748196323267678,0.006915472262633526],[0.01018830297844566,0.005012882191613527],[0.012010173984070564,-0.024264594852057016],[0.005708956861104956,-0.004544967194008979],[0.008814198496533143,-0.0005254699716760614],[0.00015078645609721612,-0.01249115113346568],[-0.00817790728888762,0.0063206732113556775],[-0.010237584370805497,-0.003117486809488329],[0.01618610149966834,-0.002106170490789979],[0.009500030867415299,-0.015057293319843488],[0.0007653371703758552,-0.0031583430693783556],[0.00711985160726827,0.0050253510672125384],[-0.013038842241957877,0.008841777169702457],[-0.031996291572165284,-0.002826107057137042],[-0.020544368775456262,-0.00010084589796675652],[-0.012241284553910542,-0.0015507174730934824],[-0.016357457301018244,0.006411568985356949],[-0.015991844771534394,-0.0019371701245205109],[-0.013635690153239923,-0.01001123867993307],[0.02466497474027663,0.003857305093096295],[-0.005418956139815167,-0.0008349560681938729],[-0.0010477786340618701,-0.008163186663763448],[-0.0154572459696018,-0.012293939863030054],[0.0011202736589733854,-0.0010742168345151458],[0.0005018452468969753,-0.007936615826641884],[0.009504643568401142,-0.00889595197510743],[0.019638292127944573,-0.001753304627723864],[0.000980637557790436,-0.009692312776762685],[-0.013504752924308711,-0.003098177603077738],[-0.013759735709759852,-0.01987741498429933],[-0.014774948834222843,-0.005119858401402494],[-0.002404948195470596,0.004102034568594856],[0.0074251253561568005,0.013857915896299233],[-0.01734914512810098,-0.00686327174551081],[0.0007148368160452517,-0.014868677895540819],[0.00768546741471146,-0.0016157115742336055],[0.009934992324667158,0.013704339835775223],[-0.003215006934706017,-0.010866559679557204],[0.004611368819127687,-0.007385099703304814],[0.009541267871512863,0.008156945814514397],[0.01982057403725625,0.002657548485269783],[-0.0056529491332710045,0.014165590159745264],[-0.0041961279194354575,-0.0254301143526502],[0.006698861513204715,0.023315542369080407],[0.006897925081018122,0.015290828832962098],[-0.009424548413313364,-0.0034419819225107798],[-0.00034852473120142776,0.0009107660801755629],[0.0008538626949886073,-0.0040722868149606056],[0.010063831602633619,0.017664430340475448],[-0.00953436290048092,0.005416769058813544],[0.0033353377358226904,0.032012047920420665],[-0.008459120540481042,0.017570882535329065],[0.015370612030983452,0.006086163518674557],[0.006015480367781,0.01056158105539316],[-0.003985184424929281,0.009023254776565914],[0.0042233293652916915,-0.017614807360695605],[0.0017082517929321232,-0.0023065065768928697],[-0.0052751227209260065,-0.01440362245127115],[0.017496454109969268,0.005662814400663669],[-0.010724979601822877,-0.008067495336512274],[-0.0013459789223824107,0.021291981392364837],[0.007422808758660372,0.005853158420879503],[0.008392825137979202,-0.010311224628542856],[-0.036528959421106295,0.0018036173701167363],[-0.01765319282611792,-0.01136849516253569],[0.021316646394670843,0.009475444761676558],[-0.0027253242632665287,0.005132251169104808],[-0.0040613983675529194,0.01163326919777933],[-0.005339601115735559,-0.00796391641990372],[0.003450366690144351,-0.01358965521509871],[-0.003816876097970267,-0.01985637929551485],[0.007208954552664002,0.002892206902217253],[-0.01412924739556583,-0.00314654238505413],[0.0016810312852165357,0.023702546969455444],[0.0128189414831129,0.012164048207177836],[0.015067634252729747,0.005661653465477551],[0.009311935423662866,-0.00022258853275118444],[0.0017169860882803075,-0.0017162519486975908],[-0.0026278382142592704,0.0024825430265265546],[0.014702765858177713,-0.004663503051320066],[0.003202833764322295,0.011461232103946464],[0.0013765887589173124,-0.011166306875614058]],[[0.012452916756069509,0.002982612494034283],[0.00019518875519301793,-0.0128093943222689],[0.009550589507981738,-0.00310524059451696],[0.006566462019184946,0.011704903743322125],[-0.01548806990319082,-0.006658326146682616],[-0.004121564460686329,-0.016838144808841254],[0.002588759684524278,-0.0017681003102779538],[-0.0014190467169325292,0.004093072236223133],[0.003247675618540325,0.011325430856984016],[0.011668402462471597,0.0016517393559655012],[0.0008753584285141165,0.016541556209561974],[-0.0028444823493509047,-0.006034064407508814],[-4.95250073819873e-05,0.0009043338271614283],[0.029758258278628553,0.007981870853865368],[0.0039916013762326934,-0.0004708177653977684],[-0.0003291082710803204,4.695129168879415e-05],[-0.01591749942517289,0.006505011956571886],[0.001198125053437795,0.004363558495995089],[-0.014228268490073432,-0.02656100474801907],[0.02128203357457477,-0.009191799362172594],[0.002713326985311866,-0.00977374254053626],[0.005550410104540063,-0.007824034843149114],[-0.0035235139900806726,-0.011322083677306858],[-0.02027315968117671,0.008145834867326281],[-0.008996330564007126,-0.009526820176524186],[-0.000435792285487228,-0.024919541212025317],[-0.013220872344909923,-0.005611218241793053],[-0.015542203989431689,0.01782205964909449],[-0.020976791002514962,0.00458509259519916],[-0.0002742700893330844,-0.010055512645759749],[-0.011037679261175874,-0.00644698346527815],[0.004728141097136129,0.0038194804078656376],[-0.006237827925512264,-0.002286501718565737],[0.011167173334086409,-0.005776178977043348],[0.0037818208395059625,0.00588174330869098],[0.02312072527877895,0.00017987816710034687],[-0.009654093772444548,-0.0071350528842350535],[-0.01383442031515548,-0.012765621380908995],[-0.001991786288417058,-0.015658876715182523],[0.0067744818784039925,-0.015896049498955147],[-0.01063615724394239,0.011659099976774607],[0.012425995330815311,-0.0025520062250447197],[0.003357618032970398,0.011735265635003399],[0.009677984943288866,-0.007031281801759237],[0.0172304847415513,-0.0037568253836334927],[0.02073333500869388,0.01875116048962189],[-0.006915344342733524,0.007270428705367321],[-0.0011983264909547246,0.00489331526886077],[0.001160709951373279,-0.005427532787198309],[0.00035309230159604214,0.0014069103383941555],[0.005969915896145388,-0.0018297743913350067],[0.011041624711698828,0.009996147228950468],[-0.005087835240223671,-0.014172418058417848],[0.0012452281550182761,0.02546249379459235],[0.0003001397258614666,-0.008207690390089449],[0.019197810415328323,0.0026229765968851246],[-0.022955060617645538,0.009311194335056882],[-0.004157701638574513,-0.003653863371428856],[0.003716167987501787,0.0011324979531433684],[-0.012375495758061952,0.0008092338648852466],[-0.003775689773864003,-0.020452737422020615],[0.00965844681890669,0.00662953356972267],[-0.0003143442698976825,5.654758153200907e-05],[0.004925908835572152,-0.0021836785027719305],[-0.029538038918434633,-0.00606884878802629],[-0.0047813603744852095,0.02106689676859278],[-0.0029729952226334425,-0.0035798518819072324],[-0.006350705896380226,-0.0033082337899060575],[0.014653952619708494,-0.0052840845887950445],[0.004910463033310737,-0.00040293413273111996],[0.016807850902750363,-0.021660586305022284],[0.022404039306482246,-0.006754164719930412],[-0.011651874491534877,-0.0035514715725271724],[0.004127926959378166,-0.0024688348165094083],[0.0017396002195518758,0.0013106517634568346],[-0.014145965987573688,-0.008330505137521014],[0.012255749721225681,0.009360268730418711],[-0.020552605544130152,0.006380344427551808],[-0.010961853944100639,0.020153725207624602],[-0.0029208780475487336,0.0032426944088724094],[-0.004129636577143247,-0.016095486157877106],[-0.009447616642292647,0.009046826984894365],[0.00617848395969652,-0.004725824522179126],[-0.013861608276702712,-0.005419330650269554],[-0.007989133761005688,-0.013334121641402021],[0.0014895718063529725,0.0011583031665965728],[0.011359150135826796,-0.007659425388149551],[0.006936898737676941,-0.0005539652290258909],[-0.007087452153286491,0.004484583056565075],[-0.006849433774445608,-0.008462882105334163],[0.0015469028198199968,9.795470164948887e-05],[0.009991397765736418,-0.01049221027217589],[0.013116761693846572,0.011880275155773858],[0.010640207950689888,0.005260843977028743],[0.0065337734477317255,-0.007787844777331641],[-0.000898261285891126,0.01225579151605576],[0.006874132816258272,0.0026360655941262004],[-0.01692496816158633,0.0013948301402024474],[-0.003976171824649803,0.02135647459730681],[-0.004105478434534702,0.00014520179274178104],[-0.008228889130448957,-0.016719129319596012],[0.002684601395766152,0.0023369846902570384],[-0.019092950430167736,0.001719423962229915],[-0.0050191222590471795,-0.019048754687138007],[-0.011504687958993877,-0.005043661880704561],[-0.0004291800863447865,0.012091415982842609],[0.013658477408354954,0.010001925809105687],[-0.00563326606815508,0.008574218609319869],[-0.012903701321085481,0.003892772912006362],[-0.021710545634296034,-0.012836174869790398],[-0.009563773990103623,0.0013512403170980547],[-0.00763795951375535,-0.014977581932248215],[-0.008183419179052066,-0.005120734938059075],[-0.022566547312301326,0.00967986621230687],[-0.0009219888655140032,0.019077916666692372],[0.007580605252288149,-0.006378046984200534],[0.0023652364260525836,-0.0015162995997871176],[-0.002691720503792484,0.004131405589870665],[0.020782532852457146,0.014633649642360696],[0.003730349948579079,-0.015536851758965178],[0.015319697207588986,-0.001138879721211692],[0.0015203967477411822,0.003945111405585067],[-0.0012582263880285965,0.009606491152259172],[-0.01009133265483245,0.004433570509432178],[-0.013191834066691006,-0.0070590984070975586],[-0.020288722682100028,-0.0007088240564489478],[-0.0033885643224493786,0.010129803320023414],[-0.013663340384075318,0.004964186235309236],[0.006774071754556326,0.0013082601580637861],[0.006111242246301419,0.02837245895971303],[9.900792900566989e-05,-0.016770264955276448],[0.012940384790611922,0.01038592808901893],[0.0011887778046164308,0.026799477406544304],[-0.008557708370422138,0.0022485969213544214],[0.011920622710579575,0.026078781158891097],[-0.009932139236014778,0.007866483500415595],[-0.010858445723967734,-0.009601668205411761],[-0.017401402311647152,-0.012602519628939813],[0.008273865405221327,0.0034107543433859627],[0.016864711665956683,-0.0053005551326516746],[0.005718607369521782,-0.007487999785801444],[-0.0033543374669468594,-0.012157491906414408],[-0.0034594174174157285,-0.009564415802011717],[0.015049508843587904,0.00754767523059075],[0.016164548654095584,0.0004931760363839067],[0.005229607012423398,0.015099794786912597],[-0.015062346002077875,-0.0005226714179422648],[0.01962950987881151,0.0003397319650855282],[-0.009577211876942356,-0.004671827115860049],[0.007751722804541105,0.009239647782691188],[0.005518744786843189,0.01667485981994398],[0.01681332972180533,0.01858987429269142],[-0.0055370460461754405,0.011439674216815715],[-0.0054079548927580354,0.014120221715471113],[0.0025712430777470137,0.0027867221425321503],[-0.013943503836083494,0.0052282815232253125],[-0.008176323051832088,-0.011803390942051092],[0.010516577468877375,0.00021063299351965878],[0.018986744850970908,0.027737891038710952],[0.016165676965574166,0.009428529145877952],[-0.0027440858466618603,0.01949514638414782],[-0.00691225078968208,-0.0017654806082742906],[-0.004798156313264906,-0.012305628658457255],[0.009349322456425176,0.019266772376385785],[0.0010237616125986808,0.0012881321411845757],[0.012459308446458674,0.0015820103930263975],[-0.008025738204940154,0.006949627214163465],[0.00598558210603233,0.005400325610645329],[-0.004886868140950189,-0.01862796781083006],[-0.005674972837535929,-0.002997798581843793],[-0.0024068584578751297,0.03945370236558559],[-0.006157930704698474,0.008325734494688609],[0.01290766946752005,-0.007579491536990093],[-0.011528311597460806,-0.00309859285053157],[0.010870314226488903,-0.024297087163200597],[0.0014498100463295502,0.003357104253539007],[-0.0006998306938020714,0.007794895449569744],[-0.005851514385633664,0.016949487426011576],[-0.006426862822849007,0.0006044433472639161],[0.009170477491957056,0.002471902423083375],[-0.009382347608325667,-0.014386569686489312],[-0.010703619824989538,0.004250342891224738],[-0.001869777422433399,-0.0007956165209305804],[-0.006043900390674401,0.007399906028931535],[0.023304266684084605,0.02135276275335096],[-0.007005439060501296,-0.004332200532901264],[-0.0009729834101637979,0.009185170794585612],[-0.012473159128415089,-0.01762074446072143],[0.018076723363199876,0.0029256318324447374],[-0.005854087119370046,-0.003665692285720702],[-0.012121098420515706,-0.008900653750822647],[-0.00012143975195420635,0.008219251136697506],[0.006155939174776642,0.00840929329086086],[0.0028254740126023793,-0.012141059734020831],[0.0037057509905718965,0.010164027382320168],[0.010731232681224832,0.015725779983721655],[0.009218765111945745,0.009334740973342843],[0.009165268959649257,0.006735243613180953],[0.00320930514819239,-0.0033071360459655686],[0.015445654629977806,0.007350530513014621],[0.009812799605898186,0.008764978798478274],[0.007015449285648234,0.009723570145994872],[0.005713121556102194,-0.011235897183692473],[-0.005801386729308947,-0.003258835245166813],[0.0024229694774201742,0.0035399150260857115],[-0.0035206403582808167,0.009371179556447671],[0.011561569070699306,-0.02081269562000767],[-0.006125086584279073,0.018744496114256402],[-0.008949085367114371,-0.0009332050293469332],[-0.0006469041253110515,-0.004656966932815023],[0.001737064491151642,0.0032602699401678118],[0.023614523249210557,-0.006338385579018637],[0.012568336522343947,-0.0008386562685615208],[-0.003208619777402763,-0.0021444247697543035],[-0.004422083407568398,-0.023686679621318],[0.006241761443663539,0.010324843261996314],[0.002327102892804527,-0.008518617549575426],[0.00350033679570859,0.004356810607459149],[-0.005187836779828081,-0.014522683970032996],[-0.007952401179322532,-0.005155497848263167],[0.001986794547563813,-0.00034771838392824456],[0.02745539476529075,0.005371542720970648],[-0.0015521055717761009,-0.004187215048518625],[0.01130372344278293,-0.019312543084789874],[-0.006068063748265006,0.007666960052787338],[0.012593350933871018,0.0004429337277017699],[0.029268566959445488,6.806730663455889e-05],[0.0032880273275469156,-0.0011954187128099683],[-0.008829675750011125,-0.008685496232846075],[0.0017125016705285465,-0.004054276606247133],[0.016446573196331263,0.0031503978561860115],[-0.003068913559792386,-0.015315091919260733],[-0.0006994990862838721,-0.000999117080234659],[0.011756485221636583,-0.006190325608960168],[-0.008004034585381065,0.013614960636251432],[0.004282574496909177,-0.0008851324918502572],[0.0007176939636416881,0.008784900075353104],[-0.018937859489630112,-0.002715337797777082],[0.014226052407482018,-0.007275898045953108],[0.0014148731783594623,0.004127563458319869],[0.0007790423392385907,-0.000837487327716706],[-0.0016582517923734593,-0.011443321027833396],[0.00630488941565397,0.004328454560567454],[-0.008594647939018471,-0.002351429159079158],[0.006494509665218089,0.015478428797374915],[-0.006458116821403393,-0.003682525975301839],[0.016747276200972407,0.005400339701663636],[0.006495843308284445,0.024509075809070625],[0.003097997367330614,-0.00540122964793896],[-0.01174087762213985,-0.0023608889350969237]],[[-0.0018835142740074916,0.010018314522066248],[0.01572828991031478,0.003984310142450485],[-0.008637464367510495,0.011897506325456915],[0.015086240616274244,0.0323422493974743],[-0.014615746533142123,0.0016555008625472236],[-0.009560636118119846,-0.0002505103189055805],[0.007727945237592347,0.01878168291174861],[-0.001494846960631941,-0.00887636497748074],[-0.009650998115760657,0.013195997805141704],[0.015046035408595369,-0.01049259874336112],[-0.014811385193446056,-0.009505336051637349],[-0.018654802837869813,0.004633468508983686],[0.012885635049141857,-0.006913290248230515],[-0.008364523159454646,-0.017365884251055355],[0.015336852697463977,-0.012061858300030944],[0.005056796413851486,-0.012227596266107402],[0.011164485838763984,0.006494143453608272],[-0.006041568728407444,0.003199157607231904],[0.010884973457067583,0.0024842677570581645],[0.015263862371158139,0.004018341029699977],[-0.012516816771836465,-0.0002743435990825889],[0.006975119190335843,0.0012742837798588632],[0.008834373579865806,0.011996143403095886],[0.0037275053726947218,0.005775985143183863],[0.0034020851918350106,0.009859526037047334],[0.02100605393687749,-0.0014215948133551623],[-0.0039033507360928077,0.0007185494850381917],[-0.005532328949368066,-0.01543381323653027],[-0.007133417937727786,0.001433412051518629],[0.01536734798657323,0.017270708307197957],[-0.0059854422926684395,0.0003032958212361291],[0.021128374871685337,-0.006933898557519654],[-0.005266071153252373,0.014505221511727832],[0.027726702506850328,-0.01718044733257109],[-0.014675662428831917,0.008434254357577836],[0.0018954352048608123,-0.010942983209690936],[0.007686172125859445,0.001960402855454152],[-0.016879980005940154,-0.0025822547921560343],[-0.0074462178864745186,0.00729132913185459],[0.00976668782282782,-0.00727428008569206],[-0.0019044469825712468,-0.006999605619219121],[-0.0026722048109209516,0.006613428312550204],[-0.010640170683052586,-0.0046734389262272505],[0.012489027756228007,-0.018883205524138802],[-0.008448561082368444,0.007916347366730405],[0.012900549437524594,0.002922921915227163],[-0.011188602399886092,0.007490414674840434],[0.006290406469798948,-0.003169723951171071],[0.002882663051610986,-0.006492922810281847],[-0.0008799353199015667,0.010323064679258667],[-0.006391140481442715,0.006857866381767846],[0.004410433568531244,-0.005484560335718751],[0.007684014274598233,-0.0051327613947498435],[0.00033945450692999385,-0.013126872971888385],[0.004552911724087815,-0.0026638844589891944],[0.0030367099805696284,-0.006611054085521741],[-0.002569277005032861,-0.008366983121888471],[0.0016067506835216446,0.027477902358254907],[0.007608003388580861,0.010717451773440238],[-0.010322337315449218,-0.03126467176143536],[-0.0056281989326262515,0.018595632983791643],[0.004581966811660515,0.017291577906854396],[0.017134299072294266,-0.010375694968034898],[-0.027381116716467386,-0.01350062029315786],[0.009936614303847712,0.015739124045361194],[-0.004680581556075952,-0.012364443387313361],[-0.0066030227979145175,0.016449952726222936],[0.003787496258213955,0.005067187283588275],[0.00939084756431844,-0.0017605321056534929],[-0.014541313601708296,-0.009742519416961434],[-0.0010469979583238843,-0.011662413849924204],[0.003539410278762925,0.00023620616651816187],[0.005538897306162324,0.008475750101893666],[0.0004209043166935336,-0.008582600762215821],[0.00553247452884517,-0.013687042041323101],[-0.0008486856173872206,0.028937913646314463],[-0.0028290414894474774,-0.007204253612967977],[0.02664495245465928,0.0011461655627520767],[0.011348828115202282,0.002348052364877517],[-0.005452133550124059,-0.007832822714235183],[0.016382826349747654,-0.006799927596955917],[0.0008551881901319592,-0.0006598683941822089],[-0.006414010159997392,0.0014438751732188504],[0.005421570821592786,0.004096079332371312],[-0.007891411116773913,-0.018336386968210668],[-0.013255238980034357,-0.009283784864838045],[0.0021665377058217835,0.010299799927908242],[0.012803726699048211,-0.011433435787174824],[-0.009119575178280607,-0.004983055859713089],[0.008471095379318548,-0.013027599154788919],[0.012567370427995293,-0.007407937851179533],[0.003119101121617549,0.012446108968962928],[-0.006172146604611136,0.0001388193354344498],[-0.007706396255414614,0.010535042438188778],[0.011807750763932829,0.015332310384289338],[-0.0062373482135575035,-0.002401385605770397],[0.006603738143943591,0.0011764768862710423],[0.0072946711953185426,-0.002374152267767325],[-0.007408303139263459,-0.005892088832251318],[0.007565327902880991,-0.009108058562132166],[-0.003773823587912049,-0.001116095597383954],[0.005465218156220067,-0.000566467894217501],[-0.02624280209190731,0.00844025149460307],[-0.005760562771212027,0.004268432158270958],[0.012561992002381043,0.007220946585577894],[-0.009531144616484181,-0.017353119269196568],[-0.013082642832710229,0.0013297150524959318],[0.008532138865488233,0.0056024093916215885],[-0.009115832387113904,-0.005457802310344657],[0.002715698258502694,-0.004375971738394352],[-0.019790603440310115,-0.011348251263352871],[-0.006644845675490273,0.006033444707724673],[0.014665157519744145,0.01137259279237327],[-0.005555511876558502,-0.006195346881249073],[0.0005635543525313578,0.005426031643527079],[0.009994344950136668,-5.394104013013007e-05],[0.016046307224355894,-0.0012242302529098773],[0.006622572348355124,-0.000957112134424975],[-0.001290732647203946,-0.009049625851666448],[0.0022900139377887764,-0.008767476067349012],[0.00517468287129674,-0.009465496750304524],[-0.0017182500989148617,-0.015164253450743043],[-0.003556805828052584,0.009110621891404515],[-0.00534474681299616,0.003470235756054351],[0.004901758036863504,-0.012000566088620856],[0.010640398791729216,-0.015216930478256854],[-0.006398568460169302,-0.003126861433198771],[0.013284077229962074,0.00894181526438601],[-0.012205695080533641,0.010977684312459003],[0.005632737358926127,0.018311286910854742],[0.00537076034328594,-0.007319173774693718],[0.006895244323596049,0.007706177624823708],[0.001763454142145982,-0.016845762937785204],[-0.004758173504973751,0.008806459701712607],[-0.017689646472056814,0.0059102997617225045],[0.007729449669808114,-0.02029888837624209],[0.01059073577912112,-0.008596796187767956],[0.021388324259386988,0.002801919432259708],[0.0005947131962124499,0.0015953787447931923],[-0.004358938946175336,-0.009130137602036459],[-0.006480023386665182,-0.019834907302632092],[-0.010769823247346136,-0.000143543795427729],[0.00813619875578377,-0.015431987693068411],[-0.0022066897375883484,0.003196355397777461],[0.012333741099344398,0.002659844860727706],[0.0025916343047258992,0.013562880462286531],[0.011954626468925051,0.018061100946258242],[0.014880583034933031,0.021157520505658795],[-0.0015118459638049705,-0.0017572921806136821],[0.01131016070061636,0.01778958293185573],[-0.0011430858636824032,0.009846371110822977],[-0.01197791756943652,0.016167613958749896],[-0.0011005945005270207,-0.0017367483704794659],[0.008214693995656707,0.017715905053602002],[-0.0039316417419246715,0.004231476346313858],[-0.015412921057938553,-0.00033999488164946224],[-0.0048986525061416155,-0.012725186764150105],[-0.004624662917273194,0.008308568372342126],[-0.009038309619253587,-0.013797295381561754],[0.004165499484243563,-0.004071247847195385],[-0.011698980403426724,-0.00031811215851457165],[0.008517488589581675,0.01653874956024945],[0.00762190326634775,-0.00872234675087034],[-0.025107533757641527,0.010336366313879353],[-0.0035813959337854893,-0.00834577619654288],[0.026621879754726623,-0.012599168919314497],[0.0018571065087898619,0.0013636661892815127],[-0.007128884488279651,-0.0030959157687771733],[-0.013131125989787908,0.00252150273087877],[0.0037817591371370556,0.015631094200855955],[-0.0017663393149013316,0.0022314000551557495],[-0.02203936400534903,-0.003997088610144202],[0.006833604223199341,-0.009791746264798732],[-0.010833067575848086,-0.00037223768759975],[0.0001842119042725616,0.0026888533879622007],[-0.0012998009357467915,0.004993729906747499],[0.01031237982567657,-0.02050504717627971],[0.0028096271307270155,-0.014223470745330898],[-0.004955284379381126,0.009485215309134862],[0.010936840150209879,0.0015154371460266358],[0.014248144100130896,0.0199669462709768],[0.009531456410971601,0.0043427834687327325],[-0.018960193075815302,-0.007290186542178202],[-0.0318616559605727,-0.008295742165997745],[-0.006981429566375608,-0.009097520590533911],[0.013398814726937582,0.00824600183272738],[-0.012344190983873883,0.002586704132149735],[-0.002405756654476152,0.02008016068937334],[0.0041724027113974275,-0.0021977853730261714],[-0.010538545890851202,8.25203761489542e-05],[-0.00020414651988580066,-0.003964140924306536],[-0.011454383794701045,0.003295805322415538],[-0.0020577327616034635,-0.014649536164065577],[0.0046337994004421075,0.013180212290746231],[-0.005744231240781594,0.004724085860785972],[0.016169073728856082,0.008825100586407014],[0.0072554204820000235,-0.01191146929256626],[-0.00933261122327423,-0.010636527769138357],[0.0037262705644400883,-0.007645876696273135],[-0.002593834422977722,-0.004956788070948267],[0.0077464873901776955,-0.012641673179401519],[0.004347016766587422,-0.009088820978527692],[0.010109879747999689,0.009252731970831544],[-0.011482819225039171,-0.003115688125275917],[0.006406097263222077,