{"Layers":[{"Bias":[[-0.011283524240060381,-0.0008525182491340177],[-0.004875344698881516,-0.0010644457034883672],[0.011329345097659631,0.00979642437623153],[0.008701438389735576,-0.030200124708273705],[-0.0066866008214594855,-0.005021813293267667],[-0.01029500415300717,0.007188665545929788],[0.006211242226086719,-0.00582005549022726],[0.004371265444351786,0.001661951505770005],[-0.007061844318093782,0.034181406379700685],[0.011336629364799655,0.016520813088054937],[0.033282655936814176,0.007732209375136491],[-0.007768444742581442,-0.001338972793278415],[0.0161203312486214,0.004592098469213627],[-0.004628354696130885,0.022112141357382268],[-0.0052658133895422034,0.002805808994823882],[-0.009697323063447814,-0.0026201407513599443]],"Inputs":16,"Name":"FullyConnected","Outputs":16,"UseBias":true,"Weight":[[[-0.0266008366346925,0.027030044615503596],[0.0029751622767830157,-0.04224359993201785],[0.0032597930601126037,-0.00255153013316314],[0.0064519927946860706,-0.013682826199164354],[-0.05272332069664215,0.003455189801822285],[0.0005657993267519025,-0.026241427048479902],[0.05387971655672757,0.013046711067087014],[-0.01932427915743172,0.025539393910873245],[0.00360281261849081,-0.000536876409495568],[-0.01923505710223434,-0.013541661082045311],[-0.009490149385941477,0.00010744319747331248],[-0.014427511274977487,-0.006567669947209268],[-0.030802301106933223,0.00463819178101952],[0.006701634174253639,-0.030442951928292328],[0.015450237771732442,-0.05080838513127275],[-0.0350069002804549,-0.03640596386642955]],[[0.01448232402344537,-0.010437703248474317],[0.017461810077792742,-0.02827340654828249],[0.00823413763118446,0.023499448105315186],[-0.015365474638332889,-0.016402164804139946],[0.03775163558354894,-0.001933685743223319],[-0.02302486686841282,-0.0043862125589254185],[-0.031352476441056966,0.0005447610319627583],[0.007908938183311513,0.011888020240431011],[0.03348079705285528,0.011977465146490684],[0.010904591112034151,-0.023525037307157385],[-0.016164265290519952,0.004912387875986019],[-0.02856589127376221,0.005191904770704673],[0.03628812816974939,0.010983480684725423],[0.00455644210567365,-0.026019139687635744],[-0.004179381255529138,-0.050052818231416586],[-0.003838422405372929,-0.013194148779790854]],[[-0.0052600673733471095,-0.02175856697160293],[-0.047316170543941626,0.04274632740652706],[0.027731310734381023,-0.019865345296954787],[-0.012910880334795451,0.00650884071389736],[-0.0070537473315484015,-0.015753770554315333],[0.05349132833462912,0.010606389936640145],[0.07676245736034855,0.034169050594198766],[0.033353584777866326,0.013589624864493095],[-0.04967673523335135,-0.0616995113040892],[0.019774372576266082,-0.04567225838266729],[0.03090517672179771,0.023282417299659658],[-0.011220527743563566,0.053843895795704255],[-0.019529855477450148,0.040113104636046656],[-0.04854190813746173,-0.0010800410034119403],[-0.0031179635111897126,-0.017005640715671674],[-0.005545093657562354,-0.02723986980674294]],[[-0.00900088896486474,-0.06587069866959903],[0.012878752157863778,0.036545496762744],[-0.023669027331603573,-0.042016641892976804],[0.036173094709452375,-0.012314577359022888],[-0.05818247388644396,0.03515684196917867],[-0.02096480646096993,0.005901742503738377],[0.0726416327919843,-0.007302097680418345],[0.03777015862435916,0.033185760404011055],[0.05320163265804834,0.05546840958848992],[0.012823123564611311,-0.010025392810425238],[0.015025631474603816,-0.024714679365749916],[0.009471745111144219,0.0092465153364032],[0.01700884581594022,0.004640830547438411],[0.006553009341263925,0.06605988301231502],[-0.02758480372958097,0.08134785363241959],[-0.01778636038988364,0.037304853625377436]],[[0.012376009686449165,0.0244090667624625],[-0.03138330806252196,0.028087826882156906],[-0.01711760260847146,-0.024134979775837284],[0.023450122233995008,0.003258904030200114],[0.014306217496221124,-0.021779582448338233],[0.0033978169832802043,-0.005432420051257259],[0.014527366261401812,0.01118899811039657],[-0.005459086369029962,0.01310141629568773],[-0.020409630432470405,-0.0008952526258788989],[-0.0009048826812389137,0.008450787746720643],[0.031091133630952117,-0.016261163636257535],[0.013880323952719868,-0.026131707164267406],[-0.004503965838906764,0.006601065402123527],[0.0035260116430615054,0.0020583170028735023],[0.01862721096837259,0.019623775188095625],[0.01839684131212445,-0.007402673609517052]],[[-0.021142319181755596,0.0627941399438289],[0.04316880940296684,0.07541136268578773],[0.012830809981175167,-0.0750688092366873],[-0.0597104438093238,0.015137540200757554],[0.03973744526928699,-0.021257962075832474],[-0.005986484932289384,0.0045672648066844256],[-0.03597541593103552,0.0028539231934472634],[0.004224955466068614,0.019681013978189686],[0.019441942901416875,-0.025063774511199264],[0.038317116753664796,0.030342176186265446],[-0.056596875673911015,-0.011580852648180527],[-0.061245959609324725,-0.06041371840745141],[0.049033497755266074,-0.011274726097620473],[-0.026585680511599305,0.034079790597642115],[0.010632697481001083,0.11123418493618417],[1.5238521512178811e-06,0.030711944968358718]],[[0.008526990800647432,-0.018373318003462355],[-0.04706954978177552,-0.03147465431771839],[0.026852122713947928,0.002156642978797024],[0.025737800723710846,0.004385568599919245],[-0.01719286943517208,0.026114265228960588],[0.051251942925974125,0.016563350827135774],[0.10484306006921021,-0.029664886057965252],[0.06551429788257113,-0.01047012349983051],[-0.027239802494206416,0.11669713059060782],[0.014546698529502565,0.05812535972515474],[0.07297216649312238,-0.05338535257981267],[-0.007869450819560437,-0.05223117862411544],[0.016638519451227355,-0.03635234222058493],[-0.05755302082701411,0.025553557103788854],[-0.020797600131327275,0.05067812006778555],[-0.022868180157110236,0.04692027783835931]],[[0.0034884367050224724,0.044762445709372184],[-0.004305255216619852,-0.0026147901450839168],[-0.003693682288847821,0.019907898407965693],[0.061384163552422336,0.031477163960477755],[-0.05401868314870942,-0.03276689638921727],[0.0027406060101909458,-0.010755257362417045],[0.10476510140616724,0.023530958392103],[0.056470055282845794,-0.02326740123907521],[0.04500381366338322,-0.09828923060061694],[0.011463207794840731,-0.013470226482054032],[0.054728775780695835,0.0423894804293239],[0.0018035069074816609,0.018252219345279673],[0.03624529758552621,0.02276418001619649],[-0.01680642591194987,-0.049461605175008354],[-0.029294177634886336,-0.06816661188055671],[-0.029512182174054276,-0.04471514330101138]],[[0.017911576334668673,-0.00891847827239758],[0.025315404432115832,0.006373864934118968],[0.01772468720317406,0.03729359631579138],[-0.02494124367778541,-0.012657324391311854],[-0.01998958110763551,-0.027367340671809615],[-0.018207176381941952,0.015489559788520893],[-0.021466659166033585,-0.0060261951922929505],[0.0066314036780185225,-0.02407972451740683],[0.007578542279188253,0.016305057266592173],[0.021278439892621844,0.009945193887511665],[-0.0402507796560119,-0.008830516602524065],[0.03322732121299821,0.00027817660987111],[-0.04663095181884134,-0.008646929936893281],[0.03794180726502506,-0.014588887164125774],[-0.046956036857162826,-0.01930703970129912],[0.022492661981672282,0.013341390575572024]],[[0.03321520220892052,0.06783308485261731],[-0.033288616268060074,0.0701026490276009],[0.018003356998407716,-0.06213855350613666],[0.049435537344594396,-0.007080741944970128],[-0.044123870660678785,-0.025837913969294586],[-0.019869550857508217,-0.002155688789307565],[0.03663709170270353,-0.016681110332487318],[-0.016130377379891724,0.034648613383749576],[-0.003981816681869879,-0.04552212213447878],[-0.05509514311481741,0.006275564379410776],[0.036577140178861295,0.008538229272839964],[0.05505041317663494,-0.05652589937145224],[-0.06847571164213853,-0.011252721496125589],[0.05344662645918281,0.0229148820360774],[-0.014678913384136613,0.09671385388199154],[-0.006459285116607763,0.03597775366719284]],[[-0.01947907233923243,0.01892541820306287],[-0.005131399511701908,0.017358295244290646],[0.00010753271274638538,-0.03176713929525494],[0.032203688071410254,-0.010504493879983192],[0.03074939661659254,0.02669525483533534],[0.04893439556710155,-0.09509473882036135],[0.0055216276017936786,-0.015363797993508498],[0.04243616824080365,0.01793112392578502],[0.0009092949370122158,-0.10834604733914917],[-0.007538556248328195,-0.053922118220331064],[0.0648422778693519,0.02782731563747389],[-0.060051559111807276,0.018313505052137097],[0.10345804834171268,-0.00968191990252502],[-0.08400193906608786,0.004253321086882795],[0.018725903023657828,-0.005511605883680981],[-0.06704028300915787,-0.027605227662817644]],[[0.023038209820261512,0.00922072623940142],[-0.009677151974350037,-0.0102521723797731],[0.007084634451163207,-0.015115628418949444],[-0.036745897694641615,-0.011750027564368002],[-0.02533359769459624,0.03705432593219479],[-0.03568598824784719,-0.0899066369464076],[0.020897578432601035,-0.019495495713632613],[-0.031815943298049765,0.018714832527751916],[-0.008498228171917276,-0.08521115076263215],[0.010602459354516397,-0.04585121894878373],[-0.05688139610463971,0.028488407843403687],[0.04130863426782087,0.015615658884901126],[-0.10724236047412376,-0.004333697438301448],[0.07483563886059356,0.009797567380986607],[-0.006996360960917979,-0.017740338821318313],[0.06608856430432827,-0.026903372997330102]],[[0.01687752787687016,0.008962067704276926],[0.03436807206682725,-0.010203857019466772],[-0.0027666904564444604,-0.04985708511730812],[-0.027399199395489002,0.01065747881735065],[0.029634700142050864,0.03356303888853406],[0.005626810979238076,-0.04156966079125702],[-0.08581129446921744,0.027795499990609693],[0.025654454239507067,0.032211872981468895],[0.00025251644968680173,-0.02812631564681107],[0.050964271182512184,-0.023521450000856533],[-0.01905482668072699,0.003722886429960226],[0.033439096141614805,0.013526499786596695],[0.019303010195643996,0.013849230308074265],[0.00020597695299758695,0.0008600530228461889],[-0.04649921832573907,-0.008041329319730835],[0.04365097059296954,-0.04615729578945853]],[[-0.04303858507570972,0.05924365341981107],[0.016293441124387284,-0.01231713559782717],[-0.07577373418999656,0.062214598979694787],[-0.055058442530040046,-0.05849951492476703],[-0.004110670143434645,-0.0662942592139085],[0.01911730830653908,0.033683652889670616],[-0.046744901788360764,-0.05850777406725416],[0.023700141130489336,0.014416863960992194],[-0.03141331251855447,0.0054377125525300034],[0.09046447378328164,0.0034652572572805257],[-0.03957254574192619,0.031434311112519445],[0.03687593872984289,-0.05093995109454888],[-0.005206243215868196,-0.020277376740889357],[-0.03162479935358017,-0.0020102306991255283],[-0.04284936015612824,0.002113030370090868],[0.03385974660361572,0.06802663025521234]],[[-0.036056441055082517,-0.05433765052590994],[0.004747636737573342,0.029526703206292314],[-0.07841716252468231,-0.06374692651353214],[-0.04197742791120084,0.06712718825774755],[-0.02008275102763674,0.061870469448846485],[0.0027731750692630893,-0.035325477098118584],[-0.020545313998323746,0.04994332640527155],[0.01219434286846953,-0.018150839871145644],[-0.023703685753697065,-0.018138789204175484],[0.07217422962148073,3.6800418294226974e-05],[-0.043567220301662817,-0.0272138205917238],[0.046704200483143624,0.03457626034614397],[-0.034029835563731854,0.01664960190288169],[-0.008897797409221746,0.007156464179127747],[-0.044457121108140034,0.026569891391814038],[0.023674592450610175,-0.054038490837626976]],[[-0.005018025248666009,0.05439207048005448],[-0.017427309534970646,-0.026967181733113778],[-0.025011523779813936,0.017988015554538203],[0.001211425695803339,-0.0357329614788439],[-0.02522762453258227,-0.01742611877705362],[-0.0012551943024455398,-0.0023855319004915114],[0.04985603325563642,-0.003842019845545352],[0.03589768455020348,0.0025409299088678472],[0.01150594100195445,-0.0030949208040711804],[0.027341260780467544,-0.002051649233190939],[-0.0013061609620222134,0.00792690824422311],[0.018427345019595608,-0.014582193859779546],[-0.013545312253365138,-0.017705072345500963],[-0.0048387802639020365,-0.03470974644033449],[-0.028439624361144833,-0.04047154515721942],[0.005349408702333015,-0.01330990152418784]]]},{"Name":"Lncosh","Size":16},{"Inputs":16,"Name":"Sum","Outputs":1}],"Name":"FFNN"}