{"Layers":[{"Bias":[[-0.008781771307254334,0.006254618048918749]],"InputChannels":1,"Inputs":16,"Kernels":[[[-0.0009820157641866215,0.004598002771695851]],[[0.013705555468011145,0.012474633185113004]],[[-0.0008766164108471342,-0.037248020332108486]],[[-0.0001450381861030343,-0.011633079304381191]],[[-0.01774148888458355,0.003025284387902433]],[[-0.00016368483138703022,-0.004935191569289203]],[[-0.0028623662880348437,0.012621256632556234]],[[-0.004837219075607242,0.024347122214116897]],[[0.01015144122970102,0.011310049332095161]]],"Name":"Convolutional","OutputChannels":1,"Outputs":16,"UseBias":true},{"Bias":[[-0.007876895207945989,0.0067168847357766195],[-0.0002769614644692126,0.005844574059956938],[0.013068834365904752,0.01197318925870173],[-0.0025662682702994365,-0.03648250084765755],[-0.0004796418419283309,-0.011814918574945342],[-0.01721565806443084,0.004173783297189815],[-8.090777658388505e-05,-0.006446113525638877],[-0.003896409871234203,0.0122409174903466],[-0.004845688873010243,0.0225810951484633],[0.009265273424435479,0.011159066016802771],[0.02756640925645419,0.01850785493455074],[-0.01602666434804219,-0.0012806057690367334],[0.007965725895531697,0.011221767883168261],[0.0076580986309958245,0.017437443222552806],[0.0005543344225052856,0.004521247729928519],[0.003791976157886135,-0.009124334073205093]],"Inputs":16,"Name":"FullyConnected","Outputs":16,"UseBias":true,"Weight":[[[0.013285561786996391,-0.0030059505420954712],[0.00800359981025095,-0.012090059596876907],[0.003301318656339631,0.004612361589773975],[-0.008313540029801909,0.003942559572073137],[-0.013629161557840297,-0.00677436699840485],[0.011513933631213731,-0.003375833872753974],[0.013302950421296027,0.01246249123758833],[0.005544873574397372,0.02490546523547117],[0.0031996667841013094,-0.003063249180893131],[0.0021244960875575107,-0.0013171207439747717],[-0.007283994765757956,0.0038081639416673923],[-0.0118627188276575,0.0053877186388984035],[-0.006728125476875594,0.012398026065664076],[0.007773927455378181,-0.018554779962794993],[0.010042496370192045,-0.005517873421966436],[-0.008064793118681534,-0.015045542464977676]],[[0.018293446961662865,0.004659272101167939],[-0.003205189308345409,0.007247475449132439],[-0.0017571110158066782,-0.007563149144674683],[-0.012818478373255653,-0.005233407866456344],[0.01176927913080631,0.00434741399312658],[-0.0069592611528792895,-0.00906625653856991],[-0.014355831883911756,-0.0009171219558719058],[-0.009401567834200606,0.0013252972094043337],[0.007367810368141001,0.00752828538702614],[0.01558957727090798,-0.010456433893937389],[-0.008449248010991913,0.002729619051593625],[-0.002291848023323307,-0.012239077219314805],[-0.007121305108050974,0.002401766753939167],[0.010561777879400732,-0.00926266067597539],[0.0008041601957116172,-0.011037912597346837],[-0.0003887149336705818,-0.009986041204039047]],[[0.0014527979706577064,-0.0013505815443724662],[-0.0032243949238523638,0.0029306852704879486],[0.016925462906378416,-0.01361447769268187],[0.0025848054207862872,-0.0009965670302023624],[-0.002070933863376441,-0.017099794332276635],[0.013762507394123201,0.015016044533549556],[0.01499881490725483,0.01459288817570139],[-1.0964142995855234e-05,-0.00026714581218427637],[-0.012673090878758387,-0.008697807861371818],[0.006695663694821835,-0.010211485714287769],[-0.01015534073335018,-0.0031232378381715374],[0.004035149585985416,-0.00626142104172389],[-0.010065354761820904,0.004507483860470793],[-0.016588344184916066,-0.004775641716139223],[0.007234634449147385,9.392630368805225e-05],[-0.006023579771505763,0.0013068640660859677]],[[0.00013174141061276593,-0.0010022970170881023],[0.004664902487228493,0.0071805713434033745],[-0.0031661093771360115,0.0005329848416435652],[0.026834736857200468,-0.0039040357687984985],[-0.014007103824694753,0.00643523570424186],[-0.0033004385127075524,0.0008469390907661788],[0.012661475073273096,0.0017122983524618174],[0.006500020046502048,0.00551714901170755],[0.003410028712705839,0.013188158006826592],[0.00300568507667106,-0.005686647598754791],[-0.007264638360709407,0.0038484085411017686],[0.018543208073942708,-0.007778486843940149],[-0.0023492662337356697,0.004204155498136367],[-6.210683517014313e-05,0.008629941296324774],[-0.004697128652990339,0.017485213990660112],[-0.012913172946377765,0.011848358136991175]],[[-0.0015060750943811717,0.005668917830230169],[-0.008100397096704504,0.004051823496332005],[0.0015830627766436442,-0.008221391676745302],[0.025984042287336834,0.021856631472546136],[0.016717250596697333,-0.00935361006690147],[0.0044914834600933784,-0.014513404870565235],[0.005403350642890801,0.005909854921328262],[-0.0035465385736909816,-0.0011766719659540548],[-0.008784715576352633,-0.008977243645949822],[0.008189396348438361,0.007682954839642467],[0.014004945555946268,-0.023809631844807697],[0.004395678202864497,-0.01179999525976643],[0.004290504451240874,-0.00421370458924955],[0.0049310440068481435,0.0020455114417349085],[0.015740625376900845,0.00434147474767977],[0.00223018540857586,-0.007017546769375346]],[[-0.014523046529671022,0.018590043745713505],[0.01563028521825642,0.014729551760597542],[0.0228789474683148,-0.021167157353274138],[-0.008548998930760535,0.007538971727738075],[0.00493611345391206,0.004480816074795909],[0.0010463124781160905,0.004265852901893018],[0.007989642508483634,0.006544208032138668],[0.0037102978452725798,-0.0021289381498538124],[0.018370769153943915,0.006498676129720445],[-0.0014316590554333938,-0.006593986007268584],[-0.014175341699393424,-0.0062258399640430446],[-0.01769575324837133,-0.009840871803175824],[0.006111101582891112,0.003204839442477022],[-0.0007026653555180166,0.006137323430769097],[-0.004236553979447815,0.006092403122228548],[-0.007002521898516559,-0.0023614939131719097]],[[-0.001360697502618959,-0.006220550679479628],[-0.01340490138386841,-0.01006287813963962],[0.0029018228293906153,-0.0036085232611137406],[0.004409079559274659,0.008986754424623879],[-0.012025603060713985,-0.01162996370179228],[-0.0036499799904364558,0.005966135550238937],[0.019738354487335942,0.00478052084307732],[0.001960663467237933,-0.004562260677146079],[-0.002517248760928348,0.001624336502063083],[-0.0017529905603935168,0.001939183891532272],[0.013685913877990445,-0.008889191708278357],[-0.004108850805894684,-0.017976053054568827],[-0.0054560435756504265,-0.005668033830908302],[0.009922509824949364,-0.004306827472804785],[-0.005190217157045969,0.005191602090762795],[-0.0009426962567334664,0.007317307057075572]],[[-0.0037544832811057696,0.01405399346377917],[0.010024408243907108,-0.002311380389242677],[0.003066736375685905,0.009671419394915873],[-0.01522946237952533,0.019003107905809394],[0.004511760842641249,-0.01855700314958785],[-0.0014410914781438214,0.019736276216995904],[0.0052363599973301155,0.017733708757191505],[0.0003426262915825249,-0.010008571861203052],[0.015088695004589139,-0.008905807858850869],[0.0136016617683572,0.0022682412647604976],[0.012085674207130456,0.020131745172684457],[-0.015530169564844196,-0.013773323915663403],[0.019930213562747906,0.011940354733174254],[-0.00881073936021988,-0.010673940886256728],[-0.005241286585766359,-0.0027798219977547486],[0.006764565921386459,0.0009897611542023217]],[[-0.009417805556482887,-0.0027629771170758996],[0.010473872668020016,0.006021845040044353],[0.009869474571356973,0.0008641666486003199],[0.008526709829097376,-0.0188533368330361],[0.0017588674892901224,-0.003343567002069629],[-0.007927617533988532,0.0013593724649396644],[-0.01468195886437596,0.003943347928920925],[-0.004054746638435742,0.00515822081038249],[0.01523875018374527,0.012730955537944025],[0.0032753560572205635,0.0049621462688620435],[-0.005733388060622509,0.009262974249289138],[-0.005293906757885469,-0.0015350707705236448],[-0.008886840095399296,0.005665383915987042],[0.011122882038766617,-0.0088226784710956],[-0.013379273970883546,-0.005442040637478979],[-0.007214543689938038,-0.0010292441735689595]],[[0.00041663389100854973,0.00656895561949681],[0.001572482734322303,0.016656887424134854],[0.008403160782067123,-0.00599492450074897],[-0.0004699188910086204,-0.009742557217828556],[-0.0031552037926792544,-0.014124712710212945],[-0.000868804108280442,0.0008519683899239635],[0.0015139975166400773,-0.002695784543786465],[-0.0032322537658316286,0.014493957396487263],[-0.0009338851927529186,-0.018429201119009316],[-0.018350344445698576,0.007613585174272853],[0.001604961781950296,0.014205656600754506],[0.012825284328981298,-0.010036007507514768],[-0.013816636896299283,-0.0014769181430763251],[0.0036770965525721364,-0.0063971930925599526],[-0.019798607199984785,0.027743324430217816],[-0.012389118778575752,0.006558714214430084]],[[0.006301295540486578,-0.004794104359393725],[0.00610006652571301,0.0025505323369017334],[-0.014400302622486684,0.00019116398100186448],[0.002921931446581582,-0.003822551378429253],[0.015064104069169923,0.0014100857211100288],[0.004729483004087317,-0.020611527341179162],[-0.011011993447631659,-0.016955088764122498],[0.015796021967549864,-0.012202182251385738],[0.009766815112682308,-0.017383621777639635],[-0.015335467133911899,-0.008391195578249659],[0.0074720642688316675,-0.002373363547042688],[-0.015741036306413488,-0.001883564645003711],[0.014048301811988483,-0.020683100226742097],[-0.010728206679348047,-0.0009443062704166249],[-0.007801109246069699,-0.004511975210214889],[-0.018921859285974688,0.009262107583521494]],[[0.00976434745236014,0.004191172229659894],[6.065587455450863e-05,-0.009606090045175222],[-0.0059343031886387974,-0.00916514289626202],[-0.01709324169750093,0.01121013895252691],[0.010947027131481643,0.01607050654496526],[-0.014210222164481137,-0.015304654582649312],[-3.268945429893895e-05,0.0034211216698378216],[-0.0030477110687550804,0.007764244715936871],[0.010082883325260741,-0.009888510893465027],[-0.011130163905627937,-0.011491686318809476],[-0.009341981539039047,-0.006506742948028733],[-0.019252997123542098,-8.737357916985226e-05],[-0.016975950090612715,0.0052689935465921045],[0.013078320224042518,0.0044069399540697584],[0.00011853814316654943,0.0012905214761050534],[0.011117895141919827,-0.009643900106835841]],[[0.014829361891329444,-0.0024862742354111503],[0.011054802286404632,0.0017576375701022725],[0.004317903275177437,-0.018652115485560877],[-0.0049633535919514,-0.0068900882944239504],[-0.0010662273914900644,0.01582497673993332],[0.004259878268208074,-0.00609229959341716],[-0.015379133635118199,0.002324837634067169],[0.0226249181983253,0.00398927379415652],[0.005124299828303011,0.007136632511984338],[0.013835246521618076,-0.001122300935811631],[-0.0009445149215425106,0.006667676444073783],[0.009486229947921459,-0.0025315380892844104],[0.017458553818709616,0.006432969220769632],[0.006587913065874803,0.009640294486029008],[-0.007050001079252904,-0.003902641528511558],[0.015499055685852652,0.0011991196362240773]],[[-0.006649732017370825,-0.0008868987026696966],[0.012277488613924161,-0.0019004438424722366],[-0.01327076352262681,0.007850972435455657],[-0.016618764957866426,-0.0205290676231414],[-0.007271066802911509,-0.007008853022117661],[0.004261535181729058,-0.0026664818128634333],[-0.017906241214769934,-0.015198790281842572],[-0.011721691795823141,-0.0001898771591538863],[-0.0007540690052907252,0.00025987533272225764],[0.01321308324540092,-0.004247120563805377],[0.003908291629180117,-0.0066618108117813424],[0.0023706343445042475,-0.0061456846316714905],[-0.009732351959853844,-0.00830919009242048],[0.007860716752709877,0.004719787204891132],[-0.009263184334027548,-0.0035376637689254154],[0.0031886146662570424,0.0182755629882948]],[[-0.001463472549794682,-0.007839843663291513],[-0.013047458911693075,0.013542440594208822],[-0.018526873943789494,-0.009483397529768666],[0.002472037695574446,-0.007809419206904558],[0.005310703297224848,0.003309185913237288],[-0.0034601157856528142,-0.009747058579684276],[0.005437171578496486,0.005278966212386842],[0.015725738516873047,-0.005408014926820791],[-0.008679000692551965,-0.00457116046507235],[0.007740768631224805,-0.009564942111628751],[-0.012646447821091948,-0.0068967376654650485],[0.011028382672987554,-0.004103178552352935],[-0.002829896128723891,-0.004031942565567039],[-0.008717188813383462,-0.0066332291013807805],[-0.009086054289081795,0.0070730218307770995],[0.0012418983209872452,-0.0026514156764805776]],[[0.0008006414482431605,0.03605771123764301],[-0.006581394005178053,-0.00384864039992714],[-0.008173888584747858,0.008035945702922456],[-0.008517214977021367,-0.023433514353671112],[-0.010088837187389028,-0.005028942060445427],[0.008157101664354089,-0.007038757343854504],[0.007902636814536434,0.001330527147518446],[0.014639665391413674,-0.004306696834819109],[0.009339621512372491,-0.0039946533126047875],[0.004555722821325492,-0.012680475961181019],[0.0017269408935591517,0.0024179106634856086],[-0.0005775194059567307,-0.011736768107884538],[-0.003131666107550119,-0.013173199341835837],[0.003007141443823541,-0.020349057005137686],[-0.007511733906313588,-0.016231007087902625],[-0.001379903755176763,-0.005239357788603014]]]},{"Name":"Lncosh","Size":16},{"Inputs":16,"Name":"Sum","Outputs":1}],"Name":"FFNN"}