{"Name":"RbmSpin","Nhidden":150,"Nvisible":150,"UseHiddenBias":true,"UseVisibleBias":true,"W":[[[-0.012038323208907456,-0.043604363530354184],[-0.013930093130211624,-0.0020146760218396117],[0.00944958831617254,0.021286515857717167],[0.004634861528351422,-0.009617823526892262],[-0.01334605139320885,0.014728745544624833],[-0.01593225825306715,-0.0029922077590448367],[0.030578026155176484,0.009294495086879549],[-0.011572271539578639,0.0007523938717953912],[-0.006946214602797236,0.006719979195096647],[0.016775228519741205,0.005749167129889339],[0.02241081309880691,-0.0023188963434924354],[0.018972912652401714,-0.0046152943014703025],[0.008786379691472205,-0.0060788262643288755],[0.003421491801766192,-0.0067499336319627986],[0.02211240836346336,-0.002576841250850421],[0.008243472110920406,-0.0032569624266873946],[0.020626540788293193,-0.034958562316616336],[0.01087488524417637,-0.014760450410128008],[-0.0015523345180518578,0.01638657834964409],[0.00853734143048181,0.04237436473238299],[-0.0043166213087140115,-0.034196963611778326],[0.020561717284272567,-0.020805345877351337],[-0.03252507503697386,-0.005805956785242166],[0.003506511977159164,0.006744717691134804],[0.0055995282605708525,-0.012041249364838667],[-0.021672216267762213,0.015488424450900838],[-0.00894493423609533,0.015299825989495638],[0.019174232488672685,0.0025453232882581313],[-0.01594296403180745,0.008994602030031286],[0.0019097820017597526,-4.092483296739028e-06],[0.03497280901655735,-0.00011390277358963477],[-0.014366307366502408,0.01987044821789604],[-0.00380256314827552,0.03559676600206362],[-0.021973002825317955,-0.0033697887038040704],[0.016539475197428283,-0.008407150439873843],[0.0005347995830466931,0.02303982962045159],[0.0028190240983081765,0.009557078493811428],[0.00029656340990305216,0.018871541460381194],[-0.001459219972358964,0.009855005049872826],[-0.008631431261860762,0.029451130510103216],[-0.02696442914413972,0.03654343759414904],[0.030602475486084385,-0.01479140480623463],[-0.010517615536935322,0.025575466274420023],[-0.0021909328456801644,0.01975646147312046],[-0.016151947652071532,0.015104650232877777],[0.02472415675592774,-0.006547403570353072],[-0.01677115091154196,-0.016814113748468626],[-0.010119996262504715,-0.01941262417174029],[-0.007366851603265949,-0.011822934548470521],[-0.006107754644586753,-0.007235113428428372],[0.012203157721175051,0.004911772397837322],[-0.013533190052532599,-0.014621232425030632],[-0.016050066006160744,0.014885371766873783],[-0.026118175500192322,-0.003530324410670061],[-0.039619830489339855,0.0381522440135373],[-0.035175593381022205,-0.014031942674971144],[-0.009345308855239537,-0.0020716618630528378],[0.013307633958747353,0.00504664845729791],[0.01263751144947461,-0.0301430105659019],[-0.017134072456838078,0.018704325199396233],[-0.00540705936767677,-0.0016335113828928778],[-0.054589888935413194,-0.04330486162119407],[-0.04722423844670078,0.028060470551643367],[0.00539368899975009,-0.00440473814102965],[-0.01661757237821846,0.033229257501045655],[-0.029333898510615596,-0.010208592978284862],[-0.006640138043409083,0.01143872667707032],[-0.024570307191377386,-0.007331843862485379],[0.003595701355319562,-0.0026179240956399025],[0.025202912923563435,0.003552055193333189],[0.01749133855723204,0.015611449344181206],[-0.000524856486288148,0.013771040029834387],[0.04098726663438604,-0.014216167163738072],[0.003894325855423113,-0.00022588398080474088],[0.022692801111509075,0.00783255862683963],[-0.02742889201386879,-0.014100132752602742],[-0.0026379319799359796,0.0029319364775450777],[-0.0166446051068701,0.02447271442146623],[-0.01086169166679083,-0.008774607629790616],[-0.03599568950743868,-0.0001811391703759064],[-0.00017166822625543066,-0.01409789004447072],[-0.021944432328454316,0.020840101323634116],[-0.005472941683910958,-0.00681106222518756],[0.009901897215691945,0.019374251504335145],[0.008028066531502608,-0.014751500826133128],[-0.0014025429687018398,0.01664414693113471],[0.02641851835242026,-0.0015844320818462336],[-0.0064907452858787,-0.011527953966139964],[0.015141913882761223,0.005943612430509778],[-0.028524523523636783,-0.01432926481234554],[0.010350038264576167,0.015567133197810782],[0.02253269923148284,0.012165132367478942],[0.028292224318826026,0.009340046310567805],[0.027190731764797766,-0.0027132158574002946],[-0.00433761125030243,0.017910101992772424],[0.0019251971563720893,0.0015107999142019686],[0.02342588237237648,-0.009627502696179823],[0.007236037705108654,-0.0022123269662870054],[0.002629980424285841,0.015854003011442887],[-0.0017915436696774858,-0.015040042871939633],[0.031079695364385613,-0.007334375646914304],[-0.014716283433455452,0.023759403987103578],[-0.003981232835370689,-0.02725757719251873],[0.020648718477021197,0.03230362611627249],[-0.03193295514637228,-0.001766718992158571],[0.001963484736571045,0.03049730278985394],[-0.0015528910884625678,0.019422550495702386],[-0.00973190119602449,-0.019743451968665806],[-0.0325061481639999,-0.013600874146886006],[-0.020647644637250842,0.00939982316749102],[0.027612822814188774,0.014858045597076342],[-0.00509998998805701,0.007281397852860557],[-0.0011260407147436488,-0.0016548804589910805],[-0.014611735381380645,-0.004219001879412098],[-0.009976693451483845,0.003077863555678046],[0.027569221393787775,-0.0305126258669452],[0.0010361649064761377,-0.03820268019846588],[0.005161944116070178,-0.015267512348707171],[0.0066739059119616,-0.03552898002544473],[-0.0007898265022870388,-0.00872665508371097],[0.0034885017570901256,0.027815031075560517],[0.003190638164836019,-0.002243015170998358],[0.0032887171482117914,0.013611370012629822],[0.0037863664043568056,-0.0050324239232840354],[-0.056103367946128524,-0.01017780141710187],[-0.011196466532075375,-0.013523532991811275],[-0.005238374837565675,0.006750257258910715],[-0.020805985241235496,-0.032557115260835975],[-0.05181961598450785,-0.016249126003441763],[0.006332409399101249,-0.020167779312183713],[0.003595012434723017,0.019984248713237732],[-0.011282253589228826,-0.009821629541116676],[0.031929603427076764,-0.0055880204868892554],[-0.029068877323138176,-0.01162980985486243],[-0.001453679380116721,-0.009759839375820041],[0.012344853559108356,0.012619334372655245],[0.036346421789239504,0.004217264672044507],[-0.009511246016670971,-0.012252527126824947],[-0.018203978309675867,-0.012456645610372345],[0.03262766329905512,0.015204960144337873],[-0.031654523041545174,0.03752794038644997],[0.010485317743673835,-0.020809050823632814],[0.0181327112122866,-0.011130182943625791],[-0.018950475992628737,-0.024599237283277],[0.011780589871523259,0.01470870325551786],[-0.028742126337129546,0.01340689379211753],[-0.01806776905708583,0.030098268555589912],[-0.005585504715438705,-0.0036117256817916167],[-0.008099801105319443,0.001468786070640878],[-0.0030560951407355604,-0.029309892734590136]],[[-0.012507697444586739,-0.013278903678402953],[0.00154161636339411,0.005338528829700893],[-0.012316221396488348,0.001166145706441532],[0.029489996976454567,0.01758947506749975],[-0.008015442823749677,-0.0065613127616757725],[0.0035613964538145403,-0.005483252801334109],[0.03918506194038754,0.006325042525708041],[0.005866779739301671,0.0010465367295457292],[0.003831435988890742,-0.02090671876223402],[-0.005013456741714877,0.030167525130193124],[0.0530156573432053,-0.03651093847556765],[0.0007067802177846069,-0.007526813901115675],[0.009135347470072112,-0.032738074853255215],[0.024283417910795503,-0.007416759455936203],[0.03939971794217979,0.004465935177229391],[0.011645057283084206,-0.03263826321274661],[0.004269616676118019,-0.00593816803177698],[-0.014548939430554067,0.0004393446818039314],[-0.0007516999966616566,0.04131818035466282],[0.013985913557926284,0.002946318719405782],[0.005964077903509234,-0.019006221068676856],[0.00490813042501684,0.008083079639758689],[-0.025154301727368975,-0.011451057579138831],[0.015426479935800019,0.0017572108351470409],[-0.022453388569343185,-0.01840899199682401],[0.003963552552128069,0.012383343482515517],[0.027894776814526057,-0.013494039711658665],[0.008111874238650889,0.013980661318583984],[-0.0053749287360672846,-0.03241063310213788],[0.0008677490766840958,-0.017729999613791],[0.0022760722026088052,0.005208264943180878],[0.01747200699258683,-0.012571475543981489],[-0.014610177919705066,0.015403326371750823],[0.004448509900590425,0.02188364350903801],[-0.03090664662818349,0.010353151860026086],[-0.005455657639004964,-0.0013387166194220017],[-0.014204579530782612,0.03114893239749096],[0.009120375889422487,-0.02367706173577437],[0.024337783284720353,-0.031614365634068435],[0.008619149921690512,0.039156887100899186],[0.012602867183381283,-0.006518272036674265],[0.031139248088754748,-0.028776581870144438],[0.024582507197059615,-0.007802757003680067],[-0.023097004212264474,-0.03062143536809058],[0.020551097128369705,-0.016104919276752394],[0.006990666332544529,0.0033028956097631364],[-0.009201429234250186,-0.020203846523853295],[-0.04139285266257098,-0.026752919378043832],[0.019612015900118216,0.01767190846731292],[0.02473590844140352,-0.01973263342155181],[0.017426789949138558,-0.03220919305096048],[0.01312131921538471,-0.011957662961829943],[-0.033082437658151456,-0.008354775189874902],[-0.008176782078057408,-0.0151314740211967],[-0.004145890585200665,-0.014006374555506611],[-0.01818633882665293,0.013405296158408506],[-0.007114411328464396,-0.03834428140624815],[-0.021923820976627578,0.008216325618601103],[-0.015116125746451079,-0.0016617139240695665],[0.012528601338803458,-0.018092941957904847],[-0.0007462881225699901,0.0034920669119642067],[0.0063256301440357265,-0.0030153883020164517],[0.025620300775663244,0.0009975711653642124],[0.025553354258783856,-0.021103041832272115],[-0.012073904132336253,-0.02834074698463127],[-0.004850937348563145,-0.02702932697902295],[-0.002944119912068898,-0.027643965490512196],[0.018182544919644873,0.010950198393314133],[0.004510891322899421,-0.010121360243821834],[0.023085435735284238,0.02057166481698889],[0.02821499615440906,-0.034170393612027505],[-0.004133188755672634,-0.01265915245746374],[-0.0031422331435510976,0.0004220002915010703],[0.009305685914772191,0.03530743272744155],[0.03285514489337965,-0.007971921483768811],[0.004345556177311596,-0.023432368558766802],[0.004315125949264913,0.01073149035555857],[-0.04042236956212773,0.013891808829709756],[0.03833640843563962,-0.004178301554995213],[0.003504591512981298,-0.007871335113900112],[0.006541365759138691,0.022310905755519913],[-0.017185373829472148,0.0032908707713095783],[-0.005923516067756504,0.0037727051502621017],[0.019498592747279647,-0.01848788070788201],[-0.004252900250660097,0.007601873974858694],[0.021402452412175865,-0.03241669865279256],[-0.007709531164719917,0.0005575566965638126],[-0.010728178052083197,0.00036412335837985037],[-0.0030708157770066454,-0.002280729844765926],[0.009450868700782832,-0.009655747688044218],[0.016239487682443203,-0.017430755125742523],[0.023711883825278855,-0.007144550605219022],[-0.005506378200042868,0.0035629160055978553],[0.009344940865849024,-0.0011296001744812924],[-0.013252997992945086,0.003007372109952104],[-0.01072514780785269,0.01839807615276816],[-0.013215736880563156,0.0050987886210727175],[0.027525247483807774,-0.011102709722014052],[-0.00045791158549463376,-0.009776633851434473],[0.008279979620299716,0.02273368456210732],[-0.0009486886546398081,-0.013616468950367559],[0.013172400703808144,-0.02198824437180806],[0.0025623282781170775,-0.011308973122824233],[0.00891631994985934,-0.014004042139467418],[-0.013376487997354514,-0.014733829626415503],[-0.024396326573205097,0.017469112329828354],[-0.021608964285713794,-0.005708437352038346],[-0.01289702459831738,0.009637522264238085],[-0.020618694260695618,-0.027236901362677247],[0.001376427583487084,0.007067766796480954],[0.03235965562516265,-0.022439995783092463],[0.018838580738386304,-0.006061146068819332],[-0.014686693031078127,-0.0033939209890121794],[5.1533039871286e-05,-0.008173663067814443],[0.004722244813950926,-0.007838303293690396],[0.025967202930711326,0.018008909505160858],[0.029952663342897663,0.0030256353821335007],[-0.010549621483879116,0.02304942413674175],[0.030592538156909516,0.012839837778579177],[0.0363996266459239,-0.004737611914445607],[-0.0009343815299981927,-0.03228392097802373],[0.007931591662761818,0.021294350214249313],[0.010508767678072684,0.013351565610775213],[-0.019343092799507747,0.013820117586814326],[0.002514286845742276,-0.014690882646081503],[0.011084343253577947,0.02083161432417259],[0.007690518448146557,0.035554158010102165],[-0.05668262525659434,-0.005476395592205656],[-0.005968886614600261,-0.0034317101945041395],[-0.013672280530288242,-0.027078448020138052],[-0.0030116202426757107,0.024603315527442254],[0.006440635904041983,0.014589578429734296],[-0.007332527805200579,-0.003904680139471756],[0.016050626333843285,-0.03809942546686643],[-0.032877628073748576,-0.012053300933876377],[-0.004970414888462309,-0.015470014476648641],[-0.01856836821254772,0.032177089402543824],[0.012093302009083458,0.010701403555041593],[0.010536359255644615,-0.03640428799703213],[0.0005074278224784697,-0.01869593266208729],[-0.023876476017775847,0.004412004056411451],[-0.021841047940009822,0.011824326860956982],[0.014640537535182864,0.0066984719104290005],[-0.0006297147054448006,-0.003115458098888837],[-0.025392175340297914,-0.007474364598713819],[0.0199526898113511,0.0011028041461056373],[0.00573109429006209,-0.014305662800979144],[-0.009240373569541046,-0.023940900168949408],[0.01381347403596644,0.012445063328292125],[0.007862384322827508,-0.006927577363387426]],[[-0.006090755517978137,0.01859062591006335],[-0.028850125673116137,0.003995732475510957],[0.004256123622945866,-0.006349317848522985],[0.01211902935102228,-0.014713146685025361],[0.00876172304079708,-0.010519572917643055],[0.029383131103275104,-0.015460445076676325],[-0.04404848697127863,-0.013462321560278306],[-0.03369364401700105,0.0009561487819370841],[0.005819150046019822,0.026690239137219466],[-0.0003576520181459788,0.02174477547125283],[-0.04084731058466279,-0.018146575054365805],[-0.020517614037656492,0.027138132474749967],[0.014669153121733617,-0.006847029075072236],[-0.02901733934278014,-0.012561688077493128],[-0.03803266397324728,0.003808355395227678],[0.032860684799338416,-0.015420914569868854],[0.025441966528740832,-0.014950128977458198],[-0.003524881560209388,-0.0037806510013274476],[-0.008589907970534695,0.016763754741595215],[-0.015759503432159365,0.01806850721961506],[-0.016394471280481222,0.015748528990933642],[0.02386061591618897,0.006005063158101077],[0.033202402568655615,0.006764488682749209],[-0.03294058200694207,0.02548387921828849],[-0.00506544225609065,-0.0383568043339542],[0.03798829019098072,-0.0020258622853163333],[0.0025694846552264472,-0.005818841701724404],[0.0047283051517599,0.010005590571678331],[-0.006166087077258244,-0.00633804730034924],[-0.014044881333080524,0.005962644286453821],[0.014946517915281714,-0.012039868583978045],[-0.005291936426677257,-0.02228707451462196],[-0.031063167749529455,0.04038650594691821],[0.01994114059524232,-0.005809713210935094],[0.023574860103355227,-0.02123158926885468],[-0.04448828338570132,-0.03059698253397812],[0.015565468382778235,0.03815653052008497],[0.013160989417011548,-0.0008186666020502807],[-0.021579608967381498,-0.008437726328500324],[-0.014831593201655304,0.010193483056556756],[0.02059284167323018,-0.012648533600068181],[-0.023631506344865147,-0.023302362120178596],[-0.003485788823604846,-0.0007138544286373946],[-0.0031908069433341153,0.020987323427440443],[-0.002908068754371917,0.010808137773002534],[-0.014403648519775065,0.01135424752335777],[-0.009544344313049838,-0.003993226468337192],[0.023345886810027132,-2.584209800963848e-06],[0.0012933115419996605,0.009625120772130513],[-0.023341293578952794,0.01555256584113116],[-0.02747824340468918,-0.0021360300518588563],[-0.0150010487226895,0.018957777496740796],[0.004281788699997004,-0.009371986738426832],[-0.0002728601823990278,-0.025831070326884167],[0.0030279876155099644,0.007701316128054662],[-0.007775304052321229,0.00731766460038397],[-0.008902894467312546,-0.03881316881804113],[0.010404338650729877,0.010659905367121181],[-0.0028244931603623883,-0.021964040318978112],[-0.019460201043701306,-0.0022720792378882674],[0.004322735124983539,0.0019203421601403303],[0.0015966821117207055,-0.017420404549318202],[0.03150248802935209,-0.00185657951481817],[-0.010945051328214864,-0.004387343502443085],[0.008283150639418459,-0.011678679452712644],[0.04456679267726933,-0.03433881332526256],[0.0039358535212352785,0.01950529910951892],[-0.016034436365944003,0.02062842946352148],[0.0026040470838584726,0.014165506561722822],[-0.0011006526017083478,-0.013485862943178138],[-0.017652033091367852,-0.008956694366377997],[-0.025779915694922124,-0.01770051365201932],[0.003798206988480027,-0.0012947876173163841],[0.0043751068842129304,-0.00031445028667484746],[0.00023333599423765427,0.01899290149338288],[0.020164619725507357,0.04166834284235288],[-0.00415210428776434,-0.003258147902549277],[0.017256941700189522,-0.01558708562413973],[-0.015968266181164342,-0.021285635229939343],[0.016926409335945837,-0.008684772612482747],[-0.019132985841832005,-0.00867545677078441],[-0.007119041001830223,0.008876433402363177],[0.039718235764828566,0.018289605522666973],[0.017356171385577667,0.0037291197682954766],[0.030929924551526225,-0.018051251080169074],[-0.019352394903280678,0.023869836420229464],[-0.029468845373434416,0.007245546249458194],[0.03808824862666963,0.000346200817303988],[0.016050196999597265,-0.014879271386218598],[-0.04854590039445596,0.001296463758435445],[0.02127016675711463,-0.019407919007476352],[-0.0032422049656919243,0.00651939020785197],[-0.011297647087389479,0.025854703544256556],[0.008876115958732847,-0.017509520281512474],[-0.020787131262152335,-0.034122951383670996],[-0.018022098800657756,0.023521022565873587],[-0.04027201634002643,-0.0074830571537305894],[0.0009071373746605688,-0.00133639260008903],[-0.04443989816314268,0.0237837753050164],[-0.02089655053286935,-0.024155347040576425],[0.005846849459332821,0.010252456309033086],[-0.014631649206769095,-0.027737213902010602],[0.019890286192068445,0.023027733071820974],[-0.008456633988339058,0.008783085201088251],[-0.0009757291752684912,-0.0033103607266320553],[-0.0007577207309766272,-0.028009933045669694],[-0.018974444580053196,0.0012247670751743948],[0.0276556884572162,0.011328340122417319],[0.0017852459999148224,-0.018110343795189682],[-0.025801628226227252,-0.012400054560053407],[-0.022889538973896853,-0.008487371841356972],[0.008312112149524887,-0.002285667341707945],[-0.023378751739784893,0.008010049136966815],[0.023221617475911963,-4.735269657461371e-05],[-0.008877276842436586,0.0061371377291038875],[-0.042157455990164475,0.024527976508805498],[-0.010911225039956738,-0.012107025928384514],[-0.0005134567113046044,0.004900066082117606],[-0.00822646130954827,0.0019178702969978726],[-0.008075152467334328,0.006318628043533367],[-0.009335862033662792,-0.008085554144455442],[-0.009185272902377056,-0.013347128948564383],[0.0031355712837116082,0.00472986865607133],[0.018402402517512715,-0.001589981159805786],[0.026092343478941356,0.0182912747829147],[0.012587713267282358,-0.011530923113061605],[-0.02121809497290266,-0.01764391883723726],[0.03127567911595932,-0.005464583580375125],[0.023383214970374596,0.006203325539826364],[0.006211808420902338,-0.003209532631009692],[0.0238330310324253,0.022547501369633474],[0.030528852902873195,-0.020992319663050214],[-0.015145933346161359,-0.009209535553778698],[0.015796368223263458,-0.018215516724509568],[-0.01930963774943368,-0.021925463063943548],[-0.0068440523625950215,0.026327158218392627],[0.03754137582454513,0.01573688477058273],[-0.0027849013060400763,0.017304666105063864],[-0.012185924975034847,0.04149772161621357],[0.0023284060998198545,-0.00744589670773589],[0.01039130289296928,-0.016941116532429662],[-0.00013376626763587918,0.006561281204854831],[-0.015952990103291115,0.019233661258657917],[0.020037893826717453,-0.015777729856206874],[0.026683975570142442,-0.005501934903367997],[-0.009262480375467409,0.025263581341656502],[-0.0014701215085858592,-0.001659563121237747],[-0.002767609216718641,0.007891495677587793],[0.01763708729221967,-0.0061154083659671265],[-0.016612005177934697,0.0003027040954469524]],[[0.034630239432034714,-0.018909043119588874],[0.014016322546877185,0.005477240265513031],[-0.016693543446844008,-0.019450819067960787],[0.0005026115321188403,-0.006883707071311345],[-0.0031447373318766693,0.024942737256616884],[0.006700196959840074,-0.032845063052139994],[-0.031333106765492315,-0.009587420344881123],[0.0522456297847329,0.012703267423398671],[0.014330198606030615,0.024028366094546973],[-0.00983078687950038,0.01857245781074495],[0.015303591616560107,-0.00993855378552362],[0.013464301811681574,0.00984013349847116],[-0.008316486891538655,0.0183473058286628],[0.030332663378520166,-0.018517209923934123],[-0.01722136843214355,0.010539778939134773],[0.011574802489657716,-0.009261768461703561],[-0.014269802507384306,0.02488733487229117],[0.009051587255146445,-0.030743926381798466],[-0.014863286725207672,-0.037439989204632346],[0.022770478740774796,0.035428787056963236],[-0.010372785152656,-0.008976415009831769],[-0.013616480415067972,-0.01652224756143581],[0.01847945068937226,0.014459868436878279],[0.004262925328234216,-0.00033276463839492084],[-0.006108824198136741,-0.02186777004807468],[0.009201468367104958,0.021670912506003007],[0.024251398657756367,0.0011027307175089807],[0.01867899779111733,0.011189894186403643],[0.02607177573501648,-0.014619539916898804],[0.014668851433395096,0.004764933939108687],[-0.018369839375175667,0.02216487982769956],[0.008963978330310431,-0.007414883314941745],[0.03235574146991532,-0.012011600473346885],[0.003183835285428949,0.003890593462226439],[-0.0047123935356056515,-0.05175889566961267],[-0.007503320729668806,-0.017243744156421898],[0.006377829046869968,-0.014585836245665472],[-0.02681013282370054,0.012920130156556776],[-0.009576774060718479,0.015827977942316118],[-0.013708946452378,0.009660379447501264],[0.021173853625118665,0.010232024702692785],[-0.010170927088787605,0.00385302157320559],[-0.006650988779871147,0.009453147285225692],[-0.025401096666244852,-0.005925512080101233],[0.007179523473866472,0.04118024827353729],[-0.020574424049223612,0.014114681944014242],[0.007108704351108028,-0.02464094325595661],[-0.002187534203276824,0.015693486225509038],[0.014956271003060509,-0.04139201534314267],[-0.011366514329177648,0.031693817987077474],[0.0076396822948071215,0.02168999782746126],[-4.3128415309271265e-05,-0.01846174204606518],[0.013747835861275775,-0.005540682736679268],[-0.014311521154327139,-0.02204852476120834],[-0.0016269711579786003,-0.001060356007598318],[0.05381396566229911,-0.010624660228029346],[-0.0050292613287807614,-0.01014210670499753],[0.009205582535536784,0.02185295433055638],[-0.006390872585564126,0.019423672512849068],[0.00629559098524236,-0.006973211704238358],[-0.014253754004548409,-0.02045306931803519],[0.014802677312357944,-0.005913390026643534],[0.02074797718599832,-0.02446166815568737],[0.0026154118326067654,0.02019555050704833],[0.008392882256041317,-0.02191117696096274],[0.02087850584097742,0.012595240353736518],[-0.015626432659851325,-0.005617597214777027],[-0.012630280591313034,0.012090861953793924],[0.0206871725421402,-0.020338713923667158],[0.005182589357268349,0.018228052301734354],[0.003968168737145047,0.01674665437035186],[-0.020177902826842904,0.011500719627739823],[0.00837600231831806,-0.006816346789799915],[0.006280281706277197,-0.012644035624846863],[-0.013560393449240473,0.014468341206896256],[0.019415634608256054,0.03857214324052536],[-0.013246454394047745,-0.02460645574110777],[-0.007019436402764733,0.04547278323873548],[-0.02109548208205958,0.003658042976034121],[-0.005290033882870344,0.0018091917865712573],[-0.022775604681622527,0.0004233501251817073],[0.009866501548925826,-0.0009840954696479901],[-0.0032592995766219717,-0.009609562490617899],[-0.013977777962492877,0.014136859929970708],[-0.012233858268081708,-0.02810759587628701],[-0.007308058808257964,-0.0074496800444183425],[0.025084060899207575,0.026133298429767818],[0.03410790123965774,-0.00929567747194649],[0.008509908526434923,0.0064879657463384754],[-0.010530064307601,0.002035714634914325],[0.009454397455160163,-0.0073457619703489584],[0.0015855868127326099,0.011006179229950681],[-0.01180782898637607,-0.018133433696925657],[-0.03066803420512897,-0.008598741171580748],[0.007807905544102784,0.003681013067084094],[-0.03170787386919542,0.03633981367429123],[-0.02397648444636824,-0.019900282213317827],[-0.0004661095709274643,-0.025381069627903232],[-0.002694368405495343,0.01140835571110435],[0.026000154842493857,0.015888501190943944],[0.01558400883074936,-0.023992890055799274],[-0.05117191119401251,0.009177609569685535],[0.019247053564750795,-0.01832855612438718],[-0.025220990332520857,0.027446334195383292],[0.0351991421293915,-0.016496910334956788],[-0.007291822420968517,-0.012325790175920231],[-0.0043424512188185065,0.011541136496627923],[0.010392062642027914,0.00569174805668375],[-0.02377279328966354,-0.01122321186295806],[0.0022885586389250565,0.0076295187061896],[-0.03659493889908923,-0.014468125422673075],[0.0031246164056945172,-0.009352125623168278],[-0.021255313704961004,-0.015272237515963866],[0.00526223632783707,0.021296011119006142],[-0.0004738735401374431,0.026933323970711756],[0.03061747666577291,-0.0017650837776606186],[-0.030318126094328483,0.019959551346270633],[0.009628347009967066,-0.015156469485478372],[0.016126918070841358,0.0012708567628706554],[-0.025989394651335918,-0.011167058669562963],[-0.0043466815068200215,0.006344820891580829],[0.009944805025523846,-0.01608415563296573],[-0.0339270659776873,0.021082281655302598],[-0.0179132962287163,-0.01262425797017706],[-0.002640870965262754,0.009853206715834803],[0.04319054675812274,-0.01846126870532099],[0.038062343406326776,-0.00262685795464263],[0.016310251691676107,-0.003118008077749092],[-0.03269607063722726,0.010384069715622508],[0.030852436729105925,0.000558231738208298],[0.005934725421212792,0.010861535099994641],[0.003055766406987236,-0.024729451313904947],[-0.027779012313339232,0.015268846886864857],[-0.009304477058582323,-0.01300313193990752],[0.0074248402568890285,-0.005193755675847014],[-0.001531725630574922,-0.008899203804728851],[0.018639695274119274,-0.035317627627591844],[-0.006596054734205944,-0.00891590018957238],[-0.027021476359914982,-0.009096039219459538],[0.009329721325910667,-0.0018472056272772648],[-0.013836928371028803,0.027112476903395116],[0.0014917172804960032,0.0058262314497886155],[0.005135493258897831,0.04240554239198904],[-0.024748422066572785,-0.024211118959798685],[0.027952858766780206,-0.04439223098386099],[0.01649625592031215,0.004198459697384643],[0.0004376422617617527,-0.013164845261527298],[-0.01861888283970191,0.007729542305143938],[-0.0036795410133498973,0.015345049819267605],[0.012583762403306947,-0.005503175236212695]],[[0.01898531887938353,-0.016166231495973436],[0.002031973969295786,0.015606567432790295],[-0.019559052899637764,0.025327920491306537],[0.016134870085024112,0.017561840865889935],[0.0354791349700242,0.007359586831363171],[-0.007887492272891762,0.01667393219526706],[-0.021846502395595283,0.019421375396368706],[-0.035477650084865184,-0.010309553284555392],[-0.0058961906873645845,-0.024783013085895412],[-0.024398435018424917,0.01831967618897923],[-0.04319815326084938,-0.011863453398413909],[-0.028822497098484945,0.02867154627496081],[0.012209760117277993,0.012301166036081302],[0.009394647014493466,-0.004948188028864945],[-0.00187642665120953,-0.005528227253784248],[0.011825793777466048,0.018849971623257026],[-0.03790566020615518,0.006455032775525862],[-0.03170699099521103,0.021607541224631682],[-0.015354298661357152,0.00034155093535791084],[0.010496458730278347,0.02720772203851083],[-0.015536051775998993,0.00790081680274317],[0.01775851094371708,-0.006740714195006528],[0.009443489218211067,0.001664988238330885],[0.0022123662247944885,0.02023256318964517],[-0.015025194641420558,0.0029197438073520557],[0.02301554909740969,0.0009799289436094693],[0.00811622730842941,0.0322909942971826],[0.00858711518065132,0.022253988105014697],[0.031126248892226212,-0.003355195349599687],[-0.01082975136454608,-0.007117966260792221],[-0.013700801164567138,-0.02986944121005065],[0.005033482819437475,-0.04715705090647928],[-0.017627318396260347,0.009153339771011635],[-0.019146293551619377,0.011620593837925316],[0.006245100744976032,0.003193504291401348],[-0.034242643273011075,0.0015691774650059206],[-0.010648549271398335,0.01687523890362614],[-0.01900839726050383,0.005042072102322372],[-0.010793818709168155,-0.009361530149483504],[0.031151671957258924,-0.0029156447328665264],[0.004077834262187426,-0.019981816090547878],[-0.023861618962510215,0.004442182724048669],[0.002421654182585534,0.02025344257864343],[-0.019487002646617634,-0.010414945609381256],[0.012471693243558006,-0.018309988073717774],[0.016759688519649412,-0.024512116317917887],[-0.0023996143595473294,-0.006794272280510214],[0.034159922608194455,0.026975627961555525],[-0.025810077242973378,0.018196425264699435],[-0.011176095853376006,0.009740854142255099],[0.013572710104322988,-0.026541853619032427],[-0.004857536715498249,-0.006133306955543217],[0.015409324510565184,-0.0060667993058237946],[0.012756279230015048,0.0035927396009756704],[0.003574436058105629,-0.007988311172721327],[0.02029229152209227,0.02321401231542692],[-0.0167956292331549,-0.03255934924927419],[-0.005262074219809041,0.008262431434172289],[-0.019575432923517003,-0.017194657605260177],[-0.015545071971003502,-0.004723812128011436],[-0.01137602811493918,5.281046866193167e-05],[-0.01445310489918931,-0.028245064081429495],[-0.004251178059343164,-0.01786272235374112],[0.01011687682286413,0.0056528799263778125],[0.01386250000101057,-0.0012892121200567988],[0.009988050130376314,-0.014392674225197053],[-0.0011129410298060362,0.019135991571304977],[0.04136056633243501,-0.02211499838394539],[-0.013005560163718573,0.0011434801186680685],[-0.008242379863866394,0.010781512164209613],[-0.03160541532876149,-0.00201653482123626],[-0.023083082147927897,0.0014316820895444314],[0.010768740387650848,-0.0026855098892259264],[0.01277439837235108,0.0031933262424250096],[-0.021963734639688173,0.008283388370372876],[0.032860793547320126,0.009004276726085144],[-0.03311268342218559,-0.015808180887477145],[0.016713475907994546,-0.028537327585547265],[-0.0042897859359989875,-0.0038255824092740002],[-0.0008831340478734084,-0.017673794687847594],[0.009737030129130575,-0.03301388559660843],[0.0269411397768217,-0.016536224995037995],[-0.009026959383924582,0.00847555926090699],[-0.017384653850041686,-0.010330750897280814],[0.006414988381569406,-0.0016908147984806415],[-0.010616685205019547,-0.0073507479506980675],[-0.0171874611108766,-0.007614363014389971],[0.013752013761776389,-0.0007104523331421153],[-0.01455714068980709,0.0011861617797930338],[0.004859289909840659,-0.012836192272976134],[0.02634044155812536,-0.013319747230890008],[0.0019992371459260846,-0.002124095816235023],[-0.010522813843665569,-0.011908487566154183],[-0.009864467068479347,-0.018452373513297864],[0.011535623365001354,-0.0025670632163323215],[0.017244742585940248,0.01922020122569519],[-0.02344523293442425,-0.03529229927572281],[-0.00660905260772612,-0.00016232231608768587],[-0.02182092946527318,-0.0022565474732011972],[-0.011252588022100744,-0.022968854869603504],[-0.004716605061979229,0.0109832954619349],[-0.009727947185606175,-0.009683803586093123],[0.007280231899780604,-0.02521935365038679],[-0.036713214098121505,0.00816769906082169],[0.01860572509515896,-0.012361064594310963],[-0.03906667274399765,-0.004318070687260799],[0.03176695930308286,0.016878784054276043],[-0.0055074512599796975,0.017271892708305602],[-0.004992580795527748,0.007967962580561282],[-0.0045376567763502264,0.02699459496679514],[-0.004119779595803106,-0.01653148700503261],[0.006929541947842371,0.02703667482089505],[-0.030623152743867798,-0.013613899003479445],[0.015936795918549927,-0.007369508260505579],[-0.021874804170592597,-0.005460483624701085],[-0.007651448926093898,0.008679443767111855],[0.002682124218942267,0.01652608478396777],[-0.027313894674720826,0.019309056550861556],[-0.01570929013208023,0.025061602303046257],[0.021670381332245605,-0.01357830510549704],[0.006596147166439425,-0.022587170955333226],[0.0018738921658032139,-0.0279649177073657],[-0.008355498328232076,0.028992815311981876],[0.029060884544112726,-0.006682892597942581],[0.023300495554430853,0.00039548162151650454],[0.002269671885208861,0.02412994521295029],[-0.02204275875900815,0.02439383119425018],[0.028598873190630057,-0.01920262498390293],[0.017146937514630502,-0.01506467182866673],[-0.0006077814467950716,-0.01080112164533813],[0.008247278912223217,-0.0056249151997764665],[0.021358279543338788,-0.04058263519536892],[-0.02483853209544945,0.010385463728340451],[0.03978867047930551,-0.010803313889649996],[0.0025506597786193004,-0.023175584642067253],[0.03763011471490355,0.0233044283615704],[0.005054198156487022,0.011629210310179184],[0.004276564941827322,0.012204237609952505],[-0.0058486695748034756,-0.015307369853273774],[-0.01507969702591058,-0.018166224449639317],[-0.03772459435862242,0.006295156765617696],[0.005160286287646479,0.007621373506923292],[-0.014148616711663401,-0.012061575583959976],[0.007062747193071922,0.019373122389480395],[-0.011606715444977806,-0.004620045992309358],[0.004960586045597383,-0.01848843104718887],[-0.00957042242259639,-0.025661660741337574],[-0.030263100167944246,0.0030280238378565553],[0.012214881835062835,0.0005920165041395542],[0.010155216786626254,0.003542028614388267]],[[0.00802815063802382,-0.012298001534660976],[-0.005541765388591199,0.02803905828814644],[-0.007989992458372914,-0.00486518407881654],[0.009752378884521108,-0.00998427383009483],[0.026136721116692803,-0.005314709743730781],[0.008143170966512207,0.018951741573987827],[0.017866165850113743,0.01683064152179571],[-0.026856339838854576,-0.0016706818007235088],[-0.011465013734963168,-0.0010768768135150288],[0.011706576235926181,0.0010785296512471555],[-0.0041246426512143285,0.006190696913579523],[0.023790034691150652,-0.0028745158380877114],[0.010574917234684972,-0.00935089673011633],[-0.0012197273976501458,-0.007708078982048406],[-0.009940762804725403,-0.008322211068809777],[0.010583192847896869,0.04300632953710227],[-0.0022907946025242302,-0.001911036426678284],[0.0017918828755427527,-0.0036115981345465884],[-0.013138458101735728,0.011513465517453777],[-0.009120752976574633,-0.008647489709982463],[0.010745683509117941,0.021716657691651504],[0.007001502967750316,-0.005968595606934454],[0.010171014185326496,0.029540110735148124],[0.005095523138419382,-0.002086128624551869],[-0.03343962320408132,0.015891733177575147],[0.011596802207373172,0.031749474632401346],[0.00019513656115792226,0.0027180855992281444],[0.020028962957229654,0.0036896586011234515],[-0.0045314027848318795,0.016401591579594577],[0.0042292962431056446,-0.005165699516339002],[0.0035814064253401143,-0.017884502420221726],[-0.005960381566274534,-0.029652937896554807],[-0.0038795680007419906,0.03719528648641582],[-0.001943529614013709,0.005625947211628809],[0.022173254725424762,0.014082303146624144],[-0.011575313784123773,-0.007968737815084719],[-0.012258230377981261,-0.02846358198289275],[-0.01517861344598232,-0.006460888203242978],[-0.016092753690566373,0.022870083461164366],[0.00926597893785837,0.011419974199665341],[-0.014399914015958536,0.01488023459283022],[0.012903954808235564,-0.02360906825754496],[-0.016415581081516202,-0.021210180720300058],[-0.00702989988204192,0.008296647838135007],[0.031239986728176322,0.01745374100540467],[0.012048262478995035,0.006195359827987349],[-0.010998592474284202,0.023653105592613535],[0.009123167145626648,-0.009745842178071635],[-0.015753223743003236,0.008989907968793566],[-0.022647447323596578,-0.010099511458241006],[0.006677135280192984,-0.0028558053351657553],[0.016240714589509833,0.004549587788633593],[-0.020594063770175017,0.013238591066979041],[-0.006775063969590719,-0.05161589276627299],[-0.009884300126703507,0.005865118631171438],[0.014383448292009847,-0.00924266443872331],[-0.019244183091295664,0.006817901375020746],[0.015321346326912393,0.0020964615908986997],[-0.0034120436155577237,-0.02630719237653439],[-0.0034940986428933078,0.03147863566949442],[-0.012049197463749651,-0.008683374766515912],[0.011799569295374034,-0.02317553976040844],[-0.008851282169368428,-0.014626471294845005],[0.001023965796501438,-0.00478283706604322],[-0.011875430174945472,-0.002917823667345372],[-0.023612857894816458,0.004070892819412968],[-0.0073750599995120415,-0.020196122185295984],[0.029028434017719897,0.012110747317796364],[0.0019112903078778005,0.019315385182251985],[0.02903913419959604,-0.01442442669641936],[0.010689346823554,0.00822658094078858],[0.012392470867499079,-0.020752481589092906],[0.012744755020408404,-0.016055471102384106],[-0.0003990142130858959,-0.004778143203076443],[-0.04267016519154782,0.0031231564628660417],[-0.0037881573550439893,0.009173628342870235],[-0.025007161528179438,-0.02920777980309106],[0.008823888214714581,-0.0010670776686218615],[0.019743383774453258,0.01949034449958354],[-0.009188442889243541,-0.003691090191645906],[0.000691641833561703,0.003032799386705123],[-0.03991089171263204,0.029937900517696174],[0.0071042753222531774,0.027022983331291786],[-0.018225528171354678,0.02546494437656788],[0.002115915945405672,-0.02978605621713075],[0.019134046067242137,0.013404948605545999],[-0.004907462204507876,-0.01440890846391899],[0.03142181234986359,-0.007298114652985651],[-0.0017822687350991027,0.035862566712827185],[-0.022543843249350087,-0.0036799173105100773],[-0.0025758212538650564,0.0014279333678875953],[0.00475266402604692,-0.007523536471047986],[-0.0068044835599726065,-0.017156578233916028],[-0.01785580553571789,-0.022163053990909676],[0.022783536710640203,0.018850050909243802],[0.009399495459693258,-0.02978205739498162],[-0.02412018767047864,-0.006805077498380303],[-0.011037747204368387,0.013973393292632856],[-0.021420937360103844,0.004066202800066783],[-0.024063999479195235,-0.006508311535494771],[0.018355588612900414,0.03261645446121212],[-0.007020517759840966,-0.012367055078275749],[0.03135421649134721,0.008193411547081742],[0.0008413938134640261,0.032044721696572534],[0.02774454749862707,-0.008573379323307002],[-0.00739603485060293,0.041951878153281434],[-0.0010142476602272273,0.02411991844261469],[0.017659161162245245,0.009888203618613228],[0.04107646221375194,-0.0019797487571457293],[0.005808777181637293,0.007458369014524345],[-0.02846306496854408,0.016674299836000273],[0.006954305181068776,0.0008271461409631315],[-0.00848473578544259,0.005357841253159231],[0.004703507876189894,-0.025682775279513473],[0.013132923091162485,0.041769369714916335],[-0.016137509154549742,-0.01427281160213965],[0.013299795229992618,0.0015640512937524528],[0.03503342933744196,-0.029874826036720408],[0.0037633909771906744,-0.013613230129915615],[0.01675687872870238,0.04342108554098974],[-0.0017389223009266347,0.00886953074837085],[-0.02087357245459365,-0.01856207858368711],[-0.0007671755280023763,0.02183011698918963],[0.00560243712153077,0.02919054508020026],[-0.003527121628786281,0.010618006339722447],[-0.024031338100779745,-0.023386529032179137],[0.00023470619559287577,0.008581465745837662],[-0.004833135200203918,-0.02151673540049279],[0.012537673571002089,-0.057980256517442985],[-0.012869851387940617,-0.01777940203163602],[0.02095132396686039,-0.01790184215987319],[-0.01855907158641893,-0.0032486646115422054],[-0.02660916286623522,-0.027904908578820345],[0.0056126417040970955,-0.005715284212378657],[0.00525803893397409,-0.02102455004229879],[-0.01646246779689779,0.01409192593243313],[0.006442270424781739,0.019611047528566343],[0.008913268769171053,0.007998891293696606],[-0.013756181562817802,-0.034501851584297846],[-0.04511443055949224,0.017739576697138985],[-0.006223782075813656,0.00413418789037952],[-0.013066230514965343,-0.00047842228809799863],[0.004568672455802994,0.01800840364910119],[0.03037542061927071,0.014509860819112578],[0.02567732880553442,-0.012611984218062791],[-0.02270863838444547,-0.02735960370729179],[0.006753700163313691,0.024184207736591426],[-0.0013391984394620924,-0.007362502804308302],[0.013695739367147072,5.730278673720529e-05],[0.04453714359807191,-0.0123746226195619]],[[-0.022502532970680222,0.027689845852467695],[-0.009271888843183407,-0.028928922421250492],[-0.04614177748136001,0.0010723762757479751],[0.04058235626672111,0.003214654192285323],[-0.011722438263568774,0.020685737398646903],[0.0038109099780834045,-0.011790697076320085],[0.022625779824593052,-0.00828520888224877],[0.02145773892608896,-0.008029921805339601],[0.04101662599087952,0.015600195435833415],[0.007972833428847808,0.00378009759715947],[0.012095549677426503,-0.008192088443476683],[-0.02576146291607239,0.02561931119604781],[0.007732992934260352,0.01149406679181138],[0.02118541934716889,0.0035964597254190965],[0.006742573977092759,0.02263356616974428],[0.025676328127591533,0.006074725180901203],[0.014466812492921494,0.030940064772036518],[-0.000598859852290054,-0.043160717462914736],[-0.008333618773439183,-0.004642222571573778],[-0.0033707158011198625,0.014877549532324527],[0.02738019793666153,0.011293309416702282],[0.022152010481069878,-0.008645880029568261],[-0.00499259904202975,0.007928979828301314],[0.01655744996370177,-0.009353879288724908],[-0.01304498669213885,-0.007258384557753838],[0.046254404456548874,-0.008870639883329501],[0.0052321613811312645,-0.020296051893535092],[-0.002209224995125895,-0.0050991017997626484],[0.002857465319254811,-0.0018089010730801024],[-0.012562799531376598,-0.030697650419251044],[-0.039076314022599576,-0.02381710492383161],[0.0026811941060583353,-0.018437012474481526],[0.019731836634615123,0.009744330391231511],[0.014578706855865911,0.015340971530948542],[0.006669161776062988,-0.021407072644709882],[0.007097056691163995,0.041819472177866926],[-0.019701001765697623,-0.027877891076962997],[0.053845518013258056,0.018894938007554103],[0.02669223275645028,0.0074671472114040075],[-0.026879127752033886,0.014317564811979423],[0.0007879621122868549,-0.0036920500819448638],[-0.0125008428035616,0.026131240935490758],[0.010122178349074413,0.01118809203880036],[-0.005381580334167541,-0.02131163538143673],[0.009646288917323035,0.015125727720823696],[-0.02359320613903705,0.008853970548916559],[-0.0022751134443618794,-0.004312335116347016],[-0.002358938254704983,0.01263009687558644],[0.012722943538612353,-0.010594697723397467],[-0.030972802297371475,-0.022006810173582622],[-0.009688442376571602,-0.017865848952218905],[-0.007899287151402692,-0.025617693804036397],[0.025773825621510427,-0.02131185850460323],[-0.010586780083454438,0.0427051135918667],[0.027917991190382036,-0.023378492257607082],[0.013676365750959856,0.009848923742083422],[0.005174719323881669,-0.007374767628666204],[-0.028197686128840438,-0.005575703132518463],[-0.027587450986066808,-0.0016036051909508989],[0.025265175188304748,-0.019317848007622103],[-0.013228129062738014,-0.009394612179831669],[0.02396522898536105,-0.014145301307491144],[0.010170719255896368,0.004560152010563635],[-0.011757898289820348,-0.0001841992771149819],[-0.014894460446865453,-0.010055342237758575],[-0.007093611470374607,0.014780305370463261],[-0.029655714149826658,0.018742173519427953],[-0.022154214035514277,0.01113955573669497],[-0.02916264338442572,0.013343973545271205],[-0.033892638771279196,0.0024960634906603858],[-0.00361615009797477,-0.014028569812001311],[-0.007603592159457944,-0.002247681647933683],[0.06982229057844845,-0.012670549548841031],[-0.00249728824779338,0.01266296178284941],[0.03582531395879196,0.019293789052412715],[0.005784836794050366,0.026574512310398975],[0.015846501901008576,-0.0055285730818413],[0.027194571208381674,-0.013224617223863288],[-0.027406452909082436,-0.020595833369103547],[0.013946808548825029,0.009431369058273891],[-0.007030594061229873,-0.005929291731291789],[-0.006414923280199697,-0.011928463913014047],[0.004391810159244212,0.007308437384592601],[-0.042117272094249515,0.013744869944110569],[-0.006383461112477439,0.017245992130262552],[-0.008095179380978557,0.02375091662065821],[-0.01959482591416693,-0.009092747753649991],[0.024275891046834693,-0.013389966628149464],[-0.013743713608529159,-0.007717302207524689],[-0.049337332234034685,-0.005145604833398418],[-0.026637911405271962,0.002291297289712733],[-0.017432211953873844,0.004580513147801493],[-0.0161779831077289,-0.013229633900145055],[-0.028545302027137977,-0.012402729004154227],[-0.02566422634630608,0.00560006066050795],[-0.0066211406337224705,-0.005878231216690722],[0.006192418210944969,0.008467134311713408],[-0.015360990805943142,-0.01828861974172117],[-0.041169198406678584,-0.003939610038897744],[0.01801561929533321,-0.010230495767646054],[0.0035686749916451193,-0.010399242667787374],[0.019114282459887996,-0.02306041063807309],[0.05251705877522202,-0.017398816538239995],[-0.016000677616652727,-0.00530934699518369],[-0.008485151546268142,0.010762145446057206],[0.011408468869782295,0.008704880321711092],[0.01644449805208717,-0.00441163539298752],[0.007429466195711919,0.005454109913911371],[0.010118554580648427,0.017589910624404397],[-0.01555597559805991,0.01411912651875857],[0.02918517437488223,-0.0038850715123358425],[0.02387281244649443,0.024480239581611718],[-0.04647737870849123,-0.0006025641184639778],[-0.010845707242441372,9.413591284022655e-05],[0.006789958223074682,-0.026912077697370557],[-0.0010027364406437304,-0.011909301845690331],[0.005424427656704598,0.007686501062612889],[-0.009186447212451411,0.0030273476760740857],[-0.020826728031361395,0.011752120125275687],[-0.0057016536991380765,-0.014783540256365559],[0.009020252242121466,-0.0036290390702218597],[-0.0008906048387987081,0.006135765722157958],[0.010854490562352659,0.0011948971297172113],[0.008391804868520987,-0.010898076244230871],[0.0286598328845925,-0.023368287852673936],[-0.012302122312437535,-0.0005384368416922183],[-0.004915126440466828,0.008752716841738017],[0.0035015428963469978,-0.01039014732512387],[0.011467552305982058,0.006318034932059822],[0.0012388442763416182,-0.005537955388782242],[-0.007564621082716634,-0.011846201927043339],[0.01528027085444457,-0.010288153483866153],[-0.007847355991312078,0.004383461327233722],[0.03349475306766891,-0.007942569481581865],[-0.01570317974395694,0.021754413586133683],[-0.02385625852513617,0.014588875252845154],[-0.014671958850009261,-0.019194386056415443],[0.025128451354205505,-0.011830934793027083],[0.016780193217064886,0.02113647924753658],[0.016827915231318595,-0.02259811520066917],[-0.011199747541448007,-0.036094023475373715],[-0.010101693291691523,-0.015515051235131767],[-0.01122578332619225,0.026938024669959496],[-0.017443607350032208,0.008168171129006356],[-0.0014648759435779398,-0.02118038609861027],[0.003211075285247805,0.0062362572485736316],[0.046357345000341464,-0.006806100523201498],[0.019057857166256915,0.0010550784283267552],[-0.0021991062759576865,-0.030667260836111588],[0.008892352745637672,0.004831996157182177]],[[0.015684743737048028,0.01626305000975355],[-0.04897103805605144,-0.008313096806365043],[0.031176346544069623,0.00030230560182529956],[-0.008583783066008079,-0.0015150757143938963],[-0.002112905617599795,0.015974519603101724],[-0.02140976959989803,0.005187141608643433],[0.011069613558634747,0.006474255879670923],[-0.029295598996542493,-0.018098739040188883],[-0.002256548885620123,-0.0020936867207553282],[-0.00787964587951873,-0.0003557718225666879],[-0.03351674736804474,-0.0293175042220471],[-0.037766807802424036,0.018265408278215135],[0.05253110149244317,-0.021730005553980768],[0.005324783963958003,0.004483996721308641],[-0.020464805007485976,0.012207303720178725],[-0.020824082784109976,0.022376551960276974],[0.008184491801413748,0.015010456159373044],[0.019407919868042474,0.00104006947833595],[-0.019783172851029922,0.0024403232504579303],[-0.0016389110641776123,-0.013972630019995016],[0.011226840624704998,0.01872203524857072],[0.017284476371329172,-0.009722249205473987],[0.0078107782255682125,0.0234933746972151],[0.02316810145973015,0.01139210468665202],[-0.003094449892374231,-0.009016504720367514],[0.013543827396724082,-0.004323852919626946],[-0.031812754951626825,0.002007531457934381],[0.022121411450169232,0.00996174795843144],[0.017632409811408973,0.015267297030158793],[-0.00658383572754495,-0.02846851123900603],[-0.002245131639343872,-0.009457325635940804],[0.024819645834863107,-0.02247091360149303],[-0.03641605219493051,-0.019154688718195076],[0.02380488240144176,-0.021324576501181317],[0.026464072135540584,-0.005949459041887935],[-0.008378828764576199,-0.0019692988834643485],[0.029280573578074565,-0.011739412619897199],[-0.03698144033619749,-0.008298919006795101],[0.012785029701599865,-0.010166147528984931],[0.021459171714053177,0.021359932204277024],[-0.01937745191010528,-0.011551681926418369],[-0.0006894914178409647,0.006040327953602498],[-0.015725124258012414,-0.011183718311733298],[-0.018753362857364123,-0.04241979661278906],[-0.011484974797361951,0.005295131553277884],[0.010022954538665889,0.002204962990076292],[0.014373678314526203,-0.006514601640827099],[-0.0012271626055838916,0.026594062862302946],[-0.020430266460313526,-0.005059374212152018],[0.024311685342898477,-0.03621115631120805],[0.0039892797591082425,-0.03716288679091356],[-0.021782004118906153,-0.03623690574410731],[-0.026139290173541274,-0.017422117716966713],[-0.038301316814258655,0.030010907182642755],[0.042219553909082067,-0.02189201811405197],[-0.010262956723094435,0.030219246381492787],[-0.0248285070635632,0.0014358945753690313],[0.04322988974897034,-0.015764797572774675],[0.03060962915156281,0.013187306985669441],[0.0012194784221187995,-0.057257567151480795],[-0.0077338423132291435,0.012851054021527369],[0.03318296184595439,-0.011863780988467533],[-0.06600341351029491,0.0388440178438872],[-0.0016287585638466232,-2.9267359932577588e-05],[-0.0318861559270252,-0.04950100642572218],[0.009108857956736677,-0.008378820724117792],[-0.0019228733632170123,0.01832475895441242],[-0.029586768256258535,0.006704065858609325],[-0.018063546925324397,-0.002951742656054353],[0.009266793491361629,0.014954368604138419],[0.012008669842833681,-0.02180567204197156],[-0.01507380978134059,-0.02276553348437759],[-0.011142433882768914,-0.007585788491584964],[-0.02500479749158696,-0.012754261323388605],[-0.006228710841230681,0.010749261192097924],[-0.03706014945863663,0.010858363774456987],[0.0010903385676539245,0.017322765883353],[0.004665572007730726,-0.03879427218624771],[-0.0023439459505422864,-0.012846832096339982],[0.029173723931398426,0.007608899034093086],[-0.010563014315784056,0.002063546811171507],[-0.0038769497762533075,0.003650051230408823],[0.0023861562345555724,-0.008212038663583035],[-0.0013102436545806863,0.014337064674509032],[-0.00021378391606436515,0.02474914739169648],[-0.04914086685730133,-0.01697560606419115],[0.002321660635357486,0.023329746603156887],[-0.02824912376790207,-0.011577449489259761],[0.01767615207443072,-0.014009646492845609],[0.0021807187480734117,-0.02947079317248499],[0.010258362180229817,-0.00019443919295594227],[-0.012193337492405903,0.035267239619670876],[0.015071245211032668,-0.014526947760050674],[0.01938824448894127,-0.013414384341560885],[-0.028859594056225717,-0.009905416108061199],[0.04022838690882074,0.0035547617647229816],[0.010813979256332441,0.00732723021046146],[-0.03737128575635557,-0.023496128765549722],[0.013538974844731596,0.0033277917170777527],[0.016319433842204804,-0.012654372205108826],[0.007562471380000518,-0.021486546333187247],[-0.02136115875203924,0.01641392428521813],[-0.012323898589284062,-0.00010174009860576538],[0.004621520642326285,0.01097971812109901],[-0.007231287242254492,0.012600454336990268],[0.013499702416390837,-0.008286541870688566],[-0.006604462565160026,-0.022697525148110204],[-0.01428446097765851,0.00019410416050309927],[-0.05026139173635479,-0.02630750731114287],[-0.004671443578340338,0.0359367827585974],[0.019369963845100004,-0.0004989564920043142],[0.003087994594582702,0.026279852771141123],[-0.010822840856295214,-0.012838544463922717],[-0.013490935625816207,-0.022307362835611605],[-0.005612779666047715,-0.049797800554399106],[0.004800634290555801,0.016864396926121267],[-0.008975275517501376,-0.023315102138097198],[0.04559303600712159,-1.532924482305128e-05],[-9.186233446406263e-05,-0.028652499327031452],[0.01502199802396417,0.005431024996319716],[0.021980850480693367,0.0012772190259271255],[0.008171105530449018,-0.04310366340061243],[-0.04275846900073168,0.0029166491911886624],[0.02720038130219629,-0.047651429043963606],[0.0194772555343601,-0.020055534511676645],[-0.009780925111162863,0.005860001443443026],[0.03403184580120069,0.03353025529763233],[0.007163824604271116,-0.0014809023176541227],[0.010452713735183812,0.015863874079155516],[0.019077197511074277,0.0036573554633447677],[-0.03175339329382768,-0.012222057343247541],[0.002218589628897845,-0.020989472690899492],[-0.028320570887898938,-0.011510518615380425],[-0.0036676366330174715,-0.005446937739834667],[-0.01928732522241886,-0.024159189544129458],[0.02731270962518819,-0.01716310004944318],[0.002404477918664015,0.012256893028413563],[-0.020942038596876638,-0.011906160224660681],[0.024118190028829825,0.0027414328009721777],[0.025840128383951097,0.003245601024919262],[-0.0214940113491063,0.0005248368316818088],[-0.03168679092057553,0.009991832522486283],[-0.0001422938376063926,0.02451356593771652],[0.011455582306175868,0.005012641896503039],[0.015167049186354338,-0.03319117855817826],[0.0011540380565506526,0.012068926696044143],[-0.000962156454540697,-0.0058502297784253],[-0.007897097819562278,-0.01617006115625892],[-0.008121621801049637,-0.004426689632040308],[0.004305252086759857,0.011454950313862407]],[[0.008127684461900623,0.01097630533152012],[-0.0068924144364923634,0.008133805711218248],[-0.00935401784521293,0.01858154043325761],[-0.01555583179430076,-0.0006810017057876103],[-0.02675761371256171,-0.00187649825002831],[-0.017946413660274548,0.02970043274601262],[0.0030557683592300064,0.02049313765499762],[-0.017723551170130594,-0.004261064187311458],[0.0029389718038826465,0.005685694643058681],[0.004288374839397341,0.011926605796581542],[-0.0357210140783747,-0.013615401074319924],[-0.01398820908509661,-0.010657944609650362],[-0.0109308174105581,0.011167615604810091],[0.02141611666974263,0.009480185811036984],[-0.003874420355529935,-0.008142696499687244],[-0.008862443204183633,0.0011687137101289201],[0.012974504650301338,-0.022269673851764614],[0.006917963313173115,0.011058452329291356],[0.008359070669576236,0.016882228336096244],[-0.006883368173331295,0.029310884163067017],[-0.008225314001604549,-0.01882243727681383],[-0.0117967420961728,-0.015615358062930665],[0.0037799136480656664,0.013599510616521272],[-0.009410768194684987,-0.01984298717597034],[0.014889316589522014,0.003128642984330563],[-0.02009906217918775,0.014859193800452253],[-0.01486001394619042,0.005679018861949453],[-0.011436151991354183,0.012024012605410974],[0.0012763381229508564,-0.008158255733518777],[0.017090659076109335,0.0009289495885894138],[-0.02896885890561421,-0.01797679870956161],[-0.008513627532417915,-0.027700665685127263],[-0.003545106413428588,0.021276787673351186],[0.018409514478051794,-0.0025728502379209883],[-0.011464171216578693,0.02002306827212459],[-0.0004604593010383172,0.016687644126897556],[0.01745943837558731,0.026819787138949957],[0.020180502343774585,0.028166198802906276],[-0.019636327490651452,0.005316629632588632],[-0.0070700888523952945,0.007357409892827569],[-0.005881759382327985,0.017544687520590636],[0.015751148142544552,0.007228947052915741],[0.00518288336164,0.00506277212522011],[0.024567749754446082,-0.00847588518503034],[0.010444368736026291,0.025231815443491845],[-0.006840915664247034,0.009090319722106286],[0.010436243268722261,-0.046982810955485094],[0.00018404505175125072,-0.07176622808627683],[0.0020281789351179946,0.001356969803047255],[-0.03023730729283626,0.010674912501550443],[0.001632725629134179,-0.014973813278562079],[-0.022208995453489068,0.03551230917233806],[0.00048383532238023986,0.005240677897795051],[0.04540151806205475,-0.014034254803508518],[0.0012467443005733732,0.012225780262575037],[0.024943082904470767,0.007696174629807708],[0.020599356128954152,0.01015160488292345],[-0.019662470733091974,-0.005232972675005402],[-0.021122852761544037,0.00550320100527767],[-0.0020987971787551785,0.006088157404375107],[-0.00954783962030492,0.010884661237983685],[0.024786637196312307,-0.001032448512310197],[0.021250521682673915,0.005702813238896861],[-0.05026532139061738,-0.0038059452804336154],[0.003015537727192828,0.018990837717219166],[0.012481800663129289,-0.025670194896871848],[-0.0023890332241392953,0.029006566719160277],[-0.005843486139786627,-0.025763552604098905],[-0.017516069344501124,-0.023693256346515826],[-0.02139946747236485,-0.021195393413263666],[-0.016585116616631708,0.016290134471010284],[-0.019411637168107926,-0.020435557106795958],[-0.0054244960871180845,-0.008863023375743947],[-0.009319786427617126,-0.0035708471299673345],[-0.006884943615306796,-0.01271578212675302],[-0.004671954795918264,-0.0013882783555035816],[-0.007021644914610942,-0.014932623263064241],[0.0161333644473934,0.012549375368986994],[-0.018611294328270626,-0.016915689769155057],[-0.014114105685232622,0.018199643460695962],[0.012363112405029355,0.005078348470528968],[0.0034417447982182437,0.0026695803207718825],[-0.014874853002960674,0.018756872216887936],[0.012308977340529034,0.031841814896765616],[0.007274844414617907,-0.013397277875639763],[-0.01453581210590808,-0.007917464396544597],[-0.009306685378529522,0.0022207181193525],[-0.008123376297157044,-0.013588035299684236],[0.008617964775933027,0.00798574800701421],[-0.019567507350415507,-0.01139289237108342],[-0.04320008071570468,0.0022788356865131674],[-0.019044813497202617,-0.011824849233387023],[-4.531916877394777e-05,0.0050061619277016875],[0.005859751903049366,0.0167578310833591],[0.030713756804029164,0.025648248618780196],[-0.021346069531408017,0.02308178661898642],[-0.023722395634414258,0.016048454156214014],[-0.01638528232477316,-0.01628044769537386],[0.02689177972640285,0.033615036603827475],[0.0160697937745135,-0.011612412467223172],[-0.004370048591833936,-0.024729735433288696],[0.013582728409033637,-0.02167444724588228],[-0.009132980529454517,-0.016814156082499053],[-0.01435688011264207,0.03857030521346713],[0.0007441942608607125,-0.022988029084287376],[0.030435578158721995,0.0294852553623456],[0.026953909014904225,0.02310860047724616],[0.0005642254531052701,-0.010532119258683022],[0.01821315999393695,-0.013226622495887814],[0.014033228649204702,0.030356005477038397],[-0.03674463382754895,0.011751629836346453],[-0.010663328319905359,0.006482316529265841],[0.015869368779246436,0.027952142394486536],[0.013689602516385277,0.028312019778348473],[0.015268638848163516,0.016695428273221225],[-0.020451850332501548,0.0005017278750247701],[-0.0029146285414659266,0.0036810456206424974],[-0.006531044505326734,0.004933886588747762],[-0.01852972300147829,0.003051697866949421],[-0.022004572054854475,0.032758255652463326],[-0.01683139940556367,0.01187610538866364],[-0.030806331576307373,-0.01750817439345769],[0.014620823082663985,0.005636607753450199],[-0.018796408381591575,0.009081353400542287],[0.004135852730781043,-0.01636226846722693],[0.012269316363366896,-0.006910876156608863],[0.014299813500703185,-0.007049173786986395],[-0.010478033109582223,-0.012292062283244115],[-0.014320854663500505,-0.021571734099834615],[0.024201655655681442,-0.0018986496769236296],[-0.020304079960729395,0.020875571310149978],[0.017769595328272568,0.009686505239576565],[0.004641994090234661,0.0052893939847171775],[0.009856422441639567,-0.032743700979872],[0.01006943112215982,-0.010318463570205234],[-0.010351797792281582,-0.044369401262974215],[-0.008514088349959469,-0.007547313124677371],[0.03323235488076837,-0.0009784623585072482],[0.032122787220502796,0.012346169976631804],[-0.003084973457826443,-0.02368943026378615],[0.02188381150969803,-0.00026146924655125973],[-0.002692727881546656,-0.0016861257933152062],[-0.004245489018640011,-0.002291567197130813],[-0.023507890401677285,-0.012028623664593337],[0.02850996797566953,-0.020563408089757734],[-0.014225755558046265,0.012911098889403907],[0.004002065237454049,-0.014083254068473095],[0.0376397566588913,-0.019324454891428297],[-0.033261026779431394,-0.004286334870646481],[-0.0397107707934478,0.0025922544421324635]],[[0.004624800742904143,0.020128329429791432],[0.00765084704127618,-0.00968329862803621],[-0.0010358942090123392,-0.0032898307884157542],[0.04216754623548398,0.008604655074557982],[-0.016215289873877284,0.0003322174472140415],[0.011834589394370461,-0.013831486546506368],[-0.03105195676507173,-0.007689710218039194],[-0.012780885375987525,-0.030932754273217775],[0.014526628140646938,-0.018917634609320843],[0.031162147055129402,-0.004925385002821898],[-0.009108404284689738,0.004055551988195058],[-0.00994060050547816,-0.000746350115151723],[0.015116886990382005,-0.003434459126551134],[-0.02019443402905732,-0.0011881761129948322],[-0.019086439628287613,0.024231556154578546],[-0.0007693345254912525,0.011738716247694457],[-0.011108204207113843,0.041835111194953166],[-0.003928821430849028,-0.0248114577546491],[0.00761188676244628,-0.018744732868717986],[0.0012841890611888212,0.012861471117200226],[0.017083476218625597,0.011337603776906808],[-0.0063333800819240435,-0.006776562475334588],[0.0177945952980477,-0.019290656318279604],[-0.033762448114026886,0.00248061349897018],[0.013909069268870495,-0.0144196043529168],[-0.0074719311776878005,-0.01954448283321912],[-0.02130303383838436,-0.010118744020917322],[-0.00539713854567583,0.023972450881680773],[-0.010109459144197431,0.0009741566905845135],[0.003736252053319139,0.007151112048181504],[-0.0017863978730585754,-0.007872742265767877],[0.019065864224429244,-0.030993338762624122],[0.01957794706186922,-0.0252750316285374],[-0.006485612729623936,0.002014688564419007],[0.004454543678672507,0.008314865373320327],[-0.016097494230528853,-0.015420435246571936],[0.01985563991593585,-0.009860080623019293],[0.022451286748004243,0.0159391732337028],[-0.011859473211567445,-0.009905929043414214],[0.024442664230041735,0.017140816049270986],[-0.014710020964284332,0.007387161166398022],[0.003805351760546665,0.018073099641964303],[-0.001498914617472761,-0.0007038168525872663],[-0.024529656328043804,-0.003167683277138242],[0.019314512144661355,0.01562621651570262],[-0.0030131192584997705,0.001389382829811259],[-0.036362243988145464,-0.011012834751252558],[0.017921480574736078,-0.02926407255220909],[-0.012626168377824092,0.004106979059837991],[0.005085936158524554,0.01720925876728713],[-0.001417599689843077,0.001122451104084334],[0.007915935116245785,0.01015939113605858],[-0.012588533757197483,-0.02724408413392524],[-0.009531723230752472,0.02644299581562015],[-0.010659200259324788,-0.02814501611657878],[-0.0114327627747976,0.006391264231008854],[-0.005320311435282123,-0.004523370788911147],[0.04216105064181737,-0.009012604703318711],[0.0004769943492237568,0.01773356136422692],[0.021219083203027747,-0.010655746502493688],[-0.00849933342635716,0.022593783056258487],[0.008555700948619061,0.018585787837679023],[0.011028938298637323,0.0191043393588955],[0.04006605545569461,-0.026247727580389214],[0.013748646821209697,0.0035685910028024626],[0.010712295044005813,0.002830174145648911],[-2.8882882742005292e-05,0.018543511343640857],[0.00951483006341715,-0.015148159945688282],[0.0005121885518298884,0.005593194089840059],[-0.0018917711565982322,0.0025441436384211116],[0.008812466345924466,0.019101164151632988],[-0.017870176600082298,0.0024170089296331482],[-0.01820433860442166,0.018391866666303987],[0.020299765563073894,-0.008248569698622518],[-0.0040265455670366575,0.027511488333747645],[0.022840878797029077,0.0322722726292809],[0.0022969471401681684,-0.003120429299025918],[0.01160873209040064,0.001810887281023935],[0.009700158300045298,-0.022006736432951694],[-0.02108454295023311,-0.020294433831270685],[0.023872020124673068,-0.02572441523108137],[-0.0032279809416740322,0.005347326048812154],[-0.04310695727026979,7.69093415475975e-05],[-0.008935757443770884,-0.0035202329176595125],[0.006720052352990548,0.008897940504769972],[0.005454500502255251,0.01760005008075839],[0.013955510600318707,-0.0022999927517704365],[-0.03784854728291087,-0.01970077640446894],[0.0010479253160723934,-0.004553509925871523],[0.02102633237610963,-0.01159320482374365],[-0.01823867039227807,0.00847104958314938],[0.002752142389120609,-0.01479745539769576],[-0.005135466744581164,0.016530746451236332],[0.00030798112809695246,-0.005084691550371795],[0.013343756760046194,-0.014589743516492445],[0.013705146096643969,-0.006738228851371451],[0.02323212340490522,-0.017204161848489642],[-0.0010562532729468323,0.0030892274057132464],[-0.020908737466469023,0.0029978932855042224],[0.0008561159834321052,0.0009808547889568887],[-0.008910297063018869,-0.003552709773322284],[0.012723824995008797,-0.0032402843123842326],[-0.012998321030537639,-0.004063526821244487],[-0.016155720616992122,0.015010138748841753],[0.013957648605501749,-0.019095120217378463],[0.011927499978833092,0.0034727966101002383],[0.0022321492601571893,0.007857101444851987],[0.025223648602891325,-0.018173356398873266],[0.005093592475275223,0.013996662174832216],[-0.0023420384581141723,-0.005160772155083185],[-0.004750728157461874,0.0033437160774063526],[-0.027513356471960924,-0.01865229534727511],[0.02332949118376911,0.015525001022560237],[-0.00021838838760171605,-0.01417342307226409],[0.0033835684414983726,0.007425959998992905],[-0.03814865153179955,-0.023548141564719807],[-0.010905168557578265,0.04150890032942841],[0.03247894928948701,0.0018426045865840464],[-0.01781868521997665,0.016835843442606448],[-0.017571556582311812,0.00018373630484778622],[-0.016553069314929884,0.011915222469849007],[-0.02590693077702628,-0.01563762732963959],[-0.008377174379614369,-0.012131940747474118],[0.02519861922702839,-0.00752247161192488],[0.000746937387489939,0.024044357564196046],[0.038468299630657385,-0.004213866229247234],[0.00024072283562774264,-0.006125003201192489],[0.009255172077931651,-0.019802223507122855],[-0.010831760804953537,-0.023327898362002254],[0.01652362547683705,0.004878655085069884],[0.006749307706107351,-0.005848068960466543],[-0.003988970950009406,-0.015813724300956372],[0.011574860292338385,-0.020945500488962925],[0.015479244512085735,0.002367499983602201],[-0.012439165520824497,-0.015008712503488309],[0.024181425231283606,-0.01265625655606123],[-0.009431531977457946,-0.050253389700352105],[0.0427941288876498,-0.00864570735835115],[-0.0037038033047303064,0.006502190711447955],[0.001869277190514379,-0.003770895052896528],[0.042495719882042184,0.0021950789092690668],[0.03263986541500319,-0.004513044258205428],[0.00988386062720501,0.00035673818381449585],[0.013873494878855407,-0.002664223233207616],[-0.007415375531399793,-0.030106506485737417],[-0.003724219924048312,-0.0008862461771029489],[-0.012982431031961032,-0.0032917188590624756],[0.0038526377822702615,0.006608212089330135],[0.006285190401346342,0.016850499272714817],[0.03758636615883149,-0.028670190609889415]],[[0.03562486175413577,-0.03021946327823534],[0.013731560434624396,-0.007580625038118327],[-0.006526497886928054,0.00577056600760455],[-0.056081673380378526,0.018825567006099744],[-0.05715920668443414,0.016099782853081876],[0.006424679092475958,0.00408696851365277],[-0.03312698701147818,-0.005718514170414683],[0.01195520658890199,-0.004858877069134315],[-0.0037313204156871863,0.002090346762324646],[0.013010857365223463,0.009078580327850399],[-0.016111739913651505,-0.010685752010839968],[0.028127316518329754,0.021973116185215098],[0.0186512095805621,0.036757358865601046],[-0.023016529117345155,-0.014930860474367938],[-0.023220179658268617,0.010131535746816057],[-0.006298290859770328,0.006069064919982138],[0.01383090965269488,-0.0004315511463102187],[-0.0137037278271458,-0.004559503357784504],[0.030031463256847656,-0.006867495825755916],[-0.00023321903870366614,0.021470502623230487],[-0.03153486767530341,0.007549120679570079],[-0.04060159002842897,-0.009086612794984884],[0.005115307175510099,-0.013573264805877385],[-0.03386456134560514,0.027735149552180594],[0.04392682202252092,-0.007284081349394615],[-0.030647442430927832,0.009435906164178677],[-0.015386586377597785,0.0012556616181236505],[0.010567417365330936,0.0011700402166810058],[-0.005253390388849545,0.02691774231153174],[0.010874371129985584,-0.018935087747368698],[0.02475584991049165,-0.02687462449179863],[-0.018033159379420394,-0.015068434202671564],[0.0014382808351502824,0.026736686674227274],[-0.012328347101325732,0.011935698033175395],[0.010654784689486864,-0.010652420453152522],[0.021784340572850693,-0.010625985493496276],[0.06138030981093194,-0.015800666092537462],[-0.016977276223445307,0.008097863515925065],[-0.038454158648354955,-0.0017919689899411643],[0.01027644650860768,-0.006804294861513337],[-0.0004513611717193657,0.0012962622536477559],[0.0027945951685984564,0.0016975015059174565],[-0.02104245219456628,0.011940170270040556],[-0.03479429118716434,-0.0036072059773562745],[0.002599994287068844,-0.003466112243267936],[0.020079430661134344,-0.0012964833172823941],[-0.022321505525059758,-0.01980959507747373],[-0.0033998379975020256,0.011884789383148683],[-0.009701551197703885,0.008759252661193458],[-0.00027868168593059707,0.004986522384584952],[-0.01358299653901642,-0.011601970336968267],[0.016797003899353555,-0.012698364533004929],[0.012886220219485304,0.01242121538099605],[0.007500551816075517,0.004458217742987157],[-0.001374305088084329,-0.010599491570995594],[0.003235080884279761,0.02041138086313717],[0.02236905506755863,-0.010056904509647292],[0.022627510491621733,-0.02562879983382694],[0.003088657585590454,-0.01452523125789414],[0.0085596922991706,-0.0029957090108712727],[-0.032130683597496025,-0.007711489054870446],[0.007433684636201353,-0.012504365134935786],[0.024305417832754292,0.004320856978830697],[0.004161427917649187,0.003960404186045598],[0.005067108214040801,0.025093234303668648],[0.02529230796245735,0.040213555084171314],[-0.013268802517284854,0.01783394416894721],[0.002565335727571864,0.003468305267390686],[0.013210828829194148,-0.01467437492170715],[0.01342477458178385,0.0038435704584319713],[-0.02185750482510967,0.008374881075509348],[-0.008021450892025937,0.0030106310495382964],[-0.050156815854448984,-0.024961365880708235],[0.00412105557778653,-0.03198439443618976],[-0.010574460007228736,-0.005014333163804388],[-0.004160224103405161,0.026723546535962414],[0.010121510020729432,-0.022794992149304902],[-0.01108773920239361,-0.02386266454519066],[-0.020254666436462055,-0.038711770404467445],[-0.025461801847974423,-0.004040382437200769],[-0.020625570009090856,-0.014208719268673535],[0.008690655138413841,-0.010057822176343321],[-0.0149451719542899,-0.00750895640636811],[0.027824694124390884,0.02244588065151112],[0.00038108917970725183,0.004031587107865806],[-0.0009124381744107313,0.01741852372276488],[-0.0037427136845776783,-0.018317016160395046],[-0.01046843058440387,0.023821396993648204],[0.010820854920871672,0.017724115383658128],[0.0421312299571178,0.008548477898055332],[-0.014759390458049235,-0.025795734412281713],[-0.002504543002888219,0.01023363092335425],[-0.003942488398602804,-0.01324225363269908],[0.0010445024364182816,-0.017146569424376548],[0.02705982575668497,0.0010603310063622255],[0.006786730210064318,0.006134898412899719],[0.006447122270491395,-0.0004020962549763554],[-0.002898070671189419,0.02913057634857954],[0.0332790540649131,-0.012968014354934033],[-0.030694753926350873,-0.018887129213679278],[-0.014469901886214354,0.025027962650669568],[-0.006129006961750349,0.0358470369393731],[-0.05058301748119419,0.02530519846442427],[0.004151141066318386,-0.028429493018364792],[0.01988368853444579,0.02937984258460041],[-0.019004513459623507,0.008748855105464023],[-0.020281536110708216,0.012672478881506357],[0.021583984623413457,0.01384700760861074],[-0.006629213217065756,0.019196881368222573],[-0.017720625376993242,0.026075275275883245],[-0.011009724173665445,0.02709745156314374],[-0.03813161558888506,0.017047676370956766],[0.06129570099011186,-0.014387137123652975],[0.010786352012552784,0.013939346978760304],[-0.013380313885210162,-0.008625439215133708],[-0.014449565030451155,-0.004574403393635003],[-0.048543918356552945,0.021126930363678555],[0.02040387955145863,0.012041391630929642],[-0.01719337362037356,-0.011443773354294926],[-0.010372013455044463,-0.018345796218421303],[-0.003456083520680216,-0.011738706078953911],[-0.02072860067585648,0.002852431520451489],[0.004547796228695918,0.0002576450684744281],[0.001984723464233099,0.0007674453561790297],[-0.038525253397472224,-0.039110168651882764],[0.038517546759677786,0.027787918804370502],[-0.01028533562823586,0.006768249966742478],[0.019340717462744402,0.009862406801676465],[-0.03760703198237583,-0.042472271281129736],[0.02720132413830318,0.0029534389844582815],[-0.0013570999194798025,-0.008359459294327756],[-0.01078002598262753,-0.027200846952324578],[0.011522906220920035,0.01547068845681473],[0.013783246901896896,-0.019871999322829858],[0.004303572409875926,-0.012995619935677275],[0.014872550220319457,0.0465121449062341],[0.027887600190243785,0.0017358596545483098],[-0.0003793334440349695,-0.020616471648430165],[-0.008661068454320424,-0.00158922963743135],[0.025932614913156644,-0.01452756071954297],[0.024769942050456708,0.002948492215621909],[0.026967762411370763,-0.011045053102388045],[-9.072402455717306e-05,0.01437514730235749],[0.014673714313926283,-0.008037564204303252],[-0.004148465820671765,0.003471994476937211],[0.004605958904196637,-0.028354197684244915],[-0.048765734240637085,-0.03230883626281436],[0.01469145557495449,-0.022307961794608273],[-0.011898420370299817,-0.01865997627550198],[-0.019902507411109913,-0.0054533053517254295]],[[-0.01084114393382472,0.018936002008241064],[-0.028695733436651126,0.002248829205941826],[-0.007038971311720959,0.00619504773357467],[0.0031727072754469416,0.011191010927709775],[-0.0029181664334851066,0.03309029326648842],[-0.01451166003128911,-0.005152592010661451],[0.020016093365994088,-0.015289053828956702],[-0.043410614537827456,0.015383234500515463],[-0.0013562974734089728,-0.004263637931399687],[0.011429786592934674,0.007874677070580097],[-0.030135374917604405,-0.0027171082412087277],[0.01147230753958643,0.0032136958876710755],[-0.013170350378808097,-0.015392133728647282],[0.025596206439332397,0.007529587657450603],[0.011986056230055858,0.003742136400128304],[-0.015376604216377562,0.024259878233266512],[0.0009024686083563202,0.010353688470041415],[-0.0018755829987192742,-0.016851051618024547],[0.02839352320075516,-0.022978861931585173],[-0.0021328404998062324,0.016560667188399724],[0.011852869078877767,0.005368983831065815],[0.006820217367245055,0.000336456058777315],[-0.005679425694615473,0.0009105725568888251],[0.005405580489873888,-0.021232714513262738],[0.036092598092117546,-0.0012829395222990576],[0.010944199528519414,0.018265056504267026],[-0.03316784982978893,-0.026073715358399054],[-0.027265359928244578,0.011871377820320458],[-0.01287817231472033,-0.004255804801876136],[0.010562761985271483,-0.024462572725636723],[0.008130935000383727,-0.002576628209189701],[-0.008316447311605272,-0.009256599506259344],[-0.020686924673690016,0.005779482406807022],[0.0003650231832547098,0.033869042612115145],[-0.026883049765365725,-0.007562131123628888],[-0.01035989828522181,-0.03301039682298863],[0.00958901818746356,0.043670241236013985],[0.015591305621924127,-0.01057787229766418],[0.037080684593319924,-0.03639841959833229],[0.0038426436016516185,-0.01698104725953812],[0.017656672132123682,0.01815320108030943],[-2.1191191481579447e-05,0.01088353349975224],[0.007114052013039177,0.006638555198436594],[0.030337560191744665,-0.028397754394641022],[-0.019021811951386275,-0.009528892273745931],[0.016604736883349434,0.0304530854300646],[-0.016541010145756537,-0.009793152349800615],[0.008146089554434636,-0.0009490983000330039],[0.003298417809893868,0.015293091660287882],[0.025493834378804293,0.017687800556775116],[0.01602190812938012,-0.012005545853416701],[-0.00477173623700191,0.021041290363594797],[-0.01315953155020086,0.0032449442749294686],[0.007489345810029775,-0.018916062684062852],[-0.022892342310428224,0.004990863137206553],[-0.046365406582681776,0.03139100048173669],[0.002368174332692466,-0.007470858770580046],[0.011458761636749904,0.00486793159490371],[0.007697260143130175,0.017077741909016092],[-0.00705275606586973,0.01525691196541622],[0.0025704701803465355,-0.010690394903957928],[-0.029649634693406392,-0.006732032046145545],[-0.03581124856333614,-0.04033638996828734],[-0.030285266750442706,0.005575821628574707],[-0.023172917440876815,0.0032121808235010085],[-0.00910016439303342,-0.0017294924207138292],[-5.311848616791799e-05,-0.0281059348258209],[-0.017400760428758044,0.004014501367441556],[-0.020893717608641588,-0.026711304973069075],[-0.01838078150031243,0.03365620714466311],[-0.023428273958989637,0.003670964356388429],[-0.028517625413926148,0.008278910913153756],[0.016907323048183286,-0.00208271617175896],[-0.0013950234686098608,0.01459082426857243],[0.002185167218641944,0.025228661083926178],[-0.00912458070752101,0.011176974949455305],[0.0019065624511775837,-0.02954356652017795],[-0.0026300633188995025,-0.014474422733436493],[-0.006562100354376311,-0.024264443166405542],[0.006686882270931632,-0.010475235140926426],[0.003415897657086128,0.019062963605737098],[-0.0023416978761672492,-0.012351687204347246],[0.0016894659586368342,0.015067320744498496],[-0.008059932576755031,-0.005593385613471105],[-0.009361201069460262,-0.039894803400108717],[-0.017901614874207595,-0.031173121508504258],[-0.01453805399454185,0.002428333333301177],[-0.029267636457380643,-0.010738251577918325],[-0.007524354573118815,0.041340369202711266],[0.004967305773615633,-0.02327776477999664],[-0.0463677439693601,-0.03182020603446648],[-0.01445216005144893,0.0002106655794569725],[0.021093036232643116,-0.03131189555046026],[0.015351142016850984,0.003003167232771605],[-0.019341613594421582,0.010494652517437482],[0.01951149146357054,0.021486432037673173],[0.023350715105677447,0.029732802990491112],[-0.005695355499309079,-0.014100933206591849],[-0.0016408338554525018,0.015853170833220635],[-0.008755709089617019,0.011772076349943242],[-0.010453959818007515,0.017231178321909624],[0.0265572551865575,-0.011120058173979151],[-0.024459451546873193,-0.009310381967560712],[0.011438424765843204,0.023159461050166506],[-0.022720817077179052,0.00045263016232771755],[0.01800089453359335,-0.012938059425613034],[0.04571472933964126,0.0013473465763549778],[0.005106127206666911,-0.00634584498814399],[-0.0003759556159572703,0.004690095220759282],[0.0316144382914725,0.004165937991645152],[-0.0019016546777119838,-0.03434254736763331],[-0.02538298036413864,0.009740111902107128],[0.01009989077478162,0.0023285958074624738],[0.007650620104005801,-0.03327555952239147],[0.0002515739772102864,0.008123418498362033],[-0.03491254602484854,0.004173754398948774],[-0.0016341650020416198,-0.006021650502851797],[-0.017917455100035656,-0.016199457652751784],[0.0038267201206156447,-0.018295618033084923],[0.005595787889584175,-0.007587858638458152],[0.027018335099352024,-0.012927292670596448],[-0.0006081692799559718,0.005218678654212355],[0.01105325853884896,0.009833578053406802],[-0.006256898517384506,-0.026004578054666716],[-0.0049141649188013765,0.0019179282081959329],[0.004619233090070498,0.02765678813234549],[0.001456796820669886,0.010311219701973724],[0.01185491781007956,-0.021437241147954485],[0.011813623777300034,-0.005057758811383059],[0.0009098831719728381,-0.011555812771777748],[-0.011282743214871731,-0.021517947894477227],[0.03408393286876217,-0.0039040904876987037],[0.026051550796926705,0.0012213062255742807],[0.009525377758248799,0.009140296251297059],[-0.03150253496083369,-0.03823229356375612],[0.0054143423066498235,0.009545570603063006],[-0.000987472185492261,0.003784152517788356],[0.04210331155649781,-0.017237131707975063],[0.029657687644041114,0.012263625067738487],[-0.001384961947884373,-0.011489473190404017],[0.019696102399425673,0.0026297813929449607],[-0.014092573481101585,0.009955924565062814],[-0.0033356096864899775,0.025427652907509833],[0.0007080712948365608,-0.02491961353309802],[0.003115110280100008,-0.02958947031275805],[0.0013024553058413324,0.015120374989600753],[-0.03758111527930465,-0.01267539343762545],[0.019745139668656854,0.01877480599131133],[-0.016026925141105125,-0.00618566171633143],[-0.018049317351454205,-0.009905851317509883]],[[0.004225083724061101,0.036346085254306486],[0.0024714518063292676,0.004517897103882935],[0.010843884819433406,0.03135885723581641],[0.03804698232589803,0.006614869784877527],[0.02397457473952288,0.004676317044108156],[0.024221921380775113,0.011744645065995058],[0.007332927956628015,-0.0010580324404644553],[-0.012170200069093797,-0.014455248510354032],[-0.012764533981343232,-0.005391887430912929],[0.01520134537971297,0.0040876344306832076],[0.005793630078056085,0.012910636958380831],[0.019822812437977098,-0.013091051341302912],[-0.024271064717389542,-0.00198959515171271],[0.016681716445582546,0.007754753712907073],[0.0013446672296056862,0.01210436589166081],[-0.013491119843337432,-0.012238315800430576],[-0.02059106391979057,-0.03143072527228573],[0.016622123434897888,0.021279991155765586],[0.0012084062400304196,0.002840359721727298],[0.00401238198360136,0.0036102405802052586],[0.0207930827378206,-0.01757411612249289],[0.010059984994976547,-0.03480972214599948],[0.008708515476550528,-0.007495248812270569],[0.025020300622752914,0.02273205549063147],[-0.015804085779723673,-0.00038860992154329897],[-0.01653669071347856,0.0008652920009553849],[0.010109662301870766,-0.0287833940837887],[0.008847343230869789,0.010595900737208397],[-0.023342949030443857,-0.004235392567088984],[-0.022625495632754004,-0.017146463637225176],[0.007912524904643515,-0.00182897412445446],[0.02591358975076545,0.04073554763973235],[-0.013915462524507866,0.0210775084511488],[-0.006500729782173782,-0.008728752706403338],[-0.010716763469207741,0.006324550153826727],[0.007280043676029699,-0.020168940958943532],[-0.024879906914473005,0.009546103024286214],[-0.014876324278536183,0.008309577830683828],[0.031295437601924436,0.005803469261390993],[0.02123216888161994,0.002777795241466457],[0.011310620850337488,0.03354707500039528],[-0.011446726159003207,0.01002550100452672],[0.024529241952019314,0.0224387941326249],[-0.0034034898187150723,-0.025266520729352468],[0.012221457353334686,-0.008532092365287352],[-0.00628335120451942,-0.006593829913230514],[-0.012613433858129144,-0.010302289983812477],[0.01278314308567571,0.013244437776164287],[0.008332428987121809,0.005280742634448894],[0.03671141288698884,-0.027928641387206465],[-0.01224033059056135,0.02024023197182066],[-0.006529518374787279,-0.006238440792593263],[0.01910360715186018,-0.003803510645965993],[-0.019997803193742825,0.01732624155175111],[-0.004907484417063652,0.008206279289635623],[-0.014622602353104981,0.03057752323331044],[-0.0429352544028497,0.017906201322469208],[-0.00779194731354103,-0.03261639313205397],[0.027667564619854586,0.017831625963733885],[0.012475197034473494,-0.022470036378356015],[-0.00343681399906811,-0.016611675228635974],[0.008940874583564974,0.02849911984451766],[-0.0199555204449984,0.00349950136642111],[0.022257077749127364,-0.009854300920547305],[-0.0036667349490726283,0.01542987342398022],[-0.010634896965263667,0.007812422805094944],[-0.008002056600356175,0.016574289200368946],[0.004324912359677625,-0.021740653947860865],[-0.017856096231012433,0.0014806335575824594],[-0.041578510847649644,0.0015159129999776757],[-0.011985893064334674,0.0002683283511459042],[0.008394948287514,-0.015050097241929248],[-0.008093820619876324,0.016114569877579504],[0.007549940443084873,0.012763800605356316],[0.005544934129698311,-0.002760495579023535],[-0.01511419064966692,-0.01878741988633828],[0.008060539534216404,0.008024268091069181],[0.02502044116895006,-0.01063563923731307],[0.026331797651120446,0.013524234839040326],[-0.004474212789977425,-0.0014375579620422108],[0.004836095791318081,0.008687443155462566],[0.0098694031556595,-0.029244991464636726],[-0.009978186567894214,-0.0007312308514157689],[-0.010363994508215539,-0.007842352645730737],[0.002116364754696221,-0.012762852895053519],[0.03729123528446049,-0.001191926626706108],[-0.0077919362526815365,0.025873747269012128],[-0.048217143557092404,-0.011610221953935922],[-0.013427056710176646,0.0009632822782536987],[0.005386198693048676,0.007572071078678984],[0.017888767770560726,0.003215883657187486],[-0.008226751122900604,0.0016358892948535864],[0.01968716654853057,-0.002613584201739699],[0.003169125673240635,-0.01521108168536788],[-0.04753221408046003,0.014645165425018548],[0.004400857499670291,0.009698561878922856],[0.014887037120206188,0.02323224386901227],[0.017040555739002546,0.006174187284593204],[0.010372900181945971,0.03251909265486844],[-0.015011688933314095,0.009504395468092511],[0.01641213190495011,-0.007532918625524177],[-0.018573142861679753,0.007524981250148954],[-0.0024645240524461282,0.004961534484110878],[-0.01956728247201059,0.006714883112245249],[-0.009917124283267915,-0.006640908824267754],[-0.003284618211416345,-0.011531661012982095],[0.0014699507958893967,-0.021613337657306643],[-0.03519648867603859,-0.02928090177913938],[-0.006080163547625075,0.002295452247794116],[-0.005010176936589828,0.03335057370749953],[0.023976638955430604,0.0012488851683432616],[0.02694815387209413,0.019355490121390803],[-0.013952696718539994,0.013710379247815312],[-0.019422817298361778,0.010339906122682773],[0.01895142647698108,0.006541472786434596],[-0.03592465367804776,-0.014904638945671558],[-0.0022316609179307166,-0.015753578060483314],[0.01242858760104598,0.0020292929119951463],[0.010871614319427925,0.0006731303313606577],[0.028561507749446706,-0.028292255279260943],[0.012239537110358483,0.04033172732796683],[0.0060016530755736255,0.030582553065989327],[-0.028383487485494446,0.004450476602434407],[-0.011469999712528404,-0.024419205589020394],[-0.0027980766198517507,-0.013651699250301477],[-0.032385818903234734,0.02272806676378232],[-0.028927541366294933,0.039831463638055446],[-0.033427455312987575,-0.003707415316935154],[0.009265704235811412,0.012967525097803733],[-0.032761116313714395,0.032471326208362766],[0.002135497115879737,-0.0028278600040834313],[0.012583364694658357,0.004611304859812131],[-0.001908213487361518,0.01168099462011382],[-0.014581263894511257,0.002031543215848215],[-0.012338802332750642,0.00768393558752571],[-0.0008242077550664312,-0.014249740567803712],[0.004190691551662209,0.004458191782635132],[-0.02890754378067856,-0.015170150646095913],[-0.007837019462463814,0.0024668560913686383],[-0.026955575648078454,-0.0006453899724419925],[-0.012180358711816792,0.008220726579005822],[-0.009616706838132035,-0.008319856108474466],[0.01556526892178638,-0.00957272244901389],[-0.01672176732166097,-0.022931187265400853],[0.008137410875500737,-0.015435873438314322],[0.015066064020839404,0.009413802899301972],[0.029692499575179773,-0.0298836258209103],[-0.011271562385525988,0.006876410991812812],[0.018547696367391737,-0.0057623718103654775],[0.01289951985704054,0.003576737576324292]],[[0.0006171320560007208,-0.0030591225888592453],[-0.011731904778171955,0.021511399148400792],[-0.009813065409831399,0.008560883336928815],[-0.03141606244382432,-0.013080846848209277],[-0.024842152986134798,0.010117247579236505],[-0.021505281734625962,0.025595836763862085],[-0.008304471171985163,0.01866362808270177],[-0.0009308898661871999,-0.020512781481345714],[-0.02021953819767149,-0.010680722929294636],[0.026833243012676755,-0.02819258095417557],[-0.06265138963734197,-0.01855501345882948],[0.017079472569455495,-0.018437110780167933],[-0.016062834782835482,0.0007789325358021021],[0.0017680721870061288,0.013704189968196362],[-0.0042471434697411315,0.0070301654639591165],[-0.007259560609391126,-0.009508594464157152],[-0.03733010058510694,-0.019033815728214498],[0.002927370763503439,-0.02121335250984295],[0.019617913189467293,0.021204336182507066],[0.014943865609076895,0.0026429710234027013],[0.009586690690016803,-0.024287790369400215],[-0.013020266912801639,-0.007954629652695812],[0.004913345135174456,0.015587780573376009],[-0.017576916536889045,0.034094141588714495],[0.006808285252274498,0.02560631412179933],[-0.011448728820053359,0.0058583834184519085],[0.0026889956090270775,0.004145774019858286],[-0.02517019687365702,0.03500984869621206],[0.00874388575909481,0.021661156837594172],[0.009901718454548267,-0.025922933968327937],[0.009531718668359232,-8.618913627991289e-05],[-0.0004683220568340899,0.012481191360248813],[-0.028396946894614472,0.011849018831205657],[0.0006657748922819928,0.017715387717568646],[-0.009156471044996251,-0.011111259817749772],[0.013830179305827018,0.0059902647144103585],[0.007979636894296607,-0.024511590649759715],[-0.034429235942325,0.005342397693424253],[-0.010786375228992163,0.03567419036568593],[0.032006151485258115,0.0185730831385021],[0.0013837827575383468,0.002590775597513799],[-0.032919977580653785,0.007912201764522729],[0.029637391451217826,0.01922130828765025],[0.025401645658974736,-0.0065565380344474004],[0.008724792640099597,0.013310848150737053],[-0.005008890486243893,0.019855918181229774],[0.003340215989895286,-0.0034285546420014593],[0.04973942344755641,0.0019241951228174254],[-0.008305021797915998,-0.014382381547361742],[0.005557384742715215,0.04925238735536895],[-0.003364119789276389,0.008991507998086918],[0.03252085474877624,0.020901754163329987],[-0.00323696072999534,0.006452851246217751],[-0.0032828173532950967,0.0015402780219456722],[-0.012937337217248936,-0.011843737082474234],[-0.0249680974658162,0.012512641993433991],[-0.003998702384626139,-0.024312043080283473],[0.0003749801880948672,0.007651482111554694],[-0.0034955331328217574,0.006189634305954231],[-0.006485537390920379,-0.0032135400979741123],[0.0063542838681009215,0.015904540638416752],[-0.0075747301179374185,-0.02861351129533308],[0.005079614553977253,-0.004020880033054976],[-0.03584183820957724,0.012472361787097395],[0.0006482819101733209,1.3858805291149575e-05],[0.011577127338549762,0.012821451297903071],[-0.007005526090088525,0.004384514748940229],[0.020517520862593532,-0.03256082577192828],[-0.01086269021546679,-0.020793895738702075],[-0.038415910828536785,0.004331966020850866],[-0.024952787589938807,0.003851763698036205],[-0.014496800668292693,-0.007838147049760213],[-0.03684742111408023,0.016751344210058777],[0.0023772289410037184,-0.0070577875480280225],[-0.010476424692324175,-0.009434224964445953],[-0.0015884286760545145,-0.005666299212218843],[-0.01672964206829281,0.002555576724895421],[0.03264489511785335,-0.009313728833925675],[0.014549977190486906,-0.030364371767015147],[0.02192707678315759,0.009029801900156363],[0.03039744783478787,-0.05649101499266104],[0.013110925070468633,-0.011759171523127986],[0.019912372047854725,-0.002581695782008083],[-0.006243911320420598,0.0150278126519639],[-0.013729525684660009,0.0006627226883659783],[0.007331473600161022,0.008386993138467854],[0.0010977680342704917,-0.007219993096946861],[-0.006131887179934605,-0.012949580802542512],[0.001529690901642384,-0.010294093296875952],[0.016400967011429866,-0.021117779627982364],[-0.01461234109208832,0.0023577964386989284],[-0.027029661282997934,0.006793898401164487],[0.001622826561064983,-0.005500379427594697],[-0.029652349459136952,-0.01495774953076354],[-0.0009223977461442169,0.018025598726602053],[0.023263195045545693,-0.003910222011996646],[-0.0007776646356468173,-0.022376777528351134],[-0.03872918550588498,-0.0013366040805787797],[0.012136576753602355,-0.006438668835123343],[-0.018390167221059725,-0.03553495293115278],[-0.005832356277278377,0.006858495752849561],[0.0036658249493697727,0.0013711264574136723],[-0.05458032608263962,-0.0022231692210952394],[-0.012501622460436798,-0.012238799932766966],[-0.018165137772895412,0.0024465294843663086],[0.012034456033654977,0.033229275206849304],[0.03361769210796688,0.024556380908483624],[-0.012802318745564926,0.013358598270756208],[0.021255617922839084,-0.0005703333132738037],[0.01870732371910088,0.015077457741196043],[-0.03147772245369768,0.009662029299883516],[-0.021150220596009166,-0.008445640845829832],[0.0021749028388533933,0.007781288097681106],[0.0074152838412608404,0.020796038335197206],[-0.008245089661692158,0.013666422949412449],[-0.04558523062649116,0.006544669299479407],[-0.02221992936891959,-0.024015505260037928],[0.013373466936787983,-0.03070035977554725],[-0.029695593429651543,0.012125835910190282],[0.023865890319046023,0.005650214640629765],[0.015949967854646235,-0.01927112679886429],[-0.020096449204024106,-0.013968687859179004],[-0.020075345880108304,0.030122506463913738],[0.002171179729451469,-0.020007666474157536],[-0.008781628618460897,-0.014174521540053869],[0.00640631897456312,0.015508048026938236],[-0.005609158512233748,0.005476079423224034],[0.002530152817036001,-0.030402138567931794],[0.03869130197209861,0.009165028806211999],[-0.023591529293155347,0.021194465422294036],[-0.005999239079976553,0.02292125174201475],[0.015964444114842054,-0.016036949973188584],[0.01684468194156779,-0.015412275230924049],[0.0211245304848454,-0.018366604134952332],[0.016193909092645207,-0.005663428186478486],[0.00745003450303979,-0.011998855681327364],[0.03163022500303965,-0.009693233903636179],[0.00806465938741088,-0.02372368428053927],[-0.015144277732274856,0.03334982504847993],[-0.013300260179196353,-0.021494040512576012],[0.004178230798955183,0.011974676507768674],[-0.011096622243764995,-0.007333315470665772],[0.0035551124766368134,-0.03487925439121487],[0.018579732478288518,0.0008679544963741158],[0.012463646890866492,-0.024627799932084433],[0.019452140661351335,-0.027816726411990813],[0.014260063068830353,0.002282110887110714],[-0.010007053529084698,-0.018442823839675368],[0.015769280299094187,-0.016789914009163992],[0.0005959787111718376,0.005710853650085259]],[[0.011692031776984852,-0.020018056088319157],[-0.013236895733997398,0.012564860944588845],[0.0032163251733970263,0.01828874781445076],[-0.004284740488070796,-0.01710269158848614],[0.006092951372740694,-0.018304112089181295],[-0.02981465732012135,-0.014828506708012622],[0.05043356532363774,0.011090667122985945],[0.018467656898727085,-0.015733743893080125],[-0.007214643093612753,0.024690585531826004],[-0.03342393092644566,-0.024590262815535627],[-0.010309020282735316,-0.008555967926055497],[0.020984094064640812,-0.006026359782216551],[0.004751920814293575,-0.029779369330524174],[0.0054707314204100535,-0.008837454896833715],[0.018292344392180034,0.02311772357610037],[0.024531592564234206,0.028998593195203353],[-0.00040450821816449736,-0.014090551444444089],[0.03196493736489735,-0.029654479696191935],[0.003408337798668307,-0.007020322715756084],[0.00954443888548819,0.038457583859045984],[-0.003855506815873942,0.002271424464640755],[-0.014886739737591205,-0.019366355260811676],[-0.020438003159406085,0.005181539184175671],[-0.003986822849697407,0.00876080871117165],[-0.02105093578595619,0.0037982786478844292],[-0.008938924847827065,0.008845105649584035],[0.00769716575333767,0.003733781280006995],[-0.006250660536570064,0.022182144062915143],[-0.003240400841547567,0.023183521522517042],[-0.004861605590100136,0.031092565957114814],[0.029959821323974706,0.0054573328388785565],[0.01190853459735772,-0.015282314095130279],[-0.0009513778664995457,0.014974798933964382],[0.008469694976591755,0.005875208230971488],[-0.01590373676776495,-0.014364068000296982],[0.005485181593052494,0.002956521198282986],[0.011208042640582621,-0.009717802658917004],[-0.0009909306256237647,0.03299681709430587],[0.012512230373486366,0.010482305478845735],[0.00591852556127722,0.011825197602955386],[-0.0030613043124524497,-0.005323001674368276],[0.023541114371465433,0.003212067793818632],[-0.010435448828954781,0.014740085638332833],[0.00111307556928422,-0.008026846479925881],[-0.014994534579584062,-0.006555066451404967],[0.029100402961572847,0.02033716326260178],[0.010944086369640126,0.023852373929947084],[-0.002319505126458845,-0.002636507574936331],[-0.007384822371712043,0.008415061085780435],[0.01922727233228118,0.01329131610032653],[-0.0016547209961220257,-0.013053439339956837],[-0.0026683865793910694,0.015547656429790557],[-0.012195243705890512,0.009423880609102243],[0.0010102950668130304,0.028519459870264916],[0.009664842101038969,0.018606704880549114],[-0.008602667973218424,-0.02711113461946187],[0.019127824967342843,-0.03790052476396869],[-0.02852755092560367,0.008873509463666194],[0.022916437679575595,0.009760352851790641],[0.005183601788775857,0.020129554591922564],[0.029356132528255974,0.00992047643951121],[-0.013398044470140084,-0.010543660052159683],[0.004288417142077292,-0.0026510933076444323],[-0.001283888761409836,-0.00015284217255257578],[-0.01710690967362043,-0.013292747627813795],[0.0006859228973478595,-0.0006680841566743224],[0.017733757802096975,0.023587983235890786],[0.03482939973990026,-0.0034713212524585977],[-0.02307747765610655,-0.021992572140801362],[0.002627710840244993,-0.002301755620625951],[-0.012816596783221782,-0.008862555624174148],[0.026791011420803236,0.017727989181796102],[-0.010510161388423443,0.015823019467165238],[0.016889642170579786,-0.019737450833084435],[-0.0010386764848377065,0.027644561767039704],[-0.016596743534636877,0.004296049377057047],[0.008620810823424863,-0.0027700972340983752],[-0.0016342210401900001,0.016733581514001863],[0.018852033701053785,-0.010147039421396834],[-0.008506246001902529,0.020052748499508652],[0.008819715478561897,-0.016963089841954875],[0.008647624615680133,0.02288775519943323],[-0.016570529754962822,0.019067518031800616],[0.024698431036653985,-0.0032157743939072903],[0.0006149486908305361,-0.00714412481372137],[-0.009822066988146354,0.03203738069571435],[0.0052103191882596905,-0.00571483866711793],[-0.019836317153055776,0.003049888323719146],[0.01002168595091927,0.0012250775898688972],[0.017394563812614512,-0.021731467055527854],[0.03318745505558539,0.019570919650347414],[-0.009942266967196264,0.0035672843423612613],[-0.014929625590027435,-0.021026304573327638],[0.017391616246350227,-0.010395844315540853],[0.0094281269449424,-0.013142382590145524],[-0.02483172663879109,-0.017877816501068625],[0.027058901450140057,-0.010995786706392308],[0.01743219253412265,-0.015216623588495171],[0.015564390368787765,0.012921021195035888],[-0.032911196772991994,0.018632330818682697],[-0.013294797080287541,-0.01587735716825594],[-0.010188795159235795,8.588017410158726e-06],[0.008820187375479899,-0.0008419127416723399],[0.02308333519700087,0.02442703576638823],[-0.013292656388808216,-0.008788119933630042],[-0.01331742243118103,-0.0058390300289937105],[-0.012218254180788922,0.009820199257096998],[-0.010971259732150462,-0.012090804748361718],[-0.01331061985915808,-0.014621699432171694],[0.0029130453901769875,-0.016817724725387062],[0.01096962202997476,-0.021910331704144994],[0.001657198007794347,-0.003408883345266585],[-0.0030851051813477162,0.02702074859190833],[0.008449678200261901,0.009168720911485163],[0.02340855488798542,0.00777533857005676],[-0.004509131043433774,-0.028522799089505],[0.03237555758587156,0.027242276043356207],[-0.011662365118363634,-0.03353374069486557],[0.003409967672704124,-0.0005794832317683445],[-0.0010885270704614279,0.021762456922070086],[0.024232091076605237,-0.003613047483761115],[-0.023859687243146924,-0.026052683038807152],[0.03857246163673339,-0.010267668280162075],[-0.03711334106319687,-0.04037977251699731],[0.0046211537015470264,0.0024510887278577885],[-0.007206809283927099,-0.04007740490480156],[0.005658242224948131,0.04128465447419728],[-0.024925106529277638,-0.020601935749329024],[0.02598331100870367,-0.04248661968615822],[0.0064815328122668926,