{"Layers":[{"Bias":[[-0.8706594902189089,0.6266416496228239]],"InputChannels":1,"Inputs":16,"Kernels":[[[-0.09718533176500004,0.5022808084436594]],[[1.326549851282865,1.2287211711459043]],[[-0.09686068361511296,-3.686609815766147]],[[-0.080934310703186,-1.2293973521885944]],[[-1.6867513138267722,0.3828041673452956]],[[0.08326812633345392,-0.5366830121856644]],[[-0.3270152613730029,1.1986847288082467]],[[-0.5061179488170136,2.167536902454951]],[[0.9257749997529313,1.0887414085955516]]],"Name":"Convolutional","OutputChannels":1,"Outputs":16,"UseBias":true},{"Bias":[[-0.8706594902189405,0.6266416496228239],[-0.09718533176499901,0.5022808084436474],[1.3265498512828617,1.2287211711459043],[-0.09686068361511131,-3.686609815766105],[-0.08093431070316708,-1.229397352188567],[-1.6867513138267722,0.3828041673452962],[0.08326812633344381,-0.5366830121856838],[-0.32701526137299736,1.1986847288082303],[-0.506117948816987,2.1675369024549678],[0.9257749997529358,1.0887414085955558],[2.6759695745341823,1.7739797463306186],[-1.5755609813304496,-0.17907493096906724],[0.8984257950612994,1.0217093664100874],[0.756729258790797,1.7383308611110877],[0.07221262780939353,0.49881528652907065],[0.34711571270415753,-0.860980456073884]],"Inputs":16,"Name":"FullyConnected","Outputs":16,"UseBias":true,"Weight":[[[1.3449034663726713,-0.2993753050441507],[0.8060770976198528,-1.2013025515049316],[0.3410319248973114,0.47750148542786575],[-0.8660815192562991,0.355506753376873],[-1.3726678201147036,-0.6830417236014226],[1.1656476608902053,-0.3484116185172381],[1.328993892267226,1.2291996613663276],[0.5681918823355471,2.486240681223662],[0.3436022565866539,-0.29324590630273756],[0.21042645751639544,-0.11613540859374032],[-0.7248041949858175,0.42662287651661635],[-1.180773480468252,0.5282117830629709],[-0.6759120467215131,1.2495598969515394],[0.7915631542256616,-1.8308853268149656],[1.0220525135007101,-0.552689033806679],[-0.8188608954773088,-1.5004311366777374]],[[1.8093557926696484,0.4849755885665942],[-0.3231733858916223,0.725713563193014],[-0.20515877648623568,-0.7858903099471222],[-1.1997978406463587,-0.5111536800098028],[1.2120935442245462,0.4285409445204749],[-0.7103566303861186,-0.8771787356792834],[-1.4246939449796345,-0.08501364817435242],[-0.9780180132090638,0.14709048610910402],[0.7002588219013223,0.7558723816027331],[1.5347127719874603,-1.0722611848574481],[-0.8841426638228791,0.17012856095380374],[-0.2177814786904424,-1.189887920175236],[-0.7261699403872973,0.20989709710675933],[1.0187556697625113,-0.9510679300350678],[0.05614218784367367,-1.1131292728218924],[-0.020014977340211817,-1.0075720486722368]],[[0.1613830377768542,-0.15460155641859188],[-0.31011167590107336,0.29346576700426724],[1.718174579385189,-1.331023729240577],[0.19142677153731538,-0.12108267197189145],[-0.2351886208007482,-1.719161782701366],[1.3910533937545286,1.4693990919075048],[1.4959218001545953,1.4512285516364216],[0.023272257393557948,-0.0278998271993936],[-1.2151744239722975,-0.8801671670092143],[0.6923286857404659,-0.9960658799953889],[-1.0005023317113295,-0.25496915774541085],[0.3984201820576824,-0.6517202736920055],[-0.9865917545848367,0.4658561203844195],[-1.626174886695996,-0.45617042926279006],[0.7268023848006223,0.022857413907079665],[-0.6119718927942113,0.14210203035394892]],[[-0.00036106188430043635,-0.09538451853580152],[0.4664072712883466,0.7239675715098723],[-0.31065926468712696,0.03066106418028748],[2.6891216967297056,-0.37994793205867594],[-1.3926483709450026,0.6524680456618486],[-0.34551151104034106,0.0741878552927757],[1.268600023216445,0.16415505304186054],[0.6392146454060368,0.5510115015462813],[0.34199303958167737,1.3041777761516513],[0.30662993543737144,-0.5836088900078208],[-0.7076302817965511,0.3532061869975611],[1.8503695860745772,-0.7673559471635928],[-0.23029891061725913,0.40217410391203384],[-0.003946394841483504,0.8569784965782478],[-0.4677286220633376,1.7436359160086368],[-1.2864711590736029,1.1842787820154637]],[[-0.1570478801317373,0.576264394526947],[-0.8079590026005943,0.41607776141949127],[0.14863993509873674,-0.80853048896884],[2.6087462127701215,2.133336055213789],[1.67044210616696,-0.9420132083886067],[0.4540371758190026,-1.4453883140516988],[0.5548643708870216,0.56899357496034],[-0.3603053112543718,-0.10824407300677644],[-0.8850990131212744,-0.8950992419559418],[0.8122167692178744,0.7803455837218324],[1.34502462661111,-2.350682842767223],[0.4398520124370595,-1.1920032567897316],[0.41016731633042475,-0.42020369595391416],[0.49539237435081074,0.20947991144384903],[1.583976922436843,0.4461227826905654],[0.22619171084575798,-0.6921932599265392]],[[-1.4591476723308483,1.8646482018222061],[1.555102651375599,1.4630076400177832],[2.306457830848227,-2.1268666245756855],[-0.8542962462440675,0.7521950501047093],[0.503294053930446,0.46732635190728705],[0.08974563914975857,0.4195461711902233],[0.7987297519457585,0.6453125440491261],[0.3571748327240889,-0.21149659275897228],[1.8263644510834478,0.6358592725756952],[-0.13198092907802467,-0.6627214237093795],[-1.3962665477320315,-0.6086846231992858],[-1.781513960197931,-0.9727624713554999],[0.6163381400310052,0.3160149813354465],[-0.06879298948953108,0.597532155807769],[-0.41777858760761827,0.6086781346754941],[-0.692464470789401,-0.22887596121432546]],[[-0.12539261536140672,-0.6182897054282279],[-1.330280916916902,-1.0059225648152965],[0.2937993561572575,-0.3353922947234095],[0.40593356295864585,0.8775132594922576],[-1.2110337662542188,-1.1757740144622812],[-0.3599384074162146,0.5916094718357506],[1.9637770527607505,0.4730353804133715],[0.21593370375878543,-0.45715875919861015],[-0.23755911620186618,0.15884082478761224],[-0.17113568386894315,0.20761439676063428],[1.3676355915429774,-0.8478408629224773],[-0.4070525866388271,-1.8137055143459033],[-0.5437249447473119,-0.5575200432145325],[1.0091307301882793,-0.4310679687174616],[-0.5108533715381,0.5177766116544429],[-0.10029688457113788,0.7307533347021555]],[[-0.3747109752398648,1.3857972425183953],[1.0107330142008686,-0.2444474826010828],[0.3329364609516415,0.9653390529846312],[-1.555294077861462,1.9312065637130118],[0.4331267866481815,-1.8394225320764213],[-0.14530858591866058,1.9505100013685033],[0.5184052229695214,1.7784794821976455],[0.03298248669661302,-1.014613730303365],[1.5180303763518632,-0.9140751777008208],[1.3842267774706645,0.23115272294106512],[1.2445200005762243,2.0258443162029898],[-1.5553651941810984,-1.388240615303025],[2.006504159761136,1.1982283657180195],[-0.8684863742015225,-1.0809301783764735],[-0.522885160442751,-0.2881302421673865],[0.6656740981381697,0.10383915206085881]],[[-0.9566525389068652,-0.2722430759851927],[1.0383482870314236,0.6120621642060377],[0.9856809261694961,0.04215758120260306],[0.8814272622731573,-1.8352357851692322],[0.19154978596619918,-0.31927611889442126],[-0.8196288206363871,0.15171407783549407],[-1.4666861430999483,0.3873328508417526],[-0.4256197318954508,0.5071811021630837],[1.494395629788236,1.2533943853675853],[0.3296556315645828,0.48038912655501576],[-0.5511119381055697,0.8769778598508461],[-0.539909430413667,-0.13435620257745573],[-0.8988162625350374,0.5482614277139265],[1.1005547790064312,-0.9082289969684915],[-1.3391173286344245,-0.5470116495634599],[-0.7078601185601265,-0.09778144872537826]],[[0.051911225604880526,0.6564117983717879],[0.15422172467935394,1.6625157919966835],[0.8242301891806952,-0.614122250891693],[-0.05674884063618059,-0.9537219414364472],[-0.3177935094828147,-1.4272649284873327],[-0.08532092536125421,0.09931584519674481],[0.13900184197319418,-0.2538617570983896],[-0.31690941277877,1.4545477972738379],[-0.11170549380432196,-1.8353357774163823],[-1.834177250727086,0.7511529087924065],[0.1587652029005868,1.3951708279403663],[1.2877206992624137,-0.9928302499793796],[-1.3868120232804473,-0.15237419007112288],[0.34959795061128235,-0.6367865803753898],[-1.9880447321294017,2.768968839549958],[-1.2247621453401432,0.648149823916809]],[[0.6129431653137859,-0.4700774799227871],[0.5956420733763833,0.2638093701738301],[-1.480736512864819,-0.003916503100764736],[0.34795604761701626,-0.3626524008061608],[1.5205635535814253,0.13828497377852958],[0.46277465687278757,-2.0323127766393747],[-1.088928492813945,-1.6926236080607755],[1.5652616082295534,-1.2163841778242863],[0.9425303783816382,-1.7235733371883302],[-1.5533579011068712,-0.8506584391133392],[0.7088404136691692,-0.2858215334772551],[-1.5712723556723351,-0.16868993425047796],[1.3815807059002156,-2.0776936393371725],[-1.0951498938578579,-0.09657537863698958],[-0.7962480415225415,-0.45296688603837093],[-1.8713412336407662,0.9212000799103459]],[[1.0097766188205157,0.41243808374645585],[0.02082366063610714,-0.9579636210820364],[-0.5686496445268028,-0.864132489585648],[-1.7968589894149052,1.0997918595805563],[1.0641035388760867,1.5961618760037912],[-1.3940072763197395,-1.5621654560168723],[-0.02458359254274844,0.3413744334205576],[-0.26466343465067216,0.775778154333374],[1.06679301055835,-0.9836014998718193],[-1.0869885898776568,-1.119914528777687],[-0.9002179547895099,-0.5451533817072245],[-1.9201197298450148,-0.04896759867423553],[-1.675534686932268,0.5705279272513171],[1.3543961365870951,0.4690140208376823],[0.024873081899013844,0.13520842662806964],[1.089362987271406,-0.9628740610814427]],[[1.4784947229417864,-0.24674538123839565],[1.0844462243402808,0.17845322758510954],[0.41715885745029724,-1.8939803164191962],[-0.44403739473666887,-0.688502806679809],[-0.0941154715477631,1.5945372397267077],[0.41325361719730236,-0.5827563920250416],[-1.5188100615639855,0.23135292214423375],[2.229590417996794,0.39249079598835307],[0.4652621625484233,0.7395422730842285],[1.343419420014439,-0.12278123218454402],[-0.14093897760492122,0.6200854134962851],[0.9399007907978016,-0.22516527433327393],[1.697159772046969,0.6198715628226537],[0.6186569107530008,0.9643038537052396],[-0.7164695885702561,-0.3888651209880689],[1.5619919858665061,0.10726022665700233]],[[-0.6551466730465948,-0.08794230472752913],[1.2359813178703718,-0.18758515313782656],[-1.3434403220817928,0.8206943281937508],[-1.6756738789683852,-2.104681963586126],[-0.7285321914143769,-0.7138752463451978],[0.45151126776702455,-0.27100160035844323],[-1.7955189544128654,-1.5196521577111854],[-1.163014343139605,0.010354889225451316],[-0.04598853613500428,0.0635716006814917],[1.3145411521945456,-0.4025765692676047],[0.3617725824516453,-0.6191678113749998],[0.2572016494198608,-0.619005009852696],[-0.9758247312948785,-0.7943634443212094],[0.7872930882757919,0.5026121810856594],[-0.9304871768243765,-0.34606094464032194],[0.3029643739065857,1.8079558259918316]],[[-0.15831004858716474,-0.8022350937901904],[-1.3075130007696043,1.3480817526767086],[-1.8297035423579018,-0.9450100637945275],[0.22125946064687801,-0.7365089820019616],[0.5235476369818534,0.3534239696736507],[-0.3593723421961636,-0.9878095462181861],[0.5433667027429795,0.5417980190099837],[1.587301571820571,-0.5587483896550812],[-0.851076781125306,-0.4754441449185461],[0.7869253825126905,-0.9590727866981136],[-1.198863012448972,-0.6751293712481484],[1.0774779863290582,-0.4195802748398186],[-0.25257407265675663,-0.3905960252029491],[-0.8477907585734542,-0.6783390452036575],[-0.9046917104980182,0.7016777944840976],[0.11235719915974554,-0.25777487916910297]],[[0.07708890026808474,3.6413360079151804],[-0.6604408243747196,-0.3833403060172105],[-0.8414699584549663,0.8000580036371797],[-0.7871000147311765,-2.3462852182726137],[-0.9892394845330897,-0.5080111591311561],[0.8173464767588465,-0.6805270785694724],[0.7958390833346186,0.1401496812341482],[1.4557600764109266,-0.42695026588332796],[0.8961680047648212,-0.38226019829571034],[0.4306656173631827,-1.2927083144510327],[0.14745594967583678,0.18156896016170476],[-0.05100537323802496,-1.162729121431224],[-0.317526583161072,-1.3388608417837469],[0.2636712293132347,-2.048117935118901],[-0.7658009319266205,-1.6301625218227156],[-0.12882278025126037,-0.5357084127919365]]]},{"Name":"Lncosh","Size":16},{"Inputs":16,"Name":"Sum","Outputs":1}],"Name":"FFNN"}