{"Name":"RbmSpin","Nhidden":16,"Nvisible":16,"UseHiddenBias":true,"UseVisibleBias":true,"W":[[[0.0002040031322060082,-0.006906534711093704],[0.001966999547165083,-0.03656615764023783],[-0.016627455754560195,0.0033500423886276484],[-0.031723845384299544,0.016900667826064232],[0.005572466217366889,-0.027272327554279902],[0.0441145055051238,0.034215834435829186],[-0.012608423539307599,0.03324859846913632],[0.001730484192987351,-0.001001842519868366],[-0.029348542851047217,-0.024547740041288978],[-0.005461998011843626,-0.0055706755214778355],[-0.025847655746027362,0.005960131414429882],[-0.026448056887616273,0.024502684979035693],[0.00598854096131155,-0.02205803113766097],[0.018237497258647695,-0.028192714240169357],[-0.022829079166477275,-0.05122626277824265],[0.016719174136761505,0.017788561402500527]],[[0.003315235174673827,-0.008744013139869423],[-0.008012955465790757,-0.007597737398442259],[0.0048867029155313605,-0.009558719789641568],[0.030900005843566558,-0.010456181571630509],[-0.01051124959177391,-0.008035551220531895],[-0.012946378335466602,0.010286127285198534],[0.005231161665366333,0.019153613754751813],[0.02646745766562276,-0.003586942713138104],[0.02259753839608165,-0.021646084953542494],[-0.011336533724366426,0.0036510495396072026],[-0.021075338039505606,-0.007768641026804085],[0.038838654115803,0.02023921800114948],[-0.009184230270247251,-0.02356515662998847],[0.006104476030694404,-0.04154691921076329],[-0.014692921414962187,-0.027555877824259337],[-0.027253041279764946,0.013263056689964026]],[[-0.034292461770510735,0.024333695364728573],[0.04246585349890011,-0.03641665894230873],[0.00912884846159294,0.009807149796276225],[-0.062286897253387506,-0.014571149493220883],[0.04271842725308837,-0.0005161543988549695],[0.11585901529731765,0.030151084286861606],[0.043900528222909935,0.011192008656906687],[-0.034003998701946,-0.06403670131374194],[0.03245493683422958,-0.05010988540911039],[0.021075725760671817,0.014295761576627975],[0.010864065703663273,0.028485512553717486],[-0.025151676490437404,0.03141691493042294],[-0.03267216028572293,-0.011057857371119197],[-0.01923188423236374,-0.029568863609481896],[-0.021015099067587473,-0.038739946293097925],[-0.04109163531994894,-0.026870148463915836]],[[0.01384540340584285,-0.007834962106294752],[-0.0033306388226330558,0.005736102743934592],[0.010536157125389294,-0.012163954166969658],[-0.03760711474967318,0.030165391531612705],[0.0100809966067541,-0.019986320117078103],[0.06057101699788633,-0.023247041205865477],[0.052626302351891155,0.025655463827077764],[0.034836754345587875,0.04333459868373097],[0.0634486615861427,0.010399166405722037],[-0.006890167870515346,-0.03621800364419588],[0.0067279221307227546,0.014319565782827656],[0.02259799112546572,-0.015818064644253355],[-0.024721892069363486,0.04543704769451984],[-0.03493982807317133,0.04647320104750505],[-0.025663604362305626,0.03163308714232912],[-0.05280889089001892,-0.007964657359996104]],[[-0.02392994309782293,0.014390900592873835],[-0.022947857641099877,-0.02869200926158575],[0.02575067952107049,0.005598040821097073],[0.02018535758811206,-0.002901507209517056],[0.010143936734853122,-0.026146987516849702],[0.0002239827750063466,0.006005262920445646],[0.014944334789888407,0.026685899341028083],[-0.01575058956938482,0.006852789031243433],[0.024345985990236116,0.004588037781688516],[0.02933848096097248,-0.029005855293678377],[0.0121508673861991,-0.025255051758423408],[0.021711045815071345,-0.0034199320307995934],[-0.008250947248907951,0.00387673363625028],[0.010945663565518479,0.02373531773779419],[0.014639019381787542,-0.007509768412328275],[0.001659767396329747,0.0008976898702979155]],[[0.02719063937440542,0.056137926246829374],[0.006848900281069474,-0.05931962679819648],[-0.023553918668795065,0.010129632193344288],[0.015580167074442026,-0.012686134091357017],[-0.0073473136949386035,-0.006542626481355045],[0.013721803953569383,0.0032115079251593373],[0.0029507988111352954,0.025739150393239464],[0.04077422603054131,-0.02186214128936271],[0.02985000536636841,0.010855872768320628],[-0.03696025978099142,-0.00865238765699541],[-0.06196704594273218,-0.038610562351571856],[0.031633761282878835,-0.0013689782665201153],[-0.008203912743612285,0.009048965309683406],[0.022328235195345457,0.06512235250596797],[-0.007509051835479035,0.004502961739704922],[-0.04160174499243202,-0.0219550934547202]],[[-0.027533115982979636,-0.03244408076545233],[0.03847866123439826,0.02473646910253862],[0.021122207711929308,-0.023799089313506456],[-0.06257614729116079,0.03619271277213501],[0.04849981682622579,-0.0011712861698815018],[0.1287013677085434,-0.023200684471371684],[0.06944772224501028,0.008439633965268848],[-0.020740888883305462,0.11538153041816171],[0.04881038330604866,0.05516697826069592],[0.032751382574956925,-0.03185940543969118],[0.0003349528145145017,-0.022032440156211405],[0.01010866060965266,-0.026608248564285456],[-0.04862983580868954,0.01200355715550915],[-0.027241936673884918,0.02941330444200125],[-0.04328193111225043,0.027396431114377107],[-0.057627143051840204,0.05377863510440199]],[[0.0003253100389760999,0.0172290945002488],[0.008767844493226335,-0.0014817018573277355],[0.01604306943835121,0.03554428944529651],[-0.05033885043276432,-0.04035742939043946],[0.027406977378815315,0.016305716456017732],[0.10159203022052628,0.017923009145209175],[0.06508956948941311,-0.03726177731601059],[0.023923888915257232,-0.09599392289480596],[0.07999855054541008,-0.025276338448566468],[0.014997666046459109,0.0468251743419783],[-0.0005198020901469071,-0.00699668956767951],[0.030655400250973762,0.01769494499366589],[-0.037452990029958944,-0.029027930473318336],[-0.03388561062926426,-0.03470491070614394],[-0.029136432881417738,-0.020261912893055192],[-0.0567671097596332,-0.02303307942587496]],[[0.03445955518152216,-0.010279109248681589],[0.03040362340309554,0.044118361469661124],[0.013383095755934195,-0.027593842440831753],[0.0004139337804122664,-0.0291198281160861],[-0.02009567808953974,0.019544154876512485],[-0.04558393776352361,-0.012264786921315145],[-0.0004595313418044016,-0.007033945795421114],[0.014291303380643603,0.04074658191929949],[-0.011525853250067141,0.017767171122410188],[-0.010247904216750599,-0.007366594723368527],[0.025085947622783156,-0.011088985406806192],[-0.012074268157548619,-0.005693334608222983],[0.022580227880423877,-0.011313069094471998],[-0.039835388829301197,-0.010892262116551227],[0.004812063484704585,0.024802714391946187],[0.016781681353985063,0.021454859223767487]],[[-0.012061306031076906,0.05660900506208708],[0.03492927039588836,-0.04755712803608],[0.022478067557334624,0.01701194689046426],[-0.022913185334610307,-0.03191053949706418],[-0.00982185239352537,-0.013943063106230048],[-0.010969646282440326,-0.015615180770183767],[-0.022228629417274933,0.022214108636866205],[-0.02479113417339395,-0.06796211544488887],[-0.05575775654867993,0.004021184876310818],[0.017328651385676803,0.0015826652899969674],[0.053967479993570044,-0.048518242243108536],[-0.049963206296448626,-0.009650407044621756],[0.022438034114680032,0.007348405298656336],[-0.022723558642208125,0.06612553477381475],[-0.0009449467731312,0.016936382929686248],[0.047593141526958066,-0.04852566249828646]],[[-0.00033220032363639367,0.017740859123019113],[-0.0168050515483004,-0.0175601652142673],[0.039238129677574146,0.031037158878045465],[0.012910364272391464,-0.0021286787072748747],[0.03857395550088795,-0.052694157664329805],[-0.010635053684132447,-0.024135757641680227],[0.06074596829939399,-0.013410560952550167],[0.009161115585525442,-0.12033071592597896],[0.024964963074086084,-0.039011172967156],[0.0335438026522145,0.00692536411205635],[-0.0034337490646578323,0.0028823627431321624],[0.07625345918199752,-0.025295076532352016],[-0.04769853767565874,0.013924932564837067],[-0.019947109458647597,0.014920076845955593],[-0.05453692445926049,0.010153798587103071],[-0.038536293848600564,-0.09165560619311071]],[[0.004687527217482812,0.0008837641268833792],[0.014644640677754454,-0.016528144608083942],[-0.04577801699896309,0.03337545690085786],[-0.0016720825644558571,0.011835913269008767],[-0.037071463600071304,-0.05693975570185988],[0.00492335090739442,-0.022964510357884042],[-0.0501825124361137,-0.005845220499934778],[-0.0032887753274241215,-0.09293146381147965],[-0.01697543485207193,-0.030862616979452407],[-0.03989306172302112,-0.0005567726051716553],[-0.009882115103096983,-0.0013825198711143556],[-0.06934288105816033,-0.020463546814657084],[0.047629374747285645,0.01463071937446589],[0.018433508145953785,0.00878148197013705],[0.05446504487451489,0.005099619639289796],[0.02608716314588503,-0.07355828367777478]],[[0.04065450793431929,-0.0049814761426901525],[0.001281838746588217,-0.0558397711031481],[0.018461773919653673,0.007776543175862497],[0.018512737858967888,0.04554708594861659],[-0.01613539827870416,-0.023243376680229043],[-0.09564753521741831,0.04218209620312315],[0.0184689241581011,0.02405807842662358],[0.0007249534309262093,0.0007694566611073754],[0.013607823973556367,-0.02718612161024874],[0.0035192944818427806,0.005818264322196832],[0.04655079120234668,0.01497374003948365],[0.025537901912637006,0.025299202548969724],[0.012021126310568966,-0.015138838154580912],[-0.05176527061990341,-0.028606851847848915],[0.025813399298963525,-0.06307418777386309],[0.006022730401986075,0.015354008290110015]],[[0.002371880622230681,-0.014314526903142806],[-0.07109014666386361,0.04756987712780647],[-0.036677761008789674,-0.03650501048862793],[-0.013329462743852898,-0.054600696689827866],[0.01762798403142684,0.014942340286746103],[-0.007324564707695709,-0.05583712785357139],[0.037203401114686924,0.01753593425464079],[-0.010251434567680365,0.006758037781147682],[0.06466979627711554,0.023622191431330288],[-0.011324476376172347,0.0027546727873299474],[0.01370652059133336,-0.04169626952863639],[0.0008243427906001587,-0.01792301931889997],[-0.008515837426394762,0.008779656229980974],[-0.027514146218978786,0.007298769653238628],[0.02141882776112381,0.06338895111283324],[-0.044539628450347805,0.0067106203615948865]],[[-0.01008653234733847,0.03160852987878591],[-0.07659992272856282,-0.0447027700967296],[-0.03503704256228616,0.03386321299559331],[-0.010382573003604546,0.040426492454071344],[0.012676832461127194,-0.01142710037710086],[0.00803697658126602,0.039507963438704156],[0.03774095495144736,-0.016446737467471523],[-0.00232259288497997,-0.010872603597361615],[0.0652035730851623,-0.014233501365885626],[-0.019149820557467678,-0.007222499749287516],[0.018739886510919287,0.027918084883616776],[-0.011657893346515978,0.012605673383295784],[-0.009819723455375998,-0.0026437716928768757],[-0.03386749231045633,0.022107038851921633],[0.011093950159556847,-0.042948043347309096],[-0.05087076163145443,-0.013634830984028384]],[[-0.013342294794036898,-0.01665613018408599],[-0.027015965605358794,-0.0076965147958394835],[-0.021790157175022994,-0.032531285106796766],[-0.0240469376057982,0.001207858088916125],[0.011284897342778143,-0.00898056093690789],[0.04918263945608485,0.0077053451314929656],[0.024426460568231147,0.016605400562497086],[0.016282652567117237,0.009884104534719251],[0.03125067163544511,-0.010893947416091797],[-0.01696816805079701,0.009478451701088617],[-0.0028299011705782244,-0.014180862069199992],[-0.022563697318502014,-0.0035027175626231684],[-0.0074122876264897785,-0.027467551705207906],[-0.014051804517409111,-0.0408480320868911],[-0.010397980801726228,-0.022063657205091982],[-0.036285751602421215,0.01407038392085543]]],"a":[[-0.006456186972252918,0.0026109651312439443],[0.0012320768058647876,0.003351092083599878],[0.04438787375180087,0.009636293010646016],[-0.04757103258226568,-0.03580124869225413],[-0.007475447682426412,-0.012895921880536551],[-0.024414791208035365,0.004655561021018561],[0.03755260359370392,-0.006224215065615766],[-0.01998184798318847,0.012562125083184415],[0.011634204308372685,0.023123078393922702],[-0.015592645479241168,0.008056572697780954],[0.05997403466228175,0.0188739802713718],[-0.03157983033890165,-0.0023013794520541607],[-0.002040325989130491,0.010862669170611537],[0.05805050510798529,0.01866535040418598],[0.0021655093858793267,0.005643330362511912],[0.021852252503414715,-0.010251851296677765]],"b":[[0.01233321795406668,-0.0013939900179861802],[0.016107268111449084,0.003262349257670743],[0.00047737300749468175,-0.00017087787151524238],[0.00014884316307699522,0.000950584520538081],[0.0009704875599863454,0.005681963050134233],[-0.014442797953267986,0.019451842212982132],[-0.00041668669110965354,-0.005168434388225581],[-0.00511414397558101,0.015963935226479178],[-0.008595401638530753,-0.0012398488179002265],[0.0014806326953520385,0.006087906621771694],[0.004840364989271702,-0.0046093792663868555],[0.010508281730896662,0.0050059641818872985],[0.013364896247210139,-0.0011312876722585226],[-0.00661163344013549,0.001996373662712257],[-0.002651734479200775,-0.00825583424084961],[-0.001187584617768986,0.036749938035869824]]}