{"Name":"RbmSpin","Nhidden":16,"Nvisible":16,"UseHiddenBias":true,"UseVisibleBias":true,"W":[[[0.012265576990540993,-0.03166445497467877],[0.008353459418198862,-0.005089888848510844],[-0.033296344002869876,-0.004001091699388076],[-0.04116689121762373,0.00940220827596466],[0.005428165801348034,-0.020391551595862704],[0.05209147441852608,0.013434588147017205],[-0.008403512582582024,0.035476537234479424],[0.014446483035959978,0.002716406483213151],[-0.005926988996715635,-0.0033395758877193624],[-0.029115837263287103,0.007634077967253333],[-0.0369841615186312,0.0030583969335324273],[-0.031410093063767096,0.015015072584071969],[0.00881262484882256,-0.02888053352586694],[0.01964241463101301,-0.0313259895613237],[-0.008617091731726118,-0.03208688907599316],[0.00668434772744775,0.027845691744275]],[[0.014015375950713905,-0.012296746943376556],[0.01951568711872017,0.011805366982937576],[-0.015633138105103507,-0.04143140566029766],[0.030666869657073586,0.001473106072888396],[-0.0075875243504437105,-0.02182242801689003],[-0.0188196371035239,-0.0015295633362482214],[-0.012579494831047653,0.01975315510479826],[0.030249631084365423,0.000437925000637332],[0.01259059951054062,-0.03046331665170359],[-0.006972158132109598,0.012718968524737827],[-0.03330392219291293,0.0030524912106350494],[0.026787078455611683,0.008969686179892241],[-0.0028797630600503514,-0.03122958575085131],[0.0006002152449989468,-0.03986916539084706],[-0.01915329469192163,-0.014972370368786656],[-0.026268049261189867,-0.004338242997705089]],[[-0.028517012875728182,0.05350016951613078],[0.04044388972593328,-0.0250637679730122],[-0.007402270152346666,-0.06175998950072881],[-0.04976623520341327,-0.022948659255994548],[0.04056972816341755,0.004930533445493839],[0.09220382330258976,0.018686107835234788],[0.031136401835720154,0.010599671757199836],[-0.034851277935570316,-0.04358555506166735],[-0.005815180778392241,-0.05983272430261421],[0.022146596388573137,0.017954566402180808],[-0.024777213374338945,0.021702066763993916],[-0.024054807175291154,0.011303653297455878],[-0.03404484316137139,-0.013639797100782268],[-0.004786291932719566,-0.007450824312430666],[-0.017662851195519188,-0.0005313660033420499],[-0.0035791402909856216,-0.06096253411946537]],[[0.030413360430428513,0.032272326145635265],[-0.0165496758200643,-0.03680744157086965],[0.034073374136738804,-0.0239728779699689],[-0.05159646820164926,0.04875173729910421],[0.009652147471532178,-0.01861523886451733],[0.07530145021058103,-0.004995383442693894],[0.03492507260804749,0.021488713147699318],[0.04310460532813089,0.05409344590064291],[0.03300099176937766,-0.03613325243112223],[0.026641956120753072,-0.03526120067723475],[-0.006445329085441538,0.021718275190420386],[0.03989570998335061,-0.0008197303773494076],[-0.019403927714235686,0.04512413529829798],[-0.02304100824953613,0.0356936473444825],[-0.04601701514917043,0.013305104647589074],[-0.030095210217457796,-0.02712584690284425]],[[-0.030164374906970867,0.02354925171480226],[-0.02765190842151935,-0.0424247918188364],[0.05585969843847645,0.030167652217085523],[0.017855073559438543,-0.012584164643416107],[-0.0031385589074568207,-0.025444548930115815],[-0.007395167133659271,0.009957007554531909],[-0.001235036588984887,0.017259880489500657],[-0.03241871534190707,-0.018596811515208225],[-0.003520447237023656,0.008574281309566355],[0.0370512556238632,-0.03502196796019744],[0.054493243249718784,-0.028150226428840425],[0.004774784319704794,-0.004853674920930893],[0.0055865861103075185,0.0058818713369135096],[0.009612906411412022,0.03515783549007407],[0.01752987305154797,-0.006167284870624647],[0.012274678209399129,-0.019914807026188752]],[[0.05686873608100146,0.054606171154004894],[0.025201664763220277,-0.06362509954142354],[-0.07890609586599978,0.05144382405984599],[0.0169428641927827,-0.031174239834631776],[0.0008985557567493824,0.00411720182019412],[-0.008155893664102751,0.005532838814751594],[-0.019303436255092055,0.009881887074893337],[0.06280373405810398,-0.043431510006911304],[0.03705586185036825,0.0356482516797986],[-0.04488077598506628,-0.026880020845440573],[-0.10016681108227168,-0.050528246176246766],[0.03219413049404722,-0.011760823183175836],[-0.004681873819283994,0.03274925417864369],[0.02588295361519699,0.09920838379949004],[-0.012280226806817814,0.023559296706428704],[-0.025268831009561933,-0.024102990687412083]],[[-0.017441169801934796,-0.04493799715578645],[0.04297832698006268,0.0037652155267501215],[0.029256564209091104,0.06369858484831595],[-0.06150537292184507,0.03539724931659449],[0.048764449630044095,0.006593473303812821],[0.1037123892656078,-0.01456988600421716],[0.05129840774532443,-0.0009658561411338534],[-0.028958661365650406,0.08101298412962693],[-0.012534341906007565,0.06992176315729531],[0.05998942894000632,-0.04571537978124935],[-0.015554969631292204,-0.0215832034552063],[0.010418760711760811,-0.009933521253589808],[-0.05394986205711336,0.03965857452746846],[-0.02758534399638757,0.03831510420798627],[-0.05522946373480257,0.010352986578562762],[-0.01734080301205774,0.07385817850543522]],[[0.022843162270636815,-0.004359776303037893],[0.0035531903121578615,0.030293784173726697],[0.04887579781263665,0.023117882347282428],[-0.04178522729053851,-0.05666326422134938],[0.024606089717659835,0.013933293483927118],[0.07307079859429917,0.011939999130980573],[0.04614939841070305,-0.03039914333036376],[0.028571526034716663,-0.08906422775697642],[0.03722972310186436,0.012232023284069807],[0.054031004165280824,0.051336766959764864],[-0.0002678203569498397,-0.013591117042186482],[0.0620595947846678,0.007344765159683468],[-0.03869905503610432,-0.04924700552002948],[-0.03016543996600811,-0.03357735152878102],[-0.04681730234308318,-0.013925401562969208],[-0.023104023545456834,-0.010533487851918441]],[[0.0030680545709859948,0.016974461269685423],[0.02378149242068328,0.0010327490294145003],[0.015197606453032052,-0.0033822296005278567],[-0.027574906839999223,-0.004903789154925837],[-0.0072584046307517785,0.004866834904241663],[-0.005584757101516979,0.012906706243468635],[0.01705995330546526,-0.0150792069267946],[-0.007437180933492906,0.02604926047035257],[-0.009491659793117781,-0.0010359837648137595],[-0.004921318340137649,-0.012490896771868034],[0.02379132193931021,0.007337236791993484],[-0.027376567971231124,0.004501453935427516],[0.012758802511962939,-0.010421902538344362],[-0.036342460934617654,-0.012027157362754719],[0.007262363434239946,-0.00917198412548527],[0.006519282152343885,-0.0014638325272317873]],[[-0.0391470732503286,0.0461332140786097],[0.00572793447961571,-0.04331698468635002],[0.06690378467345481,0.0034053074925666903],[-0.011195969926366588,-0.04126389018730876],[-0.021710202647561756,0.0008384975256834674],[-0.009590010889211,-0.0025683994849699894],[0.003814819365106659,0.022114486337188412],[-0.03744010342100416,-0.068675396193344],[-0.052325799225333584,0.00831564277302357],[0.016306366541407116,0.011887484508584626],[0.09099751125870181,-0.04049065266390651],[-0.04093415064165104,-0.0070058819578448445],[0.023914602664313417,0.00115906347569807],[-0.03047316560974962,0.06412472905935206],[0.008633210019312812,0.01782373058392215],[0.017953409707176037,-0.030683111855921517]],[[0.020911428284118273,0.02609053340475497],[0.009337893683636038,-0.03562589154624991],[0.03788803875592525,0.015279708419784656],[-0.0034026933641208355,0.015731204602554484],[0.059327688517285454,-0.09373455414030972],[0.01002894515897474,-0.013400307856547588],[0.0402193916865445,0.00184125422539775],[0.018273791651509105,-0.11012929379985381],[-0.011935563582295246,-0.05154413426122796],[0.07435097090492643,0.0019017757987424945],[-0.04096535356725098,-0.012108840268536761],[0.0903185263903323,-0.021194368272314516],[-0.0664859478819382,-0.013053774092735362],[-0.01645193876416939,0.005604844050000054],[-0.09615714720103735,-0.01675727626387225],[-0.015404915153872073,-0.09401979819098677]],[[-0.025590741947313637,0.006515623911673798],[0.0010560865007370095,-0.022219844091433193],[-0.04622900775625812,0.03611304404494857],[-0.007352524097319953,0.024862937113248045],[-0.05299612001129064,-0.0830434946273482],[0.0013391697740706456,-0.01496717427669767],[-0.029438538328727407,-0.007742033605332638],[-0.02361276498517716,-0.09058137681330995],[0.005971424465498169,-0.03644390878657557],[-0.07623051856205876,-0.0001275977302711139],[0.031834181690593155,-0.018875969471209165],[-0.10378829646167119,-0.018456427079712113],[0.06268043462815225,-0.003156724931187678],[0.007875903082957079,0.005927522061768482],[0.09424454051623737,-0.013873997963947327],[0.01820523075261233,-0.07555174455811395]],[[0.006765473513077099,-0.022419512109331297],[-0.015402338945159471,-0.024714388749421574],[0.0072577307699570265,-0.013530921219302227],[0.016511195919367665,0.040830504898004445],[-0.006622476831891701,-0.015388280396941907],[-0.05372969234518001,0.009887468751782163],[0.029312730787849878,0.031083878248227663],[-0.010637657271602288,0.03426836281951564],[0.04052405389830095,-0.010373346080270046],[0.009065518032065362,-0.0031991331515303072],[0.039549522097887306,0.007418582476274955],[0.02144781992452114,0.010375285641328884],[-0.0020148965826669025,0.00559741487987047],[-0.03979048567710586,-0.01906454428058975],[0.03509143750005085,-0.01818614505967496],[-0.003914420388507747,0.015593012664450526]],[[0.002154841845845067,-0.014007608661308903],[-0.06615961853027005,0.03903149559220313],[-0.04035399257178803,-0.04637653588242366],[-0.020446409706067793,-0.06421903174971819],[0.008878538598969862,0.03127680066841448],[-0.012827934692381839,-0.04496246541101065],[0.03755576447066389,0.032459121746544084],[-0.016682554084212167,-0.027100373452063075],[0.08141026208870501,0.02190590694199666],[-0.02269479359174765,0.03127191859213629],[0.02379553172176028,-0.023734327959921114],[-0.01655192337584776,-0.0019334131499296095],[0.0003462233960190731,0.00016420729540366473],[-0.03222632353030444,0.0048761032893965975],[0.04685387985983229,0.04605427803743152],[-0.015568948296286286,0.014308604221101523]],[[-0.005500292113850331,0.035483711190818536],[-0.07480207919931536,-0.043072159976874906],[-0.04582613162924467,0.055846031298748156],[-0.009968537763470115,0.04024345720352361],[0.0040796230321944234,-0.028507132871156932],[-0.012204895650702291,0.040708799650091755],[0.031395453951989165,-0.0324491154188678],[-0.015056399151618546,0.002817055566191098],[0.08041664260913184,-0.013861013532232918],[-0.029757003443149535,-0.032007117326677284],[0.021902154759516408,0.012048544241831199],[-0.019904300794419055,-0.0007047249152542698],[0.0033647179890092848,-0.0018935718227887123],[-0.027940961059238288,0.023210823231293143],[0.04674969092393652,-0.03530839586992501],[-0.021721725464810094,-0.02224721198360189]],[[-0.0008096079880510506,-0.024707964062364966],[-0.02370372194379399,0.01620549129282283],[-0.018601317782998505,-0.02739310922204933],[-0.018422900162478002,-0.01702478311507208],[0.004189862107358442,-0.0008991998869990435],[0.03905778292181032,-0.00906259740240387],[0.014443997950161856,0.005011814557643681],[0.023847113991115148,-0.013235868947601443],[0.01880952121914833,0.002346643030151809],[-0.011758458323796546,0.01666575482176926],[-0.018372394577123655,-0.019410858686006085],[-0.009078530180721285,-0.010431076186884488],[0.0016952157218931493,-0.024552966436610597],[-0.005521485964967933,-0.030846548435311285],[-0.010299601822680108,-0.002538806867001438],[-0.025218762670060207,0.008664219835434233]]],"a":[[-0.0001070671923175566,0.006037891664019666],[0.012572219692713896,0.0030636066152180293],[0.04490335398508908,0.00796568031340835],[-0.0027638169273228683,-0.038434465730349636],[-0.005057200806757167,-0.008519450368405616],[-0.013650383404735646,0.004707931674489096],[0.035794506972191886,-0.005507540181113535],[-0.013776139511304623,0.009848607515532884],[0.009343626239374306,0.020711818161110368],[0.01248519356927808,0.012750703304535793],[0.035772541463481994,0.012781090564464507],[-0.010038688140717986,0.0026563442327548247],[0.0018123809296795423,0.013555250264375174],[-0.015247008692636496,0.018166569769957362],[-0.010372961040988981,0.008378157265980877],[-0.01958842497485492,-0.007916747512417653]],"b":[[0.012637735824555777,-0.0029078386835967094],[0.020704913435882752,0.005646499928825239],[0.0021499522230545025,-0.003229892125884373],[-0.0005559463789621019,-0.0009008293268364725],[-0.0014117139795292828,0.004992361855518547],[-0.012710826203260065,0.01831471479161296],[-0.0017324384741378557,-0.0066887482559398505],[-0.004350868355084015,0.012232563550083522],[-0.011317161204683842,-0.003400687307520445],[0.000684922413090659,0.0072369233187012955],[0.005168469721804962,-0.003835630366872973],[0.008640238117238417,0.003400078102057129],[0.014418288711384997,-0.0029470509539701205],[-0.005735291656735603,-0.0020450033776065997],[-0.0028653698114117737,-0.0075536680570667146],[0.0013093393750689749,0.035841898050015024]]}