{"Layers":[{"Bias":[[-0.10556444928293118,0.05530358321987447]],"InputChannels":1,"Inputs":16,"Kernels":[[[0.036527862149378636,0.03230792176038421]],[[0.157917343207829,0.15348827087274022]],[[0.09245715601203784,-0.46600804514614597]],[[0.04516211284885013,-0.12131569038677892]],[[-0.18897189952114254,0.002643853460836839]],[[-0.05681498742947697,-0.0353956336753182]],[[-0.014060172982731439,0.13096427436733044]],[[-0.08033786600073288,0.35753785614959127]],[[0.10247913383429003,0.10391667542319913]]],"Name":"Convolutional","OutputChannels":1,"Outputs":16,"UseBias":true},{"Bias":[[-0.1039878005781904,0.05166867240938208],[0.03670199398422454,0.03581094169104444],[0.12158367182789392,0.09666661507824068],[-0.029099070921023942,-0.32755495587667965],[-0.018941289831899452,-0.11327665965797327],[-0.16949861860524115,0.02620392583298367],[-0.016366932414230203,-0.058606946817284],[-0.03239810995708261,0.11350178331312864],[-0.05072196545882952,0.17936055106639875],[0.09330321787915064,0.11460495541107707],[0.2614290554214629,0.13375572664198054],[-0.12782408992320063,0.009032075016880308],[0.07966987837849107,0.08854353436708733],[0.08494207019053715,0.15474582559261899],[0.011063002358637053,0.055789592955806946],[0.02790943085125288,-0.12073952963645039]],"Inputs":16,"Name":"FullyConnected","Outputs":16,"UseBias":true,"Weight":[[[0.13371468695486818,-0.02386080679596432],[0.09872739289628957,-0.1452470377603734],[0.0073789707471387115,0.08358183501484591],[-0.07811262498116532,0.10474231293179855],[-0.15235112149866623,-0.058461130956939965],[0.11795915787331301,-0.06100143253551646],[0.1125939256645882,0.14449254315199364],[0.0706361330457425,0.2687410555117188],[0.03491708289726575,-0.031214314954792103],[0.040850806256970636,-0.0028877857437589307],[-0.1067281837594665,0.026271857028064692],[-0.10723512062470754,0.03573171750667763],[-0.05393817952690681,0.14613219841263914],[0.08198360526093183,-0.1956495559380893],[0.05551141766731363,-0.04761689971095873],[-0.06602071174554028,-0.1834475604752697]],[[0.21916453024833302,0.053899447628810625],[-0.07867536263035868,0.10393536571526912],[-0.04486735909249496,-0.08441971232619747],[-0.0679129956194621,-0.12372134970420734],[0.12287087324095747,0.08039339722535205],[-0.07015649216014377,-0.060759960308344546],[-0.10896137517253363,-0.04362076435554589],[-0.05048002762422218,-0.0059378588968455],[0.0210110506396727,0.09545563054237373],[0.180010213467704,-0.0894454258609973],[-0.05519017762908329,0.10986266810075429],[-0.07389941640250461,-0.08964171166757419],[-0.05552468198046387,0.02403774353905173],[0.08806466148585422,-0.0643183646797873],[0.09290342330738548,-0.07067803505381978],[0.007961093974232902,-0.07253598369574997]],[[-0.003511246784930579,0.0005070996401486975],[-0.03366713978634056,0.029997748864710645],[0.14595485221982885,-0.09560666985703466],[0.03570094447022412,-0.017319023893907097],[0.020557885543419724,-0.17075374505214536],[0.1455456672152229,0.1712390717494574],[0.13320099288168688,0.16043492597720327],[-4.016897179859682e-05,-0.03157135890744364],[-0.15042852463409334,-0.0547254436352982],[0.03935672456417512,-0.11594396214773385],[-0.11437705881943401,-0.01163509225990029],[0.06754366387130922,-0.07563067671509993],[-0.11912138702935209,0.05993697121872497],[-0.14575200935664737,-0.05947081861954342],[0.12335896367642393,-0.04253748471740122],[-0.10183192511528946,0.00027761093017318085]],[[-0.0024821361228200816,-0.010081548508899247],[0.03756851235923626,0.045526632375036014],[-0.012997739742128693,0.06265570722958294],[0.27049516464329204,-0.0425139546108371],[-0.12993208245555662,0.06395003135365647],[-0.02372586309832262,0.03163978778747112],[0.11929254777671701,0.029094183346635563],[0.0680777441564034,0.026647178789601017],[0.004047945593213819,0.1332781752390106],[0.045296901519152645,-0.038963302581711934],[-0.07898509066660205,0.10054114926506473],[0.18684764730216347,-0.09199126012211632],[-0.016868886912981454,0.0629764389829382],[0.013768695268550908,0.04943741648522455],[-0.04198312306690685,0.16505959145842541],[-0.12450595644395751,0.1547231764689912]],[[0.03111897362600389,0.05985332752299399],[-0.13879738424493776,-0.0009770886922149556],[0.001272162333196332,-0.0915088491593998],[0.27444921183253773,0.2830876530748473],[0.17424744053207253,-0.10358339102852653],[0.04705820688785711,-0.12548852360551274],[0.02213583855372334,0.10287085838241625],[-0.04672918067485385,-0.0163166428391557],[-0.10649079439038261,-0.021077576572449262],[0.05117640561574004,0.09109089669227317],[0.14822931960195976,-0.26426330655929525],[0.11160102131976242,-0.11771658471309952],[-0.012190182656838001,-0.010676178697485113],[0.010470846217374815,0.06335369404612728],[0.1061424915329266,0.023296483984815812],[0.0007556581040758527,-0.13283444143696121]],[[-0.14100118011192428,0.1919312606317001],[0.19050312423122345,0.19203030098009102],[0.20331209876067785,-0.21769056180377688],[-0.10524579740343122,0.12759822943768184],[0.010322479714681943,0.00302434878838777],[0.03947555630530689,0.05100889455615514],[0.07896927493215737,0.0852552142740258],[0.0887089516524769,-0.041281757323760514],[0.20249747554822067,0.07437942469199985],[-0.03064906026772857,-0.058353916221304584],[-0.13410789067039294,-0.09142905151465536],[-0.1652927527942494,-0.12407354746503334],[0.07046803559696088,0.04077100199167477],[-0.006613041351503145,0.06780122737296346],[-0.049706988152658636,0.05595310175038811],[-0.10035082091767439,-0.037949654309356234]],[[0.008601495359418686,-0.06255876547032076],[-0.13013490931381452,-0.08070602794644012],[0.016292223994725092,-0.08182710271006673],[0.020640134332010465,0.06266340509917388],[-0.12285511933273065,-0.12602386083824574],[-0.03625136904546501,0.054783636800775075],[0.20706426875053116,0.03583926968127949],[0.000838359952214044,-0.0027096461595623005],[-0.001810144804302475,0.02676880952916392],[0.005191331383687595,0.016664283785252074],[0.1433886241221689,-0.13839944121814654],[-0.059287817275765854,-0.15068594152546969],[-0.032689276092071055,-0.06044738268761271],[0.06864518428782196,-0.009487871338904814],[-0.05447759676728833,0.058935401125653576],[0.02778629782590656,0.08286292699031701]],[[-0.027331086840401846,0.17220023855782277],[0.06139866556527501,-0.017839466514345544],[0.03152087282792355,0.09110581275448933],[-0.16432032869303118,0.18706032063277436],[0.07822062711533789,-0.229599178945413],[-0.08577122349154653,0.2251955840812419],[0.04084558194043474,0.17901245344605615],[0.011193994990626436,-0.1079126254731306],[0.175943254665909,-0.11277395435330695],[0.10776607997719087,0.032354656769206694],[0.1078925376392357,0.2031988125128191],[-0.17808861686382899,-0.12683890727045574],[0.1833781603901698,0.0991261142168614],[-0.047391633161950775,-0.08973505703379371],[-0.0676024126625515,-0.0028042664647438104],[0.09389540470733254,0.03835272219847383]],[[-0.0860388082146411,-0.010216201898427205],[0.11427736345327331,0.03625226279725796],[0.10080299493056244,0.02300697026132419],[0.09300750656781613,-0.18233264231567825],[0.021252175505491366,-0.07311377491926686],[-0.10002108482947707,0.043954573507198544],[-0.16510356325763775,0.09507660501461714],[-0.039306924714323746,0.037707945370614976],[0.13910638391745317,0.14965098093073126],[0.018974403703045116,-0.015499290545063516],[-0.05352970406027874,0.0485092081132496],[-0.057380855065316774,-0.030662295282471774],[-0.06405326984686321,0.03189755202847442],[0.11502734257977072,-0.11628943535255756],[-0.1635325152929159,-0.09996584234660133],[-0.037137871838357144,0.0018209721945219503]],[[-0.0308907221237879,0.07065525672111109],[0.023612218355298864,0.16661510767572787],[0.11337699631652838,-0.0452621362840802],[0.06538612358331529,-0.165276854692868],[-0.0026475697133849004,-0.07695769039080413],[-0.005412033430294701,-0.02936749326280576],[0.029001625719594925,-0.08625282142007076],[-0.04841299440924389,0.1262852265350731],[0.001158065263629905,-0.20833294634781385],[-0.20370857697600048,0.06252340900193366],[0.03052151254485314,0.15993342631433022],[0.13677296645737252,-0.13846782825468326],[-0.1300048233460644,-0.04649053868198934],[0.033429733880007084,-0.07493857617134639],[-0.1789548653881563,0.3098007225700319],[-0.15870784858325274,0.07573752886923173]],[[0.0701322509110663,-0.04568165902969134],[0.0583985098817067,0.011849078210507792],[-0.11853306579412953,0.00422810923636133],[0.0248242187275649,-0.03991786197030113],[0.16981995741265182,0.03574151942809962],[0.02697553137274611,-0.18346841747664555],[-0.12464930523466758,-0.1556894954031297],[0.12251814997731297,-0.106955136556516],[0.05683869687605645,-0.174571548228186],[-0.16264235008193625,-0.09447877351550688],[0.023594916041678675,0.0016882392358345578],[-0.1781156326593972,-0.019209144983825047],[0.08828425892739633,-0.2059391680712397],[-0.12346852338033942,-0.02911147685458421],[-0.04780326543327537,-0.019913645909759598],[-0.21366544989315925,0.0762601770056032]],[[0.06828020359048667,0.044119716435348975],[0.014239578233804742,-0.09912330950879475],[-0.05336503310538532,-0.0775076467956974],[-0.17667184103301742,0.09067745121113407],[0.14678174659848256,0.1835781844909503],[-0.15101666512329315,-0.16480164656616],[-0.004900111233637568,0.010570665140599397],[-0.027335377095919308,0.12175683671712363],[0.10970891393341628,-0.0978846871301306],[-0.09549421159683394,-0.09365247373132615],[-0.09177515991997606,-0.08068577311406883],[-0.18360308386785593,0.016200606066216088],[-0.14240753418067417,0.06517031813875931],[0.10389455597862006,0.04287709079433201],[0.01241646086072961,0.025590833828513442],[0.0694374241061846,-0.11989000994608956]],[[0.12977303745937785,0.00862883053755421],[0.122478759191217,0.04063870233489086],[0.029817524790378518,-0.18006984093828818],[0.0030771236048855477,-0.09850447261876291],[0.0014073587731333033,0.12752459135647787],[0.05107198075956797,-0.07906304496157159],[-0.11971518093826324,-0.0032174545262637915],[0.2576211819924347,0.04982759961081543],[0.08879170089878523,0.04488042782770289],[0.14660445444109202,-0.04030830455899378],[-0.0282719243798586,0.01220337414906976],[0.10729833449654283,-0.04237589054636384],[0.2249932972848414,0.03534572900925721],[0.09546639485323416,0.11901243294204948],[-0.07696236728976193,-0.05877374494182492],[0.17460011858201746,0.047347459104969944]],[[-0.06503055032351295,-0.0012253680595102744],[0.11808791876915893,-0.004853444443541682],[-0.12462949796583493,0.05404861134551317],[-0.17697647499948174,-0.19047249701383745],[-0.10851049208615755,-0.07487813693848046],[0.07609542722581442,-0.009727480970848058],[-0.16591907884806004,-0.16190575890939912],[-0.11210922916782734,-0.03505997503222032],[-0.019332986377499195,-0.007208079120739903],[0.11619839919944432,-0.014033201519459993],[0.041240851102139646,-0.026301069857001903],[0.010961713515542036,-0.09434876541246377],[-0.11559790398476742,-0.0727368827987017],[0.05640851661539861,0.04526523290960769],[-0.08914032866343172,-0.01771056357431363],[0.008422345860807567,0.1888208047015951]],[[0.02134547255247536,-0.06611124230677502],[-0.12190068873088855,0.12965901553274845],[-0.1399201142069633,-0.11970642682353394],[-0.006218864656712949,-0.08689922056899267],[0.0373237008683198,0.0017081017905396963],[-0.026648227158472655,-0.12017472521478403],[0.038583941420546115,0.05897418357213811],[0.12940733776717442,-0.06171581072870686],[-0.09463096524805031,-0.08203684448182288],[0.1294392108167745,-0.11218685191807162],[-0.10128931074353352,-0.05192228151846637],[0.11586788978782739,-0.07262676225081449],[-0.02766985178404399,-0.06693463244665286],[-0.08501538348168082,-0.08247930427890784],[-0.06949102570259547,0.07261304126100114],[0.03393988283485274,0.019603691416170632]],[[-0.006347372398077985,0.2513141540124162],[-0.09886419087373798,-0.04543495891719927],[-0.07677532571442751,0.012773860015839411],[-0.12641015823766663,-0.21279706269039056],[-0.11328068296108464,-0.037281124306791355],[0.08723890164294802,-0.05082944818831663],[0.08257641842012467,0.016830391555716504],[0.10582232651477035,-0.021298945473690597],[0.09950981635819234,-0.033751833950459845],[0.07892334412685231,-0.10476122330213844],[0.04268385929110137,0.06683865191590001],[-0.030761756486460068,-0.08296828433333274],[-0.05942823107007807,-0.0860134989216476],[0.024122188414231988,-0.1778425717096433],[-0.06470225952340179,-0.15352530724687732],[0.011824514621115436,-0.012292275083865573]]]},{"Name":"Lncosh","Size":16},{"Inputs":16,"Name":"Sum","Outputs":1}],"Name":"FFNN"}