{"Name":"RbmSpin","Nhidden":70,"Nvisible":70,"UseHiddenBias":true,"UseVisibleBias":true,"W":[[[0.025561623499158418,-0.009331519407500358],[-0.002001786067932199,0.0014655748411573992],[0.0056160437239747155,0.0037687968221192885],[-0.014571271048722908,0.008056206738844761],[0.019292665520914732,-0.0001324674631897312],[0.008573300517965244,0.007787060742064491],[-0.010387519266064757,0.016094963405516076],[-0.0012632335952889985,-0.00810966777782913],[0.03043797526255611,0.005760425856543068],[0.006268516550927456,0.001764925272813622],[0.020072481652383047,-0.0009209412514589465],[0.0040308786371872785,0.02065503027252493],[-0.02569779849118986,0.060258517344779085],[-0.01907912475927138,0.015012798198233649],[-0.008758440584132074,-0.003492320373654186],[-0.03068898309430322,0.0370568304600708],[0.013379426869904572,-0.003519456968636707],[-0.019574625700426302,-0.003031924085652167],[0.0009897103272646039,0.013285761282454758],[-0.0004039312422402738,0.005218929150337371],[-0.03194567295521116,0.003037399803136753],[-0.015061884948732767,0.02199174512041737],[-0.010699813206323424,0.01859401503886242],[-0.0019544164093254256,-0.02381465418415646],[0.0009479462625844781,0.02533572531855045],[-0.010130467812572968,-0.0014000519345623492],[0.010866205945886139,0.0281204459497585],[-0.009647951304648676,0.02743990004033065],[0.03367576962743614,-0.030082737502953025],[-0.007980237133788138,0.008666878402872696],[-0.004843520725560234,0.006550268040421619],[-0.0009190666888309893,0.006718139727509947],[0.026493709630623984,0.004018189875970789],[-0.03723581715244143,-0.0008314291221212721],[0.0015219160818295866,0.00658660917629603],[0.017511457806112105,0.02658277600085373],[0.010810888309604383,-0.005608962571477159],[0.0187116091064576,-0.008883080524794796],[-0.014466070499514014,-0.013280545546453854],[-0.009694198046436325,-0.030204499800138347],[0.029306131924909176,-0.03564080730204277],[0.021608155354150182,-0.02437216959228236],[0.021413373549575277,0.008210958621167544],[0.02633765414312861,0.028276320666024386],[-0.004579084049402964,0.037495948470851304],[-0.012607473290671379,-0.016641788255330366],[-0.012334727033551447,-0.01587664370795415],[0.013608782987124635,-0.008825622339377219],[-0.010915047879081522,-0.005525514165546409],[0.0111766317014706,0.0003486856843488],[0.0008366171045395667,0.01594877270832053],[-0.025946364416876148,-0.02753162691520894],[0.013746492277530923,0.0408694133741074],[-0.012899904546675825,-0.03673639890218022],[0.01569960377435244,-0.0034160315835376955],[0.01359894905333516,0.003991876745576339],[0.01246340107488041,0.010877795555461481],[-0.030910380039228136,0.01758370398007177],[-0.013229354020160653,-0.016617487758185362],[-0.026992553481529603,-0.010688261187817806],[0.0055897720807564525,-0.006911014870207712],[-0.02654615370315932,-0.0024062091355761504],[-0.011497577531710811,0.020684676467640186],[0.03129800485694302,0.0354496493561929],[0.009139247128757648,0.0063195436122881875],[0.0028970238515766203,0.021979157424192732],[0.003945302286790679,0.021658107193634025],[0.04072010387265218,-0.006393808323942084],[-0.012046238811743382,-0.004018969858850551],[-0.01405490519654702,0.01427081309227777]],[[0.011646249768203432,0.008882968264582486],[-0.0012784685442226926,-0.0006023174467512845],[-0.014902152328991398,-0.020081560241027002],[-0.008129527871505558,0.0030671169285738644],[-0.03029905105697077,0.0037788971850257766],[0.01467789113161176,-0.004872000346592997],[-0.022591094623346235,0.013470670854480633],[-0.014674317298835646,0.01684644924738826],[-0.006138312187655289,0.014080692632508779],[0.01293881432386475,0.0030730113094630607],[-0.0115078666026284,-0.021806250885585163],[0.007002089832141239,0.03549997169280763],[-0.03357771617544463,0.03206322166560109],[-0.0222069387975034,0.013047547117264427],[0.013385978276472412,-0.011346742282139033],[-0.0013618930796756694,0.02065882908538021],[-0.01221738801225937,-0.006218670412737803],[0.029311430602033933,-0.008555868263232026],[0.007520505175771854,0.002852797806504859],[-0.0129281309156211,0.009962854796551715],[-0.017542888890528657,-0.009288915818498684],[0.02647390266913855,0.0177280883064308],[-0.008104248306045336,0.010067731321977445],[-0.01562706089062593,0.000885980992520768],[0.004564904992832901,0.026004183661844267],[-0.027956021826394235,0.01917408108085142],[-0.0032987940509418075,0.012170847035211298],[0.037595234568442173,0.01084517766398304],[0.012421335030975119,-0.028029626059546783],[-0.017162740465407743,-0.0063500955749778275],[0.023718587009775832,0.00023394051148467354],[-0.001517308629866325,-0.0010105414946225666],[-0.006587605839102484,-0.002982130444240826],[-0.017197272601263903,-0.010761552323240896],[-0.02866158749768582,-0.004269967587461908],[-0.015728656442399673,0.04070953546797766],[0.019251075697290013,-0.02207479446169453],[0.014801646446438457,0.002954013822577156],[0.010799093087963781,0.02298714007210342],[0.019073701381700205,-0.014582194904235077],[-0.016335481331098266,-0.020140046446699464],[0.024472941376047302,-0.023103507949969737],[-0.029989713897401456,0.023938047532772337],[0.01073850475011574,0.022065826166981238],[-0.024451848589874668,-0.004709246441323011],[0.003481938682772388,-0.004445343941142621],[3.281964877904276e-05,0.02248846099560564],[-0.011979325864859098,0.01696535701954472],[0.003549809660822638,0.024782229978483748],[-0.009844820398158262,-0.006502506525332234],[0.006573843324474705,0.026909349860116206],[-0.0320052993559231,-0.0012732206864959055],[-0.024874529635109506,0.009228271745855051],[-0.015610886272390453,-0.022369602124770217],[0.008431781120072495,-0.02585542466696422],[-0.008657531491208285,-0.004251864322869048],[0.013798844318811187,0.00767089418376707],[-0.007364114713568396,0.044476857303133555],[0.011424615328786043,-0.023969430503757126],[-0.004533513672949508,0.029020596432944887],[-0.016334788095511567,-0.011815922811705657],[-0.0018156244562782245,-0.01005145382232186],[-0.011253900053338813,0.008497493078583447],[0.012908650832352219,0.019152708671366647],[-0.019660656840210847,0.001133575926355765],[0.0006386918679161888,0.027935975210661185],[-0.013274190628851424,0.005673146144750334],[-0.016319207737560227,-0.01590714325908746],[-0.01012423052682725,-0.032943730638516786],[-0.01649879104911658,-0.008822472819709527]],[[0.04029867276083496,0.00635907612360727],[0.0034665394606570223,0.0021709547275123855],[0.020670652086658324,-0.026839643061668705],[0.01727553119281968,0.013296749697003712],[0.018060665043360985,0.006109279720988234],[0.009564538403566736,0.029064872605521326],[0.009235569982241027,-0.006450293518425872],[0.013968899640306141,0.0007642196328919762],[0.012478824277359071,-0.005248354637308836],[-0.000288955258165986,-0.015086854192710797],[0.005370520924250523,0.03249781085765599],[0.012398700000288285,0.01765561542862658],[0.014567694725461596,-0.015514301100533973],[0.022179653898316616,-0.0026211211339444325],[-0.002115507282940768,0.014216179530531385],[-0.011384302666940557,0.0021093147897237093],[0.016469775958392094,0.010275225722461383],[-0.013590307398489283,0.01175638699549804],[0.014894300682783822,-0.00037927993476188394],[0.012356652259675215,-0.008591406201232743],[0.024649619996415215,0.011281227025203566],[0.009457321505109927,0.008603511492683742],[-0.0021145304178171818,0.0008428297654016503],[-0.002445850800785855,0.004297648367891635],[0.022668109514662006,0.029063113649728207],[-0.011354689546636865,-0.0017255408358044049],[-0.018593777071145352,-0.01018425945053336],[-0.0003143396256511139,-0.009319005402143869],[-0.0054481059564532985,-0.00866141307528351],[0.02321331739820135,-0.012138962703358033],[0.007438325271123797,0.006727047051558824],[0.00035023262763707926,0.010729477935799326],[0.01849656706020304,-0.0021159855634291205],[-0.021012014122917057,-0.009507930834718965],[-0.0017387478942927914,0.007182371109759427],[-0.01140799094883153,0.011951180711378122],[-0.0038476558889275095,0.01943334898391904],[0.0012794429444885173,-0.007152862442128378],[0.01220387686105794,-0.01383828691348311],[-0.021456109415286608,-0.024551074602684166],[0.014324834121172199,-0.025258859426796627],[-0.0169630327866907,-0.01686387822048038],[-0.006279228142940771,0.013281404127691725],[0.004361869272080676,0.006809124541703023],[-0.005873923064301388,0.003892978489447624],[-0.007508033722879915,0.03358647785261491],[0.016669668599204178,0.007101049530815925],[9.431817003340264e-05,0.01475107102763479],[0.00319975102952817,-0.011581721854660092],[0.0025692807339770347,-0.01426918729110764],[0.009537807079593268,0.022305486169246342],[0.00270880171070259,-0.024001783698877184],[-0.013784534700650785,0.014522807580444531],[-0.015370120232877186,0.012636737109739216],[0.025849857966191388,0.002183936183630314],[0.025870480804637858,-0.024799490699431062],[-0.00318231090829284,-0.006716095130027161],[-0.017751453673509436,0.0006820258649029212],[-0.0002730937698214326,-0.015371454806968252],[-0.008225698710369154,-0.009063467260716926],[-0.012405713440096828,0.019505830839906306],[-0.021856341519748853,0.018723886968399214],[-0.007622817676896928,0.015442092580391718],[-0.019252263459008264,-0.008682094167751564],[-0.013071769381972805,-0.01610570400363709],[0.013624275373121978,0.01516599119186621],[-0.0022447740397309127,-0.009175902969093841],[-0.0009114709752688272,0.01432576565000883],[-0.019964851522509375,0.013764388347505367],[0.005626031702019431,-0.008863650640743952]],[[0.0006155855363290292,-0.001638955779361438],[-0.0005801698058107273,0.01996046298399626],[-0.005047853277120088,-0.0014724743058206497],[-0.0017232423424622294,0.010405837942212212],[-0.04040539576382511,-0.0035014141854527916],[0.011341155098163023,0.010686711057441522],[0.00516982171638709,-0.020356010756112767],[-0.012136371596773075,0.006187589450310352],[-0.007723278532526897,-0.005626057990802816],[-0.00472591927427359,0.015201418177838693],[-0.030184996528125264,0.0021928207367548575],[-0.0023720343684301643,0.017823469584587918],[-0.0005228528208615209,0.0279593485812208],[0.013164665405019692,-0.044100167825657934],[0.012577430967458204,0.02181568862261136],[0.014519294241794569,0.03652296984736356],[0.007129423412812812,0.040833445880755936],[-0.02246017316176059,-0.025489204010582436],[0.015959982423206672,-0.010149458272567309],[-0.00039765288620150895,0.01594188259237036],[0.035122256249730706,0.009171756584345016],[0.005499321127218527,-0.012330258562878085],[0.023387851344365693,-0.021560346976405055],[0.002632010723000836,0.010384730236324873],[-0.0072296472128096576,0.025323596148423465],[-0.008339568353008841,-0.005870965931021007],[0.001814854919377462,-0.021570184294545814],[-0.012844426816661893,0.026788481963682498],[0.009744108997506546,-0.0002642174495640024],[0.0347234634352777,0.005626797634528607],[-0.0030180324445555663,-0.0024758133641046842],[0.0088844450494037,0.00762742767373047],[-0.009492305551211201,0.004348478687537209],[0.0011838583526597411,0.02508603136106194],[0.0014297116493304793,-0.0016304749196539427],[-0.009853028433410715,0.003955859453368847],[-0.019597068582658854,-0.001906567644149942],[0.0009435773622380943,-0.015710118287758316],[0.013891560136423257,-0.021959880641721736],[0.019514801837631483,0.005457250554852523],[-0.03870999150405242,-0.02565200699038444],[-0.015936860538878297,-0.018441704921763537],[-0.007053977008731668,-0.003797608325287103],[0.0325843775555698,0.015346328685272847],[-0.03557691162685551,-0.002450815394701702],[0.009493603698903456,-0.00392169054863156],[0.013118209683976974,0.007832543569922258],[0.00874256031424337,-0.004684735327369881],[0.03418555551266089,-0.006090502580898552],[0.02659155663652072,0.006170527988306246],[0.012973710797362448,0.015251585195053147],[-0.006593157794893861,-0.0011044242182131703],[-0.003948480938762688,0.011038912405392525],[0.0035375709165946225,-0.016907136309312374],[-0.006559568109335354,0.013229655753970147],[0.002580208103067393,-0.02156065212579175],[-0.027614841358471025,0.029813017309282437],[0.005814569443794263,0.004163114017765722],[0.01353763436218921,-0.007410749934498264],[0.0023987797108248887,0.017193934418647795],[0.0033605628433241806,0.0015743859009885093],[0.023570044352442702,0.004761292275991015],[0.00014851636672675965,-0.009931053440409489],[0.01130417807513812,0.023696291696649656],[-0.004340210194116187,-0.04582814542536454],[-0.02483835134997755,0.005724151111592466],[0.029060731129366645,-0.02243677944850227],[-0.0131795209427923,0.006824530103261442],[0.004101227247322849,0.004182356734742391],[-0.009643855114463017,0.008022640422051136]],[[0.03927536982789395,-0.004888893858799872],[-0.01435304545656483,-0.007965292400814963],[0.012741007939148546,-0.013163760087749346],[-0.011655770759479312,0.026228943493493112],[-0.015997476705089338,0.009487100908731047],[-0.010161046094987518,0.03254596140585252],[0.01125279896800963,-0.040406071122318137],[0.006265620884117447,0.0015258523403870385],[-0.0020544692715848455,-0.009430280899326512],[-0.02026366889916057,0.009294185257302339],[-0.015780407519552765,0.011709961370247515],[0.011678907993221153,0.0017960859389345987],[-0.002913542923552768,-0.021555089593756432],[-0.02087115054832173,0.004972053928535513],[-0.023658182403130973,0.021666899242070076],[0.024678312329576662,-0.004630909561776133],[0.03974906316149414,0.026407324024092085],[-0.0262662465763954,-0.02370622449168575],[0.022234004128235223,-0.002898541249643941],[-0.028571296566704728,0.02111410363705528],[0.00881494819467333,-0.009380538337828658],[0.0014918743688389024,0.004066569644861561],[0.02938971578683639,-0.012386134875804642],[0.01373190007811771,-0.037607369183087644],[0.014000519512737546,-0.005915335520334751],[-0.0020956609383433154,-0.02877359333507475],[0.052505976711742536,-0.006969295523077857],[-0.002766137883870347,0.01062037837035444],[-0.004177233792417643,-0.004422561769752004],[0.005925583401582247,-0.021750211728344567],[-0.020914607449744996,-0.012285421339048502],[0.002720538791683172,0.0248877125934214],[0.01219963945713429,0.0028387518468685493],[0.025564735638510517,0.005018229876154844],[0.036917792704152484,0.01983331937358877],[-0.0004894912187124742,0.010685861015408226],[-0.0017762642869141613,0.002859662653355536],[0.005237657836617089,0.005065051870882173],[0.025545416350845965,-0.022283453378292378],[-0.005612618941748446,0.00574001602973936],[0.047557536075737816,-0.002438288327682279],[-0.028231471527034722,-0.01117294155216471],[0.0072327787386868465,0.028784107224156832],[0.011072988943463574,0.017302229925494246],[0.009095141225573058,-0.0026462562464990595],[-0.008849042173548587,0.015715849362785014],[0.015395754829897792,0.030224767276954615],[0.009190401421263487,0.00824678249629758],[-0.031263901961957656,0.010943179353294568],[0.020825181149860587,0.010266824360104104],[-0.010166820354150712,0.012579819014664973],[-0.012735944113049793,0.03474916009199196],[0.031449631992779864,0.003631644725973677],[0.0010537400206480302,0.0006262541171440207],[-0.018447617821917884,-0.01807623517609513],[0.013173647469438353,-0.0005618193475982755],[0.03195835251073902,-0.015315798003509877],[0.021210742610803947,0.032982239081623975],[0.01153165100660607,0.004070483535124685],[0.034151826567190964,-0.01545735739170297],[-0.04301201498364761,0.04008053076417997],[-0.021041094559815655,0.0402246142375782],[0.02025453293884202,-0.015039881118630551],[0.006656847277909007,0.012274827033133704],[0.025500107757569317,-0.021355835044101594],[0.0066119131200832685,0.0052945804038216065],[0.014124932771686078,-0.041204662607671146],[0.00011578174674830135,-0.014184352247762683],[-0.007905551142844656,-0.00556383632737669],[-0.00676547183406166,0.018285255343040492]],[[0.01445291935803395,-0.0008645053689145419],[0.03804722678052048,0.013373526042575374],[0.005291141300157282,0.002955335500136696],[0.010243366711385489,-0.018651948341102183],[-0.0068231963251090474,-0.004714854207085536],[0.02554520401164016,0.011275648046500594],[-0.001350443499716442,0.012652648826617477],[0.01961050496532893,-0.015202365629395836],[0.0026058509977454052,0.009461837718112962],[0.0007964798010902511,-0.014134675562305911],[0.0018156026609029443,0.030420374397519587],[-0.04168169589725708,-0.020120308789270784],[0.000647583782087425,-0.016847460906450316],[0.0024747642695220617,0.010628474848188914],[-0.018285353487419224,0.0009692505948120255],[-0.0019615262220501273,-0.003564073496137585],[0.025598322832125212,-0.03185573682370303],[-0.017795623174416585,0.049965800431622444],[0.022808934463933252,-0.02598415459967656],[-0.021983361141415886,-0.010835691844651118],[0.0178433061774646,0.024190518137443662],[-0.01500128146875443,0.01342562113787203],[0.013971011697847691,0.024689818838758336],[0.007543285703731433,0.011726942204003084],[0.011181629277580516,-0.005287223112064361],[-0.031186342748036992,0.00899189026207346],[0.01605426771933507,-0.020276307982845982],[-0.001174928968827324,-0.027587681206849856],[-0.0015096157461368049,-0.006930494201940415],[0.007109179568100581,0.014846427634742141],[-0.007928588459332413,0.014788457784564082],[-0.004339111135615867,0.020919192601420847],[-0.00681286815848908,0.004992701612698846],[-0.009561583309260616,0.01935238688818376],[0.0013899001971509955,0.03556592126160946],[0.0012601007256745238,-0.0004188254433877157],[-0.009607145886733334,0.00858881642720882],[-0.00963079489986638,-0.0016412327269915154],[-0.00928967430376664,-0.007752450373907107],[0.026915092733551516,-0.013302557201897288],[0.025270989831613046,0.01510914069943262],[-0.0012588277074705532,-0.0004691098376474641],[0.035272060852622494,-0.03569609943660091],[-0.00919832899815719,-0.04355705145687583],[0.013506138587954998,0.022903046342803768],[-0.009697873129473508,0.012449176620390884],[-0.018496935932043677,0.00990992843254932],[0.013010273402207779,0.001462889764507215],[-0.024680537220879734,-0.0327594210919326],[0.029618899150348182,0.011367562723089971],[0.013179133593894173,-0.02481171699060869],[-0.008754828725600461,0.00889222890799897],[0.018179853358976063,-0.0260744766882447],[-0.006060282710563106,0.0263772064299556],[-0.004449286039165192,0.03375728044342544],[0.01711894671067872,-0.006021729813574919],[0.0032697001932551844,0.010035715975381547],[0.00573230914208225,-0.041569377616406146],[0.007677869737799222,0.01238897814252681],[-0.015361317732434116,-0.015516422455373342],[0.008505337264120857,-0.004932418315135887],[-0.01390512148334339,-0.002503069121216923],[-0.01498892724825479,0.010714154092402076],[-0.010078721109581766,-0.018423179659232222],[0.0009843345223192615,0.012804677820112357],[-0.015800175323349368,0.0007477156602423678],[-0.00010794958275963567,-0.016562445437342227],[0.011815843230996341,-0.0212897961745332],[-0.02534441728254207,-0.005821072533478915],[0.005368171254034596,-0.009121065543196461]],[[-0.009618918420556085,-0.019544244899243477],[0.011441921290073211,-0.005667826823217002],[0.0008347662590484327,-0.0016109367194597482],[0.015351643577340975,7.40385392271882e-05],[-0.00039443774972207596,0.0012768908438710695],[-0.00193325849047114,0.02658812310633644],[-0.008216711085358284,-0.028662528829458807],[0.007506558342436844,0.007412183929405849],[0.004211046384319981,0.014053113288038578],[0.014591113163417758,0.01594336736427647],[0.000536829686358546,0.014000685968032741],[0.019198234238440113,-0.0034446431009170675],[-0.024307943684158662,-0.03173460588889327],[0.006247476037534419,0.009202807029224842],[0.004449933822602078,-0.0019284484723711762],[-0.008437634028521181,-0.005227425321964758],[0.04998838817786583,-0.0017554362171983153],[-0.008811998874035797,-0.023245668565951016],[0.017887483174069744,0.04778792073159997],[-0.021331281247664882,-0.019327758986030553],[0.0004917132710668026,-0.010043876427871279],[-0.019679434049892232,0.012496220317237275],[-0.003392387417867401,0.009247396699958273],[-0.008645760027329166,-0.04345733652993876],[0.022512607137482217,-0.010593625587737854],[-0.023474989780520934,0.04408612298020396],[0.010054082943444065,-0.021249129416218704],[0.03191275926895185,-0.014157887157462088],[0.03848424211090498,0.01517206303875898],[0.03726195834560504,0.0049257314563076835],[-0.010252413187184747,-0.0036079957959812324],[-0.021499510804904656,-0.008834238841760678],[-0.0035821727250348653,-0.009385885453177848],[-0.011123746134101695,-0.005372342380314869],[-0.020630500010831672,0.0171109424416167],[-0.005435185334907888,-0.0004703712918075752],[-0.03011095262904577,-0.02029023186093447],[0.00329864815873284,0.0032704771763765305],[0.015070044502577144,-0.015519221453621168],[-0.004888586753696724,-0.022960789258814604],[0.02253440251206938,0.019915973081190492],[0.01980356332205736,0.039871722556487826],[0.019492508763595276,0.022657735065987387],[0.0230930439927056,-0.007411835112000211],[0.020017231667513364,-0.04858212919506867],[0.0010701577483099131,0.01406548164826134],[0.0053319105032063495,-0.008528600452984637],[0.01056650955816032,-0.009042064323478987],[-0.003857129747245295,-0.002552572703568887],[0.032403928684592576,0.034816124568725765],[0.010542017070470623,0.029621792441904545],[-0.014360028076529235,0.018226083693084715],[-0.011084280633060214,0.0027568479468891237],[-0.0026456092139101545,0.0023893736996703488],[0.0029583778586203292,-0.013955432946832066],[0.021436988918358275,0.02768769163102016],[-0.001077176756682834,-0.029234303208419132],[-0.015758968898465755,-0.0195495724268785],[-0.007039611366590292,0.0007603148637415828],[0.0049811153999042125,-0.0019866457094222705],[-0.008160006099431502,0.05078392190332096],[-0.013421182327559336,0.01605759448563323],[-0.03553823921166429,-0.01483525095048472],[-0.008401508301448724,0.006767785706154604],[-0.0008200081516828495,-0.0008240248666648549],[-0.034323755373747315,-0.051167428949315044],[-0.006653514711476955,0.007385650261355261],[-0.0357407586831948,-0.03360870253624977],[-0.050933136898833,-0.007541336163258864],[0.008423020783988329,-0.003580942918781891]],[[-0.030866361783738777,0.0033340701025215947],[-0.011676448955926705,-0.018685030447396812],[-0.02118413504581426,-0.020101917226208778],[0.037267642727735306,0.0045408847181061165],[0.012076917502904549,0.022993698696958702],[0.030730176740336297,0.007865723291495536],[0.03171298700598851,-0.0018658397497746649],[-0.028494185583231923,0.0018584587747517676],[-0.012716933588705858,-0.0029430323812058953],[-0.006204340165343759,0.02134317986101217],[-0.030375491652295535,0.015922283880403013],[-0.02392002662542039,0.026539915740520992],[0.0005914485390371717,0.012926163305369661],[0.012067791910660033,0.004059714609470906],[0.0049156000672293115,-0.0009426558117689179],[-0.0036299478228700105,0.014117466249428025],[-0.016693938229586276,0.011915968481690638],[0.0061646123318588285,-0.0368304647810393],[-0.013793652330826942,0.01793417117818833],[0.0378317249926345,0.00816370428179862],[0.03402614779390613,-0.0030148242569918975],[0.02255423994458542,-0.011397720099215199],[0.0072793813891930004,0.017610033247336954],[-0.020733002468799257,-0.044775449785978944],[-0.027623833359928993,-0.01971929148956441],[0.02454102332539927,0.005315040213588265],[-0.05716637649189324,0.004352904770740025],[-0.00725790399311037,0.007130508429853936],[-4.304278069182637e-05,-0.015733889575732296],[0.0021855851735460177,-0.0006019146622968345],[0.001625438661827441,0.007679585364028105],[0.03655646813638201,0.021784712639072345],[-0.019813692468967494,0.0046414713025745595],[0.0006215413508681199,0.025505792976702604],[0.001096584194727924,-0.016779791775803785],[-0.02752352314517917,0.003925600950423415],[-0.014665716677583228,0.049334119484575195],[-0.01117858029820315,0.001958021947961045],[-0.014522799588755386,-0.031301942008003285],[0.00407816542600212,-0.029072351136969366],[-0.03318453694936861,-0.023013746970605164],[-0.009168874017207517,0.024647450742847587],[0.0073359542735030895,0.008851063493536027],[-0.008969409450743709,0.004797432692185664],[0.011777372048303892,0.0039586078804182395],[0.02530466189650194,0.019125715509029695],[-0.0018422830524458238,0.03559308030981036],[-0.010461523774286833,0.015508703334070414],[0.025826601326228344,-0.013450586170728036],[-0.01730065012145053,0.03420689144258257],[0.007217302374000226,0.02327785851577716],[0.03161114736679149,0.01898371727215059],[-0.017892633448766668,0.003653210623203342],[-0.01427507228859286,0.01567169420797442],[0.010089210879812453,0.008029810617923893],[-0.035618188593406194,0.001641498104706784],[-0.038707273250805606,0.001788490527244395],[0.017022541684686938,0.007330865785739667],[0.035907939655667166,-0.004444279425303812],[-0.0016499642444951492,-0.008142485574723182],[0.004488917009513633,0.008702668087638803],[0.01558255471619453,-0.013591484126297359],[-0.0012263059120528465,0.02100787412909086],[-0.022461411819731773,0.02913045006526663],[0.008405669951380893,0.02288961770489036],[-0.0024329837215166317,0.004662924605310273],[0.011238870965742914,-0.026712934816168273],[0.010288999147068179,-0.009528626541717659],[0.003308925385175474,-0.01371730765423267],[0.010918827514509772,0.009873561548524073]],[[-0.013974099065848372,-0.029015516855742295],[0.010383032437138801,-0.03669691086166346],[-0.008676118520385141,0.033734635455197004],[-0.03710637461186844,-0.0018478071227347246],[-0.007959474866559882,0.005110952080160295],[-0.009846228551114004,-0.024785397891186993],[0.011740151666804437,0.006485126102723897],[-0.013330585797502303,-0.0075850644659607195],[0.028249009022459776,0.023755930009795798],[0.005900439701063742,-0.03711560500752409],[-0.0055935357868437015,0.00951433366702267],[-0.004476445163130324,0.006059011142483954],[0.035721089324343445,0.00044225549634962016],[0.009055307442975719,0.0287300818720632],[0.0011450578715215241,-0.007055741682141681],[-0.01904855672993018,-0.00863107427185154],[-0.031174747210883133,0.01762981924503822],[-0.021528496657905648,-0.010726202949356336],[-0.0014181351426811556,0.004209500935707291],[0.016724893557227755,-0.00479712950402779],[0.004259642697352212,0.03461902344705526],[0.025111933972866093,0.02781923785241111],[0.02701810007799353,-0.004273542760696998],[-0.012051036404044696,0.015933516879307184],[-0.004840111588908962,0.027278410442486706],[-0.0005733817161769422,0.01784444078875202],[-0.011047567193832335,-0.008012660517005311],[-0.01345561297178386,-0.0030021851194380125],[-0.010564004865919558,0.023562443187352594],[0.005512094750257209,0.014100415619120652],[-0.01190252861936271,-0.00528448215417917],[0.015993834188016896,0.0015019119936736198],[0.004789760930383192,0.003439308814125723],[-0.010854577052000802,-0.011588652387873585],[0.008780357149555645,-0.0029953721540027295],[-0.008813853076989288,-0.0036014319068435677],[-0.0019914084922706163,-0.005125655944680913],[0.012896135711125722,0.005684757635684875],[-0.022801719055354542,-0.013143696203515784],[0.007361852081724397,-0.01582204965387273],[-0.022864799632707968,0.0003328945971418267],[0.026412800795392623,0.02896076254406069],[0.013378038026908597,0.013019052384605495],[0.003965067885129704,0.023230981133348372],[-0.026977872217433918,-0.008679537047839317],[0.005333089788624435,-0.0015331994398222557],[0.0026561095928601657,-0.02339623992749763],[0.025130821886033997,-0.009990604024532985],[0.025664091262334144,-0.0037984100237672537],[0.010939261340288272,0.013258501851809816],[-0.022753556156062425,-0.003802743038725687],[0.005131389339207827,0.018764133246417267],[-0.028546793283488525,0.00957331403161494],[0.0037281058468403173,-0.01131795215646564],[-0.0037592488241424385,0.021000173842467097],[0.0032604559092721426,0.016328496012368812],[-0.008528288831430472,-0.0007262090882049541],[-0.011666733370534551,-0.014131159140486937],[0.007195941080045265,-0.013015607570093714],[-0.023149998357632564,-0.01607796478015495],[-0.012083854093581089,0.01998539727223754],[-0.0014635046466254537,-0.004568703729394965],[-0.01979327875028595,-0.0031006571960519626],[0.03082418160029455,0.011853338406481615],[-0.02147198154658392,-0.016903726919824478],[0.03342541890098104,-0.03795320516772288],[0.02193189872234889,0.04625618734874941],[0.011384537690258852,-0.004973044949700713],[0.01006309334422346,0.0065777647599525695],[0.0017406410421445294,0.017608449745869587]],[[0.013613406915778555,-0.0019529380339504405],[-0.03753527958225007,-0.008802413715068503],[-0.026510491615507205,-0.023890855416622118],[-0.003545783595711031,-0.021692322052208314],[-0.022196000248969366,-0.000990806140636268],[-0.006177053940782643,0.006791138251165773],[-0.014320276617219699,-0.014802171118066027],[-0.017243874029666564,0.013987322370318299],[-0.0062036665738969396,-0.004716172628343042],[0.003311762355126038,0.005359335118271191],[0.004695774704161441,0.0200966252984725],[0.011625966800543263,0.0011721095265537686],[-0.012204342958164088,0.013884767425583682],[-0.013595215603852661,0.011540577067864289],[4.181676079993788e-05,-0.0056362292575067394],[-0.004319790953074495,0.014260395869600252],[-0.022621631996624463,-0.02776299869556309],[0.011251796268827927,0.006297754080647774],[-0.00010623745258853102,-0.02656924913798196],[0.014611532826872851,0.021940884577752215],[-0.0023753383854099247,0.01590164838553875],[-0.004409970219003197,-0.010862351523869747],[-0.006106498622680635,0.013512507077889327],[0.023503041840049838,-0.02893124685970083],[-0.0009483896718628605,-0.0008385827858644864],[-0.00491554285474749,0.006811921951960282],[-0.0031839468487991304,-0.007679563520733844],[0.012859799518718205,0.013309169331445075],[0.02061671523440774,-0.0157926338211196],[0.013567835370525819,-0.017951517470655744],[0.011868565876757192,0.0013693404675384037],[-0.013486220458329085,0.04785202921641767],[-0.01184557848770375,0.008553416386490998],[0.01124465492947404,0.0190015000266167],[0.008395603249354174,0.02574012562242383],[-0.007871928967979575,0.010202729266225827],[-0.005858006135195935,-0.0003092771638193428],[0.022719566357380837,-0.030846084008016108],[0.016792874259287407,-0.026811193751202243],[0.031196594683495588,-0.03190752558118102],[-0.024215584065305596,-0.006562254504046439],[0.0003063282163518028,0.00910659531739218],[-0.02961229641858604,-0.009340758523357567],[0.013097123725104742,0.00947496301799982],[-0.03169353257354205,0.016357386631422124],[0.036017232993330234,0.006763350911009004],[-0.0245558692904259,0.057471043553412766],[-0.0010185165044649222,0.008025137001302859],[0.02603407243966782,-0.0018493891170953997],[-0.0077549441819302,0.027065728022943256],[-0.008354379976511587,0.016380515532334914],[0.003884730896131887,0.003960545015253488],[0.0017581565327734004,0.018435851927030716],[0.000744867823751146,0.025416985153915453],[-0.016623355986866907,-0.013354795867526591],[-0.020911263613516133,-0.01887171103802299],[0.004749208413837033,-0.011652945031703464],[0.01150877805945031,0.02912127248670691],[-0.0244177368711351,0.008586071049022837],[-0.000282973861418517,-0.012243274943210002],[-0.0011626834264890618,0.02255393662436867],[0.004613004162942882,0.00411535580422604],[0.00831317248778184,0.012003914013809694],[0.01906225448667795,-0.005700644355610345],[0.007797611157022844,0.0020865739426541253],[-0.004835230280631193,0.007840247362542912],[-0.007003717360095285,-0.014432865029473427],[-0.015508862015825662,-0.05366739934369798],[-0.024426580301773426,-0.03660211343207092],[-0.017068373463582993,-0.0015915305829948788]],[[0.006470216326882973,0.019917547734568657],[0.017594997585037506,0.00779858319712334],[0.021085732764439393,0.0001297352510575018],[0.01831091202863302,0.003238893107720006],[-0.0006353487524016241,0.027444188163329573],[-0.024989481757556414,-0.0024149023984665276],[-0.0018433707980149141,0.018394436827904082],[0.04370039081303157,0.013339579647381332],[-0.0019057200868593236,-0.0012215180896369905],[-0.010419338094672636,0.0069523546044366474],[0.011688193537906441,0.010231480714712915],[-0.005931336765375607,0.011884632797095184],[-0.02392476522959717,0.0030535446150898333],[0.011360693456519355,0.008680622558445318],[0.006760722051119379,0.010954731777760652],[0.016337276566931055,0.012148379899579361],[0.010328725507520838,0.01112610068858029],[0.007988916030565583,0.011253010664266493],[-0.021994544160968497,-0.012154620675367229],[-0.03254650788750195,0.011959560416230792],[-0.0044723306624341085,0.014640893660604424],[-0.02269079100501829,-0.002030680643749688],[-0.010203142336868186,0.0007205834370341163],[0.01582256997785797,-0.008667949443887355],[0.01305520988088862,0.0003909170824610911],[-0.01936219627741014,-0.017767496228157025],[0.0034696142293023425,0.010442598024054933],[0.012020410736750997,0.014349913799708715],[0.032543867469759374,0.0251334219893301],[0.007620067217180364,-0.016696985034376926],[0.008876416808476199,-0.02596817152646522],[-0.018253594567278254,0.011334119050002037],[-0.007871453427188544,0.007396721376990902],[0.004044835741656429,-0.0007479211765865773],[-0.00704708536225525,0.008967999685148597],[0.002443592283266055,0.0015546931803471567],[-0.01080516642395441,0.025400151885806188],[0.0167173137075721,0.002086723229387515],[0.007200178146259504,0.02002894585531051],[-0.012034740337695669,0.0006436405057802714],[0.01465323768610961,-0.0077206954825317165],[0.010807605542122685,0.004816879382566938],[0.009241244199766583,0.0035097862409217166],[0.00944841438002442,0.006934464976252406],[0.008677137052610976,0.025397716906665847],[-0.017134485805158327,0.011244321142323849],[-0.005929097584698702,0.02295196556179124],[-0.024801196480617616,-0.0213933945899672],[-0.006794530219118097,-0.009852056874074148],[0.026172602353797987,-0.002871034908206613],[0.010917831768758409,-0.009897600196329433],[-0.01116110496989441,-0.011179136258789073],[0.00773676857965182,0.002500619674512352],[-5.25818040547979e-07,0.014527218991648758],[-0.0037038574685537137,-0.0004356613125507834],[-0.013022417015914299,-0.007685920633804453],[0.02529736240657792,-0.0020576792817404103],[-0.004721742118838776,0.0008775121154972164],[-0.016089966263036416,-0.00812818633062717],[-0.025387008867587487,0.0009046523562664562],[-0.0052716680394468245,-0.021417447152417068],[0.0029696724409292168,-0.0001682088902068262],[0.009671322586371472,-0.010802065157028667],[-0.009835621820742583,-0.00561638696465657],[-0.007396271577108702,-0.00813141703202849],[0.005775833080365581,0.0375739024520551],[0.001553569420487629,-0.0206623571450379],[-0.02656519077935106,0.02207333787419264],[-0.009774523462790292,-0.005434181529625425],[0.005997158557362613,0.01216314906370244]],[[0.05929042459850221,-0.018816066323544073],[0.012675115750400676,-0.009567941173077401],[0.03509366303031594,0.017462051318944235],[-0.020736979838087234,0.010976102884794605],[0.0043539279348486296,-0.019674134705093622],[-0.016580857254088026,0.028919618314230032],[0.018597246019752427,-0.04432748716261106],[0.010227301585879213,0.0037613834278615917],[0.004910246699174134,-0.038691260517209086],[0.004543294540546086,0.058000908802891965],[0.005293338083761535,-0.01955520225425749],[0.0047819495061822165,0.006885120395729745],[-0.0074487822442436446,0.029022292788409204],[-0.010945152202956256,-0.02777758687950646],[-0.016552954706039215,0.005350329141685537],[0.016873810423061197,0.02000288991039542],[0.011463683962791966,-0.00953382897014283],[-0.03805213374137201,-0.015770694201263775],[0.027315786089612885,0.010472387050002897],[0.0009402494177030082,-0.009733121538144537],[0.031958528561128005,-0.0038084084485263715],[0.010580778887866061,-0.0021898221090988212],[0.013613040046984166,0.014165253419859442],[0.024056129573991294,-0.054253358251456864],[0.047317393108746476,-0.02008442056513751],[-0.047844332173377246,0.033364040352967944],[0.00991386183180434,-0.012431807096354103],[-0.00542226308089431,-0.003117281331624576],[-0.02970579539276369,-0.007518461533850107],[0.02134084178352974,0.0058306326620806955],[0.0021461124778511882,-0.010445408985842154],[0.005921800527693527,0.0007655939599286975],[0.003382203429799224,0.014923736493845093],[0.0022545823605881164,-0.020260506105158865],[0.0393551632816638,-0.017485017636025574],[-0.003771480801919035,0.006326598462278312],[-0.019343785061244574,-0.0101196341084521],[0.010218307919252734,0.002244839429189664],[0.027238000336373847,-0.03173382412510733],[-0.011644718257771278,0.016943717254726237],[0.047291382444281556,0.007635649575166737],[-0.028592163073342558,0.03166329059172475],[0.024764345447471213,0.00230930246627299],[-0.012977412973655261,-0.007056900878981486],[0.012106235982577224,0.009528743795568367],[-0.013143414916153177,-0.010135117171614694],[-0.014657792646191277,0.014451945155001535],[0.018268917689789273,-0.007523507012756949],[-0.0004760106377992147,0.03587261790206864],[0.021305131904080055,0.012736696368491594],[0.023738186610481608,0.014208238268079184],[0.009664863243740506,-0.007531691650742915],[0.012936963230893415,0.04742548759206608],[-0.023460578064244727,0.0036308632951088894],[-0.01587226551977038,-0.024191539954621692],[0.03698139080857196,-0.002910449422922159],[-0.008423155562294822,-0.006736728496400504],[-0.017531407819226935,0.009914892818371799],[-0.022388666232471422,0.004621615257684068],[-0.027003474139807436,-0.006753188026996511],[-0.0019020079748316172,0.02301940105204381],[-0.005269267741388387,0.010414283939749929],[-0.03386601501025544,-0.005416526296392079],[0.01621597219954626,0.005887750908036964],[-0.007545271907188775,0.010270784564560504],[0.011250423267048362,-0.014200457582884502],[0.003415428465178115,0.016866278574709126],[0.030269004980252347,-0.012637107820565752],[0.00612198392553282,-0.02330606660391754],[-0.013883752150543405,-0.0023390243476789064]],[[0.020614297612927986,-0.0010265249301150557],[0.004914096494539657,-0.017565207620001886],[0.0028784231536100836,0.020213811714579775],[-0.0240105199380229,0.013877382280190635],[-0.02744155616266051,0.013532992655468973],[0.012599555948439776,-0.018763495749020972],[-0.0074395738481299305,-0.017649060147877177],[-0.05756417854309801,0.0017527014484808611],[-0.025339083047647377,-0.014073609529608802],[-0.0068448160190324,0.0020024788693902102],[-0.012500190126935118,-0.00894543797318967],[0.037756360828510666,0.028238714808108665],[-0.008165062818272275,0.026767525683704725],[0.007385716464044476,0.021838807820350126],[0.012385445234705063,0.009116498394676213],[-0.005453726664673003,0.04209207931227649],[0.012097048294764436,0.020795813696363536],[-0.002573628532537145,-0.03304735816282509],[0.01393236731693864,0.020209737700471832],[0.0055741557905435975,-0.009741353951155744],[-0.025073821032614563,0.023188092559848363],[0.023925511864238837,0.012929471168307297],[0.012793522566732132,0.004968300918908504],[0.00019466480491160546,-0.04401802216372173],[0.01706045536653361,-0.007222736032110756],[0.0022041278699805582,0.007098221391466497],[-0.0046379161072376,0.008937906392270096],[0.02069037082345508,0.002462401695342703],[0.0031132453795912436,0.0031962310355153805],[0.009950537272734135,-0.0014241209542241928],[0.012763575249787705,0.01933121656622564],[-2.0911669267951582e-05,0.008883020325703327],[0.028913822646423407,0.020915129232960482],[-0.011442904405330566,0.005243669329948648],[-0.010337180604484618,0.019623916946734536],[-0.03829605587127973,0.036180308343120554],[0.028148941741354672,0.01677790974025778],[0.003178369727854207,0.00654894001525944],[0.018268536986732545,-0.024470830208370542],[0.010531706748756238,-0.015462865257388162],[-0.029894160467925503,-0.013717667594966159],[-0.013692002822336447,-0.0010850711200210265],[-0.018359274331368042,-0.0013094029101748624],[0.01990769996090181,-0.005306553119692352],[-0.026782809159217803,0.013408433570283469],[-0.014086646188106162,0.01528457872076139],[0.016223704553226335,0.007780580392934147],[0.014206160300303063,-0.02534507154843317],[0.034215730485270525,-0.00836259425907396],[0.0057000293560625645,0.02916408263505648],[-0.004888687371256033,0.010506948238147164],[-0.023877809072949934,-0.008898890552549587],[-0.017626639722556545,0.04732837884844049],[-0.015230447194846224,-0.007948891636707252],[0.01982485802287107,0.002819236681599213],[0.0012479674656152714,-0.013490827975513153],[0.007353184589312624,-0.022422246981933198],[-0.01806421453830607,0.009754872657953172],[-0.002237854415663371,-0.010533942387701424],[0.019500615218323754,0.010640876277215583],[-0.02013830026617354,0.01914589719323277],[-0.018759270551669413,0.024969673995774388],[0.013509659446082522,-0.009555752409851685],[0.00754488361055803,0.02259210140433806],[-0.0017052473628363552,0.01286204917246474],[-0.016669250785632098,-0.008589619423730762],[-0.0058202262073481555,0.0029239164697270246],[-0.0021701831885768377,-0.029717628254755858],[0.016690990360895552,-0.03364123071853288],[-0.017697691740033706,-0.0007651110727204926]],[[-0.012066618331622102,-0.032840809646218286],[0.019332338473645835,-0.024486816823580768],[0.002051951251414775,-0.015612494739569296],[-0.003721222471134539,0.003977041280226898],[-0.02385385783777437,0.003145629431311025],[-0.009191351862881711,0.012127584463706605],[0.01478342099077292,0.00855980479002804],[0.04062983772418937,-0.0008076640536490366],[-0.010450443228281142,-0.009054365338035098],[-0.019659664279927463,0.0036115745673859735],[0.00023926961698195453,-0.00029493425454255257],[-0.02801648997271645,-0.006970462485642819],[0.02059813462403786,-0.009760021839820356],[-0.013851599234239993,0.019508185682945746],[0.012885243892064021,-0.010736386541037098],[0.011428066136711533,-0.013639323020869787],[0.004584337857596619,-0.0151332742115807],[-0.00885216921825052,-0.025411222195688875],[-0.010095474660240132,0.013718764128652017],[0.018943411554222116,0.009711102835034565],[0.017073883968137228,-0.0063047411846920524],[-0.002331914472824912,0.0014272123396065538],[-0.009516000983519398,0.015042656250673851],[-0.01709228851728244,-0.029427015611218927],[-0.018998571842043756,0.009253259450838634],[0.03067765882514903,0.010036604554124423],[0.009450781138680217,0.004033483433908495],[-0.005783086355107783,-0.016613597614138997],[0.001060725684608345,0.020625178330035628],[0.004355241909910507,0.06268353086915374],[0.0010165283196174732,-0.014864556527741414],[-0.002681141609704443,7.755133634645452e-05],[0.0038744502191098507,-0.004097069693933394],[0.01822408038567228,0.010990578196390367],[-0.01006386683814816,0.004011291681428242],[0.015734808011450347,-0.0030972675588864973],[-0.010961497525030622,-0.004487320592702547],[-0.024458353124260132,0.000614531020898336],[0.0011642234993063634,-0.00011275518789906591],[0.013340118068676101,-0.019222734827620245],[-0.024082388402516964,-0.007613742097290854],[-0.0006827840830911933,0.03628345713509977],[0.000998813786467296,0.016411172871204666],[-0.009248943444881988,-0.000541505238831249],[-0.00814906134270954,-0.020224811100690705],[0.0011600758946265534,0.02288647859873207],[0.03834505474030363,0.011864482729112955],[-0.01882338393893026,-0.009853483933138809],[-0.020962152184903292,0.0181844561952982],[0.011640771012781988,0.02177124746726037],[-0.013605120757227035,0.005706726977398913],[-0.023364387817110754,0.03698227083819262],[0.00115911111944734,0.032338273687740914],[0.039348949298377005,0.017618615197092877],[0.0068345031962231,-0.03823881206108542],[0.009083114932236477,0.010272802657907257],[-0.017131011778881513,-0.015311838320242424],[0.042736567825285746,0.005093377980858685],[0.012534001276752313,0.014321704753700072],[0.02465814098457119,-0.017483869008090836],[-0.008230745514342757,0.016211489940518423],[-0.013662420254760112,-0.0025277742536903604],[0.042055011854833506,0.006840320127608975],[-0.025079267008607752,0.025336381931170604],[0.017154326404529213,0.013091521400023218],[0.006079291171559006,-0.018362326523557324],[0.012612430293217899,0.003037390300740581],[-0.03766055979734452,-0.030323932605197453],[-0.013226884355883801,0.0026793013881859134],[0.006053652272421336,-0.014421141814316342]],[[0.026649342477723284,-0.033197799542673906],[0.030821879404792703,-0.04395788747281124],[0.024900497085282053,-0.010935877910095787],[-0.00040557885288909114,0.013557588486689488],[-0.011141555612397967,-0.008990272232915765],[-0.018087964710592035,0.04722022365663931],[-0.02127588208581797,0.0070673712191917076],[0.03665322468070351,-0.022072521234913135],[0.021264976761312965,-0.005236817151347569],[0.009242561886545446,0.014794590351060581],[-0.003940669540326434,-0.01780726232440662],[-0.006096903202892781,0.016623059069283443],[0.005701684851111386,-0.013371362574978424],[0.0011631152581756355,-0.012467350365122873],[0.001336991529552465,-0.047004781137700784],[0.017839212810711883,0.015628913878807067],[0.012361567686493637,-0.03804126702514191],[-0.013809976557957784,-0.009459576697155485],[0.03054271913942715,0.006097558114272705],[-0.032417544418858045,-0.03217864568808972],[0.03723863731281496,0.0035191343510480267],[-0.024995175412017984,0.017887089663455626],[0.017012946941239976,0.017034549627955316],[0.02832192615364367,-0.026327377081723273],[0.026282713278385585,-0.0015402215101948066],[-0.03391449325148524,0.02299864235695331],[0.035069786474465035,0.030673167345592563],[0.019935412634537575,-0.018490505223155818],[-0.004437427842828797,-0.029914099698096774],[-0.0017566514711520199,0.019074538550627858],[0.005874508981980436,0.03133376669088286],[-0.03166558975969029,-0.024372257293419138],[-0.019239744945243598,-0.01162650260227675],[0.008556976681888113,0.0002749738284674244],[0.004494211316595543,-0.02731083761982287],[-0.011792437764766435,0.05732543530748633],[-0.004245979630012732,0.007300023487223273],[-0.005986017295771121,0.02542853475389641],[-0.007771035886381806,-0.018129049775018287],[0.0045669169203642265,-0.030092325491157448],[0.018969689333192034,-0.012525951665824177],[-0.023010849657586832,0.018163404354203598],[0.006698639930302152,-0.022031200966331328],[-0.007034152877977217,0.01564070292558286],[0.014836202881061522,0.0009645852118235314],[-0.01067676692316994,0.0059225621215358805],[-0.016325117767014036,-0.032195588759267674],[0.004352535683840433,0.03757477719579695],[-0.007309353556657029,-0.016684056852931454],[0.048966402621069244,-0.005335526510201395],[0.02421615020117104,-0.0032130844754443963],[0.014749450518833564,-0.005418933189098336],[0.01928007611552697,0.0019281098550689246],[-0.011328080432511307,-0.031171680673310536],[-0.018607301129493378,-0.023372686388129456],[0.019881830810178688,0.02193001000737942],[0.020898849895764255,-0.005450227050603235],[0.002175305173845514,0.049098947460894965],[-0.024511512186965137,-0.0034276815413908433],[-0.0017965499284134673,-0.006896762202811705],[0.025998136742233773,0.002271270142235696],[0.012336466450597227,-0.009864681640337207],[-0.018354202810526868,0.04476198241546288],[-0.002260166070742558,0.0492121778783297],[-0.03918119816419996,0.043333746573349555],[0.005008674271883323,0.008350912983667977],[0.005608203436479289,0.009857162735485751],[0.008721226181243031,-0.009359517783929065],[-0.0033195215693977097,-0.03025488561599803],[-0.003948056347450708,0.0075033030246196425]],[[-0.001842637899542673,-0.007001138295933107],[0.017227246696408394,-0.013077674076236416],[0.013868498727959082,-0.005314941034336272],[-0.0035409310195341913,0.005170158304596389],[0.017100534441508653,0.003137763440718061],[-0.004570469647108583,0.0005949086135580443],[0.025934719383774597,0.004428673970797595],[0.023136120697752907,0.011934143731547095],[-0.005085407174874087,-0.009250311811581006],[0.02311686726688298,-0.00832887035398902],[0.02535523075506392,-0.0003831743912275005],[-0.05685436325272844,-0.023386321150639502],[0.0273342159867046,-0.01468016300163411],[0.011332146383649776,-0.032053234825361036],[-0.008850175255179853,0.009041875367145907],[-0.0038720583763597292,0.041214307552089074],[-0.03190493073756164,0.001945312777172454],[-0.02087551668704731,0.01917169674390646],[-0.0003130291314268371,-0.015111808461646645],[0.019658044399182853,-0.004088725735589227],[0.03848778493547664,0.026343646709384626],[0.021884750332747817,-0.007681893540389057],[-0.0063958008662734775,-0.014302331118802561],[-0.0015801320005144688,-0.005467550103133694],[-0.013052386301277311,0.008627999435429865],[0.015560992935412406,-0.02653989756335617],[-0.024074215971087227,-0.008360128343290784],[-0.01760940546064718,0.0015371519409304543],[-0.021005306781094038,0.006511483044192901],[0.000773221836309403,-0.002456415279261503],[0.00043109206245132417,-0.0029566689675144496],[0.01256992107687871,-0.0013688880335813673],[-0.0214710554771541,0.028398105340012407],[0.012637094135763497,-0.011237551483051939],[0.013044089984094813,0.026585994315944727],[0.010071072471427231,0.02846668108572151],[-0.019025961943778234,0.000870332035274932],[-0.017879982163157962,0.006901254164434099],[-0.03985574708418901,0.002416092902759829],[0.022992232306369972,0.02166085282959714],[-0.0017442922699424878,-0.001432728291470059],[-0.020830332451029523,0.015764357379167652],[0.03670302659159848,-0.01185422342438731],[-0.031729095282880884,0.003887302877125998],[0.020576423701076436,0.02601514738022234],[0.011032605951959748,0.011750251534855469],[-0.0088839765326733,-0.005546429484925909],[0.007693326681771349,-0.007864661949449852],[-0.021698192289189462,-0.008939070537616146],[0.007380562735649764,-0.008883993780444643],[0.014639561567098773,-0.010485503024081536],[0.019795342727678137,-0.007273880456144134],[-0.008182892296969408,0.011610637987386978],[-0.012253930133170655,0.02881951436870719],[-0.010569043765610802,-0.030994280814822774],[0.005049392030700204,-0.029223186842726522],[-0.03472073078930427,-0.03790477159483527],[0.0048453102740309215,0.0009381578655746218],[0.020014290743330693,0.027810390794610798],[-0.03098374650736483,0.012499088675947428],[0.009154545372825288,-0.007854772632315009],[0.005782473184700156,0.019072007798937748],[0.011817627902283622,-0.021997651589342415],[-0.032537862018566684,-0.0161290016282753],[-0.005475079468686289,-0.00770410968761306],[0.02567432253064443,-0.006877190220340749],[-0.00038938389644960865,-0.019534751913823166],[0.01357299860231548,-0.013036732822316991],[0.0009300478378918037,-0.021241548238177834],[0.005602085367661545,-0.002022377429022636]],[[-0.00032036130516685784,-0.0022340186200197707],[-0.026534284478263327,-0.029828625982828292],[-0.009679306016759585,0.005433309524427235],[0.008074898651648843,0.004948548721259358],[0.006851579488463015,-0.01713042983084333],[0.0022695684031870727,-0.021224782544118314],[-0.024720776033223715,0.008847428080691281],[-0.013088303588963424,0.0018247364362297168],[0.01136909047836507,0.011763794579757248],[0.004824884076810828,-0.016735714752589344],[0.002090451815897288,-0.008225542675881941],[0.0349537551301715,-0.008744975818003459],[-0.02274700437943689,0.012549277429688284],[0.0015600782191757972,0.004366149545204942],[0.006457419565095083,-0.025353274621271255],[-0.025198389025253076,0.023509482110299882],[0.003257217574654544,-0.0004278717664924492],[0.0185105751907362,-0.011203906098304841],[-0.002682995663437046,-0.016399015711005174],[-0.03757194089470529,-0.0038415519563272517],[-0.044849069891362184,0.023914470714696483],[-0.004111514602765111,-0.006506385175437731],[0.008559235981707302,0.006761679195545523],[0.010834052356742882,-0.009165700381664118],[0.010792618982072436,-0.006797527601329201],[-0.0031195811811869905,-0.0025914964811349843],[0.01124899952844759,-0.005958861848212958],[0.007714043317419996,0.022228971780555145],[0.013688955531156483,-0.007503351006772949],[-0.006535054821475464,0.005696558930066377],[0.0003043884677677994,0.018726585823923253],[-0.01467009494777656,0.0019044986941452059],[0.026012121932359408,0.01345241905506227],[-0.0021835297685527783,0.004580639964920395],[-0.02110231057931263,-0.013341777277500034],[0.017436091189124113,0.016033448814922965],[0.011517284632509778,0.007175196009243834],[0.009089850096978406,0.008014812859957584],[0.021746433304030977,-0.007182906041777307],[0.021174178026574023,0.003556162640575327],[0.0017329037771153062,0.003120642848470645],[0.007163555923175191,0.023432397480725634],[-0.006208466495142541,-0.013665678931614487],[0.005420531368775596,0.0004228103376599547],[-0.00015173192216754892,-0.016172562484663387],[-0.0009362376129255874,-0.012306342653070117],[0.026393495467926763,0.0007285410404070229],[0.0017902157014146334,0.021033565002926767],[-0.0005556157398296955,-0.0009771274626695164],[0.003970549632783739,0.018695837696166034],[0.001972792318423985,-0.026571925470606796],[-0.020346057501188584,0.006098236252908761],[-0.0068759821404247475,-0.010581310732210615],[-0.02223212398741741,-0.014143710846879376],[0.006255863839725142,-0.0170605905769305],[-0.015881549757801518,0.003664987592879654],[0.011070576355214393,-0.007536829828847255],[-0.009251872675710232,0.014281189849260502],[-0.005823430315409207,-0.013519438202834522],[0.0066702263763860955,0.01229420404412928],[0.0034561254694705917,0.000721889753826541],[-0.004220073860864027,0.021289353702411744],[0.000448647036214592,0.008821301830496798],[-0.0100774149784273,0.01593804635428854],[-0.007424324810407017,0.01240140381587454],[-0.012774836247380036,0.0027440975789976355],[-0.0051941619735842055,0.009674392320713597],[-0.0021152135782301915,-0.015295677273192244],[-0.011618509837456457,-0.021216480065661826],[-0.010541893590641336,-0.0010469711909605597]],[[0.03374880889361742,-0.01667234695206482],[0.005763950511952186,0.002165536866053787],[0.016213306706410177,0.01151325296456605],[0.018496644926629245,0.010334738087139451],[-0.014714859394546547,0.005307803606220655],[0.006903215581396003,-0.02045207719352272],[0.009821702404273446,-0.00998745361854621],[0.019641874281131996,0.00041701131485070183],[-0.015707003978463027,0.013514375997272931],[0.007027571872863557,-0.00991822640324067],[0.002588454989621569,0.0031423619129333294],[-0.026495985927611026,0.008909942942842225],[0.006197290883678725,0.020314289006769758],[0.015617261369565729,0.009636980839442153],[-0.006995169125546087,-0.01434232370194485],[0.011908682306510713,0.0004308613662419858],[0.0035131749231993026,0.00795055391891281],[-0.026854199768053314,-0.02884006575386689],[-0.006132921951352083,-0.0015149483072769967],[0.015592386739951836,-0.009787885473425401],[0.011494520352245675,0.006828588138784039],[-0.016061776579944308,0.0007814409703287687],[-0.010359803816267416,0.014007869625490516],[0.004913335474279462,-0.019436776571284276],[0.009830996996568864,-0.008712964329522383],[-0.014149825302247319,0.013782942219886726],[-0.005092363263740422,-0.008920354602142813],[-0.021342080961825965,-0.004507929322547694],[0.009111891873876605,0.014276292356351476],[-0.01558322106354514,0.02446309964000787],[0.006569065760305012,0.017479885732035634],[-0.006222358665619338,0.003046242760959532],[0.00029259172177967686,-0.0015986854768664503],[-0.01844184981713476,0.018397153610836388],[0.00794560240342849,0.005947701050405495],[0.02648504663791377,-0.0011627763311348512],[-0.00830823623566114,-0.018010091371558127],[0.01372256160900469,-0.003210537121973571],[-0.0010262581004572262,-0.013311609887589986],[0.009826366059497943,-0.018235766819382545],[0.008211632315369151,0.025970274949926327],[-0.01570967392088003,-0.004202036572603493],[0.026425571065379364,0.0013799600215338703],[0.0015476853776524128,-0.012119668184611194],[0.015166129018336905,-0.03387197842960632],[-0.007832559386694417,0.014894401133798871],[-0.01461898195524921,0.01559724800761226],[-0.013102114322797571,0.021101984753534277],[-0.005087681997169679,0.002042387050134468],[0.003736137236688272,0.021446542209414898],[0.027159972282657853,-0.0033514512012747903],[1.5594879094992832e-05,0.011833456748711056],[0.016051402622590156,0.010675178584156241],[-0.011364278757108,-0.02214258345543646],[-0.0008107604543826331,-0.0024554204001694386],[0.015479425338444906,0.0034880683645698452],[0.005103183786512077,0.01094241396717073],[-0.0077016329761909605,0.0019840873824927404],[-0.0046145955744114914,-0.002808107555177167],[-0.03772591863867339,0.010323344294536518],[0.001379075155422626,0.012590721761508253],[-0.020312150935337885,0.03374913679802523],[0.029081897855770054,-0.006356650801782484],[-0.013673875153128748,0.019062515455851033],[0.009764130827043357,-0.010852760269562904],[0.014796698100796184,-0.012404110960379357],[0.0010493681486112181,-0.005329576603790379],[0.013168436341780035,-0.03314558910100148],[0.00320920125971463,-0.013202265124772976],[0.01414405869670745,-0.0012593888572167956]],[[-0.010636723003604513,-0.02204370444372792],[-0.0012019553026238758,-0.006363251715773299],[-0.005872461920539828,0.03980974258477543],[-0.006193669377369399,0.0005071824325651627],[0.014045596983031896,0.016414718173809337],[0.0046096234809878765,0.0035881695000298964],[0.031637501840545035,0.00860378173281231],[-0.025203592159984464,0.0031259927637827707],[-0.012972808250853368,-0.018062211689046394],[0.00208287584856033,0.0015689183337188849],[-0.01719864979058135,-0.022178074015129487],[-0.0015346905004606291,0.019008134171639338],[-0.008057874817461558,0.027488585486584425],[-0.006764389638334463,0.011333610927571274],[-0.02996968841290799,0.009547673228324794],[-0.00871362131973532,0.036572609439383175],[0.010495337406170424,0.013854847019352919],[-0.03655240464117423,-0.010480968887852717],[-0.005415632819473647,-0.021999841500551204],[0.020547426370511598,-0.018635304593614472],[0.013672270455533597,0.0451308697146753],[0.029743428942411033,0.024566347958654075],[0.031019162609199034,-0.0017091668586724767],[-0.03258646986030187,-0.013340262645669173],[-0.007967852121690187,-0.003492504713865646],[-0.006334877786748999,-0.010739369529629096],[-0.015672802511604217,-0.005404526859769096],[0.004285771437334954,0.04157596879033416],[-0.016263229675837158,0.017479003142732583],[0.005793063432226441,-0.010312623600714867],[-0.012699688443755689,-0.0005499381804648868],[0.0274162963316432,-0.01281130778610239],[0.02119051123355556,0.0263360297926051],[-0.019085826311290476,0.002926333702815156],[0.024313285914414028,0.004931617468006602],[-0.001501776734801568,0.017067340513345637],[-0.024295107891313842,-0.017060938071161186],[0.021320580040246177,0.006592723912920418],[0.013948900584516366,0.017182076968769593],[0.017054613933918335,0.015103814580285707],[-0.008081850618881963,-0.015274877705603514],[0.0011514043508982354,-0.02811248384764133],[0.02741682325433554,0.006750089661522069],[0.006477995241153106,0.007744583324688718],[0.017946748481551988,0.02461705826176556],[0.028209896874603114,-0.006342177376484697],[0.017700367759187863,-0.013091277842732382],[0.014541444085792901,-0.022909367055659123],[0.0016623150007687654,0.013682382217915597],[-0.011742498135334772,-0.006771445810312106],[-0.007718318382332673,-0.017495507543094424],[0.005178291418961681,-0.021872819455880998],[-0.020646786282010405,0.04807701526677201],[-0.00137949124554454,-0.015912206545621303],[0.018217283223033325,-0.011194849911912493],[0.003468697821782977,-0.028671239790436287],[-0.03807997613654235,0.02438232263233903],[-0.018048056555494078,0.007215587161143986],[0.03241855499657956,-0.03525459431523026],[0.025111435653731213,-0.0018152913792854886],[-0.03499169587319169,-0.019096738225339367],[-0.012587084826812794,0.01679470832010407],[0.007570189586862016,0.008872202844056458],[-0.006223772782036106,0.02529216283156311],[0.022092292461437204,-0.008929516730698115],[-0.010966260356409553,0.0021542956244132434],[0.004286223557733736,0.031300873014638395],[-0.008079751093844085,0.02811606062432987],[-0.009021637387124491,-0.02504411451458328],[0.015251452598745862,-0.006828003900458868]],[[-0.009861342583639061,-0.02689785996861844],[0.0033567941018069086,-0.010290238646900016],[0.030143197700706694,-0.013896783551911665],[0.01965174084362252,0.025660083761816922],[0.03896149985921712,-0.024026436288106117],[-0.021546421682297194,0.026701970942875606],[0.02367292525365039,0.012410718742977675],[-0.014547106152624554,-0.0035538888264345135],[0.014522607903214965,0.012446791466876996],[-0.013112621770088989,-0.012593810885474172],[-0.004837949879889323,-0.0036724479199981464],[-0.004190846739026885,-0.003893882879465271],[0.01248427036952435,-0.03322287405215197],[0.007842374640537343,-0.017114679082270108],[-0.015592948401261682,-0.0004713997058026815],[0.009731606132170665,0.027217061253628386],[-0.008869229245829523,-0.00796111057855801],[-0.009622547375380945,0.005448015784940795],[-0.02034925345448499,-0.016918833966280546],[-0.01388335025106064,-0.00683229800642112],[-0.00365778927123987,0.008150588943551682],[-0.006167822630469751,0.01267956936211122],[0.006204912099212289,-0.00458554322901845],[0.004648950103892609,-0.021349251334494165],[0.02264839515664923,0.015586377631063675],[0.003870607801012061,-0.0066962056794208765],[-0.01710128289873019,-0.005701122528465056],[0.029181005204272026,-0.011900448937096256],[-0.042004324212473125,-0.017128512390699128],[-0.038577285522612505,0.026293650076473708],[0.004323821526820265,0.01977908043534096],[0.01543683130475351,-0.010421910925763143],[0.0008341308453385052,0.02091981390932492],[-0.00883527706114743,0.0017952612376709535],[-0.007099484356400016,0.008793975716747067],[-0.03225041650342008,0.0505672271532779],[-0.012467659466188658,-0.033547267399371604],[0.028063888101091984,-0.0054507152133047776],[-0.0036150938586945376,-0.022146427750753532],[-0.04282161934048323,0.02449258739634804],[0.009898607909330392,0.010522003342824337],[-0.004383312109120564,0.0069870770184839014],[-0.019477302222937934,-0.012190990397176187],[-0.010922781787355104,0.010567012779069337],[0.029549851171518315,0.0026694610880640974],[-0.019378307909830583,-0.004259712635457961],[-0.023056078211031956,-0.029892553419149197],[-0.005705638730134915,0.013621552689228496],[0.0010457034064002297,-0.010398086721786758],[-0.021955417648191946,-0.007236845581431558],[-0.02232601193402502,-0.024378853168468034],[0.0021435834085925696,0.03879103834920501],[-0.0008230422879873926,-0.021789363806102274],[-0.008436575844050182,-0.03247446878264518],[-0.0025444147780655495,-0.045841823426749015],[0.0029807083650591317,-0.0039908558452007945],[-0.012652453403986488,-0.019052801747000202],[-0.020351702819025576,0.03047149143353471],[0.038374996341725115,0.008553096704084847],[-0.00020800180560888015,0.008066649380117892],[-0.04256280347959052,0.013204030466623209],[0.034614916109619094,0.008676936141591273],[0.02902616714655336,0.03493726232999712],[-0.0027901623864788946,0.027082364446389243],[-0.01934760430607987,0.011858740417980861],[-0.012803361438475852,0.021950913416355623],[-0.015024335064703074,-0.011898166504853914],[0.0025363295410517454,-0.03297852158659363],[0.0282437323349364,-0.018813779851861792],[0.028611138447404386,-0.0066473531860397304]],[[-0.018609277873230815,0.0037793489036561144],[0.01780247179875145,0.0002403661780914153],[-0.01001461087280937,-0.043953969789184276],[-0.012740688294901822,-0.004992601724479245],[0.009041153900056768,0.0014753390794113883],[0.004129952563325036,-0.00414855747859761],[0.01731156540223259,-0.013979228696977607],[0.006048035463274053,0.000823056118966472],[0.002907635074667549,-0.018078867198338348],[0.011285934312898024,0.02179054708319031],[-0.00405276867579169,0.0004833339561907253],[-0.020326111374011392,0.02968269192918945],[-0.00946770897476272,0.0011761197519581726],[-0.006684799683965386,-0.0033108145684404983],[-0.018854635066038117,-0.00891609758918459],[-0.0058943012722724114,0.017699933724118697],[-0.0038202017507069953,0.010211778459384152],[-0.009624690030742612,-0.029200266648914466],[0.009944415684264941,-0.006613344758621206],[0.012029638482084897,0.020055194144980096],[-0.031176230676882438,-0.01625740197717191],[0.020310856378879884,-0.030812940515043255],[-0.0013601067997285935,0.008677203739298176],[-0.028373037085456874,-0.031185040963972295],[-0.021200464247100054,-0.01708531387407103],[0.026639908645660314,-0.008074180512855626],[-0.01920483730312523,0.008904746637143615],[-0.0005151212193899986,-0.006188181320699362],[0.004835330107589816,-0.004976514159428479],[-0.012520696964654547,0.0012775902325133735],[-0.013454764387955898,0.012352763392800031],[0.0006603731431252479,0.0053446043082145825],[-0.009717942044357523,-0.010975232257221084],[-0.015345539939355286,0.028158272766746387],[0.018778717013724796,0.0011439684641348265],[0.020858726476630198,0.03135925317883914],[0.0015416922040136193,0.03436171392217848],[-0.014683950660045873,0.011346569007261524],[-0.007750285880253842,-0.017935823917365198],[0.03767773149033808,-0.003992732039219203],[-0.006978711579239261,-0.02811456956540058],[-0.005351880606388882,0.0021639668600398495],[0.015606118391469723,0.00886157557480323],[-0.005482282495382784,-0.010989495698489959],[-0.02619307494650618,0.009051205904977763],[0.009898441140576805,-0.004418878995602876],[0.006640908643300034,0.01967292432558667],[0.01752122002054772,0.031021486781372672],[-0.017710182624415365,-0.021468530670919656],[0.006661897260993479,0.0037238259886327087],[-0.022963877914591077,0.021224822846175287],[-0.017773957576367787,0.016398543242152383],[0.017838422673897573,-0.0034808862325374336],[-0.005629379453701725,0.0029619620609920095],[-0.0037275819040035792,-0.018843864541000704],[-0.0018055932170650383,-0.028144646867598152],[0.0051023012275681285,-0.0023341690052240387],[-0.01636284376113286,0.03777917083853753],[0.019804326098821094,0.0027359871326214204],[0.015750802707311485,0.011962140127925756],[0.0195099458053721,0.00026339559523519667],[-0.011928810011800958,0.008954514287698247],[0.027229086932465597,0.005618963148529389],[-0.016084579520980885,0.02483230613848657],[0.010572641923442623,0.017420889214729708],[0.014887317422498735,0.010066441246892073],[0.03972220042394353,-0.029441652556579018],[-0.0189234277739721,-0.005070857117027582],[-0.016851306085165517,-0.022098507707283326],[0.0032182556779227845,-0.007855987155022809]],[[0.021070092095736306,-0.02149334967700268],[-0.018006952935065268,-0.0022810505189025765],[0.01785223549282212,-0.02355053959314233],[-0.03067466085086523,-0.015541144785307914],[0.009231580559447164,0.017765176067880927],[-0.017584045194445737,-0.004775696841811275],[-0.009800495142334848,0.020432114394786552],[-0.033233829132325254,0.004080375443520192],[0.019985858519524898,0.014942671214793602],[-0.011453167343172348,-0.012260975236832023],[0.028478062385621693,0.028414250672229448],[0.04540078573108974,0.017390079745001674],[0.002558257275713653,0.01960904831657439],[-0.0017611695202749142,0.019059930035535237],[0.008189845855895304,-0.0014917311423748069],[0.0244538913727366,-0.0010398624949786728],[-0.008862914065306048,-0.013648324292160924],[-0.00035863388563581785,-0.024966259506642937],[-0.015375544006728723,-0.007099523894226501],[0.005441260747957899,0.011063320289723823],[-0.013817866963719587,0.004476942445725176],[-0.004245289582182647,-0.009963353383602363],[-0.001935102863144341,0.024402069307809367],[0.004033381134201519,-0.0014954645262816402],[0.032917971015975725,0.010042661146405087],[-0.0254535624702893,0.001337529067063719],[0.006246172087328006,-0.005061438098050796],[0.0032122936124261703,-0.008841895106858332],[-0.012055860496241367,0.004931267331822731],[-0.018318544015486417,0.02294926795961756],[0.023750218728237994,0.030250230648626673],[0.010343226784673783,0.03379879430193637],[0.029403681871171355,0.012916975107368412],[0.0018373788067929681,0.05496752270825219],[-0.011181560245143005,0.018195603965804216],[-0.004502134955597816,0.020259180267915008],[-0.002023395591334718,0.02236692080891198],[0.014997395206378378,-0.0098206498193243],[0.030325613257225003,-0.021324748595067472],[-0.04350274335249944,-0.05060641343484512],[0.007152787782960229,-0.014717132099771452],[0.010598445941282827,-0.01061356147174748],[-0.020060561304246216,-0.03400036732128808],[0.012704988956421071,-0.010072938525629866],[0.028632669859657976,0.006699195216499651],[-0.0179868648413867,0.024885829148004867],[-0.0026858473486617157,0.011459025235842068],[0.015003802832582222,0.012003470086658943],[0.0017650941090425031,-0.04060865383592921],[-0.02349743350833567,0.02259123316638341],[-0.01706437219450925,0.024820307055338775],[0.010021187782666665,0.029441433286814794],[-0.002272614204456229,-0.004545163368836793],[-0.021785486460179727,0.008027365608230247],[-0.00870085584052562,0.013650825581647524],[0.0024547322736308596,0.01462312527026786],[-0.021225475537995767,0.020625718924883303],[-0.024749899167067057,0.001463492878696609],[-0.016690347363408693,-0.01842165932005791],[-0.013000738109789507,0.0051097836056588864],[-0.02694506323039424,0.005534383667912246],[-0.004105553714804691,0.0032315040005124586],[-0.03195885506220736,0.009705336531763286],[0.026876988676956093,0.042098131055206066],[-0.020982311555502564,0.005394068603217684],[0.004284584402455369,-0.0017151431440282621],[-0.03527371931686509,-0.02451417226737973],[0.029769271910078592,-0.022672297939281376],[0.026646623859824504,-0.03157561952388262],[0.015393895661267006,-0.016935392513618308]],[[-0.026165470459898744,-0.021622243145459935],[0.008078381776550347,-0.022021498328865276],[0.0003526547533511037,0.0072437404417193],[0.01599621755412734,0.009686437536539388],[0.008625516481322176,0.008180319746794024],[0.002016243923748747,0.017307028700759494],[-0.01210310082162416,-0.010277115841077043],[0.010382838132910698,-0.009106950374231612],[0.007329797808780168,0.01980036484980644],[0.004199172214465745,0.007760171494802014],[-0.02438272481444497,0.02087422055794128],[0.009960124899482716,-0.017150922837320743],[-0.036222047254824655,-0.0169815923766186],[-0.009125867361356774,-0.032233048398880616],[0.021316157073356316,0.009576082929349427],[0.0058525961181982045,0.01561642437599282],[-0.017517528552294104,0.013280362444521257],[0.026239330010975115,0.019285842833147028],[-0.025928133149344147,-0.019309544356393704],[-0.0184053495587198,-0.012542368286507425],[-0.017368493261000376,0.021105707649900284],[0.01719945185398536,0.0002590760408367281],[-0.007394460706467508,0.024934236552395316],[-0.01876952352533698,-0.011478838592696298],[-0.011552645951838535,0.00888336704417363],[0.013427216129001333,-0.016972945380156486],[-0.007230999491598906,0.011938486143855488],[0.006260222206691586,-0.01272614726554524],[0.00953867908939258,0.014918012007644747],[-0.02221057632812755,0.016894337295084855],[0.021559356624365915,0.016085008737930954],[0.006290774727260407,-0.030485294634940964],[-0.02118263155436652,0.009533461524346167],[-0.026926350689389422,0.0007032999911312838],[-0.020868923201043794,0.013960722433869746],[0.005789276990173484,-0.01298161605417305],[0.01130959825111223,-0.00019268435805876866],[-0.002738679733552338,0.0053238489991338026],[-0.03895169658334666,-0.022545296993450988],[-0.01063895255347085,0.010939242067041693],[-0.020512411880185325,-0.009704793075565824],[0.009628614651557298,0.02337651930703766],[-0.012388238379511661,-0.0019118811943429521],[0.0034792786270846665,0.0024230455964275935],[-0.004710019097677696,-0.003012098421152838],[-0.014236685451297661,0.020089456614842592],[0.01414537922433261,-0.0017536305809118346],[-0.010773474880006711,-0.003317033116707475],[-0.0018385131629349027,-0.0001298397012788003],[-0.0015497432919214542,-0.01675537285495435],[-0.0051534173615271715,-0.006285447039124504],[-0.018425056583006208,0.0013266114811896794],[-0.022479532961987375,-7.633173354036995e-05],[-0.007893302278763163,-0.0038716040017526565],[0.01872855524843391,-0.018035140530569312],[-0.020824841556819813,0.003335768982506263],[-0.0034071765903745735,-0.02324714467225609],[-0.025130082768424905,-0.017357684467741483],[0.03435865774447497,0.007093584614948755],[0.013777806399082774,-0.019811574464913665],[0.009690919897670335,0.024794127961506256],[0.04081248639700328,0.04504405408793037],[0.011536917245226746,0.0035210895263459926],[-0.010068696540203901,-0.006708956040471919],[-0.015106574380262309,0.0030142766861921927],[-0.01462427046654634,-0.0006960990530860186],[0.02084406968048648,-0.01507102600797701],[-0.0006049823011563442,-0.005477400816287581],[0.023694731283768,-0.018765357124765684],[-0.006298486242026199,-0.02517405953041455]],[[-0.02440037856606193,-0.006791918242078143],[-0.0014369810458260738,-0.008519114309328675],[0.0036342559477721926,-0.006263304475576991],[0.00994255433387093,0.009166030287861688],[-0.013541938566233109,-0.012449112737421272],[0.024360212896847266,0.015872250272842284],[-0.0007306876039133522,-0.006106031424447382],[-0.012915251690007505,0.001667699380834203],[-0.006068591241281626,-0.000841409188348255],[0.013515541365848056,0.016457108892926783],[-0.027744353023496038,-0.030569157185013265],[-0.008816566146066221,0.008231693732950417],[0.011833401849716934,-0.026296051528655717],[0.02782088114977105,0.028336042512751656],[0.012539502482495144,-0.023641593134294037],[-0.00896522609194739,-0.004372024918346973],[0.002784208481939894,-0.01461035339641473],[-0.01572525024063239,-0.00014698973082016148],[0.00031255771360267715,-0.009420348782682117],[-0.006492251896187501,0.0045372125014904174],[0.0024387391977729427,-0.015113433614356],[-8.57585663949713e-05,0.01330120527115735],[0.02982273722472887,0.0063675648835101765],[-4.7997921733486555e-05,-0.03814764201338875],[-0.008426665406902852,-0.018225256580802603],[0.004081128294453396,0.003525995168791128],[-0.022878513510104666,6.231808558086922e-05],[-0.03133434892654362,0.022397202942967234],[-0.005076880851952374,-0.025403221464837967],[0.004466979978489787,-0.03085015202943323],[-0.004983305839231719,-0.010437396237771353],[0.016255412156632926,0.0014247873432399025],[-0.014280601834892525,0.015053309472677108],[-0.023092508922183622,-0.015665350760479386],[-0.010429567140859656,-0.002189699026519207],[0.010266022431731392,0.035944574072383564],[0.011146399148999595,-9.778573860938673e-05],[-0.004870646637612034,0.013969552139452321],[-0.010789447874556104,0.009282400629344219],[0.025946444578965715,0.02113133306356868],[-0.017677682699696325,0.018530974090871587],[0.008621383745007998,0.010779138597995532],[0.03346303151139031,0.006511435065540215],[0.012156301782758934,0.026955449284818397],[-0.033925976102592,-0.01130445896929863],[-0.023656637895845697,-0.00793762634626197],[0.007751438487624705,0.017075532785592457],[0.011086512871559368,-0.012965499145230725],[0.03456452781372453,0.023230357397468326],[-0.0008341989569033165,0.010986063351917411],[0.008865519329167848,-0.018551414988930145],[0.002530975757779375,0.0009522526688396408],[-0.013706092763924385,0.013687318170816528],[-0.008083555847095353,0.015298972655984726],[-0.0032507498345164644,-0.0375712536660625],[0.015491076278488652,0.011542991825689736],[-0.02124244476361342,-0.02785035816498751],[-0.0418500150978233,0.038428165669974125],[0.007894984741746365,0.002335472146994561],[-0.021499601053733587,0.011144724188088723],[0.014785422732376603,0.015579980150430498],[0.0014861664996394354,0.007660622639901632],[0.008479788617827696,-0.016684670626046005],[-0.010937645531140816,0.0088729329592824],[-0.0050020842282703145,0.018134597794710074],[-0.005152415052693924,0.004969348875298201],[0.04549749729153296,0.0024657961824574868],[0.002633409401546957,-0.0279119751908697],[0.02726456571118764,-0.03231997060204735],[-0.01014409814113845,-0.004294858874518883]],[[0.014657763855328302,0.0036828590264286498],[-0.005587098484968968,-0.007470942124633862],[0.02494072734266448,0.011727228131699241],[-0.02565151394807273,0.005660006015686291],[-0.029205732369722,-0.003710811297176965],[-0.0022856968787804887,0.022271733777339226],[-0.004076650342696994,0.004560015236833436],[-0.019219913036791398,-0.02331015716090077],[-0.02262569767327791,-0.04001594168012568],[-0.01323199064018614,0.029597542004957518],[0.0033868130772869093,-0.027237590511165644],[-0.0026101001637984776,-0.02054341603984701],[-0.018773146951750357,0.0031031446173783355],[-0.03406234908392022,-0.03204423718541515],[0.007259431621892318,-0.0029800804291805257],[0.028621166438840915,0.03549443627957088],[0.03167822292525379,0.024833317166126658],[0.0036053341796652596,-0.01878975359213163],[-0.009113040697080039,0.01024331289731453],[0.027445713605181984,-0.019305304530722392],[-0.010555937969120088,0.02908109719637224],[-0.011593119043893582,0.020498038787083544],[-0.010708969156868267,-0.007281327072611393],[-0.017565908341619044,-0.03413081398997392],[0.012680990160700477,-0.0003939352730474362],[0.0011372765319114745,0.006380796183057133],[-0.007219266266870284,0.004945684135972565],[0.015434453862881621,0.016359919699918977],[-0.003659923238722783,0.022071429517061078],[-0.012115214164445694,-0.002079961807706991],[0.02732242763223231,-0.01819004721085287],[-0.003957680263485815,0.003635137165393907],[0.006480576644321052,0.013223393012655491],[0.0019448333519681994,-0.019404890672204564],[0.008179033208981171,0.004417293752595792],[0.0009882092743628446,-0.00547925515940049],[0.0044433959932836335,0.02610452956576779],[-0.002911216527856985,-0.006206538345214596],[0.022466523970397792,-0.0012105408075398245],[-0.009112145073307546,0.042364320521999864],[-0.006729137885143461,-0.020273174027217993],[0.014760619555091739,0.016271573014766772],[-0.02361375072860164,0.028140815447382016],[-0.00245033316837835,0.010126182252855668],[-0.0026730384827293387,0.006768383346135637],[-0.01527177610696891,0.01757376754017543],[-0.024665986814039975,0.01633243069506078],[-0.0053224110360241515,-0.008826123453353953],[0.005980419494201653,0.01568197510001361],[-0.02966876710249957,-0.0002437928510513592],[-0.00535770414980251,-0.021455741424577617],[-0.024835541453138897,-0.018220176415552125],[0.014261949671045665,0.028152350911504826],[0.01267473999820179,0.01825396877146713],[-0.0017415301214976624,0.008453191776786393],[0.008980472924416274,-0.047466898701294134],[0.015297676102227637,-0.003063322141572446],[-0.01706665103298913,-0.014038453567516576],[-0.018938951211732395,0.021466278970437166],[0.01354020847626987,-0.00827274212164327],[-0.0029665638966201234,-0.0092830966714125],[-0.013742367384149357,-0.005821912255864233],[0.015347932171529547,-0.020550728729736376],[0.010011532652642251,-0.019265754285316163],[0.001973023800779473,-0.015234405230011403],[0.0003164352360553438,-0.01482645181237725],[-0.03183544419458877,0.005171183350521606],[-0.023914775350342424,0.043572664918201734],[0.0008369314907251115,-0.005940535872018313],[0.012615616944094363,0.010210385789819459]],[[-0.019567005133780187,-0.0063135246315654285],[0.02178270051186793,-0.005952924774236491],[0.009825305548660934,0.0255231017647475],[0.036005748770399186,-0.0028333558964793483],[0.006817605573229013,0.005509332829799186],[-0.027615286139922833,-0.00894256581323339],[0.001334191869019963,-0.041280229948072164],[0.031600037775361474,0.003002391643508516],[0.01750543531707637,-0.014468745509016468],[-0.018916579080646367,0.00643948592431458],[-0.005072839491453873,-0.039347883898811546],[0.001287355432379577,0.017404781433661285],[0.003511511531038441,0.027853876466899505],[0.0010532864847399574,0.03012040971273132],[-0.0011518575594587797,-0.0009691790179184761],[0.01064571502055163,0.021160659380191543],[-0.022642934730983586,-0.012730424834559778],[0.006027522237135507,-0.007355951272364058],[-0.03166120221209686,-0.0001554754091644369],[-0.027469495420998177,0.0011567514123637466],[0.002310521105149076,0.0029765958982459796],[0.014073132844344347,0.032046506426194936],[-0.015535760030355625,0.012123268568178506],[-4.6752455674084134e-05,-0.027340219502122547],[0.0013401740444871743,-0.005669092083933037],[0.009101378437392909,0.02041822728885956],[-0.011625498413693206,-0.013374801643481994],[0.01115456492059309,0.020416504985381854],[-0.012094711924756913,-0.034939270617456344],[-0.0015937257816070367,-0.05535563998778621],[0.014356331549125937,0.0076892869883160315],[0.004615553760320586,0.020152437204120723],[-0.0031106066566391134,0.02525217581480975],[0.0023571001605931126,0.0055793001385389725],[-0.012830472084905344,-0.00016055150251024326],[-0.0011846305761739613,0.031113084285504855],[-0.018393335364600385,0.0024370318511239995],[0.01512898718728176,0.006750970452774585],[-0.012421626065218702,-0.03865777562849413],[-0.03385294000419004,0.005523118804539484],[-0.004093305816520663,0.01652789117941436],[-0.0027860240307743538,-0.02204906777065638],[-0.012699299833252044,-0.013253442415049277],[-0.0014164060808530415,0.00048786288602867484],[0.01971658673204548,0.019755423095792937],[-0.010061490423208969,-0.022633902293951902],[0.01523186139087712,0.006638003432117137],[-0.024104454907038192,-0.020751084476605543],[-0.007052139304552623,-0.011580506471778664],[0.0032181173391583546,0.041126492291144616],[-0.023667732875929364,-0.005326362720450731],[-0.0015545382237583498,0.002138826706429813],[-0.030831680652187506,0.049567214060996644],[0.009373222378112661,0.003034603272957951],[0.005705328084434192,0.022410018535917203],[-0.015147133817838814,0.008512835676753119],[0.004830547906907345,-0.018343271831550954],[0.017854423161075134,0.017382381744208298],[0.03512997623831815,-0.012175643454834096],[-0.002121576170454543,-0.007915986654690363],[-0.05526962553157311,0.022868265151329205],[0.03981828766616533,0.019450049494978777],[0.02170777663681527,-0.00939520435546417],[-0.008882539057290622,0.029786608536421646],[-0.033321905283691104,0.014628392889815246],[0.00023254577926485557,-0.02541148351159024],[-0.004873520664573678,0.02524870852597816],[0.0013687152737648063,-0.045639704369385706],[0.003613305730860708,-0.01893573752885628],[0.010129883905220002,0.005803159346312195]],[[0.015286828025589467,-0.0068152022271666625],[-0.004449183399235653,-0.011225323041081647],[-0.008519705843697033,0.000295897365766193],[-0.012009796102922757,-0.0011716560308140383],[0.02396947323260274,-0.005630465675613358],[0.019726328646590192,0.016980932273025703],[0.023620987946250154,-0.003326042495014998],[0.023666000605274976,0.007753533479258009],[-0.017867912750942506,0.009938572822802945],[-0.011114905509577153,0.005065929905235417],[0.030165674384209695,-0.008616823752022062],[-0.018903214376885823,0.021513504362804386],[-0.01809450616433662,-0.019317358622978304],[0.007893239119818382,0.026605892008241275],[-0.02033410762812876,-0.048589181328177154],[0.0022524522203636542,0.01831060984806293],[-0.009933014716663193,-0.03976812508159849],[-0.012486855206436056,0.00209094299153324],[-0.02143339028284803,0.009844307074525948],[0.01863036189415755,-0.03343646291998805],[-0.008463416622127306,0.012913610930380832],[0.018539994222252654,0.05296916159691844],[-0.01920886040824012,0.017193643429479114],[-0.013461484264734737,-0.01900618158261292],[-0.019151199342156273,0.034167425933492694],[0.030497937006239373,0.0588691662895239],[-0.026447201628781763,-0.019769165644510523],[-0.030063445614483538,-0.01129122133438959],[0.01076179134112762,-0.0018010918877322218],[0.00986747732577204,0.014441442696116203],[0.008970191334195826,0.006363691926342179],[0.013850147373459722,-0.0020486030712331864],[0.01534876749760357,0.009241070833045059],[0.0008679149697973577,-0.020743841969280787],[0.02706084119128576,0.0009094488908352267],[0.00981054825438266,0.027979104309533667],[-0.0031344003019320257,-0.009503569882257864],[0.002235629983603934,-0.014958928297870227],[-0.014228557586881288,-0.01007526059289398],[-0.010419752761076543,-0.028264706591807163],[-0.014255246218515571,0.0019098820426886433],[-0.04067365404255147,0.015074761617577322],[-0.006874910453970361,0.02359785046164528],[0.012371103681545587,0.006594721824152756],[-0.010869631853337785,-0.03220064093248488],[0.007189944951993432,0.023481801989422988],[0.00917185476634384,-0.001534691240416693],[-0.015098380757340447,0.003031687032732167],[-0.013227978941722899,-0.0010222308689899168],[-0.004963230089152575,0.030275034766138176],[-0.013952151922152203,0.00993661190744258],[-0.0022944326572245733,-0.007755248247047091],[0.019249297628895636,0.02434622589030898],[-0.025888892537036894,-0.016027518926254293],[0.021227818664841958,0.009831252005478772],[-0.007279897428393714,0.011568372481558675],[0.0012265662419763904,-0.012704992494856517],[0.001705951958409461,0.01466305012999286],[0.014232573567201274,-0.019073062129937524],[0.0046999908699442115,0.001547587746696656],[-0.016033173499587258,0.034060038535958403],[-0.006952811723198165,0.0003977575907227011],[0.05272377970951276,0.007055171947874824],[-0.00708289451620624,0.009774241235394037],[0.03712975922769795,0.007327933632770676],[0.017946502137506315,-0.007742686135690239],[0.013446259457273036,0.022315917686333762],[-0.005843801112019129,-0.008283237696044592],[-0.008417477735776885,-0.015247553694326824],[0.021097672071779136,-0.003962614963157286]],[[0.028291098965912198,0.004398727345147955],[0.017215915046269462,0.006625310233720521],[0.013463255975643896,-0.0006566212431288499],[0.006394852377716918,-0.0015063947897279721],[0.015091142887621622,-0.0004833982776002951],[0.0024125594775583595,-0.028971814877872478],[0.028152234900709505,0.0004776973548408672],[0.009745801445963828,-0.02105281325540217],[0.030282161969343926,-0.002287698861667672],[-0.024167623830053116,0.0012520647446273739],[0.012058596042757157,0.006442264056576056],[-0.007552690436110327,0.004434711181067316],[0.011692111918198035,-0.010161148774798952],[0.006136996190001642,0.017237168849247607],[0.010019072945009736,-0.008224022702908784],[-0.0088093728582881,-0.02358228015471143],[-0.0017735881682817505,0.017675444694940725],[-0.02016912027083199,-0.014690825716666864],[-0.015701574867811867,0.009269929936412],[0.011137992522539142,0.005364646980458406],[0.009750675851619374,-0.003913009341360972],[0.012890670243803401,-0.031132087132281126],[-0.006079526852279402,-0.008782793525574026],[0.016314145268574342,0.028170494506305974],[-0.008999918114480454,-0.0024196656759717123],[-0.013521287453373563,0.0014886558044633737],[-0.010010543262694495,0.008533605562836341],[0.01452446216576668,0.007811646834457],[-0.019812419543558925,0.02072706012442536],[-0.00812539148050251,0.0030842873545075975],[-0.010857971195519261,-0.008316183050408422],[-0.001436967777501007,-0.018798705308478752],[0.01334514218482785,-0.0032728617356795812],[0.007232376581013337,-0.027120828520206808],[0.0009112335458114453,-0.00547104269436733],[-0.013089278695800222,-0.024143545265039063],[-0.0028580497602146682,0.010292685545410385],[0.02427348664349058,0.0024642012630436095],[-0.0064103360270115,0.006331611663669943],[-0.02570539229918401,0.007403193169604904],[0.002785657868198328,-0.0046697348496732875],[-0.01711089775210591,-0.00263644575148347],[-0.015862302105993528,0.020855562481310697],[0.016633560292817765,0.015329711072867477],[0.024845557695646104,-0.03921554135864076],[0.003615672785134233,0.002453852830285182],[0.017610156652866235,-0.044356407044136924],[0.01700258629974076,-0.0019006059446159784],[-0.0019481156467593065,0.02110766246293549],[-0.01587004678522229,-0.03098865789862327],[-0.026454476217540254,-0.006482188169384483],[0.007923790300586344,0.004723313959582788],[-0.011697987395717273,-0.006136671580207753],[0.0038228915936338757,-0.004749843337699722],[0.023403981695972326,-0.0022475493567436665],[-0.007663586494555615,-0.017024157942262592],[0.010356561040117361,-0.006609271562904952],[0.013919855836921761,-0.014951308585908492],[0.015102800224420523,-0.001792203056638514],[-0.008122444959864875,0.004087472622627754],[-0.018978920969193756,-0.005958578590670644],[-0.01127576869017092,-0.0012114824900025518],[-0.008113160111005492,-0.010546525835489802],[0.02565174903651897,-0.016466721804249143],[-0.009607366113529022,-0.01952063250892336],[0.02883815526523255,-0.02402482240512945],[-0.007966106338858088,0.010712185426542002],[0.01491912864840206,0.013250180025347124],[0.02485698868906821,0.03223874179215359],[0.0023672933935658252,-0.007501439614809799]],[[-0.0008790297202155208,0.013651173809339194],[-0.00953784841292278,-0.0129968272558633],[-0.004148875165517636,0.016629469367059314],[0.00731541435000153,0.003847824951998556],[-0.0055005067809741634,0.0097788134430789],[0.006577994708266291,-0.006174881407568992],[0.03606751902587162,-0.006441854708220136],[0.02648226004401378,-0.01556840129017036],[-0.006306885067558592,-0.018405311506099458],[-0.0063734663990522005,0.02953802799976971],[-0.004767478705944415,-0.01604859325418003],[-0.027286766504143314,0.00588356381621491],[0.015344860253652165,0.015111174091276706],[-0.005978520247542388,-0.01101185035584417],[-0.007602946015649039,-0.005197677818445399],[0.011982161443967436,0.018726086329636005],[0.031693120068485375,0.02134688915080586],[-0.02787254732694684,-0.002308071914006438],[0.03347188334236389,-0.021444861305510998],[0.014237110573258776,0.0007369155465777886],[0.0414563698589988,0.02248330162757025],[-0.02153584739985446,-0.010705381044673418],[-0.0018603149511008349,0.038783088131440005],[0.01207864957303745,-0.017586075852686494],[-0.03413864273830634,-0.00604034939559745],[0.006601694712720244,0.003423009317326234],[0.011403442759022962,0.023050562151102787],[-0.005214769085775818,-0.016431493732877816],[-0.02422977010197225,0.021953917262477543],[0.013745428743644574,0.0014667513700089832],[-0.025003754832282392,0.01665558788695665],[0.006957097170260203,-0.02482554313170385],[-0.024739139622370666,0.01022003652502055],[0.017266357544803056,0.012179039137586733],[0.008601681960761609,-0.013398277213755222],[-0.00018571718301396483,-0.01592310235999217],[-0.009736484683816311,0.04588939677963156],[0.002342452833426131,-0.00971495533175982],[0.003532413727206863,-0.007822355055446036],[-0.012090872706602439,0.036536150440577064],[0.029881936795980214,-0.028228003247588167],[0.01117662154286693,-0.0034333726223285755],[0.0196192258966795,-0.0041666972518086395],[0.008966811893080028,-0.015548736026575544],[0.00498622302862343,0.012130467951609327],[0.005818647180125455,0.025539887525332844],[-0.011397898826996372,0.008004023014173592],[-0.007974322814751276,-0.03048744932179997],[-0.023716049658689578,0.006101995440141159],[0.004825705801574251,-0.01547638544034609],[0.009191018975208293,-0.010672218707754135],[0.008013373408445882,-0.03133662955211657],[0.007042895780975702,0.011482780001064034],[0.032263363196247064,-0.0007580315359610062],[-0.025294416157311147,-0.0008863800601174128],[0.018255766221800446,-0.008905597898482876],[-0.005395057472412034,0.010587628139963536],[0.027711450549688176,0.006525802714867528],[0.00789531750478728,0.00415038516150874],[0.0042622147855387454,-0.010356627204198332],[0.003209054598855025,2.1359487049031622e-05],[-0.007127525379666726,0.01722162560667507],[0.007731626383076808,-0.0024306942394759406],[0.017132997981884623,-9.484758704441168e-05],[0.034931780156831675,0.012568012394075373],[0.0045050930086709216,0.01526433296065178],[0.014306013363115338,-0.015530593887391324],[-0.010198271221182328,0.024041224022207236],[0.0008417228203833199,-0.005592264691534141],[0.004079125057153645,-0.021715098219606717]],[[-0.03923030452285979,0.0027764117661230247],[0.03215395970272552,-0.029907237413579736],[0.007587500104677807,0.005274999463767218],[0.020692324439045583,-0.0072799354056972305],[0.009009320267249396,0.003343504427038735],[0.0013817195457556334,0.006987546400624668],[0.004483148614178006,-0.011947338600358152],[0.007617387095083312,0.007891648625915473],[-0.0027534011218436384,-0.022481809383104845],[-0.0171357194855811,0.01202173393207323],[0.00035949879363562746,-0.01611198191710756],[-0.026306979716785747,0.008372957661696502],[0.0029283861826998646,0.0214396354523876],[0.010140046695048059,-0.024076635343519514],[0.02211804625955083,-0.00521907016340214],[0.027908891791601775,0.04594077573002264],[-0.014106944170212648,0.036264764257358625],[0.01483029360862857,-0.04603499550297336],[-0.01907978304135001,-0.032701741013906126],[0.03292202644601689,-0.01063084487089905],[0.03180619283175364,0.03922406887097024],[-0.02179981523376653,0.035418372987979056],[-0.006025272537293004,0.008149876298891343],[-0.027445516504380655,-0.039703557136374606],[-0.016271925078772904,0.013107463776421725],[0.007816311074673092,-0.009747414168986529],[-0.017386012317692667,-0.006900595896772442],[-0.02288606735863217,0.010156275705598895],[-0.013557200906487793,0.006224363272938276],[0.01611015579215074,-0.010388508981273057],[0.0010777074259087493,0.006920057818946905],[-0.016250494585670752,0.008671438440494016],[-0.016950937203627447,0.032319096583080825],[0.0003678869142098907,0.005161539924995788],[-0.016400208542374416,0.0038569106676395416],[0.0063793522330321765,0.04390342280658379],[-0.012650506763279298,0.023898699347384988],[-0.044458434739408435,-0.01560932770619823],[-0.02641335814840573,-0.025616629813498052],[-0.0052559241454090645,0.016607971346058147],[-0.018059881248281263,-0.006184509565852984],[0.0018450645370583947,0.002893513952699669],[0.021785167088279274,0.000218478774136059],[-0.025757264816651068,0.0010726218623318328],[0.020325614286566315,0.009866683422915908],[0.0009173521636342087,0.0023673865861086425],[-0.01792377584249151,0.0377032638668864],[-0.011243422222520692,0.02225392876440248],[0.016178685842715396,0.004219063354778384],[-0.007572110310363324,0.013567764617739857],[0.01841730597547698,0.003079601159720895],[0.016929890228951854,0.019393301572871932],[0.017984285198545648,0.030076055394198248],[0.019876430698695546,0.00041834524500454474],[-0.030208663114502713,-0.015707691680836224],[0.00021719014260247835,-0.034397978661785664],[-0.0006949054917904491,0.013956204985972318],[0.006933096387863486,0.03853194971655406],[0.016143425875599852,0.001466869587114407],[-0.016961804436192832,0.027573136527949682],[0.041920840105514466,0.009529935743486515],[0.025710116318090545,0.009384243746901255],[-0.017486255895019155,-0.00561528391023341],[-0.0007124876858448496,0.013101903268991117],[-0.017485297552156116,-0.007912441756844026],[-0.008400195805264084,0.003657131451458756],[-0.004821253410723949,-0.00982419384577771],[0.004884371594825127,-0.010213677383688502],[0.033016317218213284,-0.030759254987408342],[0.01941000279732355,0.007575357130602691]],[[0.0036285461578002935,-0.01821999340531156],[0.012580998663048,-0.005738823729163288],[0.020516104479815615,0.010053345831755822],[0.030238521439864167,-0.017127042566179664],[-0.010914010436107027,-0.01218419193510169],[-0.003249931154054148,-0.006698242007043368],[-0.005182979997121197,0.015653282713530066],[0.017543043819850432,0.01021888311162215],[-0.015667649105522333,-0.00935726755794633],[0.003963783791050406,-0.004429625065719868],[-0.010206015087572885,0.008807703349808313],[-0.008279361222156827,0.019266797765724736],[-0.01794095623172748,0.0050207140143157],[-0.0006938616402611389,0.013186696225020366],[0.009150837203817153,-0.020998059776189733],[0.013049136550012589,0.0057234427735189984],[0.028718154570491622,-0.002211885643926547],[0.015473709126952149,-0.004901858129994158],[0.027613888410714216,0.00871217552634332],[-0.024735394803073085,-0.02736731110994588],[-0.004459796892698012,0.026665565629090882],[-0.01856051938804337,0.006214727374153059],[-0.01850015248139746,0.006657407144705887],[0.02174564359500537,0.01811031017841391],[0.016371013705768392,0.0055821432637212665],[0.00762824088779894,0.021780162722635797],[0.004683308954627843,0.01961251270789963],[-0.009000558032526996,0.0052592605920560205],[0.011636310207095664,0.021035391069619245],[0.0010192740893127507,0.017587137531638188],[0.008597087989789365,-0.006144697132332552],[-0.030387057416250536,-0.023165178971908285],[-0.028331402394203585,0.0020658532058576186],[0.003755066501409122,-0.03499805055717484],[-0.008120467076832328,-0.01620385835517351],[0.013503583467862207,-0.0015094664827735491],[0.007792456633899386,-0.0005715467072822909],[-0.024412863089850245,0.006035053891537416],[0.01196184721779701,-0.015128330419016905],[0.016184574912393612,-0.029200971288158784],[0.03619700497363924,-0.003215169528848631],[-0.012333401657595604,0.034364432504852875],[0.01068785667118716,-0.0004931980460661763],[-0.0064845834349531355,0.011139769994814266],[0.011289314080454905,0.012396217963134684],[-0.037108574854028825,0.005683988972637474],[-0.02332413400117272,-0.033105977154925637],[-0.010465208060014948,0.003185004943532608],[-0.008837357263686235,0.003841469779262808],[-0.00949587173196038,-0.011346682362852387],[0.011546005537389228,-0.004034967504074145],[-0.0026017730953074867,-0.024237135016189015],[0.02520995586782248,0.018049852429976514],[0.0040153023263650636,-0.017907533683446046],[-0.02851175076259538,0.014248877900395866],[0.016427186286765143,-0.0002172913695228819],[0.022919024567959426,0.009891684369203235],[0.0008740105326959645,0.0036121941950071285],[-0.034579429025521566,-0.017255916265258558],[-0.009262027336121751,0.006563661736313066],[0.028933164337394943,0.0060425957125681915],[-0.01099526462290537,0.01033054288737969],[-0.006115662442757347,0.013886054368686949],[-0.03729198681964037,-0.005382863076586641],[-0.01274079271769682,-0.015337010658438562],[-0.00031042017062762797,0.005403254041098123],[0.014231519457568016,0.041919107555349035],[-0.006012283923698784,-0.004718476848964319],[-0.019208423083755817,0.0016316097814811881],[0.0023954514878202398,0.0021900080910241546]],[[-0.007233075979241976,-0.0032285030759795167],[0.0038239233051221375,-0.010302703866047378],[-0.03250949100424702,0.010943566952806873],[-0.0066461979892344595,0.0002475568368572379],[0.0007436019846132609,-0.006913757077089515],[0.011051171124999905,0.030169025768272694],[0.0005725138525820368,0.00956821863151339],[-0.030537887789181522,-0.03158463930567821],[0.0157716251702658,-0.014711955304962233],[-1.3495907342305977e-05,0.006658566384702426],[0.01784464134485543,-0.018581768551188],[0.016373415496778114,-0.0050742012572356264],[0.00274100996082197,0.017508434343805168],[-0.0003396887259404927,-0.039249072781064515],[-0.01627483330199074,0.0011736131217926766],[-0.02835780669842379,0.01822995997135942],[0.0025968089051138015,-0.014382147283739967],[-0.011508922024922472,0.02301147854835022],[0.01863792526112366,0.00033074285152159236],[0.0002114840092075779,-0.010300208927951002],[-0.03836582000690445,0.0020614069695580185],[0.03319798716415744,0.0049186673402828104],[-0.013551221353650809,0.015007613792152581],[-0.03113129060622498,-0.010076467780867298],[-0.032900438756996137,-0.01838229906658086],[-0.0007828252828438261,-0.018282242335440166],[-0.01208548453122509,0.02171537806410824],[-0.0006453916558874428,0.002704455269297157],[0.03718535798072488,-0.043587663639718686],[-0.00956819659235982,-0.03842345928264483],[-0.01753495882685367,-0.004487404502299755],[0.011613590830527296,0.003599071070878634],[0.041239253748961084,-0.0012333607856579059],[-0.023156109035072963,-0.03254673902227573],[-0.01395886945267919,-0.03201269706859057],[0.0034718250936096678,0.0007046518044480472],[0.014090464046409734,0.009949692151144413],[0.023692720604191437,0.0008553267851885646],[0.027240896755863123,-0.024439263392549232],[0.009823808411767077,0.036727944284538454],[-0.031399380087702884,-0.007981476716216808],[0.007049042754025816,0.017219591551013175],[-0.021007002750052035,-0.01745380687713518],[0.03946188250579238,0.026664585536863305],[0.003264672601699556,0.04565653267434554],[0.011909200849991787,-0.009733154976172538],[0.03997777738380005,-0.007139669815789259],[0.007556395844091211,0.02348367963625529],[-0.008362771743554731,0.01330558269227483],[-0.032098463147427606,-0.012247004176467883],[-0.03455197830000139,-0.010218358596244682],[-0.01264479212593636,-0.023679143355092958],[-0.02305249875100009,-0.01635228387519063],[-0.0011189386324944126,-0.0073169202526039805],[0.02993329100459824,0.008546575558695521],[-0.00527590148400881,0.0006784108059447872],[-0.006230389124262783,-0.01594559201867412],[-0.0036322549561414157,0.01115975551123889],[0.0037642670567199377,-0.0018072990374776079],