{"Name":"RbmSpin","Nhidden":16,"Nvisible":16,"UseHiddenBias":true,"UseVisibleBias":true,"W":[[[0.00502952601951074,-0.011643365922028174],[-0.013856432434925549,-0.01886076361808807],[0.008099913487775607,-0.004560446502332426],[-0.03757603706238913,-0.008456800276364187],[0.023650767626432118,-0.018196053100425512],[0.03418823397885662,0.02129572282009837],[0.00013830273192473987,0.036943012719237604],[-0.008725383634010849,-0.010160758491963047],[-0.04068195358752619,-0.019801629080654404],[-0.009353147763760353,0.012236588768973],[-0.02013075876554705,-0.020127065903374243],[0.0022448696776118594,0.02006966285204099],[-0.012324603888695222,-0.029128899768198404],[0.04455608583538741,-0.023493793005710077],[-0.03267869323369365,-0.022570415459989092],[0.03150370051608894,0.018198495104186342]],[[0.016432144144425585,-0.014372189340904801],[0.015219083077546384,0.004296627416443849],[-0.02094845227786711,-0.021809440403077945],[0.04368737006513501,-0.0005906710925364293],[-0.040676487616166365,-0.0010844256561468877],[-0.04909942643529003,0.010951500382215845],[-0.013822061427296844,0.01571666548263002],[0.03697418392651662,0.017494877611106154],[0.034873870172332795,-0.02420328114810246],[-0.016160516282826026,0.015472699629822234],[-0.00897623959503821,-0.005744287550485231],[0.007536488023380343,0.014340173117541585],[0.027436326993446017,-0.027551718308699624],[-0.024028798573599505,-0.04067916353400625],[0.027861382491992135,-0.016656042569620517],[-0.01890293040478879,0.015444042424492384]],[[-0.0528508745625377,0.04516017663536447],[0.0605847696610449,-0.04087367312911584],[0.02517096539739349,-0.026202961942634478],[-0.011810803363742139,0.002964018682443144],[0.03918231141015562,0.006778114988885811],[0.09593669673616809,0.027137178441520984],[0.007563695723678639,0.015327287888485575],[-0.043908729442678936,-0.03926322837193677],[0.010214424161352318,-0.06970511466210688],[0.042744625299890864,0.023372954218315232],[-0.008744914223283662,0.03356210662117659],[-0.040564539637413105,0.03794124016641645],[-0.028367799033802488,0.011462314281828508],[-0.005582012232830927,-0.01793361253581218],[-0.027302886343146763,-0.010852770623576057],[-0.031661114086206324,-0.04655730199143052]],[[0.022421214579067972,0.020737134194090456],[-0.03349229457233015,-0.01927446615747175],[0.013925774506517568,-0.021036523084167903],[-0.029245027938896367,0.04168223710023511],[-0.02257333979776762,-0.008185865865001753],[0.04100331253204778,-0.003626202037130201],[0.03009443060739806,0.01503814553109722],[0.04946500418672661,0.05399391528823226],[0.04555761871847748,-0.021630408852147617],[-0.007528545299268515,-0.0321970380274889],[0.015273709879745651,0.01915285017408573],[0.012343941386113095,-0.0015630461244659432],[-0.0002306943427233016,0.04699030912099567],[-0.05140070725281881,0.03717014891527283],[-0.011271976637489599,0.017777205783405314],[-0.03704387962735597,-0.019559888508805495]],[[-0.0403296352061534,0.011155726431610979],[-0.001516951831152735,-0.01785462479371667],[0.036343883484768275,0.02688398822565649],[0.015663732655773265,-0.006073707756895757],[0.011942677709564392,-0.024397105593108242],[0.02498935028802243,0.0009071566779234302],[-0.014510326891013111,0.006941974312696397],[-0.030623309445486083,-0.02099035853202741],[-0.0035591925179783747,0.013723772478048983],[0.033965252064439566,-0.02562600685718774],[0.029438922686106556,-0.00970667605397365],[-0.01441743277194733,-0.0018306278442940557],[-0.004097144921937397,0.008060935934426722],[0.01577061214714135,0.013615967899606778],[-0.0024931941701109355,-0.007015498945087392],[0.0021555061169685717,-0.012153851397701292]],[[0.061055852061122406,0.037255926685712475],[0.01980016980290048,-0.06022463557244673],[-0.0430929161822982,0.01423982580866756],[0.021965593480830343,-0.006536138745708377],[-0.016082726267290546,-0.023372988863893614],[-0.034007968699029285,0.0009350977055010874],[0.007691734215696451,0.017338269879412425],[0.049717545377122876,-0.04801803668330833],[0.03450529067565203,0.0082406678957529],[-0.03370376253227696,-0.004443267390242856],[-0.07408383675404029,-0.04048649912205538],[0.06206831114856749,-0.01787222811220228],[-0.007650530500642904,0.00019204030487729538],[0.0022166975494486638,0.050689132735107015],[0.004147677640204667,-0.0013282895827747808],[-0.014492688384062823,-0.03956892036496783]],[[-0.035521595858661825,-0.04608769448291446],[0.05882697201949665,0.02668983282258848],[0.04710087640734614,0.016558051581796254],[-0.011320506966045009,0.012430301092538633],[0.04935736715945885,-0.0016075126062294952],[0.10463950978828965,-0.012884335867494899],[0.023231679046741623,-0.0035426239364116014],[-0.030477778520580933,0.08715140249387462],[0.022083499017929258,0.06934955687970884],[0.06418887273578391,-0.03818675712851344],[-0.015040761311127217,-0.03225812152635571],[-0.0010055291432853296,-0.03370412066342759],[-0.05051900349986447,-0.011280127731502776],[-0.017934143703191727,0.0229613341100822],[-0.05560503604864358,0.002684326301808121],[-0.04075257273918217,0.061758680496441384]],[[0.025808925212983433,-0.0071713772345897465],[0.012900701962740246,0.017824484788510703],[0.0354033335292978,0.03020312224677008],[-0.014051330926084897,-0.04248953089578731],[0.006164449262128044,0.0015992211189950391],[0.055619352741669015,0.003815548477665169],[0.030900532835559668,-0.013635368437179413],[0.0355515737481682,-0.09344182129932835],[0.04885201096108694,-0.0036118663984548395],[0.029164674566128444,0.04643388169068031],[-0.01192290625262149,-0.00040089433518960497],[0.05986971758904838,0.017911790072162002],[-0.03914955080104843,-0.032368995447596374],[-0.03602609602238634,-0.043867962566518294],[-0.03796389369828125,-0.014055124296395747],[-0.03118488496163977,-0.008414304207097028]],[[0.03159282894002624,-0.006012196295880426],[0.012455165823065047,0.038305694722924964],[-0.023643703132816864,-0.004663453281970331],[0.015821640481620217,-0.022922225953694416],[-0.0364216897237251,0.01645718631645008],[-0.05943411511127794,-0.011712308183039203],[0.006633199409725864,-0.00013312454920099467],[0.03428793388435424,0.010742735998189177],[0.013469889241379299,0.025818865999079975],[-0.023290134527497335,0.0002353101242956201],[-0.009146773943625402,0.01609461264265935],[-0.0033000700800999783,0.004354311629950404],[0.030463842922795886,0.005555326134553842],[-0.043256661949106455,-0.005752918748502905],[0.02096837226662553,0.01183378535789081],[-0.0021928123166483357,0.014836094891499702]],[[-0.045385304622657906,0.03546412515656665],[-0.005135446764369248,-0.04150766745649194],[0.03636579270341221,0.006162179574902624],[-0.010476360728846161,-0.01895366761745459],[-0.002719719507944634,-0.015401942554959767],[0.021403443150674883,-0.006417636547711191],[-0.011974142580158467,0.023331185820289622],[-0.032091178370910654,-0.06965958759888358],[-0.028676406327416172,-0.0022682926646472317],[0.025446148798673233,0.0191561728091443],[0.06944608654699765,-0.029066455744777436],[-0.05605490909022875,-0.00683535572679528],[0.013152540144184287,-0.001593675743690826],[-0.017076534468874804,0.042266603297849585],[-0.0010596408186798424,0.007375524684925033],[0.002835324263091847,-0.03916828574531325]],[[0.002354472040067743,0.026704328174716286],[0.004863445841019136,-0.03303514991194188],[0.04146777613949221,0.03023569011096217],[0.00485823174642651,0.018633081003535595],[0.0557282551560984,-0.0647035746203557],[0.01691238385837808,-0.021828842267372833],[0.02640816837395383,0.0016813410445257508],[-0.012582675487394196,-0.10829060533255956],[-0.004037973243991241,-0.05224769403591417],[0.04943213334624582,0.00266065791960277],[-0.022182308535058416,0.010801654090329639],[0.054487087344322255,-0.009228647038883757],[-0.058302010260669626,0.021823131668849447],[0.0014564492511437493,0.009696061640663181],[-0.06986651668869082,-0.0011434730724101576],[-0.0068321618859926315,-0.08658997664803471]],[[-0.014084108046574575,-0.0024080616200833093],[-0.001721817749371178,-0.010712956574343246],[-0.046760824731436765,0.05849208595529216],[-0.002483849974358429,-0.00025480688926464694],[-0.055096273932750746,-0.056596849540275114],[-0.01435207809239646,-0.022850825465500133],[-0.026031423812558914,-7.403578275070482e-05],[0.007280166895823222,-0.11884508035158559],[-0.009505980594968261,-0.02510395887746243],[-0.05185647693650093,0.007695255913922956],[0.013145397441675817,-0.0021570860303757487],[-0.0716545763950931,-0.009528981846339171],[0.066335593419021,0.006982003099043012],[0.0024600715164840494,0.005050642363322514],[0.06932960226911242,-0.005385045418888776],[0.008236840040673234,-0.0559474602374325]],[[0.03440326192273885,-0.0045599135276249165],[-0.009929936157550098,-0.04143297650711433],[-0.02198495008188873,-0.004247825887978171],[0.02784175724433339,0.018259743490490955],[-0.033382978823672686,-0.01798524536522495],[-0.08749452518832976,0.032251052959489004],[0.024088438104985694,0.008843351802643467],[0.023409822774516233,0.002854721997830231],[0.04992234696102115,-0.025228414237572903],[-0.0077928519848442755,0.002498364814659349],[0.019793954649012582,-0.024818706271238847],[0.016582243008435107,0.002536001672450096],[0.02728436920634783,-0.023373006621897435],[-0.06495905610998416,-0.01840357088221418],[0.04687991928676043,-0.028403259637520956],[-0.018201969927750267,-0.0020087405700677744]],[[0.01585578800912177,-0.031100981804145313],[-0.060391129077748254,0.047949673861490516],[-0.026406388749969048,-0.018753186350530172],[-0.011564020470714052,-0.050034462367217994],[0.013090765698361534,0.012939605925366188],[-0.023669857286958414,-0.036277145604786905],[0.05111392641350476,0.0247607987493742],[0.011957535572600764,-0.03400767285713278],[0.08484984059009687,0.008225258645862049],[-0.008510244077960132,0.02263447487633688],[0.021471287926288794,-0.010449296047002614],[0.00034629754752448384,0.004270092351124803],[-0.010143816625474604,0.004902075747822159],[-0.08049717426204833,-0.02898043008450433],[0.0030408169966178004,0.034478444034553524],[-0.061030999405382605,0.014389009641609031]],[[0.010807914755333211,0.03376933903979922],[-0.08083230081655193,-0.04203098145664761],[-0.032966365726171745,0.03183812940968842],[-0.023031175600562333,0.04093388052731918],[-0.003957326304497297,-0.016423751573907956],[-0.018863915911937115,0.02834212240297833],[0.049683819390869945,-0.01957416402378278],[0.025592781183635085,0.010807697988515256],[0.07939867430034758,-0.002179454642589848],[-0.029403990812474048,-0.02136922025633159],[0.029196982154738274,0.01993487956296913],[-0.026068599085226463,-0.0005347888706416105],[0.0072105763458464095,9.491089953958098e-05],[-0.08743779640110191,0.03651665141714784],[0.005658598172465292,-0.030204247955261335],[-0.059063691994632406,-0.018102444489099798]],[[-0.0324406256446529,-0.023103585883604547],[-0.04788230194158274,0.008260871909277075],[0.007576902048511094,-0.025017262295936534],[-0.0353545180691174,-0.024116322322600546],[0.008793816347263507,0.00774335833582525],[0.051233467704165384,0.003634648515856792],[0.019217353304944507,-0.002985213015769883],[-0.0031041682857550538,-0.0014040732283116001],[0.003105325213877537,0.006232137346209768],[-0.0028989405152736736,0.019525962804143374],[0.02756018969790474,-0.036777951724646575],[-0.050051978778932936,-0.012070725299155117],[0.0016666799653126327,-0.04077268202177381],[-0.026314179076094703,-0.0442780381398516],[-0.019978888873236837,-0.009766136294038899],[-0.022069562020058685,0.013568474271871698]]],"a":[[-0.0026394612981862284,0.005438250895876875],[-0.012608863181202882,0.00772476463165143],[0.011138713242315707,0.011057800807990707],[-0.009378876906004018,-0.03905327184003259],[-0.012908501657104865,-0.010530740135301064],[-0.019595391706208214,0.00333763005850056],[0.008043561398985356,-0.004647001119826332],[0.003460840954321614,0.01168169471770436],[0.025262191134207912,0.021072288667682206],[-0.02883536270154691,0.00919092955135875],[0.02194153529905785,0.013719138667623317],[-0.029647170265328107,0.002638221169674377],[0.028897546515842292,0.014848976811980658],[0.01429357951744067,0.01426594478514681],[0.004321689368903335,0.011364387033389342],[0.019781269529214326,-0.011038297837014746]],"b":[[0.013770374855300692,-0.0005479065418091537],[0.018013459257663428,0.002110602228978705],[0.0015465193864216886,-0.0004926104448817126],[-0.0002749382693561912,-0.0006262147589098545],[-0.0009097629765603009,0.0037915146364968177],[-0.014476297964999817,0.018106345800322485],[1.1034690529341542e-05,-0.005550124121639716],[-0.0035571855204754466,0.011023412537341737],[-0.008886844248883438,-0.002034595789051013],[0.0003496698226621336,0.0056491432917773875],[0.0051160714647110845,-0.005268484939772829],[0.010251754985214124,0.0028478930957367924],[0.014375493164790532,-0.0009132398097802634],[-0.00768101697977695,0.0037081343139317904],[-0.002229475475219425,-0.0071062162849412636],[0.0007667983730780346,0.033727838392343466]]}