{"Layers":[{"Bias":[[-0.008617226750322119,0.0063947448079589185]],"InputChannels":1,"Inputs":16,"Kernels":[[[-0.00021668404805833729,0.005534286869294247]],[[0.014606988201609248,0.012230469468045228]],[[0.0019133484558354619,-0.038772366523119016]],[[0.0004970035504691719,-0.012540180362384955]],[[-0.016631214324815978,0.004473036065457352]],[[-0.000780589149182195,-0.00663698366154525]],[[-0.0030003378694427344,0.010316019647485106]],[[-0.0063752834593924015,0.02265748454903993]],[[0.007198263122443253,0.011993562533699775]]],"Name":"Convolutional","OutputChannels":1,"Outputs":16,"UseBias":true},{"Bias":[[-0.008893421457659962,0.006608539833234775],[-0.0011564358953549368,0.005255538957755715],[0.013358764060473554,0.012956104089160876],[0.0001314622831028366,-0.03757432622791265],[-0.00039111233276171536,-0.011469143544356764],[-0.016939710758672125,0.0031076982964067463],[0.0004872168658860425,-0.005864748486642656],[-0.0035344560984834823,0.01144949324718582],[-0.00500703927662468,0.02220695236862204],[0.009703044210155429,0.010591530913806864],[0.02712078030077832,0.018197028224625433],[-0.015895474811709418,-0.002943272717392239],[0.009458561376789435,0.010522107148230077],[0.0078007782645087035,0.0176898162331252],[0.0002175011600066499,0.005457653366005678],[0.0032252854905088953,-0.00824692671124525]],"Inputs":16,"Name":"FullyConnected","Outputs":16,"UseBias":true,"Weight":[[[0.013507740297374645,-0.0029245241980798134],[0.00808608839010401,-0.012048705169624356],[0.003071273228745105,0.004947299695140738],[-0.00856269494658542,0.0032799310175650976],[-0.013687078809286619,-0.007029021027977437],[0.01178901791671202,-0.0034292475137700728],[0.013188327644631306,0.012375606262043815],[0.005698587737386136,0.025169591541208614],[0.0034399458731534842,-0.0026945528600565887],[0.0020258636689468716,-0.0010199610695424354],[-0.007737685128209162,0.004355809494213873],[-0.011540776736869532,0.0052582005396485994],[-0.006858046632866912,0.012699493756496889],[0.007753779427373967,-0.018203280298164072],[0.010001035087578825,-0.005437946726057162],[-0.008187114781221055,-0.015235823196673822]],[[0.01827258306237424,0.004915413960811743],[-0.0032730856498194966,0.007336267963975255],[-0.0019414695583438192,-0.007644635448498217],[-0.012574928646814431,-0.0053771271529021135],[0.011850350325348542,0.004362854180116967],[-0.006982870467358956,-0.0089797497917893],[-0.014320126769165258,-0.0010032310059368747],[-0.009431895181075501,0.0013791882890845056],[0.007146013491136083,0.007590921190983946],[0.015537895511248144,-0.01053074685474094],[-0.008573618769487604,0.0025753792133473286],[-0.00221438351267708,-0.012201626416702083],[-0.007211522631018171,0.0023332553855635535],[0.010433662878661695,-0.009253556908624649],[0.0008510597785210155,-0.011032129398578895],[-0.0003205204224864683,-0.010034827628310242]],[[0.00153747457296007,-0.0013295239566012693],[-0.0031960524300416134,0.002928892922437504],[0.016928362404627997,-0.013441465903671061],[0.0023145175825350205,-0.001108376560149062],[-0.0020675702772408938,-0.017129619259276547],[0.013797147489090302,0.014907223526970218],[0.014962600000579427,0.014503088543228645],[0.00014689527973890662,-0.00021005112183158903],[-0.012540982484083234,-0.00867219668631427],[0.00679326235405631,-0.01007285608630526],[-0.010112439639859782,-0.002857169369725527],[0.004107633789715075,-0.0063449458322077405],[-0.009979807796098701,0.0046091347292194045],[-0.01651825166415575,-0.004703054571888374],[0.007313338308054754,7.751511139126349e-05],[-0.006118626298528535,0.0013251068315545988]],[[8.464024820712054e-05,-0.0007695991676806241],[0.004625844784924006,0.007194045272767177],[-0.003369406640123753,0.0003757056546310865],[0.027455525730594225,-0.0039222905130006066],[-0.0138438931039253,0.0063873765376761754],[-0.0033065711353485712,0.00108936412907635],[0.012749783474839049,0.001674852088762269],[0.006292852129932396,0.0055260218647682725],[0.0029599259633611265,0.013260119108114001],[0.0028551204158552067,-0.005909618122358271],[-0.007642885355385182,0.003280130936245265],[0.01866756956164105,-0.007516790314472969],[-0.002553810511318297,0.0039118527189938275],[-0.0004129635493673969,0.008497942752543841],[-0.004789074808947482,0.017393048352440873],[-0.012724586348683576,0.011775965841705682]],[[-0.0014505314707620163,0.005638085771274975],[-0.008110261419376265,0.0040186990193848745],[0.0015069094226764406,-0.008044815132470557],[0.025937750854039206,0.021630462091129263],[0.016715165606194776,-0.009422148306519575],[0.004589546769674739,-0.014466360368966346],[0.005431121375529675,0.005926772727615097],[-0.0034966937180851846,-0.001036196102476991],[-0.008755113683979385,-0.008803215061962131],[0.00809697510950863,0.007817233501261074],[0.013782318897660623,-0.02356334536730298],[0.004463730374532533,-0.011852365735683107],[0.00423237861850044,-0.004026764673940232],[0.004860139763070765,0.002135442485427601],[0.0157045581657033,0.004383994756370543],[0.0021552004781865584,-0.007063744202983451]],[[-0.014515231108575749,0.01856137160843378],[0.01565664011416631,0.014766785250730613],[0.02301782625747496,-0.021179387624749742],[-0.008617115238322972,0.0077952609329611094],[0.00486337028175666,0.004548510541844587],[0.0010330044386976267,0.00421808126099267],[0.007988137175173349,0.006587839193869333],[0.003792731621150763,-0.002247820985151866],[0.018420012763004964,0.006367539704117418],[-0.001301971353277546,-0.0066392364933685055],[-0.013735097275414927,-0.0061715403663847885],[-0.017856036241561506,-0.009883041868087418],[0.006331897727007096,0.0032229619355705267],[-0.0006104585045960804,0.0059872845220466896],[-0.004170229246019119,0.006003431825370643],[-0.006993171852388364,-0.002308085126849772]],[[-0.0011293279546761691,-0.006394093958338322],[-0.013310446322786407,-0.010051155146867044],[0.003033884445718188,-0.0033713891076467242],[0.0038169433117030954,0.008783712001411282],[-0.012168917421001787,-0.011739253153526873],[-0.0035017551682152877,0.005768066618387655],[0.019623642413534072,0.004780239614123152],[0.0021467153913902184,-0.004527119899209719],[-0.002154461104835301,0.0017475159485855656],[-0.001646979216053615,0.002106987436124561],[0.013793359218432248,-0.008459735093842416],[-0.004075961910349458,-0.01814644118504134],[-0.005371665517021876,-0.005495479054501972],[0.010082195922464768,-0.004058254917188175],[-0.0051482271014093445,0.005215856763427757],[-0.0010432257565423046,0.007306332779491643]],[[-0.0036530026960639,0.013717273277919427],[0.010108334845532425,-0.0023764713471324584],[0.0034905090353143683,0.009841646184904298],[-0.01606093289504701,0.0193402942518121],[0.004218052283737452,-0.018457362717631015],[-0.001511268844729853,0.019352191675611488],[0.005124195626773657,0.01784297355899065],[0.0005776987952429116,-0.01022254243371122],[0.01557573143322088,-0.00920849372975163],[0.013917172915475402,0.0024007721714042456],[0.012701250964201266,0.020607309826997395],[-0.01574477429178002,-0.014109099204776333],[0.020229224297786355,0.01207608592401972],[-0.008330076412007864,-0.010629298993954013],[-0.005157468319058656,-0.0027424628507282194],[0.0065833934840960435,0.0011593026771462799]],[[-0.00968318849958388,-0.002855884537951337],[0.010453570796307023,0.0058993610359618235],[0.010028772300894,0.00043798003975457596],[0.00889114284282265,-0.017937328018511663],[0.0018668678813897198,-0.003121302870496405],[-0.008335114679817991,0.0014317479015192487],[-0.014664679603465843,0.004136758161531359],[-0.004336381521248764,0.0048652448231564175],[0.014940690804408773,0.012278856936821661],[0.003346435584224764,0.004549920017539041],[-0.005340340110222447,0.008417045847190007],[-0.005573401967635384,-0.001294503588531185],[-0.008827285284173583,0.005239500459025684],[0.011132617695797918,-0.009288897524559853],[-0.013450504217087624,-0.005584843734994013],[-0.007019278542874543,-0.0009120828556640013]],[[0.00033008906956854617,0.006634222235380748],[0.0015534097642688044,0.01673272767325365],[0.008302102170873857,-0.0061033967607418685],[-0.0002306442367004294,-0.009800831565611628],[-0.0030932144114743767,-0.014124587445612753],[-0.0008937295814947304,0.0009546527291267012],[0.0015603314423753708,-0.002700860700684691],[-0.003329984397624367,0.01451585021328027],[-0.0009589907114121627,-0.018360500886585567],[-0.018517178240369237,0.007563282296594877],[0.001509682639409869,0.014074433445033112],[0.012799395923104667,-0.009966138689789602],[-0.013919491903218102,-0.0015070480953334447],[0.0036439873028686455,-0.006382106470240897],[-0.01983323763649691,0.02776717205975514],[-0.012358655605760906,0.0064841845456598424]],[[0.006215498947481082,-0.004656408805854346],[0.0060026314228461735,0.002591126046773265],[-0.01456946642453137,-9.015837960220853e-06],[0.003371052518413624,-0.004131892145196496],[0.015283964030597865,0.0013828044889488919],[0.00467145879837331,-0.020302418359128587],[-0.010896298957600206,-0.01704403031320724],[0.015522608579353211,-0.012088025901942077],[0.009366123548079048,-0.01719472663534244],[-0.015609131338169756,-0.008483517539781372],[0.006984814862223615,-0.0027231295993506042],[-0.015751560717413345,-0.0015915908621884336],[0.013716997380787964,-0.020870750509461983],[-0.01106322598362531,-0.001010588923120035],[-0.007849741302322742,-0.00447890521668437],[-0.018730123235357825,0.00922009276757514]],[[0.010043262428225166,0.0038621001612449686],[0.0002984323676110304,-0.009622911029105993],[-0.005430605622751062,-0.008567686170477758],[-0.018699301015929568,0.011081047763494578],[0.01049855656734643,0.01599624602534237],[-0.013940322559063243,-0.015907046889827418],[-0.0003191726324665053,0.00344594482793356],[-0.002461467727426771,0.007664034149660648],[0.011090452185486134,-0.009946829804509108],[-0.010727368591740725,-0.011037767409493813],[-0.008598668790783894,-0.005265084577197568],[-0.019313800942047103,-0.0006645919218151162],[-0.01650034586315758,0.005751611337132256],[0.013770623624744174,0.004804526506455584],[0.0003144071964513667,0.001389746300793468],[0.010728920259605647,-0.009560434283527125]],[[0.014731103878610704,-0.0023057974360552866],[0.011005773270512343,0.0018131217213715155],[0.004114967942635268,-0.018857518284016935],[-0.004398466639495852,-0.006881189716122834],[-0.000893997795866075,0.015781758359965776],[0.004129480103622019,-0.005822068574029156],[-0.015207684418479694,0.002275589698137855],[0.022444633353733104,0.004040151928144318],[0.004806640531401386,0.007100269705192919],[0.01362081415712806,-0.0012463542821097961],[-0.0012799203798830841,0.006148953304649056],[0.009465804777261364,-0.0022279716518574326],[0.017261537068207444,0.006197737108043053],[0.0063584431033485355,0.009474443772073555],[-0.007079948941278616,-0.003930873764596633],[0.015645963344886684,0.001149294120129631]],[[-0.006579768832197722,-0.0007803252737105634],[0.01230741381206837,-0.001819008386839206],[-0.013483821893787705,0.007850673556921586],[-0.016495607907817095,-0.020873194709414337],[-0.0072414655270592095,-0.007109793377288591],[0.0044035896555934,-0.00252938793619741],[-0.017933485124789206,-0.015292064814014697],[-0.011763843179464082,-4.99721570550141e-05],[-0.0007862350774412777,0.0005102650120052522],[0.013038079324974739,-0.004153600632558361],[0.0035800055171242443,-0.006566198169687901],[0.0025081622209822945,-0.006097037436350075],[-0.009925021397886197,-0.008168556489919102],[0.007745631657520917,0.0048484670985267575],[-0.009306061259458234,-0.0035622497954901954],[0.003188399456183978,0.01814786251256505]],[[-0.001617636165591563,-0.007709260775144223],[-0.013193300123516319,0.013503325373034605],[-0.018559615999311677,-0.009858114990999709],[0.002996414503546049,-0.00757813545183019],[0.0054946579570751344,0.0034379635661037915],[-0.0036613316406618477,-0.009512083856071996],[0.005530677600719448,0.005258543376747128],[0.015428778901158895,-0.005415053643580382],[-0.00916657719603497,-0.0047166556877637055],[0.007726908543011341,-0.00975514310866486],[-0.01274402340642725,-0.0073720752433173095],[0.010969130376442012,-0.0038219142595834962],[-0.002983371782379662,-0.004289541906692868],[-0.008984497225318853,-0.006926248252866456],[-0.009089283749773722,0.007077194145404619],[0.0014420722544004141,-0.0025839778923937786]],[[0.000606249628237735,0.03633398480329333],[-0.006745795952027356,-0.003753029189062498],[-0.008565056201192554,0.0075824220491371936],[-0.007489861805533377,-0.02348890719886038],[-0.009756704596094753,-0.005016528999606106],[0.008059221418338163,-0.006549179815198064],[0.008106299678748752,0.0013491382662902387],[0.014219111649014479,-0.0041067698351641285],[0.008693446891054986,-0.003750769043530147],[0.004151557594041533,-0.013001784469760991],[0.0012351944012482627,0.0016533005856396083],[-0.0006029834285338186,-0.011297124872257919],[-0.0034821062859071864,-0.013389283023705057],[0.0024766058064457745,-0.020565433582505985],[-0.007632659621818248,-0.01629837484768124],[-0.001054021561360741,-0.005389838215138941]]]},{"Name":"Lncosh","Size":16},{"Inputs":16,"Name":"Sum","Outputs":1}],"Name":"FFNN"}